#include "tinytensor_lstm_layer.h"
#include "tinytensor_conv_layer.h"
#include "tinytensor_fullyconnected_layer.h"
#include "tinytensor_math.h"
#include "tinytensor_net.h"
const static uint32_t lstm_crying_01_input_dims[4] = {1,1,1,40};
const static uint32_t lstm_crying_01_output_dims[4] = {1,1,1,16};
const static Weight_t __attribute__((section(".weights"))) lstm_crying_01_weights_input_gate_x[896] = {175,548,283,163,306,1145,1405,1607,17,199,-201,-785,193,699,-641,232,-1178,776,285,-786,201,530,495,620,1421,304,654,485,1128,996,-508,-672,-1043,653,542,352,64,-355,-322,397,1243,-129,-380,762,309,-90,-307,507,25,214,-823,-1199,2247,-1142,667,-966,845,909,655,-1463,-50,-1060,-1704,-1541,34,-386,-63,-1673,-846,-149,-628,-1135,-980,741,-213,-485,-881,-1407,-361,195,13,-100,-1345,-368,422,-986,-705,-175,-496,-873,508,-357,-28,-489,-1220,87,611,-707,100,297,2105,907,-461,859,-1206,-161,463,92,-292,394,1452,-286,911,1576,-6,766,-450,-580,369,1214,394,73,256,-44,889,758,-77,-1035,-1571,134,1065,827,879,439,722,-197,941,704,-364,-354,577,1242,1067,682,249,1004,361,-762,-30,-428,-727,332,658,25,-300,-48,478,797,500,239,464,436,-1381,-180,2023,3,-1305,428,836,152,-1990,-472,-247,408,440,-467,188,-727,-911,-871,-1285,-722,-1410,-1058,-1398,-133,-58,-1154,-439,-1412,-1092,-891,11,-1106,681,525,917,-1229,-522,-1582,94,-1214,-871,-140,251,-454,-927,-479,1375,379,1029,321,-372,-540,-315,-240,1019,330,177,-829,948,-460,-2089,-183,-744,955,-242,687,133,-1490,504,-65,-2416,-1608,1081,2692,2053,1428,357,822,2460,643,165,1819,1638,628,1406,244,1292,1273,1447,1032,-513,-340,-223,133,216,-757,-1125,-727,-402,488,159,623,227,-197,-702,1074,-665,-1122,-1219,829,513,58,761,-1080,-2151,-779,-510,297,1145,296,1115,1146,963,-679,2460,2611,1161,-774,-1261,45,637,1040,-923,-111,-191,370,400,681,792,815,-725,960,-793,113,939,-863,-412,-374,75,-1282,-1295,472,-491,-711,-1310,355,-1164,-1345,-613,596,-701,700,-180,1072,149,47,716,1060,-75,-901,771,-378,-1138,1793,393,-1696,382,-22,1155,850,441,-378,1078,963,803,-809,926,72,1146,97,-693,-1102,913,41,902,1209,887,1416,432,696,594,1138,439,-337,964,157,-702,508,-329,-634,-311,-350,-182,-529,-184,350,-296,652,1019,245,836,987,-50,-63,313,-1870,-970,-746,-1538,-330,399,2643,218,-242,-1584,-871,519,1094,-403,-1433,-1669,-1593,-1708,-2205,-1601,573,-242,-1672,-850,-544,12,1065,-500,843,-210,-1014,-603,-1494,-450,676,-239,1181,586,8,371,447,589,-318,-8,1087,-9,-426,1131,394,-926,1607,-303,146,-428,1055,-445,-737,-381,-548,930,-283,-595,-473,569,277,-232,356,186,-1252,-828,-1232,-1810,-729,132,243,-338,-891,201,-1691,-1605,376,-509,-1488,-650,-1087,-1130,-899,-348,295,353,221,880,-1036,-407,237,-688,-463,893,897,1358,195,-265,-118,-472,-2005,-2440,-386,796,164,498,-943,463,931,-327,-147,2124,89,327,400,140,-9,-1335,-1358,-49,-978,6,-781,1238,531,328,-265,-781,-422,1251,626,-601,-640,-1,-327,-1095,-559,-669,-854,-173,-41,355,-264,-198,-1523,-2136,-1268,-274,-584,-1186,382,435,751,-281,-33,783,658,1550,1966,-1142,-59,-1283,392,-421,-1275,-857,-6,674,652,1121,401,-854,640,415,436,-50,-782,-576,762,216,716,-696,-472,553,370,-529,826,52,-246,660,-1075,-476,460,-736,736,40,218,-324,-966,-416,489,-35,-1398,-428,52,282,593,-222,-571,-564,336,856,-100,717,839,-629,-270,-116,125,-318,-50,554,-22,145,-692,1313,673,2829,1973,1014,2379,1854,41,-31,430,785,505,813,553,-1923,-2253,213,593,-374,249,-129,1058,250,-42,-214,-28,487,581,-526,-727,-1117,-2329,-1924,-2151,-1796,-1055,-723,-1476,-1986,-376,113,462,-509,-1135,2281,1258,-3438,2290,1014,1787,-501,-1055,-1645,-1385,117,994,-1206,252,186,-12,-225,-1223,841,-130,-706,317,652,-441,-306,-395,-46,1350,-70,203,-446,-873,-821,-540,-602,-1003,-733,61,-1274,374,-371,1173,-13,-870,-992,-133,971,1271,501,1183,964,621,203,-353,-1004,584,-1051,516,835,-1400,503,-1229,130,-345,531,-1065,-995,-499,335,195,-1174,-65,-1539,66,655,-134,-41,-179,-153,-1058,-1856,-106,-397,-796,-310,-1027,-38,-1104,-1338,-1242,-710,-1485,-738,315,161,-1239,-1282,402,-933,-180,-852,318,435,924,-312,-659,-544,-1009,-1229,1642,423,17,751,209,-318,-1034,-520,1035,-565,-561,273,385,-61,153,-425,378,-1018,-807,-1405,-1261,-2122,-948,-831,-1433,-260,-1978,-1257,-1909,-1632,-1682,-402,-822,355,236,-237,-190,337,-1278,-200,-1144,-303,-929,-450,-109,-205,-273,-1592,446,-727,616,-1169,241,-82,-793,49,-509,1242,-169,475,-188,-527,581,140,1476,-766,-876,-379,566,1417,1461,55,875,359,773,-129,456,767,1021,1668,1487,-396,180,855,-566,17,-334,606,-505,-160,265,-561,27,-566,-709,809,472,-345,502,993,443,718,918,1182,954,-644,1247,449,-667,-152,81,182,791,-463,131,-1231,-453,218,-1121,436,1166,-127,-666,1516,1277,1880,-355};
const static uint32_t lstm_crying_01_weights_input_gate_dims[4] = {1,1,16,56};
const static ConstTensor_t lstm_crying_01_weights_input_gate = {&lstm_crying_01_weights_input_gate_x[0],&lstm_crying_01_weights_input_gate_dims[0],0};

const static Weight_t __attribute__((section(".weights"))) lstm_crying_01_biases_input_gate_x[16] = {461,-337,74,-32,147,-446,445,-662,12,-177,-172,-2669,24,-276,-602,-578};
const static uint32_t lstm_crying_01_biases_input_gate_dims[4] = {1,1,1,16};
const static ConstTensor_t lstm_crying_01_biases_input_gate = {&lstm_crying_01_biases_input_gate_x[0],&lstm_crying_01_biases_input_gate_dims[0],1};

const static Weight_t __attribute__((section(".weights"))) lstm_crying_01_weights_forget_gate_x[896] = {623,267,243,141,-1334,-1176,-147,114,-380,-1136,-1158,712,-703,825,-880,812,-136,-124,384,-556,-146,781,120,146,1024,798,108,-4,-116,-998,484,336,-245,-607,465,-485,-94,-526,-731,840,1244,543,-1050,-204,1176,-1156,-550,699,-579,19,-187,344,716,453,961,458,-292,-331,73,1375,1529,554,-730,553,1158,1033,277,-226,1114,292,59,-896,678,493,-686,-780,-98,-680,-675,-279,-515,-1130,83,-859,-37,100,-231,-259,-944,-876,-123,-400,-159,467,964,200,246,-393,-167,344,1745,664,728,141,-129,859,305,1114,-634,510,432,485,659,415,892,-365,1598,323,-643,-668,-654,962,665,99,1206,-277,-216,197,-291,-579,-731,180,758,-354,-874,-882,-413,443,-233,-717,936,-38,-355,363,476,347,906,-335,132,-592,-395,4,-745,-1435,-116,-25,204,254,35,168,1414,-521,361,-795,670,145,-735,1333,1043,456,-556,-1632,-83,-138,-133,-1004,77,-1055,-619,-242,54,0,-253,1445,788,-958,-485,-417,696,41,-548,963,-652,982,543,-16,-129,476,-546,1013,-700,-681,-918,319,-484,203,-440,-1156,182,-401,-1242,188,-188,-357,773,-209,-1271,-708,897,-328,70,856,-197,-1258,162,-6,-14,780,1045,-80,-1789,-1024,1288,599,-55,-794,-561,-1043,-155,-445,-95,1231,890,253,-512,551,46,-79,-755,423,1114,-204,-424,139,-91,474,-336,669,-866,-738,80,-691,-720,336,-1311,-1613,-350,58,150,422,-436,279,-553,-856,4,-656,210,-938,-473,-523,523,1145,-336,-231,475,-286,395,124,871,1390,1174,-509,-634,-950,346,897,-355,-248,-865,-559,712,-233,477,786,4,-985,32,567,-449,-480,118,-854,372,-939,-487,409,-601,-324,-2,514,-499,-1290,-13,21,493,241,-1134,1106,1502,-109,-49,311,337,-633,4,-1082,463,564,1771,846,575,-673,541,898,645,-232,382,-428,308,240,729,-393,-1212,-1039,-642,663,98,203,448,493,-1028,-684,-93,-283,361,189,72,868,798,562,244,343,956,991,-500,461,1037,1177,-572,-28,-536,1122,157,-16,111,878,-550,1360,470,1175,390,-91,-702,1443,-558,523,101,10,-181,522,-549,73,932,-678,-973,-652,-1118,-870,-581,913,-434,257,-645,191,9,-269,99,-147,925,876,694,-525,804,-96,668,-269,12,283,218,704,-573,678,432,-601,-788,518,1097,-1140,-1877,159,1049,109,-117,-230,415,-252,-1417,780,-970,550,-1104,229,78,471,614,254,-1652,-595,-79,240,-108,686,-849,-879,-423,-728,-1297,-222,-1034,-332,561,-894,777,-470,-356,-622,175,-29,231,-194,367,13,-869,398,411,171,779,591,168,-382,-830,-324,-970,-1272,1332,768,-1233,-77,13,571,-248,-226,-665,831,-1138,175,1009,624,-1064,-339,112,-912,812,-442,726,-945,258,-950,-788,-540,-302,-540,150,-819,717,49,335,1025,413,-829,-301,1080,-227,237,410,-317,-301,671,-504,-169,855,-1024,-490,-83,-683,-30,339,240,409,975,148,840,-1153,42,-1830,92,-937,1305,377,-78,-486,-270,-277,-850,445,116,-517,-1235,44,145,8,-474,82,-263,-631,607,246,1004,-454,79,-140,244,677,902,255,84,-417,836,248,-1022,-897,547,-662,737,1080,-725,902,715,-602,202,-240,-1051,510,-825,121,645,548,1099,403,-229,162,1178,860,-464,-33,133,-616,-921,-1185,-632,314,84,120,158,-1064,316,-202,-305,122,303,-694,-425,555,753,550,-654,-561,-841,596,-489,-737,182,376,-693,-226,-1166,487,-209,409,672,-948,266,828,19,908,-203,-382,407,834,-2470,286,-797,-96,-252,663,-569,-775,170,505,1435,267,699,534,1128,-1026,160,148,1130,-352,1116,421,-616,-116,339,-490,-1,424,-643,-434,-310,-189,249,-387,-1184,-332,-317,639,-506,573,-537,540,-418,364,618,-553,474,818,902,-14,-42,917,-627,-585,-79,228,78,794,-26,443,-487,858,-1265,27,-688,-762,-863,346,-107,222,88,1231,818,378,810,-372,-1035,345,1434,-193,845,-461,-363,1143,-151,372,768,-6,-112,634,544,1053,598,-338,952,622,74,-234,491,-894,296,955,-204,-439,-649,-179,824,-751,-213,9,128,-854,-814,-291,73,60,-91,-388,333,-772,-152,-149,271,708,515,418,704,70,-96,1335,-196,792,1073,20,904,640,837,24,-896,850,-227,1014,-522,637,482,-850,-1156,747,-886,599,-220,22,748,-82,-719,-404,-793,-198,791,1005,789,-21,-112,905,-353,622,-683,-212,487,554,822,-1807,754,410,-330,-102,383,-288,-2135,537,-396,827,508,987,1454,45,545,304,801,-797,-518,85,872,215,426,219,-841,288,423,584,-490,-695,-289,-220,-748,-225,-805,820,-437,703,1159,-334,-509,184,-568,-512,-126,-629,734,363,894,-374,461,-104,-561,657,266,557,576,924,1209,124,-624,42,235,-57,179};
const static uint32_t lstm_crying_01_weights_forget_gate_dims[4] = {1,1,16,56};
const static ConstTensor_t lstm_crying_01_weights_forget_gate = {&lstm_crying_01_weights_forget_gate_x[0],&lstm_crying_01_weights_forget_gate_dims[0],0};

const static Weight_t __attribute__((section(".weights"))) lstm_crying_01_biases_forget_gate_x[16] = {-499,615,1151,-87,878,883,-638,781,2106,644,-85,420,544,-1595,-28,549};
const static uint32_t lstm_crying_01_biases_forget_gate_dims[4] = {1,1,1,16};
const static ConstTensor_t lstm_crying_01_biases_forget_gate = {&lstm_crying_01_biases_forget_gate_x[0],&lstm_crying_01_biases_forget_gate_dims[0],2};

const static Weight_t __attribute__((section(".weights"))) lstm_crying_01_weights_cell_x[896] = {476,798,-2077,-1260,-48,953,-351,-178,-439,677,-336,254,-773,-826,-926,-652,-641,723,568,-337,70,-617,602,815,595,-209,-276,-223,-318,572,277,928,-1068,41,945,176,146,991,111,-476,-479,-365,-652,1142,-270,-138,231,854,1093,163,581,-422,2196,-1085,1145,-211,-315,-391,-780,-1166,-424,635,517,-354,994,417,420,-189,512,1048,-412,208,946,242,-50,1530,377,714,-282,-486,-385,942,96,-141,113,194,779,1075,-764,488,-241,-698,-352,1308,1175,867,-223,511,723,554,165,193,-1020,80,-406,689,-78,-1006,-924,-788,-1744,289,441,18,-744,-1274,-1249,-1114,77,-97,868,-953,-2234,-1588,-281,897,-1170,-589,-844,-1150,35,570,-1054,1088,578,1001,-562,813,949,-306,831,141,-467,-384,1400,640,652,955,329,1052,-209,-236,519,408,-1537,255,-578,-50,1119,-724,1110,156,71,123,1202,-1418,618,-1693,-289,-531,-1393,604,-387,209,1387,287,549,1024,-180,-91,-214,640,-331,663,712,444,904,102,742,576,631,220,1391,1133,121,-352,-86,-446,-374,-1025,-1074,-1258,-1468,72,362,-410,-1209,-170,-317,1778,344,844,205,-684,-929,-754,-566,616,-1164,-392,66,2004,-1417,-38,583,-379,21,-1166,-2093,-518,481,-141,-1094,-1118,332,1393,-204,-355,-1328,559,1397,928,-779,-274,-78,1296,649,595,-256,-96,-709,80,-1260,-475,-161,343,-719,-323,-481,-523,36,-194,244,-126,-365,-961,-1024,1603,-130,-1859,-402,67,806,-1262,-594,-362,-1250,-292,66,904,1667,1795,484,1618,-170,-377,946,1390,-318,-1593,24,1190,484,778,466,474,-666,367,182,-745,-599,1378,1170,1283,549,497,427,-62,-360,-170,-653,-667,501,-381,-228,289,710,-506,976,1014,1026,-589,-1117,-132,-1011,-775,807,668,660,-292,119,-115,253,856,376,1261,-608,-350,-886,84,393,-916,180,745,193,1045,56,-1385,-1170,287,845,-1005,-1402,-1442,171,211,-826,453,1092,-860,405,-870,644,867,-434,-1084,5,-1038,48,238,-707,425,-225,-961,-427,80,528,-2,-240,-869,756,-477,-177,-865,-1101,1253,634,-758,-1140,-40,-1253,-845,-279,1140,1237,399,-183,833,71,-98,860,726,467,1049,-194,768,-261,133,-470,-24,67,120,877,156,954,772,228,-593,-6,412,621,806,-145,1141,133,1008,-500,-725,-648,223,666,295,-1254,-8,606,228,-1160,274,766,322,11,-312,-12,-962,395,793,-1366,45,-1486,-96,-79,470,384,-163,235,-256,-697,132,92,229,-716,-500,113,1008,89,-288,-253,-7,783,922,-256,234,326,165,74,29,245,-545,-624,675,239,1274,1497,-80,-92,933,951,865,313,688,249,-1005,-1659,958,938,156,512,-350,18,1471,-1172,-206,-375,-472,-951,1624,1975,498,235,-521,-397,996,520,182,112,-298,922,-2,1439,817,948,1416,919,760,258,-517,-584,-388,214,296,-1153,655,-648,-279,-678,97,-1110,306,-630,-438,-54,283,136,770,759,508,-913,303,1061,1398,-282,419,-1697,399,-1549,-191,-1172,439,1450,1019,486,261,-363,-651,1248,568,108,-318,912,-276,1711,-239,-318,1208,1156,-145,517,1317,276,948,192,762,-97,-205,1085,1039,417,1112,439,349,-621,679,-1510,-356,-604,495,-229,-56,601,-665,-178,-247,53,1495,-183,241,-43,-251,-1422,3,-244,-1686,408,325,946,674,-302,23,392,576,1368,398,109,760,467,1581,977,-335,632,216,781,536,-199,-581,76,-272,-567,438,762,365,-366,894,636,1241,-55,607,133,640,-347,-94,333,119,527,-678,1389,1561,-1467,-529,562,-940,704,1531,-365,3355,-923,153,1228,815,178,-695,756,2056,-1242,-359,1085,-402,138,275,96,125,-687,-673,112,-232,1035,76,1259,-251,-567,-611,-131,-178,-520,553,-308,-520,-39,328,669,910,640,602,-611,-459,182,404,869,1046,189,402,675,-40,331,565,112,608,-809,-368,-405,97,1048,-1910,-317,-489,-341,-1584,-373,281,-2,1220,1066,23,-426,214,-937,-1394,-510,61,-317,671,-1059,244,102,-134,-204,979,-125,471,-60,-178,957,116,816,-226,-322,939,731,186,63,-207,899,1702,913,847,938,244,913,430,294,-1077,191,452,1420,1584,-667,-1111,92,649,-333,-259,92,226,-460,-1147,-143,727,-904,-895,-368,1105,816,-232,1368,38,-604,68,-58,-473,77,21,-841,-561,838,-226,-411,426,-394,378,10,775,899,706,-607,1131,959,-799,-748,473,1219,100,767,429,181,-199,587,804,-525,1019,713,367,556,1559,181,-133,-663,-679,-521,1190,277,354,-1492,911,1189,1481,-264,309,-151,-226,153,243,82,222,-281,-586,83,-212,-906,1192,1208,997,-782,145,-261,798,967,838,-646,454,525,34,-605,-847,-72,525,-797,-842,-934,-188,-1818,-392,-354,-88,-676,-632,-165,-159,-355,-1888,-250,1576,-836,-1197,165,1360,-248,571};
const static uint32_t lstm_crying_01_weights_cell_dims[4] = {1,1,16,56};
const static ConstTensor_t lstm_crying_01_weights_cell = {&lstm_crying_01_weights_cell_x[0],&lstm_crying_01_weights_cell_dims[0],0};

const static Weight_t __attribute__((section(".weights"))) lstm_crying_01_biases_cell_x[16] = {2139,2131,2305,2105,2197,2131,2063,2160,1878,2224,2212,2254,2111,2172,2056,2157};
const static uint32_t lstm_crying_01_biases_cell_dims[4] = {1,1,1,16};
const static ConstTensor_t lstm_crying_01_biases_cell = {&lstm_crying_01_biases_cell_x[0],&lstm_crying_01_biases_cell_dims[0],-1};

const static Weight_t __attribute__((section(".weights"))) lstm_crying_01_weights_output_gate_x[896] = {538,1365,-965,-218,78,1657,304,921,206,160,-278,998,553,1232,1459,-109,796,15,1361,-646,146,-619,-493,328,1058,438,-6,-935,-170,450,-747,944,-530,507,987,101,-172,-580,-613,-285,1152,477,-1598,248,-322,-805,-193,501,602,-514,470,-91,1399,-660,757,21,100,63,533,-973,-85,-752,-746,-1053,-203,102,-405,-533,808,782,-614,-563,598,-396,-81,432,621,376,-550,642,-361,-254,-142,-265,-154,-854,-130,-933,-581,-948,-228,-74,-1242,639,868,553,-752,-108,802,1316,707,-298,-735,-472,838,-558,-88,-929,208,-1674,-1121,4,2049,537,-97,1016,428,-805,625,738,1130,-1383,-807,-330,847,-271,843,681,-446,812,-6,-695,-151,163,-754,513,-636,827,288,153,886,-222,-51,362,-302,302,-523,99,369,685,-1244,-399,1633,-668,447,86,-349,210,1704,-1020,407,222,-1144,-387,1115,-39,757,960,-1193,-2398,-1238,-1591,-681,25,608,89,-231,-1124,-611,189,-211,71,250,-1072,-463,-99,683,648,159,-204,159,677,-366,-277,-282,-609,-208,-602,-1067,-359,-1434,240,160,483,669,-394,-222,-985,-195,1685,-17,-534,-2894,-1781,1809,94,739,-261,831,119,1294,1398,-2253,467,-1428,-650,-1815,-740,-1804,-623,1811,475,-2485,-1296,-328,1727,1454,428,-1542,-225,1427,145,-451,423,648,1727,564,523,237,-9,-39,-260,-884,464,1403,711,-257,232,-685,-1,-178,20,-444,411,252,-1593,-441,2160,-1336,-1739,-426,845,2023,-503,787,-932,-1849,-19,-536,805,-475,-143,1775,1514,492,-377,1354,1357,-603,-2403,-583,628,541,730,-1064,-1135,474,94,78,44,27,-199,-228,1243,847,329,34,1438,283,797,-566,604,1280,1501,636,1317,1054,520,356,-460,-600,111,-1263,555,-1304,-383,2225,1703,1878,1257,-1107,-1634,1833,-381,-1728,2139,-345,-858,-886,-67,-1054,-1300,-1037,-750,752,-67,-575,-266,81,62,782,-460,-388,155,-944,-477,-181,405,-920,-644,-318,792,-1165,-718,-856,-654,-497,-720,907,-419,620,-163,-872,121,880,524,87,-456,-863,88,630,-90,592,-1294,-2230,535,1387,-446,-822,868,211,-680,273,1080,1131,-37,-438,-214,894,-262,8,1569,261,-120,605,-662,-516,-461,-904,-525,505,1552,1488,790,-77,634,476,809,34,1048,1061,14,1464,-19,649,-454,374,-380,-670,-533,177,585,-1079,-1434,1003,-934,185,-25,1067,-394,-266,-30,631,-443,1655,-865,-662,267,-1029,-949,-1496,-1477,-1662,-1999,-293,-2200,-1019,-655,-262,-1168,-263,297,1056,301,463,-72,64,-610,-795,524,-62,89,-211,558,495,137,-886,-975,-578,267,-484,-136,-522,696,409,310,39,-348,-1551,387,171,384,-998,359,1369,-538,-977,-642,546,1259,-693,285,-798,981,-840,1464,-106,169,449,-1076,320,-375,-361,198,629,527,821,-40,1113,1442,1380,900,1173,496,588,663,-511,-834,-656,-932,-691,-564,-939,-70,-1617,-1629,-1657,-948,43,-63,-1033,-487,-71,471,264,-269,462,1523,570,675,507,-286,-1264,891,-939,922,-502,1083,404,-646,383,740,-1182,-545,-101,239,-285,140,542,-740,531,979,829,118,233,270,435,924,-324,992,781,497,-454,-778,222,-199,-871,369,-748,-870,41,-784,-756,-1393,238,-1279,299,201,-844,696,105,-287,-1449,394,-288,-61,-274,-83,257,573,-545,-443,-720,-600,-114,-1912,-1894,-1155,68,-233,-213,875,-586,207,-475,1372,539,195,-114,6,-342,-706,-691,889,-25,402,38,-353,550,314,-318,323,1158,379,-152,-529,-382,825,350,-874,-616,-368,-303,609,48,941,-855,-116,-441,-1054,-8,1732,-575,539,400,-1331,1171,185,564,-1208,554,-404,-1139,386,-119,94,-507,296,731,-695,840,-499,412,724,418,412,797,1008,107,82,595,1079,-331,-193,-229,111,1027,-558,222,-472,1094,117,1245,960,424,814,1177,-35,83,1145,282,199,-426,20,-154,293,-1241,-1024,418,-439,377,-922,-835,-55,1668,-1333,-623,-972,-273,-452,-398,128,-896,814,-832,-420,326,-914,395,544,-1537,-19,773,-327,-534,-840,-265,-879,878,-201,30,-148,-229,-103,814,-28,-504,299,1133,89,-294,630,-276,-18,-416,-457,-635,604,683,60,292,755,684,781,955,-849,-23,803,-583,-1071,377,-798,-560,-28,-2391,-2179,-2370,-2577,-871,-471,-370,-729,928,-1088,-348,1017,-355,-972,-296,92,-84,-1073,354,492,-869,1237,593,671,-288,412,-48,-840,-165,366,972,-230,-374,-134,-708,696,785,-313,-1578,-192,-471,962,-258,398,-1390,-1186,465,-584,308,506,-91,835,628,1728,760,824,-119,-807,-289,555,852,-645,-711,700,473,1233,197,340,-691,343,1043,-46,-365,-75,1035,1761,881,-593,992,626,1624,150,-122,1565,185,-382,413,-248,903,187,554,-296,-632,-341,233,840,-198,-220,76,-426,-174,-1110,178,-789,-57,882,127,-759,740,1036,173,945};
const static uint32_t lstm_crying_01_weights_output_gate_dims[4] = {1,1,16,56};
const static ConstTensor_t lstm_crying_01_weights_output_gate = {&lstm_crying_01_weights_output_gate_x[0],&lstm_crying_01_weights_output_gate_dims[0],0};

const static Weight_t __attribute__((section(".weights"))) lstm_crying_01_biases_output_gate_x[16] = {238,305,813,2317,2427,1240,488,2141,1685,930,-1188,-128,2011,1256,2268,1301};
const static uint32_t lstm_crying_01_biases_output_gate_dims[4] = {1,1,1,16};
const static ConstTensor_t lstm_crying_01_biases_output_gate = {&lstm_crying_01_biases_output_gate_x[0],&lstm_crying_01_biases_output_gate_dims[0],2};

const static LstmLayer_t lstm_crying_01 = {&lstm_crying_01_weights_input_gate,&lstm_crying_01_biases_input_gate,&lstm_crying_01_weights_forget_gate,&lstm_crying_01_biases_forget_gate,&lstm_crying_01_weights_cell,&lstm_crying_01_biases_cell,&lstm_crying_01_weights_output_gate,&lstm_crying_01_biases_output_gate,lstm_crying_01_output_dims,lstm_crying_01_input_dims,TOFIX(0.000000),tinytensor_tanh};


const static uint32_t lstm_crying_02_input_dims[4] = {1,1,1,16};
const static uint32_t lstm_crying_02_output_dims[4] = {1,1,1,16};
const static Weight_t __attribute__((section(".weights"))) lstm_crying_02_weights_input_gate_x[512] = {183,2139,882,2577,-1250,-167,-730,-953,3671,209,-1547,162,-951,-2616,-3958,-40,123,-871,654,12,-241,-591,-509,-934,116,-971,534,-655,373,-62,-1593,-1881,-346,1138,1051,391,-961,-568,543,-1277,192,928,-269,-628,1635,381,-898,553,-5,147,-701,-797,1037,-186,-27,-863,-426,-201,455,788,1086,-335,-1010,-610,499,-1004,408,-500,886,-193,-532,1639,852,-420,1468,-20,419,279,-406,-236,218,-1632,-329,-1207,198,1640,-115,-1115,249,-1536,-490,447,181,1228,-720,-1327,-1057,56,635,121,293,868,-41,-342,-961,78,-839,851,-1300,791,61,329,408,-408,-249,-122,1729,535,-413,545,-53,-540,-1165,-400,-127,569,-535,-271,-441,533,404,51,-974,-55,-525,-329,954,-1573,-126,-1612,374,570,-127,-375,-150,-549,27,-773,-283,-635,-424,-616,114,-1096,-902,220,-139,1731,-649,-1657,-628,1069,-321,-42,-66,243,-622,-271,28,-658,690,1185,-851,-120,-1889,157,-688,-639,717,559,581,913,729,530,-1078,-700,-418,294,338,-1618,-482,246,-335,1134,639,1053,2627,-694,741,-479,1060,163,-658,49,-1961,1378,-727,-263,-382,-621,235,136,315,-102,-626,-1025,163,-297,-342,710,1201,453,-505,-772,-242,1128,-1499,-42,-2396,-441,2132,-268,1663,-477,424,1002,1335,-2142,-2222,106,2062,-937,1054,1106,1981,-640,-1269,-127,-1512,-2240,1494,-1157,1376,-2157,-1961,63,526,-510,802,1255,-396,921,398,853,908,-501,-381,604,-839,-777,126,1231,1094,-1300,-692,-836,-144,795,-517,212,422,-797,-469,-335,36,-482,-762,168,-1374,-293,1094,-558,366,1523,629,-603,-750,907,-508,-538,1104,-433,-1016,-687,773,-211,-598,-371,731,716,411,-471,-62,593,-873,518,1885,77,-604,-570,-1379,-35,789,213,-232,-179,-444,-18,756,935,-53,-301,1188,-354,1963,1875,227,-1138,-313,238,-854,574,-347,348,-5,-355,-12,-288,1703,-650,-1371,-235,1207,342,-181,414,-1344,56,149,510,89,1309,988,540,752,735,281,821,955,-1378,-367,-348,357,648,-1083,38,-596,-1047,335,666,471,-77,-486,-820,1040,-277,-505,-259,-1009,257,-478,3,1584,216,-207,-126,277,-469,-1094,-143,933,-10,-309,-1219,244,689,404,-1109,-163,-2048,-344,470,78,229,63,-600,712,1085,146,1002,-1718,317,-1426,-972,-747,476,273,1300,-1319,-345,-2311,497,704,-1104,-266,-806,1122,-412,-181,-1040,-1240,-1266,-1014,-580,884,-370,-749,-385,1161,810,-1481,2618,-94,393,9,1115,1840,1258,-686,272,-748,-1305,-2253,745,313,-257,-385,370,265,-401,-29,134,20,-305,-1268,585,-142,547,-813,-430,-443,2166,-1475,1684,-1175,-971,-827,-1308,1227,902,-137,-548,-1573,-1521,-2789,1268,1297,-1643,1243,1178,1303,338,-1788,1115,-1980,-2565,488,-1224,1586,-1246,-880,1208};
const static uint32_t lstm_crying_02_weights_input_gate_dims[4] = {1,1,16,32};
const static ConstTensor_t lstm_crying_02_weights_input_gate = {&lstm_crying_02_weights_input_gate_x[0],&lstm_crying_02_weights_input_gate_dims[0],0};

const static Weight_t __attribute__((section(".weights"))) lstm_crying_02_biases_input_gate_x[16] = {-3139,-1398,1383,457,1092,1111,-159,-1697,-189,-831,411,-398,-383,11,1256,-3339};
const static uint32_t lstm_crying_02_biases_input_gate_dims[4] = {1,1,1,16};
const static ConstTensor_t lstm_crying_02_biases_input_gate = {&lstm_crying_02_biases_input_gate_x[0],&lstm_crying_02_biases_input_gate_dims[0],2};

const static Weight_t __attribute__((section(".weights"))) lstm_crying_02_weights_forget_gate_x[512] = {408,-132,284,-984,1509,614,-7,1,-1019,-835,-189,165,731,473,808,96,-953,189,654,-87,523,395,-490,-329,-88,-898,-75,398,1043,529,-292,-64,-171,83,-273,117,241,-774,534,-611,554,1009,598,219,-1674,155,-741,-940,-79,-576,79,-619,-810,-388,1183,517,199,36,-338,-219,127,236,782,-991,-842,981,924,298,-164,870,-73,199,283,889,862,-314,792,-537,-708,-468,-514,-459,730,-82,1258,-711,-811,-444,-829,-526,693,-348,211,-388,452,-345,761,-423,-564,-1124,78,-769,-9,988,-341,-4,500,229,-503,-1245,382,674,-1374,-575,726,895,608,90,-737,136,-734,272,384,-286,542,-51,-629,393,-846,-419,-522,-443,834,1187,-857,-200,-475,-894,511,264,-212,-675,-474,-1173,1166,-950,279,1343,1093,-453,-74,265,-1374,-55,1024,-101,459,334,895,-289,-301,-740,961,-1482,1004,1091,-888,550,-1184,524,832,-134,1020,184,809,-164,288,-479,-537,-664,94,-237,-545,679,-961,-105,525,1232,-157,411,-1991,402,-625,521,-343,-245,1333,-500,399,-897,488,-239,-520,795,775,754,-725,-998,-24,156,-865,-445,-605,1010,832,63,1252,421,-518,131,-1050,389,-91,302,-811,81,736,-1307,1054,-275,-1350,93,-288,-425,166,-880,1339,34,2762,418,-442,31,-58,321,38,-55,216,92,-840,-878,-509,-786,-438,158,-423,-93,514,7,-479,-545,-226,525,928,645,733,704,-387,825,415,-113,-468,-504,-989,-454,-1047,-247,-1058,625,823,220,539,539,-877,365,-358,-615,79,-71,-357,44,315,1022,10,357,513,-148,-916,545,256,871,-1241,-777,-565,67,-319,376,-279,-186,-997,-175,1288,354,315,-490,762,-297,-132,395,389,131,369,719,1014,-537,580,232,-42,441,-224,-715,-176,480,579,896,-825,541,294,-448,1494,-186,1277,-1313,-249,542,290,-1452,531,-376,334,-388,-503,-264,747,952,-423,692,-889,-461,817,151,251,307,769,454,-1047,-128,-508,-287,-681,597,-543,-435,770,924,867,-992,190,230,-243,-238,-726,1223,-488,-269,-637,415,758,-1168,642,113,470,-206,-340,-152,-411,-936,326,-1003,315,510,42,-519,213,833,1224,-1722,-451,126,85,-671,421,-617,395,-438,-602,298,-210,880,-1347,1247,-1076,299,-488,104,340,1045,-461,33,82,693,-1836,-475,-1066,-1064,-1276,-750,335,-356,414,-466,165,539,454,-623,-54,-48,370,-782,422,361,-612,1813,-445,-435,901,149,523,1323,34,95,-54,-168,-575,573,-469,1249,731,353,278,-646,355,-567,-695,229,266,830,-739,79,-117,-414,-597,-433,411,-770,933,289,-379,138,-1486,-278,213,-330,-510,-408,1740,-37,651,-358,357,159,-409,170,-314,667,-225,-891,-718,329,-767,-153,220,-597};
const static uint32_t lstm_crying_02_weights_forget_gate_dims[4] = {1,1,16,32};
const static ConstTensor_t lstm_crying_02_weights_forget_gate = {&lstm_crying_02_weights_forget_gate_x[0],&lstm_crying_02_weights_forget_gate_dims[0],0};

const static Weight_t __attribute__((section(".weights"))) lstm_crying_02_biases_forget_gate_x[16] = {88,-912,1908,-66,-21,-1631,303,2090,-628,383,1094,-906,-1024,779,3147,228};
const static uint32_t lstm_crying_02_biases_forget_gate_dims[4] = {1,1,1,16};
const static ConstTensor_t lstm_crying_02_biases_forget_gate = {&lstm_crying_02_biases_forget_gate_x[0],&lstm_crying_02_biases_forget_gate_dims[0],3};

const static Weight_t __attribute__((section(".weights"))) lstm_crying_02_weights_cell_x[512] = {435,-61,-62,1084,1196,1828,-1194,303,2295,764,-836,847,-174,-1936,-2216,-199,1087,-930,1223,-240,1183,-1245,-513,-542,-389,-705,-1250,-638,463,-458,-1469,-940,609,-367,570,-414,1592,184,522,109,1575,679,442,-114,-108,-1320,-939,1341,479,-1804,174,-570,993,529,384,-1018,600,-774,-4,1357,1156,-232,300,-339,261,12,763,537,-126,57,-135,1253,-734,254,-95,-1424,1067,1002,-1030,294,167,415,-1837,-1132,-627,457,1251,-44,1004,396,-1057,1374,-1853,1163,-481,-1720,-1270,-275,-510,-132,900,-1065,929,205,-1599,-613,-393,781,-938,486,-740,-740,51,320,1120,-109,-74,-603,1210,-1436,390,585,-543,1149,29,-189,23,-1142,-723,-70,-215,-299,-550,-241,251,-734,1312,-452,286,787,-889,-1228,-956,926,800,-807,-1278,1010,172,470,117,-236,-693,-695,-540,250,1186,-293,-1585,-945,297,-56,-321,65,34,568,313,494,-24,297,490,-1269,-393,-764,-941,189,-856,766,-178,-264,-508,237,384,-81,-276,-220,-776,-586,69,-70,552,-1060,-128,443,93,175,-224,-616,794,423,-412,751,-477,-254,-740,276,-370,1294,103,-498,-588,-384,807,-253,-1035,-704,-922,-734,-772,28,1248,-818,221,-1809,610,-31,-914,-524,-369,334,483,333,-488,-1120,-400,9,-158,1303,699,-510,647,868,-484,-676,-1042,-398,31,-971,1960,-455,-813,1356,479,597,429,-2792,-78,-210,877,-275,-147,-535,-435,1889,352,-646,700,-60,1236,373,999,-106,1304,-788,-676,132,-528,267,-82,-2175,718,-398,-663,315,-508,1043,12,-837,277,-386,399,-1293,1652,1521,413,-569,-287,660,682,491,-1695,-1121,-398,462,994,-530,-468,413,928,66,-767,-838,-80,332,-769,391,1006,-1684,-792,701,-33,-564,86,511,-55,404,1530,1409,938,331,316,111,1413,1788,-619,565,213,370,-1639,-1189,-1155,1080,1583,-688,1685,547,-975,-5,-318,-217,-407,-745,-10,-175,869,-346,-614,-255,601,-294,383,352,-275,-329,713,946,159,380,227,693,-1140,-692,-126,585,68,-236,1139,-1155,-955,201,123,611,-1048,-1533,264,-45,440,879,357,965,-1229,468,2031,550,525,952,-868,272,-806,697,979,-858,-562,-676,808,-441,-573,-184,-629,-402,-179,775,552,514,-135,-842,377,-462,1023,-1396,-4,-420,-1518,492,-408,-44,-1123,-411,-1508,555,-415,147,261,-288,-294,966,756,93,-126,-588,-244,-324,20,224,-366,-71,-493,-806,1376,242,253,127,2529,1256,-566,-51,1060,1454,-624,-839,-670,-1612,-192,773,1119,-533,-357,-1364,156,-579,-1809,-1104,254,-255,-922,109,1235,-363,-780,168,-673,184,-191,552,495,-730,-494,151,-853,-1421,-476,-1009,-777,143,1218,-189,596,757,-1287,-1207,-1263,-695,885,-2015,536,-517,-326,576,-509,555,-120,-1688};
const static uint32_t lstm_crying_02_weights_cell_dims[4] = {1,1,16,32};
const static ConstTensor_t lstm_crying_02_weights_cell = {&lstm_crying_02_weights_cell_x[0],&lstm_crying_02_weights_cell_dims[0],0};

const static Weight_t __attribute__((section(".weights"))) lstm_crying_02_biases_cell_x[16] = {1941,2154,2568,2283,2453,2132,2386,2391,2256,2221,2446,2248,2234,2066,2254,2129};
const static uint32_t lstm_crying_02_biases_cell_dims[4] = {1,1,1,16};
const static ConstTensor_t lstm_crying_02_biases_cell = {&lstm_crying_02_biases_cell_x[0],&lstm_crying_02_biases_cell_dims[0],-1};

const static Weight_t __attribute__((section(".weights"))) lstm_crying_02_weights_output_gate_x[512] = {797,-425,629,818,-319,734,-886,161,1649,93,-720,-234,433,-1896,-2652,142,-91,-1262,55,-106,1151,-1085,-1767,-1478,639,-2061,788,-567,935,-857,-1285,-1951,524,165,-354,-56,1937,1417,-1593,-365,1200,1061,296,226,107,-415,-1434,717,819,-316,-227,-755,1374,-482,-1030,-1166,218,-630,-247,349,568,-1470,-938,-1320,172,336,-858,111,58,-518,419,-115,251,-694,229,-645,926,1697,-978,847,-136,-456,-750,-373,23,607,336,-1057,552,-528,-527,1390,-263,895,376,-1856,34,1130,-385,77,-589,344,49,-1261,-857,580,-1169,-862,-1596,-319,-1498,339,148,424,-1117,-1119,-85,-142,-702,-1124,-153,-288,-773,257,-589,36,775,-1742,90,-1010,487,-1158,-338,949,-808,1881,-74,-612,-123,376,342,-347,882,104,609,50,-673,-586,-449,507,-1244,-1142,-36,-1660,-1078,897,1015,30,-1432,-1577,524,436,560,-635,90,538,293,1157,-278,-331,725,-1036,-547,-1278,-383,706,-21,-730,-103,-113,-547,-147,-337,-433,19,-126,-578,-8,-23,-89,99,363,325,890,209,757,2376,709,-884,-282,-435,1033,507,-235,478,96,-1622,537,844,-557,-220,-594,950,274,-584,-1045,199,-491,-937,-29,598,-334,-986,-481,-491,298,-100,1904,-474,-918,469,-499,462,237,-11,-676,-363,339,-1673,300,274,83,-167,-1488,-766,-748,584,-1668,-192,-648,-1020,105,1008,946,-1047,-1013,-287,1230,-52,1140,703,-131,470,220,-182,412,309,-662,-144,343,-642,-216,166,-86,-329,-288,486,-183,-555,-664,-193,-293,-587,-180,889,980,-192,-602,-1020,380,-507,205,2990,1930,-1079,1140,542,1210,-324,-850,-491,-403,-286,889,1236,-187,327,-893,1466,855,-218,1199,-148,59,810,338,1327,-670,-1457,794,-233,1153,1223,933,-535,-467,-231,586,1303,263,475,-196,-143,-458,-1715,-268,-39,8,19,-1026,-793,-767,-77,-1654,-855,-1206,389,-110,-820,-40,585,-1952,1363,756,259,543,-1088,151,-946,371,1403,395,-614,1232,478,-619,-1188,640,700,727,-274,-825,824,509,-588,-716,501,-550,392,-397,798,-23,117,-1191,-445,-695,-475,988,1476,1076,-560,907,1304,-217,-730,787,859,-945,-1861,420,152,-1544,-277,-306,-293,255,-766,-601,-34,-585,13,13,-25,-796,-1104,-1015,816,-1055,280,893,-458,318,-1586,-505,-627,-1026,-784,365,-1480,782,-2135,7,467,-649,-451,33,1077,-289,324,-1588,-206,-2582,-462,199,1386,-723,-1320,-606,-133,150,269,-131,353,176,272,260,1990,-352,-161,268,-982,-1180,-517,772,839,-1143,-318,-425,1,297,-994,223,-644,-1993,-215,240,1262,-755,-1338,-556,142,-15,88,907,-914,-76,-732,496,927,-929,531,-445,-334,-477,-1656,-711,350,-534,-262,-2206,-133,-391,451,-1346,272,-595,-745,259,-503,-241,-334,-2356};
const static uint32_t lstm_crying_02_weights_output_gate_dims[4] = {1,1,16,32};
const static ConstTensor_t lstm_crying_02_weights_output_gate = {&lstm_crying_02_weights_output_gate_x[0],&lstm_crying_02_weights_output_gate_dims[0],0};

const static Weight_t __attribute__((section(".weights"))) lstm_crying_02_biases_output_gate_x[16] = {660,261,1176,200,1221,688,379,2089,394,491,1085,313,603,681,1482,2216};
const static uint32_t lstm_crying_02_biases_output_gate_dims[4] = {1,1,1,16};
const static ConstTensor_t lstm_crying_02_biases_output_gate = {&lstm_crying_02_biases_output_gate_x[0],&lstm_crying_02_biases_output_gate_dims[0],1};

const static LstmLayer_t lstm_crying_02 = {&lstm_crying_02_weights_input_gate,&lstm_crying_02_biases_input_gate,&lstm_crying_02_weights_forget_gate,&lstm_crying_02_biases_forget_gate,&lstm_crying_02_weights_cell,&lstm_crying_02_biases_cell,&lstm_crying_02_weights_output_gate,&lstm_crying_02_biases_output_gate,lstm_crying_02_output_dims,lstm_crying_02_input_dims,TOFIX(0.000000),tinytensor_tanh};


const static Weight_t __attribute__((section(".weights"))) dense_crying01_full_x[32] = {-2426,205,-329,-1846,1222,1829,-545,288,-603,151,-1109,1048,-233,-1286,-2328,-1116,1719,770,-363,-1876,-427,227,1533,114,-1933,-756,1504,-454,1467,-840,-1324,-39};
const static uint32_t dense_crying01_full_dims[4] = {1,1,16,2};
const static ConstTensor_t dense_crying01_full = {&dense_crying01_full_x[0],&dense_crying01_full_dims[0],0};

const static Weight_t __attribute__((section(".weights"))) dense_crying01_bias_x[2] = {-3115,3115};
const static uint32_t dense_crying01_bias_dims[4] = {2,1,1,1};
const static ConstTensor_t dense_crying01_bias = {&dense_crying01_bias_x[0],&dense_crying01_bias_dims[0],4};

const static uint32_t dense_crying01_input_dims[4] = {1,1,1,16};
const static uint32_t dense_crying01_output_dims[4] = {1,1,1,2};
const static FullyConnectedLayer_t dense_crying_01 = {&dense_crying01_full,&dense_crying01_bias,dense_crying01_output_dims,dense_crying01_input_dims,TOFIX(0.000000),tinytensor_linear,1};






static ConstLayer_t _crying_layers[3];
static ConstSequentialNetwork_t _crying_net = {&_crying_layers[0],3};
static ConstSequentialNetwork_t initialize_crying_network(void) {

  _crying_layers[0] = tinytensor_create_lstm_layer(&lstm_crying_01);
  _crying_layers[1] = tinytensor_create_lstm_layer(&lstm_crying_02);
  _crying_layers[2] = tinytensor_create_fullyconnected_layer(&dense_crying_01);
  return _crying_net;

}
