#include "tinytensor_lstm_layer.h"
#include "tinytensor_conv_layer.h"
#include "tinytensor_fullyconnected_layer.h"
#include "tinytensor_math.h"
#include "tinytensor_net.h"
const static uint32_t LSTM_01_input_dims[4] = {1,1,1,40};
const static uint32_t LSTM_01_output_dims[4] = {1,1,1,48};
const static Weight_t LSTM_01_weights_input_gate_x[4224] = {-156,-419,170,332,283,-138,666,-53,377,-183,-101,490,39,-11,541,107,626,-66,-296,385,220,-37,-334,-42,111,520,-421,600,447,108,-233,-101,346,596,412,678,315,267,-200,229,93,-308,-111,594,-357,-120,-480,336,148,349,-53,-398,235,-586,87,632,27,-127,406,-190,-320,-157,-143,-342,254,-201,118,518,-307,107,100,-62,188,1009,-235,142,447,72,-179,-314,-11,727,212,-28,-195,467,-167,377,24,257,-308,216,-657,-182,-195,-590,-451,-242,-154,283,303,-343,462,221,-53,452,181,500,-202,-189,504,80,-302,-108,254,142,337,-316,-97,260,56,-147,281,-593,43,-595,-494,-35,154,-828,-625,-155,591,-631,-454,-19,-104,-94,34,-203,151,-296,126,491,485,-1157,-477,-234,-25,-590,-11,1065,-29,-54,-470,605,404,216,136,-24,-363,-333,-173,-393,-335,-245,-552,22,-503,-429,-124,120,-471,667,11,-29,160,-156,-142,-280,-134,-255,-270,-158,588,425,637,672,-85,-422,188,-131,299,-204,-180,-467,364,-312,-83,475,125,479,326,-268,82,13,168,-645,-366,244,281,-206,-279,-646,253,-126,50,-344,518,-273,-278,-195,513,35,314,-123,144,332,118,409,-375,423,-410,-837,-142,150,-565,-52,979,642,-568,388,-76,-139,97,-5,48,415,-40,-295,-8,955,-82,-538,-146,440,244,572,1068,468,-150,-407,-590,147,-22,-95,373,-51,360,132,-115,145,-336,597,-228,-192,690,300,476,476,79,153,201,-453,-86,-266,634,-195,401,-50,301,653,-267,589,575,-170,-234,-277,66,318,146,304,604,326,333,493,65,362,239,-114,411,315,-455,-544,216,-260,-6,169,-20,209,321,-339,-566,59,256,-116,-718,6,-163,154,23,-360,463,159,-213,-144,-602,433,-345,271,-332,275,-21,127,-254,-91,123,374,-311,-100,3,-710,388,-425,-111,395,-397,275,184,-175,-239,-346,193,316,-567,-255,-501,-426,-103,271,-323,188,111,255,-116,459,116,-302,-637,146,-149,489,264,573,-1,-43,-63,631,777,716,694,993,-179,-313,-79,699,1048,291,10,226,140,-145,-751,-97,54,-174,31,-418,-559,-232,431,272,-283,109,-403,262,646,-68,309,310,-226,-206,-598,-326,-294,-410,-233,403,864,-379,-331,16,-138,-46,-437,452,227,114,-726,-157,472,-159,110,497,-461,-549,-190,494,-375,262,106,-18,594,268,-339,528,131,478,524,-352,228,407,54,31,-364,407,427,-533,-430,-389,-45,-377,301,-401,510,-225,-20,314,-170,242,213,-10,555,112,-83,111,-515,452,-457,-240,-606,411,-411,-599,2,-229,-379,328,406,-387,-609,172,-63,146,386,113,186,85,449,369,-99,13,528,-271,-238,-404,-88,-53,-346,-132,-148,-429,623,-130,-339,-228,39,91,-695,-196,-193,388,-172,137,-495,71,-546,-101,447,58,-34,477,-294,-277,133,-164,530,-431,-341,343,286,-179,-24,-394,428,-2,-395,197,-229,546,-278,534,536,-174,-7,81,46,206,664,-23,-861,-390,121,-427,396,-216,260,92,-202,-148,-639,284,52,146,-447,218,729,-68,90,-288,101,378,382,622,327,90,104,-230,412,-319,-647,66,26,-283,712,-454,-182,-189,87,-483,372,-129,-504,643,-231,751,-175,222,-35,486,371,-49,345,-405,256,45,-289,528,-82,80,476,191,-48,-278,-136,-226,259,-308,-286,-1,-165,103,620,657,-229,-27,11,570,122,-151,133,268,91,591,42,396,369,-504,-14,2,293,330,-192,308,-518,290,-165,706,-261,-371,-179,370,633,264,769,-124,66,-175,23,-303,449,-1,70,-1189,-570,277,-95,-507,327,675,-352,26,-315,287,174,253,31,-106,-962,659,296,412,-409,566,-163,-128,-293,155,3,561,667,147,170,504,637,417,69,671,286,-63,410,-116,88,265,-87,389,-244,448,465,46,497,660,-136,-324,176,-304,-23,398,-178,10,762,-115,660,693,-144,-69,182,304,581,237,-463,2,294,-327,-21,-43,-15,388,264,347,-89,-270,-28,311,533,-11,272,1057,195,276,350,178,652,-499,144,509,-532,185,-814,-57,111,536,133,-62,25,219,-156,-474,269,-548,131,300,-732,-464,180,-71,66,78,187,4,129,-611,62,-241,-640,-458,-767,209,-294,79,181,223,15,-71,-492,-529,-299,243,-60,-627,136,301,-674,-229,-251,-483,-536,-700,-104,-510,229,-502,-55,-269,677,116,370,-180,-166,62,-3,955,-412,117,-34,26,-429,341,200,98,-233,50,-52,103,789,-193,-270,-152,150,-611,-345,-384,-233,-35,-361,-422,171,-211,-177,257,173,-183,-130,266,69,-257,-657,480,-397,-805,176,-424,-171,-661,-180,309,-28,-486,-447,129,-501,-581,-539,-244,-223,333,-204,-624,219,-914,-290,-786,241,-429,-44,151,119,-149,-313,-80,-239,-512,-269,-5,-372,127,-206,81,-51,-504,-119,115,258,-272,1049,566,-183,228,-948,-40,-619,-409,257,-174,623,-113,-220,548,-206,-291,-145,500,703,-482,-244,236,-110,1136,-86,-185,391,-461,-298,338,-423,-473,-850,-545,200,169,-234,419,-458,43,212,-246,510,48,-526,-313,286,237,151,-62,190,329,151,-248,-5,-368,120,-235,281,-456,-44,-315,-144,178,164,-178,-540,-15,-692,-356,-664,-904,-269,-332,94,-134,86,-770,-677,-500,-789,269,-162,531,-179,-478,286,-402,1356,-384,-639,30,-917,258,296,392,151,-81,-78,-861,-513,-175,36,554,-15,-349,200,-144,-376,86,193,620,-113,111,-181,-577,-513,105,-166,576,-142,-102,697,112,517,-501,-343,-358,-728,199,624,-681,-219,53,124,410,188,9,488,-12,216,233,-96,402,-43,296,-297,634,678,252,174,227,416,565,344,-349,408,-93,240,-5,73,-385,213,219,142,103,-422,-52,539,301,173,331,-228,-97,-721,182,-206,-139,248,247,243,172,317,579,182,62,-571,449,-689,143,-448,-170,-313,-306,-388,193,-320,-86,-299,132,-109,-2,-1017,879,188,172,-15,-58,-116,-318,298,220,-244,53,191,-525,144,1,487,-139,420,129,-290,-255,131,-292,67,367,471,-55,150,80,432,271,-371,144,-256,-198,-316,289,-203,-204,-219,560,-417,200,596,635,-262,-155,599,631,665,177,362,-142,141,727,-308,554,-100,-187,941,-337,376,125,257,-635,17,-154,336,-355,-24,-418,-329,203,114,574,167,-910,462,-168,-27,736,115,-135,50,105,364,-240,102,29,-120,-301,289,457,-329,292,641,70,-571,335,248,-156,410,11,-138,-306,-11,102,-92,48,369,-568,-132,-190,-328,-231,-677,-128,-643,-542,-415,246,11,180,-115,-541,104,-784,-527,200,-243,-138,-28,-177,-639,-222,-73,-83,229,-534,199,-307,88,67,-400,-34,-183,782,1,-282,-172,-385,-217,-212,703,-158,8,210,796,210,549,-575,340,703,125,-504,331,607,-194,-51,156,187,-701,-267,386,455,104,107,199,-81,-219,34,153,159,-330,143,117,208,40,-346,-361,502,-356,352,602,-287,-447,202,387,407,-231,354,621,386,-313,-611,-513,-212,349,-157,-463,-559,268,-242,-69,-498,175,-669,-606,-128,-572,167,-453,-328,-580,252,-64,-306,200,-449,451,-39,102,-410,1067,-177,104,67,762,79,225,818,-386,66,89,-227,142,-269,215,-218,-519,-66,244,196,101,182,165,-120,578,236,-173,320,-28,-23,357,-147,-174,-707,-111,-415,140,-451,168,-396,62,461,-553,-556,-108,23,-260,-241,122,-176,-185,119,-538,41,-340,-72,-222,160,-510,-495,185,-420,483,-7,-488,159,-230,-541,-393,-431,167,-614,-327,198,104,-173,-112,-15,-793,60,72,-250,209,-570,-544,-427,-318,331,628,430,-197,333,-436,-12,-152,-333,146,63,-267,-521,539,359,-342,-624,244,869,-370,-437,180,-36,780,75,-612,-1070,-149,-135,456,-14,-653,47,404,-17,273,224,-133,-187,495,254,-606,199,48,655,268,-792,-505,-36,83,408,454,107,197,456,27,650,372,672,-261,-149,223,-33,-301,559,501,369,189,-249,177,678,222,720,404,682,44,585,37,99,362,-37,202,-58,-118,184,-285,724,725,404,-43,-817,61,-433,-148,-315,321,-406,-9,-362,-238,-742,-474,416,312,77,-59,27,-625,491,-236,298,96,36,372,-557,34,-108,346,664,-154,302,-168,-263,-338,190,-189,-376,403,-14,-541,196,165,-90,343,258,-318,8,363,-208,-147,-71,-225,117,380,107,80,103,-326,-329,473,-126,-382,41,261,-208,-75,-270,190,139,181,-298,412,181,222,310,-458,-180,167,458,523,-355,-204,476,-98,-368,559,253,-237,-663,221,123,21,-179,-31,390,-121,271,233,-214,-156,355,-986,-274,333,-50,750,-234,163,-560,-92,-115,-212,411,465,488,-112,-338,764,265,66,-479,-1050,770,304,143,-306,357,-412,0,196,-129,535,497,41,329,478,477,-453,22,178,-98,-260,-378,539,486,379,316,282,-406,381,-311,602,-423,235,309,208,-323,-179,204,10,410,440,251,592,237,-434,-214,-16,307,19,330,-327,350,297,-460,245,141,9,-75,-101,-311,336,233,-23,660,-554,55,-99,66,78,-138,648,-513,244,-233,625,499,34,-52,526,262,223,-242,-133,-178,-767,67,192,-182,99,24,224,-379,94,-60,578,373,522,79,178,-202,299,-116,-353,-418,-598,-179,-538,83,-403,65,-425,68,525,-99,-314,212,-236,314,-163,396,-219,-393,166,-190,444,317,87,-60,250,164,277,84,-71,-236,-263,-86,175,-350,585,599,-222,363,-492,671,-273,5,296,-209,-235,464,542,1,392,-487,-539,-546,-1052,-245,143,218,-307,601,114,336,20,168,440,523,337,219,-43,379,-53,-215,190,379,46,108,-274,-242,-417,-483,287,-230,-240,-798,-163,-6,12,-229,-297,-546,364,644,556,380,-160,656,308,265,608,132,227,-304,313,224,-52,566,-189,-84,361,237,751,342,-2,97,2,420,504,-256,7,-85,434,-303,-284,506,-437,509,-411,502,717,207,22,736,641,340,144,-5,-215,-23,439,147,147,288,-239,-149,-289,-424,-373,-439,101,715,3,-49,156,-353,-274,-313,-484,422,-275,264,-65,-54,63,-98,619,22,81,-635,-120,-370,905,-91,312,94,113,394,-346,-562,374,296,-204,-71,751,529,349,-66,-252,-62,16,376,208,394,-707,-314,-78,-2,-255,153,556,48,-154,-223,-324,-160,366,54,-734,-319,-646,-681,-132,-101,-418,-175,-359,-570,149,1061,984,61,85,-279,271,-758,70,403,126,-523,417,604,77,-251,299,-617,-355,455,-278,-453,-108,481,-684,24,130,144,579,75,-612,430,-289,14,-191,-293,-1140,-460,287,476,-289,-136,230,100,925,142,-13,262,-612,-3,313,-225,157,94,455,-286,-695,-764,-23,-150,-217,-308,-506,-625,-861,-132,-326,353,336,426,-475,-133,-435,-198,-593,-664,194,71,-574,164,-272,-742,-449,-289,-421,-131,-664,-546,788,-259,23,-149,369,327,557,-1035,799,51,-799,-219,278,-39,-168,-722,-531,-843,-641,397,-171,537,178,-366,-153,276,328,590,-215,796,-407,-334,281,440,228,130,361,653,-422,783,28,294,-7,-39,-272,-273,455,197,364,-378,-416,-202,220,258,-695,-636,252,237,169,-134,129,324,36,-467,-21,172,382,323,-12,98,-237,-210,203,-254,-400,287,-457,-270,154,-216,-175,-538,-158,-784,-56,-21,131,78,35,854,-503,-478,-84,77,-133,-350,514,431,306,815,-326,-153,177,-184,38,-1177,-171,30,-2,155,-39,-722,152,374,-413,307,357,162,60,2088,76,324,243,305,-207,-243,307,-415,16,-121,106,339,69,586,-141,-284,155,-658,-137,-328,-416,178,-548,-774,511,82,548,-375,-162,-469,32,-597,-50,-449,-393,-96,394,149,275,-60,347,-638,-54,5,-537,-465,-226,-511,78,-465,-473,-190,4,-626,-363,-470,230,-326,59,-250,-922,519,304,-318,-523,348,223,139,315,-99,127,105,229,-27,27,-313,-380,-185,181,-150,-654,-461,94,-77,464,-214,-9,210,-455,-206,-289,412,-207,-256,-498,-374,-727,258,-384,-421,703,-346,-453,67,320,-180,-378,368,477,332,442,-20,335,-385,-80,-317,574,83,51,375,398,-169,498,-97,252,2,389,-182,477,11,-206,67,402,-148,394,140,4,641,221,679,851,134,293,127,-9,-101,-64,635,-42,-904,210,21,-306,-428,70,232,41,36,-468,-425,-62,-219,797,-4,266,5,328,-333,-85,-42,264,35,158,220,71,692,-570,276,61,-224,-542,-151,-2,164,15,73,-187,-462,241,-436,-174,-349,305,414,-374,557,-19,697,-445,687,152,294,188,-331,273,532,640,18,-220,622,-236,132,218,463,399,606,-133,569,433,-128,322,-41,-76,-532,-549,-396,130,-3,-237,-336,-418,313,-289,43,-551,26,653,-579,-201,-759,16,-336,486,-547,-204,794,760,-92,345,-844,-25,-149,-243,204,-274,-84,-93,444,741,-141,526,-143,-2,486,612,-121,-494,290,-2,-104,-391,348,285,88,46,-368,166,94,484,-120,244,-357,480,151,-360,528,57,-110,-165,-17,-9,560,-200,-310,281,555,-71,-258,133,451,-296,-3,646,685,428,103,593,607,645,-87,11,751,393,457,-103,292,172,231,469,433,115,43,37,145,585,-376,-528,284,-937,16,-351,-189,-193,95,240,-60,240,-46,304,390,-603,89,630,142,569,-86,-670,208,174,-868,-292,-728,143,-231,126,332,-100,791,-105,-388,-523,-198,-444,-461,316,202,20,-8,388,163,-27,-185,240,39,433,-202,374,-227,289,293,-247,326,-103,-64,67,-425,46,-229,-164,145,-196,-383,196,267,41,-152,83,-19,-488,-165,-175,-33,-275,216,-298,504,-339,-224,-260,-170,9,361,-6,54,166,178,-9,-474,320,588,-537,-175,230,77,-177,61,-295,-239,479,158,1250,275,84,-77,43,588,-377,70,-565,-737,199,-538,-316,-443,263,-45,-697,-221,97,162,-228,125,469,270,-143,-273,-333,215,-620,-106,-313,-188,30,88,-378,326,-254,-44,-564,-453,-728,-179,-636,246,57,227,-24,207,-141,419,-455,-349,376,282,-516,-321,8,-616,-91,-85,215,-262,120,105,-590,-134,-73,-719,-97,-323,-262,79,-293,-470,-220,-176,343,-33,-575,546,86,-273,206,204,593,-309,47,399,31,367,73,-305,143,125,-207,-531,-151,88,-111,676,-959,515,-595,-112,23,10,267,-382,-204,-259,-451,-366,-399,-30,114,310,136,653,561,336,581,93,-27,302,17,875,27,149,-222,685,712,68,154,-123,768,243,650,236,424,660,546,-144,436,265,364,-319,41,299,-211,373,-38,-1,499,938,-367,226,-342,538,507,24,-213,-195,163,311,-38,-30,-284,121,-199,59,-982,-420,-132,-589,-167,-30,386,337,465,-994,-6,-565,-162,-87,400,0,-85,54,-354,122,-251,-212,-200,513,338,-269,-239,33,183,-299,-302,-84,69,-267,573,526,535,543,-162,-327,148,134,536,291,308,-183,126,-46,419,-140,58,422,644,614,497,-194,-67,473,-331,37,139,286,-106,218,-46,322,-347,-127,-240,-144,392,-386,313,265,329,-324,81,-134,-927,111,-34,-416,271,-272,160,10,-577,299,-292,-4,-220,-449,180,510,196,-239,156,-160,189,170,-211,-116,-558,-34,-371,64,376,363,270,-576,-655,571,-320,-203,108,-238,383,-190,-137,-33,390,-76,245,45,123,-172,31,486,723,140,706,164,727,33,-203,31,-244,38,428,180,221,493,-195,404,82,302,716,20,4,128,-3,148,176,629,-211,663,-70,730,360,-25,144,660,-668,-529,-28,-114,-356,-328,-96,-24,372,134,596,-133,-381,555,-264,-161,257,529,563,145,41,552,-30,-675,39,-81,-2,416,75,426,414,-210,-509,316,-175,-261,-339,-666,-171,537,316,88,167,-31,-44,10,272,30,277,228,-265,-80,148,74,799,-118,20,754,-161,806,-6,340,-368,184,310,-280,161,722,-253,-114,-144,-90,525,550,802,630,-345,35,468,269,693,430,438,-254,191,586,92,372,240,-52,-53,431,-94,-460,-97,98,343,-555,-79,134,-527,-137,71,460,-222,117,-3,-399,145,249,-476,-388,-1014,-3,317,260,-757,1232,-221,106,-14,-490,572,-56,-512,-72,77,382,329,776,9,-584,98,-233,-6,307,484,-206,-255,401,-125,507,366,466,-365,306,478,297,-385,172,400,-426,-249,399,463,182,602,-12,465,397,678,360,-358,-8,181,593,-276,24,-12,752,-147,702,501,583,-282,626,-10,120,569,169,195,773,-642,-298,-22,-616,-99,-241,291,-275,-224,-369,-79,-452,293,-121,192,-101,73,-656,-462,383,20,24,-663,5,-341,-480,-212,115,-588,259,75,-267,305,476,-364,-154,-4,-124,-187,734,-515,294,-415,-492,-62,-773,-85,-480,-177,-746,-111,-903,-658,-28,-532,-199,299,171,-458,109,-796,-443,-777,-637,-890,-782,118,41,404,-334,99,-47,-588,229,-384,-71,-281,341,-480,-209,-432,-26,178,-193,-641,-265,24,59,-610,193,-271,-115,58,166,-218,-95,-436,450,552,-762,227,242,234,26,-59,-31,171,-740,-745,-90,368,217,301,176,235,241,126,7,-22,-509,-577,104,-1034,395,-202,-170,250,267,420,163,-320,471,-118,188,-221,-609,-652,-576,378,273,-548,58,-228,-12,-238,-74,-301,477,444,0,-367,429,-208,315,271,400,-329,-332,222,393,-323,385,270,536,165,-311,527,-359,-51,539,131,356,324,-231,-218,-576,-195,-301,-686,426,-338,-261,-277,95,301,164,-121,-326,-623,211,-298,262,-334,-649,-358,449,-535,153,273,-641,-170,-136,-204,167,408,-291,164,-513,213,458,-204,-155,30,-333,97,-79,-167,-433,-214,79,616,21,8,-322,17,-274,12,224,375,-478,-68,-60,512,-413,-135,-624,289,-188,-449,-148,-226,129,416,-201,-246,69,-435,551,443,-319,203,196,-240,419,360,136,281,-357,-350,40,482,377,829,419,1129,361,-414,398,-4,499,-321,-474,-368,179,414,-496,-216,30,-663,-653,-261,-158,308,499,146,262,143,-1089,557,336,829,399,97,150,-751,-1068,-549,387,373,574,-96,-494,143,24,-73,-43,288,-655,-240,494,-331,297,574,393,35,138,347,-361,85,-71,-402,323,-434,-361,-340,-304,-150,64,-309,178,-154,-23,-762,-270,-275,-283,-702,-104,111,-263,-774,-183,-333,-251,216,-141,-230,-486,25,-218,-1,280,-70,-307,123,119,108,103,-244,-346,162,224,-321,-179,-437,-356,271,93,37,-56,674,-211,407,-486,84,61,-368,150,258,-31,-154,377,-105,-760,729,365,127,310,479,366,165,-486,-461,437,232,435,-401,165,459,91,-555,122,463,-568,-302,-7,-456,519,-412,488,153,-481,-202,67,268,346,161,-239,-200,-133,-408,-422,148,704,228,250,-287,9,412,617,45,163,93,64,244,-309,-92,-88,85,26,421,213,-205,-588,98,146,218,134,-214,90,321,-306,-286,-37,-71,-65,-677,498,49,301,-506,583,-341,-77,-23,-438,-409,80,-324,725,63,-106,123,-376,123,221,248,-285,-286,-880,483,152,-197,535,449,-84,-455,-372,51,200,211,408,364,271,529,203,-156,539,-243,8,533,491,-414,185,-405,207,-295,60,-105,-365,-504,348,-104,-348,-7,294,391,-222,-134,427,-284,49,611,115,285,-582,724,-646,-125,91,430,45,515,-127,125,552,-390,-119,-172,207,-140,242,223,-18,88,228,363,486,365,-143,-305,379,-41,-143,-112,311,41,-64,-40,-22,218,-713,113,450,-461,132,0,75,-698,-636,-5,-136,-168,-306,151,-488,453,133,180,241,480,426,103,-486,360,517,-162,-51,16,-224,-170,156,324,-400,-316,2,340,346,-348,36,508,-227,-13,458,48,-151,537,262,-78,716,-329,-318,252,113,627,319,69,-27,519,-201,-85,1,-191,-86,513,-100,191,-224,-664,58,-385,719,80,-591,942,145,34,-121,-346,79,-224,403,-198,-466,431,508,-8,631,-512,141,61,62,-5,-36,-268,1,-91,-116,-246,329,-590,-543,-726,214,293,-124,-186,35,-158,124,214,-62,-54,-233,221,441,-292,-408,-507,50,208,-40,-508,319,250,-4,-279,326,22,149,-498,442,314,-27,-283,571,30,134,-625,129,193,-579,-237,189,480,209,121,229,-898,-709,518,-402,-365,747,656,12,-51,759,-305,3,-615,-30,120,-247,123,-160,179,-112,-61,306,-80,305,163,-21,-247,189,-68,152,-536,431,-37,585,727,316,163,-343,206,-84,-342,498,492,477,451,-175,71,-551,-227,-189,-43,-460,180,242,345,-569,-585,-269,-288,38,-665,-393,-577,-465,179,-496,-690,-291,-689,-185,-116,23,366,257,32,-321,-209,-63,385,-548,951,-464,711,443,411,-370,-512,-158,308,-500,320,-586,-363,-78,-451,162,502,-481,-157,121,-174,217,58,265,-206,-282,78,-48,564,646,392,-98,665,-56,-562,-287,-15,-259,618,-77,217,-289,-397,109,262,-71,-471,-193,-423,252,282,-83,563,205,148,-341,-340,-555,389,512,-507,-383,389,-62,-458,-7,67,472,373,-478,194,557,41,98,235,-556,-255,54,-230,377,-393,84,-177,-252,-415,-120,-302,-605,-61,-580,-277,102,54,350,534,-182,-189,-15,-318,0,-250,-400,235,-331,166,709,-261,-181,-262,266,-9,805,1041,-107,111,-439,-77,188,-276,-198,584,327,36,-148,478,55,-244,-70,141,200,-20,445,346,-384,356,-51,37,340,-516,105,489,-311,-182,-163,-436,-106,325,317,-413,-331,132,-224,163,520,-146,-458,-543,-160,-569,-199,500,430,68,-89,-458,-145,136,543,208,310,-400,390,-35,75,-91,-709,-74,399,52,-219,39,-675,92,-418,484,-589,-187,70,377,-558,75,-142,-266,-424,759,94,-670,-257,59,-285,516,-91,-380,218,68,-141,-121,160,-110,-300,-44,-179,346,-305,-155,-487,-4,42,307,-32,-380,582,-275,83,-211,427,571,-68,405,369,455,57,208,-67,-159,138,-275,147,139,-415,-30,524,-110,369,-421,12,-110,-77,-461,174,175,252,-39,246,-395,-344,414,284,-182,-287,70,-277,145,380,131,121,48,559,242,98,-420,-341,196,457,172,314,289,254,316,-1,170,195,55,526,-384,-559,222,528,140,455,211,406,72,312,737,310,122,3,-290,44,426,-654,-245,-133,128,264,3,56};
const static uint32_t LSTM_01_weights_input_gate_dims[4] = {1,1,48,88};
const static ConstTensor_t LSTM_01_weights_input_gate = {&LSTM_01_weights_input_gate_x[0],&LSTM_01_weights_input_gate_dims[0],-1};

const static Weight_t LSTM_01_biases_input_gate_x[48] = {241,-611,-782,695,1548,663,391,495,1221,-1680,-3582,1018,52,662,-261,-924,-495,884,-166,1162,-351,-245,-1322,-631,-1919,-2659,704,-422,351,7,-1061,333,42,985,649,878,737,534,194,-1073,1062,285,-1385,-442,-685,-260,765,916};
const static uint32_t LSTM_01_biases_input_gate_dims[4] = {1,1,1,48};
const static ConstTensor_t LSTM_01_biases_input_gate = {&LSTM_01_biases_input_gate_x[0],&LSTM_01_biases_input_gate_dims[0],1};

const static Weight_t LSTM_01_weights_cell_x[4224] = {-1776,-629,-399,-301,-1631,671,523,-417,7,551,-229,615,1184,1102,690,-246,1198,214,341,-670,284,423,966,922,-1303,-1204,-171,1058,-1348,-507,710,-218,89,-113,-1395,-1287,540,-261,582,-471,-635,-7,-673,-1266,93,-622,-109,-526,-872,-918,113,112,187,880,178,988,1370,-672,-704,-307,-838,1317,-1087,-372,-7,-571,-886,1505,1141,668,-279,-1165,-1840,-1140,-307,434,374,164,-1607,-1082,-662,236,-1420,333,830,1065,-259,210,823,1423,863,308,-1667,-2097,-1806,-4,179,319,509,2094,1095,1820,203,1072,204,268,2089,2127,716,460,-326,-432,-330,441,363,-1142,-330,-310,1162,-232,-1192,442,-723,-297,666,-930,-365,741,546,-287,-476,-434,-403,-886,1760,105,-565,-1481,-507,-799,-92,-1085,1777,117,52,300,-977,1311,2050,-49,-155,-72,887,358,-921,-258,450,633,26,-407,-839,1396,-642,-173,-291,467,13,217,1254,-961,208,339,-95,59,1217,-430,-1155,-766,174,537,1162,1789,-177,616,-1021,-1010,-1158,-1656,-1285,-373,-1180,-1079,-472,-639,-1193,854,-345,-272,441,122,-18,-33,596,-310,-537,323,-155,-179,539,274,1023,1078,552,419,1381,1614,537,-1605,590,1831,-652,-757,-192,-235,1668,799,-1537,855,662,-792,-661,-413,609,-97,-424,85,-941,43,1753,1269,806,-46,1039,-171,-1398,-1238,-73,488,176,-990,-81,637,207,996,-738,-1701,380,368,827,319,778,-1140,-297,260,-487,-1768,-70,-29,-910,-1370,-844,1373,-1125,-648,-538,-1562,-932,522,-1375,-500,182,-1112,-630,1266,1555,177,929,1191,1223,-658,631,-208,1212,408,-57,160,808,330,-577,387,-545,920,766,425,1070,169,-1132,-80,1171,-352,408,1180,-671,739,-204,1477,129,1104,-740,-171,-895,619,8,332,-770,326,-502,-1123,356,-518,24,734,288,1305,360,698,485,-55,817,-1018,0,854,-241,929,683,577,-1265,-742,-1515,-1415,-421,750,-856,-1765,-1518,-136,1141,847,982,-674,1500,460,677,-560,901,618,-586,-10,-1021,-187,-612,601,-979,-333,76,211,441,-466,-139,-192,147,31,-612,-907,-125,599,918,1945,-67,-169,1979,2414,72,570,387,-436,-113,-877,202,16,379,-675,-685,1620,651,-1109,-19,-293,-1018,-225,146,1318,-137,153,584,-916,920,-628,-27,1343,1410,-296,58,-451,-215,-446,243,384,309,-681,691,-1448,2036,-2692,598,461,-799,-630,1929,-2958,58,1277,30,1341,-686,985,-114,168,577,795,397,1417,80,1308,1238,1419,-524,902,843,-348,1311,-6,-404,-57,39,365,642,-120,-215,-472,804,-277,-294,-105,1051,-40,-83,-941,57,-562,73,132,219,136,459,86,-213,-1146,978,-660,-731,182,-78,-562,-895,537,-748,-1517,-782,405,-418,195,-793,-183,344,29,995,-916,926,-171,-78,1469,378,-319,-564,710,-259,310,-395,-138,-508,-440,-937,648,351,1051,867,864,-167,-1194,-1923,-1457,783,-28,1174,-2,-481,983,-661,193,1262,319,-26,405,-348,936,1253,1094,-1087,398,-800,1088,1179,468,644,1541,-385,-39,797,71,-178,-891,-1141,-512,-1658,-439,697,-1742,272,-1406,57,564,972,-747,-705,-413,24,1613,312,154,742,676,777,-627,1109,49,885,654,37,527,-643,-1114,1187,196,909,577,215,625,-572,-883,401,-30,1171,991,379,-1002,-1910,-269,-3247,-15,235,864,-347,548,-141,-693,396,237,-124,-821,-770,-1475,-735,769,-674,1253,291,-821,-224,1307,1513,1957,1255,1886,215,-621,-1417,-1426,-713,642,-979,-1005,780,177,279,1045,701,-458,-1222,515,1076,1294,1126,86,-202,507,848,635,646,-1691,447,1374,40,-636,1503,-1706,-708,1181,-371,-575,-1110,374,451,782,775,-612,-1052,-407,1164,-1185,903,918,-78,-840,126,861,-424,-340,-1496,-81,475,138,128,-559,-1029,-395,-2,-1135,873,-294,-1727,823,-626,-390,-2283,-150,1385,1439,2164,1251,2038,429,276,1155,-410,-117,-1046,-207,-217,-941,333,-1197,-519,-250,-1028,479,281,673,848,140,-529,401,-852,-1098,220,1346,821,-501,-544,663,-261,457,-738,650,152,-21,-1238,346,-1689,-810,1876,-1685,-270,372,2675,1693,-337,315,-1361,-232,936,-395,340,-203,-826,717,-437,415,424,1799,-188,-575,1172,119,470,604,362,744,-292,-432,-363,-101,-964,238,488,-846,1068,1341,-183,-992,73,-821,-1164,-263,1570,452,-1198,-1395,459,-1072,-169,-1124,-895,238,-368,1186,604,180,-103,123,-451,-1237,-673,769,953,-489,-85,-77,-509,-521,262,57,-61,566,488,-60,742,-576,536,882,44,856,121,1060,-1780,185,-713,68,653,1363,881,536,-1186,1295,-2244,-1057,-578,77,-213,655,666,415,37,1599,-1611,-374,5,1030,-2,480,65,-518,-266,1132,-513,-133,-126,-202,-130,87,148,-11,-1097,-831,-247,1566,1087,474,-23,-915,-1240,403,-599,-87,-347,565,82,-40,1002,-511,-945,792,659,235,-254,71,982,-383,-122,-490,610,-472,-401,-408,-353,-483,-647,-417,-870,171,-837,-287,608,910,287,-163,326,261,856,-1067,-732,-96,-928,-324,1388,-394,-178,346,-3351,-761,114,-2627,-881,1457,14,-1461,1361,2159,-131,1153,-293,697,1289,1175,-336,223,127,354,1085,-855,303,-694,-422,-210,1024,1661,-863,-839,532,1882,335,-856,-407,5,-937,1026,37,200,-1043,-503,-1389,14,-283,-48,885,995,1523,232,-103,410,467,1349,-229,976,918,-80,974,569,1104,-468,858,465,1000,276,-97,-121,-138,2,-390,1101,675,-533,130,-1249,-1007,-1053,-1478,-1091,127,-897,-738,-80,-1426,-1337,627,-888,379,-1747,568,-1425,1383,826,-158,-750,-314,-471,-269,-1617,-58,-307,-1204,151,-852,-444,669,904,-333,-827,492,1872,-1357,623,670,1941,-36,-328,-314,-323,365,1268,627,545,-332,963,-417,2071,757,-23,-1236,283,223,-876,43,435,-257,163,495,364,1475,-25,-287,129,141,-188,-548,1660,969,1046,527,124,340,-706,826,-656,-779,723,-645,-489,-634,6,-588,2,480,-447,-6,-417,-17,1949,773,384,-820,-247,68,-1001,1613,1592,628,-220,-788,-818,172,-290,196,-231,-1246,195,289,-1239,-392,-889,-21,324,-1606,431,37,996,-123,2231,894,-62,975,545,800,1377,-522,-992,306,770,921,1590,-303,-1277,-593,176,-1038,-839,607,-550,45,-559,59,281,-797,-493,177,-1743,153,22,-1034,133,1107,-792,162,130,-277,1203,136,899,544,-771,948,-177,976,-18,872,-378,-491,464,-510,1101,436,933,767,326,-420,-1145,1216,-412,25,1527,-1355,-147,-1108,-822,161,-1066,780,100,-1921,-89,20,2183,192,-549,559,303,-704,290,168,-121,487,-96,908,-406,413,-105,335,-380,-1186,428,277,1260,370,1432,-133,1561,565,-1073,-304,982,844,-962,1838,948,-651,278,-188,-160,-145,770,-653,897,747,-711,-689,846,227,153,-634,-811,-929,-1451,-727,915,-378,590,1164,128,-363,344,1082,1045,-228,-386,-115,713,-261,-964,184,-305,-1082,597,-973,-283,-995,30,765,565,-228,311,-520,954,-1994,-525,-1286,582,702,-615,814,-1622,-139,321,-179,-893,-363,-62,474,722,803,376,422,-230,225,-744,1068,1277,-267,464,-179,740,1290,-260,-1104,220,-821,-1142,156,-79,1702,261,-983,1456,1085,-973,-1373,87,-496,775,-686,-495,500,677,879,588,192,1178,-117,-346,20,919,568,180,558,214,596,-284,1015,-76,-642,-787,160,661,1139,930,441,-1086,-985,331,-669,-688,26,-1612,1042,-685,-97,-922,-676,286,398,-459,1369,1905,113,-314,-881,-694,1098,-1023,-1600,982,-411,-1434,1426,43,-701,91,646,725,-312,-123,-438,-159,-658,-437,-1021,1623,-435,-10,-423,536,895,-2299,-496,-862,-180,670,1758,-2640,721,494,-910,-954,-737,-185,-530,659,-538,-1243,452,442,-1349,-1559,-371,-774,-540,390,489,-1050,215,770,-358,36,657,756,927,-542,-487,-463,751,612,100,237,924,856,-479,-581,-120,1063,243,-359,1134,-176,697,-307,-851,105,-743,284,972,686,-1655,-1038,-236,505,-47,3122,899,856,-764,447,-352,-70,-915,859,1560,-1256,295,-119,-1099,-915,315,-93,-77,1849,726,-1089,534,803,620,292,-1662,-1246,25,-902,1558,-1659,360,-560,-363,-1313,-961,-2366,-2581,-1596,-1335,-262,-78,785,-134,701,1135,874,269,-79,-381,796,-481,404,-1498,-2060,-1664,-543,-1365,400,335,807,678,580,675,1082,667,1542,113,-338,1430,1121,1030,1441,110,-203,-658,1759,-1433,-1829,-821,-1261,-125,-351,601,-1044,-612,997,-2419,-904,-356,-492,1187,-448,1301,401,-420,-357,1009,1547,610,167,-71,-872,586,-384,1011,544,716,1207,-742,284,478,1476,740,912,977,-1311,-1042,161,118,397,-296,-853,779,259,-858,399,-660,278,-570,-532,687,-132,1297,-212,-253,352,1107,413,-512,-139,727,-521,-1726,-1519,-368,-191,984,-250,-79,727,-296,-268,-422,714,977,-1202,-228,-1042,24,1681,265,603,-1475,100,-1125,-285,11,-1056,933,-210,341,1855,116,570,-584,2212,134,-886,784,-1216,-383,1885,1097,-802,454,-2173,-60,-2249,1535,-46,280,-311,300,776,994,906,-370,789,-1121,1102,-656,-487,486,1501,-726,882,-274,-910,1040,323,-637,-258,-443,-383,203,330,-612,-570,1130,-254,845,-648,832,148,-1018,-403,-1344,-431,-499,672,286,-694,334,-636,-1027,-33,-664,310,605,-361,-44,262,-365,-635,252,3,609,170,205,-1550,-94,-1216,406,-343,878,1002,972,-977,305,233,-719,1121,731,1253,-1666,58,360,269,481,-748,-1191,-498,865,506,1003,-82,-162,-348,-1605,311,1130,128,-622,773,790,1191,-764,383,842,1320,338,-348,-17,-693,2508,420,1721,1623,1483,542,-1071,-2,-351,436,374,1154,-220,707,550,-602,-613,1013,717,467,-596,929,351,-880,-984,-752,231,744,173,-448,11,-1277,-287,852,-755,406,1185,29,-846,1046,-250,-50,-138,158,361,135,-1233,-252,-2272,-118,-938,-547,-613,-852,1540,499,-541,1501,-269,-1238,-405,-364,428,593,-529,-1498,497,-163,-88,-9,511,476,-796,361,-1240,722,182,39,237,869,-955,-717,1617,-676,-1088,-1028,-125,1386,-362,-901,110,750,1232,-138,-1903,828,-589,-33,1611,1841,-143,361,1001,494,770,940,292,-1421,-585,-979,-213,69,-1139,10,-1366,-291,254,-734,-1559,258,-5,-695,312,-198,565,434,1288,636,61,44,-1441,-311,890,-685,-946,275,65,-148,-316,-868,871,396,-535,-1187,-1043,87,1205,872,1321,-1354,877,230,436,149,-1098,-118,1599,50,-633,875,-405,-1024,-1147,-212,-849,-334,-197,16,698,437,-752,365,1065,-559,-1754,-223,133,783,1047,-187,1819,883,144,897,805,-438,-1225,-1004,378,-567,-1215,-272,654,-743,-1208,-1128,148,512,808,-1007,-733,-1182,-754,-61,182,1043,-928,222,394,-409,-1034,769,-511,247,-290,-372,53,299,352,2,17,-1179,-861,812,1369,-495,-1292,-92,377,-52,-1081,635,-30,-808,-790,-197,1404,433,-1387,531,134,233,-558,-661,-1135,371,-1738,1323,-717,-194,-821,-1102,1102,1062,67,-147,555,-1274,927,-1161,653,-3426,-322,805,-748,82,1741,797,1076,1059,504,-47,-1002,700,1098,676,-1165,-1035,133,-311,-638,-761,416,54,448,1450,462,519,965,1071,481,-400,-517,540,-1457,29,745,-304,-616,779,61,-110,736,213,-602,162,411,491,523,-1063,-455,-966,-791,-192,-264,-316,-646,501,-103,739,531,-893,-356,837,1379,-1125,774,154,636,88,-527,-1261,271,-1106,-1320,110,-341,330,-1981,1258,21,62,1836,127,889,-577,1349,-1887,-404,1004,505,-38,-408,-1650,-507,-1438,-644,605,1252,-960,992,927,161,50,-217,-20,-225,476,871,958,907,-476,-1402,870,50,831,167,903,-627,-801,227,1064,1033,-906,851,-421,-474,502,-1173,-315,-241,-653,715,-213,-427,85,-969,-520,199,140,-977,-1043,-740,2625,95,962,-178,922,-630,-70,-581,481,-380,-1162,802,-88,-1278,1944,-540,-1940,427,399,95,296,-782,-567,-457,-1836,1176,1685,265,-1194,-857,551,598,397,-206,744,1206,-500,-863,-220,-632,-1026,589,-1380,120,-64,1347,-850,-662,-381,-105,-69,515,-415,-320,1141,224,779,-189,-487,-151,967,-907,-583,-547,898,-418,893,-270,802,627,116,-415,-260,-448,-1292,-791,-27,-1282,-87,-2024,14,-1016,105,-837,-1536,177,-615,1249,-450,-713,-1052,313,654,161,2451,1156,-187,-240,217,1180,-375,-1187,-948,-865,-843,180,-420,845,-738,-204,1312,-569,211,204,-782,267,-539,-645,-448,-506,-1486,-1099,994,940,-390,-357,-1625,-861,-481,-744,627,153,147,-782,266,450,-1821,-651,-1845,-940,-1227,721,-1128,-243,-1288,-1058,889,-850,1128,225,1175,294,1311,-461,783,731,965,938,1369,772,1093,594,71,1273,957,-163,-262,93,705,-131,447,-285,-473,130,870,-1277,-172,-521,1051,105,-284,-585,646,-925,137,835,710,-156,-1021,23,2030,-722,1124,-794,-1468,806,-445,258,-1044,-2000,919,333,-568,-326,397,182,772,-197,448,-314,-347,-639,-484,914,-1629,338,258,430,1177,546,814,643,1118,-395,657,-424,720,261,-841,412,319,-35,-394,-835,-1496,-593,-449,-396,-1346,-81,829,-25,230,-1019,-446,699,-318,-53,866,1,1031,478,1403,129,1285,360,-1397,-113,-1956,-626,828,153,-25,-429,-1787,-511,-1088,937,-550,287,-1455,935,2970,-822,281,251,589,492,-542,-299,-762,-801,-199,789,-919,1205,-442,106,481,-1458,-709,223,-533,1163,-1651,1185,-875,-823,1175,1102,-72,-513,69,-517,-996,-1058,346,-1495,-936,435,16,1653,1601,1131,-703,427,-201,-12,-200,1381,-75,-22,205,647,-302,518,171,-509,271,225,265,-1324,-1480,-864,-916,1195,759,-493,-874,-260,1704,-994,1317,-478,-666,-777,-81,770,-165,-848,-380,-774,-797,-359,-1182,371,-414,1923,-298,197,1033,1272,-1120,937,-70,16,-343,1333,251,-157,781,885,-371,128,594,-231,1096,945,-1034,-1524,1253,-38,-359,-352,-829,-83,258,-1227,-862,986,1136,653,-89,232,-451,-543,-700,139,138,619,345,734,960,1077,479,-658,171,691,434,-836,-325,-204,573,-124,610,-833,-815,60,726,24,1147,-472,-1126,-490,-907,-1818,-1685,-1331,155,391,301,-1645,-602,305,190,1782,865,1615,1318,327,603,1308,-1312,-728,184,11,106,-858,382,-418,-328,-1330,-279,599,910,-872,1417,44,456,615,-645,167,-712,846,-218,1446,-502,-1282,-1044,-301,597,406,496,-694,-500,624,465,1055,-315,-129,-724,-318,-519,465,1054,-423,359,401,-234,900,-1288,-114,1148,288,655,158,-392,-906,-367,-1178,-1488,183,-770,-1093,588,-1408,-277,284,-284,616,-180,219,575,922,435,171,-921,-1086,-860,698,-981,-1633,1210,-793,565,-676,-663,-241,637,-357,19,1728,-172,79,275,123,-65,141,75,654,2043,80,-72,505,66,-112,-2921,494,-202,462,621,-429,223,1224,1509,1945,783,-709,1743,-431,410,103,1090,-438,1116,-679,166,1132,644,276,516,-140,81,592,524,-537,-130,-904,364,1285,-467,403,-1174,41,-444,859,937,500,1057,1346,1304,960,1241,929,492,29,1308,831,-1105,-802,-1408,-1332,-1448,-1333,-2306,773,1547,-384,1539,85,-1609,684,-35,-467,-832,207,-917,-296,114,109,434,169,567,198,442,-393,-601,-1700,-40,-324,2026,285,796,668,92,326,-937,-965,517,9,638,-2128,50,1346,-30,-1893,-421,177,-1330,-2207,219,-1278,-471,1226,-116,162,-52,-862,-4,80,432,1375,-1112,-933,-1366,-1022,893,-1007,371,-735,-50,-1388,-1321,175,325,-109,1457,1395,-34,557,554,499,662,-800,891,286,477,1092,-145,-662,108,3,-111,1187,-362,-1230,1206,-750,292,-315,1384,-1131,2023,-221,-223,-1017,-199,436,-130,-528,-901,-1118,-1219,-113,1046,-948,793,1260,-502,-431,-331,596,-348,-313,935,-762,1069,478,79,198,-728,-1019,-235,-103,838,-1320,-226,-559,1075,-1110,-160,622,699,69,399,143,-645,944,126,-1071,1005,954,-116,-475,-93,1080,172,-372,-93,1274,1168,-566,1000,-194,-586,-1030,-34,-1060,-1358,8,-247,-393,353,-446,-172,530,-501,-917,-1043,-565,70,457,-336,-233,1944,756,1548,-613,-627,-1631,-415,629,-414,-810,1005,-648,-1072,748,538,1204,-1599,936,429,-1960,329,-388,-442,1264,720,219,624,1395,-652,-748,770,-214,-137,1370,513,1306,1272,40,575,-1050,789,-1555,1388,-804,1220,-444,-1234,215,-272,-1500,-265,-419,-151,-722,508,-462,552,-509,1406,1739,514,1105,1718,976,-468,-938,-2049,-595,-1010,-7,-288,-298,881,217,-137,-696,-298,-524,-289,-460,515,-1264,-828,-839,457,805,1159,-1205,27,378,2309,482,1309,-54,-424,-850,213,409,930,642,784,352,-94,-845,-96,1046,610,-374,-529,380,145,1790,555,-172,154,-536,667,287,696,-1261,-130,669,230,-1847,-567,-474,1218,233,448,803,258,-960,827,-978,-441,576,-592,-1059,-547,-1459,229,-981,-1605,117,-824,-1367,173,-905,-555,949,-179,-125,426,-1196,191,-1690,-1791,-798,575,469,325,-732,-745,376,-562,275,1173,693,1149,734,1268,995,721,1202,-1041,355,-1140,-1503,-671,-1153,-802,698,13,-141,-534,-558,564,-872,207,887,1479,-608,-292,-684,-242,856,23,-102,603,-108,-1336,-950,-638,994,-860,443,-2063,684,-345,829,-1049,1217,-1253,1025,-335,930,-1001,405,-1948,-484,-657,999,1103,1063,-562,-111,-872,-6,1345,-1028,-857,-166,340,331,980,1224,872,326,-378,1083,465,-81,660,809,-404,-659,221,-1195,-608,-450,1038,541,-646,-166,-342,89,-209,-1043,116,-557,-454,-493,92,-535,998,-2419,498,772,-336,1551,150,-637,832,352,768,258,359,-12,-2483,1014,-1212,-944,-79,511,797,127,679,622,1556,206,-310,940,1058,-748,859,-759,-760,314,-1398,-1077,1139,-173,854,445,316,1064,-212,1869,1239,650,1790,-81,-1209,-609,423,-186,874,59,-564,-247,-714,-573,811,-786,801,311,-572,1241,1149,1581,1593,1659,-154,-582,782,401,1034,321,950,-771,467,-44,112,1198,-629,227,401,-155,1393,1399,602,-461,551,765,265,1267,-466,1333,-363,-366,-419,260,-582,187,-481,1190,-2265,-594,-420,-464,-925,-1494,798,-1639,-938,-819,-55,1390,409,-566,-1336,130,-82,795,182,426,347,-1878,76,-115,1740,697,207,107,-393,-543,-154,2293,626,-290,-103,-623,-1294,-1593,-216,-623,555,-213,-528,-891,937,-699,-830,-558,-526,426,518,1378,1769,257,892,1634,847,809,-955,-1092,-1048,-780,-386,54,-529,-446,1376,1486,409,1439,577,1798,364,230,4,-1663,-261,696,1229,-115,-436,53,-559,592,137,-1105,-857,-595,1529,491,-405,-1755,-119,-382,-1205,-870,-110,-725,-36,737,934,-1215,-1077,1412,861,-387,-24,402,916,-764,281,-191,-404,657,1434,-762,-136,-461,756,411,-539,155,-3,485,-1047,-1020,-762,-1064,-486,64,-685,-152,-466,-1298,-210,720,622,98,-717,-435,562,-122,-390,-1160,64,-820,-970,363,-452,-189,-1342,279,-821,532,780,1329,1222,916,966,143,231,575,-523,2293,423,-276,607,-2742,-322,-664,-1403,58,1142,1140,-101,1317,43,475,-688,808,-539,-1305,1173,418,-542,605,1035,574,-2127,-29,661,2,215,-370,-421,-712,-663,-630,-493,-742,-569,-1032,529,-1699,-425,-278,-799,-4,-161,-290,973,1171,587,1223,620,1257,-775,883,729,363,-865,-293,648,49,-649,155,-802,48,1014,-150,213,-703,970,95,288,-1133,-1413,-1384,-949,-528,-1694,438,-991,154,-909,-693,-632,451,562,1105,-877,-923,-986,-988,-37,120,227,-1682,1625,1547,8,380,-237,492,158,-406,-756,790,336,-510,359,368,-337,-1325,-1185,-428,405,146,185,929,551,34,-369,-1027,-651,181,107,91,-155,-444,126,-137,31,155,447,-365,1016,707,-721,577,-765,54,-709,648,246,-700,400,-135,734,255,343,785,-665,-896,129,-584,270,-102,330,347,595,451,173,-441,116,85,781,835,-16,31,441,-159,246,66,-417,353,-835,33,-331,494,284,272,-952,1202,-212,91,-314,-167,1106,1031,698,-361,536,-435,-452,-600,46,-136,1614,-661,25,-26,732,-76,1184,753,520,202,342,-578,1176,603,450,955,-273,16,-646,742,-627,817,291,-422,-475,-543,-22,-15,1054,174,-601,-9,323,398,-331,655,-725,-1049,-550,-166,-572,425,796,1220,1332,1137,-390,829,200,-150,-100,-943,-481,-1015,549,-750,-138,-751,925,-905,-597,493,1135,-300,-272,648,674,477,-260,-2085,-300,995,-2282,-556,1816,47,-914,1936,-48,971,-918,-318,45,125,1169,-284,-195,-1201,-336,-126,1326,-460,-807,499,-84,-98,512,-1213,310,-87,-328,770,993,-269,124,744,-1766,432,-1343,-738,-794,587,219,-993,-340,248,85,-734,-340,-97,770,1259,195,16,1215,-290,924,1381,1079,1042,273,-534,482,183,-615,42,1184,-587,1620,702,521,158,-718,-425,1049,-129,-234,393,-1260,-257,-517,285,-323,-753,-348,625,126,-2417,389,1264,529,846,655,317,-192,-246,58,-68,-220,521,-785,-457,-463,110,-1535,-944,-105,697,-114,705,1116,-313,1073,-764,1198,55,-1306,1315,-299,-1247,1003,-1832,-1523,-741,1103,828,-201,449,-365,803,-317,-1345,-37,792,80,352,-555,-577,-500,345,1067,71,-237,930,389,835,1187,326,-317,884,-134,-866,748,-219,917,423,-142,-63,1204,1007,699,-947,-345,-683,-600,420,100,434,831,-506,-338,42,1300,-2162,221,-637,-347,1148,-142,-293,312,-6,341,-519,-797,552,570,-139,-1724,-709,-82,-804,-18,-223,-184,616,-1089,2,-1102,-262,201,-1534,1583,975,-833,-404,-564,-57,-154,1429,1086,-213,311,-1370,-147,-957,-49,1051,-1425,-743,-535,-377,886,-531,47,-73,-748,1022,1271,-696,592,1637,-654,714,-158,1385,1730,-476,323,392,20,654,-611,-1123,-709,1202,4,-596,-218,745,-486,40,500,-259,368,52,10,641,-1113,-161,-1462,1333,-512,-295,826,-988,-385,237,-212,270,-654,-822,1219,-467,677,1161,-81,816,625,905,390,1238,621,-114,-1160,125,-1968,1001,-669,-109,-1393,-855,1040,-604,2625,276,850,1102,804,-65,1181,-461,287,-935,-723,60,180,845,-314,854,-321,-974,-783,-733,-667,-117,822,-11,-850,-119,168,-686,767,-564,48,974,-867,-630,-305,-361,1140,-798,-136,-843,15,99,-327,-886,184,-888,383,-1016,-691,90,-802,77,366,-625,-631,-903,806,-970,1016,-260,-136,-18,571,-847,565,-118,-110,914,1655,1402,-230,-75,1597,-1741,-73,-1123,-164,471,440,92,-886,-209,-268,-60,-615,893,-320,717,-3,663,233,-98,1068,1281,-657,-100,146,-172,1128,-74,-688,729,1421,362,562,1099,592,-121,743,94,-531,-216,644,-1005,647,389,108,89,762,-388,846,389,1278,10,-42,-123,-55,85,638,109,575,1007,-905,525,805,1117,156,629,712,629,46,-178,-69,619,-136,-354,664,-1604,936,-255,-554,91,-181,-598,256,-96,-557,-934,-560,-259,1282,-1057,-592,-931,-7,770,-1200,196,-224,-854,-20,796,-89,-376,1860,-1234,171,540,-857,-115,-252,-784,1028,479,-72,768,-3,-80,95};
const static uint32_t LSTM_01_weights_cell_dims[4] = {1,1,48,88};
const static ConstTensor_t LSTM_01_weights_cell = {&LSTM_01_weights_cell_x[0],&LSTM_01_weights_cell_dims[0],0};

const static Weight_t LSTM_01_biases_cell_x[48] = {-33,-116,350,613,-1518,1861,-337,-1027,-46,-734,1558,170,-516,122,-1670,1113,667,1539,365,-1591,-621,-212,-131,600,-1194,1589,-751,-1156,-1011,-71,-271,522,-457,-8,670,2354,284,-531,-771,-8,-323,1585,-733,24,-91,810,-1087,1128};
const static uint32_t LSTM_01_biases_cell_dims[4] = {1,1,1,48};
const static ConstTensor_t LSTM_01_biases_cell = {&LSTM_01_biases_cell_x[0],&LSTM_01_biases_cell_dims[0],0};

const static Weight_t LSTM_01_weights_forget_gate_x[4224] = {338,-1393,669,-872,-386,-88,-554,-261,-814,-713,-941,-211,-320,1322,660,1111,560,893,-960,-573,827,-279,-651,-269,-350,-290,-223,1272,-323,1273,-345,1423,-558,-74,1403,845,1137,982,165,416,156,-1233,-172,-388,-522,-1224,-145,622,-61,527,1046,189,347,760,140,1097,-396,1003,-660,-1044,1497,550,-241,-668,43,-801,728,59,-238,1016,707,-1478,365,-36,457,-388,-708,527,665,26,-452,-233,162,248,-4,-1251,-1128,804,-1658,447,218,-75,-112,423,-1468,-1015,-605,458,1295,953,452,1537,-277,340,-491,792,324,-140,-774,-893,949,112,332,953,-2,-995,457,-304,166,436,292,-1824,-1599,594,-1052,144,-961,-41,459,239,816,276,-508,881,-429,-1003,267,-1744,1154,253,-709,-272,226,-538,-480,-1540,-271,1168,-529,605,21,886,-1679,-828,-1029,-77,437,1549,471,1795,-276,720,415,41,-724,73,141,183,-136,-452,517,2,-2044,991,302,931,429,-488,-228,-746,-808,154,-901,-290,-252,429,-190,109,1461,194,-627,1339,1044,303,-628,169,391,-1626,-1251,-847,-118,184,312,248,-264,-468,-730,427,717,-914,-123,746,-593,-875,373,-509,-620,-59,1053,193,281,1446,294,1104,-445,-112,-737,632,-449,1022,-1082,797,-24,-307,-151,-352,-179,-764,-96,1140,-299,-1051,-756,68,-1349,-146,655,-1585,675,-947,71,1264,514,-89,-1017,752,-1030,-723,820,-200,-582,268,433,-482,557,-241,-161,610,-18,97,-660,-1031,-281,-733,-575,994,597,1093,-259,-631,365,-1284,523,-59,309,-937,-922,-63,-49,234,1021,-587,-289,-534,975,-454,630,316,-647,-189,1052,363,-330,-297,34,241,-679,-829,-190,913,-293,874,-44,1100,843,-373,2013,-397,-219,50,84,749,-1485,967,796,-134,456,43,-868,-1226,-1343,206,362,611,-320,1364,208,-563,852,94,-1970,-262,241,-34,613,1654,-81,1497,909,-826,674,-755,675,-173,4,-1356,675,-654,230,-989,-1321,-617,-277,962,226,-509,-1188,-1216,-456,401,241,-339,973,435,1086,-91,-64,-944,-927,1243,505,15,0,712,650,-438,118,-550,307,256,511,191,289,1311,-142,540,970,-587,-1892,357,-377,678,378,-882,249,-315,1991,535,-458,536,443,-307,-890,-588,-559,1014,-533,723,-107,1263,1187,-1005,562,-1079,-408,-406,233,-531,-577,1358,533,1616,1293,-136,813,-1179,-1210,137,995,-1296,505,1184,-497,400,451,-41,776,241,-59,-813,57,884,779,161,931,355,1086,-491,508,-815,1015,-644,1005,280,349,508,-958,-1082,-727,851,-1132,-489,-385,860,-38,766,-986,580,-263,45,220,1354,1112,-366,1539,-499,678,35,-790,383,-1,23,105,-115,-441,-222,1007,1364,545,470,-108,-456,815,-598,388,90,-1894,-676,165,1003,-204,1024,470,-430,-100,-896,-448,708,155,54,924,-860,877,-38,347,-626,-634,158,-37,-1638,-1524,-670,-576,-49,-100,-1770,-426,-584,-1091,855,-769,42,670,67,-787,865,92,-820,-1228,-1090,-1273,-213,-588,267,-919,403,-30,-457,10,-544,937,1095,876,-141,867,-786,332,258,205,-626,-1074,32,-327,761,837,-456,2033,-307,-1701,1012,585,-427,-422,132,-94,-561,-500,304,-380,-1164,-525,212,238,880,-193,-234,562,132,-295,-350,70,-567,399,-610,382,-45,-392,264,-1270,725,1332,385,649,-175,-1010,1916,-1223,-227,-73,-329,314,43,1037,-415,719,-366,946,53,275,355,631,1512,1458,956,-619,-265,578,-1067,-616,177,-963,-482,-330,943,-46,574,-279,190,581,137,1141,594,320,1338,-90,468,-620,-1087,308,384,819,-169,307,311,299,448,-868,-1214,639,609,-220,-1134,570,-157,104,620,-250,1395,-321,1255,-244,1091,52,939,-169,356,981,-702,-1086,1752,39,1140,4,301,-1930,1358,1194,-311,461,795,-583,343,-885,-67,-568,-743,703,729,-71,-233,-348,-525,1027,-861,151,-133,256,-227,-826,-374,-1050,-873,407,337,632,-904,-176,-1100,578,27,-608,-787,-1401,335,-715,-283,297,29,-569,1127,281,-640,256,-143,-482,234,-221,289,1995,556,-557,-540,-115,-489,829,-475,-82,-219,802,-279,951,-98,-268,643,578,-673,-304,312,1220,817,730,1059,-290,-418,1037,-927,-1193,-1302,1325,1266,384,256,-648,-697,-497,-819,422,1858,-598,28,1017,-451,200,-1166,-180,835,550,-853,-1064,-172,514,367,1237,-66,158,226,1049,1171,-746,-666,-221,-95,1002,1503,1431,-422,350,553,253,-603,572,675,305,-380,1187,37,-128,1207,1429,819,-149,110,-430,-222,-622,513,71,599,713,-193,-199,612,1144,-159,-69,1313,628,-128,-659,1579,2163,-497,68,1,-291,1136,-1048,583,28,-1205,-949,-1843,565,543,110,-441,-1160,864,-316,-348,1659,144,-682,405,-1233,-174,633,417,-553,248,403,757,1263,554,-837,969,507,230,1008,-584,-884,43,811,221,335,1106,196,778,-38,135,-1018,-589,1136,-333,1238,415,975,235,1505,-27,798,468,429,-285,522,-516,-632,-111,46,-283,-446,-7,41,747,-2635,884,-630,275,601,-1068,-392,741,160,-30,-1515,257,-757,-173,1563,-1785,885,208,-1491,237,277,-492,238,-3216,293,689,817,1331,450,229,920,345,623,1001,1166,575,-1276,1254,-769,1657,306,574,-786,1268,-79,-981,-597,41,1161,753,965,469,-418,1270,-509,1305,1444,-144,-467,697,-488,277,-572,647,-1021,198,-72,-78,1011,1144,304,-73,533,-953,321,-337,510,723,1011,697,47,904,-728,-646,-382,-1971,-410,-43,1306,1034,-418,-545,-314,590,200,-955,-391,60,173,-1935,1103,-41,136,-1124,1064,94,-1149,-591,-627,145,773,738,1378,-1052,-255,199,535,430,-458,-310,563,392,-711,-288,-1136,-395,-375,-734,-524,1257,15,257,-83,457,-1044,-738,-357,557,-290,-621,-338,-658,762,-781,-1008,1060,111,-642,-39,504,141,46,917,795,1016,935,-693,-263,-566,386,10,-385,-402,-486,659,696,183,-408,461,-275,-583,428,1390,926,-165,216,165,528,235,-157,-153,994,1612,1575,1751,449,-1320,-401,1264,-98,1195,182,586,-204,-970,-106,-46,-646,41,-455,-74,-408,1,-366,420,670,758,-72,71,168,-66,70,-121,422,-210,-1289,339,-10,-194,476,-821,529,166,299,-320,861,-35,-625,-921,-773,168,168,160,473,263,-897,-475,-113,444,-354,554,1211,767,-449,1244,-223,-720,870,-119,-708,1263,1126,224,-379,935,-527,-473,-270,655,-116,167,-479,1379,-675,1138,750,701,-820,162,-647,-326,-558,33,443,148,567,453,-1010,-822,-418,341,27,1530,166,648,832,135,838,1054,-1957,1003,-266,213,145,367,-917,-351,-326,-127,813,-717,251,-416,102,-453,-439,-465,-932,-1027,-1256,221,724,535,-632,771,-165,-274,957,46,-1103,-464,602,288,-167,-599,-55,-285,731,-399,-402,547,-1077,-213,-103,467,-182,-650,-258,1010,1044,433,349,985,239,1087,-284,67,1594,-845,-66,-1576,-284,-1841,-423,-803,468,-36,-731,560,587,-756,325,144,-574,745,2462,1226,258,43,949,-468,-515,313,668,750,-1638,-1355,-362,-188,-1158,-683,1473,824,-976,-685,-662,1044,213,-438,934,293,-1296,-1240,2791,-198,-31,-1126,-882,596,1301,253,1657,1699,544,362,-625,371,516,772,-779,-901,-602,114,1123,-54,580,-690,432,-511,931,-524,-168,-426,-158,-517,-730,1259,-534,1102,243,-606,-353,-211,317,-794,21,-1042,-132,-22,-543,-8,438,932,284,168,-963,829,-792,-296,611,416,-793,236,-1497,965,1099,688,-777,-955,-307,284,1433,1031,509,36,467,-358,532,92,-377,670,292,-2,1199,-785,634,617,1278,-282,-905,157,-228,668,-284,205,1126,1611,918,1283,-9,-248,1137,-97,438,476,-969,387,518,-430,312,1293,-340,1102,68,1073,-920,-7,-227,-290,-15,1057,626,157,-139,886,313,-197,-393,1183,66,851,453,-480,395,932,-548,-616,155,-161,122,-392,-52,669,-709,296,530,-1219,1461,234,63,-298,599,562,236,2270,-1148,514,1738,235,406,979,452,919,-745,966,-22,30,94,82,-180,706,100,-467,572,-281,-99,646,406,87,1194,-3,427,-1119,178,-1222,-474,-338,1535,1507,-41,-314,293,-707,-59,-768,-583,-763,-6,344,-275,-631,-923,-152,956,-301,1327,896,-372,638,146,-43,-140,-750,-411,-465,15,336,1188,-115,742,-283,-143,-155,1352,-355,-1217,656,-43,616,510,667,1108,-780,384,-1114,-603,622,-188,-591,-943,-345,922,-1,-2,-118,624,893,218,455,-455,-291,-865,-896,1101,-865,1011,-843,350,452,584,419,844,-335,-1158,273,-234,395,746,1416,266,876,781,262,-1070,-894,98,-535,-825,-144,450,701,-217,721,-140,-504,749,197,-1009,464,-571,-461,-413,793,1035,-135,914,631,88,13,284,-159,574,-195,841,354,539,433,41,284,671,2069,124,-79,1752,-100,583,-38,689,66,325,-307,295,-564,604,-166,16,-404,1413,-457,-517,362,173,-1037,-735,-607,-118,721,-685,-167,188,-718,-934,-190,-233,985,8,1722,552,1894,-688,474,1139,572,690,27,33,-616,290,-357,628,-191,818,173,105,-950,245,445,-957,-169,-599,822,-932,40,-294,-484,46,-792,69,540,158,-304,401,21,-540,451,620,-270,-730,713,-507,-242,-762,-1069,692,704,931,-585,-456,-831,868,200,168,530,894,75,637,490,140,-198,246,1181,627,-1393,203,-359,483,-501,124,-425,-148,1817,-273,-335,-601,944,438,-499,404,-499,-228,-546,-319,354,-867,530,1180,728,-615,222,-560,-1635,-27,346,1110,-1844,-43,420,-429,-1110,-505,537,-755,-255,-1215,205,-663,665,337,1142,-215,-567,119,170,-86,-283,379,380,988,-23,672,825,124,-972,561,228,461,-482,-704,1317,258,-297,-399,-352,87,-244,1262,792,-296,-593,-510,184,410,-97,675,-887,-1362,200,-1171,63,-1126,-1769,-831,31,-322,-198,-1287,322,162,1292,-12,139,748,-23,-370,-1713,678,60,-198,365,241,-1010,224,-1275,123,658,-272,210,671,549,-136,576,808,-787,46,-1049,-932,366,797,-349,1368,-713,-83,-219,1189,-314,335,864,384,63,1040,719,-625,-266,41,-1329,428,86,938,-817,411,766,-731,-515,663,458,490,-250,197,655,653,909,-87,37,1462,484,-963,432,1131,-203,191,-603,-277,-872,-45,-242,-289,695,1323,-835,-369,-1170,724,754,-314,693,-191,964,-21,-266,829,1118,-1188,-522,-230,1867,-424,-1107,442,-1268,480,294,-943,-698,-351,-1024,-21,-489,-1994,227,666,40,132,426,-64,-1073,833,161,-801,-36,-572,-324,1601,210,-64,-249,137,421,-466,621,392,1214,260,-390,546,-654,-109,342,-445,-1313,314,8,459,-245,692,1050,412,661,791,-700,338,741,-1,291,4,1385,-1224,-343,547,583,455,1132,172,553,1107,538,-16,-1166,149,778,-274,-1300,583,-606,294,1020,-335,-80,-878,247,266,-14,-29,1351,148,-579,-872,180,138,1075,-2254,374,531,-56,250,892,210,-84,-805,-775,207,64,-722,337,12,170,-261,1135,-784,-1070,351,213,327,1184,-575,-593,480,-666,805,971,34,1170,1008,707,-202,310,315,-163,639,619,40,504,249,-860,131,1001,-435,704,87,-472,1029,495,-160,921,184,-66,29,186,-1216,665,-46,-1250,279,746,-890,-1279,333,297,-1002,286,212,-705,-634,858,-930,-70,-1481,-38,913,-165,-1176,-1025,-17,-387,62,-628,680,-1180,460,304,-215,626,-1185,1010,292,-1505,-1318,-212,-161,1689,-691,703,718,-97,1190,954,-952,318,-196,870,-100,1860,83,60,749,654,51,-1111,-1292,-467,426,216,871,1379,204,757,1493,502,-269,951,966,159,-401,1211,1437,1117,-50,671,769,-657,-941,-37,-212,-62,574,601,429,-215,-866,264,-1147,-1341,599,423,600,1064,1277,83,-333,934,690,-659,1455,-675,-1103,1094,-493,1209,-1520,1662,-524,-823,-539,-1152,630,-554,-991,422,-239,14,967,-824,-1081,-261,1940,-312,905,768,42,200,-215,1000,654,503,-506,423,1989,841,2041,293,106,710,1516,895,1087,714,1633,1648,196,1725,1677,-544,1128,-70,3,261,581,-135,-317,-1096,131,1332,-286,453,-271,-101,1129,-225,1278,-1108,884,-181,259,569,-1199,-1043,-6,-199,1324,-174,520,535,-268,1107,-861,107,-846,-607,1044,-776,2157,273,-52,1456,19,629,547,-503,557,4,158,-900,-1170,510,287,678,-517,-899,414,272,1057,734,-432,-210,-102,20,-436,-455,612,-433,-1175,-963,850,-561,-587,55,-109,723,-657,-1267,685,665,283,-947,-1094,31,322,346,113,568,297,-336,-594,393,609,-757,45,205,222,30,727,636,-362,750,460,-946,1241,-1014,57,-1065,393,170,857,537,-19,-584,418,102,-11,-103,-536,111,-389,1801,-287,152,840,-1018,-241,-156,675,-474,-581,421,391,1179,-203,247,802,1110,379,-229,-514,1255,-1129,239,-1110,1238,-295,1520,691,-153,-358,-464,259,-505,991,721,-233,-329,435,-169,1233,-372,85,-290,309,741,3,352,485,-21,-594,-376,-538,-452,962,703,234,201,-806,-946,125,154,-1021,334,162,-698,151,-1093,429,-149,703,810,-280,471,-1306,-1029,-177,1938,-394,403,-482,-469,168,771,-78,-340,916,-219,-947,-60,429,628,-601,-263,478,-850,562,100,1479,-111,46,383,-641,274,-42,1393,-1424,1004,814,-2874,-729,246,458,47,1537,-255,352,-16,1477,374,-288,-15,1600,-581,-78,862,-560,-767,-250,108,593,-502,-697,-119,149,-344,408,-37,566,265,-850,318,-190,-1072,-1118,-59,975,535,636,461,-342,3,-360,870,439,-72,-810,183,72,172,-1077,-295,-208,-585,629,1165,-1882,-824,-872,-167,290,567,370,91,-1215,700,-774,-971,-1087,566,746,150,-317,-610,-267,-1108,852,758,189,-117,766,-909,-972,639,-236,-631,396,-845,-14,609,156,546,-1625,80,550,905,387,889,-450,-425,15,-462,-1029,-783,688,-301,16,-1010,-811,-326,-600,-407,-899,-422,369,30,-891,-794,-25,640,1184,-168,-980,949,-321,-532,-507,-365,627,435,-213,-598,820,-121,783,303,569,-149,101,813,-410,-591,630,-575,-1308,592,-285,25,-630,-482,2141,-1430,370,549,475,-942,-437,23,554,1139,-149,-602,161,-357,358,-336,-90,-363,-612,381,1274,-996,-597,351,-908,-505,-1281,1,885,381,359,774,-373,517,831,1199,-314,-262,298,259,-546,-706,171,433,274,128,-406,1132,-940,784,491,815,388,-617,401,-758,1023,-634,432,751,544,-145,29,-357,817,-539,625,-707,-112,-147,710,-356,356,565,-65,-483,229,-239,132,-1184,130,-617,-1492,-164,13,-52,1357,-1096,-957,1124,929,-340,988,-690,-602,481,-795,-264,-193,-455,-160,109,-1888,-279,-241,314,-280,606,1108,348,1242,896,1215,24,-48,358,458,-291,-157,3,968,-1630,-739,-199,188,281,581,-610,1373,150,177,-1015,-697,446,-1396,948,900,-5,-131,-952,-275,-208,-74,1280,939,-272,262,920,-283,-725,73,883,301,958,-842,-855,381,426,245,-474,-735,497,1812,716,-592,-591,-482,627,230,-412,-730,-447,-267,-332,-97,-550,-1294,726,1737,1133,-245,545,-365,-44,487,-865,59,-715,271,627,-725,182,-155,-1160,-922,-381,121,-116,-742,45,-551,237,1716,1158,-953,-1117,19,1137,537,575,912,360,-965,-703,911,-681,1414,777,-448,1195,1194,250,-135,1074,-484,-499,-648,482,-427,-705,-713,-13,-228,926,-479,562,-425,180,-191,-727,-506,686,294,-1022,-701,104,-52,-361,-574,-349,382,299,-706,-1005,9,1214,132,-678,-678,1310,546,-294,-67,-499,45,-951,446,-541,391,617,-691,1344,1667,-25,234,-83,21,-32,884,-835,1250,285,716,580,-472,-87,-344,323,-78,-479,-1053,-195,688,-96,-1177,-1052,844,-311,-372,-991,-924,-1267,-245,-290,449,-1394,-221,-455,-833,-109,-1363,-901,523,-1329,-195,-1087,-1057,-727,-174,506,402,-785,-1115,-179,1098,-1004,-899,-122,660,-149,906,-964,130,-80,67,851,1153,20,-902,-852,87,179,-906,270,416,-339,-1410,-857,-839,165,-513,207,785,-10,91,-1144,-61,734,-327,735,590,1185,1040,748,-1108,70,-1367,-551,-1420,-279,-638,881,-292,-640,330,221,35,-390,-656,146,892,708,-444,-756,1142,97,1766,1130,630,493,-442,-388,-430,872,-246,-437,-381,-751,-344,677,274,45,324,-119,-1391,84,-724,-958,957,35,1133,40,301,-388,-709,791,-812,-236,-1322,-309,458,371,-542,259,456,-758,1137,-82,43,229,417,-1572,1151,-861,-66,33,-1528,177,1539,1696,241,-440,518,215,1280,816,-785,1272,-107,2012,79,330,-262,-1405,345,-514,724,-340,1477,-1243,535,-297,-1,925,306,2326,686,328,615,1012,331,-475,-1201,-735,556,960,-493,-981,540,-20,155,-61,-875,-291,-149,-215,-1133,534,-761,-667,353,-918,664,901,477,-908,-233,-278,87,-1111,653,-765,-795,664,130,-143,14,762,947,653,623,-788,-641,880,-935,699,469,-113,-865,-638,1522,-573,515,247,113,-1456,977,-1479,1351,751,513,682,-389,193,-360,17,741,-316,244,831,-753,-132,-1349,-209,-704,-59,-330,78,-616,-954,-1200,-603,1302,-1145,587,1296,-60,-713,707,193,270,-545,-413,-262,416,-46,376,1368,-140,851,-1111,-286,-444,-49,-902,401,900,936,124,82,-556,-562,1074,589,-254,-24,521,695,-70,-745,19,156,925,-529,-56,-887,-158,228,908,175,626,-774,563,-1112,409,-506,1916,295,444,149,411,-787,31,369,642,-1359,1241,708,722,848,-1020,-167,-1265,1376,-650,-252,-1398,-815,-928,437,-725,-430,-1455,1080,1547,-619,-186,-259,-135,620,-461,-73,1124,166,778,-495,279,-759,-359,-552,926,-85,-653,795,-51,-339,489,-190,-78,-1215,-546,695,107,-858,-63,-796,-882,-354,696,-935,-631,600,122,332,476,552,686,363,767,1097,569,-583,277,444,-628,-331,611,650,95,-759,441,-1022,-251,657,1590,-875,-718,-18,-49,734,335,469,420,-156,6,-203,-262,702,-637,372,145,891,786,271,567,-367,1174,-77,-885,600,-673,76,-1437,865,-633,-1135,370,-241,-1379,-709,-768,-102,24,-664,-342,587,1576,-494,518,852,789,407,-759,391,1492,161,119,471,-24,328,-1186,113,-658,392,-1180,682,-1190,314,-1314,-2,-920,-623,1346,147,795,-286,1330,-642,-799,429,1311,-235,-191,487,470,-323,-50,-153,178,-157,-359,409,344,-165,-1538,-125,-797,656,-1420,-918,733,488,1358,1664,-60,1783,-451,584,-324,-246,-1590,1061,405,454,-1422,-402,-1715,-69,752,-265,644,1603,167,399,1503,296,-209,987,522,-593,178,-1322,175,35,538,621,-281,-796,621,-1272,-611,936,446,-769,523,-218,-421,1302,1112,-223,-729,458,-980,-1154,356,800,-422,125,1003,1264,701,677,712,-468,-653,759,-831,1140,952,916,430,-1193,-56,-491,-832,54,466,561,1705,-620,286,-863,-69,-118,-902,551,-196,113,109,-99,496,-790,-346,-434,446,1313,-1178,-465,280,508,-411,887,-353,-806,1011,662,404,14,356,-128,-559,-599,-29,-524,761,442,1464,75,536,-1071,910,377,1430,496,1725,-108,-275,615,-79,-622,178,-678,876,-206,-198,-25,-670,312,516,903,1009,1123,743,-625,416,487,1032,-574,-60,-373,-78,-433,687,-360,1148,845,-628,1192,1066,-422,507,-882,1200,-965,680,-230,180,556,300,57,-502,-4,-34,101,346,-520,-231,-781,-762,-241,-676,1304,1052,515,948,-100,875,300,195,-840,-652,691,1296,-324,-1169,809,-414,-287,-910,208,151,337,1779,-167,-97,-1429,1803,607,365,951,-35,118,-66,-43,-447,-254,303,926,332,152,1036,747,52,1052,933,928,-227,239,1131,543,-639,390,-290,-434,163,-212,400,953,893,-91,-766,635,678,522,947,353,-816,248,546,541,727,785,818,-132,1444,-478,-1055,371,-388,137,-261,571,14,-4,482,-72,-706,-601,-1876,266,-157,-821,-938,1050,-610,-78,797,-702,72,-109,-650,-349,-37,-442,-1283,-547,-571,100,-551,280,-641,-339,-361,741,697,-285,489,-868,-970,-154,-481,589,-1018,442,-950,333,-964,123,393,-685,477,298,-6,-204,286,807,312,285,54,157,585,-755,-231,-484,-1074,450,221,285,-162,105,255,383,-858,-174,685,8,305,-531,-410,452,740,995,395,-912,-1479,-1835,86,-113,-534,58,233,460,-1142,173,777,-1023,238,-272,247,-51,671,-52,-74,-374,1041,12,-945,-1198,183,753,182,-647,-97,-1113,-1192,49,235,637,-207,1121,53,-718,-278,1501,522,428,-416,-469,-1171,910,1309,711,-697,-356,-90,-767,-1033,568,-1106,-857,526,-775,333,-495,150,532,-347,18,-1018,-907,551,-158,391,916,-872,-433,-901,-577,957,-125,-475,468,699,1031,-652,-753,-436,614,1212,-155,-270,-440,-775,502,-604,-1328,333,-882,210,-590,1149,-143,710,-796,-558,-511,-176,297,-737,-355,97,346,-1571,-1501,1212,1440,122,697,270,-420,-26,719,-332,7,579,897,-1626,-291,-94,-334,1245,441,-434,45,357,-962,-123,-23,-1174,-439,950,988,234,131,-915,-256,-364,-235,764,636,960,-370,-848,641,904,83,452,-511,-836,397,136,-946,211,489,-593,647,-103,-1523,-756,-647,90,-801,550,478,-151,-1170,117,292,942,2016,286,-176,206,808,1108,-90,310,-579,-658,575,-284,965,-670,190,-792,-189,-579,1360,-654,-509,5,588,235,327,1223,-1016,276,-1340,763,436,-142,2115,-627,-331,-580,-738,196,-92,-517,111,77,350,-176,-334,-133,-382,557,-764,-664,508,993,-572,494,-47,876,689,-28,-1032,166,-695,-250,-928,428,1039,-463,-876,182,-294,13,-110,-452,334,897,537,908,-660,6,487,962,1101,1070,-1052,717,360,-439,351,-723,-15,-156,-370,18,-1223,332,590,965,55,697,-1254,106,-1065,-310,-78,-852,-867,-437,-517,-349,944,311,1069,682,-481,125,-490,515,-259,199,-259,35,2199,-358,1370,-56,567,-385,542,682,-1135,-81,1138,-1125,-414,1251,710,-15,-785,-437,-437,-41,454,-859,773,-447,-173,-261,263,756,-213,-706,882,-792,802,1078,897,924,983,-203,-18,830,621,203,-945,-340,376,754,365,217,-739,-887,558,-71,590,-922,229,462,1332,-613,1046,29,736,-279,639,-163,678,181,232,287,-431,417,-1104,-23,68,163,1123,-372,-333,-685,-605,-456,-1489,71,680,466,-1018,-96,-2222,588,66,-513,-555,-68,-164,-55,-778,958,845,420,467,689,-772,76,-233,-24,130,122,1364,567,1380,-723,-483,669,-337,-14,538,23,1134,-80,-44,-286,807,480,-556,-131,-458,398,255,-625,1066,-929,859,206,-874,-577,199,723,713,164,-641,-842,468,436,-308,-327,-57,244,-522,1226,398,326,937,625,969,-890,-341,402,400,-77,76,605,1699,-476,-16,-384,2245,-36,-249,-1046,343,-457,728,579,-412,-433,-55,61,576,-62,176,-690,-1565,-233,-571,386,566,-381,-208,-431,-166,214};
const static uint32_t LSTM_01_weights_forget_gate_dims[4] = {1,1,48,88};
const static ConstTensor_t LSTM_01_weights_forget_gate = {&LSTM_01_weights_forget_gate_x[0],&LSTM_01_weights_forget_gate_dims[0],0};

const static Weight_t LSTM_01_biases_forget_gate_x[48] = {1926,2310,2233,2016,1691,2131,1831,1721,2084,2258,2030,1768,2127,2070,2435,2100,1929,1525,1809,2388,1805,1943,1793,1689,1772,2013,1912,1625,2088,2055,1765,1309,1892,2589,1694,1962,2115,2069,2081,2013,2128,2159,2025,1906,2001,2073,2397,2366};
const static uint32_t LSTM_01_biases_forget_gate_dims[4] = {1,1,1,48};
const static ConstTensor_t LSTM_01_biases_forget_gate = {&LSTM_01_biases_forget_gate_x[0],&LSTM_01_biases_forget_gate_dims[0],-1};

const static Weight_t LSTM_01_weights_output_gate_x[4224] = {-102,-280,-533,-227,581,484,560,-111,-697,-442,-137,272,339,-553,-291,939,1501,172,382,1006,194,812,317,806,-101,97,281,-451,854,1362,1157,1344,1512,1512,1417,869,-60,774,71,471,123,-1136,-794,-865,456,622,107,1020,522,332,329,-713,-976,-798,-514,776,-413,-538,420,-647,708,1324,11,-650,-237,-14,-217,1275,-3,72,549,-299,881,667,-955,774,496,513,-144,892,981,-820,-28,-1040,-236,1329,-1653,-237,652,934,1187,1295,655,1280,1022,631,256,-383,-773,-27,-424,1267,1111,139,283,-283,-305,454,382,782,697,1389,-446,-410,-109,1244,1542,533,823,-493,-864,592,-889,-74,1125,772,103,-690,-1086,202,41,591,-1289,123,-560,449,-591,-267,169,-820,1021,152,-220,48,-127,-1188,141,1116,-514,512,711,284,-1010,-1673,-404,515,1140,-134,48,1496,369,-238,-893,269,-1393,562,181,151,-892,-588,375,-813,18,863,1552,1493,949,-406,796,313,741,-23,869,-207,569,1437,1153,208,142,1314,890,122,572,-532,-998,-8,94,-160,161,168,419,746,996,-372,-204,471,682,-852,-757,-7,384,928,1003,998,869,1088,285,-170,321,-399,-92,175,676,-471,370,-1364,335,375,1138,-447,378,-16,-1153,-259,-313,-168,-677,589,4,2374,-414,-478,939,502,1097,-493,-307,1394,-322,-540,265,-511,-772,553,-307,289,467,-110,198,-282,-1183,201,-868,1011,-408,-1398,523,70,-646,0,353,396,-715,-625,-459,-124,151,-301,-73,921,289,669,-905,693,-953,-809,906,449,856,947,832,-444,-34,-192,-465,-1096,55,500,8,-355,-1223,-516,-1549,-25,1079,-602,-532,-900,-2583,54,892,-441,395,886,865,120,114,-711,-665,-38,-372,-988,-1646,830,-112,329,346,-424,-60,-407,96,-1033,918,967,-590,716,-724,103,178,-660,-592,718,-300,364,-165,550,91,72,542,-2201,-742,-448,704,-173,24,468,159,-228,941,-266,-529,332,1228,-475,-36,928,-44,498,-1144,876,1173,145,349,1413,206,141,-407,155,-133,323,-317,366,794,-358,-286,885,712,1702,356,1864,1532,105,229,-316,287,654,1981,847,-328,555,594,20,-847,225,74,714,552,155,-569,645,-146,1563,484,221,45,1067,-582,1085,545,519,-568,-864,807,-221,-131,965,57,-590,-1466,22,-357,1232,-489,1251,459,-421,553,456,-419,-147,577,-213,-939,-658,481,-182,-1829,-1080,-441,319,-357,-1079,-242,-398,243,828,673,-704,268,-802,-1020,-1565,-1245,-1259,-2232,-1666,-145,-1773,-27,-184,-750,-270,788,-22,-428,-399,-778,-486,295,-38,-1121,465,1068,-84,1215,596,601,-701,-32,725,151,-12,1132,-491,-194,948,146,-223,248,-206,520,-528,-328,490,755,-572,-782,1288,-439,-407,109,-1087,334,-467,974,-154,-635,775,497,-910,57,-253,-823,-1316,151,-921,-425,-986,355,-1228,-1149,465,424,380,-737,-1521,-919,682,551,1310,527,-555,680,620,165,-732,533,227,-1050,263,-798,-1283,264,63,-461,881,-676,275,1170,750,662,1549,164,1598,1181,925,912,2269,97,1379,-143,642,-654,-603,422,103,587,641,594,-442,-222,-71,-801,-350,-626,1305,1756,-797,860,1129,-55,425,-297,1053,1727,396,26,-119,912,-734,4,986,-581,-280,328,76,98,-46,55,497,-508,696,-263,2051,-930,245,526,-1077,-406,708,-193,326,-158,1114,-38,217,-495,-105,1282,1409,259,288,1280,1048,-140,106,-38,781,-245,33,467,1537,1096,930,715,913,1465,1056,135,987,470,297,1423,-67,1374,299,-179,136,-834,1273,-174,88,410,1178,-16,1102,-121,-592,483,-668,-277,320,13,-1711,315,-540,-1079,-60,-887,1702,1095,504,932,54,-693,-1510,-501,-427,744,690,-536,90,1152,-1633,-622,977,-359,17,-311,149,108,1659,-28,662,584,-586,178,-95,126,-63,774,1491,178,1536,-492,1347,20,-27,-6,-64,1396,362,54,530,89,127,-192,1069,-58,901,1474,-359,1306,1392,-362,-254,0,-49,1243,645,252,968,1491,190,-1156,170,-452,-821,1697,629,678,-34,-1287,-597,-580,-1076,-864,989,-4,-526,-303,-769,-552,679,822,-230,116,1070,234,-531,1311,-385,410,287,-114,-467,635,-808,-904,-634,-617,-197,-335,-541,-1196,-365,-589,49,98,1091,-716,-1,-415,-695,475,34,-306,-888,16,700,453,533,-897,-807,6,-802,-1011,-1256,-111,-1073,937,616,483,-93,-1292,68,182,191,385,-1413,-73,-508,360,-718,108,-617,40,-106,-276,-1100,-635,576,-423,953,790,442,-507,467,353,-153,-90,1273,1552,-160,-131,701,-1580,-1341,1004,-289,-223,295,-74,145,394,-669,-10,133,-145,-97,-59,102,-401,-1569,-1072,199,252,-833,449,618,1319,1183,611,354,684,-763,-117,796,-329,611,895,1293,-905,-689,-48,334,-542,1276,928,-209,723,-119,1302,1082,434,-513,398,-932,-249,-834,4,-332,242,1417,466,661,409,-749,948,-743,-1163,-132,-327,1022,-199,-1226,263,328,-216,-1228,901,805,937,904,-833,-525,1167,-260,-686,-2149,-1198,451,104,337,105,258,-1704,-2157,87,-407,-513,-201,-118,-65,1392,-2213,-1425,-1306,-1407,-604,618,-141,-324,-305,1065,98,-1181,359,-782,-806,549,-338,-624,1693,-55,-705,-298,415,-495,-1470,685,1016,782,369,-465,-669,430,1565,867,1441,911,53,474,-463,-391,683,-377,866,927,-678,-671,10,1162,284,871,633,-1,-930,708,-429,-764,696,38,-1254,10,354,-1061,-403,-154,-800,139,640,841,385,-218,315,619,-1065,1293,-1884,-181,1054,-1045,60,-206,-2,-686,481,-404,927,185,667,780,-465,488,1141,-346,-115,-739,247,191,656,-159,1071,-685,-623,-843,1311,-1851,962,-954,-1291,-356,-12,-1314,344,-486,367,915,-950,-1428,-788,-513,-41,22,-725,-954,419,-308,-250,941,828,719,322,-45,389,-36,-448,-508,629,-322,564,720,1101,1078,317,1122,-288,334,623,-319,1294,136,944,-307,1002,33,791,-7,785,-603,979,-984,523,1528,-641,2063,1375,465,904,-1151,611,-266,-1045,247,-351,-273,-122,-636,183,-522,-149,-713,-566,117,887,-652,810,377,-298,-1045,-1027,-346,-975,-149,-1626,799,149,297,-868,858,-503,-1326,603,-677,-1386,-702,812,80,340,962,787,-31,103,-359,-1236,210,1079,818,378,-718,759,-832,-234,-378,638,86,115,27,-1269,-1200,-956,-832,-1090,-639,132,-851,-366,-1374,-1561,-1189,139,-1163,-1843,-471,26,1639,-424,164,1315,375,99,109,-510,-1098,-712,579,462,-975,-1253,124,691,-969,-1645,-217,1008,1251,674,-458,-336,496,-413,210,-449,-60,-241,141,-817,902,557,-507,289,480,-511,120,1117,2530,-197,1217,-1112,-1608,701,948,828,298,-186,-792,573,-593,-363,-436,943,-558,-206,496,-1135,-1081,173,774,-292,54,-883,-549,706,368,-480,97,-929,-694,-74,-595,1135,1302,524,216,-408,-617,943,796,1311,901,207,-908,-296,1167,558,484,-204,-877,1612,-960,-937,59,1230,-108,-137,-26,519,-813,2068,2697,147,-561,-462,426,72,-521,-627,976,-932,918,-1156,283,-1824,-1110,76,-1977,88,1103,765,1137,7,69,-278,165,-405,421,1612,-1462,-1178,-698,-985,-697,1222,937,611,-226,340,1467,-219,-1153,930,402,-810,-93,130,-133,87,311,719,778,-811,1147,714,-345,771,-55,-17,-979,-1030,-196,1033,571,17,34,964,-572,746,1094,493,1208,-847,-716,201,-269,866,386,257,1037,-571,6,319,195,-324,-998,-1905,1085,-45,239,271,825,159,-138,761,1349,445,710,599,-136,-351,-142,-214,-297,-888,-892,156,-872,377,-1275,-119,-228,-782,-213,-144,812,-502,-246,990,-416,897,-1191,-1732,459,-823,-667,-263,125,-947,485,204,-1619,-100,-10,-1200,-260,-307,99,-1074,-323,-955,-414,-1349,-526,-1415,-954,158,-666,534,-42,-124,65,1417,-173,238,1801,462,704,1023,-851,-244,-442,582,-145,454,-1068,724,-1681,332,-322,-982,-390,1773,388,-894,-1246,1411,1945,-309,1015,-186,-289,-319,-360,340,-298,-615,1994,9,1384,-751,1691,-237,688,73,217,23,903,1335,-751,-465,68,223,-933,1269,-1019,54,445,661,597,-484,1039,494,-81,1519,1094,1303,-231,285,713,-316,559,185,-390,1470,-179,922,-88,1114,1411,-219,893,1402,728,1191,591,279,-392,975,1491,1171,-36,1064,167,1645,143,1685,-532,-645,-858,251,1369,-681,494,-750,241,578,-153,781,927,1328,825,-975,-775,266,-1267,-347,50,699,-1346,1468,-245,-1594,1007,673,-342,554,680,237,215,97,-585,977,-1470,-852,331,428,212,193,-258,849,418,-159,-1038,64,1146,231,549,-957,271,-203,-55,-583,-307,283,1522,1238,1300,835,57,-230,881,-474,943,942,-760,887,959,1593,816,1303,617,1172,1341,-350,29,434,446,1740,1425,1694,430,373,398,629,-118,44,-104,-64,788,615,422,341,-432,-542,1157,-414,224,-177,-4,2005,816,233,625,-412,962,897,-112,175,474,701,2746,893,1099,-96,718,-462,-355,-750,-1636,752,-103,-1355,-163,-441,-1514,1225,-456,-337,-55,-98,-484,131,1012,35,-964,782,-1192,-316,-998,-207,-1847,-1504,-741,-1,-948,-7,-625,-436,558,843,-814,653,-419,-262,-1001,324,-122,-314,-1591,-175,-792,-719,-1193,455,-126,-1071,-946,-1111,-753,-1231,-825,-647,133,621,186,-601,-893,914,1104,-1043,376,526,-1469,461,366,5,-1521,279,-2327,1703,334,826,276,239,-162,-682,121,-961,-919,870,-516,295,-802,36,-825,-745,971,-249,740,-1225,-1268,-1859,1240,381,273,-209,924,-196,-1230,460,-977,-1053,-1681,-1644,-617,576,-1208,78,225,-823,-332,-807,169,719,-563,266,-1084,1213,-421,-1086,-149,-299,-1452,-1020,-63,-179,-341,-505,-223,59,-1245,259,-515,-971,162,-255,706,-900,731,632,132,-594,-990,556,574,-218,284,494,-237,171,-697,127,-151,-563,3,164,-43,1268,-476,126,890,1142,-881,-1249,1050,266,-846,-2186,-383,216,-359,18,-712,283,790,117,904,-386,1012,-1298,-1022,-683,861,-934,-603,-107,-1401,1056,-294,-749,1132,557,-263,573,536,592,1580,1438,-354,190,1464,-433,1279,1349,890,632,468,-820,-186,1179,91,67,1144,-64,1197,88,424,658,930,656,81,1449,1352,1184,-275,-340,371,1438,-180,-2052,368,973,921,627,1245,425,-463,173,676,64,494,1350,-649,225,-219,-611,-220,-537,1060,134,-111,-515,597,-263,1067,9,433,-915,785,727,239,-718,242,804,1009,-546,-931,108,690,1973,-1133,-409,239,632,-164,1362,230,603,77,582,391,359,-94,594,-535,630,-78,540,-585,1055,-277,-442,265,1052,1353,511,945,1272,-105,161,1733,1364,1369,-240,-165,-18,-620,-589,-1059,-950,413,-512,-208,-656,-382,-1190,-815,-606,673,738,-799,3,-1066,-800,1419,256,734,-328,-315,1397,-459,1497,413,-1569,-1154,341,-138,1482,526,607,-682,232,706,1604,448,-519,373,1740,-1332,-932,-832,-197,-631,175,-404,1217,-218,-290,-199,422,-1271,-448,-219,1634,-224,832,622,905,838,1072,425,1181,-771,-48,960,813,400,16,806,286,113,524,-443,-104,476,1218,-437,-298,-1024,738,455,258,-239,920,-399,235,1025,762,686,472,1384,-570,486,1258,916,612,263,529,543,279,24,91,-383,454,992,145,900,-507,736,-490,-721,160,-1045,131,1030,688,-248,116,-297,-814,416,-398,-862,814,-603,848,88,-75,43,644,-91,1307,-951,546,146,-197,1764,-636,1014,-924,524,-185,860,943,615,757,1262,-121,700,-869,1307,-231,1152,-70,266,988,642,825,82,1299,-389,-716,-648,1153,534,-400,993,1176,23,145,93,238,-236,-130,1284,241,1238,1113,-993,296,-15,-13,915,612,-266,-1315,-654,567,-562,344,1821,74,-399,465,962,-313,-946,836,-1249,169,1065,-818,-806,50,-1628,-1188,310,-333,-298,-2339,-507,-48,-776,-340,10,-1014,103,-1004,725,207,836,-314,-237,535,462,2083,232,938,1100,-124,-234,-464,439,950,833,-108,1239,897,353,567,130,-68,-137,-801,37,-21,-843,132,-612,-166,-862,464,-598,4,-671,-1082,-1275,192,136,-664,958,-216,179,778,-657,1007,375,911,-194,519,-55,268,361,1157,-987,1741,1055,-1317,345,-563,301,-988,-819,76,1669,-12,832,336,557,-632,-1030,-302,-1424,444,1356,-634,-1527,-137,620,311,-372,1039,817,835,-703,439,-257,-284,647,1233,-171,566,116,1122,284,283,97,948,-668,-505,852,19,1072,287,1239,1259,-424,623,701,177,-228,-779,-715,29,386,646,-440,792,56,29,1058,1252,-543,-128,885,-673,333,588,-779,368,362,-161,-889,-444,406,357,-638,-387,794,-27,997,1203,-601,-170,-529,-840,-243,-343,1256,433,-814,158,-1301,-20,-458,-856,244,1121,389,499,627,-267,814,164,102,-839,-498,-1136,-1082,617,498,-1409,84,903,-1183,-1776,1437,1337,889,580,-261,-5,-708,-228,86,-274,517,152,1488,1383,1643,1777,740,-30,1858,-353,1395,1386,709,1508,648,336,-334,291,581,67,349,18,-242,78,424,116,564,1012,300,1406,-139,855,1318,-497,123,99,304,122,1212,-661,1020,-190,-151,-177,-386,1214,-1,-360,166,-16,-954,-1183,-749,809,-601,-265,-167,-1290,-145,-198,1156,820,-837,2673,-955,-630,878,306,303,-582,1205,98,-1371,-40,-1060,603,-74,-701,-654,699,-373,241,-589,-129,177,-186,258,331,-271,101,-53,805,1088,708,1799,454,1363,507,798,312,-45,207,-293,-199,885,-195,1262,963,-500,88,1105,636,150,1284,344,-288,312,943,596,1297,1689,260,1078,1408,166,322,-101,1201,490,349,879,255,366,1070,-175,786,-927,394,357,-54,-665,-57,1185,202,-738,-557,-394,-1092,963,1,-148,79,-301,-726,222,199,1463,-1270,-723,-1823,685,322,156,65,-613,-23,-1262,689,-1075,272,-1686,-97,136,521,-901,1377,799,-697,133,-1565,154,474,-785,193,409,-225,-1189,-328,-931,606,29,-220,-890,422,-437,-1477,693,112,-125,-196,-546,-230,-1099,785,976,-548,-927,645,669,-587,-569,-491,-151,183,-626,991,1044,-570,-312,111,-49,391,-347,1121,-670,101,-658,-794,-76,-50,-726,614,-1278,803,-2061,-1722,135,-153,2124,-820,1622,-180,-410,-64,-383,-537,-373,-144,-705,-1119,66,-1369,-1436,-431,306,-544,765,-188,-675,-490,1258,-105,-583,637,-166,41,-852,-43,-1295,-750,49,1089,748,416,-517,333,317,361,-972,31,-605,-501,-610,1022,926,-516,113,718,212,-275,-21,1379,892,561,819,-137,-282,-309,1651,1500,512,-70,1427,73,-473,181,945,196,636,-1392,-376,1173,-436,876,-778,-429,-436,-789,-114,-575,-274,-241,89,270,25,-105,-619,184,224,945,162,-524,238,989,780,866,438,-451,-472,549,-238,903,-173,-195,-446,1835,-966,-88,10,89,-462,826,411,496,443,1492,1375,1722,100,924,860,392,770,-323,1254,-769,-681,115,581,137,629,327,1553,386,1510,195,1471,443,918,-192,1295,237,224,852,-137,719,1303,-381,-101,641,1303,1554,376,-596,28,81,1007,358,-211,116,-1252,-364,559,1025,-674,-788,-1943,1082,-568,401,-152,-370,676,209,-952,666,-283,-1898,-187,1174,-1289,-1064,1190,-768,794,378,-1069,-977,-935,-358,-301,783,-628,918,241,-130,-1377,274,-415,776,94,1311,1444,1499,-231,-141,-437,944,676,325,189,-288,818,321,690,185,-543,258,431,1015,706,544,-385,-929,-631,442,385,-863,-426,-95,-322,-401,-151,-903,-460,953,-458,-600,17,91,-1349,-128,58,-150,-328,268,148,1155,121,696,450,-1325,-416,38,365,-1187,3,1630,737,-324,376,56,-1095,198,289,406,1257,267,952,185,36,-897,-373,1187,81,-242,-54,-306,-360,-755,1040,-27,36,-791,-1629,-2,285,383,752,412,-89,532,-111,495,-373,-278,667,678,-307,-913,-225,-277,814,-601,211,956,-98,-176,85,882,27,-654,41,-189,363,1361,-299,40,360,834,832,30,-52,224,-99,191,75,-355,464,105,427,-121,-2100,-426,1413,-347,1823,-674,-337,1063,920,1478,-1847,1335,984,-900,-803,-1501,555,258,-141,731,245,-422,-1391,-950,462,331,-1767,981,148,-475,-45,-3,-607,-579,-1293,519,-380,833,761,-380,-298,-169,-133,206,1265,927,69,-70,1408,-105,-74,1024,-54,-400,1418,-489,1405,122,260,178,114,-418,167,1231,62,608,577,-44,-104,-258,1067,1263,1439,-94,-304,-828,-14,112,-464,928,1495,467,895,1207,-1254,1460,-835,433,-434,66,-343,162,1190,-591,349,-38,295,-273,-878,-585,-355,589,-2118,496,583,137,536,334,-408,-1369,-1502,-124,607,-1405,-220,1562,-294,-659,-199,-444,-109,130,790,-681,246,1355,1221,1406,28,-385,-691,165,111,598,-69,-469,-459,-321,660,-745,-383,-915,-1124,55,967,-120,245,396,-328,613,616,361,338,-429,403,-217,-389,779,-29,213,-454,-271,-405,-230,1471,424,1643,1123,323,1264,1171,1468,40,696,1364,-310,559,-301,-975,-1191,-237,-456,-688,-30,959,166,-1012,174,-166,471,-1297,-402,-690,-1223,46,-775,688,276,129,-456,346,-1197,0,-360,1411,253,-1519,22,-75,240,407,-727,-145,-25,-395,-1235,585,-555,-343,1162,-658,363,-243,579,-265,536,253,-1083,-525,128,241,-379,223,-590,-108,246,740,-628,92,256,-708,935,-863,1077,661,867,291,-295,-487,887,-117,-661,346,1653,612,1744,366,56,123,513,99,-1134,804,1951,-37,1037,-1721,-441,-774,902,694,-257,-471,-543,-71,-723,318,1274,594,-1121,77,1522,42,266,-432,-230,-459,-129,979,-238,1442,-274,1065,1100,-806,-1171,-498,-513,-1102,-75,-317,198,-1349,-459,-648,1236,-175,-970,-700,169,1085,-75,-479,-883,-794,-99,-1706,-449,-1339,-1770,-141,-1487,-472,-911,-1628,-1363,542,43,-8,23,663,-1136,-421,-879,-104,352,508,677,-789,818,984,101,27,-204,-366,625,-834,752,-1698,-15,-283,908,-774,325,-1553,-31,-617,-1474,-335,-251,232,-1428,510,-97,81,1367,1042,-520,962,103,-1195,-557,-310,24,-330,-1676,328,550,1325,-1747,-296,-122,86,-219,261,-696,384,1311,550,-620,-809,-1145,650,1150,-417,434,528,1776,1212,-13,743,-204,463,-269,800,196,1276,-703,-252,1348,509,-316,201,201,1196,148,1211,-572,-81,555,1762,228,-215,1511,1301,-381,1465,1511,1150,-38,-519,-476,157,276,1218,-304,-749,802,-893,-25,1181,76,-143,-348,420,827,-1238,-585,892,-136,-251,-1166,371,-923,1700,-379,633,-561,1520,76,-3,-440,-485,73,-119,62,-307,776,32,451,83,-379,-159,-562,-242,300,-196,174,-392,91,396,-1602,-302,961,589,-89,-102,867,-353,-804,110,-34,1383,751,-102,-306,99,-210,-841,-51,339,-275,270,-230,-270,1141,1371,1410,278,442,446,-871,212,-294,-579,427,-947,-30,317,-337,-934,132,-94,-680,1157,1394,125,1453,-165,950,422,377,2259,-433,-7,1717,-156,-520,306,-902,-1080,-1156,255,-471,-203,-260,535,-728,558,-746,-215,445,-1078,620,707,1985,359,-481,-820,-626,911,-245,-494,-224,-982,-94,-160,152,-940,363,237,-244,-1185,-137,-678,-912,-221,-666,-307,-292,364,-147,-1058,601,-254,653,140,-474,-255,-448,682,-1276,-67,480,-244,-871,-846,-863,-689,-289,-420,-1290,127,-1127,159,-1331,-400,-1339,-1994,-1515,-455,-1286,822,243,1405,-1495,-26,-579,771,487,572,886,212,-496,690,1213,1333,251,2073,673,-4,542,-624,297,681,-89,-34,-666,-176,-266,-508,-376,714,156,913,-738,335,-694,-203,-814,-699,107,80,-604,245,-113,556,-563,82,616,1082,-569,-1044,-527,-1291,-53,-1332,-845,240,188,-354,-1508,-109,-485,-1603,-9,-148,-912,-1326,176,-972,-300,-1469,16,-176,142,-539,-738,-1531,-503,345,-755,-36,-684,-673,-425,-1019,-733,-1505,-611,-199,556,1044,-164,875,648,911,319,238,-237,-265,-152,778,-460,-322,-964,-327,-858,-967,500,813,1500,-623,-1061,-71,-633,81,1076,333,31,-1271,403,70,1602,20,-1302,227,-109,-47,-751,527,-691,-415,1209,1208,-1073,137,-113,-618,-1224,793,1153,696,704,978,711,1155,438,1638,1762,563,117,-121,1114,434,-401,913,279,-316,653,909,-52,-684,-714,1172,460,1262,715,-788,-137,1179,-148,-747,916,-178,-752,317,-721,299,810,-901,-581,86,2031,-371,-248,-780,-36,334,-293,737,633,-953,61,991,-372,-644,-357,-557,-111,-1905,-95,154,-1277,1034,-67,355,-762,-147,1069,-567,15,831,778,-894,114,-1307,374,-96,1061,65,970,-279,158,-1702,-183,-1118,-111,474,-316,528,-189,81,-563,-132,-141,-758,-322,339,-157,751,-681,1024,-366,-306,707,773,117,442,565,249,1167,-871,770,369,1298,111,948,-502,978,517,665,1179,893,371,641,556,231,-1309,1023,1858,-13,-790,-35,-1042,-23,-943,405,-675,283,-27,549,544,573,884,-166,-32,794,-711,61,1362,240,-1,-388,1303,-500,340,-1894,422,1382,28,44,516,187,-320,-463,905,263,-641,-926,-412,1858,1061,-337,438,-483,1453,25,899,35,-91,-459,260,-429,465,535,-615,1155,-179,223,1099,627,94,748,-702,-811,-1071,-808,-1068,-58,-1047,-992,-94,-349,582,-139,524,-548,-293,-370,-1328,715,-206,820,-1171,760,58,-1070,505,1103,892,809,929,650,1112,1185,1061,-468,-1077,-612,-1017,20,-162,-777,-696,-123,1301,449,697,2037,-274,-324,308,718,1266,245,-150,236,1276,612,1342,93,-108,-795,69,-556,-59,1012,49,-476,856,213,574,525,464,1135,-883,-726,662,1236,771,-744,404,18,-269,-395,236,1142,348,-531,-303,-245,1319,884,1239,1547,779,595,713,-292,976,-80,409,-358,839,242,-456,-233,-94,297,780,-249,479,-280,-16,558,-383,-109,-196,-536,2022,-475,1294,-744,-243,-255,-1438,861,1004,-736,-1487,-109,484,-1221,386,-114,-1137,-114,1254,5,1344,1341,-22,876,457,102,1832,143,587,-664,-562,-539,-50,-313,544,143,-138,-629,-204,389,-588,-404,636,114,-128,-239,-647,-1425,-140,251,-1522,-932,683,-438,130,362,815,-1248,-476,-772,-1242,-228,-440,-1391,-1876,-761,-1937,-137,-1232,53,-263,-915,-541,-371,-550,-526,-275,-309,331,-1161,104,1320,-1208,882,599,1057,1250,-64,401,-905,108,-909,645,446,-888,139,-354,1343,-1639,110,29,557,569,-1374,-2358,1030,-889,-100,238,803,-556,-12,50,-466,252,-421,-686,342,-1111,99,753,226,641,-375,138,-2074,-349,542,-553,-456,897,-706,448,833,-446,86,-597,-1215,-1192,-763,981,-343,-9,-496,-998,-365,-563,592,1070,695,-109,730,191,-1679,-1169,-1094,551,-845,218,-1330,-1180,-1211,99,-1489,-80,-671,-797,-2655,-574,539,176,-1125,-271,-290,1646,-412,831,448,905,469,-324,537,-1024,-434,354,-515,-127,-1313,-893,385,-46,-492,-651,-324,-760,506,848,-374,44,1576,-1668,-320,250,-1024,-183,-596,-1029,-245,-914,-342,452,-945,1035,-486,-348,22};
const static uint32_t LSTM_01_weights_output_gate_dims[4] = {1,1,48,88};
const static ConstTensor_t LSTM_01_weights_output_gate = {&LSTM_01_weights_output_gate_x[0],&LSTM_01_weights_output_gate_dims[0],0};

const static Weight_t LSTM_01_biases_output_gate_x[48] = {9,1136,-554,-101,2386,910,326,299,255,-1461,-839,-108,-1314,-1917,-525,-1072,356,1572,-1075,1828,-2322,-315,996,149,-455,-298,-712,1658,644,-324,328,-686,-858,-246,-217,770,777,-1291,916,39,-598,-51,-440,-30,63,-1203,-2462,-559};
const static uint32_t LSTM_01_biases_output_gate_dims[4] = {1,1,1,48};
const static ConstTensor_t LSTM_01_biases_output_gate = {&LSTM_01_biases_output_gate_x[0],&LSTM_01_biases_output_gate_dims[0],1};

const static LstmLayer_t lstm_01 = {&LSTM_01_weights_input_gate,&LSTM_01_biases_input_gate,&LSTM_01_weights_cell,&LSTM_01_biases_cell,&LSTM_01_weights_forget_gate,&LSTM_01_biases_forget_gate,&LSTM_01_weights_output_gate,&LSTM_01_biases_output_gate,LSTM_01_output_dims,LSTM_01_input_dims,TOFIX(0.000000),tinytensor_tanh};


const static uint32_t LSTM_02_input_dims[4] = {1,1,1,48};
const static uint32_t LSTM_02_output_dims[4] = {1,1,1,48};
const static Weight_t LSTM_02_weights_input_gate_x[4608] = {-553,-926,423,673,746,285,999,878,841,824,931,-775,415,-124,613,-1275,759,-158,1255,-558,363,626,-453,-544,-1020,619,516,1202,54,-606,37,-1119,-90,-82,1032,1159,590,-328,-450,-72,-858,99,-735,203,625,-770,686,-1058,805,-1176,646,-762,-409,-306,-516,28,-216,499,-182,-823,442,-421,717,-379,571,-129,432,108,99,-1237,1060,544,1061,-74,751,-2102,-462,967,995,-746,438,672,126,757,45,1395,176,283,-831,-1884,-391,415,427,-38,1260,-343,619,585,765,-1175,-55,69,1767,92,273,78,-693,365,222,-912,-1075,-355,-910,-84,-35,1020,-1312,-1522,1257,-1168,289,1474,-121,-981,618,583,-267,82,268,877,1409,-543,-505,-349,219,-666,419,478,853,1107,501,-1407,667,-846,183,-925,-803,-100,293,155,-1466,-73,-857,42,-219,-1047,494,-1595,161,1864,922,-1399,-376,1641,-754,-1310,1582,236,-5,-2042,1546,-211,173,1149,1683,451,-213,1455,-251,403,-1781,-505,-1654,-447,-235,-464,-811,1144,-310,267,-605,-583,-540,809,123,-566,-1184,-289,-39,-1095,-157,323,912,431,854,-784,179,338,140,-1064,-602,-945,-511,150,-838,891,66,-864,-434,-568,3,-561,709,754,36,710,-294,-1154,15,-44,-1040,-260,289,-80,1157,415,23,952,490,38,-536,-8,1122,-542,-264,199,-418,-1189,-641,364,-502,741,-365,-82,86,-491,733,-112,398,-157,-378,1394,86,843,521,-904,780,-657,-421,107,831,135,-365,47,-248,-719,308,-511,-710,-648,-67,552,2189,-673,485,991,1120,182,-528,481,370,-604,-818,465,-880,-431,792,69,-120,-595,825,-486,-750,-1031,-674,-293,-1103,831,-839,-937,-225,-800,1033,795,7,702,137,470,78,983,151,260,69,-857,-806,-586,-432,-1025,-521,21,-488,-201,871,789,621,157,482,285,-414,-1111,-353,1300,-1056,756,1676,198,857,834,674,-577,-62,559,-588,154,-608,-19,191,-4,40,1265,110,265,-491,646,773,-372,-72,-775,-392,718,1057,-473,715,247,-306,634,736,-120,992,-513,359,-403,-309,320,128,963,-387,-469,-904,906,193,-767,955,-832,-1048,375,571,-91,-548,-694,-562,997,452,-257,-24,644,681,-81,483,264,601,-32,106,-103,275,1095,-923,-95,-187,506,-173,1193,-217,605,16,817,434,-294,132,-818,740,1000,-1018,-229,-42,-296,-93,100,-756,189,-143,155,-704,1171,-813,-121,620,-158,-288,387,-1,-520,-787,-652,-182,-297,-469,1114,650,-97,865,-1786,984,749,-1085,-217,811,663,305,65,-348,549,699,1055,104,456,983,-39,-114,-858,-1142,400,1079,1145,771,536,-511,116,-250,-722,-598,-353,-1173,-371,1216,-135,57,-129,837,-752,297,743,893,654,147,1051,-32,490,111,-552,517,-365,-758,585,-1037,-679,-569,247,-561,1025,-714,-653,463,-519,147,87,789,-58,122,-479,-637,-206,-1398,76,475,18,294,392,880,1304,-565,-1242,-173,-138,142,346,1873,372,-869,541,704,-709,-331,-1082,232,756,-907,426,-561,-707,1370,-1024,-256,561,-804,611,461,449,-147,-157,-654,-466,608,-840,-672,-837,199,-1205,551,538,226,387,234,1224,-11,1145,-1090,147,-457,458,302,-355,166,20,622,159,147,-768,-846,-611,-310,-147,542,696,1030,415,-759,-651,-229,315,1246,1418,366,-34,952,-942,87,-431,374,-226,-598,-70,-529,265,-374,60,225,333,1037,-1091,-404,162,454,961,-1628,-141,906,-1158,-944,831,409,560,-439,230,278,-962,-663,1371,-1757,-833,624,165,-1413,596,327,667,622,528,-361,219,-527,776,610,-113,-98,-383,-699,454,466,1605,-472,-218,219,190,-1162,758,737,478,880,508,860,-686,-602,-935,-458,832,-522,-796,257,168,-6,328,-14,1204,-683,-38,-523,-143,446,-147,555,-604,925,-221,55,78,901,-495,-433,546,-1357,-680,-205,-299,525,-834,1279,438,541,906,-860,-389,389,1028,361,-569,729,570,797,176,-116,-191,-586,465,-353,983,485,-848,-510,-98,-276,-966,528,-591,168,576,282,923,534,166,158,-21,2153,-111,-100,-1010,591,477,-645,749,1140,-1327,1038,-517,666,348,358,-802,1049,308,848,105,-633,-567,1516,189,-494,1084,67,1433,101,81,668,244,38,-558,-2010,10,457,-146,848,-978,-179,-788,-526,-113,-1707,933,6,822,-33,-205,-19,308,931,-251,-230,-433,-191,377,99,641,325,-1689,593,-718,592,-903,1117,-748,845,-252,592,432,1370,1545,-1206,-291,-1699,-128,764,1321,304,92,-751,-1626,491,-847,426,299,-583,603,1391,-241,-709,675,-744,825,-405,69,-530,-687,1361,-494,-791,-481,-1599,-541,-310,-349,-244,-1379,-657,-93,1197,-597,155,410,-24,-908,17,-872,1155,724,605,527,856,424,-583,565,810,-872,931,-376,-257,462,-1002,-984,-961,-852,568,25,876,-64,76,-199,-714,1371,1131,-332,290,563,-507,970,148,-265,94,1006,-224,145,561,559,-665,40,-276,-1044,1260,532,213,-539,301,-639,670,-552,-818,-236,723,227,-68,-1144,583,514,-501,-746,-629,-39,9,-515,-1044,166,-998,-231,603,-321,-73,51,-520,-932,-383,-14,844,894,-763,-940,-793,-199,394,-508,1627,1322,-447,1104,-602,448,-696,-629,654,-227,500,195,-1345,-765,-72,906,848,-427,871,-640,558,-757,965,-977,-131,-149,-268,-764,956,42,-23,-250,392,638,-365,-1091,166,-717,592,-522,1024,440,516,-251,-1107,901,901,479,-288,931,72,1500,621,1176,-157,1124,-279,230,683,181,-502,-44,-948,-69,1023,129,-55,542,194,-406,203,-134,-955,-896,331,305,376,1057,426,-85,-383,-359,-962,-714,169,822,37,167,22,-191,445,144,1076,893,-2015,1566,881,507,-196,772,302,-613,223,-655,-1117,1016,14,-204,897,727,784,-961,390,172,-171,-367,843,-547,87,74,750,-334,-91,484,350,-796,-286,-319,-102,-1012,-295,-126,-957,-647,932,1072,503,558,316,559,243,828,-226,728,-400,835,-799,-708,-576,329,939,-332,-105,966,210,-372,198,-552,-535,-247,1077,237,109,914,936,-455,245,453,-28,900,1019,1068,142,803,-553,372,549,54,1214,1049,788,450,248,-199,182,-668,-958,1370,20,81,-17,158,-486,32,-945,-681,714,-416,-391,-638,660,-405,-974,-566,-279,1198,-966,-1168,-334,415,-805,-1145,-43,-7,-889,-1681,958,94,-3,-182,672,-161,-990,934,1265,-1018,257,-203,-774,-835,-164,976,453,109,196,-67,382,625,510,448,519,-1165,154,422,917,-60,737,-297,235,1438,492,540,-855,1481,258,146,-696,-400,-74,-1395,676,1378,-307,-132,1043,101,-1449,1542,256,-798,-1043,428,61,-556,765,1325,-1048,281,-340,322,-1176,-795,-818,633,-274,-1172,-301,-82,139,627,814,1026,-284,-1074,-816,-362,323,-1566,269,1150,376,-727,-275,-1233,1290,-839,165,-1859,-47,1238,-918,782,-770,181,-463,-577,-335,1209,870,68,639,1697,-443,837,486,-366,-125,625,-451,-846,-645,-858,1105,1113,543,357,710,194,512,-2184,108,-571,-250,1079,-592,553,-954,1715,-1113,-332,-1584,-75,-226,1163,1079,377,-168,571,-68,997,-605,-859,-1288,2028,240,238,-379,911,565,537,691,277,277,548,-385,300,-424,512,245,-609,-12,-772,252,-151,236,662,59,-170,891,923,-1022,-576,-788,-427,744,367,982,250,-294,51,415,-913,-260,422,-60,25,657,53,596,-972,-1064,154,40,-358,423,-600,866,292,960,4,62,-736,336,839,137,884,-738,873,-332,-209,-427,-1163,-445,-772,-409,-943,389,-218,977,-222,7,-8,-757,897,16,628,485,-23,1154,-529,112,-214,703,-430,1375,-1305,-31,83,-1479,-948,-715,357,1694,131,-637,-299,981,82,660,81,546,-179,-65,84,-200,430,556,717,-517,265,372,728,72,-637,782,739,414,549,2215,449,996,395,221,-1088,321,-126,854,-21,1472,-356,678,1197,-532,-622,-463,-1110,-716,505,-191,706,960,60,-246,-530,169,-160,-478,655,-1639,235,-456,630,-44,222,1340,140,-410,-35,-276,-490,1667,-763,-470,219,953,-886,844,109,-260,591,-1091,339,-1714,-400,378,478,-154,-1882,709,-269,1459,-35,575,1349,881,10,-120,-733,-44,9,-224,-1152,1213,453,-1247,505,439,1186,283,555,989,942,-982,394,916,-687,-815,138,-216,-28,498,-685,1133,999,1097,348,819,-392,-736,-387,-493,813,671,-875,669,86,-1186,-657,359,151,100,779,84,230,469,-26,-544,225,585,542,941,85,139,604,-734,-698,659,-669,-611,276,-175,883,881,-921,428,910,-567,-1155,1026,-898,-597,-487,-305,-286,525,449,-1174,-807,-626,-53,-624,49,30,-798,219,1106,-160,-824,-581,1111,433,55,-220,537,-606,-901,-1307,414,72,265,126,1605,-285,134,-569,-1009,371,300,-91,-155,-179,-715,-145,-774,-113,-1040,769,-1170,149,588,75,1377,-1064,-126,848,478,-506,29,-169,115,262,122,-531,1075,485,85,-234,-86,-10,-82,923,-272,377,148,-390,-1060,85,-788,-272,437,663,-795,795,-825,-493,-614,51,-1011,638,349,1033,-96,291,-739,169,82,-378,-1047,787,63,483,47,64,571,736,-590,-644,1083,-134,-531,-468,220,-408,483,848,766,814,215,-73,-300,-586,1367,1804,756,-131,-417,34,57,-228,-611,192,1543,-715,692,-908,449,-1451,-58,2071,-430,-260,-981,981,-428,968,-487,931,-287,497,549,-805,-730,-835,-1176,-872,-692,-427,79,237,804,-365,-1183,-440,546,51,-52,-174,845,-398,-15,-1072,31,530,298,1262,-981,-83,930,-532,-1156,-586,97,-1040,562,-944,-260,-123,146,235,-954,-235,305,-549,-1106,358,727,-746,993,-1178,600,1464,-1265,1297,910,-277,15,325,1418,-1063,414,-26,242,-8,386,2182,41,-592,-1688,-387,275,859,164,417,-351,-680,-425,415,198,-110,-689,-592,483,213,-853,630,1463,541,769,856,411,-1144,625,1065,-1060,-593,428,-2,-966,1106,-298,378,149,133,81,-958,-610,213,389,469,375,-257,263,65,256,282,-873,595,-11,-206,672,-444,64,-1065,-382,124,-540,-297,-772,1136,777,652,-595,-398,56,-94,-1302,701,1230,-542,671,-179,-165,267,-1490,487,471,329,-228,139,-186,119,354,-300,-815,-384,71,-1395,-316,-234,105,517,177,87,731,-306,107,-535,313,-771,-218,596,1392,-307,-738,-115,815,536,777,1445,-1112,524,675,-110,-1170,501,624,463,627,1142,-998,435,-621,-930,586,-473,-245,58,670,334,-592,-704,194,-182,-736,-699,-611,-312,517,319,-607,-1131,451,922,156,-461,-852,902,-261,699,-671,-717,-608,-452,-137,450,978,63,776,-728,395,-491,-283,802,6,-28,-347,-33,990,915,-1374,-1212,-904,-872,377,-410,593,406,595,-109,891,-178,-182,296,539,-866,-1444,1317,-265,467,-474,929,-1196,495,120,176,1045,-148,-210,832,647,-234,136,-134,-1151,-916,-335,-85,317,-48,245,-433,170,1363,-574,782,-225,-561,-17,40,-446,-11,512,40,-90,-931,-1042,-830,-646,-449,595,-583,-94,328,414,-520,524,-549,188,505,-304,596,-419,-428,-899,817,-878,-1030,439,376,-418,-349,-675,820,788,-1001,759,284,1662,950,-33,-1576,-722,-1597,117,-671,577,880,-390,-1460,-359,633,254,-504,1093,-1293,-338,-1284,-221,-814,-105,-978,38,-222,-87,592,-732,494,-19,1039,897,202,-821,640,-609,-481,-635,900,579,-332,35,-800,-39,386,-572,-379,-844,-5,-626,994,707,408,-254,194,718,-312,-56,764,330,-466,-417,533,-436,-314,-647,939,-615,-21,753,-448,-489,-246,808,-185,869,-819,-1319,905,974,314,-13,909,-235,785,1046,938,-331,-1029,-858,-406,-571,-478,-767,551,-408,-652,-906,-586,-160,-312,-88,285,-1322,343,-762,514,-206,-587,-837,-399,450,731,-567,1025,495,446,-881,-231,1033,650,72,282,21,-397,24,210,-359,-334,-855,-54,-1927,-177,-604,1148,445,-50,106,165,1041,355,342,466,948,274,446,-771,-507,-871,-65,59,-638,325,-849,233,686,-432,354,1067,488,393,-444,654,489,-368,-229,-135,375,873,342,-1153,103,-426,996,280,247,-757,505,199,1157,649,-808,46,-760,119,731,510,-171,892,254,-400,-154,-383,1850,-1062,1337,-122,-198,-171,846,-883,-186,18,117,767,-1486,-120,680,-706,543,-58,-1037,-476,-242,390,786,-430,56,126,312,-875,-77,-447,411,366,-685,1258,-1505,560,329,-127,846,204,-1174,-187,152,-514,-372,-159,-1589,472,-346,-95,-921,230,250,280,910,1494,140,-703,387,-603,-148,99,1647,482,912,827,14,865,879,-2153,-358,1585,-568,-171,359,750,-773,318,-216,162,741,-1111,-590,1677,-501,-336,53,479,76,88,-215,239,35,-833,-163,392,-412,-372,392,957,717,479,743,578,-859,-329,535,-1122,-675,-1782,-85,326,-1429,995,-638,-590,287,52,-1335,679,234,-83,659,110,-665,-24,1022,1287,-149,-1418,1130,-25,886,-854,-544,-507,1096,896,-60,782,188,-854,534,258,-809,770,153,-141,1260,-314,963,-797,594,774,878,48,655,-551,475,-355,128,456,688,1178,1091,-47,-835,246,-275,-512,442,-67,-1224,-658,-1075,33,-463,-968,-362,1340,-903,-930,473,-311,-1024,-1011,23,-958,-15,-506,-530,-1440,448,180,579,-1275,-924,750,536,15,1737,222,1466,408,98,-285,1184,-1093,-834,163,-126,-1146,-741,-560,-339,667,-935,-158,-1580,144,-873,1027,85,-59,-223,-1756,-211,590,-531,642,813,554,-519,-1525,-257,-386,209,51,145,701,429,-481,612,1300,-595,824,-654,-125,896,-30,579,-496,664,108,-848,-797,-462,-1035,549,-464,-1130,-1436,359,-483,-1014,990,1020,742,-749,-443,-148,217,672,73,989,741,-1028,-78,-271,10,29,986,-739,-96,-289,-125,-839,-1185,-174,752,75,1595,574,-227,530,-237,-1278,-65,-1095,110,193,848,-212,843,-415,-785,-426,13,1042,-838,779,-59,-2216,996,37,-551,202,-520,-298,-593,202,375,1695,-2028,-17,293,922,143,-23,349,397,874,501,1212,-1143,1171,-1088,94,-86,5,-851,1261,-794,1088,-1836,610,955,676,-831,-771,-88,-625,-355,-559,-750,156,732,-111,931,582,1486,1162,449,-1317,-568,-882,-958,-400,589,-76,153,-1055,1613,-236,-589,489,-293,540,-620,836,-615,14,-700,-451,-937,-347,225,1197,260,-201,141,-696,483,-273,-19,1104,155,520,367,-324,406,-114,-152,1366,-36,250,-1321,-624,-644,-914,1096,140,1071,-239,839,287,464,340,1854,386,-905,2154,454,-341,25,63,163,-797,1232,350,979,29,401,257,590,583,-985,1203,-219,-404,-736,-161,941,321,599,3,1175,-227,-309,60,1293,-632,351,10,433,597,980,1011,-637,-524,-814,-769,401,-2,-458,197,-411,-711,-967,-549,-401,-813,459,-16,457,-1067,985,582,-486,651,-431,268,-1416,1443,-739,1230,-132,685,335,-387,1097,39,-950,871,330,-106,179,-306,-625,-222,933,716,514,1295,550,867,624,-869,-87,-665,802,552,166,-1781,478,-130,864,-170,-255,-136,-216,243,221,-282,698,-105,-223,-1195,-148,199,-314,-220,515,77,-415,733,-714,403,233,259,-676,304,-752,-61,561,-60,812,863,638,-403,133,33,755,1030,-374,-181,216,838,-677,172,669,85,113,-592,-121,740,355,-900,-1230,-420,-165,97,586,884,569,-436,1041,-839,126,-543,-468,-879,-1020,-384,323,746,328,-345,232,-776,671,157,-232,-334,-970,1469,547,-345,-370,-1152,914,-655,29,674,65,-230,-730,38,934,-968,-934,-707,-341,-68,-452,563,616,235,-371,67,580,859,57,-96,474,74,616,-732,391,416,1194,-759,-109,-77,-109,-527,-141,-389,1141,-321,-439,-132,523,-237,697,-733,1366,-753,1003,1048,-682,707,791,-583,-139,1304,60,-571,751,-444,948,-65,154,537,989,-255,-282,-501,-261,272,-1087,865,-612,308,634,831,-133,602,945,1073,-715,913,1429,-1115,-25,-93,-1939,1298,-965,-2031,96,516,846,-697,361,520,178,-248,-338,1149,-572,-49,176,81,380,523,761,1454,-366,-175,45,-557,-41,-201,521,-46,-105,125,465,1826,-712,-456,-148,1422,585,451,754,-581,-340,759,-673,-516,-730,36,94,-1517,360,-100,-445,1061,510,-74,27,-460,-632,440,334,-405,51,-1062,-146,-681,2,390,-737,651,-618,179,1045,1134,262,95,-45,-539,-236,-515,-432,290,494,-527,-269,-498,661,132,-56,406,-74,135,-525,364,-300,1513,-166,-1051,-346,727,1055,858,-212,208,87,-1243,529,-301,-1335,-385,-540,-250,-149,-591,-61,586,405,-1352,-400,-739,-166,-257,492,-78,771,-804,-144,828,830,-83,362,1309,-148,-312,1159,-1130,-597,295,91,-918,-1020,483,477,-879,1313,166,-907,-498,549,-781,-34,744,-668,756,-17,447,-31,615,311,-499,183,-141,294,133,-586,480,175,-44,703,-2,553,-128,86,21,-736,69,182,149,-293,1257,-468,-1067,1868,-383,322,-223,69,-694,-118,-108,-1237,870,-434,-1164,-370,-312,-223,521,357,-127,-44,171,-304,-323,258,-649,509,-159,-1796,655,-427,-598,-125,1232,-282,14,531,1318,444,32,-866,210,121,941,-1343,484,-569,720,-697,296,-12,1005,719,912,-305,-941,-776,118,338,339,-549,-930,700,-421,-204,143,54,72,-664,496,1596,373,-165,-1184,-115,-405,-562,361,-790,770,-503,-1241,-308,86,731,-480,937,584,-319,-363,45,-810,767,70,489,-107,-332,-1563,609,-154,246,-233,162,620,-22,150,242,1386,-1596,689,-1220,-113,333,350,-201,735,-294,393,-7,607,814,248,1025,79,650,124,291,996,370,-1227,563,544,37,-1709,-1948,-355,-503,-123,758,299,-403,154,558,444,-374,643,-1089,725,428,-679,611,366,-589,-1035,1161,565,447,11,-290,-62,-37,429,-545,-788,50,659,-1066,-329,249,-605,-803,22,-1131,467,903,195,474,311,1022,551,308,-118,15,416,-357,927,839,365,-771,-443,-1437,-130,-130,-518,643,192,26,-1401,-345,265,124,-474,-2,61,-550,855,169,-1658,-1075,196,-410,1269,-38,636,-390,-668,1001,388,462,912,-227,-1154,-193,469,820,-1477,897,-562,581,-518,788,-300,576,-946,800,-568,1038,27,214,440,-598,-271,-1029,-267,339,618,833,360,-35,-15,580,239,-1012,339,33,-808,-991,-658,315,674,750,888,-595,-261,-444,850,427,213,-250,785,-834,594,-413,-476,-535,702,338,1356,-475,-308,198,-717,-91,-792,3,654,-297,-1531,302,8,1398,-749,-149,763,491,-812,93,-812,1701,523,218,498,331,508,-1522,-189,969,1116,375,159,-852,645,-325,-275,648,-71,805,-821,13,-346,-149,654,128,-592,375,43,-171,267,844,-558,703,-996,-30,-222,-457,-7,362,21,-170,-102,-536,791,115,-544,345,602,-236,-259,199,-327,-717,1014,-140,333,1188,418,-460,711,-5,-408,-618,-164,41,-244,-302,-586,-291,691,-480,-75,-202,515,865,-551,136,454,842,278,636,618,-584,728,958,531,46,-344,112,1184,877,907,69,-1033,-678,-411,-1198,-786,987,229,462,655,-414,-378,227,525,-80,-232,-131,1011,-1126,1498,1107,-354,-578,3,-327,-57,-25,-50,-924,558,-723,89,-745,-411,316,-1000,785,-77,-833,-492,96,1157,-825,-235,143,-54,429,-50,444,119,662,-903,-911,-248,754,649,213,797,965,1150,356,373,1026,393,-258,-472,-935,-1030,498,15,-647,-866,891,-702,-845,746,-489,-306,942,-943,106,725,-17,567,-632,-87,-395,558,-260,13,-249,110,1056,641,112,-2219,-13,143,-266,1222,3,423,-526,544,-750,-550,317,106,340,-998,315,-634,444,567,-99,835,14,-353,797,-1172,-1188,-1190,423,290,263,-233,-571,196,554,-511,-491,-791,-601,698,1069,705,319,-909,713,-184,-665,1429,744,-688,-31,792,403,-576,-149,1004,-1378,-518,742,-613,616,29,-623,-49,-165,-367,446,-915,-539,-130,1842,651,369,112,-699,750,-926,289,374,-346,196,376,352,472,842,-335,592,1625,508,-703,-391,-7,1280,656,73,770,163,-937,728,-61,1052,114,-456,654,466,-644,690,30,478,-275,175,144,205,680,761,1160,-176,166,868,1008,-869,-506,141,837,454,92,-1039,-1215,-277,-846,-363,633,274,668,-814,423,-416,640,-96,1047,-1004,236,546,628,943,-1241,668,46,487,433,610,-298,914,898,-456,-788,191,406,341,501,-893,-1099,-197,-1221,-655,351,74,-52,-812,413,-505,769,-405,709,119,733,510,423,449,568,-340,661,-928,-101,-352,-1026,-209,-1094,-600,-559,-169,-651,35,746,-369,-28,-993,451,-715,-523,-1407,-890,381,-406,879,-309,399,-1243,403,651,594,540,875,806,1068,596,675,-1555,1454,194,5,-14,1011,-436,-276,1233,543,-689,-349,-615,608,465,278,900,-474,1116,745,953,-570,800,473,424,-304,377,556,154,-372,1200,-787,165,963,-241,-297,-710,39,-288,-750,639,-551,678,-518,507,-1295,-150,-852,-980,-840,-758,946,-988,-678,142,413,-927,-765,741,181,124,-712,-450,562,-658,-188,360,-1057,-452,-1141,-674,267,-780,268,53,347,-1848,177,-9,-146,1473,1544,243,809,560,-472,-138,919,93,504,557,527,393,-476,-121,-67,576,-818,902,1027,18,-397,-751,252,205,677,-640,-1048,-484,-128,459,-507,1834,-338,794,-202,832,-456,108,-91,-830,-436,277,-49,-332,1037,701,404,-1507,575,227,-569,-190,-331,952,685,-226,685,97,34,596,-971,643,-1589,-417,-351,-1151,677,11,-431,224,-829,-146,821,82,-424,1419,-1302,-167,-618,1056,-160,207,352,36,-203,-1099,-310,-900,544,115,-1313,1481,541,-996,-507,-1164,505,-135,132,484,479,-221,535,1175,-357,-238,399,84,294,492,-1180,-200,-504,-549,1379,-1390,5,-126,-131,-670,-1290,-1337,443,-1114,-271,-383,-220,-83,-231,-192,454,-708,-256,182,71,891,-321,139,250,-496,-73,-827,137,180,212,352,-774,-15,281,-438,65,412,849,649,501,1046,-334,-364,-142,291,-660,1123,-187,-345,752,-633,-444,310,-496,-708,-251,-627,404,1313,-448,-713,682,-783,-4,144,-94,-202,-1577,176,482,-910,-546,-880,-588,961,-928,383,-721,350,-586,-929,-594,-315,-410,-456,-373,-192,-1262,-315,731,-394,932,1540,-772,547,626,7,-5,-416,62,278,-438,-825,434,18,-446,-978,460,524,-298,359,516,740,-428,1341,-650,1064,199,544,476,-623,-746,-730,-259,566,278,-104,-1095,-438,683,268,361,758,-203,466,565,242,587,-52,180,-625,-930,357,607,838,610,114,141,-186,-582,-278,607,-514,193,-421,143,359,295,-1398,971,7,-497,675,-630,247,629,-805,243,387,-59,-161,-451,-838,-59,-253,188,-1145,719,-316,570,-218,-1214,53,677,-4,-160,523,-813,2159,60,-186,-1048,-386,-736,-6,-811,-378,1174,-398,573,-551,474,671,-900,512,193,-652,204,-32,128,617,308,837,572,771,346,-374,1176,-806,617,399,636,1036,-699,-752,483,-441,456,459,394,371,446,-220,506,921,758,-67,-634,-414,-639,616,-1113,932,-961,-251,-107,-54,-433,389,-681,-422,18,1383,-385,829,1449,364,-157,-675,-417,-132,1075,-262,51,-475,-773,614,1513,-329,9,-302,108,258,965,-53,-280,643,-93,-666,-744,-669,461,601,1056,-316,-116,269,-731,-372,1117,878,-890,-476,1318,-852,-255,-400,-448,198,-497,882,-974,490,-457,-693,250,123,1089,-1124,1514,39,-559,79,1069,-70,590,-1089,365,481,-196,729,-494,110,67,112,-426,-1181,147,274,-1510,-490,999,-256,-682,653,1082,4,949,467,-329,-101,91,316,521,-752,491,78,-499,797,369,1051,-117,-1045,18,-158,149,-672,51,-76,-378,81,773,-884,-297,-657,273,-1625,1070,1641,-463,617,-563,-877,-1148,1219,223,-980,916,499,1084,-119,32,-488,99,-24,-97,-679,504,-92,-477,173,824,23,630,-354,-540,-660,302,617,537,197,895,763,-959,-495,-219,558,109,-369,-1064,-331,1,-90,-302,-395,-445,-149,756,511,554,-526,236,-469,-471,-212,501,255,64,-686,731,-278,177,28,-631,-276,135,-981,168,-750,-87,258,163,495,-284,-6,497,929,-1100,-668,