#include "tinytensor_lstm_layer.h"
#include "tinytensor_conv_layer.h"
#include "tinytensor_fullyconnected_layer.h"
#include "tinytensor_math.h"
#include "tinytensor_net.h"
const static uint32_t LSTM_01_input_dims[4] = {1,1,1,40};
const static uint32_t LSTM_01_output_dims[4] = {1,1,1,48};
const static Weight_t __attribute__((section(".weights"))) LSTM_01_weights_input_gate_x[4224] = {812,-370,-735,851,-505,-122,840,1827,664,1135,236,1331,-1622,-877,-286,998,-365,-572,343,100,-16,63,190,-173,-43,-7,1177,39,197,-552,-1002,-1040,-373,126,-511,-455,-1127,491,-952,270,-1009,-2063,-1028,603,228,-303,1451,298,-549,777,-777,-403,-219,475,1244,1738,-660,-1550,-1222,-266,-65,959,-1470,-1052,-640,-462,-43,1223,728,-1555,422,-411,-11,1021,-39,583,642,1085,1921,1550,-1518,336,-287,-2092,-2805,53,-337,-40,-443,-1848,285,748,-1788,-460,-511,-460,1566,1030,1097,34,1253,43,723,1378,1864,1677,421,-740,-182,-325,-302,636,-66,590,-474,6,486,724,1368,-390,-212,-293,51,-347,-372,1003,1483,1068,1190,-323,878,-1104,-691,-175,172,-723,460,844,496,-407,1299,623,117,583,901,2033,2607,2605,235,-1152,275,462,1221,386,-597,368,-20,325,-1125,-86,-76,-896,488,-156,995,296,-1147,19,333,-135,1039,664,1366,-1318,-375,-409,614,220,-807,843,-75,421,914,-752,395,1463,230,-778,-896,284,-55,-171,-881,-446,1152,1107,-64,-186,675,1422,1101,1024,902,719,-162,934,933,-795,553,1223,1467,2156,954,1168,1549,1921,-442,-1033,-396,883,-31,-125,-1719,489,-613,-808,808,1690,304,366,-636,645,557,-866,423,-719,97,-326,-639,-849,-206,-604,2307,689,-646,-174,-1651,-268,1736,-321,555,-146,-579,1316,261,591,-1317,712,-735,-2239,614,1074,344,1677,-650,-218,662,-1316,309,444,522,-711,-1532,-1934,701,-9,-621,-107,-1806,209,-704,-965,-728,822,-370,-112,-675,-138,-304,1057,200,916,358,-922,-1608,-1129,-1151,-805,-883,506,-669,427,792,460,-475,-161,68,-891,1038,-44,-278,-180,-750,-283,-1297,-735,168,798,-101,-849,-1227,2631,-203,405,166,-47,87,630,868,1050,-1819,-437,-806,748,-401,684,156,-346,1302,-620,-488,497,-572,-2578,-827,-924,-167,1142,1183,-435,1,-1182,-878,-7,193,-384,-419,487,-359,560,492,796,741,101,390,1048,-420,-78,236,-468,449,-837,460,-1397,-11,-69,310,-973,399,374,-99,-195,-573,37,-1282,583,778,-1000,-15,-392,847,160,521,1982,-564,597,-243,-336,783,-349,586,-359,215,840,-174,-816,709,619,363,-120,-788,157,53,583,549,52,1070,-178,-1683,-1710,-10,-918,-1300,448,-1510,-379,-693,453,848,944,-806,1051,945,31,-2469,295,-975,308,-467,-756,623,-624,-1118,-726,273,-320,3,-100,694,887,-878,-1485,-1405,-1,-131,-747,-1460,-1681,-305,-703,-902,644,565,610,69,-398,-195,-120,-428,312,2,-704,936,124,517,247,-363,509,656,-870,-392,1225,520,-161,688,-1112,-14,236,-2213,-32,1261,-290,-1027,-271,-953,1507,-1087,723,-295,451,146,-48,-1276,-1168,-1214,-644,-795,1498,-199,-373,1332,766,147,1336,-997,816,1429,617,402,659,616,473,500,-2924,244,-148,-496,295,-1436,-1464,-1241,-869,-1261,43,247,-1401,229,-76,94,-1132,-175,-945,-222,-453,307,-1259,278,-136,719,-125,275,-669,-338,-43,-1195,-1613,-1160,227,1223,700,-57,606,1268,1362,1419,1477,377,-592,578,-1225,1801,-442,712,647,-295,-821,200,566,216,2523,-1451,717,561,342,863,256,-1226,675,-494,244,144,643,544,107,-264,-89,837,650,406,1347,124,-645,1534,-1488,-772,517,82,972,2227,-453,603,1011,-673,1052,-328,-1432,375,-950,-1314,761,453,759,727,-18,900,-828,128,-234,589,-168,-279,759,217,-772,-1544,-1621,-371,-368,592,743,-651,-84,-780,-163,-163,-559,-22,-280,806,1054,177,649,-409,-573,249,-831,-1669,-656,-255,454,439,316,246,-255,282,-640,631,16,-1341,970,-179,-838,2122,-1532,231,2886,-101,948,-68,337,121,871,449,233,392,-1668,-772,1073,39,-45,-1032,694,-208,345,242,1100,-1007,-478,-1014,-475,-1890,681,786,-387,684,857,871,-229,-129,-1203,-20,361,-1272,-421,-474,740,1,360,2178,924,-175,17,-1154,-1292,-951,-1227,436,-520,-523,1178,-197,1261,-148,-144,-446,295,2176,495,-213,-814,650,-287,165,-209,98,-256,-1730,780,-547,-419,-261,-1203,-173,-85,617,-3016,-225,-338,-551,-1373,1954,-1080,349,980,1220,548,-1151,-650,1033,904,707,-1181,-304,-1819,495,-864,271,-969,-692,-1251,-631,871,570,1070,3,-20,-1782,-1717,1405,-150,-77,557,357,-22,1436,859,124,-737,496,242,-542,-95,296,868,-303,24,-116,4,900,1029,1107,333,-296,500,-68,-526,850,545,526,1109,1428,321,929,502,1351,724,105,217,213,1292,614,226,700,-600,-897,378,-1081,-1149,-523,-250,1621,-1020,-2033,-473,-617,129,125,857,351,-1161,2469,-1016,2103,1131,83,-1373,-393,-169,41,-9,-1253,197,217,-13,-1146,832,-1240,-1120,314,-813,1668,-323,405,-961,-1143,-917,279,907,390,139,-309,773,864,-636,-337,-256,-354,965,206,249,463,-164,159,308,1141,-99,-229,849,387,153,880,-513,-285,-1083,-1366,-496,437,-195,-1369,111,91,129,-1389,987,-806,-201,569,805,987,-801,1349,-259,-1618,-43,702,-847,-351,-1282,-768,805,1963,-227,-770,186,1626,-258,-180,-215,-518,-75,300,690,503,-554,-896,702,-1081,892,910,204,-1666,822,468,979,-713,-533,640,576,567,-667,576,-563,-866,913,-841,235,-665,1375,962,-809,-533,-810,1189,-259,-288,2,-54,393,176,-647,-605,-489,-1338,-1051,-1247,432,1209,1095,534,996,788,668,1127,946,-731,-551,-633,175,-212,558,-661,-1034,-548,-504,191,-842,-217,207,884,-827,-75,153,909,458,551,652,557,366,-35,37,-1050,1442,-1204,-383,1351,163,-82,-1796,1091,-254,787,-1181,890,-629,1928,-699,258,-1497,-507,-836,480,815,-628,-196,-654,765,462,-941,-561,639,-437,5,1062,-1444,625,-118,-593,-1364,280,-198,1395,1589,141,680,761,1326,223,391,1869,-631,1168,1312,450,-249,759,903,-132,224,992,1821,1003,450,995,95,-77,87,-573,0,1016,849,1161,-15,1263,1208,-117,-468,-18,286,102,472,-1403,2,289,264,1240,-954,327,-440,2147,1375,1188,1103,1068,181,86,1009,-1033,704,1448,-51,226,187,-364,275,1738,89,-200,-929,-273,-1784,75,-1624,-1372,-630,442,1116,-418,440,-1284,803,556,346,457,-1539,-1097,-552,812,920,191,800,274,559,-108,328,499,-303,-1006,-126,-1105,-1493,-1254,-516,-1622,-133,-340,775,755,951,1108,-414,-1177,-381,386,134,722,1183,-650,-972,-541,-699,-489,-1281,-450,-525,83,-1740,174,-469,-696,-34,201,-173,-443,-256,1694,614,1356,866,-392,-1,-247,-1915,197,-1036,-1069,1636,153,-580,-712,-388,-1592,-174,390,1328,-520,-504,835,7,-78,676,-1469,1599,120,574,134,-295,836,-269,-411,649,947,84,1228,191,-1331,-1417,-864,-462,62,-3,-175,579,1045,969,1325,1438,1048,-321,1353,802,1308,344,485,203,-469,72,947,-330,-301,-747,-484,810,661,1410,862,-540,1199,461,614,937,-185,2596,1070,392,780,-857,1300,963,1631,-1291,799,-1331,146,371,627,-1009,-535,-516,1340,-905,-1082,1499,739,-591,189,454,2004,1201,605,-1397,-544,1481,-328,-556,741,-687,228,-359,-419,-1343,306,829,-701,-69,1163,1166,897,243,-382,-682,554,839,1197,21,602,359,-871,-881,106,-1395,-920,-756,-518,615,-1223,1041,-540,-186,-187,-945,315,741,641,-775,-245,-594,470,182,-989,-1007,566,-983,-368,-296,864,158,1185,1100,-127,492,-988,-1040,-765,-36,-784,-1547,2371,-34,760,-357,-689,-2117,-492,78,2779,-67,-35,-1854,-43,-305,1663,-44,740,113,-761,1222,-369,-55,-905,-1371,-1700,1357,-1737,-108,-709,102,-719,-617,353,490,-44,-230,-997,-998,908,-481,665,1199,-1618,224,701,-250,-585,378,301,840,-258,-606,95,460,-1035,-1612,-805,-640,715,462,-451,634,1105,-1047,-1051,-622,-872,-499,-800,-1295,-1326,-1106,-410,105,155,-850,-1353,-1011,553,-1321,513,-113,1651,589,994,669,483,-192,631,-1168,-236,-384,-145,192,398,1290,1329,-382,-1084,2234,269,-691,612,-540,1368,-91,-254,365,-1059,-1273,1695,236,-615,107,-9,-263,699,1376,-419,-278,-50,-1141,-926,606,-896,-1367,-62,1110,326,290,1203,-140,-862,-681,576,-202,636,414,-439,-1266,-377,-760,-735,-87,-953,-1064,-829,-69,264,-440,315,107,149,225,-124,-1023,268,-559,352,557,-973,-1427,84,29,20,-672,37,-1163,287,-430,-92,1417,-2051,-127,622,871,-1278,539,1023,586,-666,-1120,-1027,-748,506,167,-55,-464,-245,276,1376,491,63,-717,953,-412,429,1035,-777,-347,527,831,722,-1447,574,1298,182,1425,325,-411,342,-511,-1589,-1165,-1081,-458,-421,877,-1052,397,193,-889,1270,580,412,429,373,439,-1066,-1546,-697,-940,-4,-1754,-372,-71,-1131,-1487,495,-1008,365,-441,703,411,234,337,32,876,815,230,-50,791,965,636,-1596,526,686,109,-238,-1713,836,-1047,1508,-873,-1579,100,-1406,598,-312,-655,-45,-117,698,1532,589,792,-1986,-1890,-501,328,197,-1506,-1570,-2762,-627,503,-587,-319,832,-324,1059,1176,-1186,929,-385,953,323,-972,62,-1221,-1276,-1827,1095,890,1068,425,1237,-1592,-282,201,-2235,-808,-704,-975,-1356,-190,-2734,-1163,-1154,603,-452,1043,-475,131,-1135,-109,369,-924,-884,171,-380,-1480,-380,623,-204,-1511,134,-1537,-787,293,-351,-301,-325,470,-641,372,-896,931,240,-1112,1101,1674,561,-748,-980,-249,-786,1438,1448,146,782,162,778,-1210,141,2242,1519,-472,1565,249,413,360,-616,396,215,-4,-190,-36,-856,-1211,1068,-1203,1186,-374,293,290,-1066,-1606,545,1361,671,340,639,67,-856,-232,1717,-251,1686,1340,937,761,1588,533,1574,467,801,86,346,-75,-561,635,510,993,1314,820,-666,471,-216,831,15,-39,-271,-553,1031,41,-786,397,-993,-1060,-1550,157,436,-12,-326,-1062,-874,-174,-1850,-157,261,1072,1016,-130,197,-73,293,238,-2242,-880,-174,508,-866,-661,25,380,-778,-100,920,-326,1545,-594,-689,-1234,470,242,782,406,127,208,652,233,304,641,521,466,719,-959,416,781,122,541,-489,-263,-758,-382,-544,-302,627,-464,-1272,572,-1183,-1629,-811,224,-446,-1206,-876,229,70,-548,280,-18,-170,-931,-1345,-1260,-474,701,154,284,261,-357,-694,-352,-417,468,-514,801,-1250,192,-1702,-235,-718,1119,623,-877,-949,-84,609,-8,-1806,511,-1498,-242,-423,449,61,-295,575,-525,-599,-937,363,488,2244,-82,696,1246,415,1110,92,-1004,34,294,365,517,154,44,766,1028,-217,-483,24,310,-171,756,383,-249,-897,-729,-842,319,-170,851,1014,-1081,-654,551,-1328,-462,416,186,525,38,554,-525,-821,-216,203,-176,607,-600,-28,86,-1134,-985,-600,-228,298,883,-308,-1300,-1220,619,-1044,-746,-1002,-842,106,263,-1099,-1993,-59,299,120,-1091,-1014,260,411,358,391,-2795,-1149,-376,-1086,293,-510,1111,-2398,899,227,950,1298,271,720,-196,-821,-467,1122,-1629,-704,-127,648,-449,-1209,1216,-1056,-1563,-548,242,-1594,-1032,1081,406,-291,-616,930,148,1700,2558,2548,2503,1562,1934,2581,935,-366,-783,-951,320,1090,1439,873,652,1193,1719,2176,1758,136,1821,-1026,-380,570,-9,622,-1054,483,1468,-488,1535,-44,769,-519,214,162,-237,-392,-2296,-1482,2107,-545,1127,-62,140,-753,-359,61,-278,-143,1484,-501,-74,-621,1,1173,-723,949,-642,1572,-1039,1362,1085,-224,-141,-280,687,307,-647,-80,-826,178,-581,-1045,-883,1,237,2286,-494,1368,1562,-1185,-760,-588,-2095,-107,-1061,-306,974,4,599,-947,971,436,1227,-330,791,1298,-54,545,-214,-617,-764,960,-391,-667,-163,1163,-256,180,765,1564,370,-11,-846,271,917,99,-228,-482,-821,-216,1107,-894,551,159,548,61,-279,-205,-380,406,-1265,274,-670,402,81,122,10,1044,-1118,-535,1646,816,932,519,-891,-426,-478,456,-541,389,589,-993,-231,-181,-413,-504,-609,-1372,-329,-167,189,-2365,183,166,54,1304,1080,564,-261,656,-124,1224,549,-570,208,-464,-757,-774,457,142,-1709,874,-809,-364,233,655,843,-560,39,-279,212,-1060,539,-285,-849,-730,-873,415,-205,-1666,-1518,-682,142,-641,-981,-1128,671,-822,-543,-619,783,-1239,1484,122,-1036,381,-179,-727,610,984,1810,-792,651,-49,562,551,-78,-669,-879,470,-1870,-305,468,508,584,-989,-282,422,-635,-1569,-581,-22,676,-597,-271,-699,316,1849,-388,418,-70,-41,1654,-1116,148,275,-236,-1820,1355,1031,-566,-495,-374,1289,731,1244,1201,1468,1719,1776,783,1714,-1115,464,790,734,1221,1356,641,143,-242,-850,-377,-285,739,589,-732,58,868,1157,289,-258,16,993,387,0,-833,392,1241,-842,205,642,-1378,1003,1794,-740,905,800,-847,-234,1037,197,-276,-17,-1699,581,-547,1529,-156,-457,-350,173,-261,1165,1231,1048,-800,516,454,-1048,392,-1799,1348,235,-680,1465,-600,497,-1799,1277,-30,-314,250,472,116,-894,-631,-401,660,268,185,130,-1648,-144,-1412,-1496,801,1025,-1420,-1501,136,-1809,-1783,-1018,-1036,-605,-178,-1115,-1038,551,302,687,-1278,673,893,-1099,-770,-258,686,-1017,-502,-1243,-160,-417,-690,551,-1389,417,-484,-485,1202,849,-1537,-440,-88,416,632,-455,517,1256,-72,-372,253,126,-118,-1046,-1206,811,-419,-438,997,85,-130,-988,1377,1344,694,254,199,-289,-401,-893,329,-166,428,884,-1315,404,734,501,-919,701,-277,-84,-475,-863,-1252,503,333,-703,1349,-832,-332,-671,139,383,3,-1037,-187,-394,-1424,395,395,338,-1041,124,-800,-433,285,-840,-153,-119,-724,-103,-1435,-361,-1251,216,208,270,276,-1020,374,-681,577,-576,936,-719,-482,897,446,-838,-1338,1812,1429,278,-412,-261,426,-1112,-22,477,1730,-351,368,1266,-900,-1381,-1745,-668,-899,495,367,1196,-204,-1510,-941,-938,943,453,-299,-796,1131,-1166,-386,-361,-740,-1284,-504,322,675,892,1062,394,-675,264,657,244,350,-476,923,-223,197,-603,-761,-27,515,-153,-181,-361,208,443,-765,684,-273,-274,14,883,1250,178,-557,1325,833,1000,-360,-258,-920,461,700,1102,1343,1669,899,-645,-717,404,986,-290,866,77,199,-1574,-696,-1372,1313,1609,265,-177,827,-170,452,444,-957,-108,1847,-1250,244,635,1184,791,295,509,565,648,-113,-648,282,63,690,-18,572,-38,920,-1273,-436,431,801,343,-836,-889,1534,24,-943,-83,-163,766,-607,-490,-69,747,170,545,-498,-531,-1194,169,-1085,-440,343,623,705,69,-1454,-497,-1115,33,-772,-1558,-886,-1319,-783,-726,-260,246,464,-352,-1074,453,-3,-1499,-177,-617,-246,49,1052,-1640,223,1141,-1526,-1588,964,-292,398,-651,989,927,564,-975,-372,-625,-171,-471,-502,145,-2141,-624,-1236,-698,758,-217,598,276,1173,728,922,-160,1541,631,371,121,-1014,-162,1614,316,-302,1502,93,316,1101,475,-1084,107,345,-571,-408,2072,1952,1280,603,2031,951,558,-353,-77,597,1496,648,117,-31,-375,1292,31,525,71,667,918,1127,1380,905,501,628,-225,1001,737,1330,-254,129,757,279,56,-1369,1831,137,-1049,-27,-811,-760,1505,-679,2035,1001,1071,-460,1232,1729,187,-1565,-1221,878,-527,615,-372,-172,1135,1264,388,611,780,409,325,-728,-210,1107,1019,212,-509,-1707,-1838,-682,1870,-608,763,-109,248,-366,-150,-719,-164,-1297,-2402,-96,70,-1963,-202,-142,380,-1168,-447,768,1556,-253,-653,924,-521,811,662,-692,946,790,-283,583,-1374,-1065,-1078,-1053,-624,-867,-1263,520,-925,-993,621,1172,316,647,373,463,-1080,-591,-331,279,237,-221,-1701,857,-227,619,-1339,1195,-1884,-1308,-408,-486,769,-1012,645,-465,2221,1121,-1041,-122,-123,-236,245,1367,183,-1348,618,-562,313,676,128,1031,267,167,1420,2024,49,1083,-1065,-436,1378,190,-1689,-890,-463,1219,982,-771,-785,595,567,934,568,1376,575,1271,167,267,283,500,173,850,-159,-275,-708,975,-694,-300,-606,-78,-629,859,-8,-465,891,661,-279,1488,1025,-11,326,160,-479,-592,-963,-1837,329,1282,-414,-617,-37,733,640,-482,-428,-28,-1029,-1458,38,622,537,907,308,6,1969,179,38,76,-117,-1020,47,-517,172,750,386,201,-452,112,-1535,-838,517,497,321,-884,-96,1650,2087,241,-38,332,-1429,2009,1806,742,614,-842,-167,-147,457,2252,2077,989,1240,1017,1538,1054,951,751,1147,1121,1869,2040,337,2463,2334,1764,351,-241,1037,-208,-1261,-161,793,318,1485,459,1495,1914,2177,71,589,823,-116,-1596,401,1164,-720,1914,-391,-453,1065,-408,269,91,-32,-952,-676,-586,571,-205,-1100,494,-1668,136,2276,482,11,464,745,-257,-1423,1513,-1352,716,-1063,73,963,-292,-110,-1719,161,-304,236,-56,2365,574,273,-492,6,-575,98,634,1722,786,512,961,242,399,1161,-894,-139,1077,-789,287,-102,1280,447,1390,1537,-71,388,1132,276,1705,751,593,1462,205,-194,-119,1081,658,181,1447,1454,410,1672,898,1968,1515,531,-954,180,554,-911,-1646,1226,-278,-1135,273,830,-1158,1630,-1144,-105,237,25,-18,710,-68,1057,908,17,-652,-132,374,422,354,51,-1466,-752,262,874,480,291,146,-2147,308,68,217,-34,-648,-1060,746,61,661,498,-890,517,-26,-352,1623,913,-644,547,1350,1954,985,-162,-593,-88,-971,-1106,813,930,359,-799,-1364,-1129,518,393,280,918,431,88,763,873,-258,-637,-236,-19,650,-104,-794,-491,1032,247,-485,176,455,398,756,-1173,557,868,16,-207,330,-290,-829,-180,-802,483,-1021,-125,-629,-134,1542,1403,423,400,-504,1046,1148,104,3,1053,423,-1019,996,-1152,-782,-412,-698,1515,627,-1672,-159,-1018,-536,790,1032,-84,1237,679,-681,-832,-1740,-1589,-1194,-305,-767,219,571,973,1199,1,1040,176,503,-485,940,-500,-1357,-514,628,212,-938,-460,-1197,-1415,350,-1470,-381,894,-432,1189,-395,-1147,-563,642,653,722,352,1105,809,-1574,892,-947,210,-764,742,837,-963,182,-217,-369,-988,477,29,481,-113,2159,-268,270,92,1209,-606,-260,1482,40,895,-159,-420,-290,-297,635,554,394,-7,369,-316,-47,-287,-764,-192,290,779,1844,258,-53,437,-1249,-667,621,358,1450,228,-386,-871,-684,1350,796,371,-950,-1761,-748,-383,-265,-1145,-396,549,366,-1187,693,983,-808,-321,394,-686,-1654,-544,-1134,808,545,219,-921,-1356,-427,-492,741,-1128,-316,-1329,-22,357,155,-782,191,-631,749,592,-64,-588,-1048,252,-751,-184,-1449,-1096,-1082,-394,-784,-1403,-385,55,530,-1455,113,-233,-958,1994,-490,-928,667,-305,-300,454,146,-628,-219,331,-1085,-506,-92,-256,719,150,-630,94,-1092,1293,-1759,-341,506,538,462,1622,-389,-437,-400,649,-126,-202,592,909,1159,-442,-13,820,-815,-977,-1259,-528,1346,1239,182,680,234,529,1198,937,871,1297,932,377,589,1694,1629,-315,-334,710,282,506,-1591,1622,-925,-499,1990,-589,1771,-1918,-1439,-943,-312,622,-178,-918,1648,-1750,1506,-364,1019,77,830,2904,482,460,66,-501,-307,-1132,-70,197,51,462,1196,-823,1319,402,-299,334,790,-307,51,2000,687,-188,-910,-609,-1607,408,218,-872,-747,-385,132,532,436,841,567,858,922,-389,1530,701,-8,366,649,496,-104,-1340,861,730,-541,460,-974,547,-1456,488,-1024,86,-584,-305,-53,779,1066,629,-720,630,282,-50,421,-392,-295,-1042,493,-876,-1808,-610,364,-2220,-2092,1430,-955,-618,1247,1210,358,886,1544,221,-228,458,507,-543,-228,756,870,-1066,-1979,-112,-619,-967,176,777,-446,155,-191,-2075,627,59,1292,-415,-264,343,913,425,2617,565,-374,-763,-272,-895,-1204,-1029,-671,-1208,-1477,-688,-919,828,-1052,-461,-1209,-1176,385,153,-586,286,1181,518,-730,-460,-591,-1199,177,326,-1034,770,-463,948,233,-788,823,706,-1172,590,338,-899,1405,732,210,563,324,-816,605,-726,894,-1512,-468,-88,-1746,149,-154,132,-219,-1143,161,-704,223,137,144,-706,339,1092,-1209,-863,996,338,-1511,-1270,214,-81,-133,850,373,-269,-596,-883,153,1356,1076,52,81,544,-514,-374,43,1081,633,1072,672,2050,-215,-611,22,-991,-500,-1222,-1998,240,-769,-385,673,169,942,-682,939,136,-342,718,-37,311,403,1291,-130,1929,1346,841,459,1024,134,-27,912,-442,1842,-523,548,35,-141,1272,1755,196,1401,372,-512,2014,173,1237,159,25,357,1644,-503,557,-134,-1391,74,547,145,485,884,403,853,1319,-1152,-550,438,-649,-859,322,208,-434,-1221,-3197,-308,-1486,-644,-94,1235,1492,1420,839,500,-141,-450,1095,664,161,-136,387,-591,85,1082,-99,1330,548,-236,912,826,-419,842,-215,-889,327,-941,386,468,-42,615,452,-682,196,-373,-816,283,-245,1654,1805,2193,-346,1070,941,-901,638,1172,-872,-393,-140,2397,-631,237,-25,504,1046,-332,-713,1027,786,648,23,82,-1787,-24,319,309,-121,1102,932,132,-304,24,297,-552,-493,1805,-954,485,-1002,922,-53,203,-298,-517,-354,632,-1570,-138,-76,1194,554,142,-478,-887,-492,-1078,-762,251,-653,-346,-609,-1941,-1376,698,-468,1204,-182,866,-1510,-1259,-643,-110,-1015,-112,-1360,-290,-1238,7,141,-170,-451,-81,-120,756,817,-286,-468,-1727,-938,-45,660,-830,-311,1274,-916,-374,-426,-874,-440,-1035,357,-2,345,835,-694,-458,-90,508,214,-1329,-576,-12,-812,514,-641,-1222,652,-271,1344,-1650,585,654,-885,189,378,-296,695,822,1501,-791,-944,848,1478,-737,-650,-1859,-281,605,33,-1317,399,-646,73,-29,-62,277,1350,1185,-277,1082,266,1197,898,281,-426,75,1013,-9,-109,787,67,653,1131,675,496,-232,-461,-152,-1066,-1160,-254,-673,-531,133,60,-738,-603,-560,584,911,942,118,-1339,899,-924,1073,348,-822,1240,994,-1167,-250,790,430,-873,-743,1092,-968,-548,799,339,1342,1182,1901,-1003,26,-689,-323,512,-335,-291,-718,1156,800,-567,233,-728,-912,221,-640,123,-5,403,-1460,639,712,-306,-350,812,1076,1763,1508,1127,478,812,1556,1319,-374,1120,1128,221,543,1139,-990,-198,-929,-921,197,743,118,90,-314,-186,-1292,-599,-1131,801,-425,-146,-373,-1551,30,746,216,-919,217,-540,314,-2383,-1125,370,-134,786,509,355,425,-760,-933,1219,-502,-31,-113,387,2078,577,-45,-2575,484,-743,297,-1237,-132,601,1754,711,-1215,-22,-967,-256,-589,131,2505,360,819,-108,-32,-754,1025,551,517,1528,1831,467,621,-646,-617,-1104,-595,403,412,739,100,532,233,-367,-295,-219,1280,-300,855,1203,964,-430,825,555,181,-501,975,964,1572,-802,-62,1351,895,1449,-9,-13,-192,474,169,1572,129,92,334,1394,164,-785,-378,-205,1772,1504,428,-1415,204,-2116,-127,-1990,861,1250,374,-1695,-173,-1084,923,1907,1604,1042,331,491,2022,223,-1232,673,38,-559,-2809,-505,-1029,-1594,415,-1380,-181,-186,-404,-1871,773,-257,-306,1725,420,-38,2056,-329};
const static uint32_t LSTM_01_weights_input_gate_dims[4] = {1,1,48,88};
const static ConstTensor_t LSTM_01_weights_input_gate = {&LSTM_01_weights_input_gate_x[0],&LSTM_01_weights_input_gate_dims[0],0};

const static Weight_t LSTM_01_biases_input_gate_x[48] = {-1320,981,-1336,755,425,-1182,299,637,1120,-318,-571,-475,1180,-646,837,-444,88,-206,-1629,620,-369,-188,-432,720,435,-230,619,-140,-554,72,-868,601,-1128,-499,1138,220,854,385,-169,1198,144,390,973,519,-1076,220,922,2163};
const static uint32_t LSTM_01_biases_input_gate_dims[4] = {1,1,1,48};
const static ConstTensor_t LSTM_01_biases_input_gate = {&LSTM_01_biases_input_gate_x[0],&LSTM_01_biases_input_gate_dims[0],1};

const static Weight_t __attribute__((section(".weights"))) LSTM_01_weights_cell_x[4224] = {-12,696,-22,481,546,322,369,-1010,-1538,305,-801,-1124,-135,373,127,-1282,-1038,309,433,310,981,603,183,-398,392,-331,853,586,1106,-141,208,-573,771,12,-1061,-566,-325,-366,399,649,-1805,-460,-563,-618,852,-598,-892,-1036,1399,-522,246,352,-73,627,-1087,383,124,2188,-390,-1285,-400,-994,-40,-451,1005,487,721,-1054,544,272,-865,679,-860,-102,370,619,-590,-682,-1324,-448,337,-815,751,706,533,-621,719,-95,-749,421,777,464,189,-551,-29,235,957,609,707,972,703,1092,961,1286,244,1714,1102,-418,-836,-1632,-741,-1863,-1515,-472,-69,104,787,-877,116,209,-919,-1506,222,-1400,237,-1478,-328,-549,748,555,-990,1282,-1431,32,-13,-1093,1110,-460,635,-21,408,-666,-238,-817,-901,716,322,1872,-245,1242,1018,-282,-65,-878,-173,737,892,-1393,-1653,225,248,-300,-869,-369,-408,-737,55,-134,221,345,525,865,-319,99,518,279,-329,-909,-926,-463,367,-1034,-630,368,-1257,-1297,-705,-917,-153,1222,792,682,-143,-863,-973,-779,-856,496,-1096,-56,675,-502,-1403,-443,872,1117,1206,-828,-320,1212,1200,603,1317,670,-309,1429,-436,-459,1300,-1255,246,1436,653,-438,-666,-209,-352,788,1019,-1249,851,1087,-1413,820,-1583,-712,-297,-158,22,-177,-29,502,-1090,-264,202,1215,992,-110,-238,162,-470,1505,-673,-608,-845,-151,-398,1078,-3,1036,-55,747,-556,-1282,747,423,-442,-1290,-199,46,-1831,375,-512,912,-410,59,-1202,-807,667,1300,1049,181,400,-1374,375,916,128,174,1360,298,865,-2,-4,208,1044,-773,354,705,19,-1312,110,-1007,-383,-1076,92,-2030,341,-242,-761,-1536,-524,21,1264,61,-1056,-202,139,144,825,582,-569,238,1048,-377,-694,1354,263,-1003,-110,157,-961,1628,1223,1291,1037,1032,-824,-259,460,1188,487,-276,230,-1720,-341,-288,1753,-517,-20,-270,-709,-590,-1141,-1305,-200,-546,-151,-435,568,-680,-655,-998,-1618,946,-1035,382,455,-1372,-881,-1494,-1210,-942,-50,378,-456,1307,-100,-564,577,1109,934,-458,-240,1473,1148,-392,0,-671,-765,-248,718,-316,-1405,1417,-162,-1309,-102,671,-253,-117,370,-198,470,-479,401,830,182,-1420,-403,19,25,169,1095,367,-44,-697,1508,-69,1678,1134,197,-93,-748,1356,165,-1430,1246,-436,1604,69,614,-103,5,-34,-634,974,203,73,-273,-1127,-23,-882,750,914,492,512,-498,-85,526,395,-118,-260,-821,-605,683,496,818,-578,-850,-224,92,1032,-216,98,874,243,-968,-720,-430,354,-236,-805,-381,-928,333,-508,650,-207,-1145,-1111,148,1040,-733,427,-262,-932,-1531,-510,-408,-546,-921,-1092,-661,-153,-1317,-935,-592,-727,267,1445,-682,592,653,1589,67,225,918,335,-116,-481,136,-758,-704,-203,-806,1420,263,91,-575,381,-449,-1890,-1497,927,1014,243,14,190,183,-768,979,-231,751,-489,76,-262,-714,-8,838,1544,875,967,-170,-644,312,-1322,-799,678,-667,-1329,-1178,-145,-734,-262,-143,387,-1174,-343,-29,-421,-749,45,-376,680,165,-21,-635,247,25,-435,1572,412,556,220,-173,-322,923,672,546,-356,1122,457,1617,-726,1244,-1079,-1262,-680,-1278,919,932,91,-613,882,-2747,-857,428,-550,-1121,406,1188,-275,112,-236,-614,-177,308,295,128,-182,672,646,1236,-184,664,127,-187,312,930,586,-340,645,-612,-727,-495,480,168,899,-170,168,-275,-660,10,-689,1219,1135,1095,708,-924,-688,680,1234,1351,330,-1412,-1429,-960,1158,122,-1060,-1054,-1866,-1443,-931,711,-352,-336,609,-506,619,573,478,-501,78,1602,991,-446,861,-877,122,117,1375,-971,-949,-11,-877,654,627,525,49,543,503,642,-1596,-739,377,728,-1083,278,605,-702,492,502,-164,1206,-421,-1833,278,-132,98,-1804,-981,775,-683,-289,813,2294,774,-1240,429,677,1114,1132,-479,-736,-603,66,243,303,250,124,496,-478,-2168,-566,-754,-668,38,-583,923,902,14,-874,-170,-140,-865,-451,1042,1150,-662,-389,587,1278,213,-550,441,545,-13,-539,739,326,-2324,1059,-66,-76,1682,-718,714,1409,-1089,1561,-244,873,927,-291,1112,673,322,445,158,-768,59,310,190,-205,82,-76,63,860,-369,1744,542,-416,-1252,397,-756,709,957,659,728,-1177,763,-356,-65,-1181,-443,232,164,357,227,-166,258,-858,-317,-582,278,-785,820,-648,-676,-941,682,663,1089,834,566,-511,-1136,-889,459,-861,310,197,-1080,-673,-806,-1167,-298,-123,-577,-728,-489,-252,441,822,158,-825,791,-354,781,-1230,413,93,698,834,-180,-536,508,105,256,477,-739,-1416,377,-46,662,750,797,-1622,-510,-1191,468,-931,-389,78,-595,182,1022,-1372,1480,629,175,346,-742,-230,197,-664,279,-164,-641,-350,74,883,-771,396,-977,-1299,-910,-689,-577,1140,778,1086,208,-422,-183,856,1088,-676,117,1055,596,-605,-444,-151,-621,-1203,-728,-75,-406,572,62,18,-150,-1271,875,-427,679,793,32,975,-45,866,278,-344,-458,1120,-742,-973,-378,316,-63,347,-648,-47,-477,1046,-108,-1360,-859,67,-1111,-1173,-646,562,-1463,495,1085,423,1237,-502,-986,-88,666,965,-435,-326,518,29,727,515,-1080,985,864,-441,-1428,1387,1026,-1016,-1000,571,932,-753,860,967,281,-455,-500,-1745,-1557,553,-1239,-742,603,482,164,690,-943,-26,-369,76,141,494,-354,85,-839,176,1248,-543,617,-414,109,-330,-418,616,-8,1292,1490,-210,348,541,-974,-20,480,747,728,114,1109,-727,-589,-56,-749,-236,-84,-406,10,-608,212,-1776,-468,1302,15,-459,647,1221,-882,399,-1280,542,1007,441,-598,766,665,152,964,-576,-750,1035,73,140,489,-1353,-1389,191,-82,1235,588,-102,-798,-1283,-879,-957,107,-333,-556,-328,-1639,-439,-28,-177,-1164,-414,-764,-777,372,293,807,-1009,20,-1504,874,-966,-648,150,862,823,451,-911,451,994,839,676,-442,639,342,636,-662,-394,419,-994,1164,-1028,-799,1200,417,495,556,331,-339,722,-948,-233,1264,213,-581,-370,-1339,523,207,1092,-153,-1578,-494,391,246,360,183,-704,-1006,1182,-1302,-486,0,-1080,-801,-358,-1474,-2119,291,380,-1018,-1165,-969,190,178,-686,739,-751,686,781,-736,-151,-970,-76,-1036,-674,-157,-1531,-1549,255,65,-227,-621,-125,-412,130,-374,-199,1002,372,274,362,-886,359,98,925,1006,-570,-46,-200,480,998,1702,1024,-2213,-92,939,1303,351,247,-458,-570,641,422,525,47,911,-130,1489,1383,1097,471,-178,281,289,1224,-1086,-1018,-634,1368,893,-585,464,-248,655,249,385,706,-105,-666,-866,1046,-255,91,-790,-646,929,-207,-49,718,175,1591,-907,-597,-720,322,-239,85,954,-643,-604,130,227,-824,-188,304,302,770,625,336,-244,131,-684,-1330,-1020,147,-834,108,-1571,-1544,-747,458,-299,-174,575,-351,1185,1207,689,1895,1885,-5,498,-453,-946,-1271,100,-1579,738,-1066,-68,-310,466,542,356,-888,790,594,-341,-1029,-952,745,11,319,-1308,-950,-482,-1151,-830,360,-119,729,-489,-1380,237,-362,-721,102,-846,766,-271,888,227,-697,844,-294,-1072,566,519,-473,902,947,12,712,482,-1085,-743,-629,985,-579,-1017,-205,-1267,-904,-717,-1204,179,227,139,673,-1060,-143,-185,457,973,336,1031,275,-740,-242,-431,-1120,342,-1388,-1367,-316,-1107,524,-367,-355,-822,1122,-472,756,139,-1918,-1135,-225,1053,458,1183,261,-701,-512,1173,-830,633,914,-679,-1672,244,-226,-87,-1153,589,391,-170,-171,-95,979,-1205,932,461,-297,523,762,878,193,519,1291,287,-214,-181,3,-495,666,-421,507,619,95,572,-1080,403,-1313,-339,715,18,-169,754,401,-403,-1001,-165,-591,-551,-133,-923,406,-339,5,186,-338,638,-407,-19,2,796,102,322,-586,755,1361,1385,636,510,-503,633,-658,-1285,1554,715,913,-519,959,-259,755,-1797,1094,-298,-324,-430,-766,-710,926,-1059,105,1426,-1944,2049,886,-779,362,1195,271,-808,-829,1023,342,-240,-3,-1368,1494,-1575,32,-1540,-266,884,198,-9,937,52,143,184,1008,6,-611,-76,308,1063,1,-396,1118,382,751,-448,-450,421,-1163,151,-400,686,-930,257,-30,151,-567,870,-16,-240,-707,-695,857,-311,604,644,-575,524,-622,-234,-476,-259,662,90,407,-551,-804,-36,-445,-792,1506,206,-1020,475,-793,357,-514,-104,-1640,-929,-374,64,-1218,108,50,847,1964,-622,1031,25,239,-1535,-859,257,-364,-1088,-977,-192,-468,362,-36,476,-72,1306,-1035,-1328,131,633,-1106,-1013,537,-738,-536,628,952,306,-957,-856,-1397,-575,-1503,412,1078,881,-824,476,-1161,-360,-503,926,915,-390,-21,519,760,-893,197,-937,677,855,-786,-613,-507,824,630,442,1545,826,192,-962,524,236,1090,-34,-145,-205,357,1303,398,-406,-235,-428,1355,122,-511,-531,167,-232,-547,-704,556,-762,-772,-768,-6,866,1126,679,3,532,816,428,-387,-898,681,-519,-2606,-60,143,92,615,928,704,72,555,676,432,-1074,-176,746,-1833,-169,-328,-1262,-1555,-1063,-131,419,-1211,-1141,-1644,130,-1386,-308,699,370,-160,1123,361,968,-479,-1323,492,-659,756,-1438,-237,961,518,632,1290,436,410,-466,113,-385,-220,378,-886,1004,-27,-1078,1917,499,-1826,-641,212,632,-411,-264,-762,-1055,842,-659,644,-1223,958,-1587,241,-2,685,750,676,-93,-1191,880,934,1625,-615,3,-131,991,-339,1000,-827,-608,-526,48,-380,-769,455,607,791,265,-371,232,-493,-748,760,317,-777,-135,1228,-458,1684,-491,-307,990,625,633,1794,797,-818,1172,685,-396,-1362,-593,945,1537,-525,757,-718,414,-659,-468,130,563,244,600,-32,112,-585,-832,606,299,-1104,-931,699,311,-828,-655,-290,-172,-69,-337,436,47,-622,153,350,257,-1815,-559,-365,424,536,-1460,606,336,-384,-1160,-396,-664,-963,323,265,842,9,-342,-153,401,-1056,298,-1121,-746,-406,539,2208,-186,-410,804,767,-40,290,580,1193,-267,1146,356,1171,-689,-73,-740,-744,-1035,59,-1378,-893,605,-668,-16,1111,-156,453,-918,-631,294,-604,-23,-546,-307,1134,583,102,565,-492,-443,416,200,668,-203,-461,983,-797,665,-685,-833,464,-46,59,-382,717,-1897,300,-613,1041,-38,-74,666,1515,279,533,-211,428,-354,-444,222,-998,-13,501,277,797,-293,-509,407,-1292,-1269,-271,-306,-1,314,-587,-1305,-548,-72,-608,-487,692,-1602,-956,465,-390,135,-383,-1971,1760,1458,-685,-373,143,717,-203,978,495,1069,-467,116,868,200,-537,-825,-929,-509,-1221,-652,-447,465,781,-474,-1201,22,1000,-225,146,191,-295,544,-24,-120,956,-386,1164,-644,933,129,843,495,561,-151,-1271,188,-1215,-1020,-75,-1741,406,-278,-570,395,473,206,-1314,-694,14,-160,-97,-1279,-350,-1102,1042,15,698,-1287,-5,-618,-1062,233,-11,721,933,-216,478,385,480,1520,2228,-400,674,76,258,-1170,-787,-432,1307,1998,1261,-368,49,-535,-1217,916,624,-270,689,694,1426,1428,932,758,-36,-487,-224,1522,247,-427,225,91,1235,-294,-613,1054,991,-932,-874,609,382,-436,534,306,739,-236,13,-841,-1181,1513,-1182,873,-855,-792,-901,-621,-1433,-788,5,-1566,1019,-1270,1144,749,-216,-1165,349,-73,32,-631,119,640,-406,299,-589,27,-612,-43,320,-762,25,304,240,-109,-1731,1644,-1837,-762,-1109,466,-238,141,334,245,300,-287,-231,128,-1042,1072,709,-578,918,68,663,737,-1184,-712,620,621,-67,-853,-347,-135,-603,637,-1092,345,790,-704,368,1309,467,-1084,-43,827,120,703,189,999,849,605,-59,165,-860,-98,92,747,-1514,225,-175,737,1014,-470,-804,-745,-215,-591,226,174,55,213,-453,891,359,-239,840,-12,310,-1186,495,983,348,170,2743,-260,-666,-985,78,-645,-1574,-337,612,1673,-1534,862,725,-855,-552,653,-72,-898,-1342,-1084,695,576,920,801,-1507,-1688,-108,-1099,203,-277,766,-665,431,-844,-871,507,-132,-175,-1121,-779,547,196,1498,1105,36,-668,1091,-437,-512,-331,1213,216,-341,-741,91,752,785,-260,621,-67,90,1571,-807,-1283,456,1196,-1154,-332,1243,-656,-167,-1555,829,-442,387,1359,175,-446,350,1031,655,-441,-291,-254,1291,77,-304,110,1129,-1665,-165,-1453,-32,-1332,301,-680,-50,-335,-788,-211,501,-605,-1515,-604,730,2,-598,159,-843,-529,305,-594,378,1568,961,555,589,628,-434,-38,542,789,579,-550,428,-515,-825,-1018,235,649,913,1076,1511,1267,1375,-171,-1194,-195,302,380,119,151,-471,-1628,-1077,-698,32,-1635,-1495,526,361,1659,633,-513,367,16,264,-193,-1603,760,-276,-1390,-199,-15,640,1114,-362,1570,-518,364,-782,23,-830,-554,-260,402,779,194,-349,466,120,-824,-16,471,907,-554,2047,-241,-141,-462,261,-335,-233,250,-335,-201,614,378,-566,-1414,-1076,939,-413,-1500,-167,-1007,57,-527,-223,170,235,-742,815,1093,566,-1033,405,237,-389,-649,715,-854,476,499,288,-346,-942,-400,491,232,433,71,-766,216,470,194,-1126,-2142,1164,1061,-690,-839,1188,-152,-337,-723,174,213,737,-362,1688,599,-459,-237,-429,590,-1421,1652,-797,-699,-209,985,-124,174,536,-273,-107,584,-480,915,-607,323,-846,-179,484,117,-163,28,202,-1150,-427,552,-1864,1541,-310,582,-554,-626,650,-832,399,-83,-119,84,-1047,354,-1126,153,-531,-69,422,-834,977,503,1510,-194,301,91,644,-892,-734,-540,-790,-673,579,281,530,472,-54,319,-404,-473,377,1279,1126,-348,-851,-1051,-262,-524,165,-1311,755,-911,635,-467,-381,1181,-225,-65,282,1948,-1612,435,698,47,1053,680,-645,257,-234,-451,-353,540,-408,112,1058,-1083,-433,-611,-526,1143,-400,-925,-791,-464,-1458,-1421,-976,-9,673,-300,746,744,29,-1255,-1367,-675,-498,-1300,-405,1227,406,-817,543,278,76,85,-543,-38,-568,877,-539,997,-853,-162,-21,-83,193,-729,-632,-1424,-251,-608,236,-796,1102,650,1320,-169,-210,2301,164,801,-574,-455,-317,485,376,1524,829,-247,-212,1794,-418,627,1946,146,-321,1473,292,-1477,-627,-814,697,730,-302,233,802,145,-37,629,187,-596,-726,-449,-111,-634,78,-201,-578,580,269,-411,497,630,1034,-170,627,89,442,525,-1099,595,-1221,-170,-923,-1313,-496,78,809,-361,1261,194,335,697,1140,123,-729,-348,1026,1082,66,-94,561,-294,-772,-1276,-1028,-575,392,-50,-244,-846,59,1245,-763,1035,563,-333,-711,-613,367,-162,-521,576,-1156,1053,-661,-133,-544,635,-900,-1818,504,673,564,-788,-1581,-1243,-220,588,628,101,809,-308,476,-966,-138,-1023,376,-541,201,359,-85,-431,898,379,627,-925,415,-273,127,-151,-53,2142,-15,100,1257,-587,-1038,-42,-219,-448,-1309,-310,-785,-1032,66,1085,-729,-543,-356,682,-1174,311,215,544,-483,-379,-975,357,-1388,-689,-78,56,-844,109,-1028,363,-650,1028,227,3,-318,861,226,-588,-574,-414,718,-446,-977,308,810,680,826,20,1679,-1419,652,-118,268,342,474,1568,829,-324,601,227,137,1891,416,-796,-752,-636,272,132,-509,567,-1120,-402,392,-507,219,-529,-836,49,821,-1334,1160,1038,-346,-700,-432,-630,-905,-349,540,-752,-1287,108,-1049,-452,-1885,-418,-397,-736,-827,612,592,333,1234,-1072,401,1100,216,-1033,-496,-757,-255,818,-244,-671,-1211,-210,-1324,-664,-1167,985,-1130,263,375,-778,-1197,-900,-96,-564,212,1389,-142,-823,-328,1191,941,-104,264,221,-283,1275,-1550,-175,-623,-76,-850,716,351,-205,-570,478,-381,756,953,-413,516,463,14,371,1514,763,1650,2,-672,-440,1194,-718,523,469,-53,817,448,854,898,-933,115,738,-168,309,-43,-1575,-1028,-732,-155,207,-1592,-1218,84,-418,-669,-790,494,-1270,-874,-2,-548,389,-1037,514,66,530,825,862,448,54,499,226,-971,-1122,-620,-991,-574,82,130,-1225,569,786,117,12,1756,-294,-659,1007,-519,-974,1073,1496,246,-380,-996,16,346,-1383,-53,-122,-931,249,648,-506,-529,-21,-341,-270,326,-893,1355,76,375,-1669,-369,300,-285,-632,136,-38,-807,-811,881,-634,-738,58,-1643,68,-1136,1144,21,-327,-465,-894,-319,-588,19,1294,406,2993,1163,1233,-28,652,541,1356,1267,150,420,1075,939,165,1194,-49,918,1201,483,-715,252,-1203,500,-976,-497,508,-53,-500,-906,-398,140,440,992,521,-441,120,-1588,-29,-53,-712,-513,163,211,-841,-1269,250,-304,992,561,961,832,679,738,1111,926,1829,-535,896,-497,-1256,816,198,-1102,443,1519,-1348,-901,496,-1269,1752,-305,-617,255,180,1270,-1200,234,200,-1661,-1600,920,-682,2,-5,-298,-1098,-253,-97,-2,299,-1175,-1220,-652,-631,207,959,-1155,-58,316,-585,-107,-545,809,-323,620,431,-425,621,-256,-978,-632,-750,-9,-142,-46,360,-312,-1263,-1390,-449,478,989,744,520,-2230,960,-326,1400,122,-193,-60,288,-312,-404,-910,178,-692,551,529,-1024,-220,-1614,-665,-436,792,-331,-1648,2142,363,-565,-41,600,-504,-104,-174,808,-244,-642,-456,-588,1961,572,214,272,-591,-453,527,-278,-1238,1227,-299,-241,-551,667,807,709,545,1474,372,-1087,1029,1505,900,146,-972,-1495,-910,364,-591,93,-90,-1650,-677,-1039,-16,247,-612,-549,-602,-401,428,1029,241,497,1006,841,-384,1520,648,-385,-466,-158,1646,-821,-344,615,-354,-384,-1234,-504,-18,187,-241,-117,500,-810,359,603,-430,-293,381,569,-500,1323,-636,-348,889,1591,328,132,-972,-914,-510,-1196,866,428,996,-1200,-1176,296,693,-310,-994,1438,-385,-1131,27,-740,916,335,1266,1328,27,1144,1015,-1397,-255,797,-633,-1480,-1394,-45,540,597,591,-49,-64,81,1103,1256,-61,1038,1059,-610,212,1126,-187,-127,-356,-962,-1408,-461,-1493,-1015,-639,-9,-307,1204,-359,671,-554,886,-685,57,-597,-300,-1123,-39,-316,1101,1033,-183,-284,1715,-390,-562,-108,-773,725,650,28,1847,-335,48,484,209,842,891,-1066,1316,909,447,-699,-367,861,598,168,-1021,-27,-32,-26,126,956,1097,-532,-545,-278,28,-339,-902,89,599,-848,-1539,-717,-406,1504,502,20,-470,1052,14,-542,-449,-118,-104,-996,-179,783,-475,27,-392,28,197,608,353,754,-737,-816,1169,532,-206,393,-1040,706,548,426,658,376,208,893,-525,-568,921,1325,-163,-115,-241,-447,-692,972,-794,21,346,1046,-1249,-1391,890,-562,179,-694,1059,324,1169,-739,478,687,-651,1725,-1524,0,-201,821,-1705,-544,-136,-482,1824,827,257,1423,1776,463,554,-1385,-1315,-353,-1579,-1425,-294,11,2112,825,1951,359,128,1044,253,892,926,678,-62,489,-99,333,-600,-1042,329,-179,225,356,130,-800,-151,-312,-559,994,-788,203,-1367,897,701,-431,523,1011,835,424,12,829,-354,1204,271,185,102,-481,386,-43,-862,-306,-669,-1377,2128,-588,-137,-964,-353,-62,239,673,856,311,440,425,1327,355,-53,-1626,322,900,-174,702,-913,192,-652,601,329,-236,-621,1322,-738,-505,-110,695,888,483,-1041,-756,47,-1260,1008,1787,1231,48,1114,1184,378,-3,-547,161,202,-876,-1352,-1249,-1093,-1134,-1107,321,910,1138,285,-590,-979,-793,64,-781,153,284,574,56,-187,683,-221,-2131,-867,606,-684,-1899,1325,233,1143,356,-460,-818,1099,381,-668,200,-391,142,-338,1256,41,720,889,1306,576,1184,392,-814,-34,-431,1016,303,-745,166,-635,-742,38,-158,296,184,-1862,1034,-508,46,-306,-1202,-812,810,-619,-413,-1201,199,513,-568,368,-1031,-297,-886,14,384,221,639,915,333,1154,-768,259,234,-309,-421,-369,849,691,-452,-535,-867,-766,10,-1137,1,-1303,-1240,100,-953,577,1169,1329,1292,-119,-1305,-1307,-845,1619,12,357,1381,340,-446,-31,916,1260,516,170,-19,-1653,-696,-127,-1270,-841,-1362,-615,-338,-823,87,508,384,1590,607,975,-1206,317,1037,1088,212,-585,-1681,1230,-1008,671,-1010,642,-564,-108,-2026,-376,21,-689,-2097,-1624,-979,0,1047,70,634,-155,1404,975,1724,-217,373,752,515,1234,705,-121,-427,-768,-681,666,-802,-249,817,632,-280,1558,-130,608,-198,329,47,-211,1103,-678,-397,-880,913,-474,1272,492,51,593,-700,-529,-602,-613,581,1065,-199,687,-845,-197,-52,-617,-1447,103,-8,1157,-157,247,-902,338,1151,1167,-70,-25,243,696,-710,-877,1004,-999,160,-778,-560,1224,-235,554,-106,-115,-1207,580,599,2657,693,617,1052,71,621,-518,428,809,655,1445,374,721,385,916,668,1207,795,870,-454,469,-421,53,1138,1445,718,1020,1758,1258,742,-662,530,382,-492,694,-1017,-1071,-913,-1012,-215,-722,-1027,344,-1102,34,-650,-263,635,-40,-427,1188,-841,-795,-1122,1533,291,-1614,-512,40,241,135,-835,248,-1038,1014,1384,1568,-1358,-516,-1078,-563,-265,-676,1552,-63,239,-100,-800,1004,761,-481,-169,350,621,-697,-589,-282,714,-679,-340,-121,520,-448,115,-588,560,-333,-142,315,66,818,-958,-220,-1393,68,-189,133,-486,-77,-327,-142,1109,463,-579,-346,-214,-588,436,896,-735,-54,-107,11,-102,584,-880,615,-1491,-461,533,-243,-799,369,-42,513,-246,-1717,-1451,1719,1563,-1415,-466,271,145,-257,896,-262,595,698,937,-218,273,-14,317,914,-1426,-426,839,-170,214,829,16,-332,502,1128,331,69,-530,-91,152,-229,413,-1003,-1362,508,-1552,-1885,780,-1120,-917,-537,-872,-1211,-1710,-1504,-887,-1585,-14,-1132,430,-51,162,359,-252,-1425,-1058,-1409,580,-530,904,-714,933,886,648,-719,889,1185,1227,1066,16,-17,520,-723,427,-539,271,-108,-1149,-845,841,-286,277,373,-278,-528,1045,288,-774,-890,-64,-18,-200,1039,-635,743,-450,-131,693,-520,457,1078,-1193,209,-197,1012,-163,-1325,353,740,1796,-145,1142,255,850,237,-925,-95,39,744,731,-148,-516,642,-325,124,726,797,-371,482,1146,357,919,-1009,-546,-472,398,-1319,-1054,-1741,-860,-1132,-870,55,248,1369,1506,797,390,237,477,-196,1151,911,834,-161,-707,1394,1123,86,-793,-303,-981,1147,798,-1040,-85,879,777,-64,412,-472,-876,973,-79,338,1130,921,-924,1055,-1368,490,-1138,831,-1030,96,-1323,-148,308,-61,-496,-283,-519,200,-410,1347,-531,-428,422,-268,876,338,369,-804,-480,-439,192,-360,1139,24,672,881,-331,-1667,-1434,61,6,71,-931,891,1736,1756,618,-850,-1037,-2413,-2310,-2641,-2513,-1694,-864,-1035,-573,-326,268,-277,54,439,-1050,387,-1020,-800,-1431,-1299,-825,-455,-277,460,1089,498,-233,332,-42,-370,1369,-718,468,1320,908,300,-1350,28,-80,542,-111,1061,817,-450,228,1100,-300,232,-469,-313,-1241,-76,-1161,379,-583,-85,-524,-662,-619,258,-841,1036,447,-141,1265,-1049,-195,-2300,-1377,-560,489,-643,521,-1549,970,-184};
const static uint32_t LSTM_01_weights_cell_dims[4] = {1,1,48,88};
const static ConstTensor_t LSTM_01_weights_cell = {&LSTM_01_weights_cell_x[0],&LSTM_01_weights_cell_dims[0],0};

const static Weight_t LSTM_01_biases_cell_x[48] = {1511,1587,-836,32,1168,-336,798,-1902,2209,-2969,135,-185,1941,124,-113,-1282,2409,-904,165,1611,-1721,1900,1864,-8,1808,502,-1413,-693,1341,-38,-764,953,-551,-229,1453,-2591,-723,-1659,-114,323,870,-2221,-1011,-172,-192,468,-759,-1299};
const static uint32_t LSTM_01_biases_cell_dims[4] = {1,1,1,48};
const static ConstTensor_t LSTM_01_biases_cell = {&LSTM_01_biases_cell_x[0],&LSTM_01_biases_cell_dims[0],2};

const static Weight_t __attribute__((section(".weights"))) LSTM_01_weights_forget_gate_x[4224] = {-835,210,511,-108,-300,800,-81,-49,593,354,287,621,890,586,929,1787,-359,1315,-496,-752,-177,-1033,264,911,901,-358,270,403,365,-555,958,-504,325,-137,646,480,-451,-417,1035,321,91,1347,820,360,980,7,-1229,119,-35,-500,-860,1178,570,-35,-1065,1158,-327,1795,954,831,-622,-709,-125,-150,-586,1001,1571,-177,-805,-565,417,-437,-913,155,917,515,-176,337,-889,339,384,799,-998,400,49,-188,-932,-194,-685,-254,-212,-1,-31,-267,-243,554,263,-453,-987,398,-949,853,-278,119,289,696,724,-781,584,-656,-358,-112,-1450,-741,-695,-435,-1191,606,-1089,-659,-1046,407,38,-522,-1116,185,-431,-852,-471,550,-319,849,-983,-302,633,88,1,-474,-402,-934,45,1189,1025,-968,-1402,903,205,2321,83,-1691,-1001,-136,-1394,1182,-98,792,-441,1714,936,538,502,-620,-52,863,409,536,1231,-539,1138,-444,680,-343,835,622,-138,-603,-1211,-1660,-453,697,-55,-529,-127,563,684,0,899,-711,-1276,183,-292,-1052,-747,391,-775,737,693,-763,893,-953,-85,15,-1327,35,676,58,-817,529,-938,216,172,-857,690,409,79,-297,-456,-425,439,1017,119,-1056,-1127,402,-258,1301,1277,-266,-1737,105,765,1328,-54,-808,79,708,-6,-447,-1140,199,-279,-1200,-1784,-535,-460,803,-320,-888,-1183,616,129,164,930,1736,1681,1273,441,1528,36,-1087,219,-121,152,39,590,172,72,-958,-721,-918,-9,-1483,382,91,676,1189,609,-330,-609,-1679,664,-1569,-975,752,774,204,1206,597,686,-721,28,1352,-585,202,-911,-971,-1172,-282,672,34,356,931,-930,-304,25,456,-324,787,350,1317,-267,-191,-921,-737,-893,-303,812,-1638,328,-313,981,774,624,-231,-1148,-39,850,1816,146,-173,-404,350,-857,192,531,467,98,-888,154,-421,489,-509,15,1173,604,-882,579,1688,299,1468,353,1703,-614,-329,-264,-439,-537,-69,-669,128,787,1239,1675,650,1524,-464,-620,1153,-203,1543,613,162,-311,268,-561,-221,746,-785,618,-88,-832,-1115,-541,-397,108,-1099,336,395,574,-633,-217,237,-232,-361,-680,702,224,-1706,-208,819,856,-939,-1920,81,709,423,41,961,791,-1898,643,-191,-192,496,-379,267,-362,-132,-997,583,912,254,160,-46,-317,-546,-1267,326,-1232,-477,-71,1140,-1646,951,-1133,-673,-521,873,569,-464,-368,-356,-1140,313,-284,-89,1419,-476,838,243,922,-76,1236,-823,-483,1,657,-1337,-809,-755,1079,414,-518,-523,1456,1245,1232,940,689,37,417,352,748,113,1203,-731,-640,608,1016,561,-643,1506,-1478,1475,686,563,-643,387,-493,-541,-901,-814,-1304,-446,-1047,-670,645,-790,1130,-485,474,-87,220,-816,905,150,1019,620,15,-1082,-156,-1295,288,667,517,-650,-1202,1270,-806,-290,527,-25,-300,472,840,97,-783,630,-719,-934,-125,691,-791,693,3,488,-588,755,-64,-598,-1270,662,-1436,-860,281,-1563,-166,445,-277,350,695,-1562,-303,-748,-391,624,838,792,1019,-516,-861,-1073,-990,-920,487,575,-723,512,-157,-647,2108,209,-823,-526,958,47,185,-253,120,-321,501,24,172,-103,1148,-207,293,1983,721,67,276,856,541,-767,-1421,679,-347,838,683,601,-84,223,795,-562,-1068,261,-198,489,711,1127,382,205,440,642,-1491,-1018,-194,416,-159,-944,-15,963,-32,514,1026,423,-242,-24,1136,295,-382,-222,684,779,-1310,-574,-1371,-720,-649,-998,-779,-311,-939,-557,1018,-30,1172,737,826,459,775,372,777,-361,265,-465,884,587,286,-1191,275,1335,1815,733,-292,640,1055,-1262,-520,1597,-626,-718,-371,362,-620,2842,1213,509,-229,-140,-980,227,-1282,149,515,-492,-1862,-278,-128,-605,-591,-744,453,123,-1523,-508,1125,-322,-200,397,-140,943,165,1194,338,-18,-93,-476,1381,-580,-104,1692,345,-219,373,1000,-730,-66,-322,653,-865,-521,-1376,-2034,677,-198,-1198,182,-230,-555,-122,52,-694,-519,-321,628,-217,1021,1,-155,-253,1440,532,-2074,830,544,-530,-1122,-650,844,803,46,620,371,693,-721,149,-1167,1337,-776,-246,806,848,418,-274,53,-428,-70,688,1089,890,1183,402,-979,-1184,1363,-379,-846,-1438,-210,-1183,615,-665,138,-2329,376,-876,-433,-752,-577,-651,-154,-581,168,434,779,498,414,390,-1008,674,-372,638,692,301,-163,627,-675,-835,-189,679,-574,-875,-138,-725,-787,-610,-416,215,-525,-550,135,1519,178,-570,-348,-472,607,1276,638,678,-228,551,-343,-532,437,174,-234,1318,222,1148,-954,-383,-1517,-976,617,-20,-759,-151,522,899,-206,531,601,1917,-1420,1647,1192,22,-621,661,357,-726,-183,-1506,-2091,1131,-1876,1043,-1107,943,-771,-1159,-564,-486,565,853,69,-707,-374,-12,798,-898,-921,-462,555,552,979,17,447,290,-1019,455,662,972,-301,1117,413,845,62,-162,856,-587,289,-1709,-1495,730,95,177,-815,-528,601,-355,-230,440,433,-1397,-446,-224,-525,-206,1520,83,-1231,-919,348,-806,-1122,63,92,264,-707,-327,186,-973,-415,-538,-63,398,358,1741,-179,612,312,118,220,510,1488,1018,97,-491,79,-464,654,-281,272,1447,1987,31,-243,-299,746,-397,293,578,314,955,568,346,-288,47,-20,-392,636,-801,811,723,-98,356,-929,-645,-260,151,-15,488,-469,938,914,76,12,1038,-641,-219,635,-561,833,-239,1300,-200,721,813,-82,-741,389,-811,345,31,-883,34,1958,55,-871,998,-441,2718,-458,1052,681,28,1396,-341,537,-676,-957,1010,-719,244,878,-73,571,-834,216,1291,-360,35,-862,1474,188,107,993,1230,258,541,-82,1222,-999,870,959,97,-185,94,283,-839,820,-568,144,297,-1379,-313,58,-79,-808,-487,-1845,-1376,-1053,572,915,-30,-661,291,-389,1188,-291,-169,-24,-1546,141,-308,30,-983,-1356,-619,521,-653,-593,-1031,770,-699,-401,928,1335,537,-564,616,-446,538,295,-1364,-429,-912,746,-350,1266,-62,-582,936,-546,-673,-1623,-130,1492,1062,-725,443,1051,142,-191,409,798,-337,-268,229,-1434,-297,953,209,12,-847,586,-394,-223,-13,350,-363,3,389,-129,-1238,-64,-728,214,-757,-193,-1894,-383,570,546,348,452,999,5,-533,-225,-736,672,-883,-313,824,-606,-124,-771,-23,-698,581,-414,0,1051,205,-979,-63,773,-171,573,129,-292,-227,5,-325,462,156,902,212,-907,199,-26,-720,225,-1238,313,-1042,323,580,939,-265,-431,-2349,592,1243,890,388,334,423,-344,468,603,-782,368,56,-733,1019,663,-280,-1350,-833,-716,989,64,411,-142,-473,-129,142,-872,1019,-485,-1714,-1510,-706,17,267,395,1012,-108,-1196,-453,-1277,410,-870,-1538,567,694,493,-1452,-691,595,-548,1060,-618,-599,-283,-286,-496,-710,-881,-575,573,207,-714,-889,-996,-518,-1410,-212,-855,-210,-609,1272,130,765,280,1220,-632,-1188,195,673,19,1422,851,194,342,489,-309,-362,-423,-645,-1074,-224,1919,213,161,-68,673,-554,-1197,-1224,174,-218,681,-881,-202,823,1098,324,-693,445,-493,633,1314,523,605,1392,288,1258,137,-917,1868,1617,825,220,792,-796,1421,153,997,452,21,1033,1129,-332,104,-772,1231,1071,-316,660,1142,1174,712,1163,741,737,336,100,-625,-804,278,-727,-804,-32,35,1009,-337,834,700,-89,344,153,1270,-797,52,-734,-105,-3,399,-1456,1631,-1173,-78,-183,1157,-1586,-189,1153,1870,-24,854,-60,104,-666,2389,-1242,-17,-376,109,1414,-890,653,115,-803,-2273,-773,-542,623,720,-353,590,-886,577,-2061,-237,-701,-312,93,-116,888,1096,-173,-624,454,254,-1116,-26,-185,246,-55,751,-538,-944,-105,230,-1270,-661,819,-523,434,-692,654,-532,138,-758,572,750,277,-934,-579,-356,325,8,-618,915,-656,-594,-472,477,-1354,906,520,662,973,498,841,-877,-380,-181,-656,-729,1098,-496,-293,420,427,841,488,-72,734,-324,-985,1379,-58,-190,-299,391,365,-576,-1718,-672,681,-820,-978,207,-1258,-588,534,-849,1306,-1159,-1600,147,-1088,47,-219,-753,162,377,-319,711,-958,82,-136,-1035,-423,860,29,343,-439,825,-945,953,-600,27,950,-181,-109,640,939,-74,-435,954,1021,572,-410,-344,580,-150,-24,-535,-584,-884,-637,303,-59,-86,821,767,877,-131,572,-672,-98,-351,491,-292,-2436,-114,686,-497,1157,121,-226,-103,-622,0,446,1238,1248,-425,-444,981,136,-149,-658,-256,663,-620,604,1270,-514,-1517,-219,1153,-758,-1028,-262,-854,-786,-300,-801,146,-192,-235,-324,701,-266,1025,404,874,-117,181,903,-705,-1084,-38,-45,440,136,413,-707,950,-14,256,-40,23,-370,386,-1537,-1535,-56,-874,352,637,925,828,1515,789,233,1067,-245,1034,1699,59,290,110,1505,-418,284,-444,-387,542,200,-545,-389,280,241,599,-610,1402,-735,1747,-423,-176,-1380,202,-195,831,834,-22,929,1640,1220,-704,661,-1714,321,-234,1216,-1332,-289,-196,-1116,351,-950,-98,-863,875,-442,-315,377,1687,267,-1670,-494,-137,-1028,-539,-1165,1345,-217,-465,-1179,-289,161,-1091,204,1266,366,805,171,-61,1471,539,1654,1669,877,646,186,747,-221,65,-700,-779,-1427,-324,1059,868,-204,-410,-1507,-1607,-219,-220,-194,-838,-985,-572,908,-152,732,665,-413,-1433,408,-255,-1302,-934,-319,-703,-283,-1617,271,-325,244,394,-957,-37,-700,639,728,1073,1689,999,564,-638,60,-392,-1455,180,-536,-355,-888,-487,-272,1298,-39,-4,1495,-552,324,1535,-1185,-358,-920,269,-997,662,899,626,147,1263,-615,1271,967,-295,-142,-166,182,-773,-400,1081,1136,240,-1144,-1035,542,-180,61,-727,-1119,-105,-31,-415,1612,504,1270,321,-202,492,797,232,-968,1228,66,623,889,-634,-1038,-163,221,222,1231,1383,-1272,-1031,-640,-790,-128,730,-1040,377,738,860,1000,-932,110,-355,-346,-83,-44,185,-752,715,-328,314,863,466,1255,-677,-121,-675,151,-395,797,41,-438,468,837,-766,1070,-1455,635,1080,-749,795,-421,982,-715,-933,851,-472,-1546,-164,185,-366,-626,-1374,23,199,-205,69,1232,-637,173,800,858,-839,415,826,273,441,-194,-696,244,-677,330,-592,-236,-1119,-1184,-370,1128,-15,362,-1434,895,166,-557,-1175,-431,1147,-876,329,386,150,-517,585,-1083,387,-150,-272,-1278,260,-89,-194,-135,675,-1174,93,115,-586,-428,-1275,249,-727,-12,-1083,-466,955,1099,569,-107,-16,374,167,-63,-856,-130,43,-212,414,-100,1126,718,1361,19,519,556,1449,658,1194,1190,1455,-228,93,960,1379,147,-504,-434,934,-832,464,-229,-917,-465,-199,1024,-365,68,308,1109,-645,-849,686,404,-352,-193,-1392,-142,425,-1332,-626,-334,733,-394,44,-544,-67,210,582,-1367,-467,-102,882,-865,-1463,1055,516,593,-396,1567,714,1771,383,-727,-909,-1005,1124,-1661,-978,-448,334,-438,470,-242,714,-553,920,-482,-710,1519,-811,-1232,-881,-226,1119,1600,1801,1013,-828,963,436,-240,716,913,-1099,560,-552,782,-649,-459,-600,-608,1240,1175,161,920,371,772,694,387,-820,-291,375,-644,905,-756,-636,-738,347,-1205,-254,243,-1202,13,-143,1208,-70,-1148,72,1976,-52,738,-202,-1259,-343,-2070,955,818,-57,-1256,-562,-158,1291,124,-841,-170,546,156,1922,-130,-1204,-954,-1340,37,716,-648,-638,-1077,-198,-404,-564,407,-633,44,-156,-941,-2377,639,1632,-983,757,437,-810,-743,484,545,-859,721,-351,-640,586,488,-779,-222,-604,36,-81,-1318,-1272,-351,809,-988,182,-150,-152,-1112,-53,1473,470,800,-435,3,885,24,-98,-7,-1044,-794,-455,128,-1389,-210,-397,2052,-1052,824,-1017,-63,219,-1493,368,-1437,587,-1341,299,384,649,-512,-42,1833,-586,1081,545,-1513,-919,857,341,-81,830,421,480,1139,-1220,-627,-454,-926,-94,546,-314,-242,-2368,-1654,97,1221,888,-584,-1105,-981,-73,1889,427,-610,-395,333,-898,-1059,885,270,-1078,409,553,-590,-704,268,1070,-899,-368,359,424,370,-1088,-30,-110,-772,-317,154,756,-270,682,235,-267,862,799,-24,1427,1476,645,1607,383,542,-904,1003,135,-1056,453,-190,181,-811,-920,-505,1354,-1413,779,-1007,880,421,-803,662,224,1329,-815,1577,327,-620,726,325,-1270,209,1346,-520,-927,771,1095,656,-76,1180,384,-747,-208,799,-745,-623,-993,-24,-145,72,54,-126,-1006,391,-604,205,506,559,-219,-1875,11,214,-464,793,1204,290,306,647,151,55,347,-469,-1497,-1193,-392,450,1143,896,-862,514,-771,-284,-82,-950,-57,-461,-912,427,-1069,273,392,-792,-824,185,-512,-802,430,72,-523,-176,-393,-33,331,1740,-178,435,-1399,928,420,-76,1079,-159,-338,1635,-418,326,-672,-1596,786,152,540,279,397,-811,77,-356,-756,1202,1584,-681,1557,-414,1392,793,1316,400,517,-460,-490,-1754,1339,100,919,662,895,272,-54,1185,768,1300,610,559,907,489,-26,414,752,1018,1295,-641,285,-111,386,-283,927,-155,333,-47,125,-778,-846,569,-892,302,98,-835,723,699,553,-1059,608,2014,-873,-202,747,1065,-1010,-523,-581,-54,1499,-484,301,-305,-861,-133,429,-620,-692,1293,905,-2253,640,1593,782,194,1277,7,655,299,-130,-831,488,-1998,518,-438,-220,-334,-517,951,-345,797,-103,-488,-902,-625,-404,-522,66,-450,-297,-351,-470,32,470,-717,668,1488,1163,1344,765,341,-644,103,214,1200,-368,-559,144,-663,-108,-565,611,-561,-934,-917,120,137,680,-311,1253,-697,355,1510,254,-315,834,-261,265,-516,1906,925,323,1199,1155,-130,1309,-1140,970,267,1154,-1042,1000,-822,-102,505,1241,1493,327,389,208,-67,501,599,-424,635,462,610,-638,-1425,-242,-90,-278,-889,1104,-467,7,315,599,-1046,139,-829,622,-222,304,-249,-915,-10,491,-816,-39,669,-635,-549,721,242,354,449,281,-138,380,-226,-662,-189,-585,726,-100,-1114,-512,1010,575,-1094,-1160,140,706,-895,-598,697,205,589,-340,-177,-370,260,449,104,-149,759,21,772,332,-325,24,794,46,739,-702,-285,1265,-774,-1167,2342,28,-221,1128,247,-57,-226,-1804,-849,-528,-1145,1400,637,1144,-294,429,1009,-150,-821,486,-797,-84,594,889,974,-274,-98,1408,465,753,6,340,1175,724,262,-774,-204,1509,422,1080,49,-862,548,803,-633,-1033,-157,-821,-8,-728,-541,1084,143,878,334,436,-928,653,698,-378,-432,-1211,134,293,1151,-352,972,859,-965,-506,-783,-784,-1050,885,-753,288,708,1105,-149,1666,-992,-1330,377,-122,-1407,-313,215,899,-521,-231,-1710,124,-619,-888,365,-1052,-196,-1336,-121,-1069,-309,94,1155,-1197,1636,805,-910,428,74,1352,324,598,-925,220,111,-928,-31,980,-1011,835,548,-131,-780,177,-497,-171,-347,134,399,-1177,-84,715,-517,-682,-626,-995,124,751,-659,-220,-162,-1319,93,-132,-663,900,200,-657,146,-101,-686,433,522,515,-147,-442,-821,-732,-830,150,410,-334,-95,480,349,-363,-374,1272,12,826,449,2563,1004,348,362,-1085,961,-273,-1244,-834,-1623,-1908,884,-1632,521,-602,-745,311,1189,425,1468,169,-325,126,497,-504,259,114,412,-1,1514,-115,-583,-217,-550,554,1044,-583,-300,616,-1672,-1923,-1259,-1850,-1582,-2151,-1264,418,-972,-791,-170,-143,506,-401,996,656,710,-79,-77,635,-617,-124,540,-167,-1385,-963,360,258,785,724,-303,-416,265,-304,-689,1066,41,640,960,-1232,-320,257,-327,-46,-35,-266,-71,834,-621,1124,294,-863,-1550,-1564,-766,1401,-99,1898,148,390,847,-1546,970,55,754,-1151,-411,-310,-586,106,400,355,-363,283,-470,-171,218,-292,219,672,187,981,306,-255,366,-642,-263,-187,396,-315,-529,1712,1436,1588,362,239,-159,221,372,354,1471,1895,187,1273,876,1327,1247,-457,606,532,380,583,435,-409,1264,-719,1131,697,527,1127,861,-498,-422,997,1532,796,1678,326,-262,-226,-306,-974,-61,277,315,-1020,-716,159,964,-87,224,1000,-63,-1183,132,144,-155,801,480,-215,613,619,860,394,-961,-679,1108,-930,-1235,-307,-37,1603,-278,-1171,-1385,-19,540,-7,955,-179,-630,489,-362,1602,630,-685,1455,-527,-423,86,-1107,57,-326,246,-312,2105,1524,2616,-89,-106,-1185,-110,785,427,-591,-558,1889,1558,363,454,-339,1172,1984,1795,26,813,385,-566,-9,-942,317,-669,-224,-101,754,549,-115,-254,-385,-878,1056,427,-531,392,-1811,-821,-40,594,-1036,-516,82,-563,-1397,-374,2270,-845,-520,-831,245,1638,727,-795,324,-1059,-1480,-502,-1161,-1039,752,287,-274,74,-251,-1439,525,-538,-698,1100,-262,-222,-372,-270,-1157,-56,-515,-743,171,803,-419,-377,-1084,-1109,-878,-402,99,811,-755,319,800,-626,314,971,-284,-507,181,470,905,-507,464,-392,1148,214,14,661,643,-435,1286,-709,-177,-122,927,-474,242,-730,-1217,846,23,561,625,492,-1113,2480,-1124,386,-2,-55,93,-377,321,1740,-1455,-9,722,578,636,387,-1927,-186,-346,118,-39,84,750,-1590,345,259,-728,970,224,-400,-1714,767,1051,-286,-1056,-736,197,-98,765,105,674,981,966,71,177,-660,250,-454,77,-294,-1097,-1355,-118,-1326,-90,-1025,1037,66,-58,-458,436,96,234,957,-1031,-292,-729,-764,-529,-18,853,470,1000,591,-343,740,-405,-364,-771,538,-182,-1789,1047,-193,666,1099,433,1818,359,2595,913,-486,-675,384,-1442,-361,-1028,198,803,361,287,139,628,1426,551,-1229,218,563,214,-967,-672,-193,-95,-800,623,-188,540,648,-110,-115,-1019,174,501,-650,-476,-475,-441,722,238,178,-2049,-1656,592,-10,-1448,-350,-318,-802,-1052,-147,436,-292,-252,-1005,-503,-772,-971,-779,-1294,-1852,4,184,-286,-1217,11,-1276,-185,-585,1144,977,-875,442,252,-1355,810,635,653,541,1006,54,2438,-464,249,-708,445,-371,-506,432,-726,1651,434,-1347,159,189,1505,248,-498,-440,253,274,505,-14,379,-826,1302,-1421,-918,-389,-529,2340,129,1289,1278,-1031,-207,1021,7,427,288,780,1369,813,-503,-542,-236,-124,-303,-1026,933,758,-363,1379,699,963,1003,547,-766,-1510,457,-793,682,-357,-122,1080,936,-245,420,9,871,-616,568,637,-758,508,-1091,631,-1063,416,-283,771,-807,-393,-369,92,1127,-961,479,-352,435,-1197,1990,357,361,-523,-315,999,-781,-7,-1565,30,310,-316,-592,-1138,58,-43,586,177,442,-900,847,-354,-1533,-519,-1007,-595,-1239,-1312,-136,556,552,567,-1696,-1054,-212,-47,-636,-1163,618,-1563,1266,-1393,284,-380,-1023,-26,219,-885,1224,-412,-712,149,-598,304,-644,-2131,-1191,-1783,-84,-103,-294,536,-1087,10,-954,-1110,-1857,-130,-217,-956,-891,-52,-734,377,434,-917,458,368,730,255,-104,-95,65,-235,-1321,-455,-1182,186,1145,-955,-789,1711,25,839,658,101,324,350,698,-2220,1469,-427,395,203,-192,-666,-105,916,-381,543,-263,-102,1441,-98,394,-1191,1570,1259,541,746,896,372,703,1623,-477,1841,-553,839,-1316,-389,803,-1174,368,-1560,-1501,-276,-675,-1200,-16,515,-470,-673,-1075,-552,952,695,1215,1105,625,777,968,-232,-717,-456,-441,-413,-1033,-1365,-583,-403,-822,-592,-1623,53,-70,562,-429,-476,-518,464,-78,-807,20,122,108,84,1145,967,588,598,172,-58,1407,428,-479,-751,625,-543,279,210,371,-523,294,-12,-852,-638,-362,567,86,-767,565,1181,207,-1178,100,660,1144,-1875,956,-78,-792,390,-1037,-764,273,592,1002,393,-387,290,342,2753,460,334,-112,-765,-1463,-53,-324,-46,-1107,-1464,-1078,32,-252,-1709,673,295,-576,-859,759,-663,35,-341,941,573,322,-888,-278,1320,28,852,899,1188,-657,-35,-136,1074,-390,-895,-638,83,-1430,1065,-436,1014,162,1264,-1937,952,-321,-312,513,-1086,-735,-923,510,8,949,-79,86,306,-582,494,-146,491,354,588,-667,248,-992,-82,-413,-210,-905,-1788,-773,-683,696,-574,-281,1495,373,667,46,1247,393,-486,1255,17,-814,514,683,-533,-566,-132,-423,-620,1199,-781,440,656,807,95,-1016,-271,-227,-489,484,1010,796,910,415,261,199,1044,483,336,-263,-306,-84,-1226,374,-1914,-375,-410,-295,223,-1247,-1431,-1126,-600,1165,1225,825,-157,1829,462,1158,189,1266,501,1790,-531,1360,28,-287,521,-356,-819,74,-461,-1138,-133,-58,1429,-772,1711,-707,290,370,-585,-346,532,984,-259,1030,462,-219,-14,586,383,-911,237,1242,1094,591,1836,1596,-167,-84,-369,47,296,-899,232,-649,-131,-730,889,-769,-290,-35,33,792,659,1492,1594,784,304,948,1079,766,-647,627,1635,636,990,-23,1317,-596,1409,98,1369,395,1091,1079,-28,-1013,-169,204,-2682,52,1400,-541,-198,-95,552,733,1510,730,576,299,-765,683,864,39,853,-1421,49,-346,303,399,-832,1055,195,-453,232,-387,-12,-798,741,342,-263,654,-164,498,1513,86,-1576,1210,388,-2044,157,1026,1022,1072,139,1019,1012,1211,-685,-550,-485,60,-138,-370,193,-29,244,-621,-785,1091,-261,1136,-378,-167,870,338,-380,986,432,198,293,-231,864,-22,1218,831,-6,-618,12,322,211,231,-36,-1496,-687,61,-65,1667,-461,-347,-96,83,-1892,-1678,1248,728,-162,583,5,406,999,-1529,0,-742,-299,-288,-290,939,1282,-554,337,284,238,-898,385,643,148,-1036,-1205,744,-1021,179,1,62,-352,-16,321,-824,-530,-187,412,532,-386,813,-224,-379,131,603,813,-648,618,-664,41,-833,357,-1194,518,151,-232,393,819,848,1234,478,345,-321,-121,-975,413,-426,423,353,-560,-296,-1694,-845,7,356,-1022,-1116,-532,-481,-682,631,1044,-1075,1032,587,593,415,-55,-370,-268,603,-392,710,-231,-526,170,750,195,-116,351,681,194,-881,2035,-1894,-297,-389,652,16,851,438,181,515,394,226,-571,688,-2185,413,724,819,227,629,848,-494,-202,1531,219,1412,251,-685,-716,1194,933,1036,-852,-1098,231,346,-2082,275,-1609,52,776,-25,652,-243,-233,-1239,-577,439,-1024,-1016,286,420,479,-1091,-1133,-992,-425,52,-192,-1019,-791,-449,1466,642,-1182,137,-233,421,582,-322,1461,-354,1052,545,936,-430,-123,-1236,495,-417,-515,-713,-690,373,617,176,18,-428,467,-279,51,582,-13,-679,140,103,377,-437,-778,590,1457,-67,1595,570,-774,987,-47,1290,1689,-491,892,-1244,973,1605,-191,727,270,371,-621,-307,-1716,980,164,161,2522,371,1164,-980,-714,320,82,512,770,390,21,405,672,-164,634,362,1403,49,-358,-387,63,-388,-810,722,-950,-412,-759,-339,-654,-1022,585,718,-1557,525,240,468,889,-448,-141,993,-1038,-262,1072,490,1434,1430,-383,595,256,-379,-127,411,652,297,-1368,484,-484,-1940,687,-126,-536,-1630,1326,623,302,-1156,-582,620,-626,-830,-207,598,-267,654};
const static uint32_t LSTM_01_weights_forget_gate_dims[4] = {1,1,48,88};
const static ConstTensor_t LSTM_01_weights_forget_gate = {&LSTM_01_weights_forget_gate_x[0],&LSTM_01_weights_forget_gate_dims[0],0};

const static Weight_t LSTM_01_biases_forget_gate_x[48] = {2084,2114,1819,2109,2020,2092,2131,2109,2325,2344,1961,2082,2054,1986,1896,2207,2125,2141,2228,2265,1927,2078,2151,2268,2247,2122,1886,2219,2177,1938,2052,1919,2012,2183,2279,2205,2131,1960,2249,1880,1918,2162,1864,2212,2033,1897,2117,2173};
const static uint32_t LSTM_01_biases_forget_gate_dims[4] = {1,1,1,48};
const static ConstTensor_t LSTM_01_biases_forget_gate = {&LSTM_01_biases_forget_gate_x[0],&LSTM_01_biases_forget_gate_dims[0],-1};

const static Weight_t __attribute__((section(".weights"))) LSTM_01_weights_output_gate_x[4224] = {341,349,171,507,330,-726,706,105,-231,-31,-206,92,-27,-291,213,863,828,598,355,-208,558,-415,-241,-315,-593,26,53,315,290,153,-594,-329,-679,-249,132,-680,-648,-212,-838,-97,-283,149,182,-77,381,1057,35,380,794,47,-641,-381,310,-55,448,690,-391,-28,-186,-638,950,211,-187,123,191,-310,307,-275,-78,-525,331,-346,-107,157,85,312,369,241,-381,265,301,86,-299,-112,-468,-622,-418,49,330,-189,-67,524,-917,-133,-14,394,-392,160,-33,232,1045,411,873,370,690,128,-304,-13,-409,-137,591,434,-113,-190,561,202,568,599,428,87,636,98,-216,143,374,583,-273,34,401,-177,-164,376,-849,980,53,-642,552,-457,-1077,-33,277,-149,873,-921,7,356,534,2248,781,-497,472,312,808,984,72,-259,-25,-50,-284,-255,-778,-514,546,-140,437,-214,-195,346,411,-771,220,1633,564,-695,154,-649,-143,-462,415,313,665,234,-143,67,-90,868,354,-86,-49,-102,-558,81,291,737,-156,95,326,51,866,238,599,502,530,868,1183,301,802,176,123,556,-70,154,1119,916,485,744,25,271,-16,-440,-479,-221,-201,-366,-144,-35,166,-640,99,336,503,429,226,-88,228,-339,14,487,-80,-608,339,-344,393,-22,108,-343,-334,-253,16,-488,316,-502,48,-525,-267,274,162,-226,-392,-137,-607,126,350,-367,-68,738,-128,464,567,384,-142,133,365,276,818,175,-252,-701,-441,-598,-37,21,-85,-176,89,73,422,127,326,286,-47,423,-67,-287,-204,-143,-99,154,135,-287,122,-12,-17,163,390,-38,-48,-321,-104,166,482,256,545,-122,511,-530,443,-225,89,-432,155,231,-501,907,215,602,588,370,403,351,-450,-317,302,16,-448,-131,-771,31,211,-497,-149,123,-179,-752,258,-609,-166,629,-474,-1050,887,-88,-90,-285,408,3,-466,342,80,-587,338,305,205,812,387,911,171,992,728,558,117,-179,-349,-191,-247,-313,-223,-610,167,-116,4,-486,-114,502,128,491,-50,478,-179,-120,919,494,173,-253,571,-42,281,-687,1001,-208,-456,-120,87,237,-104,-347,201,-270,439,1,-155,-447,-10,-83,-49,861,-444,-548,-291,-589,-223,610,342,214,-10,423,339,-439,456,-215,-480,395,787,-269,432,640,-508,136,-653,239,164,-5,-370,-415,-224,8,628,52,282,15,198,-151,594,409,456,116,124,-822,-442,-665,-57,604,-189,129,-425,-14,-113,295,69,69,418,-182,195,-58,597,402,-56,467,22,-5,-162,-414,-354,94,387,105,-487,81,430,-585,-309,201,-276,282,318,-227,464,-307,-249,-376,-246,134,402,-250,45,170,905,-493,-408,-370,-737,-184,288,-209,-347,-25,-633,-125,-934,-602,132,73,164,-319,-243,-219,380,386,-45,203,358,-123,383,263,519,-98,-1046,-816,-825,-293,-541,115,-215,137,-658,-23,561,285,-25,94,-55,-752,-313,-7,-486,-318,-430,242,600,938,74,211,1,855,785,885,97,160,-524,-799,263,580,678,-148,651,-400,823,-61,563,1198,289,-50,283,-313,408,-464,53,473,-76,389,551,362,831,363,392,-662,760,406,-227,930,-203,-296,300,404,294,-644,285,-356,569,-574,590,420,-960,604,-847,-808,405,318,487,-170,-269,-386,-454,176,-16,-146,-1067,-384,-20,-146,164,-392,-33,-730,-761,-512,-254,39,-61,147,233,477,761,165,522,439,42,-281,-347,161,-162,-778,-350,-595,-427,-84,-16,78,-568,-356,424,-377,542,-617,116,277,660,128,224,28,198,-126,-97,483,-475,829,421,-294,-458,-562,535,-397,-280,267,-153,-192,-437,-626,-50,-132,319,-200,-580,628,-194,-146,259,-590,-622,-419,487,596,422,-396,-522,-513,-546,-368,-335,-259,159,-94,-455,-375,193,139,-395,322,-10,410,2,-364,-381,-711,-662,-555,-811,-156,132,-336,-173,-98,-85,-426,156,-440,-103,158,-445,-566,35,-901,-469,-850,358,421,-627,-216,456,201,83,-716,930,-94,143,-494,-429,212,-659,-285,334,498,-278,696,800,-233,113,163,598,117,755,-533,22,-464,140,547,364,14,209,-773,60,-113,-30,-50,-24,-494,-376,206,490,-323,812,-230,-852,114,286,-1176,-858,-72,-139,-931,306,-277,416,-175,66,464,275,336,284,-366,105,-202,-326,-26,-144,112,224,81,-754,-243,-116,-495,-238,-715,-64,87,-600,-529,181,133,-470,-915,551,-133,-417,194,371,142,-166,805,-472,77,-297,335,312,-582,-107,149,-99,-680,38,-218,-10,364,-422,-556,-326,-42,-465,554,-670,-387,-71,-98,-202,254,-40,-188,-104,-375,17,-409,-684,-167,147,-47,-696,-18,-684,309,-38,-189,138,455,186,682,124,676,467,-127,294,169,518,564,144,529,653,262,669,173,286,53,961,319,287,-151,-303,-190,-2,-259,-415,549,232,-319,28,-543,-515,-357,-37,-476,149,817,-129,-551,508,94,-61,-20,-494,-126,592,407,-655,-687,140,103,-547,101,98,145,852,85,-59,-682,-732,573,16,602,42,-439,134,-590,-142,181,-420,344,230,168,-524,137,416,-367,-197,-116,-46,75,314,373,-32,507,272,-24,100,417,361,216,168,667,148,-112,-229,-76,-492,507,141,147,39,-26,547,686,729,162,-80,-465,473,512,738,557,192,592,444,454,463,-55,-322,-95,-453,-733,312,529,-305,65,0,252,549,-24,339,-44,-122,-108,322,70,-142,-504,560,-267,117,-308,266,586,-422,851,402,455,563,-349,849,-126,-136,26,-67,225,-217,223,-421,-793,-206,972,412,-518,-271,59,801,-575,72,-263,-68,-783,-641,-513,-359,-137,-193,-665,259,384,-332,623,383,730,63,730,165,987,-133,558,26,-457,-6,355,153,-341,127,708,645,592,-203,-140,739,526,512,437,744,298,-27,440,-846,390,-295,-210,-471,127,5,-165,367,8,-734,421,-95,-727,-312,333,-666,172,673,-36,-279,-451,-70,63,-269,-4,259,-320,-96,120,-198,453,-442,69,-539,-416,-77,-100,-459,86,345,-277,322,-290,-2,-703,-209,-832,165,-282,259,117,911,962,744,31,658,532,-154,-725,-646,-207,-458,7,-146,-440,-514,-71,197,-190,550,-28,433,-361,465,-29,-88,373,251,615,-150,-423,209,521,-139,-120,-360,-92,54,-571,-368,171,491,-348,-312,-12,-808,-900,22,-424,-331,265,-215,494,-593,28,186,-745,796,337,503,-428,333,-324,1115,524,121,-481,-58,-504,-196,605,213,-80,-302,976,175,318,-649,87,102,-97,408,-217,174,25,-185,-346,-1329,-429,135,-97,-461,116,94,595,-565,-137,106,423,302,495,100,133,0,333,135,221,-430,289,-137,-8,-330,212,166,-443,265,147,709,322,668,447,899,452,981,1199,511,-295,625,373,472,35,143,-380,-440,423,1128,13,352,36,57,-124,333,-433,-205,100,-107,-181,-222,-30,416,189,-567,-978,98,383,318,600,-1029,251,-42,-10,-383,-528,-14,-261,-158,-305,1258,221,719,224,425,944,-624,53,-300,-403,-458,-275,446,488,-44,204,-213,29,205,433,623,-3,-310,-534,-387,-914,-489,-366,-288,-620,-176,-429,-346,-160,-405,-230,189,-248,-343,-417,-29,-222,-216,-352,-643,-1027,512,269,-161,-336,-154,97,12,-678,-279,328,145,-2,-123,-844,563,-93,-260,44,-330,284,14,582,-338,199,-299,-648,59,-20,-608,-233,-243,743,-92,-111,12,140,-361,748,388,-366,498,577,108,517,558,269,141,439,164,333,-165,490,-86,-229,263,524,658,-401,-434,547,-275,-387,36,122,-94,-233,156,84,-161,-217,211,-18,86,156,-424,268,183,242,235,-287,-114,-78,-241,301,30,-645,-219,-869,-259,-180,91,-11,-504,-36,-84,283,-166,-116,-162,-355,-61,6,-126,-26,-352,622,-201,210,-448,-257,-370,529,85,276,325,-500,68,-664,-226,338,-326,126,408,-171,102,-742,-435,-696,-418,-497,-1054,14,584,105,-373,128,283,507,120,125,-162,-395,40,-130,705,503,363,-210,437,195,752,1131,-38,-199,759,185,-142,954,981,34,38,53,89,666,-27,478,587,648,867,473,-66,868,-168,24,440,397,272,351,-954,132,-538,80,-675,-5,175,-146,-75,-548,-96,-143,-199,-447,592,-75,1584,143,5,-60,79,270,337,393,121,-791,231,-184,138,135,-464,483,363,-195,-616,-42,-1098,354,251,251,-588,1056,-365,-563,-17,-841,-766,140,158,-512,-236,527,97,-743,-14,46,-264,-59,-74,111,524,-338,123,308,-87,-655,-749,-352,-142,288,-391,-35,215,-32,-69,-144,308,359,174,-29,-238,92,-127,-252,279,-306,-165,831,-139,387,-21,-425,-326,-433,875,-428,452,-222,2,0,-83,-704,289,328,-347,995,172,279,-461,-491,-619,-362,-83,249,408,126,-482,144,141,251,201,-38,-144,411,-41,-457,-158,-326,-293,135,150,-491,-921,-117,-646,-1413,-739,-1462,-432,-55,-1026,-1226,-295,-500,-1330,-256,905,312,114,342,-281,-518,-94,143,75,143,351,215,-582,-549,373,-359,-511,20,413,30,-64,-204,-667,-685,-656,48,-496,-216,-660,157,229,62,257,41,672,32,-159,372,904,-391,-472,340,479,10,509,286,108,828,864,-709,-221,-305,4,-208,-693,813,148,-41,-499,214,-76,-312,469,-229,-592,-392,-165,-53,674,221,519,306,-572,1,332,-133,-741,226,-172,448,927,551,634,606,320,-149,230,221,-165,-328,335,-50,449,605,87,602,384,-452,339,-325,-208,-329,313,-218,411,368,174,623,-263,-112,53,510,-354,-70,-793,-884,241,204,-7,531,100,13,1036,-416,-7,305,-755,-213,-841,-433,-1011,-95,-134,-703,-144,61,216,46,-299,-376,10,118,1076,408,-762,92,-584,-612,69,88,307,118,-209,446,-398,-273,-232,350,-191,116,-2,-230,679,-54,54,26,-169,-22,532,343,354,-40,200,-525,325,-704,-91,133,-110,-547,282,-66,-492,-307,437,458,833,260,8,57,376,198,372,-74,659,115,179,-96,-433,-250,-118,-335,466,-321,-772,732,-195,94,115,487,-152,-726,-155,165,288,464,-212,181,-162,88,-124,-467,-142,515,50,433,246,263,455,565,-646,-161,-605,206,-511,-173,-104,88,532,-21,-268,-269,192,687,-198,-142,-501,-197,368,-506,89,-698,-193,428,269,59,172,193,-292,475,148,-259,-914,-1001,-754,-602,195,-202,-515,-735,227,-80,-237,-866,78,-764,-866,-517,-884,-6,34,-563,-447,136,266,-92,422,-125,89,243,600,-144,-443,-542,663,-315,377,-86,-551,-284,68,369,-109,238,-481,-271,970,-429,12,-42,346,-229,699,-7,168,641,70,-418,652,1128,-525,0,348,80,160,135,-761,-110,322,143,-233,-858,-259,-152,-109,-316,-385,-97,-3,-90,-370,-309,-75,509,-184,-232,-893,-511,-111,-183,-466,-82,359,46,-166,558,216,-43,216,-347,-416,-381,-672,-979,-248,-160,5,-670,-398,-830,-184,118,367,-10,-225,230,119,-495,-590,-732,103,216,-116,78,56,-874,303,-16,499,1083,-202,361,-495,194,-340,-155,246,143,-43,689,-81,512,-26,-569,524,148,-264,-366,478,-359,42,-517,584,559,-481,-53,257,-6,57,203,104,-95,358,325,-358,-53,-304,-27,63,-393,-399,-503,-485,-261,-390,50,-331,-700,-297,-114,124,35,-503,-307,-245,-459,-594,-633,-559,237,164,70,214,-283,-119,483,93,-232,-215,-54,-396,-184,-582,-478,262,-193,-947,-888,-522,337,-354,-910,-91,336,72,-321,-208,258,426,-149,-511,-22,-833,-365,98,-4,-674,-117,242,-521,-274,396,162,-101,750,-5,423,-215,69,-480,-300,-830,282,-110,-703,522,-524,209,-471,-216,-37,227,-107,-139,-407,284,118,-562,-64,-190,-592,-522,-27,289,271,94,134,211,749,540,298,-37,4,-333,427,55,165,293,-212,-482,-418,70,533,119,277,-322,612,561,367,330,179,-40,646,364,-103,809,-87,202,680,940,-150,438,460,-155,278,-413,109,372,-80,-65,-622,-195,-1154,90,-167,263,-338,-280,-825,-254,142,351,575,353,-213,-7,378,286,199,20,-102,-670,-34,-79,-548,-303,664,480,445,45,-26,-122,-279,87,527,536,423,850,-86,679,116,34,457,1035,901,837,744,318,-380,-281,-509,365,147,270,442,711,299,810,1094,789,967,893,561,307,229,834,-37,627,-210,460,-312,-393,411,248,280,53,27,-1352,299,884,755,-342,73,-378,-147,-221,260,-328,-35,-356,712,16,219,75,202,556,-145,235,1020,277,-254,-540,804,-701,-279,43,-48,-367,150,-617,82,-335,-755,501,-459,-110,-251,-265,498,-648,-235,-299,432,325,-613,-20,-232,-378,-542,-649,-339,-377,133,-315,-221,-19,-434,198,85,-263,298,428,-477,212,-264,-353,-578,-254,-654,23,-160,-636,-745,-53,-634,-385,-207,675,-220,128,371,248,-163,248,-29,115,-789,116,490,-554,452,-453,132,-264,-172,-3,-591,-267,1049,-444,158,-628,59,-64,387,54,373,50,-307,158,-607,260,-290,574,-548,17,-216,446,662,69,-20,541,1145,-424,741,517,263,-248,-326,52,698,-759,-462,-99,-1074,-1043,-233,6,-409,70,33,-837,-615,-649,-212,669,185,-220,-346,255,275,-76,-320,-249,-707,-505,-677,-306,103,72,611,247,758,93,465,22,273,163,651,496,-438,-751,1064,214,-385,60,404,83,-8,-280,-733,292,546,-87,303,713,491,-157,491,-284,157,44,-701,-314,-230,611,-387,110,261,62,237,483,215,-564,-270,315,-2,-57,158,-734,-218,-544,-60,252,274,315,292,224,-291,-307,1,-189,546,-387,-676,341,297,-322,245,-269,-100,251,-69,311,-249,300,-117,-259,101,-234,-38,561,715,618,89,-351,388,480,751,667,79,-275,515,424,617,548,-105,416,-89,-695,542,628,-207,681,-404,-199,-162,19,-301,-488,174,-926,-439,10,-274,143,1136,-436,826,-44,831,-237,53,632,332,113,672,192,-220,125,340,-311,357,-526,-96,483,-48,79,-158,-386,-65,305,931,-261,-658,179,100,457,45,-245,463,226,401,-309,12,-669,-71,200,373,113,-912,-390,327,-130,-577,352,-752,-27,-412,3,373,211,-455,-68,-584,-651,-464,254,397,206,-428,-730,-247,35,25,-295,-71,-442,-411,-289,92,604,156,-458,-229,-384,-190,106,-579,405,197,-568,-317,-34,38,-156,-44,191,-603,-318,-335,-116,-215,-378,406,356,391,-335,67,44,125,66,356,61,631,-660,172,-46,650,-412,-170,44,363,194,-86,-99,-114,49,511,439,420,1034,634,713,870,398,-276,341,448,586,485,195,695,-81,571,61,-511,211,213,729,519,-79,725,500,-87,-184,-59,386,-186,625,-31,856,40,84,-10,-563,333,-89,-611,-453,574,-736,805,-101,557,-58,321,-300,335,-135,-309,-879,418,143,362,67,127,105,127,-389,-307,-368,-152,-144,27,-76,-171,-632,71,344,-131,-798,-11,61,-88,-112,-702,-321,-113,-405,583,18,679,401,-1039,-757,-438,-716,-584,-272,-542,-125,-735,-190,15,123,143,-253,34,303,-120,259,-163,447,-364,-793,-817,137,-489,-146,-372,-589,-159,-636,271,-463,423,-292,207,128,-501,785,-350,-6,-28,24,-514,-205,-26,704,339,180,-269,426,-262,-262,-240,163,-313,76,12,-861,-32,176,141,1164,57,-144,-142,122,164,296,-312,281,178,50,258,-288,775,-130,-367,-368,119,6,918,352,363,519,-288,307,-343,144,6,-85,-382,-315,-63,-386,-355,-42,-947,-652,-1049,-853,-12,167,-55,9,-622,-778,-251,-36,235,-602,170,157,354,-273,-967,-399,-22,97,-333,282,122,-204,-188,-934,22,-325,-257,430,-179,-4,283,362,201,422,139,3,-234,8,-907,262,-397,706,340,85,90,391,-205,168,23,70,287,-630,36,-135,97,263,360,-316,-333,-239,-883,-325,-543,243,608,-402,116,67,-392,223,107,59,-498,-105,-196,-600,-730,-221,-542,-625,695,-72,-435,103,-482,-301,-759,-680,-338,-1031,-885,-161,-1024,-657,-171,-131,550,591,829,182,-53,301,522,-86,-404,-560,-455,246,77,-446,-230,192,-149,208,133,-856,484,386,40,65,-206,-608,335,-7,509,108,-78,-58,-403,522,211,-50,-30,500,-486,-981,-242,-382,-272,-445,621,225,295,-47,-608,-638,149,-362,-178,204,642,155,252,-729,250,-99,623,597,65,-256,164,-542,520,-511,-52,106,-261,-214,-676,-681,-161,-149,235,594,-274,364,-143,-410,-27,-597,5,-462,-16,198,-383,160,-176,166,-862,-481,-834,37,-140,-354,-266,208,-766,-361,-409,-781,87,-169,190,-407,620,548,238,-348,-172,367,-132,-321,161,422,-355,-410,-593,246,386,502,572,-274,-111,360,-669,-248,332,-243,210,152,-666,287,-394,-215,6,-229,147,267,-151,395,175,158,171,-74,41,-546,598,-115,302,175,316,346,-264,367,129,456,1076,1077,853,223,489,-89,484,-375,-63,-38,-540,263,-236,570,130,553,404,-355,-6,-238,117,309,477,92,-302,-463,149,-22,470,-142,598,50,379,43,-141,357,-563,-48,-679,101,472,-637,657,-403,590,401,170,-507,844,392,319,163,190,737,128,-135,37,-99,377,-195,-53,678,352,-131,-413,-118,-158,477,380,-559,68,31,-441,-727,-86,307,-1030,752,-432,-275,157,577,-504,-790,-374,-412,-198,139,-370,518,846,515,784,29,591,286,366,-49,207,328,44,-303,-689,-353,-854,-192,-573,-173,-234,-140,66,455,243,527,274,-202,-298,-77,271,237,456,-272,-201,416,-47,-14,-835,-351,-75,519,-440,365,669,864,394,926,-160,-242,85,-158,426,-134,486,-145,84,-421,-262,-413,659,-207,-251,-210,-245,-97,167,-116,-128,-147,320,6,-20,-372,644,210,466,-77,778,-478,-9,-283,-626,-191,83,82,-198,418,375,336,-48,-83,-309,46,267,-400,285,-199,-407,331,-500,216,157,-136,277,-266,-498,-435,-262,-170,-214,-433,-258,-82,-69,-288,464,295,255,104,57,-455,-43,92,-964,84,419,321,-619,-196,-467,-667,4,-692,106,-143,-596,-262,-294,694,48,770,287,-299,-57,726,752,-382,-103,-97,-240,-362,-437,-300,377,-645,-150,-62,219,3,-774,-763,-334,-524,14,705,1,-618,261,-268,-223,27,-171,-57,449,199,-108,-56,80,-229,-599,-88,-182,-48,-21,89,-176,415,-199,361,-161,362,875,250,271,200,164,92,430,160,-26,693,243,794,164,500,-285,-227,425,-23,-371,-642,-110,818,231,208,535,-1447,372,-94,-405,511,484,624,-953,98,1023,101,583,552,372,495,744,597,-84,589,386,-31,332,-530,-795,18,-636,-482,386,-777,495,103,-47,29,362,-436,-125,241,-179,37,-112,406,-8,132,-227,-405,322,-138,9,379,394,-111,120,395,88,25,113,437,-60,286,-341,534,-76,164,-35,436,394,-336,-188,-85,-559,157,-114,36,446,-527,-175,-34,-324,454,-55,476,442,-92,8,692,-303,-80,45,-249,-574,-148,719,-348,-766,-10,-566,209,-101,583,-787,-198,1281,-231,-70,-63,-177,-881,-184,186,279,-31,-339,134,-268,282,-602,229,-282,-77,-937,-517,-751,12,304,-243,-221,744,303,-551,1144,23,0,187,124,-262,-1078,-91,-869,-1201,-124,-702,114,-414,-933,7,-186,-567,111,93,-300,333,601,-428,185,-651,165,-455,388,-96,95,-601,23,-538,-35,-26,-225,265,-199,443,-10,253,169,427,139,-435,190,-484,-209,-134,-166,225,73,-561,-96,-228,107,1293,-270,-937,-257,349,427,-351,86,95,-487,585,298,-525,149,352,-542,-166,-55,314,-44,-616,-438,-150,664,200,-92,208,88,-710,-193,-255,517,742,1020,1366,809,452,702,1192,567,740,66,-486,-739,-407,-791,59,-320,200,-141,710,212,-221,-293,178,335,183,307,247,-122,212,277,-6,-370,-197,298,-80,-86,24,361,-6,549,-703,-395,-137,193,-315,257,-5,711,-303,74,487,875,266,384,-28,218,-139,-281,80,387,-216,56,-140,135,910,817,-423,341,991,-626,135,-88,-791,37,-671,309,-871,-302,-556,563,429,211,238,424,-558,347,-438,444,-582,-154,-281,-668,-1,-675,-25,-559,-875,52,-103,468,-1,293,586,178,123,-337,-213,49,-933,-98,-546,-230,-743,-736,-940,-762,-18,-995,-490,-682,-534,246,125,304,-685,-301,-278,-238,408,131,-538,-187,415,352,74,-205,11,166,-54,455,-299,-119,-107,249,385,180,479,35,176,225,-673,46,-89,317,-272,8,1174,-66,28,481,75,335,271,261,-673,-134,180,133,-231,605,372,261,156,-210,557,290,102,474,-264,-234,244,-90,-108,88,108,-109,-40,223,-579,-200,-439,-18,-198,-402,-201,101,279,-11,25,163,784,-79,496,-250,-216,113,632,-4,-197,-323,519,359,195,-63,363,688,-412,161,417,37,-255,-237,-164,230,208,-91,382,-358,550,-180,725,-243,-416,-374,125,-807,352,158,145,-89,-186,53,392,262,164,702,393,604,-434,823,231,-473,-14,-385,197,-345,-558,805,-478,-296,-95,-142,-388,-31,-134,155,367,66,-779,181,-146,265,-908,-589,287,-405,-662,-405,323,-479,282,462,-158,319,323,199,-195,152,-239,-70,-299,342,-457,-80,-69,-709,-475,-548,-589,-418,90,-496,-379,247,677,408,-64,-591,71,37,-122,-622,134,-580,24,77,-369,74,44,423,695,-450,290,307,-902,-6,251,595,59,495,-522,139,-323,334,-91,-49,281,483,-96,157,309,-72,-820,-193,369,349,-602,-194,-115,-273,-132,218,952,710,609,679,931,54,259,-31,777,576,-440,-315,-508,-920,-492,-350,476,369,491,196,616,-80,147,-303,0,364,-586,101,-335,-479,320,-586,-331,36,241,-19,-364,-763,71,-159,-100,-1131,214,-379,1259,441,354,433,121,111,120,-25,-933,393,-404,453,559,168,-91,697,-285,119,-195,-167,582,372,-148,-955,17,423,-308,-281,-361,86,-289,352,922,-229,-579,-105,-562,-549,589,1130,-783,-28,-235,-493,-560,-628,-420,-237,-13,-341,-686,-231,-696,-341,-80,413,80,151,-125,-584,133,-230,-405,-201,-611,-733,98,188,9,-28,-81,-533,-508,539,655,-402,-530,-42,-67,-138,196,-222,-21,-640,-82,92,-338,465,55,-68,369,-490,27,-137,534,241,-3,46,-495,372,-652,-523,638,56,-46,192,-101,129,-448,-183,70,43,521,-51,258,-110,16,438,-172,189,268,-506,-975,107,-125,-425,327,257,108,667,-93};
const static uint32_t LSTM_01_weights_output_gate_dims[4] = {1,1,48,88};
const static ConstTensor_t LSTM_01_weights_output_gate = {&LSTM_01_weights_output_gate_x[0],&LSTM_01_weights_output_gate_dims[0],-1};

const static Weight_t LSTM_01_biases_output_gate_x[48] = {101,2376,436,1086,156,0,978,-88,937,-1196,-132,921,650,-102,-234,-116,346,990,111,763,-94,707,-576,224,-176,-160,1295,566,49,297,-513,612,-739,-566,-196,-462,872,99,1094,1412,232,123,1376,124,-312,-709,731,255};
const static uint32_t LSTM_01_biases_output_gate_dims[4] = {1,1,1,48};
const static ConstTensor_t LSTM_01_biases_output_gate = {&LSTM_01_biases_output_gate_x[0],&LSTM_01_biases_output_gate_dims[0],1};

const static LstmLayer_t lstm_01 = {&LSTM_01_weights_input_gate,&LSTM_01_biases_input_gate,&LSTM_01_weights_cell,&LSTM_01_biases_cell,&LSTM_01_weights_forget_gate,&LSTM_01_biases_forget_gate,&LSTM_01_weights_output_gate,&LSTM_01_biases_output_gate,LSTM_01_output_dims,LSTM_01_input_dims,TOFIX(0.000000),tinytensor_tanh};


const static uint32_t LSTM_02_input_dims[4] = {1,1,1,48};
const static uint32_t LSTM_02_output_dims[4] = {1,1,1,48};
