#include "tinytensor_lstm_layer.h"
#include "tinytensor_conv_layer.h"
#include "tinytensor_fullyconnected_layer.h"
#include "tinytensor_math.h"
#include "tinytensor_net.h"
const static uint32_t LSTM_01_input_dims[4] = {1,1,1,40};
const static uint32_t LSTM_01_output_dims[4] = {1,1,1,48};
const static Weight_t __attribute__((section(".weights"))) LSTM_01_weights_input_gate_x[4224] = {942,1109,-293,-659,987,-595,118,315,23,959,785,-208,-694,508,-120,695,336,725,-322,357,1632,-406,-3,808,1323,1374,1068,721,420,11,800,593,1497,-266,555,440,-458,-108,925,832,995,-786,3,386,-756,-282,-547,2135,-390,-714,41,-1747,29,-118,-1146,323,312,-212,98,-137,1043,-270,-971,-756,-604,1218,1680,1086,556,-1071,1603,161,1031,129,-1977,294,-97,1013,735,-302,1466,105,-275,-203,-393,684,575,-163,-570,109,218,642,-541,-277,-495,517,-1181,-251,-1919,-707,-309,226,-199,358,454,-538,-882,-946,673,-442,-64,-87,-36,-844,205,856,255,-100,-78,1102,756,-323,1520,-354,1150,923,-870,-430,-266,-509,-529,690,-625,-544,1298,390,-562,604,1122,-1131,1746,-398,-1179,-100,478,263,-318,404,1557,-52,1097,-146,-911,703,1433,87,780,1034,127,824,1051,1281,-111,-1226,368,-535,-824,293,639,512,-1703,491,-437,858,-479,857,-1705,-591,1118,890,743,1409,2335,1601,1650,9,188,1112,1110,1039,501,316,1326,1876,1505,1428,1934,-459,522,1665,223,996,-87,813,1303,-155,-72,944,-121,-247,610,-21,713,1432,661,1569,-813,496,1476,507,131,562,235,1333,-716,-345,297,-3265,56,-354,210,1267,-1277,-1117,758,605,218,-371,-685,321,-495,401,-198,-732,784,478,-803,-1303,196,-530,901,276,558,54,-755,-971,535,-1293,-19,-911,182,48,475,440,2821,766,1206,-479,329,-68,-90,314,1459,1084,135,-235,156,-104,-983,-1086,-782,-66,-776,252,874,139,-47,1397,51,1306,403,-250,1504,1206,993,-207,-780,285,301,111,300,959,-632,305,429,620,1124,625,392,-424,-1189,-224,651,-24,1017,-1014,641,291,-477,507,-117,1312,-469,-962,310,-92,141,-290,969,1018,-1441,-864,-1011,1208,1096,928,-472,-203,-1301,-1088,206,644,1858,-41,36,1719,-989,1292,259,625,615,1063,-257,-203,696,1611,-319,-403,213,908,142,1061,-336,816,137,142,1108,1486,503,-351,-354,408,808,1346,1407,-130,873,-412,-193,-281,-122,1193,1310,1064,797,1690,1648,503,1216,394,448,297,528,-1089,575,-487,443,-763,-1837,532,-254,-438,161,-1338,-436,192,-925,286,-1105,-695,-1054,-508,1531,-833,-1282,458,704,-459,-643,440,-1031,653,96,-304,-422,684,859,294,324,-330,333,703,713,281,-2438,975,-982,-708,-204,706,214,1322,140,492,-71,-496,979,-684,175,-852,160,961,753,-398,588,785,-477,1361,-701,361,478,-494,526,805,604,297,1053,734,588,1262,1503,-121,-255,-391,1344,273,616,653,1269,1515,-842,54,33,-144,160,-1223,-167,-119,1267,-664,-1314,-306,533,402,-8,410,-264,-689,-255,943,842,-555,-1344,-593,80,1697,1452,1224,603,979,1052,559,-1489,1068,-382,1271,393,-290,1005,100,811,-155,-277,734,715,-79,1118,525,-782,82,-651,535,-1444,-1237,1251,910,376,-469,270,1513,973,447,-770,-555,1041,-1183,-1665,-1571,-1246,-462,817,116,-524,-1456,-1292,-971,117,402,-864,-131,254,929,-798,-972,-49,700,-931,-365,-1079,88,89,-276,111,1333,1223,1420,-105,408,-1520,401,-392,-651,1294,-1481,376,-563,-513,-457,-461,415,239,193,1041,48,-295,-389,-3,-885,-1751,-759,-452,-1071,1891,420,-832,-722,-564,-198,141,23,-750,-254,637,691,-102,603,239,266,-499,-448,-927,179,260,575,-1274,-275,-1482,-988,-618,-55,-975,-187,-1093,206,-848,-883,797,382,201,1280,-467,43,655,1208,40,-71,241,567,-52,1267,454,-149,29,1334,880,1954,261,1184,-63,1916,-637,-692,-362,-754,677,185,-903,-796,-707,861,-1469,-123,-4,116,-1595,1339,681,-813,-966,1412,150,1255,-75,316,-1008,-447,-779,-329,1268,1552,611,-313,-778,965,297,933,-1157,-245,182,1189,387,-793,117,1530,-345,-528,-388,1221,1764,2451,2123,1294,-345,1010,892,-465,-77,180,985,1279,86,723,691,171,22,225,73,-1096,-1161,-387,-1359,791,800,-45,-386,-1425,-1066,-200,454,-280,-190,311,-169,34,-2653,-1773,2535,258,789,-766,122,697,-1366,105,61,771,730,1982,2228,-237,-139,929,-106,-10,29,-648,-386,1468,1545,1367,-1291,-739,660,-160,-1608,498,-359,-987,1429,-58,-101,183,604,-298,-190,-85,-55,-401,-849,396,-621,-717,-1019,-383,-1692,-762,-1608,386,-1778,-1825,-122,800,-385,-1381,-660,230,-204,331,-781,-773,-1511,-672,168,240,259,-63,-1515,-262,-234,-1075,-823,-731,248,-330,792,-323,1307,-301,-181,815,-342,-218,-136,-2,-749,-818,-171,-1861,-68,-1055,1643,972,-1420,837,-612,-85,-1301,1598,-610,-491,-185,-1914,-726,1028,-222,385,352,304,-834,606,-303,926,1068,1803,21,778,-2137,-822,1459,2041,-189,389,1109,248,1049,-1447,1582,-1076,-252,-316,996,199,54,-166,-1141,-775,382,-1469,809,492,-92,-390,-1434,-843,-887,-1088,-452,-449,-645,-756,105,-1261,-725,491,13,117,-13,113,-545,-161,441,120,-731,-536,338,-144,-471,-879,-898,-836,-500,776,1253,711,74,527,342,-222,-891,550,-379,383,870,-2232,-323,-527,1454,-732,-1639,295,-1271,1059,1207,571,567,-450,-500,-169,1,-233,-907,-746,423,-181,-597,-702,-716,-1451,705,-1600,-744,-1496,685,482,-712,-509,-117,-1156,-2143,-225,-232,-432,-524,612,-521,1305,1234,-957,996,1185,-42,729,-650,1467,-713,1000,1287,-490,-465,-866,-251,-334,-1597,-1193,-35,-826,128,-358,505,605,-880,-853,-961,-1000,-575,238,-617,-1151,723,-349,-415,228,829,247,-944,-316,-287,846,-656,357,-997,-1078,-351,-550,-949,-1097,-692,17,-859,-1437,-868,-361,499,1528,219,1004,1059,753,-887,-709,-1470,-1845,-1251,-2139,2,203,-820,519,888,7,503,-297,118,-568,-285,-970,-213,-277,938,956,52,-90,1099,652,457,1166,246,-835,774,1071,686,701,752,987,-612,601,1424,-202,-87,310,493,270,1806,-400,305,894,932,1338,1346,1038,867,298,380,900,1837,662,-673,38,183,491,-559,-1179,1198,-1240,-383,-154,126,206,141,-105,268,-1895,-218,741,-1250,846,99,512,-651,577,3020,732,-1748,-228,-787,-179,136,-1033,38,3020,599,-601,-634,-1407,278,621,-1198,683,446,-1398,-409,328,131,-1235,35,-792,823,634,1020,574,581,1050,1070,-393,-228,313,96,280,-857,-589,522,980,657,-1025,-1102,112,401,657,62,252,158,807,1295,153,76,577,580,-76,972,-282,1398,235,1481,550,137,-307,740,349,-448,329,102,-352,-243,-511,-102,486,882,-618,-1104,-1221,447,-289,2803,-744,38,-508,-88,987,569,-350,1035,-923,-254,381,-1265,-366,17,367,-60,740,-778,53,234,127,-407,391,1111,-312,-573,289,-1043,259,-527,517,982,-817,249,-195,95,1669,271,-352,593,745,1280,-689,-530,-186,625,1179,-424,514,1316,-205,-406,-93,952,-841,-991,-120,67,205,-487,797,1109,-636,12,727,694,749,1495,1346,-83,587,-1330,-761,77,91,175,1016,104,-389,-238,-876,-3,2631,-752,-390,132,578,198,-1055,-11,491,-59,-463,1058,1627,311,489,-1551,2843,-389,1192,682,-245,472,804,853,52,602,1027,905,-1158,804,-120,-2305,45,-306,-472,1826,1568,-381,752,963,-312,509,-47,-1129,-645,28,2000,793,1863,1432,721,-14,786,1129,842,-1345,-1349,-1530,-1332,63,-431,429,621,-1015,-1257,-978,265,531,562,-620,65,-719,-1690,-1756,250,-554,-380,1316,-120,-164,-965,204,397,1127,44,-161,485,15,468,28,-808,140,-558,892,-339,370,132,1607,-673,300,-690,-411,575,979,-340,366,-848,-648,-87,-202,-1051,8,-271,347,-1242,-266,-309,480,-817,77,-1547,-284,810,-1575,-541,-93,-452,611,706,983,1122,-589,-208,118,935,921,1157,-810,1042,410,-456,-157,389,-67,-742,-782,192,-922,-1078,-278,-505,-489,-699,-827,-938,-1826,-1522,-845,-241,-217,-751,-1263,-1488,-777,-1154,-965,955,38,675,459,522,-545,108,-62,259,489,-823,-692,163,-942,-169,-264,-43,-964,1310,171,-159,-1177,-728,-154,-993,745,-1025,999,1575,-2112,-890,597,574,-1170,-474,-845,474,-131,-858,555,-1081,894,146,-172,-327,704,-1208,-741,470,373,713,-594,156,194,0,7,680,-282,-888,676,64,707,-849,-465,-147,-434,196,-691,565,-328,637,-695,-995,-1189,700,-226,1457,16,234,1820,1051,96,219,1086,1970,-30,1361,-546,82,7,1070,-332,-819,-177,-990,-217,-134,608,1283,654,-366,-123,-828,1208,-954,89,-2149,-333,7,-1019,1319,-223,244,-496,413,-20,1204,939,1180,2238,1253,-1218,594,1015,-118,990,944,259,-456,-49,-566,-779,-1050,-1784,-202,494,-481,1070,-811,958,13,-830,-551,-310,593,897,210,-714,-1134,725,1226,1313,-99,-1165,-149,-645,45,-286,407,853,421,-225,-663,269,337,-667,-245,-247,-204,-1137,-399,-329,-705,-707,-72,390,-527,599,93,56,-1303,-294,452,-1121,-655,-332,-527,-58,-461,1704,-353,644,152,-964,287,496,1726,209,-921,18,2075,320,597,70,924,907,-957,-616,-286,-595,-172,-1758,452,-740,1304,2520,-104,-535,351,1121,-714,85,30,-174,-659,240,-1266,18,-1330,481,-1746,-972,966,-204,13,410,-385,-225,-527,-65,135,-92,477,782,-22,1179,245,398,-1504,-159,-373,164,-1163,55,616,-1240,-84,-208,-149,-109,663,-559,462,298,352,-135,-510,1527,491,632,2415,525,-516,-260,-614,1202,-203,345,999,-1157,586,1212,0,901,-826,-845,-1493,-748,-150,-578,1127,1427,-1346,-57,-152,3405,1527,-970,-171,-310,1328,-1666,-384,1357,328,-76,375,-703,-319,563,1527,2310,910,-429,655,74,1072,1131,1162,-432,-30,1844,382,1847,681,1246,1202,-4,1399,955,-84,659,2008,-180,1852,736,272,1731,475,-390,110,315,531,-29,638,1190,-536,165,-198,9,-698,-979,23,-519,-165,-594,-198,468,451,436,-1406,-77,-32,-329,-169,-1695,893,441,-570,418,-932,-870,417,1224,-436,288,-15,-138,1761,1574,2292,947,-458,-717,-571,-447,1244,1184,450,-1779,-7,884,-374,76,-1626,145,336,-1660,67,1293,689,-157,-869,-1082,-501,800,465,-1121,385,1611,204,384,835,-220,-443,809,13,173,-161,1026,452,-559,1138,-146,282,-768,487,-1110,820,644,-112,-1386,-531,-2166,-1984,-2187,-1523,909,-126,-1105,-420,1132,-110,735,-1569,-133,-540,-933,-350,-1573,-1421,962,888,-518,-772,664,-1014,-1655,-492,1426,721,-762,1977,470,1448,-317,-710,1249,604,-1478,-2125,-572,-612,-956,1802,167,-1012,41,-51,-265,-296,-661,-45,-1464,181,-139,-22,-311,310,-977,-418,-439,997,-390,289,336,-562,-898,827,253,-504,-507,-97,-1146,853,972,618,-355,-629,577,1133,232,43,954,731,179,-167,-1065,-372,-1123,804,653,-10,798,1044,-151,-1559,-144,750,-1104,581,-823,-236,1421,165,919,-810,566,736,580,-55,606,175,719,393,-567,-446,264,-486,344,111,112,106,-1179,-10,-893,-38,-738,-1835,-824,52,-248,-563,-859,-460,130,-515,-941,-1208,275,49,-1062,-595,-161,83,-820,-1206,1255,1152,433,412,850,611,-1273,-897,-1596,-682,21,801,122,-131,198,-777,-1455,-1497,47,-177,-368,728,-455,758,-854,-321,860,-1239,-1495,623,-982,-449,175,-13,-11,283,-239,-1230,1269,-736,1417,485,2454,608,-264,-1339,460,199,945,-245,263,-1699,-155,1115,952,410,-781,224,-413,-793,-308,-135,-588,503,-769,-711,-1151,-445,659,-236,-510,-569,-1643,-993,-1092,-715,-363,-28,-604,326,-60,-53,-725,-897,930,1345,1280,-317,-1783,-1474,387,-1288,-716,-383,1865,1439,1947,-3,1532,638,1030,337,-340,-591,-652,-331,-672,866,-222,-16,31,-442,1278,-215,1852,1113,1411,1276,-507,1109,662,1310,1047,385,-1127,-110,189,492,-772,-217,-149,1301,-437,-992,846,179,367,-449,1337,289,-288,-407,-331,60,-283,-817,-852,312,-655,154,485,1183,141,409,1617,181,478,1,-142,-378,1550,2171,-370,-792,-28,-172,833,1370,-493,-262,680,88,600,537,888,-1163,159,326,-496,-376,-166,1106,261,556,-84,871,-982,-22,-380,736,-750,-423,45,-1054,-433,924,-319,402,-197,46,325,-598,-94,323,1022,572,273,26,-311,50,1018,453,-443,297,-1453,-531,61,1187,73,-342,263,-1836,1633,-539,1234,-503,203,-380,31,-1189,-205,351,846,-264,384,582,291,45,1081,-2079,-505,-313,1552,-1217,-623,1996,-1594,-96,-177,-894,-1000,507,2084,-301,1065,-85,-529,-836,646,721,128,-533,-296,-337,1348,188,506,-301,129,221,296,1198,42,457,1535,-69,222,-563,1154,-385,168,366,35,-255,1266,1194,-624,1211,-316,990,-659,-294,1023,-1123,326,194,1075,1087,-848,-92,-738,-2057,1247,318,-191,779,-227,-256,393,-93,-1201,-831,-23,156,-1113,270,-963,-124,-240,-1239,-38,-381,-997,-1577,-663,374,957,-430,-828,889,-413,-153,698,427,-393,1152,1729,862,851,-772,-800,969,496,-236,-1358,-31,282,1198,-1096,1022,81,-1062,-929,-1589,-25,-1195,-560,10,132,-907,424,604,-907,19,-635,-931,-502,-423,680,982,847,-357,399,520,-890,455,-778,248,-717,706,-1248,-1013,259,273,11,-1655,-1417,-799,-462,607,-457,-1111,1204,571,-205,-1364,124,587,1515,-502,-410,570,-932,-983,318,-1520,831,179,-160,1111,374,-1397,875,-745,122,354,68,-1112,-2025,-680,-440,1038,-933,642,-513,924,-870,-1496,831,-88,-486,-911,71,11,893,-693,-1821,-914,62,58,-894,679,595,152,-530,1269,-329,-789,474,575,-123,-1062,-528,643,-819,-184,730,725,166,-713,-150,-49,758,97,-482,-799,251,67,-487,813,-235,-72,13,21,476,1283,-232,1095,881,9,1365,-236,-614,1411,-2677,363,565,-129,-724,220,572,267,-234,-390,-550,-770,-1183,748,80,-856,942,-135,1970,-309,-946,-149,-1170,-767,197,2049,-295,909,33,-1506,-1267,567,-440,672,-183,-861,3,-298,-1620,-56,-1526,-287,-727,423,-295,1365,-395,524,8,-332,-1022,-72,-637,-592,-328,-166,-475,-197,202,-274,-317,156,420,632,62,425,-606,-1102,764,473,-858,-635,-506,261,768,1020,1522,521,-78,1416,-251,409,730,45,91,-657,-1262,37,-1107,-518,1564,939,-1030,1163,-1195,-161,-949,-733,331,263,373,-717,234,-1254,-1126,418,-325,755,-970,-279,-642,291,-1119,-1093,-611,-8,133,166,-453,696,-58,-352,-407,424,1178,1529,-96,468,-2055,724,2760,2240,1633,1984,760,2454,1073,1621,1401,867,715,340,1914,677,271,1223,624,996,880,1165,-347,1860,1426,280,596,-100,808,599,563,681,-405,1614,1645,427,142,1007,1882,1745,-453,1741,-261,434,-213,1030,-551,-64,1185,390,366,-299,-301,589,1104,-625,-1580,1038,337,-906,1072,-704,-1078,1055,1125,228,614,272,245,-1886,-985,-436,273,394,1080,1549,-106,-1475,715,-1185,1112,73,112,-367,-9,2211,-471,192,1023,-837,-490,-388,318,82,-503,-586,-577,936,829,466,139,950,75,-313,572,222,77,-699,-623,-1260,445,-632,-99,-748,-9,518,-633,889,-418,190,1107,20,442,-164,171,-578,888,-183,918,-321,553,217,925,-82,391,-1487,408,1714,-186,1399,743,-357,526,917,-770,-672,-35,-432,-180,508,-410,664,6,81,-355,2131,675,548,841,-40,745,13,918,1065,-859,-218,-540,-748,-1467,-904,337,-835,-535,19,-628,1724,-237,897,-288,-1685,-748,-1117,-1739,365,212,-474,-1359,-309,-1217,-1547,-1471,-88,-591,82,-1608,-270,313,-174,-1294,-926,130,-440,-685,218,21,-467,-423,-1230,-451,-817,830,247,-331,792,471,612,-355,27,-372,991,2174,233,928,-972,1601,-522,1051,836,33,341,319,-1574,664,875,-571,-1013,-671,399,206,294,826,-1207,-5,-904,802,101,215,-695,1377,474,1431,896,-396,-1129,580,355,-812,-1335,-1112,-264,848,1185,912,-859,-351,319,307,511,75,-72,-165,850,1308,573,116,30,-743,-42,-1307,-848,1010,864,994,720,1906,1417,774,1309,1889,1711,2243,-127,348,103,942,583,-185,716,1919,714,-32,1238,225,1221,739,280,-613,1328,-81,-694,-2032,-705,723,-662,-183,913,-585,977,-826,19,309,909,174,197,1938,1826,-2067,602,-156,1132,507,-1040,-802,-8,592,6,996,80,2690,-786,339,38,1236,-573,133,1033,-2832,125,635,-964,392,-159,935,-67,336,-1048,-687,-294,-1067,1102,-505,1004,-27,-762,-128,638,615,-615,-20,-946,-593,-497,454,69,827,-658,-1063,713,-336,948,-93,534,-692,581,-815,247,-999,-1325,67,-1757,-367,-2270,333,-1527,401,415,-247,-1232,256,-1334,-190,94,877,-1137,-9,-240,311,-279,-1879,-1307,12,455,61,1336,181,-930,-358,-717,-676,-542,1221,798,-1348,199,1866,-873,-324,925,271,-756,-171,-289,406,789,-1,1399,-108,-681,-418,-621,-982,-338,-51,1116,202,-631,-213,1038,-11,-1204,-816,1173,-641,436,-331,-1017,-510,248,-509,-688,-302,617,751,-800,-248,-1013,-748,970,265,-1311,-80,-655,-1273,-737,327,-7,-1590,-615,-961,-1561,773,-21,-1877,-8,271,-931,1029,59,-422,-1890,-562,-1664,-400,112,575,213,608,-1003,821,-1574,265,-6,-160,-1445,-126,-1526,570,-172,-243,-817,-1177,-380,-180,251,-1123,353,468,215,-932,-861,177,169,1512,-435,283,764,-542,94,1361,878,325,1056,-91,145,-579,-1292,-370,-373,425,357,1484,389,1208,412,-59,-929,749,-534,-468,1075,1063,-527,41,522,87,-543,1428,315,913,707,531,1126,-183,519,1967,1275,1147,-228,1213,1043,764,-1,-1593,-80,397,-131,66,-1530,640,-1120,428,494,-738,1049,-2008,384,-724,1091,-257,-823,-22,535,-954,-80,1602,-102,-775,1053,622,1397,-1086,-54,-108,-282,1234,978,1055,881,-198,167,-466,116,-351,-295,625,-166,1063,408,1298,723,-297,-351,-212,-864,402,-56,1162,346,499,110,-327,-29,-267,-664,969,1336,1153,1063,355,823,925,-519,1434,1440,-32,1724,392,746,102,1107,1562,1551,147,391,1722,1357,-755,564,737,1947,76,353,701,661,224,72,1288,-298,627,894,429,644,214,1129,-1038,-454,1566,65,-626,253,637,-159,-655,-1054,327,-531,-415,1391,-236,474,707,1267,400,-265,584,209,-294,1371,-596,1309,-1265,-573,-219,-90,1120,574,-512,533,1423,656,-345,895,-454,-370,-1218,-1808,299,211,518,-616,-516,169,-79,-170,1460,1110,1336,1129,775,-44,725,879,822,606,522,-212,802,-69,-708,8,1004,1279,-431,575,114,-651,1765,389,-914,250,406,27,127,-34,1581,-76,-601,-246,-356,-1193,-154,-228,-139,-918,953,396,-627,-69,716,1192,-335,582,-1341,1129,215,1167,-1356,-313,-271,1534,1362,77,-4,444,-92,260,-1152,261,1010,-1367,60,293,1553,1263,874,-158,954,167,173,-393,-575,1245,324,-138,-214,-64,922,279,1149,-79,-577,257,460,-22,568,-325,-1283,122,-1236,164,-1219,339,244,1300,-1031,-474,520,625,557,52,1085,-227,229,1745,-1527,800,-207,885,-590,-317,332,232,-1357,989,-650,1283,787,-68,141,1218,-1893,-299,481,593,-140,1155,-279,1042,-1512,-1067,690,1908,2470,-188,-91,336,-352,1602,7,1146,383,-200,-997,409,-914,-424,1505,225,-836,-344,1297,-689,657,-65,-1819,-1362,-75,114,-33,-544,509,838,696,1196,-414,-653,422,-1444,-1346,383,283,833,334,-78,-482,323,-76,-188,103,100,-487,619,866,-270,114,126,1551,633,-349,880,-212,-2605,1902,-48,135,973,1329,554,-1285,1032,1957,300,-1406,425,1313,1268,7,-761,-654,483,890,231,-1252,733,731,-482,65,809,-718,1131,-1127,457,337,583,493,414,-626,-697,1098,-828,-1618,-63,1608,-562,747,-67,-278,-1021,1919,2127,1231,-532,916,1133,927,155,687,1398,781,396,896,-550,6,956,720,722,634,254,362,-105,-703,268,326,148,303,10,938,978,-189,563,87,-197,387,-647,-495,-1903,-961,-130,-236,22,2214,1507,-688,580,489,-18,-995,-140,-218,432,1289,-352,94,694,84,-804,551,-1372,1603,-1465,716,-671,-163,-1812,1829,704,352,-89,-107,-604,610,-30,-1315,1125,-707,-585,-1822,212,1630,-1250,-1047,241,-422,50,183,-760,-197,508,960,214,677,244,58,985,522,-943,-277,573,-459,276,58,-65,819,410,-296,889,584,-670,-475,37,101,-937,-689,-733,-901,-972,524,124,198,-587,203,101,-1256,-840,378,-410,-347,56,1231,-346,-36,103,-656,-181,-138,2043,-1023,1241,-559,-249,779,480,-513,-974,-684,1081,-974,-728,233,-822,612,-1200,-180,65,-405,82,651,1230,-117,-598,1161,-1208,-1607,-373,-875,-2039,978,-229,1074,1484,668,411,-467,-545,669,862,-669,615,1837,484,-462,945,1012,63,-678,461,246,360,-867,865,892,1640,-1012,-1450,-1643,646,285,832,1166,678,-129,-1191,-875,606,34,-1296,-996,-1448,-404,-1776,-1973,-917,-1572,-1580,326,-1045,862,-227,379,-70,1040,-327,438,2623,-785,-381,-252,288,-243,-1340,2322,-782,878,54,-1838,304,132,281,-1414,-557,779,356,-948,-659,213,972,-371,-1417,-665,-1220,34,-1073,269,481,-53,-1078,-420,908,-1369,-1453,-653,-524,-376,-1562,814,-1301,-1067,-652,-186,-160,-1158,-1926,-518,207,-1255,-1,-689,-821,-32,-1011,-1036,183,377,901,-192,-406,1219,-1295,-1247,-536,-184,1653,1129,591,-473,237,-469,185,674,1056,-556,883,374,2379,-1553,-262,-672,-1196,-1007,-586,1436,317,-740,-455,-884,-1801,721,153,-705,763,-639,-244,974,839,-597,426,737,1120,-496,-2125,-865,-65,1327,764,676,720,-1552,-418,-618,1103,84,-721,-1226,-294,-24,-844,-461,584,1699,387,784,1142,939,57,-672,877,1500,329,1170,1058,1332,1181,1490,1075,367,1875,1510,786,645,229,530,851,-409,1243,-674,497,-597,-531,-318,742,-526,-717,689,485,824,465,1484,820,-745,111,46,-407,1869,-1075,-1462,-1307,110,696,69,139,873,42,761,-40,-1080,599,675,284,-934,-245,-1175,-679,-1968,21,493,-1206,398,91,489,1195,-521,77,-778,-1363,-334,527,-508,797,129,-73,-54,711,304,-752,-161,87,-69,863,2546,3862,1004,-185,-1170,-1924,-766,54,-822,327,588,93,188,-1716,486,560,1525,1601,1381,1152,1085,1027,1147,1501,1588,-12,635,1085,1853,761,1862,1184,1010,254,521,1923,1937,860,402,-368,298,1184,1094,-1130,-298,-619,-2,-2694,-578,1116,142,-197,796,196,-220,-587,1406,1873,-285,-912,966,-151,141,-578,520,476,-421,288,-99,-164,396,1044,-340,155,-23,-581,-281,101,302,-576,-3268,-232,595,1429,308,-623,-617,-1026,595,-344,-443,383,1363,831,885,815,115,457,54,1396,1049,528,0,999,957,144,-24,-188,210,-113,287,-137,384,622,1328,-257,-44,-42,392,-167,272,475,301,1146,1840,-109,1497,-81,75,289,-70,526,29,-621,823,544,-827,1346,-511,702,1032,1296,-195,73,-554,-1298,582,-82,-5,-1242,-66,473,1076,703,-216,-664,-885,-35,1178,-699,741,-1410,374,67,596,-34,605,-758,-658,668,178,-120,-58,-798,1978,587};
const static uint32_t LSTM_01_weights_input_gate_dims[4] = {1,1,48,88};
const static ConstTensor_t LSTM_01_weights_input_gate = {&LSTM_01_weights_input_gate_x[0],&LSTM_01_weights_input_gate_dims[0],0};

const static Weight_t LSTM_01_biases_input_gate_x[48] = {1337,450,323,739,850,1116,-266,512,-467,676,-984,-130,16,165,55,-250,-931,52,-229,-665,707,-793,-22,-873,267,234,1221,-695,-166,844,18,147,-793,984,26,335,2405,830,656,323,-597,-689,-489,-1205,266,632,-64,1181};
const static uint32_t LSTM_01_biases_input_gate_dims[4] = {1,1,1,48};
const static ConstTensor_t LSTM_01_biases_input_gate = {&LSTM_01_biases_input_gate_x[0],&LSTM_01_biases_input_gate_dims[0],1};

const static Weight_t __attribute__((section(".weights"))) LSTM_01_weights_cell_x[4224] = {-555,875,-469,1014,630,657,7,1433,145,-70,434,-1615,-352,113,-1696,-1521,-975,135,159,481,849,1009,-251,1244,-101,-735,219,392,1046,686,459,456,-124,-344,-816,613,-657,-179,-624,-351,-454,-142,-458,370,691,288,-53,-250,446,359,-719,-409,396,-507,-701,-1312,596,775,-105,602,29,53,-334,1497,-548,1798,463,-554,-1992,473,-510,1959,762,-1080,949,-119,231,1156,1581,280,-864,2073,-218,453,-235,840,319,739,165,-59,-575,-1066,307,-98,-1024,-440,122,-238,-308,57,-1414,-1172,371,-1289,-1805,-1055,-437,423,687,399,-912,-590,301,170,-626,-1053,-923,1013,801,394,1116,782,617,1253,-489,796,53,1608,1492,534,-833,723,789,-941,-340,957,-667,561,-763,-1237,3,-637,-751,-403,-104,719,440,843,417,-1366,1173,267,-902,-325,-50,325,-185,-997,934,50,-579,-20,-94,-796,-288,-55,-242,-689,603,-273,-342,1031,-1580,-537,-451,805,514,-259,-423,850,411,716,1627,-150,400,700,942,959,243,118,-210,-494,321,204,-327,880,421,-421,-380,1051,752,796,330,971,-76,113,352,913,43,-239,-1020,-945,-987,-383,-1373,-578,-989,-1363,-72,848,336,-1184,-627,738,-505,399,287,1183,-495,-316,992,-10,489,-1064,-1415,-18,-1649,777,978,1516,-85,-260,-1634,-328,1050,-1040,-581,713,-157,-44,1569,-525,-403,-110,-57,283,-901,-831,-631,-907,1073,238,-25,216,1415,1260,-851,-866,-979,557,1120,1044,-587,-791,-1252,-314,28,-1148,30,818,-6,96,24,-1011,-1171,-89,-818,814,106,-594,283,-421,290,-560,439,975,541,432,371,845,-607,917,905,493,1429,446,69,399,-807,-935,-287,195,631,266,-871,-30,645,1022,-1154,1019,139,887,-361,0,-524,769,-449,1196,-1671,-1215,1470,-166,-493,449,-483,431,401,1055,638,275,302,-1231,-242,-934,-1129,-170,-659,802,93,171,969,1091,-876,57,-652,-1211,176,-713,-474,-1255,-1262,-1723,-1236,212,-949,553,-38,-801,-178,-396,526,533,207,-1291,-313,-881,54,-1119,143,-576,-130,90,-43,269,323,-1432,-165,-199,-840,483,-560,-783,-2352,1562,-95,-1100,39,967,-350,157,338,685,303,967,-668,-255,-754,-1047,-253,-57,99,1454,-203,920,871,290,-839,-1088,-248,538,1547,450,1151,-895,-602,798,273,691,551,-1387,212,-216,-55,-110,11,-229,-242,732,-664,273,1323,-644,1214,1100,1176,578,-153,-299,733,-307,-903,-132,1021,-129,973,-355,-620,-396,-782,-264,-1244,-104,970,3,-375,-530,-1496,-1388,-707,242,-426,-804,302,-211,-1411,234,-1645,-1162,-464,295,259,795,-2077,704,-245,1229,1599,630,-908,-338,-484,387,-422,-653,791,-717,-323,178,119,914,-1425,-278,397,329,-113,-194,-245,3,-438,1188,-400,245,815,-1320,-187,-685,-375,-1037,-903,-254,92,-102,-184,-234,-361,49,-204,-849,304,787,-871,12,-262,916,1177,868,734,-964,260,596,-192,-733,-794,-517,611,-929,811,-548,-183,745,-1138,-530,-807,439,-595,-230,-250,827,475,765,268,1044,-251,-662,-1493,771,180,-226,126,50,1480,-1027,675,-298,57,-461,-266,-448,-1623,1084,-25,-1956,614,-4,-395,-3,-809,140,-98,-1031,-206,185,-13,-1687,-361,-42,61,239,436,404,1058,-635,-207,378,-936,126,721,-369,-1528,57,280,-257,-1083,1002,-1353,-259,-971,-1275,-863,694,-212,17,1759,1318,-696,1586,1555,706,209,-838,-1011,95,164,1098,-206,-604,419,468,564,-789,-210,-600,291,-1055,-1070,-69,-611,-578,-1187,222,510,321,-486,1276,-295,2074,-541,-1263,85,498,121,123,808,-984,1084,806,614,464,492,-488,-5,463,66,-1328,575,-295,-988,21,-302,441,-646,-1523,-165,-960,-1015,-69,1143,-193,247,-849,-215,-826,-90,-674,-61,651,334,-390,481,744,13,-441,962,-552,1357,1213,724,-523,-221,-206,-1487,-261,-1148,-1255,397,-1047,-246,582,-37,-335,370,26,-837,-58,1071,-297,388,-918,-624,-495,91,557,-107,-501,-452,615,7,783,-308,-62,1558,344,1206,-163,536,-110,-1127,-822,-563,-375,-1387,-940,299,-1879,1012,463,458,740,131,-224,134,-253,-189,-849,419,-444,-769,-1151,-1370,427,1125,1022,660,-472,737,325,-190,377,-32,-17,467,847,146,-253,662,344,-820,-374,-1665,-86,29,301,-208,-44,728,-6,-436,-918,-399,-429,-1405,-48,-1614,510,-1024,-85,-511,-1727,-1297,27,304,485,-962,-492,715,-647,-1557,-2079,17,632,-289,-973,-905,438,871,861,822,184,-198,1432,-19,993,609,-331,-281,-209,275,-185,301,-1649,-163,169,146,-690,-1221,290,744,-313,-164,853,230,98,-486,1050,1598,420,144,863,507,-825,1221,954,1435,569,-174,71,1862,-507,-1474,-261,-1006,1514,-1643,201,313,-1357,117,3,164,46,760,-416,778,890,735,85,-164,-825,-303,458,-459,142,-391,-237,-153,-904,-392,-1068,483,-312,504,-199,1125,-1003,460,-815,-171,745,-518,540,331,415,-214,951,-222,-212,864,641,975,892,-972,730,573,423,156,847,1307,51,-1109,591,-419,-1052,1560,-586,884,-175,427,-240,-651,578,-788,404,205,-1477,-32,-1260,585,-170,-163,-1350,-830,-1725,140,779,-1965,-641,-217,76,-214,1342,-68,436,-639,-705,-565,468,177,447,1055,-226,-1201,-955,-1171,340,-198,660,-336,-1072,-299,473,-1138,-1777,362,-872,-1407,-437,-1362,67,-737,1105,1298,166,791,928,47,-1475,616,212,107,1055,1087,-513,-323,17,-722,-481,788,90,-216,1842,419,-960,-132,-299,999,-1552,-407,453,-390,910,-1154,549,-163,544,2070,-130,-116,-800,44,2135,442,707,-506,-580,-199,1616,-139,-967,-2,-437,1350,960,225,-962,-599,429,-116,531,-1167,51,-664,193,1189,-621,121,737,1251,229,-513,-310,1137,-1112,376,40,948,-258,699,-1339,609,104,376,1273,1051,319,40,282,-494,-897,-787,-933,823,-866,-539,-465,1279,-212,916,-660,878,435,522,-649,559,-77,-2,-618,478,-432,503,714,-782,115,1143,-680,-691,378,-1630,839,162,-17,1711,-486,1315,-263,-1152,850,1093,1237,714,449,525,-1661,182,414,342,215,-655,59,440,-986,-189,1290,-86,323,-884,-1083,815,796,-391,863,-816,289,921,-50,-116,-722,-371,-329,807,-362,-999,-134,-450,728,-135,635,-496,-467,-676,-1470,810,314,1014,1078,1393,1463,-570,-305,490,873,587,326,-565,-75,-713,341,373,58,918,250,-120,-138,143,991,-922,1374,-568,-140,-1309,-1521,-91,126,498,301,868,-101,193,452,548,-199,1420,404,-27,-1336,-256,-5,131,-769,589,217,194,-803,-687,1943,1228,-669,-773,975,-12,277,-235,507,-366,155,680,-1496,-1206,-794,-218,-396,-215,-218,980,772,1010,483,230,415,-565,1062,-205,240,-416,731,-83,-410,-50,527,1234,1716,58,777,-207,511,61,-6,-348,-540,-652,206,-666,-935,-1608,-1355,-1257,-664,-847,-115,376,-189,-1207,-208,243,-398,-703,419,1106,1048,-522,-678,633,82,-1124,1288,494,-103,710,152,1421,649,374,606,-165,-615,181,-578,-513,-1403,-1269,-361,819,-587,-1,792,-841,-625,-935,385,-64,-367,-2174,1223,126,-684,919,-482,314,435,-1020,-602,2129,1568,-435,-631,372,-733,229,-302,819,-317,-402,1530,862,412,815,1091,998,1396,354,586,-483,1065,900,-302,-731,-228,604,-602,-831,-402,-430,1395,-82,-112,-462,413,-824,-895,-79,-28,778,349,114,942,-1317,451,195,242,-107,-335,936,318,1286,-9,-1308,980,-131,1812,-983,-195,439,-1431,320,-873,-974,576,337,599,53,-153,1936,-308,200,-684,-82,80,-18,-278,1520,-138,178,826,-862,-126,977,-856,-641,-295,569,-274,660,1081,-1009,-759,-1576,679,-820,587,-740,-933,-1156,413,-700,489,75,534,-686,-749,-587,753,-514,-235,659,-337,-1141,-671,1015,1092,-302,-1045,772,-424,-321,-910,818,171,-907,-512,988,809,1390,1057,815,826,347,-1536,-287,1132,-395,630,-275,-519,125,-590,521,-814,-719,-187,-1059,219,-48,591,490,462,1287,1221,797,1054,-1435,-212,-240,703,-1418,-257,1114,-124,159,126,-335,-1665,1323,-806,-959,197,286,1025,904,730,-975,-994,-117,-915,-289,599,260,423,647,481,134,-648,-1372,-64,-1182,-887,424,387,-658,353,541,-764,-176,623,237,-1042,-1101,-50,140,-729,-71,-176,1021,1014,1493,-428,1367,1012,-88,94,424,653,-823,-772,525,608,625,-353,404,12,-175,-129,-429,-61,1406,-446,-424,-366,190,-1341,-227,224,1047,-786,3,-465,218,249,-1072,-1009,324,-265,521,1152,-1041,-1220,1167,827,-225,1326,982,278,-986,-232,-567,-661,373,1440,-995,-948,-246,1247,1625,597,752,-815,-1164,425,-1493,-292,948,501,184,-577,416,1030,773,146,1006,-634,-11,-319,-592,369,-234,-1146,-700,615,-527,-45,-439,-1084,-797,-795,-459,884,1002,43,-349,-958,-549,-601,1361,-259,681,-435,1295,-888,-648,-82,10,-927,-454,128,-1535,-497,821,955,-232,-310,-156,-546,-297,-14,-2041,-1008,-1258,868,-674,-580,-488,779,-41,-119,372,316,731,-394,612,-1135,96,-452,-142,560,56,-16,29,799,1587,-236,-245,133,827,-771,-769,-617,-420,302,787,773,258,420,-980,-1444,700,-953,8,352,78,-1419,709,-1138,312,-615,972,-296,393,326,97,-551,90,541,731,-938,-46,23,320,-1110,-48,366,900,637,828,411,-671,113,387,347,-484,-677,-464,-504,-230,-991,-615,-466,234,-399,502,194,-909,-1018,1695,307,182,473,-950,-2890,1523,-501,443,1005,-454,-79,-198,809,618,-331,1094,-204,547,713,1162,614,1122,228,178,-668,-500,-443,-166,-988,394,1084,666,1079,-540,189,-341,1132,456,386,1123,1149,-367,1000,893,1523,642,752,-673,1010,-494,1226,677,909,111,-194,-1156,452,868,164,-67,19,251,1309,894,470,301,11,-271,-559,1822,1387,-354,74,-333,1186,344,-620,687,-127,530,949,-6,-341,-587,-1599,849,-466,-222,-87,-266,-726,215,266,-1163,-421,19,757,-707,-1917,1206,505,763,-1632,-692,381,-449,102,-90,-467,-979,-380,-441,361,-807,-639,370,-879,-1382,-337,-104,511,-890,595,389,-1739,-1290,-732,-546,-447,744,-42,710,-561,1215,564,-748,-272,1422,796,-112,1195,11,237,38,-698,1026,475,-1020,-780,-1370,-314,566,44,501,-1438,-1472,-386,258,-304,-527,1429,-1584,479,668,16,-951,123,-533,-693,-437,928,475,-690,196,1243,-39,658,1232,247,69,393,147,-101,-355,896,181,765,894,-621,983,864,-57,1163,578,-7,169,510,9,-147,693,-1353,549,449,-404,389,1072,525,534,17,-440,98,900,247,-411,-790,-98,553,-738,852,-261,-1244,-1864,-1086,-53,-1168,31,-1282,-229,-1295,-514,439,-917,-165,-909,-931,-346,-1485,-1081,-824,717,284,1164,-481,384,1201,105,1011,-357,18,74,-27,-284,1594,207,528,-465,-19,-17,-139,500,174,-849,-19,625,729,1317,-514,-501,1026,2399,607,-1502,-256,409,-639,-990,206,-578,361,-376,-1822,314,628,-989,-1366,388,309,-304,765,-1140,-353,801,372,-129,928,-615,527,544,415,293,826,-1007,-1338,-1160,184,-1136,215,-126,605,1313,428,-46,-942,573,-107,598,277,97,1121,176,-517,381,539,-553,251,-964,444,125,-283,493,-898,1919,-823,133,11,-480,-718,760,369,-706,-328,-843,734,-618,-558,-66,-456,832,688,-1971,443,-226,38,-547,-632,1668,-782,1515,492,278,1441,-307,-186,-888,-328,-65,943,303,-392,-606,1302,-460,-422,-45,1097,877,858,484,818,970,829,-480,278,12,-459,727,-625,649,-684,-597,-682,-623,-1035,399,-599,-29,-886,-994,612,872,-455,-137,-170,-801,516,760,760,1180,-51,1156,229,-752,1081,-1308,249,221,1717,-848,65,1264,-153,-289,662,-361,-273,624,-657,-131,-557,-282,67,-431,-179,286,-457,1846,-56,335,-156,550,-1382,488,-36,412,-291,110,1149,-1921,125,-909,-389,-1151,-664,-207,-1548,-395,561,1125,-903,-1483,90,-707,624,795,-1442,605,824,-1258,-1521,-802,-389,65,32,3,510,1121,-146,407,391,596,-666,-300,-868,-827,233,225,-245,-843,404,872,296,-147,-973,-1000,-321,1352,1014,147,-127,-603,-382,-772,735,-699,529,-371,803,685,320,-31,-15,-991,949,-405,485,-1270,198,-749,-866,2452,-730,-533,-488,-322,-390,406,-289,-168,1397,579,412,-260,-25,544,-165,-274,-567,819,1162,232,404,-1237,-621,-136,-374,-292,2000,-2258,-236,190,-216,104,-669,689,64,859,-620,1080,678,779,60,379,-374,-603,326,7,120,-1255,-34,-943,923,-886,1065,-18,176,-261,587,-740,578,62,-1051,-242,197,601,-395,-890,83,-495,986,1398,125,596,-215,889,1847,-2083,-653,-146,-390,947,195,18,1291,-413,-29,836,1063,116,563,-1651,1158,-532,-765,812,364,-1009,40,-1103,179,-1444,-621,-1206,665,284,119,72,-511,588,-717,1150,-193,-1439,-1651,130,433,305,1194,-332,426,727,-935,1069,-537,-1034,-624,-875,1463,-608,-1240,731,717,125,-977,840,-416,-329,-651,25,-735,-1390,-1097,128,1010,658,285,-38,212,258,1203,-240,-231,642,784,807,-415,808,-64,-85,867,-1622,-520,427,-745,-1296,626,-848,1281,642,-184,-291,26,-543,-179,1184,906,-592,96,-714,-378,610,283,849,-298,-449,-291,-1015,392,355,-343,-1417,-375,-468,799,779,-140,217,-363,-70,-53,1196,-1,-1044,1033,-884,260,1462,170,401,686,5,-860,822,-791,-1449,669,-288,-1645,-207,366,-1210,-822,-1019,-229,-1182,-1158,-277,-976,-336,-549,637,722,198,1203,1056,51,1158,351,-457,-816,-1338,-922,-1167,-469,-863,276,627,49,-381,-950,-505,-1661,-659,145,167,1851,-160,-889,-276,-192,-764,-729,820,-671,930,50,-81,-47,-126,78,678,1222,878,-1703,-652,-815,603,-1086,-282,446,1315,-786,-1183,218,603,-501,-1020,-1337,824,-41,607,-528,-1295,343,-546,931,1107,1707,105,-413,1126,-492,308,1197,-161,1420,175,1480,222,1151,-447,855,-412,-1628,-1420,799,121,-1353,-156,261,245,-298,-1263,-174,-632,198,-653,932,1015,74,466,716,-537,-894,277,-455,-10,-991,1581,1013,1436,-29,747,-687,-623,-766,-136,543,-341,437,1162,-636,-101,-694,-510,727,1833,311,-83,447,1047,-230,847,864,440,603,-555,1093,61,-251,601,1181,159,422,934,-1037,-149,1014,-122,631,1273,117,-786,-1687,-1892,-1419,-1772,-1677,-1089,163,-377,251,-270,-567,-502,1152,-252,-828,78,1041,9,-336,-7,-152,-1010,-472,-273,240,-545,597,-580,852,-18,200,-200,1179,1127,261,2177,1403,-188,-699,-601,233,790,-110,141,1047,-121,415,1486,-771,813,-154,881,-634,672,570,511,1008,932,-660,-571,572,-678,-749,2312,81,1005,896,-347,435,-192,-684,-373,372,794,1074,258,-167,151,-256,-408,448,286,-502,4,101,-433,-755,11,-550,-634,-616,-1333,832,1300,573,396,-506,-976,1049,1047,1578,1212,284,1462,-365,-114,-1359,363,466,-182,-1692,-631,169,436,-312,510,-659,-857,-12,220,138,-261,-1125,642,-835,602,268,-631,-617,-232,-815,-212,-979,-662,-8,311,207,164,970,-328,-345,224,307,-79,355,276,-1178,302,296,-1010,994,-803,-555,-302,746,-584,-773,-977,-596,-710,376,251,-444,876,491,-1392,527,212,-862,378,730,1487,251,635,571,-17,973,-251,-381,-1699,-1309,-611,920,386,-337,129,1097,-343,966,1287,218,399,828,-549,-882,420,-465,-669,685,686,1057,-909,-438,-795,545,-960,680,844,-584,1210,177,-837,-686,-344,-336,-259,-497,-525,-766,-182,228,-604,1295,-933,190,340,-303,-383,-430,59,-1915,-1189,1401,324,-312,290,-530,919,-194,793,1263,219,-390,598,643,1510,194,180,-570,720,796,-119,-687,-705,157,1424,-616,-522,-1886,217,-375,436,-1274,-615,-1326,-709,332,-511,39,-432,-547,-964,277,-1256,-1444,-338,-1635,-1253,-1069,-1358,688,464,913,1420,530,1009,1285,347,908,207,356,328,482,-264,209,930,429,731,529,-292,1363,1367,1049,238,269,287,459,566,1428,-1015,354,154,34,492,203,-618,-1009,320,-512,1293,504,-416,-251,-694,-294,-651,-509,290,1182,278,-90,1156,-651,1077,-176,436,1196,-1060,-29,717,1293,799,-970,188,216,-219,248,422,194,1524,-716,99,637,19,526,-94,-636,-1173,76,783,392,-1032,-23,-913,678,-627,1233,586,1389,950,-439,-253,585,1107,-639,225,-374,-577,-890,-141,403,-163,-609,-446,-348,559,251,563,267,587,-741,-2506,356,-1061,791,481,-301,550,869,-391,-263,554,173,245,271,822,-50,829,-422,773,820,84,-503,963,435,-191,244,325,-140,1717,-598,-412,-503,404,721,464,232,-285,206,-3089,-421,-567,-356,-1464,475,-456,-379,1130,1938,-40,666,1039,1749,1012,-547,-328,-220,-452,636,359,84,-1128,-1130,-1885,-1824,-855,214,508,421,-21,548,279,-823,-809,-963,710,253,889,-180,548,8,-796,-842,686,394,-137,542,-561,575,625,340,23,384,1293,471,441,106,1163,-91,-1034,319,-265,1110,-479,-725,282,198,82,-936,1260,-1243,-1466,261,677,-112,382,-832,-1043,99,49,-534,-699,586,-309,-140,202,-1184,335,-645,-103,915,-495,31,-480,-864,-1125,357,762,175,-1319,356,-652,-1258,-1475,813,31,-931,-339,-701,-434,-811,-301,125,-196,359,-423,-818,595,-1110,-338,895,-826,486,803,-667,312,137,1206,1082,1077,1585,508,1235,475,463,159,-478,1791,650,-1569,168,-619,192,-66,-1101,882,-1249,-1102,-399,-1700,-635,736,1894,4,-934,755,236,-1076,-281,190,-240,-852,-1034,84,427,101,393,-121,-876,-576,-1052,319,260,-85,-518,-141,-66,262,-903,-459,-328,967,1321,-60,-363,-303,-186,-515,-816,-711,13,-1340,-172,-611,401,1123,134,1803,364,1648,763,-464,1159,-457,-1188,-1097,-646,-969,-1664,-511,-1219,482,801,173,-17,535,95,1178,1398,-308,-181,573,279,-23,70,-1066,-160,-827,446,-1059,-192,-294,408,693,-1049,-75,-1215,912,1912,-403,1021,523,-994,-319,-613,319,-257,-572,-65,-239,1139,224,1565,-16,1317,-719,-199,-6,417,-526,1333,543,-61,108,1160,1068,351,357,-1420,1112,447,-1317,-703,194,-402,2087,888,26,700,1088,228,-766,825,764,279,-1036,-1178,-862,267,381,1093,-52,-103,-215,-310,-418,562,777,-64,254,238,-354,-817,818,-334,542,797,1165,863,-376,319,-851,-590,511,170,562,-495,-1086,-502,967,1126,-141,-995,-1419,2131,698,-943,-525,-543,-367,-200,-1203,1196,-1817,117,1372,507,-948,-237,729,-448,44,-1407,-540,-878,-1202,458,-407,-50,242,-623,8,830,-252,-898,-429,621,-872,-488,-787,-902,478,1072,1430,-245,-278,-128,-1017,-647,-1300,-1586,541,-448,-547,-782,-251,-552,579,-600,528,-457,-942,639,-243,-1332,-1452,-1479,-288,-128,-274,204,-331,-360,581,1235,1019,160,1450,1317,509,204,-576,-313,362,-555,-370,365,109,412,1004,-414,1051,1099,-212,370,-198,63,-33,-255,-16,17,900,-494,1848,-480,-653,1378,-1045,921,-526,760,498,-916,-511,266,710,-21,741,617,-193,747,-1090,170,-593,204,-1060,-72,-897,-531,-1023,1113,756,345,227,1277,305,404,1240,1267,1061,951,1234,-1020,117,972,-905,-547,-166,-159,101,-259,-82,-533,-37,570,201,238,-253,-182,-607,398,215,-107,-170,-240,-1191,-437,-306,129,2030,1362,370,-893,333,251,-1408,117,276,-751,-524,-302,-627,106,-707,-312,32,432,362,-1063,-1103,-1153,-81,-1338,831,1006,-478,774,-601,459,-1132,219,-53,-565,357,-353,-752,-294,-958,832,-224,-42,1043,-320,46,-1008,2293,879,170,-41,-480,298,-602,-153,-599,-211,1214,-151,913,802,-1442,16,-583,-390,456,670,755,623,773,265,-148,103,965,35,-96,1193,1106,1083,226,-718,-512,-443,78,448,248,55,-364,343,162,1861,1,-228,117,-776,-202,-1981,-455,1003,338,809,973,-231,799,436,36,-1122,1457,110,649,-331,1163,-990,334,-815,-134,-1045,1203,384,-459,596,-379,146,998,-715,1640,-1000,-774,69,587,1288,-66,-364,483,331,-1587,-115,-327,-1197,-1137,11,-451,-902,1431,171,704,1617,-298,1270,605,1035,-71,394,1171,-502,-1440,-311,-1207,-1096,55,521,-632,-387,800,222,282,1138,872,21,-1243,753,-1038,-1088,-813,-395,-73,672,361,210,-419,403,365,-1221,92,267,-155,-892,1292,395,575,446,188,-708,-507,483,248,-782,-1145,533,476,71,-1191,274,1145,-24,223,1599,164,-793,674,-363,-552,-1452,467,-1056,309,-206,-180,57,173,277,-715,-352,2399,1677,-758,-456,621,-809,199,533,-583,392,13,-391,-842,-1018,-154,-287,-1509,-1306,625,733,-621,220,-365,953,471,-885,-893,-949,-257,944,280,125,672,470,-1150,1153,402,813,829,410,978,-232,70,317,-1178,745,90,-778,2320,773,-390,-29,-525,862,131,-210,-368,1186,926,788,-70,-1194,-203,1874,173,226,-291,418,54,-187,-142,212,-193,412,1114,-25,530,1971,875,472,-509,-177,-1088,-1038,-572,-388,-209,-905,-680,177,-417,-779,-91,-277,-535,446,-1029,-384,39,-1081,-1232,-403,-577,-1156,99,-1733,-997,-718,-1356,-1241,-768,-816,603,-713,-364,-407,26,-780,-742,-238,145,-411,-776,279,315,1248,-522,-1154,456,1037,-1313,377,-125,-825,-298,-475,841,-398,-246,268,-675,202,-1490,-130,-335,947,-713,-693,1131,2185,-824,-296,-630,580,-1063,434,401,791,230,320,257,183,411,-1552,-119,1238,1103,1011,-1083,-82,-429,1477,-87,-170,1146,-851,-259,-998,-1313,654,-100,-999,-284,13,112,800,542,-1067,769,946,-1022,-770,-1041,435,-478,129,728,595,-413,-1013,-911,-202,366,195,-431,769,-729,856,489,-253,-1334,-1137,-608,-592,-413,132,139,-200,-1250,123,1361,-71,-749,-1510,299,-393,-1422,-906,-106,-478,-647,324,498,35,1032,-371,533,574,211,-1205,-519,596,339,130,-243,224,-342,-74,-482,-646,200,665,107,-821,1640,189,1312,-893,-698,-2781,56,233,99,-254,41,1215,1024,338,-1800,-376,600,-764,-745,1073,524,-373,-335,-440,444,991,280,1660,916,-754,336,64,-799,1191,1123,-793,-829,-170,-150,933,735,-137,-76,-542,1004,329,1685,1372,373,714,-584,860,129,1342,-270,82,490,-63,3,-320,-631,-188,1770,185,120,-1260,-456,338,-848,-1030,947,-45,1362,1900,-233,-752,383,1260,261,133,374,32,-226,-194,-1124,-1057,-1030,492,-745,-774,-904,-154,556,-707,268,-1229,401,-233,-402,76,-299,-722,-616,665,242,-25,313,-471,-886,-1057,717,693,-6,-687,1078,-254,-91,1124,-589,-492,730,1493,125,842,494,-54,-19,666,-1048,-327,1034,765,61,1278,830,899,943,-98,-453,328,589,750,-854,-520,-867,580,636,915,235,867,442,1607,1874,-258,388,324,455,-239,362,-677,227,843,-296,243,-169,808,-858,-405,503,-271,872,-292,-132,-2054,-321,267,40,-400,-584,-157,1333,-30,-392,631,810,409};
const static uint32_t LSTM_01_weights_cell_dims[4] = {1,1,48,88};
const static ConstTensor_t LSTM_01_weights_cell = {&LSTM_01_weights_cell_x[0],&LSTM_01_weights_cell_dims[0],0};

const static Weight_t LSTM_01_biases_cell_x[48] = {730,-389,-1055,900,-1258,-1932,-978,-357,1083,-1487,-567,-5,-414,102,-1663,1090,577,338,1135,-757,485,276,-1658,134,-1567,950,361,772,67,-541,623,2,78,-113,-498,-663,2427,1118,-547,468,850,65,274,-107,1481,-173,-150,2354};
const static uint32_t LSTM_01_biases_cell_dims[4] = {1,1,1,48};
const static ConstTensor_t LSTM_01_biases_cell = {&LSTM_01_biases_cell_x[0],&LSTM_01_biases_cell_dims[0],2};

const static Weight_t __attribute__((section(".weights"))) LSTM_01_weights_forget_gate_x[4224] = {-32,-142,-434,107,-546,-945,-412,800,-758,-825,-707,-163,-915,-884,-1538,-384,-851,61,-1095,1142,511,444,45,-312,344,540,-633,378,137,-1110,203,-853,963,624,813,109,-168,-24,313,210,-572,1524,-2408,1701,2,94,-13,-1060,-256,-1295,-357,-525,641,-210,137,542,388,1716,-113,-28,898,981,-707,-151,1216,330,781,1110,-572,-768,1545,-942,170,1132,1065,-718,-147,1266,-278,398,-460,1242,281,-1006,-127,628,-602,-497,169,-17,-720,-22,610,-909,-643,-187,-1202,-1733,-2202,-1002,45,-1408,-215,277,-1342,-1449,-1567,233,-839,174,586,-501,-1471,-1205,83,32,-63,12,-642,800,932,-713,604,-957,-1220,-103,-1048,-259,244,150,630,786,-1021,-179,-642,-265,1089,-923,-75,262,219,45,-321,324,596,-1289,6,22,-261,1083,-827,-768,-959,-563,611,705,95,312,9,-1197,533,-222,-848,276,-1073,-514,111,117,-1083,885,-1199,-1327,-1090,238,-543,-1019,687,-619,-1001,900,708,368,784,-93,-505,-860,644,1247,1333,1242,-120,-346,-514,-454,-1134,104,102,-1078,-680,542,138,98,264,535,-691,405,-645,-1062,-321,622,979,-897,254,-408,-865,-636,487,-804,-666,56,-309,681,-729,235,55,579,531,236,713,-1610,-187,7,-103,-1647,-213,383,101,1292,206,-254,-1652,-637,250,-829,305,-765,873,-388,-194,-1409,959,-256,280,445,-791,835,473,-679,259,581,-1527,-324,1514,428,817,587,-427,-800,565,-586,-897,-107,961,418,-593,-404,1071,327,354,-939,574,460,785,-190,-874,-42,-389,113,7,570,-924,640,912,-852,50,981,123,-1115,939,416,308,183,173,726,-938,353,1705,148,402,-336,-35,413,1019,-606,-513,-553,934,-1047,-693,-898,180,40,710,1009,-743,-62,-341,569,-1371,-125,103,-693,-466,-151,867,276,514,-1304,808,-668,1386,193,-350,-934,-765,72,-452,1847,-98,-505,-420,-253,-726,138,-28,-601,-774,-142,-289,-289,466,289,-24,711,-893,455,872,444,1019,282,-178,-253,-84,572,-1204,376,226,1307,362,163,-87,380,1111,680,742,-857,-30,262,950,-645,98,790,-108,-71,544,584,-1292,208,-25,547,1326,23,-698,581,34,578,-1097,711,-721,-73,-934,490,-132,697,303,840,-646,264,1131,730,519,678,304,322,1620,543,-1313,-712,892,2452,-69,59,-120,-19,1709,427,-52,-2594,707,1637,-273,537,287,-567,-372,-776,392,-654,-151,650,766,342,-23,175,226,723,-818,-183,-747,100,1066,933,957,165,-134,-368,1122,1626,1006,882,371,1143,1373,201,966,55,209,1024,628,654,937,1605,901,1245,-1342,-915,-828,-250,-56,-989,592,-352,433,451,-1763,2669,-1124,257,1226,-1244,602,-1538,-545,-134,-1162,697,-444,1072,35,37,407,-451,1197,699,-575,-1095,145,964,2114,-216,512,1591,239,864,210,-740,1200,110,-634,120,8,-1027,-1808,-903,67,-415,827,188,-757,231,-969,-768,-791,-1025,451,-1228,220,-160,368,8,850,57,209,-626,270,124,843,-446,-110,792,505,962,-585,-193,425,-843,970,487,-498,-771,-79,566,-501,-1030,-119,-372,-249,-772,-255,45,-267,167,-1175,794,-187,-189,174,-911,-536,-280,137,575,-911,-346,1360,277,-1065,445,-1716,-451,-2588,255,-1325,1692,1542,74,1068,-1420,1035,-320,47,1083,-344,826,279,708,-373,-375,-1438,736,-780,-700,1231,-10,-536,-566,46,-660,-407,324,-657,-622,-1142,-1197,-1065,687,39,813,-582,81,-824,1253,510,1304,100,-224,912,1005,-265,591,475,-347,323,931,-976,241,-830,458,-449,20,-590,-136,788,-909,126,-433,1646,-448,-523,-780,558,-44,852,-514,885,254,-550,-104,3,737,470,390,-1232,638,-472,-113,-572,-754,611,558,-436,363,-696,-1695,-1322,-255,373,544,1060,820,-273,-362,-347,-183,598,213,-631,633,-873,1081,279,770,-421,-711,-376,-1469,1256,-248,283,622,-23,-127,-157,421,-1129,-2,743,-910,-985,-40,864,467,-364,492,-1179,-734,111,558,-385,-297,740,-343,491,-286,1215,738,-700,329,-101,230,1484,132,-842,-1176,336,-1079,134,-400,-121,203,-2385,-173,-733,429,643,-126,6,-72,-469,-374,919,-318,-404,-85,381,-605,-349,572,-1071,-1164,536,247,725,139,743,747,-3,693,-1828,-628,-1423,265,245,381,-575,-384,474,1738,1781,836,358,100,1301,927,-376,892,-50,-877,866,-547,682,983,-805,-1013,571,-81,-505,1272,931,804,542,-233,564,460,331,733,877,155,363,-1204,-243,-1254,-348,569,-298,-671,-612,583,-591,1207,-647,-251,-142,-2016,-324,-507,-1156,-18,-216,172,-390,-196,-788,711,365,700,687,-431,1799,-300,-510,170,-559,-1321,-357,220,-1698,-1206,-200,454,1192,-386,2569,-111,-189,-658,-670,-990,796,680,575,854,-430,888,315,-522,-908,300,834,1503,1080,306,-494,-693,373,-283,-164,555,216,1373,133,952,1478,542,829,-724,-1041,-821,1181,1056,902,-422,53,204,-472,515,1125,352,-525,814,-810,282,-1071,67,-1042,-650,-1162,-1119,52,-485,-204,139,672,783,144,-483,-830,443,85,584,-607,478,594,-481,-1326,55,-232,-1094,-696,295,-428,1239,-70,576,-105,878,158,-433,1215,1591,-261,989,-896,-483,711,-435,348,367,-1076,58,557,737,-456,-654,-896,501,700,-83,260,1419,961,-403,-459,-330,1312,1157,114,182,247,-433,-901,730,-71,836,185,412,477,-435,-820,1155,-46,-325,-412,1302,-352,32,895,1071,164,-403,-534,-688,517,-198,151,-180,-1331,563,780,-344,-1378,-414,169,-241,108,-399,1146,935,15,-906,-758,107,-225,-488,1108,375,-616,778,-252,852,1483,-268,-948,309,-664,1436,632,77,202,689,807,-192,-344,-665,-1118,1460,977,443,915,-834,422,518,625,402,120,713,101,-185,1142,-398,-642,986,11,155,761,892,-459,427,-311,-718,-1092,170,-644,-810,769,-709,574,205,382,812,601,1018,-1126,-456,-104,517,181,148,333,-736,1365,607,-285,-286,-790,-764,-269,-609,749,-718,527,-525,-616,-220,317,-107,98,663,1239,250,1276,-270,-357,-687,168,553,304,-1701,637,1417,-1395,1388,121,-387,-640,-512,-1748,-275,-299,-1270,308,-96,278,-851,-50,-1258,-810,25,-195,1284,-522,-372,885,-215,-385,-1242,418,672,-1586,-458,-1403,150,-1304,-1463,-760,-225,-874,653,535,-274,-388,20,56,491,692,-989,908,274,-528,378,-23,1456,697,1013,191,-708,-761,-181,-94,-692,764,482,-707,-107,475,-1460,-88,565,-1003,901,-92,816,564,-497,25,687,783,-136,-309,-904,-716,-994,-736,1068,-2127,-273,748,-416,-177,343,174,100,-16,-508,-88,-1027,23,-264,457,-462,-232,-720,102,32,-944,-22,-484,-419,575,-114,693,525,-557,-155,210,-802,-918,182,-480,-172,364,1199,940,1119,1236,-301,-1151,-12,-1086,759,289,441,208,-622,-198,-649,-767,-1270,-918,200,1188,651,-690,-1522,1974,900,-808,591,-123,-726,-430,-838,29,-684,595,1700,420,-509,1635,-63,-422,-511,-609,-549,703,152,527,1581,427,-169,-1916,1430,61,1023,-645,1448,-207,-729,-289,555,1072,561,1232,-453,-652,-842,139,-640,-285,84,-453,-245,-842,595,1019,192,-995,26,-953,-631,766,-8,912,1381,20,-769,584,-650,751,1002,50,279,-1476,-1652,-1317,-1289,-825,509,-461,-656,-495,1359,722,-490,-636,260,-1118,-630,-748,-358,-1477,-500,97,-919,604,-366,-912,-436,419,408,1111,-332,-1897,-863,-551,1627,173,-105,643,-820,-63,-194,-418,-1122,522,330,-862,456,-1318,636,958,312,-1081,-513,-2100,436,512,-41,910,1648,-842,-22,209,-102,1026,-907,-598,-210,-137,-561,641,-1058,313,435,102,-725,995,152,-487,175,-742,363,146,1033,-185,464,-920,-109,-206,-904,110,-299,366,-1803,-355,-6,-1673,-678,-1511,-583,-548,-1204,-36,-1680,-136,-1921,-2022,-774,-102,-861,509,-763,399,595,-83,-513,293,1054,-279,-525,134,-630,58,1164,800,-1351,1285,976,162,555,966,-747,933,416,-706,-1833,222,-1425,-627,146,-703,-491,714,446,-654,491,-676,-163,-933,316,-704,-80,194,1144,-1336,584,-1078,-173,-533,-950,23,634,343,-1079,537,575,-266,-354,1290,-87,674,-125,-534,-1009,-485,28,-383,-828,-1206,-1617,891,621,-1054,-1370,-78,810,841,-936,-949,-53,697,1458,399,1490,884,1578,-1644,-646,197,-1076,-628,1104,319,943,-116,529,-407,-196,-128,197,2083,439,752,352,1335,-1107,434,654,-391,-265,-782,-1112,-1238,-926,621,1121,577,233,-533,1585,400,967,529,341,187,661,650,95,641,-633,-1135,1691,-1044,-822,-1085,-373,905,599,6,-42,486,-1441,585,1023,-416,-490,1168,-288,-343,758,306,75,-479,-481,-294,-271,-1051,-353,-156,492,922,-155,1174,1357,1136,315,-627,660,530,-340,-984,-558,-986,313,34,-390,-268,-1613,498,78,701,-1445,387,-1092,1074,235,468,-186,1192,-74,297,-455,1532,-1184,-317,83,221,-427,-1021,-1105,51,-594,985,-924,-444,309,-598,-1120,-1729,309,454,715,845,-881,-350,583,730,-1543,287,-1064,372,43,376,-191,556,-439,-253,-395,435,818,-754,1045,-124,188,1204,-388,538,504,257,570,912,1051,720,910,-69,129,-396,-1264,435,480,237,-1016,-489,1017,-742,-714,-382,-317,-328,-287,327,164,27,125,80,-229,-710,129,-871,1291,-225,690,1158,535,738,773,-1185,-206,-379,1945,435,-586,-395,-340,984,-700,-326,170,286,-242,-558,-809,-103,336,668,518,-1206,-6,1069,8,451,-339,1398,1164,-339,309,-101,301,-1272,-252,1773,357,352,-126,1337,-683,579,-154,591,83,-329,-425,-419,76,-664,-326,710,-834,130,-54,-815,-372,464,1106,559,-507,1180,160,-108,426,158,-1006,-283,-282,-623,-54,39,-886,-1084,67,-235,-793,1794,1380,674,665,-269,311,-1630,867,751,-949,-113,241,-501,161,30,131,-648,1339,-1431,607,296,723,-1096,-2056,-591,1129,1269,-537,-295,600,407,-129,-1564,-489,-110,-73,-114,-326,59,-295,-1115,644,-9,563,1494,1045,-60,-191,1037,-161,1370,-378,-10,-198,666,1078,1291,915,1086,542,-274,960,314,-457,-291,613,-350,-725,-638,-667,-344,224,1246,1527,-590,202,-222,177,-368,376,-860,291,892,-396,643,-1033,-379,-167,457,-802,1399,-424,-189,-755,102,440,-824,206,915,2555,606,-376,239,-520,18,-57,788,1483,611,-683,-98,-1579,48,873,-1861,-1014,81,-1149,351,831,-568,-520,-1275,-836,643,102,556,-127,1025,322,178,700,616,-100,-671,-500,-1287,-399,475,495,948,-505,0,260,-109,156,-145,-935,93,-875,52,-800,-1207,-1053,-881,258,-579,743,-193,-730,366,-898,490,-35,-220,-643,-1122,83,-1192,606,-18,464,197,589,-142,920,685,-952,-757,842,-11,323,-397,-1131,1098,-598,-1532,660,421,-733,460,-291,737,603,-175,-58,726,-2080,953,-992,506,-90,693,-516,-1327,-4,-1600,-445,-622,293,-321,-460,-506,1308,423,-484,653,-685,1259,772,-1005,-568,-1157,-454,-47,-517,448,493,661,-660,-629,-307,-599,1129,802,-501,-972,-440,791,839,79,-830,-404,-106,854,-147,26,88,510,-128,1082,-836,1197,-120,88,1271,70,22,1096,154,1273,14,-661,567,753,471,-548,460,-103,627,829,89,345,-147,923,1056,718,38,-869,1856,43,-1477,-31,-56,567,990,-727,-87,265,550,-518,1213,-857,75,-51,229,265,145,-203,1005,424,2057,-933,619,-1318,1163,402,55,219,300,497,132,854,-207,-1120,-536,13,-1049,-56,-839,-933,356,-293,-1203,-1045,-983,531,-1071,-1607,-231,-286,547,187,126,-949,-1166,-879,1025,-120,161,-864,559,-844,-635,99,-857,-804,999,-56,374,-267,124,-296,-429,314,-13,1227,132,999,-1827,113,1323,-1339,-184,-172,-249,897,155,473,-472,676,1298,117,54,80,544,-995,-225,242,102,1095,-415,1018,-348,-360,521,-900,406,1284,-87,-1500,-1560,-1361,-713,-705,1198,-762,706,-2183,-27,-343,-872,312,-977,-343,800,782,1256,-233,716,1178,1023,626,207,-1144,-1432,-369,682,-41,250,-1043,918,-287,423,913,-503,-139,-435,-420,1035,-605,365,18,-247,261,220,-426,-119,520,-1020,-334,402,741,-854,-1018,117,1380,-614,269,-679,-1286,211,215,-1508,1034,787,359,60,-19,910,428,-608,727,648,-517,-1068,736,348,-673,-701,-1202,2068,-1923,-2530,-1504,364,907,214,-782,-158,-56,56,-691,31,71,25,-80,416,717,259,612,255,-460,-573,434,515,-613,414,-483,-312,-449,-589,-379,-1025,-1066,-812,-327,-16,1595,553,-926,-381,856,-148,219,312,882,-288,748,-302,-1351,549,-472,-798,-253,966,1004,-173,1398,-832,-467,8,942,-1270,1078,-95,-303,-690,-182,-1273,-1899,-218,185,56,-58,1051,1022,592,277,293,-889,133,-20,-359,468,1411,-768,1047,-344,-476,-339,771,136,170,462,-395,75,639,686,-233,-822,819,434,-33,1993,2474,-52,-290,-96,-346,470,-701,712,62,225,-123,-1457,-719,-100,-145,-539,414,-384,178,994,-73,-291,565,-732,-853,-1010,748,692,744,181,-721,-65,-1027,811,-918,568,529,433,843,-232,-46,-682,-67,-543,-25,755,-510,-77,1583,420,-50,-383,-151,-1090,-958,-60,-1111,-28,-1335,209,236,-96,-974,1894,-451,-1062,877,-23,-528,120,1371,581,1143,-310,-365,-842,280,612,272,-1322,32,-557,-333,922,27,530,-1399,-1331,-1598,-306,-507,-460,380,-206,72,760,364,327,531,96,-475,-430,130,1277,-483,271,110,344,1575,1334,-235,243,305,-441,-1011,987,771,-398,1221,212,813,-680,-710,854,1027,-353,-12,343,1455,810,240,195,-388,-14,816,-1634,998,-73,50,-132,-277,723,606,-70,752,-110,-1365,-2506,214,1104,-332,545,-205,868,-1186,-717,1051,-747,1918,-868,1093,309,-911,-725,-1137,623,146,-201,571,1080,-255,-770,-87,-184,1130,-189,1082,-38,-172,1004,776,-327,-600,-351,-962,-852,-43,1536,-318,212,119,1747,325,1022,1302,-877,-533,-1036,374,-33,-1397,674,284,-1150,148,-517,414,688,1059,-402,293,1364,560,-111,1204,-690,77,400,501,-183,108,-1182,-755,-360,106,1291,2486,318,1111,-536,211,506,-396,-43,293,1360,-562,818,1067,992,-959,-620,-65,-451,863,712,468,530,293,-386,-613,286,-303,22,-236,-667,60,-698,-199,1048,-425,312,-338,-3324,-698,890,271,434,-110,-529,672,-769,-210,-3,-1048,208,-659,530,448,-120,-1277,-989,87,544,-452,192,1409,-155,1139,19,-736,1592,1503,-1185,-916,-436,521,402,339,507,1063,457,16,-1385,-1172,802,-927,421,755,327,-442,160,1685,1113,865,-1148,103,1776,-2207,550,-1018,945,1022,-21,1376,13,-1255,253,-205,-2314,824,1344,-1220,455,-884,-886,-935,2347,158,-462,-1328,320,-551,-277,-1015,202,160,-29,622,-1446,-80,-412,-680,-217,-803,-68,-45,575,162,-605,170,-37,803,807,-254,1025,306,327,-700,-259,-238,-1075,-853,419,-558,-1068,-701,-566,-519,-178,-379,727,756,-550,287,-621,663,220,-337,96,-103,-532,-652,215,-428,701,1794,-528,-648,-633,395,-538,667,-1687,-435,921,182,777,-78,-334,-1417,-348,195,989,-170,-783,547,298,445,866,-145,-596,-36,289,-704,846,86,-301,-655,430,-724,-1026,-417,485,1132,102,-1028,-269,-1329,-156,-702,785,-46,119,-98,258,-1375,-21,-261,-295,914,-649,-34,266,-65,1346,-480,-38,528,-709,729,-28,883,257,-661,-133,-613,-925,753,-814,-153,-276,1125,1059,-51,218,1311,517,322,560,736,-1450,389,-1207,849,-743,-1992,701,872,-1377,-1552,-416,1042,47,-433,-717,1261,485,-929,16,-342,-401,786,-387,346,-233,-741,-87,-611,1766,598,105,-1098,1045,491,-277,-829,-51,-1286,-1760,-708,1124,-216,439,293,218,220,9,87,-140,-368,-743,-588,-992,-1059,57,1570,-10,-1691,385,655,-667,-102,-1309,-1498,-1293,309,-178,532,829,232,-337,1008,-292,231,143,1232,73,306,-583,151,-285,439,-1270,352,-541,-453,-462,1973,-253,910,1145,-110,891,281,482,389,816,-58,-487,1974,-64,-573,1092,-1534,852,-50,225,1192,110,-542,-521,658,781,-895,1364,130,1963,-733,25,362,596,242,572,-644,176,-46,995,122,-1454,-946,-390,-5,580,-1109,132,-384,398,-1161,-1049,269,-722,206,-702,560,-648,1209,1267,1413,1366,1091,1135,-587,364,1226,-487,1258,377,-253,61,732,221,-413,633,-585,-145,-826,-462,-542,-387,85,-705,747,-1106,-1494,-478,-657,329,33,684,-530,-869,-1387,1428,-395,1271,-462,93,916,25,564,-1257,-216,380,-1150,1306,1059,-210,137,1634,-652,101,802,371,1683,421,1650,788,-148,536,-613,-195,-203,-347,-1153,182,278,412,-845,267,-439,424,610,212,456,724,298,814,-1658,-1082,-116,192,77,-749,1713,96,839,-423,-983,-1588,-1638,-1266,114,-281,562,-533,-1327,498,-1337,-1123,-873,-782,-890,317,540,520,-1398,580,-392,-203,-1018,-92,-610,209,1575,-470,-627,178,-2137,-1358,-71,-178,-1288,1964,-535,-258,947,-814,769,-347,920,408,-1372,407,685,-950,-1640,-991,403,-319,298,-627,-156,-82,709,227,832,-946,105,1031,75,-239,714,823,-1413,-396,-113,-202,-1412,-1381,988,-329,-385,675,119,-532,-725,-424,-956,3,632,-329,-551,222,-417,-164,-341,-989,-200,362,-1381,-1210,-922,-689,58,712,582,-352,217,-149,-222,1418,807,1107,-637,1173,956,1305,1012,-341,-938,620,725,1968,140,-815,-1199,-763,605,760,-986,-153,-320,-251,1499,413,-571,-986,595,-422,-336,59,453,-746,905,406,791,-472,-680,-803,429,501,1254,-176,301,318,-76,1121,1840,1131,467,-704,514,1061,501,-1032,-697,2002,-387,1133,689,448,-1026,-1345,-1046,315,-620,-10,-729,584,-1514,-641,259,792,-302,-1454,359,-417,-1316,-172,807,257,-1486,-1188,-1103,-403,-938,502,-194,-220,-606,-973,273,-672,-1027,-536,76,416,-1687,148,272,-295,932,310,-492,-1490,473,620,-1768,170,855,299,881,-1686,138,-342,235,-293,-2718,377,1456,-1194,-171,-202,141,-821,-2640,222,962,-186,-487,-1428,-1105,-398,1104,143,-658,463,1099,1925,1252,-881,1702,717,-918,-503,731,914,-834,530,-138,762,927,-876,-645,869,-582,-645,-290,-1391,-294,-806,431,137,-1071,-136,473,1386,1002,-702,-583,-649,817,1086,-731,-306,167,1192,-215,-551,790,-49,938,-822,-1192,818,622,132,-12,-147,-35,128,108,915,-149,886,263,-751,-14,-844,668,-441,509,565,543,1317,614,-422,164,-292,-475,1953,-1121,-371,-1448,-527,-753,589,445,-765,671,146,1525,-344,-1364,-187,537,802,-614,-2408,73,-389,-953,-703,-483,1525,781,453,709,1364,749,416,-784,-226,-863,-340,726,301,564,1447,-105,-396,-249,441,-430,-1723,-692,-684,-967,-1246,-958,-726,-1307,-335,311,-183,-996,-591,766,-288,73,215,-320,-589,-1080,-1552,-1149,1572,1365,-665,-522,-191,-293,-1274,323,349,-9,691,-969,562,-2,-1482,262,-48,1194,1251,525,67,-659,-135,1548,206,-840,20,169,-2243,379,-135,-1552,-329,371,-895,177,629,569,595,25,-328,114,692,-92,446,93,-953,-895,-343,826,-445,-497,-474,153,-705,-223,679,221,901,297,275,792,-894,594,852,-954,-156,1244,-727,1014,544,-74,-381,-253,-54,-511,-451,-818,-572,-93,656,90,695,163,60,854,-724,469,1000,577,-178,1158,376,1646,-4,-1077,-36,-493,-346,1123,-37,177,192,810,90,-763,1405,-201,-27,-785,-1016,-726,465,-892,-1120,425,239,-373,-782,209,89,998,463,114,-516,-1116,-46,610,2,-434,-905,-1483,1292,1090,3344,878,551,-805,257,796,-208,-643,358,-480,844,-1073,-515,379,-1004,390,787,211,512,1872,44,545,1008,1247,792,867,-390,-949,1088,-417,21,39,-269,-954,353,256,-446,-223,-1402,-754,-548,445,829,511,-351,-984,-797,1200,-528,-1154,182,-500,2671,786,-603,417,1047,-365,-555,-57,1590,-876,849,1069,-1384,-789,1203,-472,646,-1023,-172,735,-663,4,-168,382,-766,-851,259,179,160,273,73,1143,-1255,-1129,-352,-188,563,143,238,120,416,-110,817,1419,-677,458,574,710,453,902,771,650,-204,255,406,-38,-684,-612,748,-673,-158,-1230,-688,1186,217,-417,-846,-1158,-260,-1140,-760,-736,-558,-1100,-768,-334,-1432,-660,1836,644,1360,747,36,329,-1137,178,74,549,764,73,-633,-354,-916,-1040,-336,371,-462,-516,-424,1139,-672,-1235,-63,211,-5,-1814,-1696,366,-940,780,-265,-1323,84,-2294,198,1344,790,501,319,-160,-189,163,380,-816,229,-278,-12,902,-487,718,1051,-862,21,97,-689,-389,1491,-83,430,214,273,-102,821,716,541,-404,1276,-633,445,-639,423,456,-711,816,290,1008,1800,-446,-175,1104,1278,445,2,-57,-1362,-817,164,-651,700,1402,1126,113,284,805,-300,-248,2119,1731,-144,135,466,697,-84,-40,-922,-1473,-833,-730,446,831,150,-396,-361,1641,-166,67,324,-1583,516,589,-87,840,744,-340,-815,24,1393,-548,-2437,-153,-34,-35,-2062,-1120,23,-1191,-236,-599,862,-667,-2041,-158,-1032,-793,434,-741,549,927,138,-1547,-1256,-493,150,1229,1433,-479,419,-495,-84,295,713,-500,342,254,568,-508,418,-327,-666,292,125,670,414,-896,407,781,198,-761,192,-681,-1243,1235,-915,-493,-617,81,495,-223,863,-1904,421,665,-479,134,763,591,-6,300,99,74,-185,411,-922,-73,998,490,275,-2081,1743,-488,1401,890,-812,612,546,-728,1362,-237,318,827,324,950,1210,-232,-1092,-199,-847,-494,-142,-1015,456,1356,-4,-432,967,486,1442,33,-1133,260,-1360,-779,-1064,-97,-743,826,-83,-619,796,-352,-550,80,-1118,770,-14,-277,-348,956,-570,-621,-349,-857,571,-1235,-654,-1391,961,-134,-453,-65,343,340,-1215,865,-973,816,-152,777,-331,-1127,-1448,244,500,49,227,43,871,-648,-9,4,1193,-341,-305,-69,117,-559,72,529,-985,-80,-462,545,-437,659,413,-302,1857,487,841,-477,530,-493,777,-1138,-1333,-528,1141,836,-23,1098,-170,635,1229,1313,-879,630,-355,-853,-254,341,-622,862,-707,-700,328,-751,1397,198,378,951,726,517,-250,-159,235,-133,151,179,143,2243,-1478,-603,-907,-155,368,-520,-1664,-51,-915,41,258,-753,256,386,509,253,1034,-498,-82,58,-563,322,-47,391,960,1147,-340,-17,60,637,-743,-737,-1083,-1976,-147,619,100,-801,-61,-701,-667,-238,-696,-381,130,46,-190,-665,-69,340,346,462,-250,-313,376,695,243,832,-775,-727,935,172,962,1110,-731,276,790,75,331,1080,1151,1194,-180,327,1314,308,-746,-374,348,980,1542,-195,92,671,-803,-480,1589,1163,296,606,-964,-281,-705,542,999,-840,1165,-14,973,808,-894,1556,667,36,-256,-527,536,750,-2497,1148,-1112,531,789,-259,-503,384,-608,1119,467,969,-1434,-180,1189,469,2015,-402,167,773,341,1256,1728,-989,1172,1219};
const static uint32_t LSTM_01_weights_forget_gate_dims[4] = {1,1,48,88};
const static ConstTensor_t LSTM_01_weights_forget_gate = {&LSTM_01_weights_forget_gate_x[0],&LSTM_01_weights_forget_gate_dims[0],0};

const static Weight_t LSTM_01_biases_forget_gate_x[48] = {2095,2003,1899,2070,2238,2488,2241,1971,2049,2197,2135,2123,1992,2120,2049,2090,1834,1879,2029,2089,2016,2080,1964,2193,2017,1986,2146,2078,2167,2158,1613,2009,2096,1980,2098,2360,2293,2216,2026,2085,2048,2080,2016,2081,2034,2134,2104,2543};
const static uint32_t LSTM_01_biases_forget_gate_dims[4] = {1,1,1,48};
const static ConstTensor_t LSTM_01_biases_forget_gate = {&LSTM_01_biases_forget_gate_x[0],&LSTM_01_biases_forget_gate_dims[0],-1};

const static Weight_t __attribute__((section(".weights"))) LSTM_01_weights_output_gate_x[4224] = {427,32,-558,-199,-1438,-620,1257,501,-745,-1516,-1586,-1078,-1183,-558,-1320,198,-889,-1368,-1169,-417,861,-204,1194,373,498,-388,107,196,168,185,-845,-599,-869,-493,225,-322,564,579,272,-1367,-1470,167,424,654,392,-549,332,1191,-1106,384,1009,-614,1610,-941,-1946,-713,-499,-1515,2286,-676,585,-331,313,-960,-534,-979,559,-7,630,-296,1392,-1177,-803,576,-1725,162,225,-1336,55,-1282,1288,-1086,475,-4,682,-99,292,-155,543,568,-669,-813,-260,489,-1089,-429,-369,-1634,-2077,-865,-1306,-216,950,-145,537,514,743,483,355,-327,-81,382,-810,326,755,-664,-418,824,352,-101,1251,1767,1119,-21,89,457,579,-10,978,-112,546,1225,-261,520,-819,-538,364,-250,52,-281,1416,727,-1343,1079,-315,-1011,-377,380,467,801,36,-605,-1355,839,623,1205,-291,535,753,1562,-646,14,555,1022,209,-494,781,1618,-782,722,-1709,1278,201,515,512,1306,-2147,-1575,530,1449,1273,1221,118,180,-451,1287,213,457,349,1244,-596,1187,-454,-484,-432,1086,1016,1698,174,347,1176,-179,426,1027,5,752,1093,-34,1099,1485,299,0,690,1879,288,-229,2802,1462,501,-620,540,-1277,-553,-45,736,-638,415,-653,485,-820,653,180,-404,-1708,85,607,278,609,-1328,986,939,731,674,-38,-210,76,411,-58,472,421,322,926,1297,191,-523,-697,870,-936,364,264,-600,13,709,222,-141,-290,1082,841,15,562,297,418,-26,-171,-319,-313,-458,-414,-1126,-523,-1545,-722,-452,652,1148,-665,-174,317,921,322,685,-811,462,-655,-1520,-113,443,409,-1310,-1031,-1928,-273,-1109,-233,461,124,146,-56,317,316,-1184,689,-289,409,-355,376,-894,-1190,105,-73,-336,-155,1623,-102,410,-171,-35,-1679,736,1002,201,-1010,-481,-257,-826,0,-640,-1613,-157,506,-1146,-1213,610,-143,856,581,-3,-772,-1055,1210,233,-697,1684,1444,59,2,289,-650,-1107,-1078,-1720,-1956,342,-104,-1284,-1364,392,-431,-867,497,-1056,-775,259,-1711,-348,47,-728,-317,-1575,-51,-1383,-1086,-390,-669,-290,-309,72,154,167,-976,-52,32,362,-738,-376,153,1144,264,954,-79,-356,143,-1454,522,-303,-269,-968,583,207,148,-253,-428,717,-576,-1648,525,416,-456,595,1046,-249,523,821,-1241,-757,53,-916,1417,-124,-412,751,573,-173,93,149,-24,-382,-798,-397,475,579,638,-84,307,-10,-680,321,-1129,-613,-89,398,518,-2,497,-1253,206,-1213,-548,140,-278,736,164,128,264,972,-273,742,-898,337,-1178,-761,-1059,-590,-178,-532,-1709,-486,-1460,-1199,-2313,-626,-266,64,-1209,-650,-946,-42,-228,-620,1066,-1170,646,-394,-201,768,-426,132,-1708,743,1076,-514,683,458,-903,1791,339,-457,-478,-727,-14,1116,972,468,878,-610,-553,-1179,-419,235,240,-1468,755,-906,314,1337,36,-891,-284,723,908,2239,833,-1995,-1212,391,-491,-1093,-197,-851,-3,-568,-316,-524,1129,-335,82,155,835,943,803,440,664,-529,281,-853,789,-235,-721,947,1013,1564,-410,781,-962,-890,-629,407,-145,859,125,-28,209,116,-175,1317,96,459,209,-1282,-418,523,-1019,-23,1013,1798,924,-153,828,810,-3418,71,-830,-74,-158,-1370,146,-146,78,-309,1277,-157,-1051,477,184,317,-747,88,-1320,699,-81,414,-34,32,-261,551,-435,-381,-614,-266,-113,-501,843,68,1003,-422,363,-893,-341,-1247,-1053,-908,-877,1104,-551,-800,258,1387,-75,110,1496,1003,828,96,790,-227,134,-123,735,-410,1208,-54,-33,991,1209,926,775,363,499,-644,1349,-52,-338,-249,-1091,777,-1071,190,-18,1890,986,424,1205,135,766,198,72,194,-133,-1189,-4,580,217,111,-807,-954,-214,-9,-1226,-890,324,189,-981,201,478,-504,-1991,38,853,-722,349,457,222,989,1551,889,-281,-301,1318,1368,-726,407,-228,421,2290,398,1331,130,145,215,152,642,396,600,404,-213,294,450,454,801,1331,-874,1182,838,-566,961,1111,698,756,1231,304,545,1225,870,1201,-369,1074,616,196,-784,-1327,-696,1450,871,-1267,-529,-947,775,114,-1795,1657,-1858,309,-1652,103,1688,-1703,741,1370,-794,1132,-139,939,-1273,217,278,-544,995,-936,-1276,-1850,1878,1112,-370,-2858,-465,565,872,1735,513,-213,940,820,-1066,463,725,-825,-1037,-51,823,323,102,235,-1068,-892,-884,-455,-867,805,-886,-1252,-194,-1207,-1151,-160,-730,-1147,-999,-831,-118,461,-965,-409,-629,-761,-528,-36,-280,-1040,-956,686,-459,-1175,1094,-1149,-500,108,441,-352,-425,-392,-1007,367,-156,1074,-929,1144,-71,-1150,779,798,606,-1536,624,242,798,-162,-536,318,-1300,-51,-1024,53,1019,265,-336,233,-1407,149,306,-212,-451,1039,847,-510,444,477,1231,530,-806,-601,-865,-784,76,127,647,1233,-96,786,795,551,-215,-404,462,-561,-1105,42,147,868,1084,833,387,-285,-423,-55,1044,-110,57,-325,720,-318,289,1419,398,261,-582,15,-644,203,681,157,-402,1639,-1632,-1276,552,-78,442,52,-288,891,773,-1035,1362,-80,-1014,620,-73,598,-983,281,-269,747,-714,-320,-1382,-634,188,-522,-517,-506,199,-172,956,283,722,-669,-321,-1308,233,331,1508,497,-64,1961,178,-487,-358,-575,-1630,-1489,385,-1016,-134,249,-38,38,297,-609,-213,1127,1436,259,-941,-287,-662,-31,-1089,1039,-1076,-390,-19,-221,-812,239,-1012,-1211,364,-1389,-1156,-19,570,-783,32,-436,-990,68,-589,-25,1096,-1367,285,-411,469,-811,657,1116,-1610,156,-578,-491,-310,-857,-608,-837,-1822,474,423,388,-963,840,383,76,-1,-1149,-1163,591,-153,312,-1218,60,1388,-205,901,618,889,322,-817,-1091,1717,818,125,299,-316,107,93,248,676,175,-408,-42,517,920,162,-1210,-676,182,-1612,-967,1122,-466,-1048,97,688,-198,1505,638,30,199,21,2,693,-1028,925,-294,-1028,-238,-1248,-143,77,683,-693,-355,734,129,963,-443,-202,-1103,675,-342,217,49,-338,-1394,-693,58,907,-798,-1439,-160,1687,537,766,2140,787,-1182,728,667,271,-30,2536,428,63,-55,-709,-532,-1381,-140,-344,176,-1461,753,-166,-2227,-81,809,-637,1305,-813,-1199,1922,515,-284,-1261,-252,-229,-53,-537,412,-511,485,-695,-512,48,448,-697,178,-548,-45,-771,-108,-618,-1267,-905,-916,-1453,-204,-1398,-5,158,-158,-770,-158,-369,-300,-327,-337,-411,1268,1047,898,-94,-422,1404,-322,11,1675,409,753,-73,1026,-552,-870,-278,-81,-422,286,124,-268,-625,-490,141,-248,97,-645,-1789,395,151,100,-323,1584,-175,-1284,-765,72,151,1102,-1076,-1151,448,-150,691,1645,-890,627,69,675,-142,475,-651,491,57,351,26,-1813,-2192,-235,-329,-7,355,662,-293,-238,-1913,-1271,-671,-2166,-1522,-1698,-690,-592,-1168,-1468,-643,-337,-542,49,-606,-1137,-630,-486,1203,280,-603,-468,821,-1058,-961,-1470,-1084,-454,-243,120,-1632,1205,-1079,-580,-271,-454,46,115,-163,538,560,-338,-380,-375,69,680,-1010,1716,164,-1209,-314,109,413,-1012,-667,660,1880,9,1216,305,345,158,-269,-1531,-786,-276,-422,318,25,238,927,-1080,1717,-1592,-748,179,-345,-1311,-721,-1522,-35,530,944,-883,-1540,-416,-985,-73,664,1149,1536,1223,-15,43,-107,-671,163,-1615,-833,-26,-1622,-272,-1712,-915,-671,-39,102,750,-769,613,-218,-1107,164,-153,-803,-1844,377,1088,-740,-1149,715,-1167,360,-1279,-1199,38,-485,-69,-977,-289,-238,-747,-15,304,-584,1504,-963,-571,45,736,-587,-337,110,-115,-447,460,-617,286,-292,-122,1479,-822,1157,1199,231,563,672,360,174,107,1087,715,-540,783,829,-133,-480,947,1270,408,-899,1691,285,383,-311,141,1139,743,-665,256,636,772,-458,22,863,401,25,615,-1075,-73,-1034,-943,-951,-1095,129,-1001,2,-830,-132,144,-1409,-1813,-710,-406,-1026,-318,-641,137,754,968,19,108,107,331,1414,-1162,-1812,-764,-1045,1235,96,200,661,-265,-780,-995,-55,647,64,100,42,591,-1313,914,1168,310,99,-685,-1485,35,276,893,-539,-629,-447,-916,243,266,-253,-168,165,-1336,-55,335,717,-1005,-1918,-1133,-853,-509,-1097,245,-261,486,1231,-363,-558,-450,-574,-720,-76,590,-619,92,-753,-303,1049,720,-101,207,703,-77,959,100,1770,100,1342,744,891,1602,2569,1693,1648,349,1218,-1133,1560,-1278,-450,302,875,-483,987,1057,447,873,480,86,532,345,415,403,-229,463,108,-1338,1125,900,1308,-106,1220,-157,945,568,1842,1047,-510,1076,-165,1434,1640,794,1203,-109,1118,-869,622,759,-1241,305,944,-1128,-938,1582,1269,682,1477,416,194,528,1283,-264,301,397,-542,-469,-444,247,-224,-203,-274,-880,-222,1283,1724,1381,653,329,149,1610,498,1329,431,-149,1395,117,905,-1154,-862,583,-702,37,810,476,-488,632,-321,128,-1057,-365,-746,-116,-593,459,-709,1852,-931,-321,-1420,964,-248,170,-693,-260,-365,-1261,-1925,463,248,191,987,-903,-775,1187,-41,236,-699,772,-371,599,394,610,180,1489,367,720,-500,416,692,1053,370,859,796,744,-372,-119,-649,43,247,-655,1100,-335,677,-249,891,22,888,-137,272,-655,-1488,-545,-1020,592,622,-434,-197,-546,43,-64,590,432,26,-1182,-609,936,-62,867,209,-222,661,-889,-728,-434,467,-983,-319,731,195,258,409,-300,286,-17,-19,-733,1930,-1025,-89,-467,-980,-1002,-1113,-72,-156,-1560,326,875,854,347,796,-41,-1860,-1171,1760,-491,185,-401,598,-1542,-5,615,-139,1914,-502,597,-644,571,585,54,698,-1138,-922,-1324,-823,-520,-906,-1190,155,-1340,-540,-517,308,-605,31,-1356,-951,95,-779,355,-476,-19,-138,-963,165,-655,-919,-1071,-969,-789,-1248,-362,190,-705,93,473,387,-1511,-654,655,623,-151,644,-144,-658,523,-446,522,934,158,-566,-524,-740,389,1533,-448,187,-438,-198,38,-798,1527,-781,-49,415,-1453,479,1642,202,206,-98,414,1444,439,-269,-348,74,-147,176,-168,658,-66,-1172,-266,609,-1723,-385,-746,-898,662,920,617,84,-993,538,3,1168,1340,1445,1507,532,1068,-959,270,-801,-163,-598,-472,289,-608,1097,-417,1297,1128,1210,322,1164,1226,642,-274,387,-309,850,-356,40,20,292,436,176,358,-811,-674,-1496,-1171,-1608,117,-8,-876,-1185,53,1694,-705,-421,-8,-1373,-36,477,700,-530,285,-650,15,-573,443,-147,-1072,583,-798,-822,-220,980,-170,1558,145,228,231,-406,1525,702,350,432,-735,-416,-1228,-118,-1537,-1198,2,-1534,277,-1385,535,-558,-246,332,-295,-634,-902,-60,-1545,-1173,-895,-902,-40,-1545,695,502,359,696,968,838,-1103,-947,503,476,-672,-74,-1440,-1136,766,264,365,986,428,-113,-140,-355,541,2089,359,-581,195,364,367,243,-1618,-326,612,-587,337,-711,91,1221,-169,560,846,-900,-69,80,-856,283,184,-284,290,-1110,-623,-785,2040,-531,-513,-723,276,-1390,-63,-625,193,-1405,865,-187,-1495,-1048,-1258,-1351,-399,-662,-64,237,-398,997,1210,745,339,216,-154,753,507,180,352,646,-91,338,-1063,239,99,-743,580,-445,503,927,389,-317,-92,259,-980,-64,571,-69,-1283,-1031,-51,-570,-685,-99,1160,1085,-549,-182,-1964,-1046,1390,-220,-706,-293,-709,1725,-560,281,523,462,25,-863,75,-617,-945,744,424,111,96,643,332,1421,-644,1677,-20,96,772,-272,-723,787,753,-160,761,-536,-1033,232,1296,-319,169,-460,-522,-22,-179,-413,471,-1527,-108,-1029,-1096,-568,-497,1152,440,-6,611,890,-151,1008,353,34,-27,1311,-340,269,538,458,-94,1008,426,265,499,171,-21,-408,-505,951,-613,1144,-566,1202,-280,354,-1433,-152,-1078,-211,-592,-576,2629,-219,98,-165,-1002,391,-1353,159,-202,1035,41,-242,133,1680,-574,526,70,-72,-188,221,-940,1341,661,1478,-283,215,-270,-134,936,1603,1008,994,375,1085,849,-27,-521,313,257,1473,-349,-5,-257,-830,539,263,151,-353,1307,290,-1023,-572,1205,-291,568,-882,209,449,421,-383,-769,1224,785,1061,320,1887,225,741,645,1648,175,1470,397,75,-344,571,1369,1142,1231,1424,-54,1013,1064,502,-326,896,1236,393,-257,-154,736,241,-939,-108,1478,-729,286,-1201,-1132,510,-222,-639,52,964,235,-42,410,-1522,-49,539,993,-1902,-88,2801,-1973,-303,-807,-1331,-1158,-604,1432,-1,1726,-316,-274,1682,1374,-829,565,-154,-319,466,19,-993,-633,-605,-882,-1748,-809,-674,-1585,-692,955,1128,133,161,63,582,387,814,248,927,-560,593,-1398,150,-1251,582,-447,489,-1393,-916,-1099,-765,-1025,114,-1430,124,1181,779,563,388,697,-943,35,-742,-563,-626,-211,-250,-85,-844,-2070,-397,55,334,1041,1079,-511,-814,394,-786,-735,248,1755,-65,303,931,20,1122,-47,593,-923,-41,155,-1138,-943,-236,393,752,-332,-1527,119,293,-480,345,1148,1284,-9,-776,851,-92,-1273,850,1076,-601,867,-844,-1307,-427,-474,1092,479,13,84,105,727,1281,1151,608,628,-811,803,1508,-67,975,-431,541,944,292,1225,20,-394,497,416,784,373,-889,973,-1140,202,-237,-348,118,240,1318,96,759,42,1577,-309,200,-292,362,577,-459,-170,943,709,71,775,-945,592,360,-474,-555,-394,315,-754,351,919,-926,11,-790,-519,1548,-653,697,-98,-165,374,-793,1368,-205,-1464,-519,-1327,-730,162,1125,1410,-157,700,610,-1318,-570,-843,-864,-956,-22,-782,-1241,-1349,-1461,500,1009,593,773,630,363,683,-547,106,36,-1469,-582,383,86,-104,-10,57,-833,-1367,664,282,-104,389,-187,290,1633,1092,1240,-940,-920,-525,-560,342,-1022,192,-686,140,-372,116,-642,-1426,-614,-230,-260,1710,-848,504,717,-4,-507,-1259,-7,-900,1260,-307,-1878,-505,-967,-683,130,151,-951,717,1056,895,520,-825,-211,507,-2052,-2217,-274,-549,-471,-661,-1476,198,-708,518,240,298,-959,807,1256,926,1493,-96,716,-1065,-1301,-1077,-1568,-1345,-1776,-1443,-1398,252,-1139,-1070,-948,542,131,471,25,-334,584,-329,1060,421,949,576,-9,-2053,-359,1479,-423,-931,-299,-380,-42,-12,887,-801,850,-50,990,872,-1361,-1475,1446,98,-1080,-446,697,105,1649,-543,1172,697,110,103,-94,-68,125,593,-359,540,1104,47,-969,-465,-272,-107,-242,321,116,-2448,-1193,1372,1839,486,303,1670,1383,1304,97,550,-333,-529,477,-387,969,879,854,478,731,1487,864,-167,1340,215,202,-558,1025,157,1690,477,342,608,16,20,1056,836,627,308,814,771,-771,-1202,1123,118,-752,-369,1369,1153,-681,497,-2163,299,656,263,-820,316,-836,-377,-259,108,-261,-231,-81,603,867,733,841,-298,626,121,384,179,137,305,785,-1446,361,158,934,610,170,167,-376,423,313,859,436,77,1105,-47,669,948,643,-473,294,984,1235,842,948,479,1164,-260,-397,1225,-483,-731,-3,-951,255,705,-566,474,1072,135,-658,-507,731,997,-729,823,-121,-891,270,267,825,-858,901,364,-682,1396,-828,-441,1174,17,-984,-916,1665,-161,-625,-317,592,-407,-524,-631,374,-989,-216,1138,37,-199,-74,1021,485,-1412,-81,1025,743,751,-103,-164,-1284,306,-206,-472,562,-660,663,-300,276,-216,16,238,-1040,-7,1112,109,-54,301,-645,-224,-1003,-134,-82,-1058,-1453,-119,-1218,-465,210,500,-265,1291,-503,-481,-396,166,-763,888,210,1076,154,1124,-985,834,-865,1150,-1001,-250,285,-297,-234,1045,235,1134,1264,-61,1145,407,198,-13,-409,1407,-727,1470,83,-799,909,-365,489,-1070,-1338,944,-1318,127,-712,254,501,-346,-593,-643,-1303,-653,488,926,-959,-365,-596,423,449,801,-307,79,142,-276,-72,-840,1518,-978,684,423,358,1135,-238,24,1292,63,-317,510,1065,-401,-168,-429,718,566,107,842,-1112,-323,587,-265,-806,-478,1017,76,1490,-55,807,765,1678,1882,1141,948,142,1475,-48,-295,615,1114,1446,-413,901,1576,1517,480,-1016,706,154,-1470,-359,-2167,-100,352,-1416,-762,-193,-1602,1647,-1140,261,533,959,-444,-292,576,-282,-1647,-165,-1106,388,517,-2054,35,261,160,357,891,22,1122,-336,1616,-115,-298,-151,392,1110,-982,164,332,-83,64,-575,261,786,466,563,166,366,259,-568,1131,-490,27,811,-134,461,-472,-137,420,-19,345,-441,1050,770,662,-909,-969,-635,-893,-768,874,-201,-1456,-1457,-1115,-1213,-1777,-1364,-1693,-496,-2050,-1555,367,-1027,-183,-688,786,1091,17,1041,86,-1645,-144,-855,-143,-177,-837,1025,-328,-1466,1448,48,1042,36,590,76,-514,-1417,-189,-1120,93,1481,-40,2116,1574,-2264,-1196,631,400,376,840,-647,-502,-467,498,-1129,-493,302,345,1110,-254,598,-767,603,788,-597,-622,872,1109,-659,-684,-286,557,-525,299,-937,-1393,-660,-410,-270,489,738,64,427,-931,828,784,369,125,-1195,-514,266,482,90,-5,-377,595,-161,1118,-574,960,354,-239,425,-1618,-541,243,-164,506,-486,650,-1670,1236,-389,-1006,905,-390,1464,12,0,1576,-1190,-1507,366,-1128,-813,396,1533,-1636,-476,-338,-776,-100,-153,-1358,-428,593,1575,-109,405,165,263,689,716,1038,-23,-1054,51,-612,-53,-14,469,-1286,-343,-1200,-664,-396,-1206,878,-168,-416,71,1312,-703,-504,982,277,-766,-304,-1071,466,258,-1424,249,-1148,-667,-1021,-664,-275,-746,-1236,-1000,-889,-1391,-99,-1523,-178,-1044,502,-439,306,-820,-549,-1263,-1139,775,156,-24,3,201,314,-1481,-440,-304,529,-80,-298,-841,655,621,303,-1262,-300,-837,119,-597,-790,289,-967,240,-554,-967,464,-1205,-302,489,146,-748,437,537,-741,40,123,-308,481,1818,83,1404,-698,-423,-599,637,-631,766,-818,-403,1912,1625,995,318,1068,230,1186,1619,1525,-121,-636,-190,54,-226,36,-399,1277,978,977,2029,-138,-168,1474,745,847,267,1027,947,513,126,270,506,83,833,-2090,-1255,551,1578,-147,-842,-218,-479,1031,111,-92,-232,-776,-318,-627,-1023,453,284,-602,1138,-923,-68,2105,325,-565,461,184,565,-1975,1,-1041,1280,357,-289,363,-1004,1546,245,-538,-330,-497,-1432,424,711,86,-394,-599,-32,906,405,-1552,65,-895,-495,-562,-640,-1398,-365,-1052,143,-326,-1491,-264,-1184,-703,186,-9,-340,813,-216,347,-653,351,76,291,827,1036,577,557,978,-902,-324,834,1178,927,205,337,-713,-383,302,264,-192,-714,-194,741,521,1034,370,-1411,917,380,-207,961,-966,-1160,-1181,319,585,262,-405,-497,-634,-64,1173,835,-1437,94,-498,172,2278,-831,-130,-46,788,-330,979,-981,104,49,378,-1735,-476,2374,2151,239,738,1245,-647,-170,831,1273,-688,811,104,1871,1118,400,170,1353,50,468,686,625,38,853,0,242,-120,-456,1034,190,-447,-344,923,1249,926,25,1819,939,1063,-284,-648,776,-78,1180,1542,426,-169,-276,508,1444,-147,-933,405,475,-501,-48,1975,-771,1190,-664,-12,684,437,-408,691,-1814,2096,-763,151,66,1351,997,1358,1533,-210,-881,-23,8,2548,747,295,-129,1830,53,736,872,-2306,1296,-516,171,1202,272,-761,-150,-640,-507,586,-300,-640,-127,-694,225,-655,-439,-152,857,-1217,-785,472,-18,-396,-346,370,-643,306,-654,1363,721,947,301,215,855,680,-395,-283,-992,67,-346,413,1410,-1567,-628,234,-1347,-1388,-879,-315,1571,-2375,1249,52,354,1161,-1578,870,-1272,1682,-1608,-444,1092,57,-931,599,321,1038,50,-699,851,1258,1012,1137,79,291,-273,-8,1423,300,2379,93,-27,1655,-702,95,-486,183,291,69,-412,-819,-1068,-181,238,-1534,537,377,428,-1518,-562,-565,-909,183,230,1101,523,-810,-131,-303,-680,-678,809,-543,-805,-827,-740,-1099,-1036,546,-432,630,-292,-563,-126,74,-177,-499,463,-742,-1026,-298,1152,-1197,472,321,-1152,467,-136,-414,-989,-272,286,-907,355,-332,1177,499,247,440,-849,-6,253,1405,817,706,-1316,-226,189,-877,-388,-793,-15,-793,294,414,-497,-995,634,963,-453,-186,-756,-541,921,-129,350,521,844,449,1164,800,-74,1025,1202,1380,-675,-1095,-814,-1386,22,74,670,943,-615,1535,219,-415,-289,-285,874,-901,663,-1721,-1243,601,-609,456,-1270,93,620,-930,1013,-547,-59,122,455,-110,448,-458,1712,2643,-29,-1405,-838,613,-1218,-1355,312,-934,1268,617,-580,-88,-566,-1021,-929,1842,391,-649,-334,619,-1826,-1386,-590,1097,-733,-333,-589,1743,-270,-1013,-814,-537,454,-1161,229,-275,-390,833,622,829,-28,-1218,738,289,-24,793,245,96,817,1184,1636,-636,-790,-595,-822,44,-353,-1254,184,-572,-340,-1129,-657,-1070,-1549,177,53,529,-1136,812,474,-747,341,-912,846,-701,82,529,-97,-620,-119,-321,-890,-1267,474,-1511,1418,29,-736,43,635,623,-393,-951,-664,486,1223,-279,-1125,-368,408,-394,496,519,198,-489,1451,742,-57,-263,1228,115,-452,326,-2894,444,773,-562,-1129,121,191,-1115,-107,-23,784,421,1335,525,467,-1736,-1572,669,359,155,-553,-201,-432,606,-9,-909,-1226,-884,175,-1315,-164,598,506,817,-1079,-581,706,434,-700,-519,15,-153,381,708,-891,-348,-934,1097,1060,-256,113,-23,251,309,128,1279,763,1403,236,1124,108,315,-302,-230,-557,446,413,839,-813,-390,29,707,-202,664,897,-1399,-1699,1153,121,891,517,-252,347,224,-714,1972,324,870,763,-225,-782,1243,-1609,-874,1137,1441,1001,68,-28,1043,1153,-1024,264,-1005,554,209,79,1026,-1127,338,-1546,-107,-22,-1724,-324,126,-634,198,1217,-192,-398,1264,-300,1051,-421,-170,-360,186,-599,-1282,-1605,-1129,-1977,-737,-1179,-1209,-1722,149,-636,-754,-156,949,-537,-1062,-573,-1452,-483,-673,-1158,-229,203,859,194,-32,-761,77,128,-28,535,-928,-370,-840,297,-204,637,68,106,553,549,-51,452,39,497,-411,-1094,1772,-951,-160,-1691,-994,51,463,1090,881,434,163,-490,-439,-1137,112,245,148,781,-1526,1355,1181,218,-660,-1317,-2355,-412,-787,-788,-487,-721,1069,-488,-123,252,-1319,320,-678,247,655,212,-490,-718,-216,-908,-1016,-728,835,-59,-1240,-1199,-1249,-912,-333,-42,528,-37,470,-1404,-1408,-843,-89,-757,-678,-354,867,-961,-1373,573,-783,538,-219,-452,83,-664,480,-611,-2019,575,-2236,-110,38,-556,-719,-1604,706,-842,908,-555,-917,-200,752,429,-57,438,-397,1171,-530,-863,490,390,611,-357,-1193,-127,-882,-237,-284,-1871,-208,379,-907,416,-813,-412,-915,4,-536,-1222,234,-1208,-312,301,-599,207,-21,-698,134,-530,217,-533,-126,-672,-1320,-497,-360,-1432,-662,-1101,-517,275,-1174,-1700,-619,-1082,-488,-537,-1683,-811,-419,286,-1696,221,479,1048,147,-97,-693,-257,-665,1079,682,457,-1061,1129,245,818,185,620,348,465,196,241,162,1396,388,636,-417,188,318,-685,-567,1002,1355,-443,430,352,-658,-344,540,1009,305,-497,-229,-97,-392};
const static uint32_t LSTM_01_weights_output_gate_dims[4] = {1,1,48,88};
const static ConstTensor_t LSTM_01_weights_output_gate = {&LSTM_01_weights_output_gate_x[0],&LSTM_01_weights_output_gate_dims[0],0};

const static Weight_t LSTM_01_biases_output_gate_x[48] = {-816,1567,804,-1523,-777,-459,457,1535,2253,511,-6,340,-1126,344,647,392,-1243,1933,109,143,443,624,-1787,452,2206,-1139,724,730,-1427,1185,1731,605,-222,1397,858,3421,-546,3311,-391,2619,3236,-272,995,191,1377,-1178,-747,-1354};
const static uint32_t LSTM_01_biases_output_gate_dims[4] = {1,1,1,48};
const static ConstTensor_t LSTM_01_biases_output_gate = {&LSTM_01_biases_output_gate_x[0],&LSTM_01_biases_output_gate_dims[0],2};

const static LstmLayer_t lstm_01 = {&LSTM_01_weights_input_gate,&LSTM_01_biases_input_gate,&LSTM_01_weights_cell,&LSTM_01_biases_cell,&LSTM_01_weights_forget_gate,&LSTM_01_biases_forget_gate,&LSTM_01_weights_output_gate,&LSTM_01_biases_output_gate,LSTM_01_output_dims,LSTM_01_input_dims,TOFIX(0.000000),tinytensor_tanh};


const static uint32_t LSTM_02_input_dims[4] = {1,1,1,48};
const static uint32_t LSTM_02_output_dims[4] = {1,1,1,48};
