#include "tinytensor_lstm_layer.h"
#include "tinytensor_conv_layer.h"
#include "tinytensor_fullyconnected_layer.h"
#include "tinytensor_math.h"
#include "tinytensor_net.h"
const static uint32_t LSTM_01_input_dims[4] = {1,1,1,40};
const static uint32_t LSTM_01_output_dims[4] = {1,1,1,48};
const static Weight_t __attribute__((section(".weights"))) LSTM_01_weights_input_gate_x[4224] = {55,-651,-531,-64,-634,-1275,-642,-735,-296,90,-86,-296,-1022,-796,-175,-681,-782,-26,-469,-128,283,161,55,-8,251,-797,6,338,713,277,-106,-196,-1148,-990,-590,-357,198,79,-182,-177,-117,-696,-636,-162,-695,-439,-965,-11,-596,623,-33,-306,1016,-652,-442,-978,-402,733,714,-150,791,-100,-461,-353,594,79,194,280,272,-90,-588,-402,991,-885,-343,-476,-234,-356,-59,-717,5,526,284,952,580,-5,-359,1008,1473,-80,-133,-93,94,-287,696,304,276,495,648,174,811,500,1136,279,595,277,-415,-572,-395,-348,540,-6,162,447,456,-185,-18,-156,234,-19,-133,-155,228,-311,96,48,-618,-748,65,-1181,413,-474,-1267,-879,846,-617,-528,164,601,-1017,-256,759,1087,-1152,-272,536,-89,-1211,242,445,-516,121,-170,331,-488,953,292,144,-696,-47,1952,621,399,-403,574,-662,1522,265,-389,178,364,-87,191,-213,-164,563,984,1204,1069,178,-60,709,433,239,1043,301,320,-287,-51,-659,500,70,-440,-349,51,-522,-161,-706,-838,144,93,557,584,12,84,-162,173,128,33,-533,427,-642,-573,-514,295,613,-368,858,532,735,-259,-99,-417,-685,-123,-293,588,-311,512,554,-539,168,-730,-113,-756,-102,-921,-988,-376,466,-454,-1762,193,-589,-148,-1089,257,-423,690,691,-65,-255,135,396,36,-74,-189,-451,140,-403,-6,-254,-195,-895,984,8,28,200,392,-157,-656,433,-300,-336,32,600,636,1065,35,605,496,-140,281,-190,-486,-1042,-809,-370,159,50,-334,-428,-523,159,136,-231,-212,-419,104,-136,-68,-68,126,-620,-503,-369,112,-525,-488,243,393,32,-141,-963,-246,-560,-629,214,1062,785,-896,710,-351,-145,268,-757,249,37,-619,998,-555,31,-212,-441,501,-435,640,851,489,-476,-225,280,636,159,295,1147,326,225,-452,535,-987,-186,539,1077,734,116,511,1157,368,419,850,1162,75,515,1136,565,320,-166,242,168,604,-189,71,755,283,564,-43,96,58,-143,32,-51,-122,280,211,-453,-272,-894,-637,-669,-27,331,-293,1304,1514,217,414,840,613,20,647,-47,-903,1032,-382,288,-391,2399,-832,-471,308,135,-1698,226,-674,28,-830,-598,-333,404,-316,393,1483,314,-1935,216,-50,500,-329,726,1149,-463,490,1047,-265,-166,-415,-547,1542,-390,-260,-869,-1318,-520,193,491,361,-121,606,474,295,459,-80,-290,153,245,-193,-375,-179,-192,-549,-111,-118,363,259,613,156,711,-246,-241,57,-14,84,-410,373,300,513,-15,80,-78,187,43,-226,-359,450,-17,-157,963,-1041,170,-1158,810,1028,-62,1056,-145,-416,-527,1442,-153,-19,581,-711,753,-583,958,-554,140,-92,375,171,-39,-338,-412,373,-53,681,-483,266,539,-685,353,-995,392,326,-433,-147,99,1362,2086,456,437,26,453,105,1091,625,405,188,830,431,805,-151,147,955,844,189,452,766,296,671,546,860,655,1179,1000,158,741,1841,1147,1591,1111,1005,773,707,830,1017,1202,664,678,-524,-327,1029,-567,-1286,-170,1106,281,652,105,155,340,-822,389,738,27,122,1300,-318,-834,409,-383,1133,-919,325,-1352,-413,-421,-244,-1119,-1077,315,-829,-445,440,795,-408,-686,333,-355,-520,184,-274,643,509,-414,950,2151,79,-488,-729,303,830,302,292,617,1384,1079,1318,582,84,967,561,144,1390,1305,1115,-82,468,1016,693,917,388,625,1245,1214,66,-106,435,337,413,-428,-217,225,1155,1078,242,-213,240,-162,-452,-67,534,-28,616,-360,687,-392,611,323,265,-619,533,-731,-200,-208,-23,-208,-234,-1250,-1366,-120,893,1757,76,-103,-627,-551,2038,754,-514,969,-489,-288,361,-592,-365,541,112,-607,323,-340,-919,670,1593,917,891,97,161,336,834,198,118,554,802,436,795,-11,221,942,211,336,283,40,-374,-124,-289,638,-164,-162,-47,203,558,-407,-447,324,487,122,359,444,-193,681,678,943,-60,301,769,-599,305,254,375,-858,195,-483,-5,-317,-468,-530,-75,307,-713,-49,411,254,-818,399,-155,-1076,-423,177,-170,-627,-21,136,103,-596,50,264,222,252,851,104,569,1056,-161,110,-636,-324,64,890,-363,396,-804,-485,1526,791,358,473,-411,-186,435,163,491,348,-221,616,21,-235,239,-113,-249,-155,-85,439,774,1332,166,834,89,897,676,423,618,-48,504,958,1624,859,1158,877,4,-418,218,-505,-785,722,897,123,-857,534,-220,610,-304,-359,-416,275,-328,689,431,273,207,717,-288,73,-58,480,-75,69,-204,13,-41,-631,-309,292,-290,-1026,-493,538,744,-96,-217,94,-632,241,319,249,133,-696,1350,548,420,811,-262,1110,234,744,-107,10,3,-576,-100,301,-872,-847,-763,-525,215,41,221,232,-575,-60,568,517,774,465,487,-392,-39,172,-140,-566,-241,-778,-815,-125,-29,-191,302,-555,-978,613,1022,646,408,-337,322,-324,673,-652,-116,845,72,620,-281,-112,-1449,-1084,-243,-1061,-280,618,546,332,3,-1389,-816,-161,-209,292,-573,-134,465,717,-53,439,-956,296,63,-422,152,-516,-872,-82,683,44,-335,510,-103,289,-2,-33,-569,83,394,-422,-98,342,415,694,704,-149,195,394,616,262,-378,129,449,574,-315,-180,-219,546,-134,715,114,16,-33,-507,-235,-24,-584,-297,-110,-93,10,437,462,104,804,-131,-30,-511,196,-709,-263,-1360,32,-239,156,-233,499,602,-49,-123,326,667,-530,711,-12,-223,729,451,507,377,652,-1238,-233,-261,-716,659,204,1407,-680,286,-794,54,1397,-310,193,24,1083,679,-388,132,306,-687,-367,435,416,998,1141,89,-550,219,-704,-287,-715,-775,-928,-880,-152,-112,-101,-1160,-592,-179,-242,445,-382,-27,190,1039,-48,23,-435,144,292,659,175,-128,-157,-73,-239,-134,-224,-594,18,146,4,-149,27,-1029,197,57,-494,-439,-214,-4,44,356,-369,638,-534,871,-726,805,-311,380,-251,59,129,563,-190,-130,-711,286,1416,649,982,-382,-551,439,379,-876,-198,-991,-237,-603,299,-195,-362,-51,464,1476,1248,862,-29,18,-32,143,-167,468,685,-233,-544,467,-57,122,-21,317,-787,-761,-240,47,-366,543,379,497,-82,-781,346,-549,422,256,-45,227,543,-477,-16,301,-333,-2,182,366,-238,-57,8,-1148,234,-636,-302,-103,-269,373,166,368,201,249,-4,795,762,-1117,1160,984,-737,-609,-266,-145,573,-206,646,-143,-739,-252,-119,139,-76,-1072,5,28,-426,311,-1507,134,290,293,-172,-310,926,-927,538,322,275,-649,-366,-164,491,9,292,-697,75,-346,-160,17,-26,781,773,-47,-568,-385,-929,-10,-38,-719,-66,-136,-405,301,131,-315,-998,-231,193,-141,614,-212,-33,486,413,616,-86,-1187,474,-875,-319,-525,329,182,-544,1140,-485,-805,1222,109,730,-325,490,-453,525,-1063,-441,1511,-1212,-553,-1759,253,-397,580,-507,-109,-194,498,658,545,51,303,1073,-317,659,-562,-29,558,-567,-252,-1121,337,295,-893,-2243,-546,1216,941,909,412,264,1489,435,163,65,-278,301,565,131,987,660,670,-216,-77,-37,165,-139,124,599,201,-351,301,-114,-291,90,-536,93,138,-308,375,-286,62,497,460,120,-1225,-76,-334,292,1217,-494,18,-559,476,125,-1277,1309,-417,-371,213,-276,-976,-179,-6,-681,-457,1590,664,-512,894,103,-867,520,-601,226,-311,-324,-1100,401,1233,-29,-1126,-45,29,126,34,195,421,557,-291,-153,-318,1488,1192,739,70,-820,-224,-1732,374,219,-811,-282,4,275,755,427,-467,-305,-149,-885,-481,211,536,140,20,-641,-225,20,808,-14,523,-5,451,324,303,447,809,1108,589,198,752,-366,-474,-589,-298,-251,482,-100,-507,-66,99,-767,515,-134,112,205,362,429,-250,487,1215,282,130,509,-509,383,-6,-258,-360,7,399,129,578,-1132,-454,-768,97,-5,-930,1,208,-1,-117,33,54,-226,-637,1296,-134,1001,403,-121,-300,174,-66,-297,478,-183,-14,503,346,-157,332,-495,455,-56,325,-150,-495,-390,727,-25,-320,179,634,824,447,807,1174,789,19,640,811,767,474,652,727,1313,1319,-246,-342,-75,477,40,-511,-453,63,1003,-502,884,-658,-481,560,383,-480,-240,397,820,54,184,-370,-721,-1151,-12,259,-426,1582,-339,496,-744,407,-66,1550,133,-865,568,-451,-350,927,-407,-514,38,130,-95,678,-1338,294,460,227,151,-18,-35,-397,788,1225,476,-215,-465,-542,-566,-449,-475,-1305,-1115,-508,260,461,-325,-28,429,-341,-45,503,39,-69,563,390,-168,-300,-55,263,-322,395,-489,-956,-946,-678,-351,-545,93,-526,488,260,253,-242,-497,413,-63,419,375,-18,124,1040,-430,918,814,624,-278,-276,-362,366,369,786,-133,176,-3,-367,305,774,63,-480,171,360,643,-272,544,-1005,697,254,-583,637,-614,-215,-101,745,-381,-751,-543,601,686,526,724,109,347,1107,-71,-560,-58,120,180,328,-91,567,542,129,-271,534,46,260,-292,86,37,-104,-289,362,34,-370,25,255,-61,-2,262,200,1399,1515,-319,1324,211,841,-288,-416,-216,188,424,-325,-49,-187,-390,468,69,707,-1235,-603,-115,-73,-821,-294,468,-73,-369,-1379,-118,-351,-403,-162,1293,323,-608,15,-61,1016,454,759,310,-293,529,58,-787,-197,1613,281,319,437,1628,811,782,490,508,-92,500,112,638,332,309,28,242,735,66,161,0,530,735,-155,-388,306,-148,330,439,706,722,702,799,74,574,245,448,228,642,318,701,427,181,292,146,-1165,-715,-474,195,-1034,443,1081,-1019,276,-572,1224,833,54,359,-621,136,973,487,1048,484,-372,1,-721,-109,216,-14,536,86,-633,-987,518,658,483,-509,-54,26,-135,-7,-809,-348,-730,-30,157,-459,1658,963,-854,727,63,-133,-180,512,419,-274,-318,340,-547,-1004,-595,-321,153,-306,-922,-33,278,-67,134,452,-298,59,382,-20,547,152,684,393,144,497,373,167,397,-261,-400,536,-20,122,-533,-626,118,-286,-278,905,-1342,393,400,-266,489,268,923,898,659,-202,865,-977,-430,634,-560,-426,-254,-651,-785,300,-1094,137,-340,-185,-438,386,1145,129,596,-569,80,-761,621,682,-1157,-75,-320,-303,-551,36,-24,341,837,417,124,-761,-867,-289,136,-727,-703,-220,-551,-404,763,-18,-786,-920,-606,-977,-674,460,323,-15,-212,-947,-505,17,424,-23,75,-767,224,222,58,-363,-357,223,-559,-428,-221,-691,-564,-188,103,-582,-548,1208,-371,-675,245,892,-322,525,879,203,800,183,-101,-487,306,564,791,302,-1182,-637,-1252,-117,-781,-85,1053,767,-834,374,372,-1445,-318,-412,143,106,658,-915,93,-399,-1146,76,305,243,1298,-117,771,346,16,78,-373,-262,449,67,31,-36,-463,-518,-13,-372,352,-33,103,-221,-204,-509,327,342,350,-64,-189,-713,-713,-8,-227,-889,-724,-183,-561,-644,-701,-313,-803,184,-332,-163,-840,103,273,501,-383,269,-38,-513,-1096,-7,1640,-998,220,-109,215,-120,829,210,631,147,538,-64,-112,821,62,445,-650,-602,-356,-392,-156,1124,-57,-329,-715,-365,381,1259,647,-1233,-542,-515,-370,567,185,-535,202,532,626,83,-970,-740,-430,-362,288,-586,-832,-137,119,-182,-527,-295,-153,420,-231,419,258,-313,-683,-242,398,297,-309,207,92,174,-300,108,288,11,-80,919,254,732,-378,112,-91,6,1013,-453,-167,-438,-823,798,1127,654,126,329,-571,963,-59,216,-584,32,-1049,-30,87,-152,386,638,-329,-394,-553,-376,-354,-1067,-518,0,-510,624,56,71,251,335,-586,-115,-655,-712,-94,659,-553,-60,286,-580,-127,-701,424,422,-11,-615,704,396,215,549,-28,473,-205,-262,629,483,20,58,530,237,142,-535,-269,110,46,-145,132,-572,129,-480,-442,-276,-577,-372,-237,-729,-19,116,-226,-69,-732,-458,-933,-743,-145,-569,-957,-927,-370,-298,-90,-993,-488,24,779,710,-461,824,352,-435,-322,658,-1149,-12,752,-134,-699,-813,-476,-226,-308,651,667,-71,1207,496,636,1247,-417,-140,-464,157,-664,-1521,1253,63,39,-850,-546,325,835,1717,-105,-961,-368,-335,-40,-493,-348,-717,-86,-656,-409,92,-357,-198,-293,-979,-471,-508,124,-436,154,368,282,-247,-216,-676,160,-75,73,45,297,297,58,135,-548,634,-327,365,-739,1063,-1086,113,-483,-64,42,303,-530,1410,-166,-758,1146,351,-538,-166,198,478,524,603,74,-356,363,-498,203,545,-40,84,328,92,-500,-956,-4,120,202,-436,-59,197,647,-15,-291,-289,-37,-1064,442,153,-610,419,810,-79,273,148,951,957,490,336,-11,-1001,-413,-266,552,-618,-220,-399,-35,292,-890,-170,-4,-802,-1262,-1136,-687,-375,-635,-552,45,-109,-764,-402,-269,-48,-320,-311,-323,-1000,-683,-648,-545,-266,-756,-341,-677,-1574,248,945,578,-1221,-408,-1220,-759,70,-248,367,-813,-93,665,337,-1179,-671,985,-1001,1490,-395,1899,-51,-223,-941,1175,-354,1,642,-100,346,-1015,1097,695,1265,-333,-1109,1084,264,96,-1010,-1118,-975,-446,1172,-825,-920,-788,-788,-71,453,-201,254,703,578,-218,675,178,-220,-302,314,-194,280,-352,-204,-642,-1117,-1067,-148,-136,-244,-1,211,-108,-732,-426,-1042,-396,-284,323,49,196,-348,504,1006,148,37,-584,-505,-108,745,369,-511,-156,-416,-360,725,-245,815,-223,-696,1140,1127,-358,249,499,-1092,-701,-703,1263,-1417,608,-479,155,-824,124,304,-381,295,-302,725,-401,543,505,-188,551,370,-740,-236,760,660,403,1672,2063,1433,-110,399,582,917,1138,196,325,559,648,758,239,814,856,-211,-318,-170,-303,-355,610,41,938,60,109,260,-145,780,263,191,463,-749,590,1,570,287,394,8,-243,-267,757,906,-362,145,-783,-174,-1249,-622,-140,398,-348,421,-474,-1109,329,-201,-97,272,-76,-776,11,-626,747,401,-663,-1073,-440,-853,-641,45,-405,239,802,-193,598,-464,814,390,-409,314,1008,-492,-545,-592,-1490,-1308,-48,-328,-849,-146,-287,-463,136,-397,434,-661,-571,391,787,-54,-283,-642,250,-201,-304,199,-341,463,-507,164,26,-840,-747,-656,-749,-644,177,-22,-365,-262,-297,91,67,685,561,-446,75,-507,-482,1113,-147,81,286,429,196,622,742,1122,-1119,274,742,643,-56,-696,457,-615,-171,370,128,-396,-13,-304,-326,581,-118,167,-707,-993,-684,540,182,94,-25,621,-164,-270,-974,-71,-655,493,-238,1041,-551,-242,69,246,-554,168,971,790,857,130,-284,-282,-385,-496,-357,-640,-805,-184,262,56,-842,-963,-825,6,-568,-767,-434,-486,-864,-322,-687,-137,-577,-676,104,51,-143,241,-462,568,-99,-67,-157,382,-554,-804,-231,552,-410,387,-178,-135,1187,-373,481,-220,81,-439,360,98,-829,-319,-515,-528,117,-463,383,-1169,-8,618,44,-874,-636,-333,111,187,-605,466,522,-611,525,-685,-789,-170,435,165,46,-665,-137,484,575,282,-123,553,514,129,547,-255,-179,335,-83,-135,235,851,245,-176,419,428,-629,-634,-151,-509,-215,543,-60,-54,701,65,990,680,441,279,544,255,50,269,-404,118,-140,541,303,-1014,92,479,-107,-593,320,-334,691,-225,-910,-472,4,-982,-364,1118,136,-1050,-327,-842,-508,-362,432,170,788,341,-346,-250,691,181,447,380,-997,-24,198,142,325,174,-205,123,-5,3,90,-537,-441,-394,391,674,-2,307,226,-262,-522,295,187,523,533,436,12,38,-260,-276,96,470,179,-357,444,639,-335,-165,-205,-419,-653,-720,-123,-471,236,-652,-288,298,-276,275,-114,22,190,-446,-451,-199,-421,-138,-1081,189,-215,-299,260,-260,161,-210,373,47,297,946,922,525,-66,400,-734,565,129,239,829,-354,-519,-487,564,862,660,516,-566,-1690,-1000,958,858,-232,18,-798,-25,1107,-79,910,-214,-1060,230,-650,575,-675,311,-257,229,829,580,990,634,-176,440,-811,-411,-1014,83,-417,95,696,650,544,232,174,-62,-233,214,313,-491,-435,-810,-203,43,-454,360,-307,-110,87,131,644,295,864,454,286,1447,605,-646,0,-69,-311,-149,846,-1736,-190,-80,-717,167,-46,1184,-831,666,895,420,336,398,-503,-550,-265,-474,-1366,142,-63,-162,602,-376,-118,-63,-553,-299,181,-96,-152,-141,-748,1793,114,-373,-189,-179,-614,-88,379,252,-12,323,-307,12,-790,-344,-711,-528,-316,105,-113,-462,117,-675,-98,-212,-443,79,20,221,9,565,-405,-752,-712,-918,-321,-581,86,-326,-561,-97,-587,626,885,976,1023,1446,1498,1813,-580,-271,-40,315,360,405,506,925,-29,-286,535,-607,-248,-393,64,-892,-90,602,399,496,-1215,-169,-320,-452,-693,-971,-443,-304,-262,300,695,-1041,23,-369,-380,230,144,156,-395,276,1421,-133,379,26,-689,-716,273,27,-396,-771,-104,-191,542,602,325,344,250,275,290,-589,-1161,-426,-1271,-1085,-1183,-730,-1057,-390,-359,-158,64,-266,-177,215,15,-86,368,-326,-182,195,-302,136,373,-242,-373,-218,27,570,239,-549,700,58,-630,454,564,762,-1179,631,-785,-82,665,975,-200,442,-469,-24,-17,-493,-763,527,-616,-204,32,294,-512,717,-187,971,-704,-133,186,916,337,899,-591,-226,867,-267,-81,1957,-989,-600,52,-204,642,862,783,972,648,116,787,163,-394,-403,228,-367,127,-223,346,-345,234,623,421,-550,-511,-92,244,725,-20,238,-84,154,540,-289,829,-110,148,-179,-42,288,508,170,492,-655,-846,-831,1020,-498,637,-1170,696,-765,733,114,-299,619,-617,20,967,-131,-741,-28,-574,-684,1388,595,-1559,195,68,-769,-330,113,-921,168,183,134,-890,-368,-209,149,-94,706,262,310,232,-955,-130,-887,-1248,590,-870,-1567,1213,-230,1270,287,332,-47,614,644,546,24,-436,346,-784,-454,446,-51,156,563,123,-701,-295,-1,203,246,-660,-247,-766,-339,-360,-791,-593,-321,-191,26,236,-186,47,-288,397,125,-593,-568,-298,469,-510,-585,-7,-127,-741,598,576,-702,-59,-42,240,52,-510,52,83,620,-464,-587,56,-48,-158,512,-569,-94,-28,510,-839,-268,173,1131,1161,270,-242,-1,202,599,-183,-133,516,-247,486,813,87,-898,-4,-762,-1079,-557,471,572,-158,111,122,402,-405,-82,-640,195,-452,-60,418,-201,549,-490,-543,-675,665,658,204,422,-174,850,428,425,-403,-199,-251,-167,-403,77,-450,131,-236,401,-281,938,-1429,902,117,688,240,-577,-117,-302,-170,-797,109,-260,299,-904,481,82,240,-142,-9,-753,-110,-505,-492,-1423,-185,40,-590,-636,322,-120,-812,-639,-1411,565,-198,-411,462,-656,648,271,-241,-497,303,262,-598,87,126,800,26,-10,-469,245,-293,-737,358,-76,-651,-432,-126,-379,-550,-196,49,72,-51,81,199,-713,318,587,316,776,-87,-228,-400,-146,1063,631,472,-284,416,-224,473,927,771,938,337,1318,-376,-429,1137,-510,-582,282,686,1194,-489,-709,80,-251,-735,-546,1376,320,258,-286,1770,87,-155,53,-1559,-15,-788,474,-1235,403,-508,827,247,-170,344,926,-304,-146,901,-958,0,665,-20,498,-471,-1429,-901,-1030,464,-189,-407,388,211,-471,296,469,322,286,-27,77,287,131,685,315,726,-160,302,-472,-114,135,-225,188,-204,-116,268,-337,702,493,33,467,-304,346,-627,62,-770,-1009,-995,-30,215,-195,270,88,735,-220,21,341,153,240,-168,-409,-1086,1485,432,713,374,1080,-78,220,838,-582,-1057,-177,14,-315,870,-109,701,231,-438,353,478,399,-1107,-5,643,-438,647,-65,556,-307,90,-414,-1446,-129,-415,482,828,231,-102,611,-580,-767,-123,105,-506,-332,31,1280,1060,649,321,996,895,863,587,-530,-298,335,1005,1424,326,154,907,611,376,930,246,-456,64,-216,-476,-210,-242,369,352,801,398,594,599,480,754,-403,73,-1423,-122,83,117,-513,551,892,1858,-120,-1298,-810,631,113,-267,-308,-321,-3,-1009,-726,-623,-1263,380,330,-1010,381,233,797,-163,1013,-974,30,-753,676,97,-95,-392,-643,-17,32,137,128,-356,165,947,858,-1035,-495,-1176,374,-345,735,665,624,-613,-157,365,38,652,249,-502,275,729,173,461,329,306,56,712,145,786,930,-15,424,-364,-15,522,-178,-314,133,-452,-183,-900,-335,-1033,757,79,-494,-3,-375,488,-193,339,395,240,-211,23,94,-26,531,51,256,-561,184,502,-492,-474,-48,-737,-854,452,926,-1562,-463,170,485,58,387,-826,432,-455,279,717,49,765,-380,692,-417,-282,-117,189,358,-130,685,1243,221,675,194,232,-394,-587,-225,-32,923,885,861,340,374,444,558,134,-16,-32,-210,133,340,-464,414,387,-231,232,669,381,805,301,838,837,626,460,239,333,903,145,538,-236,-159,-165,-185,-982,-889,-361,161,-75,15,-61,-220,-645,1461,606,-98,-359,-484,-824,195,250,-249,-341,-564,640,50,108,74,-319,1222,959,679,51,966,-628,512,-648,-397,245,-59,-711,748,686,828,-637,68,405,-353,-1093,-249,-496,-558,644,-116,33,124,-204,733,136,-55,473,443,806,369,-429,-516,-807,-338,-924,-846,-111,-1210,-303,-1248,-354,-974,-174,-450,-843,64,-16,488,-173,109,255,1146,-281,-198,558,230,177,470,-437,-379,1089,-545,-696,-338,-864,1007,-120,156,-633,1000,443,1161,107,-47,-769,-110,-572,-446,-330,-724,251,-179,330,-95,-170,640,723,376,534,543,-66,646,1368,-274,181,-265,769,-213,13,103,30,644,1052,494,557,-150,639,293,68,-300,-99,658,167,-484,-490,-456,-513,293,180,-253,212,73,-10,435,608,196,332,120,-156,-435,-159,-436,200,342,-358,91,-52,-465,364,-640,-545,-933,133,-84,-2063,-1332,369,-813,-1333,37,-242,249,122,-965,1662,670,-638,530,398,-2057,165,358,763,1295,688,676,-405,468,460,1236,-748,1164,456,1041,481,-455,47,1337,168,151,-814,977,-491,-551,529,124,658,182,-41,589,539,-77,-234,-160,79,-209,162,-466,-842,-1225,-817,-600,-72,-572,-551,268,-129,-793,-48,-501,-488,-421,-455,-841,-597,-869,-884,-729,-470,7,-389,17,-955,-1122,-319,-375,-202,-424,912,11,-223,577,408,-119,-510,410,82,673,-961,875,-1169,692,-443,361,-211,1951,-607,-431,432,582,206,399,760,418,180,-215,56,-385,-321,-1101,-15,-920,1054,77,262,813,-332,-899,-219,-491,-1614,-575,-79,103,1386,139};
const static uint32_t LSTM_01_weights_input_gate_dims[4] = {1,1,48,88};
const static ConstTensor_t LSTM_01_weights_input_gate = {&LSTM_01_weights_input_gate_x[0],&LSTM_01_weights_input_gate_dims[0],-1};

const static Weight_t LSTM_01_biases_input_gate_x[48] = {-41,-532,-1125,-1412,-1897,-400,1023,-1043,-1124,2935,-1403,-1647,-681,542,-315,1950,1705,893,-574,-715,1093,-577,-43,-358,365,-195,-222,-3129,-2447,-1352,-650,-173,-1585,-2630,-171,873,-1349,-739,127,-153,-2476,-1043,593,-1642,2300,-887,-848,-998};
const static uint32_t LSTM_01_biases_input_gate_dims[4] = {1,1,1,48};
const static ConstTensor_t LSTM_01_biases_input_gate = {&LSTM_01_biases_input_gate_x[0],&LSTM_01_biases_input_gate_dims[0],1};

const static Weight_t __attribute__((section(".weights"))) LSTM_01_weights_cell_x[4224] = {678,-468,-53,260,-461,-678,443,-235,360,577,331,-725,210,-378,504,344,-89,-13,123,-823,-481,-193,-577,-291,-109,-187,208,-332,331,790,33,-92,-64,798,318,823,919,342,114,-173,-255,-721,810,10,682,137,230,-198,-218,-1116,-103,55,1814,609,-585,573,104,-483,231,1030,-848,-629,-166,66,-339,211,1079,1038,-54,-704,-232,321,173,60,-912,784,408,657,189,-568,597,-428,-1011,188,-663,592,-391,696,803,550,-495,-167,976,805,799,325,237,119,326,-547,-690,-518,-207,-1020,-951,215,497,486,985,1043,634,227,905,1108,947,566,144,14,-224,-507,-721,-156,-22,-764,-471,-44,-582,-776,269,-434,462,861,431,620,-231,714,183,241,-136,242,-550,-155,-397,-76,-67,-791,70,708,1,22,36,25,531,26,-362,119,181,-207,132,103,-781,-426,277,-443,265,-36,-277,-342,-57,-460,-90,299,981,-258,660,-643,-465,-1565,-1317,-1504,313,268,166,-350,-609,-92,-96,-168,456,139,-256,-275,-467,-499,374,-460,-731,-47,454,339,-210,125,873,346,412,-398,303,213,426,-237,-597,-98,-198,-170,-244,256,-291,141,355,-751,-29,-330,1147,155,115,-134,-1196,653,48,-380,827,-164,259,-524,385,220,361,64,-253,-362,138,220,-594,934,356,866,210,49,-264,-346,590,-872,-160,756,390,-776,507,473,-995,-43,167,978,-206,497,93,-201,-58,-1125,-457,-851,-680,-543,-189,-132,-487,-408,4,-44,-963,-716,-825,-874,-358,232,65,15,311,258,15,442,-231,246,364,90,475,205,71,286,308,420,-551,-50,-239,210,-392,533,-149,-142,1275,188,-731,-111,698,-206,243,323,-567,-197,123,369,-286,-157,-1223,1183,283,-809,125,-277,1266,-73,137,183,-508,-112,-36,-776,-508,-325,536,-408,401,114,-583,-356,377,-476,655,85,-358,516,-196,-935,189,357,95,56,-107,-211,-621,-587,-1221,-983,-900,-569,-311,-284,-313,-62,-134,-262,-693,-738,176,-87,-19,360,24,-97,-252,26,128,431,-511,-117,-104,436,1010,897,1079,273,6,295,70,-99,-1684,-807,-594,-174,-483,66,88,1859,-514,-219,367,155,-290,-476,1074,339,612,-264,91,291,-1019,-789,-545,-328,301,-481,519,-213,-157,127,315,-1309,-841,853,632,-156,-405,-179,122,-132,214,1643,-1461,6,-287,378,-331,149,258,-52,209,-476,64,289,-506,-202,-51,271,-553,190,108,406,27,-220,-500,-251,-325,-688,23,-211,-1012,-669,-1236,-740,-890,-555,109,-855,229,488,771,617,952,694,928,703,-287,-118,-484,-233,403,-104,79,418,-384,668,-858,-411,255,-191,-728,53,379,325,95,-85,-203,1337,315,196,-751,1788,288,-883,77,404,193,44,-188,-752,-128,-164,38,-1408,226,-307,154,-218,-113,473,-847,321,661,-1099,183,230,249,658,-508,-445,66,48,56,-233,792,309,577,351,58,521,215,420,-490,-485,427,-298,-405,-339,115,-338,53,528,8,-203,-523,-675,-557,127,-471,-163,-1068,-205,-437,666,-543,-213,512,325,-971,-274,474,-154,-498,-412,1013,-656,76,-833,443,-695,-1106,764,-725,-610,883,186,-640,1043,573,1354,-602,312,725,178,-290,-911,1009,886,-514,-492,-222,218,-33,26,-300,1027,419,-219,-377,-520,-415,130,-661,-99,-734,45,-21,-252,359,439,71,724,711,829,1274,720,934,800,255,1110,-8,530,14,665,268,274,360,-110,812,320,558,379,216,254,260,503,-456,-18,280,-586,-678,-413,-1303,-443,267,-115,-639,15,433,466,-615,731,892,51,139,-429,288,-226,469,121,95,-1156,1076,-22,413,-318,75,-122,-650,-448,-414,843,320,225,-96,-445,431,-960,54,-236,-195,-652,-1406,413,752,17,-1515,-326,-407,335,1098,815,-322,-919,59,-410,-543,-710,-918,-699,-681,-322,384,-484,124,475,-250,-37,107,812,698,79,-388,-341,-2,-272,-540,142,-142,-232,657,-174,675,978,469,313,886,286,103,1170,-438,-59,-577,-362,874,554,-553,-498,105,265,405,-137,-213,531,-348,229,1239,393,110,1174,-214,-494,-269,153,475,-412,40,-577,-455,-479,385,-424,-769,-332,673,0,385,929,-711,208,361,197,-106,282,-318,-793,498,-421,-357,1134,139,-43,-119,130,293,-172,-71,382,1579,591,871,1631,1348,813,-548,557,239,-263,-619,-103,569,1375,1186,1607,819,557,1488,1026,189,-25,-183,382,-21,-245,-114,-645,-287,-909,315,109,312,307,486,-1261,726,-37,-80,336,203,13,667,-998,272,-378,-566,-438,-166,358,71,227,-241,556,714,-556,673,224,4,-459,127,-458,999,218,-279,-58,85,-451,302,-130,899,-277,712,168,544,-579,-245,300,445,696,-16,-693,-1007,-819,-1150,-742,124,409,25,923,1044,373,746,972,490,691,17,30,-196,174,-135,-350,-248,334,101,-421,-565,-321,479,535,-254,-256,122,-78,-474,277,1,143,-559,353,269,281,-37,639,-1053,-52,659,-189,-521,-220,-540,-352,-376,-731,-292,-122,-179,652,159,-125,669,289,-730,-254,-298,-1105,-1016,-56,481,-343,-15,192,685,-380,-770,93,95,187,502,-337,1606,-90,633,-96,-669,-142,498,118,211,-23,706,717,369,-249,-303,-803,-200,-934,-62,-756,-1243,-940,-460,-836,-194,-206,63,132,183,477,521,183,521,-336,-269,296,-67,-133,735,1025,278,597,209,-36,-277,532,109,-9,711,-415,812,-170,33,784,-297,342,-606,-147,208,367,288,-437,-379,211,268,-1253,517,255,-224,29,-14,-675,-289,118,343,-752,-19,1055,-551,425,-723,-296,282,387,-334,180,-296,-533,-98,-80,-503,188,257,846,440,-957,-568,443,227,641,-159,-124,532,975,794,-424,-37,613,219,-248,-422,204,-275,80,-555,-354,451,71,100,-70,466,679,-6,287,-619,80,-589,-539,-267,161,-173,668,907,697,114,-790,234,-189,-466,-624,658,1229,-478,-164,846,-1229,-287,-727,174,-471,1075,-801,-576,-80,-423,307,-393,-606,-958,345,-517,417,-38,-862,-799,-12,1190,351,-884,83,-327,291,-43,333,357,329,-56,248,-664,1103,-1180,1013,1181,266,-382,402,-801,88,-850,-248,-11,-60,264,-166,281,72,1096,1070,298,530,-118,-621,-199,-804,-504,-562,-667,-600,-441,-932,-1011,-275,-310,-96,-71,550,332,663,217,-808,-500,459,768,-589,-288,43,113,551,2,-575,293,-325,720,-389,420,206,581,-117,-537,1231,-317,837,1008,-968,495,-1266,-225,-809,783,828,-164,-498,-69,387,-277,673,32,-409,-482,241,-879,321,-144,-972,344,301,870,819,-710,415,-64,-601,607,-290,-269,-223,-944,-706,364,271,191,-333,526,489,195,63,18,254,468,93,-465,-269,-734,-190,368,-438,-79,338,-68,-573,7,-304,-17,152,-191,141,-920,-948,-796,-1139,-362,-1010,235,-1538,-1061,240,467,370,-979,87,43,-711,235,-287,-438,-569,225,-423,-452,-170,697,328,236,229,0,416,451,77,884,350,269,-608,1052,-199,-206,-474,329,-29,666,-218,235,326,715,-345,-487,-130,-270,-469,-768,421,958,218,727,928,1149,1475,1009,119,-1012,84,-108,225,302,-654,-56,-993,-123,3,-387,-620,616,221,16,122,-239,196,-91,342,329,408,-513,-217,-185,-496,30,-185,97,-1296,-262,90,826,259,34,-82,-140,140,-455,-1386,500,270,-146,1220,574,-914,-140,329,420,945,-154,-313,1152,-29,856,-101,161,562,263,-157,443,939,-850,734,208,-67,71,461,-867,-649,771,149,98,-806,660,95,-833,94,809,276,-163,-119,-282,-120,2,1322,575,308,408,661,781,1066,650,456,175,219,1004,1147,1393,165,776,907,565,383,895,34,475,330,201,-333,-385,-181,270,-21,-534,-1050,225,122,373,-115,-31,732,-154,-648,86,-1371,-760,581,-85,1110,-676,532,522,721,188,382,-320,-1379,379,558,-214,22,-389,-79,432,651,-407,562,205,630,549,757,-369,48,840,949,198,311,-833,-218,363,71,-243,842,-71,-19,1732,1407,284,-456,-719,58,-535,-1133,-634,473,-127,380,694,402,918,1075,960,108,-344,-280,336,-862,-103,-15,-461,-368,447,-16,-158,395,82,209,-82,-200,-5,-310,-694,-285,86,-85,148,560,-877,594,-64,-258,49,-1347,-885,206,-136,436,118,-34,-266,-118,395,245,-57,-178,484,-590,291,612,269,197,57,10,97,-770,-255,1137,-507,428,-399,-639,-826,852,-692,756,250,337,625,-70,1122,-232,423,769,524,-26,-34,-417,-133,-64,331,381,503,384,-195,-717,480,-182,-179,-707,-94,-583,-668,-406,-102,-245,-862,511,41,-239,273,-91,482,219,-164,-2,215,222,218,497,-214,43,-315,-107,-630,336,166,-743,-1128,-828,626,-1,-1592,-149,239,-101,950,188,671,-194,60,288,142,-861,580,642,-664,-1088,197,392,259,-531,711,410,135,159,1112,1094,953,-1027,381,191,197,432,-1072,270,221,94,-144,401,-563,234,461,388,-361,-382,-779,-661,-1514,-1269,-500,-647,309,-208,136,126,593,-209,-254,-25,535,-45,478,-356,-305,-146,-651,-813,-687,-361,-608,-223,208,-147,642,694,494,801,1073,928,694,840,-576,-395,-1360,-430,797,447,-688,-535,57,-101,246,944,-88,-448,-609,-785,1312,128,1296,-54,566,-27,-100,-19,53,-858,-717,-855,-147,343,-107,-606,-15,-139,218,-273,-30,-854,-366,-581,-111,-129,-181,455,-567,-104,-40,-101,571,786,-699,-206,-890,-804,-1276,-517,-786,416,7,-340,416,-277,818,386,1085,543,918,358,507,88,557,413,416,416,328,-140,-483,477,4,-136,-27,354,-205,-628,-851,-906,-913,-1643,584,614,-1252,92,-331,224,-817,-189,275,978,33,-286,743,-390,-227,252,1103,-753,-409,-488,-325,63,472,387,841,162,486,-290,94,-194,209,-285,78,-894,188,-315,305,182,145,-449,-320,-93,193,1427,-403,-123,-852,258,312,-51,415,-226,1297,1061,769,1308,615,136,-42,-630,-773,-581,-836,-839,-900,-539,-407,-258,311,-263,373,870,487,201,173,-342,210,-470,76,-313,-517,-439,-597,104,-411,599,117,-72,1129,227,429,-483,-74,-646,223,-520,-22,225,-259,-293,406,284,500,277,381,491,431,-589,-357,-326,20,770,-407,535,-48,751,315,-707,-799,-253,576,-72,193,248,-406,13,-91,68,-387,-550,346,201,-81,1122,-330,-296,-2000,-586,-241,320,-509,-661,-954,-141,-374,-6,-499,-84,-507,-230,-458,119,-2,-77,345,320,338,-764,-804,-645,-781,32,-54,-540,-803,-495,280,703,303,-143,-100,146,709,68,179,206,608,-155,-210,529,1131,209,-679,-246,477,527,-1079,-16,-451,721,-360,-743,319,-1057,-63,995,-448,-988,-433,-792,-58,-426,294,-886,312,38,-77,152,223,-875,-256,1049,20,-708,-353,-1052,1186,57,-417,977,61,-389,358,-450,375,541,-404,-634,-25,-55,258,-63,263,-194,-717,-518,-393,-445,-170,-488,-141,-444,-263,119,612,99,779,159,-13,322,-36,-166,-216,-234,760,21,-323,311,164,284,362,253,-161,-707,277,-294,-657,837,953,166,318,-114,8,-464,-1079,82,-34,-456,-1142,295,192,-1189,-563,289,-1319,87,390,94,-211,241,-104,321,-671,397,328,259,-715,-635,118,1417,133,874,-577,-416,908,594,-822,-158,-1239,-1077,-356,-194,774,904,-247,-383,-1032,-1164,-34,-114,340,-293,-516,53,-528,-373,-724,-413,-545,-625,444,76,652,843,499,430,221,866,1116,885,217,161,-177,49,228,249,-329,-315,-583,186,-658,-1263,473,-226,-474,-522,773,514,-758,-513,-355,560,172,63,670,-297,-461,-1064,778,-309,-235,-225,-196,-288,735,530,-820,-39,95,-450,874,171,-586,348,96,-1101,-578,-359,563,413,-727,-831,-234,330,-588,1217,-4,-439,229,-310,-926,-945,-178,-189,135,638,70,369,-396,57,-477,389,236,-298,180,261,531,-26,-19,-258,-302,-347,310,554,-39,136,19,16,-148,-230,-139,-488,-548,-482,-279,-329,308,260,-132,347,319,-1155,668,-926,-980,-699,996,1351,-1710,428,-807,507,-220,-970,404,-85,104,277,-52,-940,-954,476,-317,1268,3,394,-240,-116,-25,523,-430,-458,1806,63,296,-473,108,542,60,-643,-420,295,-678,-657,-93,-256,268,-436,-625,-568,-496,-598,84,-724,-115,-551,238,-370,-507,335,-291,-527,359,358,-119,132,109,57,374,-521,322,76,25,391,279,152,263,20,6,718,478,692,833,140,178,772,-72,-100,400,-844,-56,410,448,-223,-54,-503,934,118,471,27,1399,291,-797,-578,88,320,-592,1325,-250,9,314,-522,247,-5,34,335,828,-672,-390,611,406,-355,-758,427,-283,1330,-1074,1120,1654,-672,-209,549,182,933,-81,385,443,-634,-703,-916,-987,572,205,-421,-90,558,270,-338,622,83,479,541,511,-311,-612,-701,-1179,-1240,-693,-843,-158,197,-45,-12,96,-28,279,-448,63,48,85,827,555,-135,598,852,-50,-1225,-437,-338,-425,479,476,-1281,-343,-686,611,-839,997,206,397,-719,-464,291,280,-456,-661,-221,132,-204,-403,324,-261,-757,-295,-153,582,853,795,-29,-287,439,-133,558,575,-325,-454,837,295,-16,544,831,-381,748,-81,326,576,-803,-165,271,-163,210,666,101,-351,233,-246,651,516,672,448,151,571,188,-41,-897,-638,-724,-677,-443,261,-461,-544,-533,550,91,220,328,-748,-519,-896,-109,-220,-1249,76,-1072,-1206,287,-1317,263,-596,-748,-505,266,650,-432,831,342,-64,20,469,345,-315,-716,990,142,683,-29,-1411,245,-413,-263,-341,33,-995,256,750,-926,257,261,677,-66,18,179,301,374,519,907,-431,344,-1085,275,-873,-69,-910,-727,-53,-846,25,909,652,363,730,-49,661,-504,-894,-752,206,-109,504,564,244,344,-87,203,1048,1104,889,119,472,417,154,-466,-720,-115,139,-349,-292,38,-716,-58,104,484,1232,617,-709,130,-59,-348,-276,-1350,-360,1201,159,-1262,-58,368,-357,371,-590,-257,-248,501,525,757,-491,81,-452,-550,-948,-1176,613,159,-65,370,255,-250,8,-588,112,-776,-640,805,-981,-609,55,-522,890,-351,-978,-182,81,270,366,446,-92,145,-460,942,515,-283,603,587,45,3,94,-523,132,314,766,455,-185,-51,45,65,-381,-798,11,-152,-290,-799,-111,-18,-234,-178,216,-249,-302,320,14,609,-49,-407,50,499,145,114,-347,878,-476,1064,-194,-231,-585,-18,-737,-503,40,1263,-232,-339,573,-217,473,-463,-150,-863,-766,691,-179,83,-1391,-497,-416,-59,1157,-597,-46,-1656,-711,-317,-807,169,6,-269,2142,634,-904,-915,-126,296,1237,349,731,-216,-993,371,476,398,62,281,-342,-620,25,-47,403,-126,247,-473,414,154,-22,283,-313,74,-81,-555,213,-512,-42,264,-497,-71,-329,201,-288,-1048,382,-115,-1157,-621,1235,-4,-434,188,-458,1209,585,-214,577,-330,304,-1016,-272,-570,-745,-424,744,293,140,-351,-41,-373,30,23,434,-1571,28,-339,1092,-711,-42,144,-682,291,109,-316,380,-774,257,1005,662,-546,-399,432,416,-1046,-108,-125,466,94,-294,-822,-348,591,366,634,524,181,725,1103,734,619,186,-268,-806,-937,-419,422,-276,-611,500,911,297,356,-217,98,-356,29,-426,-43,-186,-448,-572,-389,-360,240,23,94,-892,-935,325,-913,156,-98,424,-41,-104,309,-370,275,-380,496,-1566,-574,-270,41,312,639,-486,-412,-88,734,-42,152,52,-1260,243,607,197,191,-1209,1069,236,-1094,184,221,-11,-464,1169,-727,-383,-479,495,193,-288,139,-28,-429,326,399,163,98,-365,-290,540,317,-89,-482,30,-454,-690,-264,-698,94,-517,-7,-370,361,190,268,135,69,-39,-854,-430,9,-749,-20,-711,-816,-593,-404,177,590,232,416,929,-313,-608,488,612,-119,1268,986,-243,165,1070,829,161,658,578,934,626,-80,-52,34,77,-654,-542,-237,168,497,851,519,-717,-225,732,-911,-464,-289,491,-639,-326,-430,561,270,314,-70,-652,-495,-643,244,12,264,-212,33,753,403,-94,108,-409,108,398,203,705,-164,884,522,322,-692,-889,-521,189,224,-307,762,-189,586,-60,-162,14,-23,-526,-112,-405,-112,-807,-860,-385,-2092,876,812,-838,268,256,-50,-224,181,-86,-30,-922,986,-28,-374,-755,-468,786,-277,-811,-390,217,-614,548,222,678,918,543,-534,-583,775,880,-842,-184,-710,-578,-14,1364,-39,-621,-277,-677,507,-625,191,118,306,-164,-373,-530,-942,-55,-143,492,343,-38,367,-775,-917,-61,-320,180,-435,-566,69,192,75,-223,-635,-6,-2,158,350,-148,-526,-39,-208,170,19,-319,-22,499,-374,-307,155,393,619,1174,2237,-997,-182,139,60,213,-185,554,392,164,-31,337,345,158,149,-29,73,-514,128,1019,742,-1056,-792,-255,-1297,-774,-24,-544,420,-101,-99,359,-167,-827,1248,-799,-114,-103,-445,-143,320,33,24,-346,-591,-373,-216,21,-365,-943,-59,-188,-313,294,140,706,1059,1007,353,-46,59,-407,460,-236,-469,65,-534,-541,-464,678,102,583,77,710,-316,-16,369,84,-703,-624,475,157,-455,-53,294,196,-665,-440,-586,234,-1066,-544,-766,-857,193,-557,568,-568,736,-1249,-123,235,-525,30,-193,13,586,54,-649,-642,644,383,208,174,1200,304,-53,460,507,-1269,627,526,7,283,318,-79,328,-148,-680,-598,639,-1105,6,-711,824,1361,37,14,28,119,-672,-139,43,266,205,288,-291,-306,137,-442,-154,381,-527,540,280,401,127,-434,-524,286,-128,-70,371,-115,231,-239,228,467,-174,185,267,627,296,-338,-462,-574,18,-190,143,521,611,495,-288,326,-808,537,-611,917,25,561,1415,-404,-123,-480,623,-977,711,-790,-1252,295,-152,612,-1074,389,659,314,-770,-288,323,-479,-219,-173,1544,-1667,1404,-1273,209,1633,-1057,-720,-210,528,-9,148,583,-200,-530,178,1191,587,744,1143,864,246,341,-288,-303,680,-37,755,728,248,182,814,306,-62,-910,-557,-693,-335,126,-307,-205,347,-671,-633,-415,118,-359,-1416,-982,-1227,-1263,-715,-32,401,-743,22,-124,-327,-275,125,-526,54,675,-889,223,14,60,541,-712,867,-160,265,-96,-447,641,-205,150,84,127,371,340,109,-521,-514,-366,315,140,-545,-617,-453,-35,307,-297,-341,-1125,-524,-1,65,-382,-91,-275,1661,142,-327,826,-75,299,-904,-98,336,46,949,461,305,458,191,315,190,1088,212,-326,-243,146,-781,-512,-289,-856,-622,-577,-118,606,-617,-267,-310,-965,-241,637,-309,787,846,1439,321,398,-543,282,-541,151,116,-123,-206,-871,-200,-566,-708,603,663,251,-702,713,-522,609,130,501,556,-86,464,298,-414,10,31,-192,471,-401,539,-61,499,-457,155,-422,-261,-272,-595,-657,1234,-911,172,96,429,191,839,-140,-854,-455,4,-514,-340,-413,-213,342,-363,54,193,-146,624,81,73,-175,275,277,221,-449,-530,-1124,-568,-1395,-974,-149,-545,1,57,-412,280,1075,8,424,982,1061,846,1877,-886,-196,-286,342,-144,293,341,18,-348,-146,-128,135,36,-255,-247,-852,353,-404,570,417,50,385,250,45,-35,-288,-96,-9,-401,249,352,-655,-563,613,-56,897,-39,725,372,583,-307,-46,307,1036,-454,185,547,182,-1280,-1168,93,-705,426,505,660,531,875,-154,76,259,642,-108,-485,-514,-282,-363,228,-251,-157,131,-623,150,458,583,390,410,590,319,225,256,-44,-190,-793,-981,-379,-927,-410,-763,-266,48,571,255,-505,436,-239,850,-524,-298,-443,314,747,-966,237,416,-66,317,-96,-141,-434,722,-806,102,-661,-134,50,-348,-636,831,-461,71,461,291,-201,25,-66,231,1110,-166,441,181,-241,-1045,-133,-576,-291,-808,426,635,726,522,-136,-700,-626,-802,-556,-457,799,1330,1130,1145,512,416,544,1141,91,609,716,-364,-369,-481,-1035,-710,-97,-618,-422,-307,-284,-260,7,-14,-32,-552,332,-859,-303,-1138,-227,406,-841,158,-228,-494,-247,-634,-93,322,-298,-725,-544,103,364,-92,1023,554,-650,595,405,-576,682,420,589,-352,-537,-452,-281,265,1006,-6,-153,-409,287,37,30,-391,14,54,-381,-428,-53,559,151,-722,-426,-492,-46,1127,706,836,-139,383,-485,-345,589,359,305,767,161,341,548,506,252,-827,-490,-261,369,-517,-656,490,-336,-278,453,-125,-111,518,282,-357,-232,18,302,376,518,-513,-211,-625,131,-432,-1084,319,-131,-46,-390,-1399,742,475,893,-810,271,345,-276,71,-297,35,-715,566,66,-383,-788,-33,-200,-670,87,-390,-381,-580,417,-382,893,15,-1141,624,-761,366,-806,470,655,2,1561,95,224,-189,-996,-192,153,-586,-561,627,299,101,165,-699,-1370,117,-265,-565,-491,-870,-883,-262,-324,-707,-678,-896,-1345,-948,-669,-862,-475,-419,-546,-254,517,90,334,-198,-611,288,-387,-82,-119,618,46,415,557,-284,-1044,429,1017,-618,-690,-190,-227,-207,-290,-204,513,459,-351,-406,-1089,27,26,701,-611,-609,230,530,-257,-59,394,664,161,-598,-177,-218,-579,-739,-301,422,-995,687,-431,324,717,-486,-349,793,609,-478,-534,-58,-386,-127,585,892,-74,148,518,-551,-265,114,105,-380,13,412,550,-416,648,82,442,-439,-814,-538,185,127,-281,334,210,716,737,750,74,467,80,-55,-65,-57,-654,57,-687,-1116,-393,-129,-879,96,-12,-345,354,-485,490,-1021,159,211,-170,-270,624,133,22,814,-894,-398,813,-736,93,-160,481,39,-162,-181,383,-507,-924,887,1199,-92,-302,-847,-701,1221,490,342,-151,578,1410,382,622,-1025,-133,273,-789,-291,566,758,212,-1,-302,165,-139,159,-442,-398,-616,-871,-1481,-1726,-1025,-421,-377,191,318,444,540,596,500,922,110,-343,412,-21,337,478,-229,347,328,-125,107,331,596,1254,454,-39,393,-25,-151,-871,156,637,-467,529,207,467,335,238,188,-176,-78,-259,522,272,803,206,17,-527,309,653,552,-288,570,-446,-1180,963,-69,-269,-450,-181,-284,-426,197,-251,-648,5,26,-866,706,377,-965,641,-254,616,-206,453,531,576,-680,-347,34,-194,1275,-145,-664,-88,348,-14,-284,-555,-860,-421,37,-607,-432,-209,372,28,-111,-974,-237,-323,-90,-557,360,-99,-35,-89,-522,34,251,-607,57,326,-334,-114,-344,66,-13,-3,-30,-267,902,-1954,-141,-1351,693,-233,-135,-115,-341,-814,114,17,-101,-55,-131,55,556,-549,275,-725,506,72,893,77,-863,818,-660,315,-556,41,-308,-45,757,180,1368,-844,-382,-131};
const static uint32_t LSTM_01_weights_cell_dims[4] = {1,1,48,88};
const static ConstTensor_t LSTM_01_weights_cell = {&LSTM_01_weights_cell_x[0],&LSTM_01_weights_cell_dims[0],-1};

const static Weight_t LSTM_01_biases_cell_x[48] = {-288,657,-2195,339,3366,558,-3099,-301,1293,467,1308,-837,-1298,564,-1379,-1856,806,681,-299,1673,2467,-958,2149,338,1118,-1934,420,-744,875,-1617,916,32,-555,-75,1546,-681,636,-514,-2132,684,325,-2134,1652,2053,142,-225,120,-228};
const static uint32_t LSTM_01_biases_cell_dims[4] = {1,1,1,48};
const static ConstTensor_t LSTM_01_biases_cell = {&LSTM_01_biases_cell_x[0],&LSTM_01_biases_cell_dims[0],1};

const static Weight_t __attribute__((section(".weights"))) LSTM_01_weights_forget_gate_x[4224] = {-1362,-1256,-97,668,945,1286,924,593,222,1007,1720,-191,-183,-88,-747,564,295,331,71,516,691,680,-607,355,904,203,505,-383,35,793,996,1281,-43,220,833,1324,1529,435,632,795,-1301,2235,-713,507,664,859,-674,2485,-1324,1128,-2613,-119,1691,-1818,-162,607,-549,-2500,-646,1506,-2497,-618,2190,64,2308,-265,-704,-1071,-1172,-512,838,603,131,-1397,30,80,733,-2020,538,-2275,2075,654,-1208,759,744,1951,1730,1095,-2090,-2023,-167,-999,-891,-1462,-1013,-143,-93,-127,-2016,-1634,-239,-435,1520,1795,-287,-550,-1756,-1576,-241,-2015,-2012,-769,-129,183,-1581,-1046,-708,36,704,-926,335,945,-495,-890,-769,1023,-227,-730,336,-1800,-1661,-844,1284,1967,-138,243,284,717,-290,-1442,-367,-1008,1439,-1403,1787,-349,418,405,1542,-1036,1323,-412,-643,-1104,-313,956,1445,-687,-899,357,667,-1450,-740,-869,28,-1940,1403,1099,968,-1505,756,1823,24,1024,-894,-539,2820,3503,3172,2424,635,-589,-918,1975,1947,422,930,-16,-680,707,1546,417,1330,1443,22,1330,616,-1214,-403,-169,879,-191,763,1078,336,-870,161,545,694,-1193,-892,-1240,-1197,152,-203,523,-1876,1018,176,1525,210,-771,-705,-971,47,-871,821,172,-1248,916,-937,247,-968,1040,191,-491,-234,1090,-1287,-1403,266,-2171,-84,-1533,256,-185,651,-510,-297,-24,912,-731,-557,717,-276,-391,-304,-292,-245,1096,389,63,366,-1566,-495,296,132,-1720,-1246,-1717,-646,-1002,803,911,-363,-943,42,-203,-91,295,224,929,1735,1041,1023,-1074,-328,293,967,1106,1256,-1005,889,536,-41,287,982,682,16,-457,406,-321,-389,545,-1296,-850,-720,-490,-469,-199,-682,1395,-324,-1305,42,-1452,-112,-147,453,-567,475,-384,632,-894,859,559,-225,-1473,-828,-177,1934,482,-247,585,1,-135,-353,-139,119,-1414,-197,-971,323,1630,118,-663,1478,-1162,-2308,513,905,-1794,-2088,-1361,-1162,-780,-1083,-1338,-1765,-312,-1062,1068,834,1704,2162,2210,1361,2165,2466,1221,868,-1062,-680,-20,87,-164,-154,-1245,-1060,59,-752,-615,-1279,-1074,-592,-965,-358,-1957,-1354,-1326,604,-592,-49,-604,15,-516,-1697,-733,488,1135,-811,-2103,146,-475,-303,1250,651,-963,-656,676,-1243,-2076,2637,-89,-989,521,140,-253,-51,-1033,-279,896,213,1587,320,1581,-560,-848,-1342,118,1877,1826,-297,673,2204,239,608,1299,-2647,-465,-556,-3201,-3282,-2147,-821,1159,-242,-487,-672,1139,987,-255,-294,-873,-256,-122,-1205,747,-1363,171,-221,-1268,-1120,-196,698,620,-159,-1327,-1463,-141,462,549,-395,-1336,-482,-427,11,-793,-68,311,1190,-1515,1226,-81,145,2,1220,-293,-2143,-2096,-1530,634,-411,380,931,-529,-86,-69,975,958,328,173,-253,1593,-232,2375,1116,777,-665,925,676,-604,477,716,614,-17,-318,-692,1917,-496,-797,590,-106,565,283,491,-1316,-363,-2347,-1524,-1867,882,577,420,-93,580,-1340,-342,1421,138,-730,-180,-842,-1190,-1145,1021,-630,1217,-148,2263,-51,-69,982,204,662,700,-313,-134,-928,65,215,182,799,1455,1165,1193,-76,353,74,-27,7,761,-1295,-1553,-2230,-826,-824,1469,-726,-1492,-454,461,-330,-1209,-302,-3066,-506,-540,569,-637,3531,1340,1912,-1626,-337,-1599,-561,373,647,-51,-184,-2017,633,1355,822,-313,-405,-499,-116,-152,1081,2393,800,-932,-250,-1464,372,949,729,544,-1338,-851,-1666,-364,-65,142,-742,-502,1320,671,229,979,418,14,1293,-59,449,947,1458,-392,-1273,1051,-108,1540,152,244,557,-23,1831,1508,63,-90,1130,-513,1349,100,-1135,-218,1166,-1128,-1687,-209,-342,-1845,186,-1748,186,3128,168,201,-2093,-722,1420,-585,3595,562,-1707,-867,-1126,-1467,1192,-1993,-439,1013,137,104,422,-177,-1197,832,-160,825,-303,-932,-535,-1063,-1692,-81,-33,103,-1041,495,-502,74,1524,1319,2074,-849,-2303,952,644,-206,-942,566,698,-1690,-413,-134,509,1164,1014,269,-1007,-1807,-2282,-918,-481,-1061,-868,-199,-762,-783,-555,-1614,-1910,-1130,-1496,-694,-835,298,-586,-1299,-77,-81,449,844,1093,-584,-767,-26,1254,-210,-458,-2532,83,-1298,-935,-330,174,-692,624,-532,2041,145,1648,-588,-1557,-1093,-2266,792,-375,-650,-1349,859,1129,-1624,1164,2197,2031,-759,831,-40,1347,1290,-467,720,1211,-1103,-631,526,-2812,2,-1411,1354,1207,898,543,309,362,-523,1793,1279,1987,-1254,-1001,1161,222,-704,-474,-1360,-289,-1472,247,-836,1007,957,-582,-209,820,190,17,187,-433,-1762,152,71,691,-1300,-1721,-890,-167,-921,-638,1027,576,724,1792,-904,59,-1200,-618,-773,122,993,-987,213,562,1048,-1550,-100,2705,892,-630,-24,-928,-458,-530,273,-47,644,-237,-877,374,-1742,63,-279,-430,774,-570,458,-57,1071,1211,-128,59,7,274,-201,838,954,1126,1653,58,75,-192,-184,887,944,361,-94,615,-191,917,429,971,134,-250,1839,573,-148,-268,1013,1349,148,319,-437,476,523,1473,549,492,928,-431,-1737,-1128,332,-1157,-1219,369,-815,240,3638,1592,-192,-795,-2205,628,-1523,390,260,-1341,1422,-1058,-1240,-2285,372,945,-937,425,-1653,-1369,403,373,-97,695,1284,-1664,-1080,-2564,3020,1390,-689,175,339,4027,-970,1006,-737,1168,-479,-1921,-244,-1061,-251,736,-435,-24,34,1308,1682,617,-500,539,48,286,-1476,623,-213,1242,-321,989,583,380,1147,-34,-610,-154,1115,-719,-757,-911,795,4,792,-945,905,-166,-236,-497,-1020,-1998,-2232,-1333,-1186,-456,-921,-350,-1053,-2293,1044,1120,-865,-775,-1450,536,-558,643,-1221,78,305,705,-411,2376,952,278,678,-1127,-156,150,995,-866,420,833,699,-490,918,229,1770,-779,-325,1144,-878,558,1027,-207,-1354,-1189,181,-1086,312,528,-197,430,1303,751,55,-484,1135,-231,71,723,804,191,1225,784,-138,-1356,-1115,-1252,-133,-40,282,-1366,-53,-343,-977,-444,-883,667,1126,837,-161,1448,20,902,60,1459,-285,45,385,-720,-212,1269,188,169,-638,565,-870,-403,-940,156,1699,528,35,-970,826,-987,-426,-1394,-35,531,821,-685,767,755,-272,179,-84,258,1762,310,-663,187,113,-818,714,709,-608,1062,561,1443,200,461,-688,-1909,-1490,-554,-347,659,-295,164,-789,723,312,-51,824,2768,958,274,1313,1344,773,-1045,-288,904,-1552,-740,423,-992,-1199,-1343,936,-178,397,-816,-241,595,689,947,-76,-310,667,-682,-263,-1004,786,-830,322,460,-297,-508,1043,588,-1542,-440,314,-482,24,1607,604,-1457,1501,152,1022,-1149,1301,-2060,1295,223,5,1329,-225,650,-1188,620,666,-2177,-990,519,-625,98,-276,1574,-245,-1286,-711,-1253,-499,1245,-1022,-65,187,532,-379,-3744,482,1647,310,-726,632,1970,-1293,369,7,-89,-1207,-2158,-1149,-1711,-1381,231,-217,-161,-1651,-702,-1957,77,667,-149,-332,-1512,-47,-1186,-1097,-567,-183,-1067,445,156,-905,-231,-1100,-1606,-822,-231,744,715,952,-294,-141,386,-343,941,-2120,-1445,-680,740,-310,1321,1201,-316,595,-540,539,766,516,1482,-2358,532,948,2173,251,-359,1965,-636,214,-1898,541,-977,1005,932,-595,-2389,855,-782,74,-71,810,265,-289,1008,-943,950,-1817,307,-195,-1539,611,-887,628,-2297,-3237,-543,250,198,-574,-1575,-418,-592,-1606,-844,-838,-97,-1175,279,210,188,-766,-179,-1063,-1137,-1287,274,-2157,-2588,-1062,-719,-904,-1627,-1939,-824,-2936,-1881,-1003,-1081,-1561,-1711,-280,49,306,127,-1571,334,-187,-1608,1207,1369,1586,-1770,-836,-1077,-1282,1679,-210,407,-3,-1568,84,1607,118,-37,323,-473,1621,-1363,1800,-574,155,1264,173,323,-1194,-184,1068,-520,-652,1234,-702,1721,567,-780,-473,-464,852,531,-1017,710,-777,-1318,755,2767,825,842,603,-1479,-193,-1037,-1229,-995,-729,1077,-112,1369,-396,701,108,299,-548,455,-323,-2,-690,-570,-1381,-1954,-1116,-1120,-933,-784,-395,-846,-802,-295,418,728,48,-234,-1986,1325,-60,-399,-190,1331,1119,-284,-783,-1318,64,-1571,799,-600,739,663,1533,-1055,-846,440,364,-1004,-1316,1722,-1897,513,846,-459,338,55,-146,242,2600,337,-719,-80,-148,327,-172,-905,-210,-442,402,998,454,1035,192,1952,-911,-491,524,127,-1182,-870,227,-509,411,-1046,99,-759,-256,-203,-583,-54,628,-693,-688,-636,-2308,-1093,-572,278,802,679,450,9,1104,-253,-1273,-127,-1301,-56,173,336,-1134,477,45,-631,369,546,245,-1066,-320,945,-677,634,-2282,-687,455,838,-687,-959,650,-464,-288,1638,-234,-216,1387,-152,278,-1578,-1608,1102,-383,-430,-634,-47,-484,-1896,152,2085,-399,-330,572,-1371,-667,-1491,-1089,543,-901,184,748,753,-829,-817,1974,739,-1150,-1750,16,-115,-422,-523,856,1328,1056,991,1401,1347,641,-783,-307,-574,70,450,479,362,-147,364,723,503,-37,757,45,-161,991,694,1157,152,-41,-1120,600,-988,-727,-1315,-1006,1463,1490,1330,1783,-667,-1183,92,941,817,584,-1136,-488,-241,-639,51,1170,519,-1306,-562,1979,1113,-1164,-900,673,1179,175,-44,334,699,843,1279,-1398,-871,844,803,528,-100,1357,254,310,439,204,-119,-103,-642,-863,634,-764,-931,-188,-220,201,-491,-572,667,-337,-339,-29,-319,-271,879,-574,1665,1085,-5,865,52,-761,1221,1283,212,-353,711,-1379,-1365,-978,52,-1115,-773,-2545,-170,686,-254,-1188,-946,503,460,1753,442,73,2287,-597,82,54,235,-620,904,-82,513,-213,-1425,2357,1409,-1375,-114,746,-1557,-2013,-270,-195,-1286,72,-2373,-3643,-1375,-373,-2874,2594,305,-189,-115,2451,69,13,-83,-544,-555,289,-24,-2013,-448,-427,-528,1026,-2947,146,763,-582,-98,398,-452,-878,-1098,-963,-1606,-134,-1261,-1980,-850,-2421,-1272,-533,-207,-860,-1448,-1431,-151,421,-29,-243,-329,-1476,-206,-1578,-1455,-486,-170,-93,-610,623,259,-470,402,1438,471,1505,790,0,2497,266,1277,-134,2712,-681,2364,-1546,-963,1328,1011,-526,-313,-33,-806,-2355,406,1498,115,-812,989,203,-207,-269,1101,238,391,-2557,-841,235,-724,1003,-1862,-36,-539,1554,-2,867,1984,-904,-1314,-639,1012,-751,541,251,2559,1774,846,-620,-1294,-1411,-369,919,-367,-349,-1362,-409,-1296,26,-2194,-1127,-1047,-1075,-855,-699,1733,-185,1194,360,-609,-497,-53,612,-453,123,-841,-722,-494,167,-724,577,-544,-1200,307,-888,-459,1026,2068,-415,-1466,-2662,-572,130,1067,-1011,-1265,1701,378,428,550,1572,-1345,348,1101,-261,-1741,-380,-601,-1189,-394,-1285,-1334,261,-828,2038,-356,-395,-551,196,122,714,-301,458,1036,-1973,-550,22,-2280,-1643,1928,-246,291,1255,511,-402,444,440,9,983,1398,281,1688,1101,1839,526,235,-771,-290,-30,681,-78,-162,-492,797,110,-1041,-1148,459,-624,416,-346,-1183,-116,214,61,293,-602,548,408,-766,-237,-1698,-1301,1657,137,-21,-1718,-143,-517,-465,505,-717,132,829,2412,-294,410,827,393,-444,78,77,208,-432,1106,158,-587,434,695,66,975,1042,-77,2716,1148,-1642,-1051,-325,296,1108,259,-317,-776,-1184,29,-1875,-803,-251,1015,1576,-482,32,754,-274,66,274,1703,1307,-42,-745,-174,-314,-99,-491,1341,1531,-375,631,144,-16,-163,-872,-645,-939,-82,471,1179,-40,652,-404,-366,-405,1079,-413,-276,1636,1607,148,856,1137,1032,-107,412,-239,-70,2435,255,-590,-1888,-248,271,-444,198,-650,-624,-2044,1302,-1667,1295,-1554,580,-1572,1895,-1199,1210,42,-1827,-975,1042,-1465,-671,966,7,-464,1609,-2597,433,-797,1660,73,364,1098,217,151,-161,361,-215,660,-811,1304,94,921,-1166,-902,1005,557,148,743,-282,-673,-1089,-383,-45,-484,730,-33,-748,-846,-357,-26,632,-474,406,-486,-262,320,-438,-801,-919,-763,959,1591,1678,1690,129,580,909,-832,1392,657,-972,1457,-1030,-1143,-675,1106,-897,-961,-3960,1187,-390,1615,741,2205,2348,1190,1565,-1049,67,-380,-150,-2424,1810,1537,154,1117,1551,-90,849,-216,-651,768,968,245,-1356,-847,-479,-36,-582,1557,399,-762,-399,-570,-262,-397,-140,-13,-609,714,-688,127,-66,-104,474,44,761,880,809,946,1703,926,373,1169,960,-182,-804,605,-379,-112,-656,-957,761,745,910,-398,121,366,-459,-780,380,319,579,227,333,-362,616,-962,-824,-191,-2119,-1796,-816,257,865,-2484,196,-1214,-792,-448,-211,-88,91,955,984,1738,-464,-541,2812,-625,609,-174,-156,-1668,-1847,298,-105,-1044,-843,678,-1093,1159,-664,980,-294,636,973,-2661,1069,261,-857,-953,984,-7,-892,1435,1115,1870,1637,1396,1389,930,183,-69,641,644,1417,268,738,994,629,-576,1163,1001,1424,463,263,2161,856,214,-31,-259,446,413,1586,115,-37,957,1409,1363,1663,290,-234,1525,148,-59,2121,235,3116,1643,-546,-1602,-412,1953,616,589,130,-1296,133,-1543,546,1199,556,-1619,-470,733,1215,771,-872,166,-452,-1531,-1617,42,-478,273,-2049,655,-669,360,1840,886,-501,-984,1350,965,551,525,571,-1204,28,-169,-212,801,1507,646,-200,-232,202,-161,-1431,-909,617,-647,418,-769,131,-1424,-319,-422,-1794,-1557,312,545,211,12,685,785,524,885,8,-125,802,-855,-422,1635,1639,1564,618,-386,-979,-528,-1391,-13,1659,-1504,246,1053,1139,-1840,1180,-358,1552,-2567,1044,287,-1627,2240,-1716,-57,212,2316,1359,551,1038,1070,389,1329,484,228,361,736,-440,-1896,-74,-1175,-2431,39,-2407,3238,-1337,1315,1171,-1971,-1486,260,2175,-1828,-302,2266,-219,-1478,-2292,-1370,-792,-1119,-1533,-492,-682,441,222,-53,405,-497,-194,40,-264,-425,852,658,799,-45,771,782,400,512,401,-1066,345,1052,613,455,59,8,530,-103,-311,691,455,672,1532,-1156,-2227,-444,-1258,577,1045,792,2211,-1012,169,912,-1120,-727,347,2756,-3048,-1186,694,1298,-394,2804,-283,-277,-1150,-1218,1844,-910,-346,1296,-469,-590,512,212,-126,1400,-1636,615,-2209,1051,1233,-776,-2092,1479,-746,-820,1261,-1064,1030,1460,1394,1777,-521,-550,939,-247,264,-832,-2169,-1108,-402,-422,-1434,-84,579,-101,142,-307,-1844,-733,-42,-1428,-387,237,-2474,-1574,-1579,-1488,-447,-808,-1768,-945,-897,-2425,-2283,-1408,-743,-1511,-1156,570,-559,1230,-1184,2068,-1372,997,-847,-1140,1446,940,740,287,-130,-1011,1243,-645,-857,-67,-432,744,1535,-1502,872,262,-519,673,-20,-448,-635,-1855,681,231,-524,786,31,-872,2467,581,-1788,891,-153,-347,636,68,-817,-2266,-274,-765,-2572,-1704,-1778,-1383,-51,237,-65,-1565,-1506,-626,512,-314,-731,161,-699,310,971,297,-348,539,330,-1073,-1273,179,92,-64,-1275,-142,188,1568,22,120,-516,765,541,782,428,371,715,-555,-726,-2093,-534,1338,-255,-728,-478,536,-508,1462,875,-235,652,-477,866,581,777,927,1250,1326,-949,267,-1179,-646,-1320,1400,1243,-578,-388,-329,-1240,377,-1829,-849,67,1167,643,-1575,563,-926,-477,764,723,626,1031,-2544,1246,-1501,615,-1046,-363,404,1387,816,237,-500,633,637,-897,296,293,-1418,654,-6,205,448,731,319,-326,-713,554,1310,-386,186,-1042,-584,602,-605,-817,396,891,1134,-167,-813,1200,-688,-442,-187,552,-348,-102,635,454,-1705,-400,1065,948,-2668,1790,-1287,-469,433,-714,-295,-774,-980,-1466,-238,567,1073,1156,1588,750,513,-316,-36,1452,669,-1923,72,-1402,-455,630,1786,-39,-257,-667,-826,8,-692,564,231,-1431,1013,-1134,883,209,703,-1127,-1965,642,368,-618,-1062,-407,-108,701,819,860,1797,2133,551,-1072,197,-82,-1856,-1084,-718,-443,-516,-111,547,8,823,-276,-338,130,-242,-44,281,-1001,439,-779,812,-786,-1021,167,405,-623,234,1157,290,-766,-129,-273,728,-698,-246,61,408,513,-1703,2459,138,-951,411,106,68,-276,200,367,822,-1998,599,-1584,112,-591,1229,1472,-812,584,-563,-191,58,1597,14,5,27,-923,-1449,972,-1297,-2041,-595,942,133,95,426,-91,103,1035,929,-279,-677,-1388,-1642,-65,1026,974,959,116,477,1788,676,-1475,110,625,-325,286,-489,795,137,755,235,-4,1138,951,430,477,1000,994,-693,140,102,-1465,-810,-1257,-1519,561,-551,550,-1082,363,-2063,-215,659,589,12,-1317,1928,-841,123,-703,-22,2400,-32,251,265,1089,-530,717,-797,84,-1750,1380,415,-128,-2354,956,-146,1505,943,-1226,1495,211,-2135,-176,-422,100,2257,874,655,1290,301,-2,602,1082,-539,8,-808,-192,-1277,-2691,-694,-848,-987,-392,187,945,-51,19,-417,-531,51,-376,467,-342,-363,-561,467,337,-147,-728,-722,-180,-356,-213,-474,519,609,2097,528,-845,-342,-994,258,126,473,-1588,-140,-1537,91,-1517,58,1537,-860,-101,762,121,-46,80,-907,-690,1811,157,-222,318,104,1670,682,-1287,-3139,-200,-143,339,-534,305,-3422,-663,-668,831,283,-1393,-1418,-49,1714,1918,391,1194,-492,6,200,228,169,-58,-704,861,-444,-927,-996,-1316,149,447,-591,-325,1121,-932,-1338,-1288,-762,445,300,-80,-1065,-112,-561,416,598,573,-126,-5,1084,-564,-844,120,890,1418,1159,2255,-2123,-1584,-578,401,1454,-135,1404,-676,-291,732,-185,-11,1646,-1511,559,1482,2277,498,-463,969,-746,-451,-877,-1719,-1842,-64,-734,1208,233,-2007,316,276,358,28,324,1294,-3817,649,-208,-830,698,-1158,-1875,-203,565,603,-31,737,-1705,-973,1428,-933,420,512,1412,1256,113,140,-2201,-497,-1581,-781,-759,-1351,-1628,-695,-943,-11,-1285,782,-335,29,-358,646,-117,501,890,-258,-379,-129,1972,337,449,178,611,-351,584,1954,-2653,161,-974,-221,491,549,-2033,-272,-189,746,-1380,502,-2159,-1880,-2010,-750,-266,-707,727,1856,-1074,1748,430,2003,-393,873,-99,-369,-764,669,1391,-664,-1393,-636,-199,-171,208,-1047,-1065,8,511,1455,-1644,1050,-1241,81,2372,17,-70,-750,1719,1588,357,862,-298,138,-354,34,1345,-112,-1171,-810,1186,211,-365,450,1160,283,1094,-467,-665,830,390,-179,-983,-1370,-119,387,-158,-191,-88,-1821,-982,109,-983,-44,-1167,-403,-852,85,-1883,-39,2318,-1207,-1286,-875,835,2983,-303,-1711,-355,763,709,380,1351,-1214,1544,1561,681,-738,559,-354,1523,-1007,380,-393,-692,-961,-67,988,593,-368,509,-693,1286,219,-251,-608,-1317,-785,1179,516,1322,148,-321,-321,1320,876,1819,-1024,-1675,-1483,437,-920,-1722,-1258,-1107,-1582,-431,-2070,-251,-329,0,-1354,-2172,-708,918,-1,-1545,-2070,-1354,-1406,-1367,-1525,-1079,-322,-1502,-526,-58,-479,-642,852,-647,582,-501,-938,876,-144,572,-896,49,-2046,-409,-1031,-866,1419,174,1081,-676,-402,462,542,-348,1585,216,-1319,-386,-2207,-835,-332,751,804,509,923,-1128,-691,-1352,2023,-377,541,50,543,428,702,-399,300,771,-566,1068,1262,-252,35,-1320,327,-2130,-1734,402,331,-2214,836,-670,-3026,-3209,-1909,-1269,-1755,-2500,-1735,-153,836,-953,-1533,-666,-629,-451,1507,-301,491,-261,20,979,1061,-112,-1340,-1458,-385,19,1055,952,-674,143,-824,-851,-220,-2065,1329,-892,669,1982,1397,-1157,-762,-857,-1813,37,674,-1023,210,-475,-628,-694,1411,1658,198,608,-1708,421,-427,1983,-594,159,-1743,1126,1008,138,-991,-1326,-87,-146,1518,988,1296,-1871,-551,-667,-769,-401,1909,60,1183,1041,388,-724,-121,99,-829,-624,361,-505,-1928,-1454,-1853,-1758,-843,-457,541,-127,876,-116,-829,678,-1254,32,-241,114,1034,770,-776,112,270,-453,910,-1121,-386,-266,-1171,-275,-395,-733,-501,66,1252,1062,-3121,1527,696,1432,591,1618,206,2298,98,345,-427,318,930,-22,-825,981,1338,-355,1694,286,-915,-1290,164,-201,871,-1007,1806,-1025,600,33,-794,544,1817,-424,211,75,630,385,-976,836,-2152,993,-849,-2240,1106,84,191,-1835,-1162,1570,-360,-800,270,-910,808,709,49,-1883,-1135,-280,247,-262,1490,-718,-1241,253,-579,-961,-491,-188,40,98,-178,-1481,-1214,163,-1795,-1761,-2198,-1788,-1232,-89,-720,-1045,-1391,-1319,-1511,252,-841,625,-1075,-727,185,736,478,-464,1482,-2859,2139,-1944,1056,545,3097,568,-115,945,-1975,-1635,1083,-205,46,1910,431,-355,-721,418,2106,1293,541,-2,-1812,1916,-2456,834,-263,1634,-1249,-2102,584,-2236,176,-1487,-753,743,-1318,1546,-802,-1117,81,63,-738,-1418,-2117,-1086,1333,695,-651,-20,-52,173,-213,-900,-311,-316,364,-617,547,-658,-201,99,807,-240,327,-1241,-707,-2167,-2795,-1650,-2067,-2155,-725,-2627,-1630,-460,215,165,1889,-409,-1124,-259,-144,-688,425,-898,1940,-325,2475,453,-759,-1567,-1104,-319,-314,791,137,20,1126,-375,19,-216,301,-684,-463,-556,1264,-124,-1401,-333,137,20,885,-211,42,994,278,-912,1468,-1025,1146,1507,-1372,1798,1312,-333,1523,968,835,-7,157,-634,1101,-423,-1055,350,377,903,1131,1927,1827,654,483,1195,1054,-195,444,341,-936,-853,-21,152,290,-610,482,518,436,1143,827,757,-1082,-956,-403,-1474,426,1327,-702,-1212,-1610,-1861,1208,1055,-1444,-1411,487,562,-1496,-513,-1540,731,582,78,-547,-608,-1223,-440,1009,-118,1112,-1001,-663,744,-44,-715,-640,305,598,2083,-667,-1315,443,-790,-253,975,-248,-846,782,663,-320,-1367,-996,-1335,1209,-135,-449,1535,403,1440,-1129,35,-1193,-742,-2704,-807,-991,-644,447,-243,-395,-1415,223,-1682,-1706,-449,502,-878,-424,-319,-480,-899,-513,-952,-830,-1506,-255,1108,1079,723,-16,-569,790,137,-803,2671,-221,-289,-294,701,437,581,-2412,165,1296,-2241,1017,-1389,736,-1525,-60,766,-904,-1019,-1503,-1503,1462,1416,1547,787,-366,1084,-245,-1837,-1879,-2,1369,1102,-1551,17,1425,-654,418,1084,-832,562,1801,-1308,1430,2126,-1931,3091,-1088,708,6,-1107,-2186,-602,-972,-1582,-209,420,-333,873,1541,1243,387,492,859,-292,-759,1086,-830,811,882,949,844,-588,335,156,-398,526,977,431,396,751,-373,266,1283,150,406,836,807,1323,-1819,-1549,1556,1058,104,-20,-386,1309,-136,1839,-2770,-1081,-116,1080,-2182,-266,998,-1229,1424,-269,-1726,-882,59,1446,1973,-64,865,244,-156,-753,921,2239,-1149,-1866,1656,-439,145,-1462,531,38,-756,658,592,2177,-1999,-338,95,1561,239,603,-338,-1003,-346,760,749,-1368,-758,-268,420,-1951,-1858,-2692,-1657,-1936,-1175,-1980,255,424,-1029,690,577,-239,543,-1268,920,-1082,601,705,-884,-525,-304,231,619,-571,-200,923,-616,741,2543,1053,2118,603,-1174,-1257,743,-1252,692,-73,1383,2393,-1466,-865,1040,1874,123,2742,568,1179,566,-262,850,2577,739,-662,-1028,-677,2031,1687,1077,-2016,-310,-697,-1581,58,-891,-1024,8,-1022,-536,-513,-724,1587,521,-672,2107,1162,1434,1514,-297,-10,1339,1081,-317,562,-629,-1566,-8,-1159,33,1009,852,319,-624,596,180,180,742,503,-623,135,402,683,965,802,703,-912,380,909,-631,-945,-693,-483,-561,434,-1991,519,411,164,568,2227,-325,-500,962,1154,1034,-2621,813,-545,1032,-2111,-1420,118,-120,698,1735,385,-489,-1504,68,557,20,-1565,-741,-2263,473,2186,-2618,-1842,-298,2178,-1206,883,-1371,424,401,-1148,2130,-821,344,-2005,-126,1907,-28};
const static uint32_t LSTM_01_weights_forget_gate_dims[4] = {1,1,48,88};
const static ConstTensor_t LSTM_01_weights_forget_gate = {&LSTM_01_weights_forget_gate_x[0],&LSTM_01_weights_forget_gate_dims[0],0};

const static Weight_t LSTM_01_biases_forget_gate_x[48] = {2187,2189,2119,1893,1689,1725,2701,1884,1787,2189,2097,1802,2070,2366,2013,1653,2206,1929,2108,1781,1657,1921,1982,2019,1802,2314,2526,2403,2045,1611,2023,2008,1774,2254,2010,1976,2236,2474,1938,2034,1629,1837,2049,2186,2276,2242,1861,2004};
const static uint32_t LSTM_01_biases_forget_gate_dims[4] = {1,1,1,48};
const static ConstTensor_t LSTM_01_biases_forget_gate = {&LSTM_01_biases_forget_gate_x[0],&LSTM_01_biases_forget_gate_dims[0],-1};

const static Weight_t __attribute__((section(".weights"))) LSTM_01_weights_output_gate_x[4224] = {-1281,-1366,-92,588,230,-8,-333,-619,-175,-429,385,717,-394,18,-126,-128,-413,-307,-546,-279,145,-479,-433,-122,-357,-18,-199,109,-293,-721,-767,-707,-682,-185,-172,-66,-16,431,-103,-937,163,-911,196,-583,442,394,-91,212,-443,212,-37,153,-750,121,-273,10,-513,807,1,847,129,477,-193,225,-795,528,-927,563,486,103,843,-316,-251,-923,45,518,259,-249,-618,-261,-280,-456,120,-279,180,64,154,116,-247,-693,-196,426,-1003,-253,-149,-69,515,633,-324,356,-152,72,224,943,707,136,-936,-384,-755,-943,-984,47,4,-533,-345,-346,-60,-266,-136,342,393,566,58,-215,406,-428,135,414,369,-720,-436,-682,-528,166,69,50,-571,292,400,-948,961,487,1025,-477,528,-459,-671,-347,437,628,7,-286,-562,-385,-347,592,-485,-150,-1263,-46,710,-274,-181,-265,289,110,1265,900,664,40,119,61,-12,187,-606,43,1032,282,-261,-710,-262,247,-1262,-889,-1278,99,-189,-44,466,598,-62,-14,399,452,33,-95,-248,-355,-1145,-344,-1144,-1130,-553,-470,32,-536,-11,120,-564,342,-252,-520,-492,-437,-279,-739,-290,16,-1221,-310,-469,-852,533,-1023,-605,-13,137,333,-21,-303,-299,282,1006,-54,68,-499,224,-58,-371,-774,-554,142,-239,-36,899,-66,-15,-87,328,141,-195,178,92,-378,226,-85,62,896,86,540,-220,-55,505,1215,1240,599,-251,-545,-271,-627,-16,-14,96,-183,-315,-835,-600,224,-107,-304,248,-435,296,-480,-575,-478,-266,-266,-814,-304,3,282,-199,-270,1,469,323,537,-45,-30,-269,-450,-377,46,-602,89,-533,-160,-686,508,-302,103,502,-805,702,-245,-1172,880,478,116,188,147,171,-163,60,-324,-386,-643,-297,-545,44,229,-71,-668,-158,-654,715,656,-800,316,-116,-30,671,268,992,603,-192,-464,-496,-39,-32,-706,-379,399,-31,-199,-611,819,-10,77,711,805,321,531,1253,1181,464,954,1338,1011,1336,73,215,132,-249,-134,-237,-483,486,80,115,-396,116,-70,402,-453,79,-547,-732,271,69,-33,449,367,-230,236,-47,-368,-676,-70,438,-364,349,37,-948,-48,-1024,449,664,364,-487,319,-631,335,-655,-31,-149,-1573,428,-1439,-1144,951,395,-641,27,816,199,933,1053,244,-344,-188,148,-29,325,-221,-866,-172,140,-1177,-1331,-1464,-1122,-762,188,297,358,188,387,581,-150,-90,-62,319,-869,-532,-867,325,163,-126,-286,184,-344,209,813,588,556,121,510,-503,260,500,-679,-600,-377,102,20,-277,-101,-214,594,-392,-218,-523,-99,484,-108,1199,-1035,293,-1568,-82,664,-598,-404,-702,-1340,-1025,1162,-867,563,-306,308,604,14,695,-269,-118,1082,631,-436,-705,-149,-1046,467,145,826,-695,161,326,180,387,-479,-172,-394,153,246,-371,427,149,908,-547,-850,-447,-675,-457,-704,-141,-453,-317,-641,424,-99,-834,-89,223,-190,-43,-298,-401,-535,-525,-165,-279,169,-20,-1214,-453,-522,-297,-6,5,-20,-398,-361,-728,-1152,-1220,-172,293,-811,-544,243,219,492,1009,-492,-31,809,-305,84,-375,-97,-766,29,683,646,-73,-66,323,-1012,431,-408,-309,506,-226,278,-518,-86,-625,162,-342,788,-234,676,177,222,-241,261,-29,403,765,802,231,86,20,-543,-71,-632,-1345,-1612,-1646,-1021,-907,-1234,-841,-1542,-510,-744,-145,-1451,-1618,-1510,-1103,-962,-464,-563,-1004,19,53,241,446,-11,636,357,549,-145,298,644,-50,-332,-24,-754,-922,-154,-45,-923,192,-248,-619,-88,-349,-1299,-211,-26,900,-118,-166,-795,-750,1032,-447,606,-525,224,-254,556,-172,26,389,1480,906,68,329,1140,114,-710,440,448,-436,-302,327,364,139,-1018,53,-23,930,398,858,740,-992,1789,-351,638,817,1123,353,23,107,274,516,127,510,0,258,412,125,715,1082,154,349,723,-416,116,214,-531,635,353,-160,-286,86,369,65,-496,-505,786,856,62,552,199,692,648,651,-234,520,442,353,-996,9,145,-504,-370,-1278,-500,196,70,-573,-113,515,-329,739,907,-421,-47,52,-1431,-504,-817,-254,-455,99,-761,76,490,-504,345,1239,600,-17,444,-254,302,1171,-180,-523,135,-666,-745,222,-426,-234,-557,-646,912,1083,555,714,-292,-622,-1108,-769,54,-151,-197,-85,-628,-729,-488,-420,-468,-223,-334,382,-126,358,171,-687,-553,-458,-450,-627,-110,-750,-436,-292,-756,-911,-730,-899,-284,-1253,528,-602,-412,405,-249,-49,-979,-287,-335,798,-264,-532,136,35,-8,881,77,-276,-72,-534,-359,245,-107,-398,-885,67,179,-390,-232,408,-17,-59,-63,-1190,-222,176,-318,39,-602,-43,43,200,-406,472,-617,180,578,421,919,82,-292,163,479,809,437,-72,275,-587,-141,-332,-954,-497,369,131,-43,405,-651,-1119,-782,-117,161,524,541,-323,286,577,-126,-129,-299,177,-518,-377,-115,124,-425,-535,-262,-14,-512,576,619,270,-477,-230,242,916,337,2,-10,75,-786,1128,-848,492,-232,-611,109,-825,-1183,250,230,928,-1028,-324,-726,290,-295,97,-328,471,1200,-249,688,-185,267,267,258,446,-382,192,-277,-952,-388,-128,-16,-364,1749,1203,-297,-290,-8,939,403,-16,-187,551,493,-123,1445,1307,602,1084,1034,1501,675,960,1054,325,343,772,511,-315,-170,381,635,418,-5,946,620,17,614,712,16,816,848,-151,-173,395,161,518,-189,-444,714,-312,69,30,660,-1584,184,568,-542,-1088,1030,137,52,-211,705,272,-535,-477,120,162,-733,-64,-541,-97,-22,-732,1007,868,376,153,-820,-1129,-220,684,-288,549,526,172,-2,-98,-1576,646,550,-171,-431,-155,246,920,-54,34,-151,-57,-332,574,461,-752,-602,-467,-624,-507,-409,-138,-302,-135,198,-5,-298,-520,735,931,389,-140,640,-186,245,688,-216,-332,316,777,-89,328,449,-652,606,441,-843,-296,751,-960,-2,-687,-530,821,-941,1236,-350,790,-730,332,680,-153,-951,94,-554,404,-616,235,864,863,-425,1131,-220,-295,31,718,651,-45,-128,178,-116,-657,119,-514,-802,-519,-142,-115,287,-299,-218,110,684,-317,-108,-1208,-1002,-485,-447,-834,-114,-548,-17,-427,-227,-828,-117,-421,-229,-646,-92,-702,-561,117,-385,70,46,-1043,-641,-267,-7,165,203,446,485,-377,86,-880,-920,-395,-11,-629,-477,152,926,-121,88,305,168,139,759,430,665,-496,-107,-499,528,278,565,-287,933,587,-212,-170,-277,286,307,-212,-274,-392,-960,-1049,596,280,573,-818,-1094,-20,1,288,-630,104,557,-236,-786,-131,301,439,-250,-559,-571,-992,-570,-279,-112,-181,-474,-474,-499,-33,-18,-177,-491,-306,-249,78,-167,-996,-649,-613,-782,-621,-415,-948,-720,33,-425,-558,-432,-269,582,749,612,-75,32,181,456,690,-421,-631,-542,-762,-736,-588,58,30,-584,374,-968,59,448,-52,-5,-359,451,-582,549,-423,-1142,877,-591,127,-886,-252,-59,-2,-162,-103,687,-316,-104,566,-751,545,661,132,664,-499,187,-129,-846,646,-783,-167,298,362,-1549,-373,540,865,681,129,730,621,893,918,250,-321,139,919,468,339,701,308,373,721,124,291,355,367,595,255,-67,172,186,361,194,-116,509,359,99,138,947,920,1187,663,799,-554,-348,-257,943,1597,27,296,262,656,-1022,-557,-276,-477,-1151,473,466,-783,-239,-271,-1069,474,698,19,-163,867,-296,-610,231,-776,195,143,-533,-900,-571,1118,-159,-945,519,-304,487,-346,226,97,483,-975,157,-446,-178,83,657,-464,179,-711,-1151,-855,-825,-1154,-186,673,176,511,422,-374,-374,-416,-114,257,209,-784,-697,-941,-1019,-498,-1040,-306,-34,-228,-279,13,-574,-691,-27,-330,416,-102,-522,-363,-1007,357,-524,-819,200,1046,-258,578,-309,779,-100,490,408,-493,-23,656,217,-8,172,-388,126,83,496,-169,162,206,-656,-324,5,256,623,-280,300,-973,723,908,206,-109,-795,-772,111,-456,-76,880,-529,-584,-505,384,1355,-235,-1388,-585,8,-578,77,-136,-253,418,552,-177,134,-574,-481,-400,-793,-105,-636,-799,-911,-467,-788,-615,299,-256,406,231,360,460,159,150,309,221,-579,100,-184,164,-145,673,407,-600,-535,447,300,-365,-689,-456,107,56,670,110,-108,471,-630,-791,539,77,562,-201,228,-349,-810,-1057,897,265,-722,202,-247,-655,-1133,124,180,455,136,476,-850,263,-577,1519,-801,-211,770,963,508,766,-380,174,-61,-254,-139,28,622,390,531,613,1177,363,524,1122,65,329,-493,261,166,397,644,464,395,655,34,-374,167,852,3,752,205,112,25,120,277,-452,-245,128,-440,-704,-631,-1712,-173,87,-5,319,-621,154,-299,-110,-124,714,-398,-1715,-132,561,374,1082,307,-765,-336,-83,517,658,532,149,778,792,56,294,1038,73,34,-584,-554,-231,463,104,-136,1350,466,-1159,-186,220,65,-364,-127,-435,-93,271,-558,-129,-669,22,846,111,958,210,-278,437,865,260,774,362,758,215,541,272,600,704,625,733,-105,686,834,-136,-103,-9,53,432,-715,-26,-300,88,584,22,307,375,1604,1746,292,820,61,244,-799,153,-162,-866,-136,-69,820,-234,284,759,-368,298,-1418,-392,-642,156,-1171,326,315,-899,-271,-1162,-442,-447,-1117,561,1133,278,126,345,-894,1098,-157,703,-77,-427,-148,44,-116,-2,1746,-896,329,-345,746,214,629,-408,82,684,64,-376,66,444,758,-459,288,-383,-240,233,787,599,86,666,615,123,1093,825,654,402,-307,-224,300,-107,337,-459,-225,495,390,575,302,497,202,893,92,-592,-653,-184,373,-582,-257,1027,-649,-575,-12,473,1111,37,-151,-436,-408,-237,838,795,-85,-457,-218,-306,-360,603,-170,631,278,-427,274,39,-704,239,-149,55,-89,-381,-305,-62,318,-384,228,-638,-1147,-521,995,504,1361,1058,249,412,510,-41,-263,-29,94,-633,-318,-613,-364,222,-224,96,-90,-41,82,-437,174,-129,-211,377,-313,110,648,347,297,604,203,-187,166,807,-126,325,-176,-156,-210,152,-767,-508,365,-236,415,-800,364,350,77,-571,211,1013,958,598,-446,935,-651,80,556,-555,-876,-41,-119,-631,-380,-792,-48,376,-59,-9,20,339,-373,831,-350,-284,318,911,-504,-756,388,386,-635,-616,404,187,1317,721,-193,-546,-697,29,-150,478,-199,-370,-102,0,379,216,606,232,-136,-506,-570,-411,-194,-33,401,24,291,-479,294,-428,246,-273,-743,-340,392,501,785,-148,-142,193,-347,-685,-881,98,414,-1064,254,298,-112,940,-264,-475,272,-618,375,1190,-780,1041,602,278,-513,-248,-1190,380,-714,-138,962,288,-395,-560,834,505,153,339,1557,588,-435,-521,182,547,-568,327,710,402,617,-192,-309,227,313,72,301,-99,-236,618,266,-864,-253,50,-633,-97,63,42,-274,185,-405,-36,-212,97,23,398,90,398,129,153,434,-496,-75,-229,-311,-457,-779,-393,-810,102,-222,344,-27,679,-314,211,-351,433,30,-956,-74,103,1030,534,282,-588,79,398,-760,506,-140,306,-222,507,-730,411,452,1182,-366,625,-663,433,-207,-918,-370,267,255,-102,973,-366,134,452,-116,-556,498,-137,-669,-639,261,238,-184,-544,-369,213,610,-209,536,-130,997,920,472,287,-257,429,-321,-613,95,-264,-717,-238,91,-315,-766,-514,558,26,1176,1018,17,-145,501,-14,-156,612,-334,-573,51,-55,805,370,754,547,125,569,835,813,-43,-70,161,-379,-257,423,-847,-533,-298,-1005,-155,523,-717,601,-562,-436,3,1078,349,747,-310,-208,246,335,-117,-23,26,-399,246,-235,461,325,-187,588,8,237,217,-356,-901,366,507,-264,-607,-364,-332,-1072,425,126,752,147,-183,-29,143,-36,334,-650,435,-130,-310,299,675,191,-34,166,128,490,-849,-261,-455,109,-730,-170,-816,-165,-343,-81,345,166,-386,-445,-119,-579,-646,-689,-944,162,-321,-370,224,-43,-131,-544,-592,-860,177,-1041,51,-423,343,-567,238,605,-514,899,-557,83,1160,97,-374,254,-393,-33,-1715,-211,-473,-495,-27,13,1244,-297,811,348,35,68,-675,-539,229,534,470,743,250,-208,19,-105,-1392,42,520,-883,-408,441,-149,528,-141,-157,-68,-472,-578,292,-560,-913,-1130,-806,-863,-474,-965,-984,-198,-364,148,-134,-108,-714,-565,-575,-882,134,-352,124,0,120,-15,-592,-259,-192,-112,-497,641,426,772,-119,414,193,698,1259,525,-234,-160,534,614,-133,358,-375,376,-159,265,513,-127,74,-916,305,103,340,-951,-26,73,286,3,109,-41,-377,484,-80,-161,-200,132,282,470,679,-163,25,-1027,213,-59,722,394,-516,233,-190,-525,-689,-683,-270,-476,-816,-87,166,646,270,16,329,-11,-174,-194,-606,46,-877,-512,-503,225,12,-267,-175,27,84,253,3,573,102,327,99,203,-505,-1108,-1256,474,64,-1282,-1464,101,-117,-322,-373,-352,-390,-803,-96,-350,-1178,1,493,92,395,200,-176,628,534,-851,405,-729,993,-385,-549,-349,205,-236,-1095,602,-55,953,-373,197,201,439,-184,306,450,476,-25,-491,-171,-577,103,312,352,-493,-428,-299,-417,-5,350,498,-259,-85,-480,-1005,-218,9,-478,-156,382,-548,-22,-365,377,5,-94,107,-133,-268,187,414,465,430,-423,-70,-285,725,763,-63,-123,222,570,-6,-185,573,-366,-300,-424,447,469,-195,923,-251,-170,269,-374,-276,146,-182,771,451,98,263,323,-617,665,286,260,380,-396,-425,-119,-140,-80,9,944,406,-254,208,-421,-370,-191,-589,114,137,-1038,-573,1074,774,-151,275,263,-208,-270,233,-39,442,348,-69,-165,-404,594,1194,808,343,979,933,-222,61,-249,749,379,729,-176,-171,-422,214,-501,486,219,389,-415,-598,-470,-75,-537,-517,-178,-702,-977,222,271,266,-40,-113,-344,177,-1190,840,417,993,-1287,235,485,-510,219,387,-770,-974,621,-648,-1122,-301,-512,-851,-1254,41,387,-799,-1045,-95,-286,-207,804,113,642,-943,853,108,4,1083,111,493,-15,-223,-104,-866,-251,-1167,-1364,-1105,-253,-282,-160,169,645,-261,-73,400,-211,-69,-327,-90,-588,-466,20,-489,165,303,-27,124,108,-26,-202,-591,-1072,-452,-400,-299,154,27,-267,328,456,-122,102,446,475,8,-140,-319,-131,278,-101,-81,35,-172,793,985,-369,308,-146,-268,126,87,-97,-29,435,-94,384,134,-24,-1267,810,754,531,417,-234,920,-1275,860,-199,-549,22,-526,559,-25,95,-18,-656,-100,-292,250,54,-800,164,-720,-1575,-150,178,966,1059,301,5,-554,-587,274,494,316,114,451,-533,-226,46,896,760,337,376,-156,-115,555,-362,-177,407,332,80,-331,6,288,440,-108,439,209,640,203,-8,600,577,236,-139,-348,-587,372,104,328,364,-806,782,-860,219,-219,1243,-192,513,-613,-174,-521,83,369,214,380,-572,-27,-775,-788,86,780,788,-989,-39,259,118,-604,412,-986,75,-77,247,-85,-304,480,-162,205,-819,400,36,-98,144,503,729,32,57,-111,-237,-220,545,535,317,395,628,638,562,-461,-882,-630,-549,-781,-636,-384,-498,97,738,776,80,-82,-608,-606,705,10,278,344,487,101,939,-46,-344,691,394,-1073,-153,173,745,-323,-237,453,-260,169,381,460,150,-834,-348,-472,-1536,-596,250,387,-403,-302,374,1113,-891,-119,184,462,-573,294,174,20,1182,650,390,206,-8,627,766,-208,-118,-443,-107,53,-737,-242,273,432,33,-446,-245,-247,-391,-117,-973,96,-496,-819,324,-14,-249,-290,-203,-896,-443,-487,-601,-839,-412,-486,-344,-644,-882,-516,-847,132,-52,-261,57,89,-677,-205,-525,-603,-1831,1141,-471,-218,-256,870,1148,699,-232,-501,138,-578,31,942,172,-12,885,1173,-235,269,258,228,249,344,681,-793,1039,-79,-379,446,308,-1045,-644,-231,-451,780,-324,-133,-384,-269,-147,255,-133,-405,1356,-978,-744,-359,-293,359,809,439,594,1121,680,558,-450,28,-194,-853,-737,8,-730,-249,-221,-124,-251,-485,-874,-269,466,-359,-629,-526,-1003,-236,-587,88,-132,-801,-698,-72,-10,-13,484,145,680,-78,1344,164,550,481,-458,-256,680,-193,-777,145,331,-135,323,-229,323,-44,899,477,-1124,754,-503,-24,665,-207,526,-847,785,-670,-1656,69,-203,37,-832,-1260,-87,266,161,803,-785,274,1181,91,-303,152,-105,-1029,20,378,23,283,-216,-467,144,316,746,125,230,-675,141,-277,-566,-429,-403,-86,-328,-555,464,-367,80,23,84,65,413,-413,-851,-1136,-1175,-647,-231,-393,-760,-615,11,118,-492,601,472,115,661,-208,-14,-147,-298,804,536,-325,-431,1042,1169,136,-913,24,-557,-89,-1295,-364,-264,-356,805,-341,89,-36,-743,40,91,-230,-610,-159,-369,-146,-1448,223,174,-576,131,236,-335,66,1125,1154,-518,155,163,-521,-660,572,-689,620,420,126,-96,-261,416,616,404,-269,3,-262,-1340,-305,-861,-1360,-632,-596,-540,-205,-1129,-527,484,517,448,592,-345,313,142,480,344,630,-317,-389,-269,424,-294,76,16,411,666,375,218,311,-257,916,634,-573,-533,-309,718,-146,-67,455,544,-679,254,325,-455,843,430,-433,-267,68,-618,-302,357,-303,627,530,83,445,-769,-198,-977,-304,233,349,-509,-123,-59,256,684,-388,-68,99,351,-117,459,86,-311,-29,701,634,-175,-542,-38,-452,-885,-193,-490,-512,-657,-102,-49,556,386,-13,-437,-67,495,365,-298,-85,-490,-658,44,-827,-15,-814,-751,-832,-542,-982,-220,-460,8,-708,-1117,775,14,-141,227,1166,-390,-447,307,-208,1178,-539,-427,139,-273,81,-40,1072,-243,378,316,424,42,353,20,-873,1289,-609,-55,126,-464,601,-1150,-165,-880,-365,204,473,869,505,18,113,384,887,-333,-402,-962,-143,135,1027,-74,330,-551,-547,-970,-816,-448,-944,-784,-413,-467,-579,-765,-272,-599,-42,226,-881,135,317,-874,-813,-757,-971,-263,-488,-662,-357,-97,-779,-120,-76,341,-316,-258,-330,-510,-178,-301,77,364,-646,-490,-284,-1122,-305,-685,-543,-875,-179,367,154,515,174,-406,-248,518,-486,226,-135,-497,-55,241,341,34,-334,459,-509,1232,295,1827,-10,-73,-249,322,317,531,-40,-279,374,-386,449,495,203,-108,-138,-114,-704,-607,-118,-118,-450,139,-333,-488,-1160,-202,-642,-288,-252,-531,386,459,451,189,-861,-349,-47,745,52,460,57,529,611,436,-329,-360,144,293,500,57,514,-121,767,-14,1062,760,-914,1161,777,672,1361,622,-451,-150,-186,369,-475,309,-730,-566,-461,61,-60,-261,451,852,-442,610,222,-43,-550,-238,-146,-99,108,-96,265,-305,-1889,-620,-81,435,551,-860,73,-481,461,-109,132,-212,-791,578,-462,49,9,582,-129,625,772,350,-198,366,-468,3,202,-247,-280,-119,-1,-206,-79,113,-345,378,102,336,548,435,1040,120,-452,453,819,404,-251,537,-168,217,86,353,57,174,239,1066,380,-28,-554,280,838,288,147,-407,1169,478,-398,-289,20,96,321,-730,84,-939,287,931,-927,-348,-369,367,294,-14,-819,417,-448,-126,905,-561,-643,503,-1300,1098,744,-513,-1178,-144,14,573,-966,-685,-1218,-368,889,3,-85,77,114,-168,-473,-3,36,77,411,-264,-119,341,131,-105,389,863,46,169,324,-288,-676,492,-433,-774,284,-116,-803,-268,-5,-765,-485,-786,-370,-873,-1126,-534,-949,-535,-596,-86,1190,-144,724,-959,-421,73,420,-297,-216,-329,640,135,934,629,76,411,-150,-189,-350,-644,143,-554,-668,-188,-734,-914,1029,819,143,772,578,1087,140,727,416,-477,-109,950,565,-355,89,72,-688,-299,356,1211,-842,501,10,-457,-302,-154,148,742,523,497,1157,1757,1435,305,229,-59,676,332,424,219,560,1083,998,1448,514,444,684,257,1042,114,48,-664,107,-575,31,-339,-596,-352,616,550,99,702,-583,912,-422,-405,-587,-144,-446,193,-93,1211,724,-698,771,-600,-807,-140,-224,423,241,-362,-379,700,-89,-290,-264,-1133,-35,392,-195,518,199,608,359,-29,-1510,332,-581,305,219,369,-589,436,598,805,-789,-915,-299,997,564,535,-442,-247,77,-106,-650,-1167,-438,-783,-135,14,484,372,550,430,-334,-302,-759,-414,-334,-265,-21,-620,-687,-873,-922,-439,47,-533,-709,-105,579,111,-55,-76,-33,-603,-529,-853,85,-122,-321,-589,250,-574,450,-1296,370,-436,-102,114,332,630,-308,193,636,230,140,-488,-170,517,-665,280,41,-779,-158,-375,296,-284,-203,201,255,-597,213,41,40,392,1026,-212,-89,237,-710,245,-770,-274,621,-203,469,359,723,487,-320,-779,-409,67,-863,-1127,-986,-257,410,225,-536,-518,-942,-802,-842,-863,121,-26,-177,-342,-1114,-1112,-404,-218,86,-9,-522,409,-217,234,-545,346,712,340,-663,-227,4,443,-536,-451,36,555,27,-436,-687,491,-139,-30,-812,260,35,688,472,-51,550,-1058,-1462,317,477,-117,234,225,190,-210,381,-446,1059,852,403,163,-198,397,-588,270,-871,-15,276,201,-345,14,786,73,369,-16,-102,-943,36,-158,-397,243,197,-4,-58,-20,564,847,-210,427,-216,-767,-86,-398,-46,-297,-104,50,238,-348,-359,-174,267,-493,204,735,183,341,603,42,-312,302,-399,-426,249,239,-466,-281,-253,-578,-65,-597,-225,782,-438,1046,318,-629,-742,-423,542,81,247,-72,161,1059,-442,-1042,6,-2,645,257,-675,-666,12,-176,582,-882,92,197,602,-399,149,-249,463,-490,-668,553,257,170,-335,-833,558,-37,-239,746,718,-311,119,435,208,404,195,168,-607,-11,-221,-422,-936,-269,-754,-450,-25,-338,216,166,164,245,982,-26,-47,755,64,160,226,-154,556,370,486,824,529,721,1048,337,-323,68,-577,240,-2047,-392,-172,-692,-1158,465,243,-406,247,-752,485,-237,146,-459,294,-1471,-567,1071,-150,423,961,343,41,-553,-306,690,-412,855,-83,331,-405,55,367,917,-438,-930,-567,1363,374,-311,-392,6,332,434,-657,-977,144,531,107,725,278,-165,629,-337,107,391,419,792,-86,199,651,65,370,-58,-463,-507,453,565,287,-94,520,169,549,-294,738,416,836,674,-96,-209,190,730,-623,-538,529,121,-67,724,141,14,-462,257,525,554,187,-501,-321,-266,-253,250,-673,-64,-258,-237,-752,-421,709,779,432,21,-1181,241,-315,325,1204,-593,-601,998,-144,385,489,509,16,-160,-127,74,310,108,-230,-22,-232,-487};
const static uint32_t LSTM_01_weights_output_gate_dims[4] = {1,1,48,88};
const static ConstTensor_t LSTM_01_weights_output_gate = {&LSTM_01_weights_output_gate_x[0],&LSTM_01_weights_output_gate_dims[0],-1};

const static Weight_t LSTM_01_biases_output_gate_x[48] = {-1252,1296,3357,-1865,780,61,-50,2268,-2063,2264,-1660,-79,-1212,-2484,115,2652,2760,1385,37,844,604,-1087,944,-2851,934,85,-3062,1039,-2411,203,-1061,806,-1657,1279,-919,426,-1210,1726,168,21,584,-3932,2358,3693,1487,364,983,-1032};
const static uint32_t LSTM_01_biases_output_gate_dims[4] = {1,1,1,48};
const static ConstTensor_t LSTM_01_biases_output_gate = {&LSTM_01_biases_output_gate_x[0],&LSTM_01_biases_output_gate_dims[0],2};

const static LstmLayer_t lstm_01 = {&LSTM_01_weights_input_gate,&LSTM_01_biases_input_gate,&LSTM_01_weights_cell,&LSTM_01_biases_cell,&LSTM_01_weights_forget_gate,&LSTM_01_biases_forget_gate,&LSTM_01_weights_output_gate,&LSTM_01_biases_output_gate,LSTM_01_output_dims,LSTM_01_input_dims,TOFIX(0.000000),tinytensor_tanh};


const static uint32_t LSTM_02_input_dims[4] = {1,1,1,48};
const static uint32_t LSTM_02_output_dims[4] = {1,1,1,48};
