#include "tinytensor_lstm_layer.h"
#include "tinytensor_conv_layer.h"
#include "tinytensor_fullyconnected_layer.h"
#include "tinytensor_math.h"
#include "tinytensor_net.h"
const static uint32_t LSTM_01_input_dims[4] = {1,1,1,40};
const static uint32_t LSTM_01_output_dims[4] = {1,1,1,48};
const static Weight_t __attribute__((section(".weights"))) LSTM_01_weights_input_gate_x[4224] = {686,-1142,-518,-569,1163,1222,-258,-208,1134,-103,558,-301,809,415,1197,-439,-158,908,-717,1136,1,-760,928,118,-407,97,-177,899,-639,206,1455,1367,885,1016,1309,-186,1327,1553,1115,1978,-233,49,-174,184,-392,15,-256,556,1225,-265,-565,-434,-459,-209,-520,-40,-72,459,-744,-111,1041,-1240,-1080,-268,433,523,-884,1761,-537,1263,-173,548,1122,446,-89,-1389,-1612,-560,-66,-1002,425,406,-1098,-628,-2087,-923,-156,459,88,462,357,28,35,409,917,759,163,167,212,-507,786,-24,604,-993,-696,210,-490,-1148,679,505,317,-43,-852,-36,914,99,878,130,745,-689,480,-505,-383,326,-340,109,-212,18,510,-439,-951,-612,321,678,921,-1270,399,-610,866,-436,-82,-620,-537,-2,-671,734,286,-1384,-705,374,1121,-172,65,141,-617,686,-494,682,-245,312,78,-15,644,-325,1091,-1596,1047,899,405,-346,11,-226,1129,399,-587,-1034,114,-573,-1134,-46,98,498,-433,-184,255,-136,-125,664,190,182,266,-701,-456,1132,-135,-623,575,895,117,475,69,945,845,727,-335,1070,598,534,646,-1207,-716,116,752,785,-953,-486,-627,-902,733,991,1211,712,-398,1023,783,1234,53,-1028,-1305,625,-160,-327,835,-1118,789,-723,609,714,982,912,-95,-158,-554,-379,143,373,-339,-560,-67,-300,-591,-444,956,426,122,-174,1469,811,325,107,-360,-403,-191,903,-274,-1299,-195,281,1538,1572,1685,-339,537,902,329,-254,-791,904,995,808,767,506,-1000,740,-554,1281,-617,915,1024,778,-321,-104,735,287,1047,1068,692,1248,563,-708,-146,441,1086,657,-92,1043,-772,-920,-674,479,-296,93,793,246,-466,683,650,88,-549,-307,2135,229,-229,-260,571,-376,241,1011,-795,843,717,-327,-589,503,-319,-680,107,-866,150,-1508,-1062,781,75,741,398,-332,144,-574,142,-66,-1428,465,221,-1421,-1080,-1502,227,-1140,-1482,-1867,-749,-1331,-495,-1780,64,-264,446,865,-587,-339,594,-1115,-391,-740,146,-1151,-2054,-373,-627,1017,548,-289,-626,-23,309,542,-127,-796,-653,-729,-1075,-1046,-925,84,688,-53,163,-68,-256,-849,-658,-244,1184,-377,764,-641,1207,-83,53,691,-677,-508,-632,-618,-594,-1450,942,683,90,-999,395,-261,-1256,296,-355,278,133,1288,-745,-993,279,-1140,-406,-227,936,337,-295,-400,-453,-54,109,100,-516,-557,-119,-249,-1076,249,536,317,-121,-1017,286,-735,-179,365,-804,-612,-1553,-112,-472,-1245,-272,-1345,-1047,-166,-355,752,-336,-800,-425,-792,465,591,-904,-441,-471,891,-1035,-755,81,666,-389,323,2177,-89,-1138,-627,776,-617,-83,253,-755,586,-227,-453,709,274,1143,121,1909,-422,-313,917,0,-1755,1288,-60,-65,-630,-384,1425,-1041,-1035,123,-459,-888,483,1686,82,486,-630,95,-173,971,-851,121,-550,-420,-743,947,-182,-1835,528,242,1935,1593,-916,-1475,597,36,186,-578,-929,-284,373,847,231,766,-818,-230,464,773,132,117,468,-825,-822,-668,-953,-922,632,176,-1188,-316,-704,-594,899,213,1117,3503,589,680,-493,56,-1544,-61,1156,942,1390,-1276,779,-47,1538,-824,-586,-748,-46,-1757,-939,17,1432,-71,-275,-1036,-990,-470,-722,264,-2522,-534,-364,-38,1330,812,592,1477,706,1189,-868,919,606,739,-99,-598,725,1495,1140,164,375,-221,-1785,-527,-152,-1716,-632,-723,-85,-833,-1266,-1721,-1242,-1009,-907,-815,-1141,-897,-1022,-144,-781,-76,-488,-175,-1639,-215,-331,-35,-508,-763,464,299,-470,853,-261,-1296,-973,-1627,1730,884,1874,-523,315,-140,2000,-669,21,225,-254,1851,-689,-801,-797,-735,-427,1385,1784,780,-231,-379,-209,-917,653,1043,917,767,1190,-1329,-1555,1171,-351,551,454,-54,-123,50,-1724,1980,21,-319,-37,2247,59,-1387,-13,592,-1350,-748,-1147,-523,555,-817,-1141,-835,-265,377,-774,-654,91,-16,-199,-615,-364,229,-725,-1800,-824,-281,123,-49,-462,-189,-717,-743,105,-449,-1161,418,-918,-451,473,-203,-191,-894,-180,1222,-272,-77,160,260,-363,-1199,842,227,331,1324,-274,-14,-926,1581,872,-472,415,1020,-1009,764,-917,-993,-596,1293,163,90,683,1189,-569,-1672,-1209,843,618,-1066,-622,90,839,1482,686,664,253,265,-30,345,-951,606,1330,-914,-43,-378,639,-1109,149,-1116,-204,-18,-343,334,-684,-1060,425,215,1042,-1055,-518,-645,799,-592,176,-426,-205,-111,786,184,464,-211,700,-805,244,406,-564,-617,-164,-688,699,-533,-463,-1062,-1302,392,1615,-1330,1531,-1504,-539,-707,-103,86,-1247,35,236,1083,-1516,-363,1091,133,500,1376,772,211,-87,-146,-147,-617,177,-1393,-1214,-966,-198,263,-62,828,-644,-1220,1306,739,-157,125,528,97,640,-297,-301,912,-309,-403,-73,-198,-234,-624,398,-363,-584,871,740,414,979,-604,69,-1128,-812,-1083,843,49,-6,486,314,-858,430,-640,61,-455,282,-1070,371,-447,-918,-238,466,-603,524,-8,-221,698,-210,-67,10,-836,829,-22,541,-2705,1296,-701,-351,219,170,644,1265,-333,1384,1145,-426,12,1333,-1683,-138,-136,322,-1470,-1201,385,774,-60,-207,-67,-286,-88,-679,-1019,126,202,-356,462,-11,668,-539,1862,-1083,-46,-1209,815,167,-740,227,-710,711,-1309,542,1130,-706,530,-753,1190,-1143,869,-348,-70,-67,-847,349,761,862,-179,-672,984,-662,138,269,569,466,998,-576,698,539,-488,425,-20,71,-1032,-1283,-814,350,-261,-175,410,-865,942,1572,-901,-534,-583,1112,-508,1056,-61,-671,-501,-281,-162,694,123,-1550,-324,168,1810,-925,173,-437,516,222,-119,1886,-295,-451,1095,-1803,-702,230,-1096,1545,-73,-30,648,-1066,-505,720,-278,-967,1039,-972,613,-611,-717,535,-902,175,-1231,183,-251,-1208,338,-551,-802,-885,-459,-499,868,-712,-1065,-20,645,-692,-1108,-356,355,-1036,-486,939,872,206,-333,617,698,842,-776,-643,1096,346,284,-553,-552,-316,-304,-1003,-342,1200,1008,791,-66,-660,308,801,-733,702,-75,-139,-687,-281,-510,605,373,-1409,939,910,501,165,136,-409,-272,323,600,176,553,-1289,448,165,-390,285,325,-320,564,-126,478,-723,-76,182,515,204,884,352,-185,502,855,1142,796,358,9,981,384,1205,33,938,-185,929,882,-493,845,95,143,547,-323,786,453,355,926,168,-298,965,1135,471,-100,370,261,-617,64,16,230,-330,1094,-1105,-539,906,-372,-428,-1152,-654,590,627,1309,-834,-140,859,-1272,409,-1142,229,48,574,-282,674,-677,670,668,600,1922,481,-318,445,-455,-517,746,-812,-667,-238,305,-133,278,538,-156,-344,539,-9,-430,-383,798,724,-891,-46,-615,78,280,-555,747,-1052,511,-41,-455,448,1129,119,1257,35,563,-664,-282,-994,87,-784,773,233,607,166,614,17,1124,-639,-384,1060,1071,-194,84,763,-414,496,345,1273,1796,163,-33,485,-5,493,-141,809,-436,-1255,190,-371,-147,236,-385,1042,573,274,-853,-904,799,-216,95,-1083,2238,416,52,-362,-407,-959,-487,43,283,283,-388,345,-218,-1296,-433,372,-1103,1001,-821,-250,304,-259,262,-347,-854,746,-310,-1289,-273,336,553,-243,736,450,-133,683,-176,-404,136,-496,1161,-653,-250,-977,776,633,-702,-335,-838,769,-336,689,-89,168,940,836,-455,688,354,565,-814,-7,532,-640,-127,-517,219,-1257,1070,166,275,571,350,674,1087,-283,480,-376,-63,-2091,-878,988,-1068,893,428,2153,-983,-92,933,-577,-1478,-356,48,-720,239,-512,-1043,-262,-833,287,-460,344,-894,248,-780,-207,-324,344,-285,1877,-715,-296,-432,-101,-633,-636,252,429,-155,1349,1071,1136,1005,-386,-572,274,130,955,567,510,-387,434,47,899,-223,247,956,1305,1234,1030,-166,123,1193,-316,387,534,820,2,689,60,742,-643,709,-465,790,-143,1163,273,81,801,226,-497,1099,361,941,182,715,-415,-1417,-102,-1630,-893,-277,-379,-113,517,-724,602,1596,260,941,530,-1042,-285,480,971,-216,-1014,374,721,29,115,-187,587,-774,927,-402,-251,159,-941,453,1150,-472,331,623,652,-162,592,276,665,-727,-484,884,1229,-149,1145,239,1326,-189,-821,-12,-672,-235,600,135,161,622,-816,263,-404,39,755,-642,-554,-245,-424,-318,-296,928,-841,891,1117,274,-15,-115,-1307,-408,933,-21,383,-392,-1241,130,-567,-646,-841,-355,-89,-1321,-1645,-1404,45,-26,443,-1614,-824,315,126,-1618,16,1162,379,-99,-855,-917,-170,1047,-147,1033,169,-890,242,1278,67,-944,-630,-272,-380,-388,115,265,942,-554,169,-809,-136,57,-804,-766,-71,67,1444,-512,-40,1709,-354,1556,-90,458,-743,303,560,-629,277,1501,-367,-411,-515,-357,931,1087,1629,1494,-205,542,1292,897,2016,-1095,547,-463,-933,-339,-65,-1243,788,309,-769,-371,312,6,699,-474,-49,-22,238,257,-618,1151,1380,-1198,-1251,23,40,1117,-607,-281,-91,587,-122,801,-124,1341,-1573,-329,-219,360,-412,-146,-38,-939,-131,243,-1057,379,1016,831,1121,-339,739,-255,-137,485,390,-838,-858,-5,-1286,587,146,212,-1295,-42,279,14,-1414,-31,842,-970,-630,501,517,183,1000,-613,394,55,332,-167,-1470,-820,-495,336,-1322,-993,-1147,314,-227,260,-687,-600,524,319,-1071,-896,1118,-667,-145,941,-646,-1000,516,-436,-1218,-1333,-1774,-142,-813,828,-232,100,-861,-316,1076,167,-1054,572,1546,-546,1394,238,-916,2077,218,1171,187,-901,-861,-22,335,254,1071,-1188,1786,418,-384,100,-349,904,-60,1205,-106,97,712,-545,1231,382,650,-436,948,-742,-494,597,-236,454,1263,992,-4,1419,37,850,175,241,-484,-291,1314,899,1415,16,800,607,-350,1416,179,-107,597,-654,-248,-249,-752,-1132,166,-475,1560,1013,-1018,-734,-384,-1101,173,61,38,811,226,-1420,444,266,-163,-77,-423,-713,-228,-503,1082,-303,235,-542,-182,-434,-2090,-757,248,-423,-377,-809,-278,-1434,-291,1024,-859,1400,-109,61,547,-282,929,722,1157,460,-552,1373,484,961,-230,-748,-759,-968,980,1048,-627,393,-71,519,267,632,-52,1212,1322,297,-530,1142,-66,788,733,930,-658,-931,142,352,-1083,468,210,2332,-182,782,1145,-36,-105,267,488,-605,-431,606,-404,-284,-689,-764,1164,-497,551,-852,-800,-797,-110,-738,-131,597,37,158,-544,169,233,-725,1522,-314,672,-381,303,1736,-155,-2257,255,38,-854,1149,-341,-160,453,-69,1441,675,1205,264,278,-847,-281,-808,-515,-427,1032,-16,578,-550,-232,-222,744,817,956,-690,-422,-352,858,-749,-69,-840,1208,235,-492,169,83,613,1162,-126,-233,283,-851,911,577,-905,512,-314,-343,164,-590,377,227,777,1478,661,1079,-219,-412,573,-250,-1178,789,3,1659,-282,105,-1347,-231,-697,-598,396,242,144,643,-60,-1559,-535,340,334,-368,866,288,248,-153,-386,265,614,1886,304,-95,392,-106,97,-340,836,598,125,-255,1096,-149,-279,380,-615,587,887,-796,393,740,623,46,252,944,-529,224,69,-590,1069,-521,-430,-153,-109,82,374,-513,614,76,542,-975,-331,-579,-326,-734,538,961,-127,466,-341,-692,-844,-384,-1324,-568,894,194,89,330,-1418,425,-472,-898,-931,607,-129,-759,185,-469,-216,-522,-1010,132,49,75,1238,-382,227,1129,-1391,-3,-650,616,157,958,-489,-33,813,757,-625,448,32,-290,57,-465,922,982,-837,1149,878,-628,723,529,1192,-368,354,1444,251,-1405,300,1125,-921,-223,126,-724,1270,-648,1033,500,-535,6,452,899,894,503,-297,-157,-216,-693,-680,313,1288,386,382,-521,-849,577,-257,-867,-348,1523,437,-153,1012,-78,-422,542,517,1336,-1183,-1869,537,-18,1077,-673,-235,-166,85,850,34,273,-274,371,-1238,301,-645,-73,820,1635,89,-800,1047,471,-9,-1276,586,-1614,1980,-653,-510,-37,-325,-275,-344,663,-831,519,757,1300,677,-43,1386,1140,18,-771,-562,266,551,601,1050,976,728,1243,622,-114,1257,-332,74,1075,1038,-740,481,-697,565,-455,300,-87,-666,-931,804,-121,-641,111,-187,30,-399,-144,-993,-163,-69,242,-603,118,489,-1970,1177,1291,742,1308,-326,1081,-343,-426,1358,-796,232,275,464,-243,-348,236,540,427,320,-184,-462,-129,328,-60,316,397,-1035,-593,-610,250,497,-50,474,-569,-498,-303,303,333,878,-100,1028,-772,-715,188,-167,-599,-1198,-114,-1157,289,-361,-67,164,582,650,-56,-1185,654,573,-1034,-509,-317,-829,-894,-105,171,-1440,-1180,-204,948,940,-640,45,1015,-532,267,-595,363,-1065,408,-1497,-220,259,161,765,596,-439,-588,-509,-486,1082,766,-645,4,-603,75,-289,708,378,-790,227,-16,278,-705,91,285,-915,80,-1018,247,-876,81,-811,1283,744,928,604,-20,-1422,-949,-1009,-198,400,-278,-880,617,98,-552,913,549,-162,-514,1120,-638,-465,-802,540,257,-364,-803,-684,-799,-273,18,-437,-136,-391,544,1033,-556,-846,-1120,-269,-40,-881,-1876,10,7,-763,-1792,-770,-971,-916,-2219,2974,470,1829,-845,-328,-151,-115,-1,373,-127,1536,-270,446,1032,2028,372,1542,-685,135,99,-126,-24,1044,659,-316,-1478,560,856,513,-372,-1811,-323,453,-334,599,928,1016,-753,462,26,-1497,-1227,1585,-757,1159,368,-696,1400,-373,391,73,1188,963,451,-334,490,-111,-554,869,932,1126,377,-579,-125,-1376,-728,-667,-421,-1169,130,266,307,-1322,-1190,-529,-331,231,-1376,-1018,-1287,-1042,232,-808,-1215,-86,-850,-79,253,754,732,2292,4,158,-1004,1275,531,282,-317,290,-769,400,-368,-948,237,1125,-1069,1224,-160,-894,-1385,674,-436,530,-1139,877,119,77,-738,-1833,-1156,-384,-190,-937,456,412,-901,-108,5,833,-125,-687,1330,-769,1138,-941,767,593,73,768,-202,-100,240,-348,-1128,-359,-764,441,271,-692,680,528,457,-812,-872,-1145,613,849,-846,-725,791,-166,-855,236,522,1185,792,-747,713,1421,363,588,885,-575,-213,323,-259,-1325,1408,-938,-753,1237,-305,-1323,-291,695,358,235,118,-2,746,1243,-355,1038,1058,-646,1873,792,-721,1015,-1299,-109,95,520,-230,-1562,913,-420,369,583,-392,-130,-243,1301,-132,-84,1068,300,-130,-348,-655,1111,791,813,403,-222,672,7,1210,1461,629,-1446,977,57,-20,476,-973,-260,342,-569,-6,-665,-1424,-918,214,126,-1279,-1217,-308,-918,-30,513,-792,-1480,-1325,-439,-1511,-850,946,539,-20,-414,-1278,-358,79,-384,-1374,-1397,-505,378,68,-830,-181,-527,606,-1279,919,-990,572,742,-650,609,684,1714,-158,576,1579,-245,1520,1109,-125,44,980,-242,227,1452,-326,1692,96,558,-94,546,240,772,-478,-470,-1249,-319,-453,339,545,-838,-576,-1894,-1337,-476,-1493,-515,-1492,1166,-410,-359,-1417,368,222,-1526,-765,-622,-309,-951,-943,-889,53,1099,165,689,431,-990,-230,952,-479,613,-763,358,-200,-264,-1369,223,265,81,-280,396,-856,1852,272,514,-428,483,-496,940,-36,-72,-32,-1319,-1130,-80,185,576,-506,305,-293,-368,-11,189,-2491,-1159,46,-1122,1711,-726,-114,462,306,-2509,-5,843,-304,-1139,335,-1227,303,1335,940,215,470,-224,620,584,-491,-616,-147,110,-259,-919,-735,-685,-1138,-318,100,166,-595,1208,-249,609,-594,-424,634,-389,-380,536,-634,561,-784,-1107,634,704,96,-840,-252,-49,402,-1354,589,182,-320,-1005,-797,-6,615,217,798,-524,-254,1027,-404,275,-922,635,92,-1195,1,426,913,993,938,526,-1279,1120,-975,618,-685,30,-1109,-189,6,1045,780,-866,559,-748,427,-1219,-98,-375,-879,106,553,108,-750,-526,606,-214,287,-465,-2232,105,-684,1171,20,-342,-47,-259,815,492,698,-158,1177,-593,351,3,-759,-262,-114,-12,640,599,-820,727,112,-420,319,-85,818,-538,-499,771,14,-587,-205,707,432,616,-591,50,696,522,259,821,-941,20,-543,613,-95,176,363,84,804,746,-460,-1117,-165,-30,562,969,-329,169,1044,229,80,-6,-818,-109,10,1162,-322,885,647,723,-237,-290,-417,-993,-1100,-1827,-498,-343,-1299,236,585,-939,-983,854,-113,509,369,1979,463,887,390,910,1475,960,161,-2,-323,198,-373,-293,-77,1242,974,1379,1208,117,-532,434,-254,626,-129,203,-409,1102,-214,121,1179,537,1179,1056,-171,664,558,918,-643,271,1321,1215,511,1631,100,-351,-624,-199,-633,700,56,-631,-813,643,-802,-819,-127,-67,1276,-172,505,-732,351,58,351,-193,-291,-667,2363,-604,1204,-313,-1615,-558,774,-1073,-434,-1161,-361,755,-408,11,-1076,-251,-830,-531,-127,-113,40,-18,1294,-618,929,951,232,242,125,996,-205,570,40,-122,333,-860,767,-866,-945,739,245,637,642,-128,199,345,-1080,-346,-826,825,-833,94,-1077,-358,424,-1332,239,169,-1501,-1665,-1796,-1033,-385,964,-926,747,-384,500,40,1305,751,-716,1156,719,53,214,-242,754,1597,-743,-379,-109,-719,136,-926,-564,-1600,-652,194,-58,-1156,-199,-176,923,401,-734,-146,-680,-1109,164,-354,322,-24,13,-844,214,219,-678,485,-471,353,285,876,696,-781,1101,-598,-286,983,-254,818,290,-79,-17,-279,1063,1235,-614,-142,-539,-370,506,1095,-178,1011,1009,1235,447,1527,611,-170,-587,1062,299,1591,1239,1806,668,328,268,1983,-1183,144,-2177,1050,210,-933,34,687,-876,642,-465,1252,-400,453,553,-295,-1064,474,110,-386,-262,1246,596,-983,1389,-419,-377,352,-136,-551,-289,823,683,-591,-451,-908,933,642,-737,163,-1811,425,-128,1471,-529,-1563,-21,138,-855,-223,-272,855,822,-207,435,1341,-549,-802,-351,983,-825,380,143,-107,1165,499,-411,1168,376,1028,1198,-491,638,1216,574,725,-132,1171,1273,-816,-665,-590,35,-721,527,-791,914,-533,-310,304,1093,-190,415,-1028,-1047,458,653,-1633,1401,-379,-510,259,-1006,1491,645,661,1231,-849,-321,523,-12,861,127,-305,1159,824,-847,592,-1985,-834,407,-882,94,1759,-227,1173,2237,-584,-1112,-371,1011,-817,4,-1544,232,965,485,-426,-1097,614,-409,426,-187,478,-604,-168,-1076,400,-817,130,1241,-78,-80,1271,-310,-389,276,-448,1144,-523,-425,1192,1379,505,750,-353,1235,460,-343,751,-219,1298,-476,1220,1121,-459,26,948,742,132,228,-842,-375,31,-799,64,-338,177,492,1708,-119,468,-222,1208,502,-116,411,565,379,493,174,754,-163,-286,683,699,-829,672,450,-157,125,-461,-1927,-513,1144,-762,1053,500,756,-498,-1326,1402,396,329,1000,-1302,1061,451,-1203,292,712,274,-394,-1109,-590,-1512,-61,-1070,-1311,-36,-1379,-1159,34,-252,-233,-251,-405,-895,-167,-1501,-1666,-812,-897,-164,1040,551,-1417,-1582,-940,420,-594,-1103,-603,30,-339,236,1647,-308,-254,250,-1029,1699,332,165,1082,-401,-2771,-34,-576,1419,387,-1230,660,934,914,-1636,-236,-1510,-280,156,705,268,766,-239,-968,883,191,-1080,-386,-1481,26,-730,216,1490,-906,-171,-728,-570,363,1268,-1571,-311,-278,358,386,-144,433,271,-517,923,-352,187,-19,-634,-924,-417,-126,28,-1044,300,-427,-1010,448,-407,-271,319,-291,802,-585,678,510,-263,538,243,-1230,-1116,-37,-1089,-846,-237,-1591,-1406,2177,596,800,-1099,704,292,577,-575,55,-1033,-762,-264,-288,778,-35,-139,406,374,1680,1310,-419,-765,823,178,-1610,1698,1702,-344,-1030,433,-716,-1134,-48,1050,-1529,-111,457,-144,986,-212,-502,749,1590,-1701,81,-759,-1438,370,291,600,-524,80,-1758,-1569,1,-183,-72,342,605,-253,-25,-1084,-295,-503,-1101,-880,-1275,765,-508,138,393,39,-328,-591,-972,-621,-346,1061,174,-1225,34,125,-1535,40,324,-361,-561,-702,-2008,1739,102,-392,513,-14,1128,-209,726,1140,1154,781,-568,-369,-708,-1684,223,225,1076,-20,-579,-289,-184,-62,-767,435,487,-863,711,989,1621,-84,501,-592,553,-331,-708,50,-835,1761,670,-334,-1523,-362,-2525,20,-601,177,-65,1119,642,1689,760,-476,224,-374,473,1086,556,-126,47,835,-631,-261,-152,564,456,1538,455,-577,1310,-941,56,-894,1287,-354,177,780,703,366,-128,529,216,-221,-8,522,-225,913,263,-1036,495,304,69,-99,499,1004,684,614,-220,564,-497,-291,-32,-1218,-104,-443,-206,-150,762,-1626,147,-1309,908,141,-203,435,650,694,119,-829,-1472,625,1400,46,-760,3,1536,-440,432,-525,91,157,-174,806,-399,478,-525,660,1192,505,-575,-273,805,758,111,-610,-342,-33,-337,-604,263,-453,464,-618,596,-780,-200,-673,-366,-238,-318,-834,-1173,281,-1395,-772,-689,-977,70,-272,482,522,2015,355,-56,741,-960,-142,1164,1410,-525,-567,-192,822,1962,-324,525,503,595,-300,-499,-1411,-711,-88,248,-122,2588,-52,-499,-1083,-93,581,116,-333,404,-1945,-834,350,1084,124,817,-755,-3183,543,-231,11,1175,-149,-399,-1082,454,-200,446,-965,-657,-33,862,-508,-617,-310,-130,505,212,-211,728,-381,80,161,-408,380,-440,154,-1094,709,762,-28,-62,49,442,611,75,-1397,280,-735,-168,-775,-538,-1369,-125,-171,-399,-373,-1456,-832,-934,782,19,-1492,1040,-610,452,-211,-1180,10,-597,-918,-807,-29,100,-1108,-1326,1317,-893,-1384,-661,71,193,48,-568,-536,-200,-430,948,-274,-1051,-1853,114,1063,-49,956,-873,-506,-841,905,-646,19,-296,-516,-420,162,299,375,-94,-197,-1148,706,1234,652,-593,-785,13,-918,-332,316,256,-786,-84,-130,740,467,-1139,-361,-1043,-620,-784,458,-322,-288,-514,914,-1200,59,550,343,-1202,-567,737,729,946,-207,-74,-885,253,1425,-1072,-180,577,-671,499,-1590,966,671,-1007,1778,-227,-898,-505,402,-440,-838,133,-1742,589,-1881,-4,1023,81,-915,-48,-33,-1283,-195,-2220,-2203,-241,182,542,492,10,384,1113,-951,-1185,-428,1201,-743,520,-434,1481,-487,-1614,-1636,-1551,-602,-1077,-226,-180,484,1202,-1078,-144,-387,-900,-398,-966,881,-940,-608,-663,850,786,811,124,-881,338,-1584,-1024,635,-329,-66,566,-118,-1016,-273,-6,5,474,-1296,-126,-1190,283,75,-565,352,102,-281,-2057,925,864,257,318,-1234,1347,-296,-174,1446,-1213,-1402,847,464,79,-274,293,283,-1485,387,-343,426,-1451,-1520,-1254,586,-961,-113,182,1216,-420,-439,-907,471,-231,-1226,711,232,717,472,-1665,905,181,-55,-337,-928,689,-387,-261,305,241,566,-251,898,1037,903,-476,-1036,-953,-228,984,-59,-817,-805,1032,-12,398,-623,806,-667,-750,80,-916,271,-904,-357,-798,831,163,-368,690,-439,968,1794,458,-1008,828,-105,-356,796,460,1057,-403,218,180,-931,-501,120,-143,282,-23,-970,308,478,630,414,1192,194,-139,1587,224,-1280,-127,425,-616,1030,212,-184,140,158,-16,629,-576,-1179,-364,215,-1365,-29,1940,-2495};
const static uint32_t LSTM_01_weights_input_gate_dims[4] = {1,1,48,88};
const static ConstTensor_t LSTM_01_weights_input_gate = {&LSTM_01_weights_input_gate_x[0],&LSTM_01_weights_input_gate_dims[0],0};

const static Weight_t LSTM_01_biases_input_gate_x[48] = {988,-242,-93,135,-1673,-1283,-785,-1191,-824,634,-966,-385,-616,92,0,-733,381,-710,565,-471,803,193,27,430,123,-118,498,-1326,-2044,-864,-338,311,-562,36,58,-570,-505,-973,766,-2225,-794,-797,202,-938,-808,-689,-1047,-198};
const static uint32_t LSTM_01_biases_input_gate_dims[4] = {1,1,1,48};
const static ConstTensor_t LSTM_01_biases_input_gate = {&LSTM_01_biases_input_gate_x[0],&LSTM_01_biases_input_gate_dims[0],0};

const static Weight_t __attribute__((section(".weights"))) LSTM_01_weights_cell_x[4224] = {-143,-84,-122,533,905,1532,1067,526,-81,129,-118,588,-209,-233,954,169,-260,514,0,-556,1,-274,430,546,464,-146,576,-192,493,289,5,98,314,-941,-820,-751,-936,-734,-1207,-2478,-8,159,625,-48,-890,-52,185,111,848,228,-371,-530,523,1047,-89,-411,459,-427,12,-368,-403,-460,-274,-1049,-1039,391,360,189,-515,856,147,-810,171,172,3,-290,228,43,1042,-878,-544,-539,468,-6,9,-2,954,390,-127,205,174,-358,-406,116,120,97,-105,-201,-672,-580,159,-787,-182,-498,-684,-635,144,626,764,491,522,-107,-65,-423,-757,-685,154,-344,-554,480,332,270,696,406,188,-333,385,1187,-606,-321,-269,-698,-634,-392,963,103,-358,405,-90,109,218,-107,232,277,-28,-579,-679,-268,-295,-164,564,-12,-964,-54,380,534,-514,-340,475,-264,-256,-22,-365,303,-77,-409,144,289,441,-133,-664,-835,191,789,301,-353,268,894,560,49,11,-158,253,605,851,1123,191,852,565,460,435,-136,258,162,435,-258,-277,483,-140,-5,225,159,488,100,-72,-97,-545,-741,-250,-538,-378,-53,478,118,-477,-170,-962,600,-104,-858,854,-269,279,353,448,-476,705,138,569,-438,-827,8,-156,-432,136,298,-829,379,-41,1315,761,-355,802,-321,-75,-544,-225,-437,204,-307,91,343,483,346,-83,-395,-653,186,1,109,1031,304,545,-403,-422,14,-321,-837,-908,-1349,-1017,-261,-307,-433,-363,708,193,700,-233,-69,387,-33,1231,408,-314,-461,-252,-551,-973,-593,-32,169,-467,-219,-55,-193,-215,356,133,357,497,88,-187,609,-294,2,1053,-1471,-995,-203,68,186,289,-840,-252,-972,65,260,-216,687,-154,391,87,-228,-671,-461,-202,-681,1,719,-129,-49,146,-299,331,-550,322,-363,312,-400,909,-86,-947,-476,332,1121,-329,-588,-964,-254,-323,-69,289,-595,-426,-205,403,-369,127,-265,-307,-502,337,-26,-575,-76,-514,-565,-250,-64,-355,-385,-420,-176,-539,-453,-678,-245,-506,-614,-621,-322,-335,-665,-693,-976,-245,-680,-581,-255,7,-148,557,-23,-224,65,451,-126,-688,-345,-185,69,773,138,-42,742,-266,630,-551,-73,-622,224,-1123,78,233,269,-457,-128,-159,92,-231,-64,-136,-84,-598,628,-116,474,317,325,230,-590,81,133,-146,177,562,293,-795,-77,257,218,696,257,-33,-402,-223,-395,203,-436,-528,-88,283,666,-399,-257,143,-4,550,2,741,201,-471,62,-64,328,-638,-219,-465,85,-217,-80,-416,-221,-190,-312,369,254,34,235,-486,555,-325,587,-120,-24,581,384,-396,669,-25,150,375,324,-126,-42,-420,-53,-171,781,180,-357,-356,1,-20,-558,-274,-262,-1019,167,517,-191,788,330,944,34,-415,-314,-714,-250,-57,557,-277,-344,578,266,-744,95,83,-252,-515,-734,613,9,-285,-840,160,504,-152,-47,683,128,148,132,98,473,-551,-777,-316,98,107,-269,564,335,516,386,141,191,-397,422,-435,-407,616,-162,-102,-144,-154,-490,22,156,-374,478,432,-420,-7,-621,-613,-26,-221,-509,261,192,-400,79,-604,-302,-271,324,236,-842,-747,-220,-602,190,-643,-810,342,-10,-163,158,-453,-36,-487,484,361,-127,-145,567,75,194,-1552,807,-989,-393,-486,-4,-280,315,190,172,471,149,361,865,468,853,337,309,972,652,588,990,-268,456,543,-98,226,765,-49,453,240,-103,658,347,572,427,-202,288,-432,278,-328,10,-443,-550,-500,-627,1034,609,464,-349,-278,125,367,115,2,330,590,-389,-214,-136,156,-192,685,-510,-200,-94,-287,108,-242,-189,598,-227,-175,247,-1673,-939,-521,326,-1069,-137,567,-265,1583,-580,-261,-216,-164,-97,1167,72,103,960,-30,413,636,517,1178,355,732,613,378,-417,496,80,-115,101,690,-451,148,274,-333,5,771,120,223,414,-107,-234,-595,-21,533,-258,283,513,-112,-311,-71,391,502,-239,-104,-173,-94,-641,-131,212,235,-578,171,-199,1224,-553,1018,-483,-578,334,338,552,-1023,-106,103,-212,364,161,-99,-78,222,-333,-309,-247,357,-254,-673,846,557,-558,29,507,-535,-759,308,542,947,-1071,483,-369,455,-301,449,229,-545,-894,-1332,-545,-550,-288,-641,-493,442,57,-752,-489,216,-507,115,-785,-414,-225,108,-98,-566,-88,655,27,-247,-164,331,-162,-113,-41,-282,10,-568,291,-77,-384,-358,255,363,642,762,756,-750,-488,-100,571,-685,-451,-423,-384,-580,-107,516,22,-43,-189,1809,606,282,7,163,-136,868,-145,-363,-772,622,246,-345,612,522,-561,24,490,-341,-295,625,-340,-24,190,-757,-96,-254,-607,-104,273,258,328,567,545,-216,390,521,216,-584,48,88,-635,-362,-314,-247,-73,468,-378,-530,182,-29,-430,-839,-390,-247,-121,490,557,-132,341,474,-210,-29,264,136,445,-373,-356,-206,580,554,339,313,766,114,-660,-98,-69,451,-258,-746,126,-319,-710,-231,-162,-128,-591,-41,360,-271,-641,-234,274,-951,46,595,189,630,-355,-814,28,-272,502,575,490,-620,-105,-241,269,522,-120,-140,713,-7,-369,509,-82,396,-199,-83,-31,735,806,172,566,1137,266,-461,-381,-977,-290,-164,60,31,-196,436,276,600,64,15,-23,-412,-488,-294,-584,258,-727,170,-159,-374,-312,-97,-793,208,284,458,380,284,384,70,443,-329,365,-476,180,-131,86,184,629,361,-29,-248,-473,-110,-345,-254,-596,468,807,-321,-314,-529,615,-553,336,863,-18,-327,64,340,571,1514,-375,-234,35,63,-56,-406,435,148,89,948,-495,397,629,-106,-60,-15,37,-851,-499,449,635,382,382,431,-50,-466,411,677,90,551,248,425,-352,-467,102,-86,625,-235,-86,156,560,83,-209,-167,451,78,-303,-360,161,81,540,-126,79,686,-8,-102,-54,-1194,676,531,177,-287,94,-294,-67,527,-575,-182,-118,314,525,-478,441,-15,140,827,-371,-35,-338,-620,149,-615,54,412,853,-1158,36,-178,2,-529,-121,-589,-106,-441,561,266,-366,-206,-57,467,-850,121,-331,-802,1036,-364,12,213,382,-347,-434,-884,177,-138,-933,-535,-81,-206,97,143,-178,-491,423,32,821,-101,343,-200,-816,-249,-512,-131,-295,296,137,-198,357,-294,-660,-243,-502,-35,-69,-628,-891,-224,-16,122,181,226,-425,-634,-75,-207,40,276,-163,-93,-452,-921,102,532,76,555,256,670,-365,95,-148,-453,664,236,773,-227,607,718,-12,516,-327,-166,-650,-620,-153,-227,-816,-561,470,-409,-401,103,267,-370,17,-25,-184,-1063,308,364,968,95,816,425,-62,-466,-1047,-118,297,656,-53,927,-176,104,-132,-960,-986,315,334,200,-424,590,594,-44,-465,-315,419,662,82,-676,-591,-1376,-394,229,-1206,330,-958,261,-264,74,-93,788,170,538,-798,-253,747,473,384,389,520,162,-77,-75,-535,16,30,-56,354,414,330,439,93,-78,-372,-117,-400,551,303,287,-296,-426,-1087,-1078,-284,-88,8,-556,60,11,-294,-156,15,-484,-708,203,76,-263,-55,367,434,326,493,-266,-800,395,-434,-59,150,412,-245,194,462,83,139,-2,-196,-412,258,-348,-295,-82,-338,192,-441,3,221,-250,-529,215,202,277,299,-166,-32,-460,-107,512,-214,-699,-398,-1059,-482,-196,-368,-248,570,-565,307,879,183,-122,192,-917,-1116,246,845,980,-825,382,52,-200,-702,-668,167,-51,-468,33,-241,638,-67,169,-171,-240,-81,654,-551,60,-627,-88,328,-3,-319,-285,459,-161,-217,322,238,-373,122,-371,-380,9,144,65,-401,-133,135,-258,-415,70,463,-376,-486,-431,-28,300,329,-440,-139,-128,-18,332,362,604,-84,426,375,-110,-92,-2204,872,-1101,677,176,35,623,-96,-551,926,79,-29,460,313,321,-132,207,-448,497,285,211,-314,-16,247,-812,354,245,-81,-91,149,-57,157,-307,350,-352,349,-604,-316,398,-459,592,-500,-1037,-291,32,325,28,-174,-525,183,513,-120,-27,-799,-1183,335,47,37,505,581,21,-46,619,897,616,112,348,666,-82,-742,-868,-435,-500,-352,241,22,459,533,545,265,-220,-286,266,-374,397,439,-120,-58,-9,-156,-248,-223,172,-206,-69,352,139,-485,33,498,127,102,254,-489,-273,-5,-530,-1157,-49,489,-227,624,501,-280,-827,-393,-272,-41,-558,-730,-1018,-504,-14,731,-255,227,-371,184,580,-6,442,-257,42,-89,-943,-591,170,380,497,-491,70,-51,-585,-71,-618,-505,-210,-88,-808,160,-290,-307,-213,-440,-324,-391,215,567,483,436,-344,-600,366,2,242,37,740,-36,170,495,970,959,227,1069,303,646,-612,-524,201,216,0,50,-571,483,90,-391,65,563,903,-31,-574,-565,-106,290,-467,274,475,174,-587,-186,610,810,231,-644,-733,88,88,766,556,-191,295,293,-472,281,-205,-484,-95,644,810,352,226,155,140,1189,456,11,79,-565,-547,-613,-290,-313,-354,295,-1013,-175,-871,142,-934,-776,-521,35,-291,-19,-280,-546,390,7,549,-216,-196,-10,613,-227,-87,29,688,-33,461,-36,418,573,498,-103,-718,501,-242,-603,-81,268,-1222,273,-1108,158,471,-322,478,-142,-308,-17,564,490,-186,903,-166,104,264,391,-1180,-544,-145,341,477,90,274,419,-1971,299,48,516,114,-975,-133,44,440,-89,-166,-94,-218,722,-794,564,1248,497,290,-132,-792,-935,-970,-527,-103,-164,367,-74,-21,-514,-72,685,-782,-400,-457,-405,-774,6,-586,-292,-920,-962,-160,-1068,148,-128,644,-75,694,269,355,372,1001,613,534,-68,630,241,376,208,25,-13,-113,-80,94,-1203,46,-292,-88,-15,371,491,287,-60,-223,758,-195,99,-983,-1674,-104,-10,311,100,125,-911,418,804,-794,-369,91,-354,-474,66,755,489,125,919,-177,489,-723,314,-21,-52,524,648,129,-444,-775,-249,-1012,-219,-206,733,1215,691,821,443,596,571,606,-120,1109,504,-175,218,-267,-290,-127,-528,-884,-411,-170,-179,-689,-114,92,202,374,-29,-80,-61,-177,113,-390,-431,-87,1318,-24,794,-325,-35,112,23,-224,-590,309,681,-410,614,-360,51,-416,-132,124,-77,200,96,-22,-43,-430,-8,370,-204,509,668,-549,-14,-67,-554,-219,345,-491,22,-335,684,1380,8,-633,203,-144,-359,314,31,23,-40,-171,-546,-97,-5,-121,-341,308,-167,-154,267,-21,429,363,496,-206,-93,-256,-148,-339,398,-217,-36,-58,95,-613,-234,-178,-266,281,169,210,-367,-413,-177,-275,512,-456,32,-679,27,285,-321,-884,-366,241,-41,-358,46,178,825,-328,-501,470,-253,285,-111,205,494,240,94,-295,-418,215,-183,291,-169,-63,73,281,48,110,-489,-330,-207,-314,113,-479,25,70,-557,31,76,-619,490,122,-128,345,109,-322,256,292,237,-212,134,-237,-160,-379,-240,-267,-25,-169,80,76,78,-20,-480,-107,151,47,-412,-79,-160,132,-195,65,-418,-369,21,419,-56,396,-198,-394,42,277,75,213,586,271,48,406,55,-128,-237,-2,689,540,-109,147,-187,255,353,148,-384,-383,-427,379,523,-362,137,-5,-99,461,-373,88,413,-303,-125,153,369,200,-397,555,283,-712,173,109,-118,519,-60,-409,65,-632,66,306,715,721,359,-455,-394,358,482,339,1054,1235,343,1022,805,315,611,-506,-584,-227,-734,158,272,-86,-420,-255,-325,-258,276,-407,-492,344,-844,-434,-43,-429,235,111,310,217,474,-141,-267,0,434,577,-183,553,-582,279,-36,-313,-217,-664,-919,122,231,-1014,-233,353,-117,-122,1392,-872,-497,-510,-390,113,376,256,-367,-181,439,401,-94,195,190,594,-327,328,-605,654,58,-285,-267,473,-819,127,-384,-117,301,369,247,269,468,214,255,285,-584,-244,93,91,-273,-433,-628,9,535,179,585,-283,127,-468,275,184,-173,220,299,671,340,220,178,237,121,637,679,-72,306,207,811,621,-490,-446,33,418,155,1147,-431,272,-821,186,305,-468,80,219,546,62,-261,-118,-562,-460,-354,593,404,474,-384,32,103,-873,469,-42,-691,-291,-425,-713,-150,-547,210,-15,518,-292,14,725,381,549,753,-278,-232,396,380,973,745,388,277,-108,-167,35,-198,58,332,-762,-571,-777,-814,268,-303,468,81,257,-456,-487,55,26,-226,508,285,-509,-78,-102,52,591,-66,668,356,168,928,-1315,291,-51,176,392,250,293,-379,332,-45,353,724,-634,110,-472,181,-114,258,-61,34,-608,141,660,513,310,-1287,-699,120,208,169,227,-518,-355,116,708,828,590,-747,-66,611,171,621,665,84,568,-260,234,29,23,-252,-405,-65,430,85,126,206,496,-117,-294,656,93,-272,707,148,-30,-349,-142,555,131,-61,-130,492,336,-571,376,46,25,-267,-292,-256,-372,-202,-530,-474,-126,-397,-228,139,811,-600,650,-133,-163,-653,179,-577,-212,129,-47,298,159,-186,313,668,14,425,257,-440,-1087,350,172,212,648,-1007,167,-16,438,206,-1029,-418,20,-631,-324,-128,578,490,492,-434,-35,-213,1122,-182,-485,167,-342,-397,653,-139,-30,170,179,70,-424,-172,-241,-437,216,77,306,-225,178,2,96,-573,352,302,-469,-259,313,134,-402,-257,-383,358,-20,276,-53,-186,351,-72,-78,-396,-279,-351,-299,-394,58,-1234,-378,-301,-46,225,-505,317,761,-163,966,-614,-175,-735,143,151,-720,552,-613,-289,398,625,-79,-407,-239,-191,-470,-1089,-457,-182,13,-190,-482,-135,297,-29,-189,-124,347,693,-1321,266,-422,884,-593,-666,266,-428,259,-213,270,-153,-627,-737,-686,-562,-405,294,947,83,676,85,-478,420,-422,-291,268,-356,27,722,278,135,362,-555,367,-337,-175,96,567,358,295,-194,-31,312,-285,-133,269,15,-903,-426,156,209,-167,237,243,-389,-321,1015,-378,116,152,-118,-253,223,175,261,575,-89,1217,1095,195,-100,-229,-15,354,-223,180,292,396,309,-437,-325,777,-115,-137,-50,-75,-96,331,223,-27,1040,-34,-305,-771,368,342,1229,207,-665,-314,-585,-686,-86,-449,-7,-271,123,686,-101,145,531,429,184,370,482,169,-5,-618,-152,-444,-404,182,148,-93,-181,-103,-649,-191,40,484,299,76,1,-90,-111,372,-623,-18,957,-1630,215,213,396,-379,326,655,-1258,308,103,-413,399,84,-661,-81,191,742,-82,-498,-867,-73,-417,-405,693,255,-370,-157,930,-404,293,210,-312,-213,167,-334,24,144,144,-155,389,-600,183,-391,844,829,676,77,187,-107,-149,486,-278,-868,-906,-257,-836,-155,-281,-635,-350,-352,-526,278,-82,692,614,-279,369,256,278,202,-90,-715,-356,374,262,499,318,504,-387,413,146,115,492,1167,135,-88,-973,320,68,38,626,-488,-157,190,74,-206,-43,587,890,277,336,-264,596,229,-361,-168,-468,637,-189,-400,779,-66,-518,21,-161,-509,292,-461,401,502,-165,-101,-106,27,191,868,129,816,-316,-436,1467,273,-346,179,750,944,395,-335,-336,141,-22,-263,-443,392,-208,144,-451,-327,-667,298,-66,-251,-405,-268,201,86,120,377,-165,-130,142,143,270,-291,-345,-220,21,240,767,129,-77,-831,-186,98,-74,379,343,122,389,31,200,-271,1281,-104,511,-368,-280,1163,-17,110,266,429,113,-255,18,616,-212,927,13,799,970,-204,223,301,-116,328,199,-880,553,-348,42,-824,-845,-405,-130,-261,-267,217,-804,127,252,-530,-1,574,107,-417,-234,-361,29,-392,-821,-597,-141,-14,-42,-308,1,94,-113,334,809,557,239,-364,-85,456,287,121,-184,456,-99,-261,400,-238,14,-724,-168,-834,-152,378,548,-454,767,-648,-74,1160,736,-719,-138,-369,-595,72,-1,43,414,-800,-332,47,-438,-135,80,-341,-606,-667,405,74,-93,-445,13,-144,124,55,-312,333,9,-19,-214,-650,-214,586,6,238,549,-199,-712,-119,-194,838,843,213,-489,-423,-71,-614,-501,243,340,-213,479,34,822,2,535,666,823,-116,-557,-257,-689,-996,-525,-927,-130,486,8,225,-414,354,195,251,-424,-865,-706,-465,-99,-520,13,-171,-90,71,271,-648,-385,782,-81,1113,-366,-357,149,100,-128,3,-148,71,106,183,652,693,-323,-829,375,-207,71,-516,-332,-319,285,13,-118,-1001,-132,-384,-32,44,-93,-118,-911,184,-291,182,-803,-413,23,570,172,-589,300,9,-73,-350,-337,335,364,-595,-146,-835,-154,-551,204,-107,-602,39,-105,290,70,91,217,-547,-726,-144,-481,-112,-435,-193,-42,303,331,140,-116,175,285,540,536,193,140,-233,411,-724,812,93,645,-968,-16,-668,297,89,-85,68,-217,312,-332,76,945,42,-184,-151,-101,1203,629,386,-188,-35,89,153,-353,760,-179,118,274,-523,781,-922,238,-894,106,297,931,-21,220,-317,288,-179,-327,628,109,-170,79,-485,-345,431,109,740,107,-607,-166,413,553,38,109,-276,-363,-292,-165,-153,660,978,1277,1106,1021,343,818,197,-86,198,-151,-189,-651,81,-763,-424,-415,431,-933,-938,21,271,18,-526,26,-204,-1082,8,374,-254,-20,-152,464,158,-63,1049,-733,169,-239,109,341,564,603,237,475,-792,326,401,383,-198,14,656,227,52,553,-248,503,-8,-603,-858,-540,1030,772,255,-290,-163,-465,483,413,-344,-55,-971,-1155,-675,-275,-453,-656,44,-40,45,290,-507,-111,280,-283,781,1139,697,566,79,-222,-168,102,-498,-135,515,-372,703,483,376,133,-250,-422,280,-598,-570,102,-110,-293,-752,568,-366,195,60,-210,-235,-369,-671,-823,315,444,437,193,410,-638,179,-691,-215,185,-139,-214,-302,903,307,-737,450,242,-475,-532,-204,797,214,54,-120,62,412,121,-668,478,262,-24,-113,454,36,-22,429,-363,-624,-8,-333,-815,-254,-73,-559,-232,-582,-201,-449,-594,-257,-794,-871,-74,-337,-94,123,295,-227,143,-78,-258,526,-150,253,1,-119,-161,691,665,700,-138,207,-166,-53,537,-613,340,-488,1024,-334,-236,442,-438,116,13,-127,916,-458,-446,-1292,-328,369,-59,734,56,453,178,-193,-344,-1086,365,223,-210,291,105,-172,-242,548,298,-410,-361,356,708,-91,150,-374,78,-700,489,-195,-27,282,248,10,-508,173,-292,676,68,-474,-321,418,279,976,578,133,943,746,-197,114,761,-55,315,-500,305,549,-466,295,273,-56,380,-352,-480,-472,261,-287,-357,-116,215,-353,-108,-88,-256,1314,-1349,98,706,-895,-213,-999,618,-464,598,560,-18,-903,-34,389,-4,-614,-139,-1091,-563,-376,1133,-589,-587,463,3,-322,-838,612,-549,924,-188,-278,145,-379,-336,628,-468,-319,-239,-206,274,755,192,-591,-613,30,306,-662,-461,467,316,106,240,-35,806,94,-318,-145,-11,-53,93,426,-3,-519,-90,255,-250,524,24,206,450,-385,-327,-253,-389,448,-400,-327,-734,-345,-208,-348,-739,-143,-561,117,-727,444,319,485,-234,117,-322,-119,553,-181,316,53,-480,-510,-590,1001,377,-481,-350,-1164,469,-894,-278,1121,849,184,-338,513,-12,-194,-312,-304,298,-796,147,-268,81,876,-694,-610,97,209,-536,567,-358,511,354,-1234,921,368,329,755,743,227,476,916,395,482,1191,588,-474,224,348,-456,-129,541,-354,504,678,522,-2,450,-175,715,543,629,-247,-327,-183,-304,-144,126,138,297,571,-341,171,544,1170,-448,717,797,-1003,404,239,-503,-267,-224,23,614,-344,428,-881,218,768,291,-232,-251,-284,-85,395,-7,-320,-313,-180,90,-215,-861,-294,70,381,-251,23,-322,-503,-177,-923,-308,-265,63,-416,386,-30,733,378,171,1088,-178,489,1131,-205,-408,8,-49,58,-232,727,656,980,503,731,697,603,750,735,1075,360,458,-653,-204,-209,463,535,667,669,-224,-296,-178,555,-769,-311,-68,-939,-699,-766,-975,-1684,-103,447,-53,245,-93,600,382,-1161,-35,-361,-547,-455,-209,188,-226,281,682,151,-538,-398,46,338,753,839,-308,-759,-769,-603,-528,-228,-12,-623,-190,325,259,-47,-366,822,248,-860,132,-1468,-399,-784,-251,441,-81,132,1055,726,-9,-839,44,-478,-93,232,-629,-339,-307,60,101,-144,-470,292,15,533,-258,-46,-470,-566,371,474,84,336,-48,-112,90,372,687,-309,-121,-164,524,-392,-257,697,-473,-1045,851,-516,-343,304,-637,-238,-778,-128,289,195,-172,-117,389,-235,18,378,-376,628,-184,536,551,613,-640,-1493,205,834,-377,437,550,33,288,319,-57,-109,996,-293,483,-69,-667,766,-882,-582,1516,-107,-907,202,-340,715,-172,336,107,426,-251,-8,236,-178,78,231,-801,-111,-751,-628,-381,-309,-247,189,109,100,125,-86,-548,427,-454,-588,-140,-163,-139,363,650,289,151,303,209,404,669,275,563,584,-177,-122,-79,172,904,796,-434,54,386,12,-358,69,-24,219,-182,489,652,-354,151,392,82,-506,-398,337,-505,121,338,456,-121,-544,-381,-69,-191,-299,246,475,-134,-224,-92,91,950,-621,1108,431,200,259,-787,500,-198,-459,156,520,661,-446,497,631,-220,-642,-675,256,-504,-160,-519,-603,-444,165,-206,242,605,99,155,360,485,-475,91,309,451,-199,125,-208,255,-287,-370,-114,690,318,-296,271,-26,98,362,-314,368,216,905,-542,-953,93,663,140,432,-490,411,251,-127,-404,-567,-254,-877,-19,258,17,248,-343,502,-56,132,-246,201,185,-764,882,-248,-74,257,-178,-1097,536,1005,477,55,-573,-255,-116,81,619,-341,266,-137,261,236,-112,-229,86,306,-690,-172,-240,312,-278,-8,-275,169,301,-429,46,-496,-165,-332,295,-454,-108,207,-103,-278,-536,-153,151,332,415,107,11,277,319,104,167,-263,-68,-889,341,383,296,219,2,1388,-1043,-76,454,123,325,-621,-778,-307,-108,112,-646,304,35,336,-745,312,40,369,-535,-434,558,717,533,744,-18,-551,475,25,73,661,-570,-332,-169,-737,243,486,-370,-170,-729,-876,115,133,1108,132,513,70,925,-200,121,-572,-628,-431,-253,-475,-37,-401,308,240,413,-362,243,205,-363,529,-75,-406,-290,-223,21,275,-123,-256,-323,462,-45,-271,-93,651,103,-30,151,1200,-158,55,-486,-709,-610,96,-18,400,-1158,424,3,-113,565,515,371,-186,756,-604,-112,309,288,284,-138,528,-348,-978,-543,-827,53,-357,237,-536,567,113,-705,-202,321,313,139,738,-492,1337,17,-572,522};
const static uint32_t LSTM_01_weights_cell_dims[4] = {1,1,48,88};
const static ConstTensor_t LSTM_01_weights_cell = {&LSTM_01_weights_cell_x[0],&LSTM_01_weights_cell_dims[0],-1};

const static Weight_t LSTM_01_biases_cell_x[48] = {1529,-188,-1531,723,-394,2189,-290,-3280,-958,1256,6,-1867,-1734,2667,213,1917,864,337,-1237,3190,2965,412,-817,-2125,-1310,-2697,-1054,868,-1088,-181,2213,2801,-343,-485,2388,980,-1422,-89,-299,-2201,1000,-1349,1781,-40,985,826,1690,1662};
const static uint32_t LSTM_01_biases_cell_dims[4] = {1,1,1,48};
const static ConstTensor_t LSTM_01_biases_cell = {&LSTM_01_biases_cell_x[0],&LSTM_01_biases_cell_dims[0],0};

const static Weight_t __attribute__((section(".weights"))) LSTM_01_weights_forget_gate_x[4224] = {-708,-127,-418,482,-647,152,-902,745,-706,295,-79,-843,337,-441,-359,-687,-138,-1014,449,-379,350,294,1023,-904,-658,1057,-419,-1162,-899,-954,-602,-755,639,-649,1008,-804,710,-1407,-507,1701,-1419,200,555,494,-154,-126,533,179,-90,59,-248,277,186,1119,-302,299,538,-1571,353,-2,-461,-1129,-181,1482,395,208,1304,-292,-1115,-352,799,-580,648,618,203,39,-510,798,41,-297,-190,-500,-797,22,704,505,-932,504,158,484,-821,-1679,-392,-602,813,211,338,22,712,-1226,-356,118,581,1116,664,237,890,-1143,-523,-1229,-161,-562,-727,-1232,-1264,813,-20,-52,382,-406,-1449,-462,-1199,-173,10,426,-1194,-1218,236,-433,1076,-96,-193,-1154,362,-335,-1104,-2469,-378,-973,457,-193,1587,338,399,777,115,607,-602,41,-86,-1714,780,163,-914,-669,241,-1278,680,553,-940,-323,864,-800,-101,-895,-244,53,-1431,1022,-404,-358,192,228,-117,488,858,162,-181,419,-283,524,-441,-496,-473,-742,-771,-1182,-16,-835,-257,-433,-114,881,-652,-1494,781,852,640,43,975,1201,-1001,-630,-397,162,356,378,-171,-1149,-1022,-1337,-201,364,-1262,-870,913,445,465,227,102,-389,1156,-228,382,-442,1076,-503,-923,1343,-244,625,-760,-1133,-500,548,-547,-1543,-1503,741,193,906,-155,-442,-701,-1352,656,447,-1527,1690,854,-1208,1490,-120,-165,226,100,-793,954,826,-486,-737,-748,807,-393,-166,-449,1039,593,628,497,843,1141,720,567,-776,-1608,-428,-514,-787,1028,287,480,-294,-420,857,-636,1397,674,671,-915,-833,-313,-396,-408,397,-1326,-823,-805,623,-790,787,671,-136,790,192,-757,-1318,993,609,-280,-559,-290,-735,-564,-161,-83,-203,1039,777,-184,-916,1144,-998,596,-82,566,1139,227,156,757,-939,-629,-613,-795,-396,1328,1109,454,1002,626,235,572,132,-1638,741,1126,-1512,1132,-563,-1214,53,529,-649,-262,-753,-255,751,-87,-181,-765,1200,-911,-267,-594,-321,284,412,1061,330,-189,-1162,-1154,-76,592,26,-762,495,-46,982,-7,-138,-795,-1031,1182,854,265,22,1082,1040,-709,-609,812,-655,389,70,1228,-974,-240,-458,-795,-702,956,-2178,529,-2151,917,283,-2169,911,-494,-320,577,81,32,-1013,-134,814,-697,-174,21,-123,911,24,-713,-57,-114,641,-1337,-284,-418,373,170,-220,492,-461,-1074,-1006,-1004,1225,663,-423,551,-382,402,684,898,-1066,-5,436,-182,800,492,7,-619,-164,1011,830,16,805,322,1373,-226,865,-499,1275,0,1706,658,582,557,-928,-791,-381,1165,-1044,-458,-99,904,370,-22,-743,49,-1204,-948,-510,-1073,-344,-1076,527,-668,1425,824,-930,-556,1165,38,-417,429,-48,-1962,-823,34,-186,-437,-7,532,1301,-224,1141,152,531,-503,-186,-24,-696,1014,636,1605,398,173,-299,1305,-617,-363,240,-644,-1055,402,122,754,1044,1351,946,174,-34,478,512,860,390,-753,556,-582,-797,594,-1107,486,1172,324,-698,1247,611,134,-451,-455,-691,571,491,883,-849,253,-396,-698,24,-1061,52,712,724,531,598,1532,1016,-823,1003,631,1085,307,833,-345,-989,1033,461,253,-365,1373,-1459,-677,665,-745,-1208,-1062,-1577,-1751,362,1312,1091,-1972,399,-349,-1141,1079,816,-149,-1113,35,577,1050,-409,-1418,871,803,-1441,-1093,316,616,703,877,621,835,1729,834,-156,577,258,-214,-53,-344,696,-477,825,-608,903,-274,-273,38,493,1786,1722,1601,-44,498,1129,-766,-118,841,-327,-301,-123,1471,499,1443,533,965,1019,299,1072,-257,-844,-1824,1038,-453,878,367,1240,1301,-564,-267,-198,-248,-102,-1008,-554,-160,78,247,-436,1620,-199,-478,-463,-102,1140,76,-156,-358,1599,73,396,132,554,-562,-1312,-831,1152,219,1014,-189,866,-2917,623,663,-226,1024,743,-154,-724,-1172,-837,-1841,-942,-1691,-475,300,449,-307,-977,-1058,559,-931,546,563,948,448,-590,-222,-944,-691,611,661,1243,-72,672,-142,1595,1259,28,-75,-747,782,-343,-232,431,453,-427,-2711,-288,-1262,419,-617,239,505,-6,-268,1122,532,114,-502,132,707,492,-818,-124,1019,1049,261,403,-1374,-533,-1413,-348,1152,-458,1206,1111,260,1346,-1336,-652,465,-372,-751,-1749,-103,627,-1002,290,-1155,-492,-753,-957,320,301,99,-1183,-408,100,-1160,671,-1062,-540,1058,524,-879,-1009,190,732,421,1136,-158,-302,-91,738,969,-683,-805,-288,-592,497,1073,1027,-655,113,812,454,-792,403,383,143,-708,842,-243,-356,-1360,-1352,-2039,966,415,581,424,-419,-333,558,288,-452,690,-5,-378,-882,827,77,-955,1102,703,914,43,-339,1173,305,229,-1088,617,1036,-492,-347,-96,-444,-298,384,1175,304,392,-497,6,-422,50,-380,-179,-316,-605,-451,255,576,-367,294,209,162,758,1048,731,-496,935,1025,707,1003,-485,-731,-64,319,-196,-84,993,-207,496,-382,58,-1035,-790,659,-978,424,-169,547,-136,966,-271,637,191,137,-813,-23,832,384,288,-324,-360,544,-13,342,-29,-733,-537,1479,-159,100,410,-391,-446,-432,-1537,263,-919,824,-435,-1414,493,533,633,364,1185,-812,269,-3,141,817,405,526,361,-411,-176,951,1635,284,1376,-634,828,-748,-488,561,-1150,-490,1301,600,-726,-813,-526,-1094,-1178,-242,-1038,27,548,-827,-49,-1568,526,383,-992,-981,547,-624,539,-205,1120,-968,-27,-135,-346,744,829,-62,-195,542,-630,616,-71,76,83,760,-733,276,338,-217,1361,529,237,-527,-462,308,438,59,-799,506,817,756,286,1512,-325,-218,-1165,-496,1407,-717,550,629,583,650,-1098,-17,-1188,-1056,-523,-1676,339,2,-358,95,225,844,-105,-633,166,503,540,-344,157,-995,63,825,-940,426,-624,515,813,-982,-233,482,1248,114,-264,-39,-649,916,-557,-775,1177,384,-661,-311,580,285,174,921,871,1138,789,-692,-204,-349,439,78,-190,-131,-240,834,921,61,1473,-224,-230,-941,-446,378,-654,-6,435,905,16,-49,-906,832,931,1677,-127,801,-471,71,909,656,-284,-1,1874,-1334,254,1161,646,550,771,1542,1019,-1035,175,436,828,-1231,337,753,6,273,1085,-129,-419,172,335,-207,-83,362,-1057,343,215,-307,1343,828,602,-157,918,157,-150,-647,-421,516,540,286,906,495,-865,-348,28,624,-142,601,1208,790,-613,1033,-463,-1307,207,-507,-953,1083,1022,10,-772,722,331,554,-287,1014,0,-202,559,319,-518,-226,-37,239,198,-880,1423,109,310,-21,-505,-135,39,-786,-505,559,-73,-922,-533,-758,758,-539,1304,-1114,64,1216,-327,-444,-460,96,-730,280,-139,424,791,-103,-113,25,180,-1410,1115,-837,-1629,-72,-497,-1580,-1775,-644,1,55,-1370,-92,-328,-2,652,-319,-1152,-900,434,-72,-342,-766,-192,-696,326,-499,-232,864,-495,239,207,517,-512,-897,-701,631,668,197,-97,498,-264,-674,660,-856,-157,145,299,386,-248,962,1007,-420,-956,16,1499,1815,-222,-473,-648,66,899,-487,-487,-1170,-1122,1031,-1452,129,1320,-1389,-662,1409,187,318,-119,-8,449,-824,327,413,-393,-801,47,518,406,-130,-586,-1283,-1378,329,177,288,-1053,-1288,-506,435,558,108,1490,1191,561,524,-349,648,509,531,-703,-1081,-1002,-525,788,-181,541,-893,233,-207,1367,-430,79,-309,-56,-242,-359,1631,-57,1510,628,8,-1443,271,-725,-184,-662,-407,-682,1084,-640,587,-748,-1584,-675,-1403,61,196,-73,508,288,-81,-33,1401,631,-46,45,-436,-426,-406,1036,-322,280,-796,-713,-86,1823,-398,-595,-1638,-156,-398,-618,-522,-588,-259,-788,426,305,850,-237,129,496,-141,573,712,763,855,726,1179,-364,-470,1443,110,594,407,-967,-402,-16,-416,393,941,-644,882,378,1205,-545,130,-251,-167,268,1207,386,206,-124,1012,723,-263,-699,688,510,893,-1130,362,2367,902,721,1379,111,455,-773,565,256,1354,-2153,-20,1395,-387,49,-211,-1011,-371,-1923,-678,26,-225,-655,-587,-755,-234,758,-182,1664,304,170,-112,28,1132,941,-463,227,-440,-68,-1765,-456,-283,925,-1237,272,-620,386,-1669,-1105,-922,551,-1292,-489,192,924,526,-158,-55,-288,-882,-211,-842,-559,-1066,93,357,-258,-475,-394,-370,896,-207,1613,1454,77,554,50,49,32,-560,-342,-856,-184,669,-431,485,953,-61,815,963,424,645,449,-231,1012,-506,-623,933,-2496,-1386,1462,-58,-377,-185,-488,220,98,1250,-1575,-276,-106,-1021,-308,1266,907,-1240,-40,731,-1669,568,-268,-87,1592,630,30,957,496,-2198,690,701,135,689,884,-599,146,264,-1302,77,-395,-920,-1648,-1161,-738,-1322,-748,-25,-239,225,-473,-15,-934,-1283,71,-314,-1179,213,-769,-742,-691,525,450,-423,583,310,-98,-130,281,-181,492,-503,585,373,-908,-214,-581,812,-158,-405,486,518,727,-612,707,-1257,1207,-754,-114,74,650,1674,383,522,-18,-704,-41,567,-1191,432,673,517,-152,-307,97,-50,1967,611,436,-800,-825,-659,-304,-30,-101,49,-174,256,1429,-524,386,309,-203,-500,774,406,-336,-137,1005,-686,685,386,87,-1267,699,495,-903,-189,-461,1039,-855,-277,-797,-322,114,-626,149,531,282,203,1001,452,-513,-53,520,46,-394,888,-20,64,-900,-1045,-1552,-828,-1412,737,-1272,-625,2532,949,1276,1367,-1473,-18,-820,-13,154,-771,-185,119,752,-273,1616,38,-1659,-970,-927,1289,-123,-681,-618,676,843,-902,1015,-562,-356,-1542,-857,-423,-137,-22,914,1104,-807,676,-359,60,332,966,917,1348,840,-1020,-826,-18,-655,-1297,-319,529,-1109,-171,-828,229,-794,552,57,610,-574,-1313,-340,-62,-624,-529,231,127,1326,440,798,817,101,-1132,381,103,313,-780,-1034,796,-506,-1293,-324,780,80,407,-812,276,746,374,71,160,77,-308,-218,-570,-1106,365,889,535,-1117,380,-556,576,-699,439,74,-405,1015,527,-1046,172,323,75,602,-638,42,471,-261,-308,704,-502,-390,247,-546,49,-47,-993,-2145,-608,-492,-246,554,821,-382,-1104,-1031,-244,14,-945,83,-2194,-655,-1054,72,-666,196,107,-619,-889,281,261,-954,-669,-23,-1535,-81,-585,387,-1343,198,322,-1092,-968,318,134,-13,-911,-340,13,1812,81,-585,259,-1367,1181,1107,-565,-93,330,723,-1120,-186,674,-859,1100,490,-2032,-164,-120,23,-1903,7,-709,-833,-1241,-252,-616,-44,-1274,-36,-573,-644,-332,224,-73,-1497,-538,28,1353,429,-225,-279,-654,-113,-161,121,298,-699,783,-499,1219,990,1082,961,-43,1514,643,-271,186,-242,-186,1299,-43,-562,-459,-42,204,-496,526,362,1335,438,148,1267,201,710,876,-40,-708,624,410,826,93,853,1016,368,560,542,192,-132,19,120,-790,846,-319,478,177,647,-706,-451,-494,833,-146,734,-202,1287,472,-37,-479,-1193,-1288,566,-240,-790,1021,-935,356,-620,335,141,871,-41,360,732,-1455,-850,699,320,1353,-291,-75,-416,1415,-857,747,190,861,-375,1198,-238,709,-275,364,321,680,-186,1081,-604,-596,566,176,240,1154,-382,-204,1019,-147,1126,1126,-180,647,629,344,-370,531,707,42,874,711,63,547,251,-898,56,1052,486,-840,-321,-880,-406,689,420,-1178,-814,-330,130,-1019,972,482,609,886,107,438,-262,1012,602,650,-204,453,52,251,-1121,1237,-624,-183,370,142,-137,831,-510,1229,-255,153,-581,-250,269,-541,-933,-606,-794,203,933,302,-23,540,-428,-420,109,984,-378,801,1262,557,1246,1243,-654,622,-77,1325,-226,1010,-563,-1027,-15,34,-235,-745,-995,-220,458,131,483,900,-75,425,695,-464,-1039,119,11,-967,-1012,470,1154,-681,1635,-396,1007,175,-792,1369,-695,-769,-431,-1376,-18,-269,266,1825,297,-114,-460,579,-952,446,86,212,158,-89,313,-776,366,-2,-593,-889,-2209,235,-333,1213,1414,-733,-1396,-1065,-768,243,556,863,-292,-772,-1029,1042,-536,-880,-299,72,-238,176,-38,-139,-635,552,195,-373,-960,-183,652,-774,1079,-923,-967,353,1440,554,536,335,1018,714,-618,973,1199,-724,1399,484,525,438,681,260,14,-701,257,1291,-292,-88,896,-784,312,842,995,629,644,-569,-816,-78,1993,213,-222,-268,203,617,756,-128,-318,-16,-1350,499,47,1315,-466,-1379,130,291,-1543,-58,-145,5,948,358,-414,-232,-1031,1292,-449,291,-534,277,-459,626,-114,-540,-722,348,-414,-614,-302,-396,-468,-432,961,474,-280,-739,1382,182,-142,488,412,1185,-51,-558,1141,1068,839,-287,-397,455,601,577,359,909,695,-349,-597,869,1324,-131,726,730,710,817,-458,-459,251,-146,203,816,756,268,1909,-780,-895,512,214,436,-1279,-684,317,-1446,1139,619,-158,88,1239,684,223,-306,-96,522,-844,443,1034,30,234,-3,191,-1100,38,118,-574,-316,671,-421,960,-938,-365,-303,-408,-609,-917,1514,1317,-159,1479,133,713,-80,1441,1299,57,-467,449,-51,928,-266,377,-504,411,1168,440,605,974,635,200,494,144,-328,771,783,492,436,-817,-584,713,627,-560,792,471,-393,679,-1514,187,-455,-596,295,-1169,1169,267,-253,-81,-1403,257,-980,922,340,-1154,35,-58,270,-732,631,-169,-1321,1359,-565,302,-585,-1400,-1270,-651,1063,771,-388,-1354,202,666,328,-2206,978,-1566,516,1134,-1441,325,-35,626,-1637,-1191,599,-613,1261,684,976,278,-11,1543,-295,205,1197,73,-312,220,502,627,-68,65,541,855,-70,578,305,623,238,-492,921,327,-755,-735,104,1116,421,592,622,-16,158,-395,803,1665,-533,-1338,-1176,-978,-28,-271,896,810,-43,433,-687,-61,-370,-659,-986,317,-261,643,-281,2947,252,-724,-1609,1573,1381,153,738,415,16,1062,677,-24,1043,1724,519,-2572,410,-719,-209,-510,440,1164,-337,-381,-88,1142,640,-568,988,-82,1174,-480,964,-723,-771,91,67,-445,-495,1048,33,97,-895,-664,-746,-694,-394,-919,-245,742,431,-554,-693,238,910,1532,148,-407,1487,-61,-448,-152,92,916,752,139,-405,797,-573,-146,-151,533,-570,473,70,-432,329,991,787,-599,-680,-365,-812,1146,-40,233,-275,656,1403,-1457,520,-1582,-671,724,280,272,-206,501,1192,-273,-969,-900,-51,-392,-392,-782,-184,-1059,-355,1153,-489,657,704,843,277,-1307,-434,-759,2360,1128,984,634,566,813,514,-557,-907,200,332,330,164,-81,1108,-1087,396,70,596,271,-982,-352,-1613,379,-728,23,-242,-341,-916,-523,-926,295,-1053,239,-964,-513,-766,1049,976,-1946,-1402,-445,721,-1431,-842,486,-1093,834,281,1672,101,772,490,-197,-2005,-343,-440,1407,-621,28,-634,182,-42,-1009,1400,-1164,-1557,-141,923,-985,-1288,-466,-606,766,-1422,934,-311,-1072,-429,438,-67,-276,-209,541,804,-1262,-1246,-1493,192,-762,532,458,459,1168,-90,777,-559,266,-1213,-1081,327,-1278,616,1126,411,448,-781,-144,34,-175,1021,900,13,685,1236,-13,-406,551,1314,918,1687,-428,-527,861,934,1849,1043,281,362,-710,1092,-6,-1334,2101,1476,-894,-2008,491,-33,1039,-916,412,-801,-648,50,-397,179,-1460,-1277,-895,748,1088,743,-177,300,-278,376,-925,352,-863,-1545,-1072,83,-1120,-301,851,314,514,403,538,2012,73,684,-353,-370,155,647,801,457,-1081,-869,607,-587,1109,701,-237,1474,1315,407,342,1243,-265,-600,-846,553,-286,-603,-568,-70,-221,1187,-310,450,-588,184,-347,-856,-446,561,144,-1144,-985,-360,3205,279,-282,-730,-315,180,1062,-130,-634,-2052,-54,-527,-77,874,1027,-159,-632,-1016,891,1590,61,669,-1077,-84,975,-114,537,-366,-559,1368,103,-160,269,936,795,-259,-501,259,-344,-564,-462,-656,1070,922,258,537,626,451,-1107,-1284,-693,-350,287,-921,-586,-1030,80,-224,279,-1068,641,-16,-435,489,-932,-782,787,-1049,206,-761,-883,-578,-154,429,378,-666,-1030,-222,855,-1012,-1078,-592,188,-450,649,-1024,68,-465,248,-87,-724,-1229,834,-390,-705,1348,553,229,155,-873,480,849,1260,-1758,1030,-853,-1539,-232,-723,-295,-104,-720,-434,-1475,-703,245,339,-423,0,631,-548,871,467,552,33,628,-35,410,-1172,-760,1053,696,-187,-55,179,935,1348,1051,746,519,-361,321,-142,13,-541,-385,-435,708,-252,-367,-818,-1185,-96,463,148,462,732,668,-774,491,-214,-739,1001,-181,688,-283,242,-466,-770,685,-796,-117,-1139,-218,553,656,-719,-722,-243,162,-666,-208,-821,1124,-777,395,791,363,631,-76,1205,121,1412,-1488,-222,-108,120,579,309,6,-923,723,80,-1101,-326,1485,469,1727,246,1763,1725,235,-1150,-1362,6,524,1625,970,134,683,-750,-331,-906,-512,-714,-31,-1032,846,227,1104,-315,-741,849,318,557,-46,-647,6,181,45,-941,613,-666,-431,554,-445,1151,1178,737,-632,49,208,819,-421,1084,-481,-532,864,364,287,495,1016,1117,956,-1730,563,-983,-652,-474,-711,1974,186,631,252,-251,-874,-830,1067,-586,959,-90,-1372,-612,-576,32,890,-365,-635,887,951,454,1270,360,940,643,1025,38,440,-1093,-2438,-770,-472,-415,563,-50,134,1070,419,-1099,1179,193,-676,453,-728,-969,-208,-108,101,536,-208,100,719,-981,909,-442,12,-521,-612,-750,288,136,-208,-508,27,-332,57,1463,895,198,482,550,648,-26,-979,-151,155,871,-417,402,-755,111,744,-2268,1727,2383,1463,1004,-661,1651,-1047,350,1096,190,-71,696,-25,-2623,-132,-852,-2897,-181,233,1084,-205,-1218,813,-1358,1018,590,217,-812,221,1418,-208,706,-145,-178,406,-555,-1210,519,-517,48,1894,-1784,-20,1029,65,-21,-201,-1767,223,-227,-853,-729,-181,-844,94,-443,-585,-98,-967,-416,-925,-671,392,537,-304,509,-522,-720,-135,697,-1077,-780,591,75,330,523,959,1137,534,677,851,188,-1094,-330,-113,-1056,-664,2485,-634,-1089,1106,-1236,-216,942,-423,102,-45,505,-691,840,834,-784,2789,-2512,1246,-545,-409,412,-648,-676,-2138,-637,337,-1369,-202,598,65,-1416,1025,-1429,1037,682,-168,-120,-1724,-880,-427,-1331,505,800,1048,-563,182,-1377,1844,-632,-955,982,255,1106,609,424,244,-852,379,1185,-3,208,32,-610,332,-558,715,-499,549,-902,974,-467,885,-875,190,-889,-495,784,-572,157,-730,1057,-646,-902,140,788,-594,-442,280,-31,-861,-229,1300,-1304,-115,225,565,-159,-657,139,-1287,217,76,576,405,302,-381,-424,-1077,535,101,-1647,-1839,110,-203,-122,1039,-214,689,1035,-285,-1594,857,380,47,980,782,769,182,51,-229,-606,-470,587,-383,562,-995,477,671,-839,67,174,-496,1404,-981,-244,895,103,45,1324,-203,-367,709,825,-573,-592,1051,-469,-350,997,1265,36,719,1283,1398,768,1167,1842,153,-149,981,-621,1413,1262,1391,770,-513,1079,535,-651,630,-378,-717,1603,1967,1069,168,334,592,61,695,-493,-831,1195,154,1541,850,-1263,-687,131,-107,1637,1262,-1527,-620,182,1375,46,1272,-418,478,-747,380,1059,1086,1208,-1386,174,-120,225,730,530,-1348,794,533,137,222,-656,286,1277,854,120,981,453,-29,541,-445,1074,113,-300,335,0,894,654,857,956,913,622,-327,680,598,1233,-93,288,-216,250,-384,781,-50,1348,1054,-587,996,705,-484,111,1429,1134,-491,-11,-744,-647,-455,778,750,-262,124,1435,-235,604,854,515,-674,240,1274,125,-482,-499,-318,-683,-36,724,524,267,350,-1526,-1551,-321,60,167,-1253,-1182,738,628,-390,-1072,265,1080,-1926,169,-909,-154,1909,-272,-529,-98,140,-449,17,-232,310,467,858,222,-75,1281,1093,129,1204,1334,914,-672,-149,1183,925,-346,603,-240,-305,94,-85,385,737,303,-418,-1256,35,186,684,1229,360,-847,690,1245,-67,-1032,-735,-1409,-143,-871,-23,524,1801,276,375,1418,-284,180,1176,845,-8,1166,297,-1463,278,-256,-2034,-1240,900,-815,1198,-1139,-713,489,-842,-1071,269,-601,405,799,-1160,-726,-204,-1256,-882,357,737,173,-794,822,964,76,83,672,782,-887,-179,-1759,57,-867,1026,-683,873,1170,-390,577,172,307,4,267,1006,354,-84,-548,-140,847,-174,9,-260,-1229,183,-16,150,-535,-82,211,383,-1318,-756,554,658,115,-819,750,182,1262,-457,37,719,792,71,60,986,66,-797,227,153,199,67,-473,-46,-931,840,841,599,1777,-1754,-845,-389,24,-1424,-108,-1087,-2050,58,1038,1035,12,1185,939,-1220,1138,1285,1762,1019,-161,133,-322,-547,-307,-104,28,891,631,443,664,210,-678,-275,-12,-287,-566,496,-978,-836,360,-1029,610,-58,418,902,224,286,-784,-633,680,-160,193,882,-606,-249,-693,-224,1217,73,267,854,744,1409,-1055,-389,-542,1033,-285,-757,-734,-899,418,-427,-1173,-487,-67,662,-1057,-199,-128,1534,433,-868,1569,-933,-558,-1166,939,-648,297,578,582,-11,-850,-1087,-45,579,-49,477,-1963,759,1385,-39,922,-304,1382,91,398,-764,-321,-814,649,72,708,-829,-140,0,-1087,-182,1390,1415,786,680,-373,374,132,218,1212,902,909,-84,-585,1016,1196,286,949,363,-56,1110,1114,-74,987,1270,95,1251,406,-943,-122,44,1011,52,-1087,-604,850,-938,-86,430,491,-268,-1193,990,411,142,-1284,-1546,59,801,-530,5,-85,-1234,-25,496,-456,-1213,1968,-640,322,152,-33,216,-386,-749,271,-966,-784,-663,126,10,25,873,-703,-453,-185,1425,-627,-304,198,592,689,368,794,-372,1414,-66,747,-836,109,1573,1699,-122,686,-233,715,695,302,-492,201,-1143,-538,-1015,492,1065,-633,-925,152,-217,-90,-179,-525,489,961,358,789,-683,-39,463,1136,1266,453,-198,222,441,-653,1402,-364,264,-1540,324,-94,-636,402,638,685,-1617,-714,247,909,-167,-51,1326,-29,-845,1549,-235,-92,1230,721,-1399,-1102,59,-1296,266,74,-885,-1071,-559,250,-185,176,827,1188,367,-732,408,-1364,505,-590,163,-235,-157,400,1273,-195,-1308,-934,-605,-404,315,-891,830,-292,-171,-367,209,842,294,-315,1322,-429,1210,1486,1460,1567,1583,489,818,1702,1228,830,-519,157,924,1242,664,124,-1078,-305,447,-716,273,-614,-1393,1354,-1284,645,1833,-175,1194,194,427,-710,-596,-697,1228,-209,-36,523,-432,1001,-1348,-217,-1009,1460,51,-523,42,1218,246,897,931,-991,-73,929,694,1824,1226,352,-1433,-1402,802,-1248,271,526,-1260,275,-202,374,-218,-949,-599,-608,-680,-582,791,197,855,-943,-453,649,-425,215,630,-38,816,-349,-39,-343,701,84,-703,-243,-634,394,2,-679,841,-1112,637,141,-1063,-752,-107,207,320,384,620,1339,989,649,-150,-903,-632,236,-370,-1283,242,-6,-1621,-882,809,-685,954,-97,369,1123,1103,-417,-359,-854,821,-1262,1182,-184,-200,228,1899,-1144,379,369,539,744,-571,-171,716,-608,146,1324,1199,-387,-476,105,589};
const static uint32_t LSTM_01_weights_forget_gate_dims[4] = {1,1,48,88};
const static ConstTensor_t LSTM_01_weights_forget_gate = {&LSTM_01_weights_forget_gate_x[0],&LSTM_01_weights_forget_gate_dims[0],0};

const static Weight_t LSTM_01_biases_forget_gate_x[48] = {1274,1747,2134,1267,1558,1808,2401,2027,2442,2200,1853,1915,2620,1779,1867,1576,2083,1676,1953,2127,1658,2013,2137,2488,1612,1911,1917,1893,1781,1855,1819,2301,2368,1684,1633,1694,1304,2217,2164,1701,1495,1539,1988,1996,2030,1755,2744,2518};
const static uint32_t LSTM_01_biases_forget_gate_dims[4] = {1,1,1,48};
const static ConstTensor_t LSTM_01_biases_forget_gate = {&LSTM_01_biases_forget_gate_x[0],&LSTM_01_biases_forget_gate_dims[0],-1};

const static Weight_t __attribute__((section(".weights"))) LSTM_01_weights_output_gate_x[4224] = {-608,488,96,672,700,165,654,1190,714,616,1081,624,553,208,1220,771,189,1615,631,1143,474,304,553,691,1744,-123,1329,1708,1082,507,452,677,844,1093,1397,627,1855,403,1729,402,636,84,146,-37,-576,147,1700,1607,1618,30,42,-1075,-114,-687,1011,-536,175,913,318,-449,549,934,-602,-2026,556,48,-468,764,-192,472,131,2024,-962,-122,-464,-917,-419,-1415,-408,718,-375,-169,-484,156,-625,-278,1226,595,-666,1071,-300,-652,217,-423,910,-432,-259,370,-930,285,-497,-119,975,874,393,-571,120,-249,-1259,101,291,-416,-957,651,-488,317,-623,792,610,544,53,-105,-1097,-380,637,-284,617,222,349,-1417,2023,39,-294,-1451,-667,-554,15,238,1385,-780,871,-364,372,1330,-731,-140,-106,257,-425,-640,-837,-375,1252,205,-498,-151,-431,339,-697,1063,-1808,116,1030,-359,-123,86,-909,1303,-312,-537,-542,1238,823,-728,591,558,732,-226,98,608,-476,140,332,-408,1461,1391,499,571,577,571,760,-320,828,1194,-81,-384,-424,945,537,-356,1036,505,-160,737,879,-99,-556,-780,1036,-23,1070,823,-618,-37,1023,-255,963,53,1366,-921,590,-243,94,-981,898,-274,1093,-1834,-292,-945,199,175,-571,-951,799,-564,-673,-25,-1430,-35,-55,106,-388,1178,-40,1229,375,-576,-57,-384,-958,394,-484,-15,46,-1683,907,-410,-1316,76,137,245,-720,486,-151,-963,-647,1546,935,16,230,670,1201,619,1335,362,592,-244,250,273,-442,56,655,166,958,-441,1215,215,378,1255,1137,399,803,833,440,1310,-795,942,487,1265,-93,1026,-498,1101,-218,-122,-549,-1495,-519,-296,635,-280,1051,443,460,-733,942,436,-790,9,1339,-490,432,875,780,-908,26,655,106,414,-730,797,-191,1070,-108,810,-5,-859,712,-116,657,67,1591,-697,-1634,648,646,-1669,-949,-208,540,-1169,651,-347,1531,228,-472,1256,234,-651,1633,707,1441,189,515,406,1240,841,1712,1965,609,1800,321,741,1540,797,76,1169,-52,76,-123,201,45,1208,82,-56,655,246,1234,653,1038,-345,2030,-457,-701,-1439,-920,-69,-650,-322,204,-396,-182,-45,643,-990,1438,1075,-54,2511,178,877,507,-208,-1535,51,-451,71,-85,-411,-327,4,-947,641,-466,1164,-257,329,-383,-291,-818,-18,-597,-238,179,344,-1015,329,-953,-962,601,-744,813,-167,906,598,330,633,676,1611,-446,-241,1301,1096,728,-453,896,338,219,61,584,1564,973,238,351,59,1662,1195,1227,1477,793,749,1087,275,1738,410,787,419,1617,960,-725,-255,-115,-18,113,-180,-125,-4,71,-789,421,-1036,-69,1156,-292,-215,-508,736,526,-145,1018,96,-795,-72,460,-918,169,-1247,1023,1345,-358,-1518,-579,-829,626,-1413,-255,808,699,-564,129,782,777,-357,-553,-266,-450,441,1201,85,453,1641,714,1284,918,1326,1997,975,512,556,432,-401,750,1370,-765,9,1366,439,1130,984,1621,-327,676,377,-1,981,528,-337,-447,832,-713,711,-290,1387,1214,431,767,780,1352,709,1155,-369,523,1322,112,287,174,-95,100,33,437,1697,869,-470,1067,-1735,-872,-709,1313,-1382,-819,-568,203,1472,407,1016,56,457,-279,1668,-175,-780,-1242,-1100,209,-247,-23,-100,657,-295,637,-81,-288,46,588,-1307,260,1091,47,90,-1063,-611,-1104,-1038,479,-1505,-542,570,-305,-241,-238,-905,-774,-551,1019,-639,-239,-272,-770,-907,-1445,-36,568,648,-173,736,360,-817,-218,-302,1732,455,1570,-154,-10,-14,-93,-597,193,885,-869,728,661,1811,432,-230,-392,-254,1172,531,-365,127,-373,1091,337,199,3357,1530,-210,-1281,-84,52,-1092,-269,-769,945,322,815,-987,149,-230,-596,-1008,218,-1433,-255,-284,352,-383,-399,-661,1118,699,640,159,-781,-18,-300,-1563,-384,-647,-1115,-445,655,410,742,38,-1017,-285,47,364,78,-532,-445,752,1209,23,629,1130,308,1142,412,962,20,550,535,-300,733,1233,971,1137,995,881,970,-1485,444,-1241,436,-1588,-262,-328,-1238,285,1535,84,-751,-197,593,332,1224,662,-70,116,999,806,-319,-723,-1879,1986,911,296,1098,-156,879,-1287,1930,22,-254,246,-859,801,-356,-377,180,-243,1499,-135,-99,457,-1194,-598,-1028,290,709,143,-458,717,826,521,727,922,-118,867,700,525,151,-496,-738,24,-617,713,593,-699,-291,-740,-611,212,79,529,287,1018,-796,-572,-104,1178,1239,522,952,-558,-704,1182,-535,-584,-793,-1600,625,-775,-323,219,-155,562,321,-1490,181,-933,2052,-1233,-108,295,240,903,1127,1745,488,-1347,-189,236,-714,-379,-467,-98,1326,2,-455,1008,-141,-468,496,98,-609,582,51,2094,119,-81,-581,-609,503,345,-776,488,211,1010,1009,1191,1177,-27,966,454,727,-447,397,-757,-207,919,612,-50,-103,1054,717,-158,230,-750,-1054,-213,-251,-345,-3,-87,102,767,1264,-74,-23,560,991,-527,-258,4,258,1754,-800,-308,524,251,417,-964,-1499,1248,-637,-134,-206,-439,84,-119,310,289,-689,638,-818,1064,413,-1596,-585,607,833,789,-949,38,-1076,-565,570,234,158,750,-599,-1001,130,58,490,-273,1594,447,-2203,2,-949,992,-520,-836,525,-82,1301,112,344,-220,1460,369,-558,177,529,861,-194,-581,-200,451,581,-108,300,1329,1014,1471,-21,1562,-269,-444,1252,570,643,702,772,-490,124,129,109,-856,233,695,665,291,-226,575,-394,245,-583,-205,-153,-1051,119,698,695,421,-1013,-41,794,805,257,789,-1106,-1240,228,-1105,866,119,-614,-334,-62,279,-484,-413,1022,285,-1101,-1035,-505,-896,-985,313,516,-25,642,-588,1117,-1421,-651,-846,595,-138,228,-256,-20,-1028,379,-388,-671,-66,-529,-937,551,-423,-929,-275,669,-598,-676,462,-580,13,-1156,531,692,-714,-415,923,-245,-443,-987,-312,-750,-642,-1252,-478,-35,-1273,-1136,-330,-784,827,391,-1158,-480,-644,585,1155,-646,530,-18,303,374,-934,547,-413,-152,357,-146,719,129,165,-899,-362,-550,997,1016,311,-420,-849,1491,1107,-636,-849,983,790,-21,1156,3,-557,228,38,-1765,306,251,-799,-749,-435,50,338,1268,391,822,-46,587,-271,-850,-532,907,750,-368,-84,270,798,-218,-884,-254,-417,544,904,1189,-467,619,80,-204,-422,-49,-151,-1185,-1132,378,-1164,602,389,-225,355,1293,-42,-200,616,-104,595,760,-547,1322,1005,-29,93,79,731,-802,507,-556,-985,1075,-284,-595,1036,564,-529,-1034,-846,180,-1484,-95,917,901,531,313,754,12,1042,386,-832,583,328,-193,-81,7,-1906,386,839,-480,1653,366,578,1043,67,616,-569,663,-276,1488,-462,-326,1351,1159,747,-183,-532,54,1366,1133,1229,340,-427,675,633,158,-780,633,707,-614,985,157,-161,1412,799,25,1336,-54,866,1723,1358,1003,1646,413,-25,-405,183,-353,-88,357,1245,1190,-781,-152,161,175,-734,-1365,1196,1892,363,-1260,554,1346,1047,-416,34,-1518,1150,-407,56,900,-668,220,-164,875,-5,191,325,235,-884,-1233,-1992,-655,-455,1294,459,-285,-904,-834,94,303,-1237,-609,-83,-1385,135,678,-728,-289,696,-504,200,-351,1357,155,15,-719,-354,663,903,-390,-214,840,609,-466,-435,-918,-44,-521,69,122,1251,1096,970,336,611,1257,801,69,1074,621,-978,1044,-35,-163,-882,-546,737,1086,-1067,552,1324,-748,-108,-497,468,-178,-1267,428,-719,33,2087,63,-479,412,317,-474,1494,-741,-1195,-38,78,97,-830,-391,1698,-341,-2378,-1421,-904,-93,-973,829,-377,-381,-519,-818,-198,165,-146,446,243,1200,717,1080,-907,-583,-1198,-7,-171,-132,931,-258,1390,-621,793,-713,-586,-585,-304,1256,51,-680,76,-253,-256,-673,502,-553,476,1079,-599,1420,1364,-477,-233,-131,-808,285,76,1922,-1114,1303,-691,1147,1212,438,156,908,387,38,97,160,-1575,-784,-570,13,36,834,-281,-678,-36,228,-769,860,861,-872,243,1538,673,1561,-177,733,-555,-782,-754,-1307,-580,-1718,1010,1431,148,-14,-899,651,682,861,-620,-248,-384,-30,66,-296,-140,961,809,604,-558,-134,494,667,1137,-72,102,882,59,-259,-418,707,-429,1381,700,604,445,-908,630,947,1033,1079,-599,739,297,1231,-74,1044,439,1445,1051,873,-73,46,638,1017,590,-602,-974,-145,-1579,-1327,-292,138,-1375,-943,-78,-696,503,-327,-1763,-720,206,472,-378,-1218,1030,649,-973,401,-1777,-173,480,-537,25,877,-28,1197,2089,97,-432,69,159,-1284,188,-942,-55,332,-140,-1568,424,-26,-873,-293,15,-1279,-1009,-295,-228,-1320,1031,646,-229,824,-510,1058,1041,207,-1038,229,-754,125,-702,60,-21,760,1423,419,624,627,-203,1478,258,58,766,232,1386,793,-1512,471,-1684,-241,-117,-691,-789,-405,-276,-649,859,-349,-571,509,-143,27,2044,1880,30,-1177,1223,-639,-326,238,-70,55,305,727,-708,99,297,238,1539,343,584,684,-1280,-262,-170,79,-544,-237,-1236,-316,-30,418,1344,313,-356,-746,810,175,-1232,281,-563,-56,-402,-531,-1264,-991,-303,-12,953,428,940,593,317,257,-599,-131,615,-317,950,1042,-252,-76,549,1604,442,779,1058,677,-21,1709,542,-123,1329,1244,-1174,-338,1165,401,-395,28,1045,-800,1842,-1373,-548,-15,-849,292,-1077,411,-805,788,-85,-85,272,1010,238,996,-891,483,-185,164,288,338,1027,295,-414,1,-1110,-637,86,-228,-198,459,701,1764,-1123,720,-264,-797,-1084,-564,1299,203,876,-1105,27,-238,443,1037,-249,-573,-393,-295,250,196,-391,-558,556,-199,-202,924,960,940,756,740,1236,673,492,261,1139,413,1409,1434,1524,1609,1112,1955,533,1004,1371,400,-1030,160,-1023,1111,434,-355,-2103,-507,438,-371,538,-611,215,-1347,-1219,1182,44,-486,-244,-947,-108,611,725,-195,-1454,-752,87,119,496,976,-1307,-1126,-895,-338,-1656,121,1423,342,37,883,-94,128,-846,-203,-85,-52,579,-288,591,-381,582,-360,1075,-285,-313,291,1001,422,590,500,732,73,238,332,-768,234,1043,848,716,-180,1458,-110,385,449,1066,476,625,759,-481,-647,-619,-154,-478,53,656,-400,290,-530,521,-357,-47,85,539,207,572,112,301,-202,-647,-584,38,-356,516,696,-1287,-1097,-611,-449,697,-2508,-523,-859,-560,1225,342,553,716,-57,823,1634,72,258,-301,259,1015,-1143,-380,-790,30,17,-220,471,-432,714,-1560,954,-25,955,-299,-244,-1624,-577,-662,-824,-706,-1026,-298,-1195,-415,-532,732,-431,-119,417,-1037,-1651,-558,19,-1058,-1123,-2020,-1169,339,240,-528,45,-722,-571,118,-482,959,1499,1364,699,-294,-613,-237,-367,1057,1215,71,282,93,837,889,-374,1678,-1470,-742,-1404,52,-552,-64,45,-914,1842,-79,115,-280,-1476,286,439,534,-937,-373,-746,-202,246,-90,-704,478,562,243,414,160,678,1425,382,199,-1291,-345,1200,-729,-289,-1364,-1486,92,-21,-604,-856,-350,-742,-222,-877,-1305,-2502,-1161,293,-1029,-1595,-197,-614,-1201,-527,-602,-781,-594,-453,-65,86,-1579,328,85,-973,451,-545,-420,-1248,-1311,-671,1185,518,-682,-1142,1147,-101,-819,-620,-398,-794,165,540,152,-1969,7,790,-700,-866,1813,1392,-365,1556,-573,-27,-1300,-78,-1289,-1671,381,32,19,-569,710,-775,22,39,-126,-1219,657,-25,295,303,131,771,-1,1101,-561,185,1223,507,-181,128,290,-689,697,282,946,-213,1676,-168,-618,1036,-248,789,486,600,-32,910,1208,-292,747,851,-434,688,587,948,-297,325,66,602,-407,522,-520,-195,625,-545,442,-58,-317,105,1277,-729,712,-31,705,242,-25,650,-1835,869,-302,-127,11,431,-1345,511,289,986,-369,-212,1573,-7,-196,671,-564,1546,1433,147,-204,562,946,562,-811,47,-29,915,624,530,-749,319,1695,23,-612,-1068,1997,-1417,352,-194,583,-123,903,288,-960,-724,-1511,-207,856,108,-1754,-597,-1242,-1993,335,183,206,-1298,-307,392,-829,86,-212,-364,1290,-365,318,-988,521,1159,-948,199,1120,-83,720,308,-331,-805,660,1009,484,-597,35,-1287,267,613,-1155,884,-53,1568,-585,-31,889,182,-323,-236,-1034,-83,902,1048,-507,706,366,-54,-888,-1196,-1532,1087,-143,22,-6,974,-731,1663,-771,1057,648,1264,-844,312,-2847,-1571,1220,1972,-1370,-558,199,154,-1274,1124,-653,-1072,594,-795,-478,880,70,520,-876,134,-1049,-1078,-1187,-1162,-900,299,233,347,196,-730,-692,594,-644,796,797,-905,770,809,1171,77,565,65,1035,1044,-556,-235,193,165,1283,1000,945,12,721,-1302,395,-466,97,-1055,472,1252,539,1176,-1295,47,-326,-905,-466,436,-587,-310,852,-550,-358,-1215,-46,-1376,134,-480,525,373,1403,436,-379,370,-1100,-480,136,460,-147,161,-698,287,167,-166,-371,286,263,-538,1282,-50,932,-734,-38,1224,449,-549,905,-1057,150,419,966,-588,-235,316,1082,-481,191,-135,-307,705,1092,-241,1360,401,573,-161,1481,1100,525,-968,445,-158,-338,-782,917,450,-609,-272,-628,-323,-151,588,326,-119,-85,-218,433,-705,-1311,768,1251,-150,-382,-1299,426,362,919,-1513,-1254,-548,114,-387,1174,237,-1124,-1106,-74,-15,1014,-699,611,-106,675,227,-1108,9,-393,-396,-797,-269,657,-1002,683,-446,701,-1232,511,364,-615,-1539,-112,-1401,-975,-1691,-1154,-397,218,-1524,523,663,-382,-334,-725,48,1062,-496,-19,-1193,1013,-498,-1265,-248,183,-983,-710,353,133,64,268,457,742,-551,1100,20,-585,712,-532,-1076,-628,118,-833,150,-1763,-3,-857,-984,1308,793,541,-824,-985,1251,178,1302,618,-27,2348,506,-65,-1015,1131,1081,-383,970,754,750,1019,-621,140,341,-1810,-582,-1222,608,1308,1356,830,1065,-2104,-194,-490,-1364,-359,-809,1186,-242,1357,803,-450,242,-525,1289,385,-715,80,30,127,905,848,-644,49,976,-913,594,547,364,425,765,-449,-174,1500,693,305,1060,-62,1376,246,247,729,904,626,-180,1008,882,1352,-1314,-1377,-149,-161,25,-58,-57,1008,343,729,210,-382,1316,389,-1144,466,-297,106,-800,559,428,88,386,830,86,1134,1003,-163,812,726,-145,-311,-926,296,908,-343,952,313,816,103,444,301,-134,-80,996,201,-528,-29,619,-79,-123,1103,816,1647,1319,1322,375,230,-261,560,-658,717,-136,432,-310,1325,-217,-50,1061,1477,1563,401,1275,1595,-48,229,1515,1206,1501,-342,-57,105,-401,-184,-488,-265,1183,1354,942,-485,-2147,207,273,25,1124,-182,1426,204,-1193,-752,-777,1031,1089,551,-331,641,-626,160,-251,372,-859,-596,955,-540,856,-340,812,681,749,-270,819,580,-331,67,-442,-444,632,932,1750,114,866,-540,582,618,-90,-506,345,43,387,-113,-656,211,-100,492,270,517,118,949,-1335,-511,336,86,-415,-525,402,-103,-381,-152,-1235,-1104,-795,301,-1186,-245,-585,1376,857,528,-147,1218,332,593,1167,945,986,-1184,-642,-576,528,987,37,-1372,228,1249,1249,-175,737,186,216,618,-720,-105,1977,1387,-1446,-1058,1086,106,855,2029,-13,1223,374,183,421,-1647,-1164,187,-1818,-1517,36,359,1519,-1408,566,312,525,-512,-848,-480,-862,-29,-379,692,462,-473,290,-827,282,711,927,1114,1409,-205,888,-747,868,-627,1074,-642,-649,329,-185,119,-545,470,-890,-889,-758,822,195,-786,442,559,-469,-375,-537,-265,-884,-620,793,-152,971,1567,-862,350,560,-4,-461,-1727,346,113,-387,-952,-880,741,-198,1074,-373,416,278,253,100,658,-99,449,116,598,-390,1802,431,381,-1029,605,-359,-954,94,1229,168,-556,-530,527,-1273,-315,633,1180,-665,-309,-360,1783,291,-58,1304,-552,-13,1354,524,248,1130,1562,1678,422,1351,1501,773,921,369,29,-274,-747,61,-161,-874,311,-236,131,-545,502,-467,-9,-614,-589,-484,779,360,-572,1122,211,480,1092,-440,1899,-103,-794,-720,-301,-785,108,241,-1157,326,367,-1325,275,-223,1390,-280,583,474,364,21,1332,105,263,6,65,-883,-820,550,849,-377,640,-270,45,-187,-198,-518,-333,244,-1468,901,819,-1243,1132,-381,1076,-851,674,97,1105,419,1623,-202,1066,-802,-153,1366,92,1112,401,1013,962,-494,610,802,461,-54,-711,-468,345,626,1175,64,1387,347,45,964,1084,-638,2,889,-566,688,1020,-381,908,676,-111,-588,193,-1184,-50,-352,-1449,-506,344,-5,-842,663,-334,-676,-594,-512,-627,1250,333,-1475,527,258,826,-691,853,-460,-504,757,103,-282,-471,-141,614,978,-1115,-219,-1008,-1563,139,-539,41,-1291,32,-777,-866,892,-623,-235,-247,1230,962,-802,444,-95,-925,-1127,-1988,-400,-808,-279,566,-100,-1039,391,-1418,382,261,-463,564,-212,-584,-1419,-1061,-890,-1416,-909,-1062,-1203,-723,-363,-636,-530,96,-245,1069,-338,868,1043,-984,-195,-1240,156,-1390,-59,191,412,1062,791,1256,106,-102,573,-306,-331,-1576,15,-427,-644,908,-470,719,486,-359,-446,719,-688,1185,1052,986,-273,242,1278,73,-628,-660,-2784,-836,1763,-221,-313,145,-692,5,402,14,93,-116,-410,197,155,-447,-353,8,325,662,260,1013,1272,680,1873,345,1069,427,659,79,-235,57,-517,-112,991,-8,1481,1157,-286,452,1449,895,229,1348,475,-87,380,985,741,1585,2072,576,1798,-847,190,166,88,-2265,-94,-855,-182,-610,851,-804,-401,-366,-1938,-215,-233,425,-207,11,-509,233,487,-898,445,-185,-113,809,801,-470,1616,53,1077,116,-125,-530,-768,536,-98,-843,969,-241,673,-806,-148,-403,853,93,142,1859,1430,222,173,-353,1101,79,708,-580,1134,799,-381,624,703,499,-655,374,-496,1181,531,33,-460,1026,190,-1017,979,536,860,721,195,855,-259,1325,1233,-419,-822,636,866,-442,-414,1233,201,211,251,341,-1847,-1507,-1263,261,394,-706,-1256,-465,1261,146,1578,-525,-47,512,929,698,-610,276,-995,-1498,-867,1366,1704,235,62,-753,-367,-159,610,1270,-1619,-720,-721,1414,1063,-1392,-167,-438,-1240,-1019,-1117,-546,1418,-6,105,-607,777,-871,-1090,-923,-1460,-239,-1930,-1433,-958,903,876,281,-521,818,813,959,-1093,-464,-703,-625,-1006,204,-157,-1360,-103,272,-475,-695,-273,1464,1221,219,490,-107,-503,-703,1160,-1105,369,-1244,2097,-1322,-1601,405,-707,-480,-499,132,-202,-144,657,47,-116,1361,628,49,226,1220,-374,-1258,-1074,242,863,384,1096,-246,292,-838,530,-168,27,-1667,-64,-1452,1951,80,-649,-421,920,1789,-1436,-1795,378,1604,1199,-273,585,1188,826,374,727,591,151,738,459,620,-625,282,-112,-211,135,-957,542,-978,-514,370,902,-65,358,246,1221,-177,905,-701,801,-52,103,-793,597,-392,-276,189,-961,-198,537,652,-742,-291,272,172,847,-153,-833,182,-110,145,432,-284,-109,-977,746,215,273,-871,-908,-311,-1495,89,102,472,182,-1290,865,235,-537,780,62,211,-573,-257,-812,81,823,736,1026,1244,49,329,-513,-77,-49,1028,365,331,-951,-1359,-630,902,368,1378,1558,1519,-505,-566,-286,992,663,460,260,-159,1034,496,804,-135,-882,-376,-188,442,517,340,-253,-1027,-768,34,295,-813,-376,-128,-452,-330,-3,-1177,-1314,2414,-472,-942,-1512,-1017,-564,-1266,-794,602,-803,-107,431,731,-532,1327,-154,-1900,231,-924,776,683,-201,76,-863,1614,875,-1998,274,-178,-796,-179,-106,-1214,130,541,554,-1593,-1214,-1313,-730,-1295,-435,316,17,638,60,1234,506,-1670,-1165,286,183,-219,367,236,-281,167,-919,-573,-852,-60,86,-278,-1030,-1383,-943,-959,615,-804,226,573,-962,-1175,-921,1,-617,-1171,-275,-237,582,1533,291,616,1709,2304,2039,1162,1523,-259,61,-1373,429,-1192,1316,-546,236,1367,362,422,1141,-910,826,-421,-1687,1478,994,1655,-320,480,-774,-251,-1606,-781,1470,-728,-418,-1275,646,-1115,-667,486,-904,-247,-483,-2024,-167,-710,-586,-530,394,466,-567,-63,794,-228,161,-747,1210,304,1028,-70,1504,760,10,259,1981,13,434,1408,291,-459,1167,-256,1354,41,422,300,264,-344,357,1387,343,796,806,-136,-227,-408,1213,1440,1512,108,203,-310,275,614,67,12,-1209,627,-560,545,-513,1692,906,17,5,-885,-678,-529,-585,205,-700,1315,196,-1446,114,-40,278,-1637,2,321,1351,1230,25,589,1298,-299,-667,185,295,-133,-1167,-10,-470,-442,214,67,60,-832,-307,-218,-753,487,-504,-1092,-503,-309,-473,475,-82,564,15,69,-67,-204,1181,-111,186,-139,-586,664,1402,403,1089,988,622,1584,859,566,919,169,974,134,-205,997,110,393,-270,-69,-121,263,1678,233,1807,-89,-526,-389,1615,-304,563,-265,2134,934,565,600,-1556,-647,-600,-1255,-948,-1229,858,296,-119,1113,686,-1694,-546,476,940,-1119,201,-927,569,1922,863,429,-399,434,-1615,-469,974,-1144,45,-233,1024,-418,537,-450,1042,283,-1726,283,63,-768,-484,-1236,-1927,-1183,-1402,-391,-1087,290,714,-406,318,232,223,-636,-233,-812,-989,-1081,-676,-1887,-947,-978,-1602,258,-1479,629,91,265,-230,-592,-893,22,-914,-1309,-727,126,-1240,-1253,-932,-549,529,527,-248,445,-1036,-1800,-776,206,621,-59,-563,-1052,-216,-957,1380,1026,632,-184,-43,-1217,-513,-1066,-278,1083,245,576,377,-241,-300,-1918,-608,320,-460,-598,-875,545,663,148,288,298,-309,-2339,-370,287,-1212,1126,-1145,-587,808,1699,76,361,1387,711,147,-75,355,1229,-294,756,-672,-434,1328,-894,-108,-798,-1321,-750,1015,263,163,311,955,-747,-18,-644,-6,675,829,658,-941,847,1202,-208,-185,-458,-1023,-358,-757,535,205,-1061,235,699,186,389,488,463,-906,787,-369,775,-425,929,597,1056,396,-423,960,916,-200,-168,513,-1027,-644,-369,-1013,-1188,-3,-11,-1328,561,-697,657,-810,-322,351,920,-87,1424,-670,528,1473,390,311,-571,1967,252,636,1662,1173,337,732,-438,430,-689,-166,-46,1330,-1049,-509,1089,296,-437,-138,-54,1340,153,1064,-653,-40,94,1020,-147,-495,1215,925,-838,1146,1100,585,-106,-1067,394,-1155,-214,-1411,-1337,1253,-1700,193,630,337,828,-931,1619,358,441,1208,-524,-1360,-395,1011,-1106,-1374,-509,-842,-587,-793,536,434,-171,587,-73,67,403,-491,-289,-345,-64,-896,1077,441,342,-1045,529,-269,-172,-1964,-506,711,1133,1263,782,-1052,-134,1104,894,404,1061,222,-657,201,243,1596,785,-356,8,568,-323,-1499,-480,357,-157,400,-244,-249,1114,1545,1634,96,396,490,-683,287,-341,-884,348,-572,362,817,-83,492,-1143,-194,1141,714,381,-268,1629,658,-577,1557,-412,-1126,-729,119,-1305,606,-935,15,728,476,-506,-131,-508,361,-668,-553,-338,338,1024,107,-163,299,606,384,-1615,527,937,-26,-658,-86,-495,1182,12,-1102,489,-856};
const static uint32_t LSTM_01_weights_output_gate_dims[4] = {1,1,48,88};
const static ConstTensor_t LSTM_01_weights_output_gate = {&LSTM_01_weights_output_gate_x[0],&LSTM_01_weights_output_gate_dims[0],0};

const static Weight_t LSTM_01_biases_output_gate_x[48] = {470,139,1323,351,2081,-63,2066,419,797,1894,-412,435,-2251,-2224,1144,-1779,-1356,-536,-1009,843,2121,827,-1258,-281,969,-3348,1091,-1511,-904,-198,-285,773,6,-26,-1480,785,-1043,-1126,-611,-1024,-939,-604,1180,864,-1033,-1647,0,-985};
const static uint32_t LSTM_01_biases_output_gate_dims[4] = {1,1,1,48};
const static ConstTensor_t LSTM_01_biases_output_gate = {&LSTM_01_biases_output_gate_x[0],&LSTM_01_biases_output_gate_dims[0],1};

const static LstmLayer_t lstm_01 = {&LSTM_01_weights_input_gate,&LSTM_01_biases_input_gate,&LSTM_01_weights_cell,&LSTM_01_biases_cell,&LSTM_01_weights_forget_gate,&LSTM_01_biases_forget_gate,&LSTM_01_weights_output_gate,&LSTM_01_biases_output_gate,LSTM_01_output_dims,LSTM_01_input_dims,TOFIX(0.000000),tinytensor_tanh};


const static uint32_t LSTM_02_input_dims[4] = {1,1,1,48};
const static uint32_t LSTM_02_output_dims[4] = {1,1,1,48};
