#include "tinytensor_lstm_layer.h"
#include "tinytensor_conv_layer.h"
#include "tinytensor_fullyconnected_layer.h"
#include "tinytensor_math.h"
#include "tinytensor_net.h"
const static uint32_t LSTM_01_input_dims[4] = {1,1,1,40};
const static uint32_t LSTM_01_output_dims[4] = {1,1,1,48};
const static Weight_t __attribute__((section(".weights"))) LSTM_01_weights_input_gate_x[4224] = {993,684,-860,-517,1101,914,569,-52,-347,-268,284,955,550,991,-1127,-679,-375,-454,-687,201,1065,106,-424,-401,-305,-154,1064,511,-793,265,-162,-281,825,1115,631,1101,626,456,77,169,-1267,-1104,967,-376,648,437,688,-1017,-41,752,-606,1635,-1083,390,-79,-725,-508,-72,1272,782,-197,1476,-86,1213,-585,-794,1077,18,572,-272,-881,-1022,274,-753,6,225,-658,184,-610,-512,-337,541,522,295,-670,-733,872,780,252,-1069,-276,76,1247,-566,-903,-625,556,519,690,318,-637,-1166,-1158,155,-222,1084,1123,1370,-556,526,168,627,-383,-546,907,621,-585,640,-580,-1463,-728,-464,-1435,-979,-1549,-1422,-1301,-1351,-963,1020,111,-11,-320,-404,-1371,448,476,-354,647,-674,-511,-385,916,-1092,-874,-248,1040,-1640,-909,521,41,-521,139,84,-516,1231,-382,198,-1129,462,-1162,-1453,-128,-148,-58,-1109,-1094,-806,-104,109,-744,818,64,529,-903,3,-643,-38,669,1069,-382,-430,865,581,386,-190,281,832,304,-660,251,402,862,1006,403,467,-179,-193,756,-190,-377,988,-378,94,932,342,369,-183,579,-676,772,732,1009,877,875,690,155,422,124,-414,119,778,-1119,-665,-297,-119,-515,-640,-290,876,650,-290,217,201,-289,-108,-140,469,-174,977,-128,-736,841,264,695,-988,-104,1905,-327,975,-316,85,159,628,-892,720,921,1041,-1322,12,-336,-1043,243,632,123,349,453,978,-512,-931,1090,259,1017,-617,-101,-728,413,-785,298,-512,-184,331,1158,478,918,177,1007,-616,452,567,-522,-402,80,-175,1234,-6,10,575,796,-433,178,68,1230,51,338,-84,700,632,713,157,-757,-485,-486,-293,328,329,-266,-913,-140,522,1357,543,15,511,-1383,-1136,1181,261,232,-851,-206,-380,-535,-200,-1093,-322,-437,607,980,428,717,150,219,-229,-1476,496,282,1013,-255,-1365,887,-38,-1142,532,603,-6,141,-827,50,-1322,-1014,-1464,458,-606,-635,27,-118,-1089,162,-927,-75,-676,128,-1055,364,-624,-1135,-609,40,-881,352,-223,-617,634,-164,651,959,-572,-206,-552,725,464,753,-590,-478,-675,-763,327,-192,-667,-1023,-274,-1118,-794,115,608,-513,912,-179,-362,456,-688,-630,494,940,177,1059,207,910,-150,-234,488,-278,-255,-810,-850,-353,286,-340,-225,196,-1173,684,-1510,-301,-487,124,-966,1086,308,-820,431,-644,1617,-342,1415,142,584,652,-297,939,1176,1331,148,-381,1334,-237,491,692,1107,932,1384,-130,1335,1155,-10,986,463,555,-264,-328,6,1049,1079,716,533,231,1512,1420,834,120,-299,-1105,-844,1462,-445,868,-572,318,-1811,388,1174,111,-133,142,-440,-266,-1061,470,-108,-260,22,882,-942,-561,471,77,-857,1540,-589,-835,22,659,145,554,116,-298,-93,-15,924,-342,-918,-207,685,1387,-1227,953,1322,686,-129,-1117,750,68,103,-81,225,479,1685,-17,-112,867,1220,-95,-195,486,851,-710,-269,1004,1015,513,111,1090,1160,1269,-318,-90,1557,689,556,-509,291,103,346,916,642,-266,1082,584,65,-332,124,634,435,-627,772,854,20,-1194,931,-929,-570,-446,-576,-1376,798,768,-330,-250,-759,-1131,-2573,354,-272,-520,-474,170,-102,530,400,-409,-300,-174,286,-484,854,651,-23,-206,-1676,-705,612,-455,-57,75,-748,201,-8,739,125,738,-439,697,-297,888,770,-591,681,139,159,427,-380,577,148,105,524,-84,-397,902,1075,447,-242,210,157,-701,-119,-282,122,-420,406,-700,814,-860,-621,-277,-268,1091,367,729,-9,-889,453,-100,-384,-157,674,1142,37,564,-1204,416,-740,-494,241,-10,140,-150,970,783,463,49,-431,736,471,-118,-258,-559,-374,-716,949,248,751,427,-36,356,172,-1004,-130,265,-1519,1385,-1199,-1263,217,-1057,466,32,-111,696,987,-87,1052,-162,474,-756,-315,-879,203,-624,988,486,673,221,584,-229,730,-1035,-835,744,676,-661,-363,168,-1002,31,-182,427,-363,370,124,-1297,-482,706,-916,-152,-1722,887,-403,-536,-172,-1044,746,-445,534,48,214,1028,-1042,683,981,10,-615,-635,-621,1440,434,-52,453,-440,-324,-345,929,305,-885,-1098,287,-296,216,5,-318,859,523,691,-927,188,62,-1753,315,585,651,-898,482,-93,747,482,-51,512,-392,-513,236,-457,1192,-521,-7,-661,984,1028,-341,-127,-663,1132,26,725,-141,362,1044,802,-504,665,327,644,-660,225,716,-522,718,73,24,977,1597,510,482,744,-497,-378,-184,-605,103,-329,39,628,153,886,-737,-251,-1450,884,-507,392,-199,-776,27,-1299,416,418,-752,-348,198,675,1003,740,-251,1274,-621,687,-346,107,925,-1350,1083,-228,-354,139,1079,-367,701,281,-162,729,-37,1179,830,733,514,-741,-976,-56,-51,705,371,415,-505,163,-492,537,-545,-77,712,1076,1032,768,-528,-253,783,-643,183,331,688,26,722,159,880,-405,124,10,198,1234,-404,-92,1690,-735,650,-1456,-57,-405,320,1003,-421,493,262,-114,1185,1039,518,-725,-625,-198,564,-87,-1015,-882,225,-112,-200,-321,-1272,132,-583,-106,-133,-213,169,895,49,1767,366,580,-196,675,-1096,539,797,-145,-1021,-206,-44,284,690,576,214,356,-767,-438,613,812,-333,932,-3,1073,-235,-698,-194,-827,-350,443,-38,30,540,-791,224,-458,65,905,-480,-452,-201,-316,43,111,1085,-803,962,-316,1296,479,-263,858,-430,-479,-430,-434,-836,1250,1236,-768,-800,-23,212,120,591,-227,484,-586,266,-645,-420,-330,-1064,-1147,-845,1067,81,-436,780,-196,1059,-787,-105,-23,221,-570,652,-327,-810,-397,510,672,-192,482,289,1465,112,880,303,-206,-908,-165,-120,-928,-630,15,-266,1148,-728,-446,1179,-836,1193,-216,407,-1044,33,296,-876,32,1214,-833,-754,-875,-648,674,704,1098,788,-884,-26,729,359,1095,390,495,-866,-81,707,352,-563,250,-195,-399,472,860,-478,-1020,-1087,-229,-862,-600,352,628,17,1596,-237,-142,724,-213,219,87,-1272,190,-346,286,-920,12,59,1313,-217,-277,-614,-614,-560,-290,1158,-787,-156,927,-770,-76,1372,1072,-1149,-158,1147,-331,1022,772,-447,-809,345,-477,1078,895,911,-568,787,949,450,-881,178,671,-957,-714,575,872,377,1104,-133,811,798,1277,611,-776,-133,402,1224,-640,-173,-331,1218,-533,1231,886,1198,683,-381,1323,-712,-246,-944,267,-1136,272,-276,154,501,-524,286,-616,-145,104,-414,275,-282,1490,-908,-110,-36,177,-224,985,-164,526,709,-13,-118,-258,288,577,1076,246,-85,65,-628,-623,1228,1343,-652,339,234,-1650,-31,-454,-267,-592,-817,139,-719,1223,479,686,-683,721,-726,-734,248,-451,-122,816,597,-475,862,-561,-119,-757,-573,-1187,-888,724,210,729,-720,65,-17,-900,650,-399,372,89,1305,-311,116,-925,410,845,-386,-140,-1654,524,-88,-411,583,-154,-430,54,-1054,247,150,-539,-883,-2012,1484,-715,138,-642,-109,195,1906,873,-532,-1333,1188,-960,-1133,-305,275,606,-978,-825,-823,-1228,-668,967,560,-801,-314,-216,129,-1082,-665,262,365,-797,1007,-233,296,-642,-1230,-1146,-1140,731,808,-726,358,-194,102,-169,188,-458,992,853,18,-786,1084,-66,960,883,1141,-516,-678,527,1018,-482,773,556,1046,234,-811,912,-856,1128,901,-362,-1089,975,972,-457,-632,-1017,439,1036,-562,-972,-1140,470,280,-1008,-340,50,883,-172,-544,-477,798,-570,693,799,1026,-195,-152,309,-240,-291,31,739,109,-663,357,940,-168,-982,8,743,459,1488,-974,761,-946,505,-71,-529,-358,1021,28,722,-442,-203,-159,753,921,1072,-581,-288,-285,828,-702,0,-770,1279,327,-421,287,180,816,1324,20,-34,557,-522,1275,952,-557,903,962,81,1442,1217,704,-436,749,451,-348,43,550,329,341,61,-25,178,484,-281,359,207,859,548,-1179,1463,-374,241,622,-1091,679,928,990,-869,-607,-648,-604,1161,527,-1113,-166,211,-310,958,874,-1585,-484,1483,466,501,-390,-369,396,571,717,-29,-537,278,-659,536,925,-587,479,812,625,75,315,923,-650,114,-111,-782,792,-824,-525,-169,102,332,625,-334,797,335,751,-796,-243,-457,-201,-625,636,1039,217,-751,328,-332,-678,90,-1165,-403,-1355,49,392,812,-393,673,715,443,32,-108,-352,-580,808,1273,528,-665,-249,-306,204,-9,418,441,-856,-928,-1275,240,404,-864,997,-3,-101,1101,729,435,584,1199,670,-374,443,182,-479,711,193,100,473,541,487,824,1350,-487,450,1060,254,-968,160,1074,-766,-251,-12,-719,1335,-697,1041,376,-974,-331,260,766,942,548,-226,-223,-119,-673,-780,299,1248,128,243,-802,-208,675,1069,-24,406,-107,622,-1658,17,-453,-528,332,-883,-682,301,-1466,-284,5,167,-747,-820,779,-707,221,-697,856,977,186,-125,-897,193,997,-3,278,-835,-461,-49,335,-179,961,513,626,631,-1117,248,-413,478,2008,-239,925,-17,820,-990,-1534,-35,-448,997,870,-156,-844,-689,97,379,475,829,658,455,996,406,-280,1089,-447,51,1065,965,-850,275,-866,362,-668,65,-266,-762,-982,742,-212,-726,-3,641,783,-492,-338,802,277,-510,35,-1181,-566,-392,-1388,-126,340,165,-1418,-241,338,874,760,91,823,-551,35,832,888,-833,26,139,206,432,504,932,354,-329,-1076,232,-30,-39,-235,-4,-79,-409,-62,960,546,849,-536,984,-557,-195,113,218,1806,-1358,-27,-311,-389,-739,234,-886,564,-24,150,290,786,982,422,-771,799,909,-444,-163,6,-433,-395,215,505,-1103,-910,-104,800,698,-847,-117,718,-876,-352,629,-290,-703,528,119,-760,-884,745,530,-105,402,239,-695,-151,470,120,-1483,-1323,742,570,-692,335,-1349,96,332,-732,1153,342,700,808,-168,-8,-514,-363,818,-647,-195,362,554,-1259,-528,391,-1279,1194,-135,-182,-696,720,-199,8,806,426,759,-26,-104,-679,942,-612,-571,-779,795,709,-41,-130,16,-459,94,174,-245,-271,-595,368,949,-530,-866,-1051,36,237,-398,-1228,517,242,-499,-1403,-51,-692,-348,-1633,20,-127,-835,-1475,13,32,-686,259,-540,396,-719,409,-398,-1019,1003,-741,790,707,-333,1565,472,-96,-788,1135,719,-196,-589,-44,-566,-161,-671,-2,284,-322,-120,-894,659,-53,-839,52,-1046,-699,-460,785,873,-407,645,687,-67,298,434,-642,158,-834,903,349,-15,-363,1113,1014,1119,1020,-23,486,-706,-119,-186,52,-801,612,712,975,-591,-510,194,47,767,-774,-129,-570,-466,995,-293,-717,109,-805,185,380,567,1334,1162,701,-101,1150,550,-814,-876,-359,1097,398,-721,37,-1294,-628,425,-921,176,-75,-522,-910,-262,-21,562,-650,639,504,-339,1416,-600,-310,1028,411,710,400,1023,-372,847,481,99,725,1554,-381,229,-397,409,-855,-241,-1560,133,387,48,-934,40,-1124,-506,-625,1079,764,-197,1171,793,604,-408,-393,-857,1046,1068,-621,-391,1107,142,-825,-234,-169,808,724,-823,304,966,146,291,551,-947,-375,133,-230,978,-486,361,-300,-368,477,137,1059,144,-786,581,113,-1314,-1160,261,-367,329,420,998,-258,-597,34,-481,17,376,-1919,332,-1171,381,-1105,659,198,-905,-343,133,141,-82,-1580,563,-713,61,-1321,-17,-434,40,-1060,-627,-344,-1034,-156,71,850,547,-30,160,616,-153,113,817,-681,481,1224,-322,-202,-121,-800,-106,855,730,-748,-694,223,-411,401,1120,-212,-839,-984,-161,-1083,-466,941,867,164,-190,-971,-412,194,929,168,432,-910,709,249,-114,-267,-319,-750,-1194,-140,615,86,1198,117,-91,-455,54,-896,-949,1057,-230,1004,1672,-767,-988,785,-158,3,622,-93,471,498,-816,663,1395,-295,71,-337,648,331,-189,-537,-522,-985,-574,78,-465,473,107,-358,-171,-399,232,-1272,-873,-1398,313,460,-639,456,477,700,-291,-31,-488,-758,-106,-751,31,-71,-1232,-618,499,-1044,210,-1140,-286,-810,-713,-1376,69,57,124,-357,195,-1040,-913,580,295,-720,-690,470,-473,237,1013,1568,-1560,-1550,540,-986,-1211,453,-945,370,256,-471,947,-1420,-548,661,506,-758,74,425,-200,-509,-56,305,-243,-1377,975,-315,492,-421,-302,-63,-367,187,819,1000,139,462,-204,-142,373,259,-249,444,1206,1347,869,-139,-109,-930,502,-1052,-322,-1215,-950,264,-822,-948,-302,-952,216,-1030,-1065,385,-37,-557,-1155,-470,-40,653,-1169,682,378,-288,-929,-482,399,841,210,692,-39,-17,-842,-318,252,-368,-818,438,-638,12,554,-435,342,821,684,-1389,-427,-9,-163,767,1696,-1134,-592,-1408,-320,-425,133,425,-143,32,630,-151,63,-371,-205,1299,-119,-326,-803,-986,1195,1711,591,-55,768,-942,-225,156,523,976,682,-365,-552,462,371,917,-1351,-277,-746,-1505,-344,368,102,495,258,-1170,478,59,-585,200,-476,143,-1129,-1192,-191,-853,-1182,-834,-60,-268,-214,-1312,-298,359,55,-62,442,-1376,12,-1219,-700,-28,-767,-238,-9,190,333,-218,397,-842,-638,-1643,-288,278,742,576,-511,-106,405,-771,1248,27,2187,985,1169,636,1684,253,-1154,-284,376,-431,-508,-1185,-825,-322,221,-890,297,829,15,-108,-90,172,7,22,-12,-352,-1402,-89,674,753,-191,-917,-185,-818,-954,-751,716,527,852,815,-256,-898,-283,-962,-123,-1051,-764,-1366,200,-882,-263,880,111,816,776,-406,244,81,452,-909,-94,911,689,-263,-182,-936,519,-57,181,34,651,1276,-584,-589,-904,-1180,-416,-790,-1369,-224,499,-218,246,521,-287,808,931,-259,318,-1429,353,-402,933,-56,660,-548,317,-1341,-1774,-937,-862,202,-319,-115,107,-1442,93,722,-506,-907,-364,-181,652,378,1053,-363,-235,-2067,-545,-125,620,58,-235,215,-880,845,-703,-757,939,366,757,605,-102,145,353,-1033,-350,-787,970,-728,306,-752,61,915,-881,844,940,-679,-920,-1083,-304,350,65,358,953,424,-683,19,3,-111,4,630,-517,440,-662,-666,-321,231,-564,505,748,98,606,566,565,34,828,-792,-465,-1192,-93,-713,1344,1346,18,639,-53,666,-524,1327,-447,212,-585,579,34,556,195,-565,1182,-984,-586,-438,20,511,1060,-1072,-109,759,-905,291,-37,-678,-670,-808,332,702,-1103,-424,-686,-362,399,1020,-390,586,462,569,-261,963,374,-370,-855,510,-282,1013,469,1145,8,-306,-669,671,982,853,797,1195,516,-346,657,1217,703,452,527,509,550,591,457,-995,-455,-189,133,-2033,-500,-322,-693,-345,384,-426,-948,-349,-125,742,-230,-451,-179,-674,-749,-434,-1067,-486,-225,320,454,-439,1095,561,300,217,-192,54,569,-864,-262,719,1550,84,430,1364,-827,-1146,-664,505,-1169,251,-115,-357,834,208,-764,1002,182,899,983,-745,383,678,-159,-89,-696,709,722,-1186,-1048,-1089,-351,-1004,257,-1238,666,-725,-504,227,-837,-147,-920,-887,315,20,5,-1166,6,552,33,-356,-323,-355,-629,-223,-1484,-1425,-935,96,448,524,-69,-464,-162,-840,518,-1362,-397,762,-140,-511,427,559,1044,-1207,-559,56,-624,486,-1374,1030,591,-429,13,537,422,-1346,61,113,-199,-525,-1445,945,-447,-133,-1296,108,-1826,-904,488,-1055,-1209,558,-753,-744,160,-681,799,-1066,-667,839,955,-80,267,-946,235,-544,-1111,33,-779,808,-888,679,673,-916,-630,-488,-632,-202,384,-364,-902,1295,400,-450,1016,-367,308,531,-479,909,965,-627,36,-853,875,-200,386,25,336,588,-1159,997,203,-347,-811,1418,932,-616,716,-482,-685,-653,755,647,-880,2540,50,-1168,1294,123,409,216,-424,1309,1142,615,-189,1883,313,683,79,-422,835,-704,513,4,-774,801,-468,-11,660,242,-76,-584,-147,-182,569,-852,-1038,-344,-508,47,1093,933,-709,-388,-212,946,-215,-788,-51,154,-355,768,-292,307,-500,-777,1062,1420,-557,-79,239,-465,803,-1371,-75,910,-1623,432,318,-418,560,412,-303,-794,-1084,399,532,55,-723,183,986,-124,-95,554,-676,-1157,867,-871,651,1248,-467,674,-872,-1013,431,-902,-175,70,-114,46,-316,-531,220,-46,439,-1304,-758,445,602,-611,-955,-115,257,-561,-1618,-431,-842,-2038,-897,-1825,-1539,-957,-1833,-926,-1933,-485,-484,-1268,-578,-328,-1661,-1910,-1050,-1935,-1093,-211,-1311,-829,719,-1244,239,367,325,63,588,702,-2104,62,-159,-1251,1188,1490,909,241,283,825,253,-858,1406,31,917,-920,399,1035,234,-1087,99,-371,-103,2651,-57,-720,57,183,-147,-160,1542,-1147,-23,-924,-337,-273,-733,-252,-969,1036,1903,-283,314,775,-1196,-421,402,21,365,873,969,606,913,-244,765,492,-2,-95,-609,1396,94,551,897,408,132,175,-409,-175,195,1299,816,-339,1112,1391,-462,471,512,27,-285,-894,341,-377,1055,-541,332,1294,14,974,143,151,18,-5,-1556,-1463,595,-1168,-368,387,891,-778,368,-88,160,25,-263,22,-941,4,338,70,-451,-1679,-821,895,-28,623,233,537,452,1297,-823,555,-873,-1293,-1200,910,314,-502,672,1163,-33,-67,-833,-52,-477,-910,53,597,-122,-1172,-952,109,-1224,-885,-838,-8,-540,543,-220,-1373,579,-1243,-166,-1189,813,-770,-23,408,346,-131,-530,-15,-519,-995,-865,-439,-1143,-342,-736,-149,-458,-1403,53,-1341,-559,28,-713,1312,5,10,-1741,250,274,-94,884,-134,-299,233,1181,1629,1489,-55,1158,-144,-54,-709,-315,-1629,1626,-689,1750,628,535,-1373,83,343,-529,-716,221,464,-339,-11,-1025,33,-143,2777,-25,82,-167,73,-1729,-529,150,1145,-41,-633,65,560,597,72,437,-131,551,-493,865,-905,-327,-961,-674,-271,-16,-667,-1210,-131,-1559,-563,-921,-1528,-561,-746,26,-245,607,-1156,-1194,-620,-1026,746,-101,433,-283,-903,42,914,-327,-646,47,1151,1379,-488,-109,-374,893,-148,393,757,377,403,-776,-27,-836,1,715,123,-536,-2067,727,334,747,-189,896,-1050,389,10,34,370,337,154,-49,71,-1206,-1231,200,-253,443,-721,-175,782,784,1151,160,774,417,-154,530,-601,18,181,-399,330,-710,32,-1095,846,877,116,10,54,435,964,565,-814,890,-183,439,-171,0,-700,568,625,447,522,-587,77,1326,958,687,1100,-538,121,1033,512,-618,-379,112,338,261,-8,223,85,-250,-52,1138,73,-928,-877,554,-2,-247,411,-208,-647,-433,219,1157,-1200,-1248,-1315,-49,344,-409,326,-47,-611,-1416,-130,799,-1031,-344,-1929,971,506,1211,132,-1124,-148,-834,-111,-1,-588,85,-767,-130,560,894,-52,498,206,747,422,-840,126,-721,-578,-823,409,-571,-598,-584,1042,-929,353,997,968,-770,-473,1025,1095,1119,46,428,-536,-76,1124,-883,958,-578,132,-426,-291,368,1189,261,137,931,731,-660,-203,259,-312,-171,1360,-1194,167,812,-762,647,-100,-36,-60,-208,-643,-778,-43,-674,1032,-1105,306,296,-570,-54,500,329,-331,-311,-1038,-97,-619,1270,1264,484,222,778,762,819,-236,-617,71,474,-1756,-522,-341,-475,76,-561,979,-759,-950,-721,293,58,438,-9,-866,659,-1042,-786,747,174,378,684,-24,-1186,-371,92,-58,372,-1363,-394,-1269,-397,-411,-1284,-700,-131,143,91,1878,754,693,-1323,-840,-2389,-1285,452,1169,1182,487,-1881,1053,-395,-273,794,260,1682,1417,-207,-87,383,-305,890,-794,-835,-581,151,531,30,-171,-850,-360,517,-1265,-1069,228,-388,0,-1449,-742,1234,-645,-1269,1386,810,-664,492,178,564,656,-464,673,1022,933,-225,-1035,-975,-362,854,-101,-861,-982,712,-293,20,-854,650,-1010,-1004,51,-988,254,-930,-328,-754,1039,346,-143,895,-550,1491,479,862,-269,486,562,545,-620,-97,-199,310,-711,1277,33,-252,-1130,1419,-167,55,-260,6,167,514,-894,418,75,1822,-1067,-1164,772,374,-249,-333,382,-669,1428,-160,381,234,1247,-94,722,322,1052,-1583,-862,250,869,337,537,55,903,-877,719,652,613,-364,724,-122,848,492,1091,-704,-473,660,-851,1010,-32,-905,746,15,-392,21,-271,791,-726,214,1390,1097,604,722,981,-598,873,949,541,1328,-315,-178,104,460,1745,1161,1288,63,-521,1123,-663,1635,-725,-85,-450,176,-22,159,-958,1281,-932,275,1372,-109,-479,-758,-299,-36,293,-5,1227,-543,72,-286,-604,564,1019,617,-1008,-1280,-238,418,-673,-873,-66,127,-704,1213,-357,-250,-873,-199,381,-946,-34,674,-42,98,524,-122,1121,500,1235,-500,-370,456,13,-679,1131,892,664,328,-501,177,1285,448,1127,382,1181,-292,834,-328,-182,456,-334,138,-355,-514,27,-934,1050,1026,324,1120,-547,1090,345,-544,-650,878,-663,-154,-1225,-896,-411,-1116,596,-699,165,-796,-256,429,-388,1186,1251,-743,344,195,-1084,1445,-1253,-541,-299,862,-22,361,612,-1219,-320,-79,-471,160,-12,-530,625,319,318,-33,20,848,293,371,-896,499,361,-150,-27,303,-109,121,-149,-1013,-577,1031,-22,-795,199,447,-557,-151,-347,555,497,359,-701,756,199,570,877,-748,-397,1,537,537,-1160,-903,402,-617,-1184,681,-171,-1061,19,-338,19,1078,-833,-379,294,-591,-107,1315,1188,32,590,1004,250,1033,-1126,688,67,400,-367,853,495,-100,271,685,329,671,1475,617,-591,-493,-550,137,230,-531,-304,1407,406,380,475,-115,950,177,514,499,-116,142,1154,-651,200,357,-391,-560,-753,993,828,625,725,572,-773,1155,-393,1159,-716,651,845,678,-412,-283,389,-94,676,842,418,1024,328,-993,-401,34,608,-2,655,-434,1041,980,-439,626,-335,793,-473,-185,-177,-551,-1133,1481,968,1150,95,-141,-2211,314,-476,461,-610,414,694,-235,737,1103,-1335,-474,-347,-948,-646,373,530,448,-129,-569,-52,203,-311,581,425,278,-188,425,426,636,-980,315,239,614,752,527,-778,880,-647,-1562,-395,-1037,205,-750,-40,896,-34,-390,701,-100,687,-262,810,-251,-658,516,6,1141,846,403,134,801,599,752,314,-28,-360,-531,-198,235,-822,1120,1182,-582,217,567,208,621,58,19,-121,717,648,225,138,-84,-389,-605,1111,223,-297,1128,-71,-592,1125,958,884,-44,57,-561,173,238,409,467,1177,462,260,-753,5,-425,986,177,-846,-338,-173,468,-187,-1220,573,-536,-201,-208,-319,33,-573,-544,574,489,112,-718,855,270,370,1004,178,218,-747,345,301,-494,414,-713,-289,681,327,1406,505,-28,293,270,955,872,-430,235,116,1236,-457,-594,1024,-952,847,-1054,672,-471,609,90,723,813,813,-621,724,-706,-1272,620,-638,-424,275,470,852,-852,890,1574,-164,249,1054,-344,-199,1484,-69,622,353,659,-1778,510,502,943,452,414,951,94,-69,-502,-703,210,-370,-1144,-136,162,-65,-558,-862,627,-393,-77};
const static uint32_t LSTM_01_weights_input_gate_dims[4] = {1,1,48,88};
const static ConstTensor_t LSTM_01_weights_input_gate = {&LSTM_01_weights_input_gate_x[0],&LSTM_01_weights_input_gate_dims[0],0};

const static Weight_t LSTM_01_biases_input_gate_x[48] = {530,-269,541,505,-177,781,-231,426,-185,388,436,257,393,494,-964,-19,735,168,322,387,178,-512,396,164,100,-1050,24,-2195,-405,-174,189,-580,72,-122,815,-37,-113,-291,414,56,-1222,580,466,48,-713,301,133,-132};
const static uint32_t LSTM_01_biases_input_gate_dims[4] = {1,1,1,48};
const static ConstTensor_t LSTM_01_biases_input_gate = {&LSTM_01_biases_input_gate_x[0],&LSTM_01_biases_input_gate_dims[0],0};

const static Weight_t __attribute__((section(".weights"))) LSTM_01_weights_cell_x[4224] = {-773,238,1358,-100,674,-708,280,-555,117,-429,1212,1764,-320,8,-992,-288,-564,988,-312,113,443,48,-186,-1105,-498,85,-67,133,-367,-505,105,383,300,1123,-240,9,1788,994,1714,2461,396,526,408,-241,348,460,-412,2180,1515,-261,117,-871,-901,-23,-586,-752,-552,491,690,-2309,594,529,-404,-1495,499,742,-973,652,695,-1012,1468,741,1708,423,-746,-884,456,1043,915,-1618,40,1419,-450,-161,-268,-1540,-491,18,-609,1075,-823,808,-430,-298,333,475,429,1538,-242,1426,883,1056,-432,791,980,-325,734,-991,-1702,-1194,-485,-140,362,-148,-157,-243,653,-586,-306,-85,1066,-262,-220,-1003,-289,-840,459,-1190,-246,-1273,-921,570,1582,735,1519,-787,-572,-83,-954,-727,-572,1337,-1048,-1121,151,61,1275,110,240,-1278,1096,-385,218,-278,927,416,1256,94,-912,1434,-520,846,-342,309,-528,627,1586,-630,-1088,-499,-531,-645,440,-159,1372,1099,-246,-908,1036,96,1289,711,-213,1011,94,-15,1202,472,-333,938,72,1005,1394,798,-891,736,-646,619,642,46,351,899,-916,-130,437,-468,-494,-801,-795,-76,-1136,-177,570,-945,-882,-797,283,-104,-709,-356,678,-931,-972,-778,1044,237,909,-484,875,-937,1054,374,-441,-582,120,-427,48,827,-463,881,-142,-800,1083,-789,626,-377,352,-244,-555,219,-739,-1328,497,-258,-227,744,1932,-423,-143,-646,-90,-1338,183,-1113,16,341,-197,-1512,-1705,222,-1085,526,136,-411,-544,1323,981,1005,497,1344,524,388,-560,-894,-559,546,-1090,-1430,862,1142,647,1028,-102,-614,-1160,629,860,374,328,-715,-712,-798,-732,-2138,46,567,296,-647,742,-1128,1061,-535,-1201,22,-298,-116,-333,202,310,683,473,1186,806,-170,1597,869,1472,-1742,-787,-254,-13,240,-271,-194,-65,504,-492,-197,120,352,-827,543,-596,-64,1261,-356,-633,361,-391,819,-521,765,692,-439,379,-153,1046,-113,-378,558,59,246,-799,-390,-836,-961,418,-766,-410,-488,-1131,360,-17,-25,-102,-468,-620,632,-502,-1059,-278,971,643,-620,-292,916,328,651,-983,438,471,818,-1282,-127,53,276,144,1668,-525,-762,-470,-715,312,790,-770,-211,-968,472,-741,-296,1366,-462,659,17,515,-514,-926,509,-278,339,668,994,-215,2110,385,-1119,-198,260,1171,-204,1330,-309,479,-878,-335,800,423,250,1280,457,2523,587,-843,-1936,2,-1838,-1464,-1413,-1674,-250,-275,1559,444,70,-275,799,58,-668,305,905,865,-514,-410,-1177,-1945,-1575,-625,-547,-425,777,525,-374,765,-70,992,1486,1088,1350,868,1563,-402,-1600,335,223,-1220,-1375,-202,-1640,1236,374,1761,668,307,-598,235,-711,530,1076,-205,-154,150,-615,487,378,-669,1787,540,380,199,-89,-362,-221,748,-175,-291,-875,743,-662,-841,-437,-369,568,-1142,-695,-534,-124,-1193,-142,142,220,138,1156,275,-335,101,-209,-1113,-395,268,-174,-284,-423,241,-323,-331,-671,270,-559,-403,-264,-343,-1229,-2031,-1249,-1442,-358,-1198,-381,118,300,598,836,543,413,1583,-419,-137,-700,-67,-1304,-134,-851,-1073,28,-466,-2084,-174,842,-162,1859,-705,563,1477,-144,759,439,-449,2928,-458,-614,1954,1298,-1862,-37,-280,-1329,-685,758,-1109,642,2418,141,584,-328,683,-523,-1112,2063,1178,1193,-250,-595,-294,-1187,83,-157,-925,366,-661,-984,-467,188,681,-876,-635,-131,-280,538,-1049,480,200,-922,300,-215,465,-1341,-82,-583,75,-670,-1175,-1272,-780,-693,-1237,301,158,-806,246,-888,-583,-574,-672,822,-607,1186,410,-667,188,802,-312,1008,917,113,39,-1264,-125,188,862,262,336,-313,-192,-326,1491,-289,273,-252,840,2010,-1385,-49,-710,419,-735,-1284,24,322,-362,-225,-145,471,288,705,37,-637,105,308,1705,946,39,-627,-426,534,-853,129,248,-1151,16,531,-770,-323,44,-8,1205,-400,-766,-361,-487,-741,-1339,705,234,640,271,-318,-77,-835,546,-1123,-1244,626,-569,-779,-1117,-445,-906,-237,426,-515,-386,-1226,-1355,-776,18,269,230,-36,-226,-209,-853,-347,-461,-1171,-653,535,503,214,-99,-596,-586,771,-291,-754,-966,876,-1338,-832,-214,278,-914,-1141,-826,-585,-1131,-184,-62,-260,-1473,-51,-374,1000,-41,-712,121,447,502,360,686,-319,-36,-2519,1597,847,1517,-289,-391,820,488,155,369,-2256,-924,-505,-868,349,631,-1314,-249,-620,-1202,431,-391,549,620,-778,397,-800,682,-434,222,-803,-889,-78,-829,833,-394,220,532,163,209,-311,391,108,-231,111,-349,-204,206,-100,952,-264,76,952,607,-30,691,893,-322,500,-925,253,717,-609,-1568,254,-1546,-252,-448,1572,360,1115,-1096,742,132,-134,867,-493,-1132,636,-1062,90,-301,-254,-980,-498,-710,631,222,635,-645,463,-219,-332,155,814,-1215,306,124,-492,-437,1009,242,-1,-429,-525,-535,-776,400,1597,-32,1049,1250,18,-197,395,1194,984,-78,-333,-299,523,-510,-566,949,413,-745,865,-595,2017,1004,-677,1168,-562,-1523,-654,-286,-1068,246,-930,-69,-285,220,1079,-1700,1141,-111,180,885,-514,-324,484,59,634,594,-1287,404,545,-248,-867,413,-51,880,-348,-7,424,-367,1154,-484,146,254,980,447,-139,-38,-1691,724,397,1062,-513,-90,1271,-305,853,-803,-642,617,792,801,37,348,1312,-529,-500,4,1102,397,400,1011,801,954,-275,1139,222,-561,-831,365,718,1126,1029,915,-478,-599,869,-54,155,590,232,-225,149,-203,1169,525,888,-613,-158,226,257,630,81,-918,57,-310,-551,-45,-749,503,1153,840,73,930,-764,-763,58,-113,1000,691,192,410,-457,397,-831,-185,124,-1147,17,-479,-50,337,108,1237,-748,-1108,511,792,-1196,-1069,-770,-572,412,-104,637,-890,-738,863,111,-725,-274,606,695,794,1382,1865,-241,434,-41,-1227,-1181,-442,-522,-393,-1947,-1280,-553,625,132,92,81,634,332,-1134,-1020,-913,775,688,-675,28,1342,1178,595,-516,-21,1401,788,8,-537,376,-76,-593,-410,-448,328,223,1347,695,348,-2267,-914,87,474,-2148,-267,-315,585,724,1339,672,-500,-1337,124,-38,1158,42,627,-419,1693,-1082,514,-434,460,183,1375,-739,-946,222,-1772,-1365,-1371,-1311,-1302,-2075,-314,-462,-184,-686,359,866,-77,-852,-323,-758,374,-787,175,-708,-1206,-1084,-384,-1664,-435,-551,-385,-40,292,827,468,363,1817,280,769,2194,1362,1680,2943,186,-321,-17,-1807,-291,462,-103,234,468,616,-971,125,752,-516,568,-186,-197,491,765,1175,817,-2003,924,151,-499,343,170,-198,270,977,1058,-380,-78,843,1081,214,-186,300,-1326,-593,181,777,140,601,1672,-1605,316,-796,-1115,-1028,603,1717,373,886,733,815,-373,-1293,-690,-373,670,-731,-377,-135,928,107,-561,-203,942,-242,-780,-701,222,-165,993,-140,-59,761,-90,241,-269,548,514,-1433,83,-861,384,-1253,144,-740,-13,-1133,918,-172,-2690,208,-1740,165,1878,-1580,397,91,87,1,-298,285,558,-1478,-110,-56,28,756,758,-215,-973,174,700,748,456,-233,426,411,31,-322,-149,-1267,-1012,283,-464,-1405,-647,-1045,178,454,-1481,-621,1031,-284,-662,84,223,969,1733,775,-104,-679,723,-672,871,-737,741,-68,-761,-200,-1263,-188,-74,949,655,10,913,-712,-935,376,-308,311,279,-820,-337,-242,-591,-764,195,-4,282,620,-1150,-99,956,-628,-993,1073,557,603,-891,-499,-649,-826,1244,-32,-318,-339,575,59,237,801,166,-353,-1050,-76,-31,-406,1552,-349,1240,987,7,-446,204,697,-1725,1160,113,-1682,-204,-264,255,1854,819,291,-466,977,-1288,-146,383,489,507,127,-1185,-318,-59,370,-261,1045,-529,315,645,-725,-426,1342,990,994,-460,781,-164,-777,-1070,-1155,305,804,44,-354,308,-940,-266,901,-855,74,649,-113,-930,149,-753,24,-111,1457,107,995,-893,-1733,-1861,-227,14,-788,382,-173,519,2076,205,-904,-1450,-919,-247,219,739,-271,398,-77,-642,184,192,-1034,375,-326,540,1130,858,648,-410,2008,-97,-56,-673,798,21,11,-204,-392,629,2593,125,164,899,193,175,-631,-1099,893,-1660,-343,776,876,-376,1120,1069,173,1142,961,302,-658,265,-930,-457,-443,-1272,-286,-1631,-442,-106,-562,-1069,732,343,-29,537,-159,642,614,1287,123,873,205,1054,-853,113,320,-1656,-1476,687,1639,-920,-505,-371,-1029,-129,-131,40,795,62,-1255,-278,-31,-387,625,-7,230,260,1023,354,1074,-199,82,79,170,-125,-889,-250,379,676,524,1345,-1089,-228,-195,-286,-619,662,-1524,-569,-1073,828,-1669,-559,-646,-578,452,795,-133,-400,-4,-35,-1790,-1362,-673,140,-1583,-1889,-1896,-793,19,580,-908,31,205,116,521,566,1159,-319,1047,1332,190,-240,1550,823,1583,549,437,20,466,-742,-1180,162,-1661,-662,145,121,338,126,1362,913,630,-1211,984,670,881,-1135,784,1063,448,1777,307,-409,306,138,-907,501,-302,283,-1843,1521,249,49,-1138,-569,-1089,-273,413,713,347,-1096,-516,130,320,-209,-1862,-329,31,1116,333,379,939,540,-252,-400,1153,1436,1164,-289,-413,1099,600,19,-558,429,-117,39,1278,323,388,820,1142,737,-19,-59,850,-776,834,1253,-12,-331,1070,-344,-546,562,-116,-210,-405,273,-410,550,-810,1036,-72,737,-92,503,-191,46,56,-796,-959,347,143,-478,-839,121,1064,-322,-1333,-1277,-1016,1015,-250,751,226,-603,40,-168,484,1183,120,-595,-266,1139,1613,-1126,-53,84,-963,465,70,-291,169,-1575,232,-475,-1059,-1126,-603,230,-1450,1462,435,-656,-972,-1820,-1654,-1248,-150,205,436,333,-1125,-1606,187,-552,451,-347,679,-523,-594,204,947,387,-946,1269,74,22,719,-518,261,403,279,304,3,-1570,760,-9,-284,1265,-793,-231,-194,-153,1207,-322,466,1781,16,902,993,-156,-1392,981,429,-1274,-706,869,232,-1542,-556,1390,-342,695,-845,426,834,178,-644,1362,-66,170,-475,-103,-371,-550,-264,-475,-1146,-1164,598,-18,-256,-1445,-1603,294,-2079,-728,-1196,379,-1426,-1126,-1053,-43,174,194,-860,-1150,452,-231,436,-881,-872,190,1102,-905,-808,-743,1039,-433,841,-439,531,693,402,-82,349,467,-368,153,1590,493,1260,-517,-17,-476,-288,-138,881,546,686,360,1205,-1475,953,-215,922,-720,-238,34,-118,-685,-1035,437,367,965,241,843,-314,360,377,-121,855,391,155,-717,-621,-715,1344,-919,138,87,538,851,-963,-640,848,-1514,1349,2049,196,577,270,-457,-123,-458,24,-894,379,1064,-949,-451,-993,-304,-797,931,-382,344,-522,-375,1015,-579,1425,90,1005,-160,1205,-33,830,321,967,539,693,50,544,-112,-693,783,2,-816,-488,-791,-863,-2064,164,-189,-1626,1606,-1652,-595,-78,-102,631,-2373,-681,-296,104,-483,192,59,-363,-598,492,3,-880,-221,640,616,395,628,710,165,-368,857,491,-328,-427,11,-563,-86,-838,518,-334,396,667,-407,-1440,1094,409,1886,-1292,35,906,629,1747,380,138,-205,257,-1627,172,165,-1022,615,-186,69,458,-388,-1526,-1145,-1443,-961,-1090,-390,-162,45,1056,-339,-272,514,52,487,939,-25,1004,-266,1107,248,-165,1244,143,1066,-720,516,-240,-1609,-525,279,310,1101,50,-88,406,737,247,-520,550,51,601,-1468,-534,-285,227,428,-231,-860,-98,-117,283,-780,734,-1327,-579,-1054,349,613,-267,-322,-1114,-5,2432,-1280,-294,986,97,4,-463,-291,-827,-1069,78,-900,-481,311,-609,413,186,737,-737,-643,-1124,-783,-899,597,-787,-88,-186,198,-1106,-229,-184,-389,365,10,306,-943,-925,-608,-961,658,167,-626,-1037,-929,535,678,-212,-734,-782,-196,-933,829,-246,312,-239,570,-2068,-936,-569,-531,252,-1961,-1439,-856,-59,-355,12,409,-83,123,-1006,-683,842,755,237,-1219,-117,423,-360,159,-766,932,-435,-569,419,1615,1484,777,212,-116,137,-697,-111,1551,1350,1096,865,1035,-182,-541,-1009,-975,-630,-489,-1134,-603,77,91,87,-909,-72,446,244,-643,22,43,513,-296,36,-789,-285,526,1221,343,1274,119,43,919,377,-526,-818,-576,1235,-251,-888,-484,-324,-501,-304,-619,-1823,937,-147,406,-160,1320,-570,-18,-532,383,-153,-665,-631,1507,1689,436,-438,499,-608,85,-768,-1284,-629,-89,-44,162,-50,657,338,57,-1553,-1249,114,881,-656,-517,-1027,-169,1139,-114,-533,704,-688,721,617,627,203,605,562,-211,441,495,-208,1009,-1076,-158,1240,356,915,491,62,-401,120,-592,-701,793,-387,-579,994,-829,-222,585,321,1133,407,560,627,1064,700,402,-654,-677,-59,-27,-132,-203,1499,-131,126,-727,-853,-211,1443,-1885,165,-581,207,-22,-1232,130,76,-238,59,-452,-303,-1151,-11,375,643,144,275,169,-304,1025,-1237,1179,-249,1866,-1503,260,-419,-412,526,2330,-809,-483,-25,-312,846,-2015,175,412,1561,1580,814,-774,-829,-212,450,-321,-719,-1323,359,897,436,1107,-866,359,-795,750,708,119,245,-127,162,-276,-68,139,-77,-410,300,558,-484,-46,-333,-648,-1297,-810,-233,-514,-500,-324,-352,328,74,597,-1832,-894,432,790,-627,-112,-169,-218,-411,-1028,446,105,371,-15,180,122,1204,-680,-1717,-65,892,59,322,-774,556,-1411,351,-1161,1119,1270,456,-454,728,1682,17,-470,-687,754,-212,-1187,316,1038,1008,-905,-58,-795,-805,-562,-229,1241,-589,-426,-1107,-1709,964,-886,304,-606,-215,-811,-709,573,109,-247,1246,931,-182,671,258,379,955,-868,627,656,994,1266,209,222,804,619,347,1119,390,-1,86,-775,829,-17,-117,-956,-657,1054,-1057,-403,124,-90,32,1274,1352,1462,1267,-553,-200,482,-546,488,-193,-91,26,684,340,-308,164,764,-1110,-162,717,-780,1086,318,-1689,-578,-643,-999,60,249,-164,1502,697,-1065,-782,464,1185,135,-450,737,-155,-697,1181,424,-259,-496,-50,943,-21,-160,-337,886,713,-759,1034,146,20,-474,166,-262,-544,324,-241,-54,636,-164,-11,782,-87,-574,-470,20,1039,-482,90,425,1545,-748,1018,212,-343,99,-296,162,175,-399,-248,-871,34,-623,-361,-224,800,-19,-119,1317,-1968,-340,391,185,-639,971,-1163,-462,127,-681,-132,691,278,489,657,629,-890,-744,130,-671,601,13,1016,30,-537,1070,-832,-49,-715,-1144,793,380,392,-219,703,556,421,-1068,636,1118,-87,-229,604,253,-1100,-871,-1453,-279,-745,460,-33,-346,173,-468,-341,-897,-908,-987,-599,-358,939,-678,-193,-560,1215,204,1420,-1827,482,542,-110,1309,-741,831,662,-1159,502,111,1937,743,-145,-572,-390,138,167,-213,1939,570,428,173,1828,645,-565,384,-927,-318,806,321,-704,-431,216,766,178,-102,860,-967,-14,700,294,-313,-874,705,221,-638,44,-311,225,969,865,-72,1346,-23,-785,701,-1806,-2116,-314,-1912,-1179,21,-719,-661,470,-1053,570,-812,-1357,-786,113,-371,-223,-335,-446,168,-1142,-270,650,744,1301,124,721,986,835,-448,-229,171,-1474,-171,-226,-1223,877,299,-410,-653,770,378,131,-214,-262,931,1066,-1286,-380,-288,906,-545,-1465,372,-341,44,-240,-354,89,981,930,-80,494,-1601,-663,233,-536,-690,104,-493,959,-284,1650,898,303,1448,-944,-713,627,1480,243,-220,-213,582,1626,-188,57,1325,1800,1134,869,1643,939,440,-298,906,170,-416,1174,961,131,-33,212,-696,399,-121,573,429,-201,28,-173,129,-172,-928,547,-22,232,-727,476,125,37,943,190,25,-1910,-2843,471,-506,277,216,388,-462,-1124,968,-759,-472,1081,427,-500,-485,-221,-1166,260,1261,747,402,172,-822,290,1511,391,-280,-997,-1831,-1903,-1688,-276,-214,12,462,-1250,-1107,-97,-1075,-1760,321,-457,-1626,-321,800,1052,-464,703,10,-217,-655,-659,-594,1543,-827,1079,970,-864,1008,722,1204,1137,712,-1052,-1153,-386,-338,667,107,359,-1389,-273,-913,-675,461,-1163,-629,-421,-727,288,-1486,-567,-716,-1114,-207,93,234,-1311,562,-965,154,1287,662,-630,-119,-1539,404,-743,123,-196,-798,-49,-645,-965,-730,-665,-444,-1369,345,-853,-1232,164,614,331,791,-1111,1602,670,-733,1772,-220,-159,-590,-485,127,-814,-161,507,249,309,-220,1433,715,-969,-911,785,-628,161,-926,-312,-909,627,-464,-130,-1246,-652,465,108,713,1406,558,225,486,-276,512,-612,-739,-1053,-855,-300,947,-127,-570,878,1116,190,1051,-399,-43,47,522,-1668,-828,1412,-919,927,755,856,489,-96,-29,-621,-544,1356,22,23,-164,47,454,798,-1109,1275,405,-885,132,-850,391,376,-892,434,193,1237,-147,159,173,-1160,-366,208,-913,511,781,132,169,10,594,-724,-253,-999,427,166,704,-819,-916,-988,-1022,351,436,-18,789,1448,42,1004,2266,2134,1701,529,533,855,-76,-562,-1365,-284,-1068,-978,211,-292,346,-1152,126,-931,254,551,570,704,348,67,-1428,-586,283,-356,1137,17,-116,1097,124,101,93,-138,-192,567,673,965,121,-671,-1667,671,-395,-361,-736,446,715,111,-176,-294,-29,287,-823,1448,720,-573,1387,-28,-117,-1587,207,-633,-75,-494,-269,358,59,595,320,434,722,539,91,264,-79,255,1655,700,1316,-405,615,296,229,-763,-391,518,186,-840,-284,-923,15,722,-577,-67,-871,1129,431,667,-939,-905,-333,1,302,-778,982,-659,608,-315,-270,-255,-589,-1718,279,312,-286,-591,884,-1165,407,-31,174,907,-88,-264,-581,-1089,-1855,-511,1180,-1356,-743,-626,65,-236,-465,232,-68,883,-372,149,213,-278,-1094,-33,-776,-451,-1834,-1257,-196,-804,-1404,306,-792,281,-760,611,1319,71,-1157,-60,1273,-293,1180,-252,766,29,981,453,-713,151,-195,782,331,261,762,-697,-1148,-170,-891,-76,-456,109,132,236,63,-68,-661,-282,-85,804,367,-620,-209,375,-359,-98,-128,-630,663,1571,-893,-354,-215,1009,701,307,2730,681,-595,253,622,-171,-630,301,-326,972,-1727,187,445,162,-103,-99,-310,-552,364,1442,1411,111,-1232,-1278,-15,310,82,-1059,1392,-35,-828,-422,-55,-15,688,408,-51,16,-165,-624,517,-218,334,1290,59,-742,104,640,296,-198,670,-347,-643,333,-377,-899,421,957,986,839,680,-577,383,-475,-1024,-431,-1085,-830,-1389,140,-828,-168,-768,648,-1215,-365,1003,1524,-178,-725,1220,790,-1005,-276,-1010,115,-185,1252,2466,324,155,-419,729,1004,463,1812,-88,-348,939,322,1076,-816,-226,-187,-421,-1960,342,435,-1434,-448,-58,-772,-48,172,-1068,-1646,279,727,448,751,77,-308,217,485,107,735,-982,-683,2522,1055,245,164,-615,16,-83,887,1273,58,151,921,-383,617,1003,1023,933,583,-183,246,662,-434,-123,1131,-752,1047,591,640,440,-583,-794,610,-489,-333,672,-977,40,-469,560,480,-737,-283,412,-183,-645,53,1353,-631,-305,438,-766,-484,492,1111,488,-262,927,229,248,-925,317,-141,170,-803,-592,329,383,-45,338,478,-886,-19,734,482,1405,969,-583,-231,-1278,-43,938,1104,715,930,-521,634,50,381,-199,-369,271,-1671,-1132,-878,-504,-213,-50,345,-378,-669,859,-302,663,924,-160,-1074,334,-258,-638,1092,-139,932,578,-340,-444,559,413,402,-987,-741,-1529,-815,547,8,138,648,-564,-396,-5,962,1357,-669,2038,105,456,161,-863,-777,242,815,-822,747,753,30,645,512,-190,-602,1143,-188,-188,-96,290,669,-493,202,-575,-2352,245,2453,-144,-641,141,-255,-1698,150,-155,-1477,-430,238,-1462,1200,-354,89,1051,-4,-578,-511,70,-604,-1085,813,392,-448,-131,316,-1435,-667,1262,-1141,181,-1609,-467,666,-1395,21,479,-302,236,-807,-1007,-977,636,-713,-1392,-886,460,-517,-581,-412,-474,929,781,1463,1959,46,1543,2711,5,120,-280,-403,-565,-786,-1092,1040,201,143,-871,749,-297,-308,-290,1023,-328,472,-153,523,-2484,-1476,601,-310,-481,-212,604,-677,-948,-265,-455,-1193,1325,705,-1368,-164,-440,-498,-383,-833,504,-1327,-211,-706,617,708,-1561,328,-143,-769,-533,-231,-541,-544,-125,860,260,-790,-38,317,-870,1029,-471,-288,1014,-782,-532,-143,-228,1238,-977,-483,-1163,-514,-47,-316,-805,-7,-807,830,-667,-150,644,-393,388,746,311,1265,630,543,308,-1151,-389,2465,2261,-434,273,-253,-71,993,1126,2570,-423,259,1195,208,-659,1100,491,-1191,-673,1037,-715,-1122,-134,-1766,-665,-186,1408,359,-190,-446,260,948,-286,-1171,24,-291,938,428,-697,-1081,59,-385,-699,-816,1046,1037,835,-254,-1193,-280,-1129,-1246,-818,502,-1085,323,-115,34,-46,735,-1077,116,-170,605,-551,-674,-1147,-1137,-712,192,-247,65,774,-784,349,606,956,73,131,248,299,-232,311,127,-1389,310,-281,431,206,717,649,-646,546,-345,-237,-89,-122,1439,263,506,-882,-471,478,576,119,-979,295,-1308,727,357,-385,368,-868,894,-188,-424,-195,994,759,224,-1314,720,56,199,-19,-125,460,60,-1064,-1527,-1131,-1355,1736,-473,738,391,-226,-22,454,73,345,793,300,394,-621,375,-246,-186,-815,468,855,1102,890,-1021,-874,103,1371,-656,377,1150,-754,-288,29,-666,-961,572,-465,228,-393,-284,-1006,-338,749,-196,-591,232,-349,1074,524,434,-10,278,-737,882,-368,-1948,-980,212,-868,-844,1070,28,-417,-964,-361,-1054,890,580,-822,262,-26,-1357,285,-863,-423,1203,-1573,404,877,-475,-1522,371,-421,584,-1696,-314,210,-868,699,131,632,-350,16,-381,-49,-11,389,-435,921,651,1223,1251,717,145,174,1308,1831,1051,924,-529,-819,-843,2,387,-1298,-762,-201,1859,-265,-1200,1023,-161,-517,-26,-1653,-1453,-293,-236,-1881,-2839,482,1487,-2280,9,-533,974,132,388,-324,-825,516,-157,-59,-461,176,-853,-360,-433,1264,40,-62,1036,666,392,320,715,490,504,2,1519,-714,776,498,-1330,766,948,-1678,831,131,-34,-87,-488,377,425,-620,-553,-365,1094,656,747,1172,-1179,-150,-1316,-1057,-655,-840,-1045,-233,-763,-469,-286,-389,-927,648,-1101,-1181,-572,-573,-246,121,547,-286,-288,177,-474,-271,646,-236,302,853,480,233,1235,668,1372,319,-147,1047,-1154,-1548,458,674,2027,109,-438,-309,-193,667,1138,-821,1148,-278,-144,-833,-757,607,1203,829,468,673,-90,-1075,198,673,-1481,-261,217,1202,952,-723,-528,917,-483,648,1641,243,85,-435,1065,-31,1262,-1385,-995,554,205,498,314,-859,-1340,853,-1670,-818,-784,-805,-242,798,-468,-211,464,-921,-192,481,689,-623,607,1165,1287,-778,107,-342,1247,-114,-980,-461,960,547,-494,327,-619,670,852,1237,-938,20,-1301,1465,-860,-725,277,141,1011,-16,797,779,-707,1117,95,571,-163,-587,-152,20,836,-764,657,-860,1044,-164,-411,275,-644,-690,264,1228,-879,147,249,1209,-845,1019,2477,-112,200,480,-869,183,250,-54,1015,184,-553,64,-107};
const static uint32_t LSTM_01_weights_cell_dims[4] = {1,1,48,88};
const static ConstTensor_t LSTM_01_weights_cell = {&LSTM_01_weights_cell_x[0],&LSTM_01_weights_cell_dims[0],0};

const static Weight_t LSTM_01_biases_cell_x[48] = {298,371,-3815,1802,947,-48,652,-1141,-3804,2667,-3872,1811,671,-812,1723,-1781,-784,-1323,-694,2698,2082,2175,543,-2049,193,2056,2219,2344,1758,2140,-886,2851,-1481,889,2972,756,-138,-1366,1200,2829,-732,-1725,730,2153,-1048,1837,-731,3811};
const static uint32_t LSTM_01_biases_cell_dims[4] = {1,1,1,48};
const static ConstTensor_t LSTM_01_biases_cell = {&LSTM_01_biases_cell_x[0],&LSTM_01_biases_cell_dims[0],1};

const static Weight_t __attribute__((section(".weights"))) LSTM_01_weights_forget_gate_x[4224] = {-949,-251,453,-1456,-413,-742,225,-999,449,62,731,-228,-739,-290,-330,-810,-849,-51,-43,888,-257,333,620,-20,-1185,442,47,297,-588,-775,1027,-147,-814,-889,-644,46,-486,696,-509,-814,-1422,-42,-362,621,67,162,725,452,-46,280,557,-327,435,1020,-719,96,-56,556,1135,941,314,642,305,-1113,294,-401,36,-31,721,1755,166,1195,-328,931,-797,-1232,40,459,731,1391,-693,1274,1514,-322,293,-1127,340,106,212,895,-227,938,-683,260,-23,1195,304,1321,1308,555,148,874,693,-191,225,945,-899,350,-213,704,-925,635,391,-1318,-1191,466,183,210,-553,-383,52,-61,404,-500,-588,715,-912,-1357,220,-107,-95,238,-442,-368,1189,-1248,-103,161,-552,-1045,-153,-1902,187,-1280,-488,925,-1020,1542,-908,71,-933,459,-19,-365,51,995,-371,689,-299,519,165,1077,142,-271,-201,204,-419,1000,-445,-175,-1581,-215,257,575,-1465,15,-575,1072,176,-818,-187,-688,-488,1007,-544,-910,-783,-480,-224,-853,102,-18,998,229,-97,1004,-26,473,558,-283,-967,417,263,698,-26,674,949,267,390,512,-1052,23,506,-89,-198,-243,-302,-145,614,1094,-276,696,332,-337,-753,-88,469,-368,-904,-371,438,800,641,227,-466,-1019,-88,926,-406,1469,-816,-300,300,-1513,-574,646,99,193,-62,487,1295,-677,-787,391,24,678,450,-594,-79,673,781,-1483,-112,57,-350,-344,345,-395,929,-888,-958,16,-45,182,935,-748,-698,679,-382,899,903,-428,287,343,62,-681,452,739,42,831,685,142,565,253,-870,-15,988,-647,312,-294,-693,591,58,-875,-123,-449,539,323,1996,-895,-65,88,-445,-200,-369,919,-575,168,-295,-594,-800,497,391,321,-524,681,-87,101,-264,303,-1293,809,190,-246,512,403,-912,-35,331,-1126,524,941,-825,-1052,-480,-574,668,-826,-625,236,645,1388,724,523,-314,935,1045,-618,309,-793,837,-612,827,-291,-370,486,467,254,-522,-650,-85,386,-88,375,960,-94,385,729,-105,-763,499,822,-210,-811,775,782,417,-777,-133,-75,1021,-590,-509,237,-56,-60,941,-234,838,-1257,-316,-1387,-469,47,-410,-826,925,260,345,-574,50,479,-353,-746,1050,-190,737,-930,740,-858,-633,1534,-1599,606,-1062,260,376,481,-531,-573,326,-483,-1017,494,1356,218,-1118,2325,-3,644,-117,-922,259,389,15,-626,611,1208,-641,912,-1148,-1486,483,1339,352,310,282,809,459,-963,885,1101,-867,1230,258,300,425,626,273,-139,-875,-30,1082,-408,562,-128,-77,1144,75,-96,-434,-410,-976,401,527,-389,1141,-427,302,978,-2,-321,1294,136,-339,-943,-727,1129,-394,-1078,582,-272,320,-487,896,308,-40,-28,-1092,505,472,-509,-1319,-777,116,432,505,-1104,153,735,-885,-762,390,-236,-477,196,706,1114,-30,55,-1007,-1417,-1463,1154,-28,-449,517,189,938,-407,-696,721,660,491,-706,-975,-172,-490,-701,-672,207,413,-672,-1128,326,943,-506,260,238,91,-15,406,609,-246,393,454,505,616,226,194,2139,1283,-223,-625,-1752,764,1169,410,-1488,-336,1196,-1092,956,1841,1166,1060,-467,182,657,-1049,263,-200,-713,599,513,-555,-688,895,455,-485,-197,97,-603,95,-29,-678,130,-1380,-1086,107,-839,282,885,-108,-839,-251,-738,903,901,-233,-495,371,-313,1084,-228,463,-522,269,873,394,755,918,421,249,579,248,-190,1173,1076,570,510,-726,-649,636,536,-668,538,413,-396,348,-1085,500,-39,576,-65,-290,-1290,-100,1108,634,-535,-104,-644,172,-541,698,402,12,162,-409,1448,-690,-712,1607,200,-857,-566,-119,770,-341,-95,1160,-140,549,-973,-944,-813,-170,-138,1116,762,-115,-1289,88,-138,-377,243,63,-617,-260,255,861,18,-982,-564,987,-783,-311,885,-321,-489,-163,111,579,-652,-777,-131,248,-508,356,-28,556,250,-778,372,-162,-972,-990,-27,1027,620,764,498,-167,241,-128,1161,707,23,-672,283,220,-609,-945,-305,460,-226,690,-457,-225,-173,-1274,797,474,-1261,659,-79,1252,-476,118,-82,-704,64,175,-200,25,796,640,1324,-87,-615,28,414,51,-1065,-1349,593,897,703,-908,519,-687,-947,-216,-449,466,-189,-163,772,-712,-576,54,-355,267,-113,-956,-955,738,-109,176,-1041,-805,-703,-877,-401,-1121,-593,302,-18,-807,-902,-272,291,1014,-155,-842,903,-611,-850,-699,-378,646,497,-145,-502,668,-129,800,288,588,-430,104,204,998,891,66,-639,-64,-196,-68,-97,-38,-200,-325,-154,799,-257,387,-738,358,-69,-1029,-326,478,213,132,18,-1083,1227,1349,-155,1601,66,-1075,-231,-128,50,335,311,765,414,481,1489,142,-17,-911,-6,768,-178,-391,301,1242,904,-459,-614,474,448,-141,-282,-614,980,-937,868,432,860,349,-699,295,-759,966,-612,212,542,324,-458,-242,-436,608,-579,800,-554,-81,-115,820,-30,661,835,-6,-352,-377,498,632,-641,-498,356,527,-193,386,-400,-321,241,150,19,-896,-1117,452,-235,-97,324,-830,-737,349,-1167,-153,634,-636,-829,458,106,103,526,90,-1006,515,1249,813,-51,-854,294,-408,-791,296,165,465,75,801,1635,-1581,751,1006,-213,988,-165,402,-1057,-729,644,-905,1140,953,33,-141,-1014,-149,187,236,1089,607,-375,-193,502,-589,-973,111,1111,433,1117,-516,-622,519,320,163,-146,-522,624,1302,991,1015,289,-627,304,420,-7,-674,-159,577,-843,-10,654,-850,384,-100,534,-115,-350,-302,-401,-22,-1641,-1146,550,-443,157,-971,665,-547,-388,288,-83,625,661,-909,-57,-858,371,83,-725,315,147,-289,-555,992,1270,63,1027,-343,-813,718,-813,933,640,-527,1001,914,-10,-238,782,-877,-727,-1033,-8,-707,-778,-699,-11,63,1242,-365,635,-230,509,2,-645,-322,1093,716,-693,-452,130,-183,-349,-439,-360,220,-886,-263,-823,343,-165,-42,389,912,649,-666,-1017,316,-1151,-532,165,-538,-868,713,-572,-1440,-1083,594,481,110,1119,-910,-1258,1085,812,-331,198,572,167,-403,-342,-890,1558,-950,5,-696,-274,-246,160,692,-42,-318,-146,16,-263,227,-657,213,-90,650,-853,836,669,-146,149,-995,-829,771,-581,376,-550,-713,-783,-515,129,17,-1098,-1078,-55,918,-1205,-1283,-519,404,-78,883,-617,307,-173,-110,659,982,120,-736,-993,-65,-104,-148,-472,479,187,1150,740,96,887,-565,1198,120,-1450,1179,714,-414,-580,446,889,778,161,-781,911,-928,557,-401,-295,719,-1048,-462,1579,-376,182,-774,1008,-540,-141,1135,-274,962,-269,-305,-414,1221,-1157,-385,820,304,-179,-100,206,-500,955,84,-155,-884,-1180,0,397,82,560,818,544,-801,745,-153,-599,911,-127,759,-289,149,-469,-934,709,-934,-122,-1073,36,900,734,-262,666,770,-724,1006,-1067,-107,-132,-929,952,214,325,435,311,-1585,-1015,-221,-1091,-856,-354,-1232,1453,-444,799,680,620,-422,-346,-860,-6,682,269,-224,1386,146,533,-635,1614,-846,753,-209,112,381,-528,-557,-825,768,-532,-306,-510,-857,986,-793,-1577,-896,-781,929,195,-189,-640,-1113,-300,-126,-60,-696,915,-767,-489,496,-644,1161,1064,619,-785,-60,-59,589,-604,1066,-386,-400,986,357,270,592,1047,997,695,716,-768,-761,664,-916,-862,-863,-553,228,289,-869,22,-2546,382,49,-1033,611,971,1262,-537,336,-446,685,540,567,20,794,7,-806,175,-869,428,-654,1010,-250,-900,-272,185,-518,347,-189,1015,-797,-301,-389,162,175,955,-776,-882,-661,-835,-1692,174,-346,-38,-4,330,-822,726,-507,480,-414,-309,-920,261,759,735,1,-91,-480,-232,1042,450,-383,-156,197,301,-310,-933,-74,98,794,-549,224,-861,-245,136,754,35,734,-368,657,-366,-689,340,177,-614,-99,235,-615,468,-432,1413,89,-400,189,-953,-763,248,-466,639,-420,-79,-1073,-70,222,700,-1218,-455,-10,-39,-1571,1296,-166,-101,-497,-1258,640,373,-459,-316,1653,105,264,-13,-716,-1092,-533,793,1548,-227,-486,224,-330,-654,226,-140,63,-759,-688,496,405,-666,-125,-795,-1005,-596,290,-1439,-956,407,171,239,346,685,924,650,1049,1307,458,-708,209,209,-955,-616,179,241,-346,-1087,-113,122,60,-751,-333,-509,-190,543,25,-889,-820,-69,-607,-32,407,35,-695,-36,608,907,243,-599,43,-224,-448,-197,-734,-1461,-261,-1644,1142,332,-138,-671,-560,-599,-1492,-225,-2039,-418,-221,367,1073,271,-870,812,81,-846,856,-312,-125,46,-772,527,807,476,209,-300,-1080,-348,-812,675,-937,507,-647,906,-759,487,-1100,133,-990,-588,1092,-257,357,-649,989,-886,-1103,60,951,-603,-283,234,97,-337,-83,-307,-256,-1299,-926,4,-871,-127,-1,-444,211,442,-991,-415,-416,1098,686,-641,-210,-506,801,-1883,844,830,-408,516,498,-306,-897,-189,-29,406,-1252,585,990,-1215,-836,916,-489,-630,-879,-1893,315,-1798,-305,-636,-822,-1714,615,-649,-511,936,37,-1078,-407,983,258,-337,686,-249,-548,873,845,-549,-1038,473,-746,-803,574,948,-306,371,881,927,397,643,840,-419,-681,582,-1081,955,745,912,621,-842,55,-295,-737,-181,18,-171,-205,-1862,488,250,-943,937,881,-57,884,-41,339,-877,731,-511,-1299,486,477,-245,478,475,105,322,-488,172,372,-63,429,-564,-1023,-18,854,-316,49,1106,114,-519,357,598,23,-67,500,448,-1086,-922,-261,-275,477,-796,-765,-18,-439,-676,254,-635,938,-231,-390,41,-485,400,738,1281,1213,946,766,-373,739,686,852,-797,-323,-660,-334,-577,462,-578,844,384,-1245,524,352,-919,90,-1285,778,-1359,356,364,-1206,-149,345,-817,-549,-214,234,-570,100,-586,340,-307,-587,-656,-1505,-103,33,431,1017,-603,-783,21,-1102,864,-461,846,-700,-3,668,690,315,-152,123,343,1206,78,-354,-380,305,-630,-726,922,-579,-290,-301,123,-580,-764,1561,29,914,1815,1162,990,1766,1548,683,1287,1137,991,-573,161,1067,618,-531,461,-117,-107,465,84,627,1350,1105,79,-562,673,689,689,1045,302,-966,218,524,427,550,572,605,-1172,46,1,-692,-983,-171,-109,-795,-215,-1154,1075,1534,-498,268,-1355,-1238,-58,-777,37,167,707,947,-23,1191,309,-164,-600,488,-216,769,-96,1267,835,268,1091,-1262,154,-388,-846,61,-197,76,728,195,-245,401,-495,201,1940,-156,558,-872,547,-1296,-395,323,-744,241,-106,-342,-625,-163,744,235,68,73,362,994,-438,-66,46,-536,764,354,449,74,469,603,492,-818,-213,564,-21,259,-616,-245,536,826,838,-772,42,809,-199,488,605,326,125,-360,1001,58,88,908,179,-669,365,807,-602,-145,-793,-93,-1486,873,-539,-978,899,555,1781,58,1206,-303,-416,-119,1387,-760,548,-596,-112,5,739,455,-221,-629,425,286,-192,318,649,596,561,-722,70,116,-656,-803,960,-975,-706,799,-838,107,-295,309,669,-108,298,-911,-1159,-9,-483,138,752,-785,-454,-1155,-697,885,-217,-547,193,291,805,-1014,-820,-537,515,1053,-1216,-454,379,-937,-9,-159,-1236,985,458,574,-384,688,-1745,774,1525,892,1232,214,336,1312,-1152,1012,-927,-358,-1077,1825,57,-765,615,-1217,480,797,935,-1,-153,54,715,-615,-799,-336,-1168,98,1406,-154,-399,-319,-539,-1549,-1028,-709,-411,818,825,342,533,-533,51,-131,-3,1169,851,895,-153,-672,850,1123,239,991,135,-227,821,567,-671,424,747,-305,876,165,-1104,-340,-220,665,-211,960,920,347,-616,564,777,823,697,-491,356,292,-373,1045,1046,-614,542,-2287,-732,471,532,-898,-300,78,-625,431,-1034,323,-705,-909,531,43,376,-10,-600,-144,-953,-341,-633,167,566,139,-764,127,589,1533,364,350,592,1056,-773,-443,311,-774,1106,-255,-1207,-1197,422,944,-788,237,-531,622,828,188,-806,149,-527,27,-733,416,879,-574,-1018,2,-560,-153,183,177,948,1224,733,1140,-395,360,851,1092,1061,922,-775,1069,209,-238,573,1239,-1263,1837,758,730,-438,93,-2019,-763,-261,-353,-294,-630,2067,-926,-969,-907,785,-674,-69,324,728,344,812,-382,-502,-988,-368,-1331,905,31,614,-856,71,-28,-123,-495,715,-92,-188,-216,137,61,-403,1052,-1770,625,464,578,-1139,-791,-463,-120,582,-920,583,-409,-120,-200,107,294,-463,-1035,598,-1104,532,689,662,869,1133,-66,177,1073,764,127,-997,-300,616,1133,550,102,-894,-1062,345,-160,317,-1136,-703,104,1298,-1263,415,-859,1600,-528,1534,-538,-223,-155,60,-122,457,1242,180,324,-473,809,1301,-48,366,1158,407,434,-569,696,-627,296,314,142,347,706,138,1347,570,-1209,386,-594,514,842,1276,-1017,-540,1056,73,257,610,1093,661,666,2062,1177,1686,-572,-249,1012,369,760,1143,139,1498,379,269,-134,862,743,-279,187,76,1018,993,-24,1595,-561,1113,418,-390,-264,201,696,634,194,-489,-711,591,682,1348,923,166,-880,-256,-392,396,-448,-799,161,142,273,717,1187,18,-1335,-766,-305,-1441,-676,278,645,-1013,-614,-709,1206,-1137,-739,-228,-585,714,-69,118,-654,1108,-226,1159,1114,-828,563,-922,1010,-82,941,-532,28,573,535,-1078,483,78,712,410,-279,324,-323,-500,-1161,-389,-606,969,-164,407,-81,409,-1496,-851,669,-98,-345,179,-243,-330,-106,1352,-374,1159,-727,1269,-703,-15,1342,459,915,1022,247,200,-192,679,818,407,55,-1398,49,462,733,-687,-955,-266,-537,-186,667,-757,744,-159,-241,-964,-68,-1044,406,-74,-719,-82,-1403,-854,-901,979,-729,7,299,-53,230,-367,1233,-747,763,-18,-1642,1107,-398,638,-344,1561,590,772,193,-307,603,20,-331,711,-950,-527,-172,451,1052,835,478,1261,-370,37,-654,256,-247,-226,-826,-852,913,101,273,724,-3,-1011,151,-540,301,488,714,-1138,-1137,837,-507,685,-470,494,879,-233,1030,411,-1071,-735,80,1088,301,-966,-203,-454,862,-501,843,918,-452,787,-5,302,-352,-1271,528,-573,674,1294,-431,604,-225,435,-317,191,455,81,-707,-958,998,-726,672,-784,113,-1175,1166,369,470,-720,83,-267,-984,-1372,-626,-304,-662,-490,-1020,85,-420,135,-297,-153,810,-468,-1044,994,582,120,-460,561,752,-1266,-814,-520,122,375,733,496,-379,-540,-792,447,1095,-455,-147,731,-235,-375,439,-269,-550,447,-564,-351,-1164,-434,1001,-338,98,206,-335,-993,-341,-571,884,-667,391,-351,774,-46,625,-108,-322,847,495,149,-1156,627,-54,381,-121,544,-586,-273,-103,-683,-700,-116,474,1226,868,1009,-845,258,837,98,2125,-187,-186,-1048,-587,1580,936,987,-50,-948,-27,-316,-291,1196,764,1363,228,82,1090,-473,1478,522,543,-917,-1009,-395,-209,70,832,-653,-190,-357,1224,-165,780,217,-648,-250,1066,525,135,211,556,-511,1156,-578,-249,713,731,179,590,1086,393,332,1109,-69,-525,-1332,301,-926,-27,175,466,-1647,322,-630,194,245,447,-617,95,1203,37,199,-936,167,-505,810,776,-471,-153,193,355,-592,87,-442,-565,85,390,-1165,-188,1158,237,-610,1513,-79,1086,102,-528,-107,36,654,-400,-602,-796,-435,265,923,538,-79,957,369,1250,346,467,-216,-690,1330,822,486,460,1383,1291,-194,208,-422,561,566,1019,555,349,783,60,-472,824,-1087,-332,1976,241,538,-162,559,-118,-184,-1044,-246,-481,295,-1264,-1068,221,-274,-97,-366,124,-240,-560,462,72,-836,241,-283,84,-894,95,710,-814,24,50,-358,154,-637,-324,464,-9,-763,587,-200,-1733,-256,-253,363,166,-198,888,202,52,-735,-212,424,179,-400,370,-122,712,-958,279,-776,1010,-584,1093,568,763,908,-448,-750,-615,1108,-785,-332,-395,868,-8,922,-918,728,-140,223,-84,-544,-823,-363,-911,14,-596,500,134,-1183,-438,472,627,1386,-376,-10,-1223,611,13,-356,378,-110,495,1031,953,-203,287,72,-480,235,29,-115,-1469,-1435,-580,-88,167,563,-1080,973,66,-322,54,599,650,-79,-378,374,-66,610,-166,-841,203,1134,834,-472,656,430,-100,1053,-983,248,939,193,-542,1063,612,-90,-842,-413,-222,1113,596,1067,-739,661,485,351,522,-199,1264,1391,1333,276,1257,-368,617,352,1386,-110,116,-723,257,-632,-918,317,-621,-887,5,138,437,-2106,-213,-698,490,876,952,-561,-753,-86,15,210,425,497,-33,270,-85,1115,276,-653,-962,947,1144,-405,88,-113,-1160,-1942,799,358,420,222,-776,-636,375,152,846,-485,-95,-930,-774,-763,148,-985,575,-526,806,-553,-215,-334,-83,1121,866,562,-770,-349,640,-1083,-953,4,-962,-644,-779,778,-161,657,22,770,828,77,674,-208,-370,949,-286,93,-643,1139,-648,1659,243,1230,-167,-743,379,261,-287,-303,-663,993,1476,-1123,-1575,-341,-1052,-1467,-240,-217,496,800,445,408,-872,1078,961,-283,-762,-362,256,1375,-241,-240,-626,138,-1677,-499,306,274,982,659,708,845,833,-844,49,75,-287,871,719,-33,-774,-948,885,-700,713,811,1233,642,-451,58,-579,-667,498,517,1116,-23,817,-280,1434,1003,166,70,-303,1102,-370,108,648,428,-428,1112,459,-359,350,-264,-425,132,147,-1607,-1437,1297,-501,491,-593,-859,-1120,895,-892,375,678,-1293,241,-23,-504,-193,-488,-285,-1037,1147,150,-474,-1030,250,-454,1046,824,-138,373,293,1141,337,-273,1775,-412,-321,-780,-979,904,1296,-967,-563,134,-498,-686,-593,-54,1234,117,-1127,-1313,-615,162,-168,705,-224,147,354,1121,1232,-488,-788,-724,-797,592,1306,1330,-490,160,559,275,-872,303,151,-79,-463,1278,5,-383,590,781,168,-620,-638,549,-996,-422,-1538,656,598,-238,500,-606,1752,-1411,-854,1070,-1227,1544,-110,866,1806,-715,-442,-488,-376,490,359,247,238,187,-803,-1029,591,403,1396,305,417,-65,-99,270,333,-458,-36,174,393,695,428,-517,273,762,-432,-613,1158,-305,418,-486,1066,587,211,924,-410,-583,-154,267,-679,-443,828,-227,807,40,432,-646,-598,563,-984,755,-24,617,24,1035,-282,376,159,9,-807,-68,-929,-652,-263,-215,-713,-682,-162,-612,776,-252,-190,512,118,-957,-749,69,-140,280,408,-540,-1541,-1267,120,669,-1428,98,705,108,674,-451,184,452,31,527,-396,377,1629,645,-890,806,-948,-418,848,335,263,-206,-8,1463,358,-215,-492,-153,-816,-800,639,-419,-612,443,-690,353,512,-586,775,-825,733,805,-421,-771,621,-693,307,-462,820,-843,217,-113,-181,962,1068,231,-57,529,-829,443,-115,244,319,828,628,-51,891,-753,-1198,21,-530,345,688,-1606,1161,686,125,470,665,841,120,1419,-737,-558,-371,-595,-722,153,-699,-818,904,294,415,-405,-120,-380,677,-1022,-288,102,-939,-303,-853,-287,704,-435,628,-144,-1030,301,1128,415,548,-1334,315,-212,-276,-106,-301,-379,460,600,794,-682,-785,-467,-883,640,-607,-614,1485,-137,-685,-225,252,253,6,1247,1260,1624,1316,-90,185,-391,415,152,-284,-270,-217,1112,1098,284,-484,509,-18,-216,564,389,823,68,399,-467,920,1220,905,2100,74,-721,445,-151,1472,1426,-238,711,-1568,-830,577,195,266,677,-799,-1633,1013,723,-701,-506,1253,-305,1008,343,-587,714,-431,-859,-639,-775,-357,-1423,-269,941,1265,1147,-485,392,-349,-648,64,-89,-385,-764,289,-1128,-1371,-1266,-1096,17,-91,-522,-409,-437,-1502,-1186,-796,-313,-1054,-439,164,-164,-1229,539,-722,-1418,130,-789,-1064,987,1052,53,-579,784,-617,-552,-379,620,-114,604,-1002,470,-49,-337,-104,-619,-737,475,665,-373,-19,294,-219,423,290,58,-909,-188,315,75,2005,386,-216,35,-790,-1,87,196,1589,662,-928,440,-241,-100,-1071,1062,-81,-1004,889,651,-445,-98,-454,-1340,622,1217,361,-1910,664,46,846,560,-422,1305,357,17,995,32,-929,-436,794,184,29,-477,-45,-221,847,-219,-201,715,-822,5,-22,609,-202,-474,-302,715,666,37,4,449,-328,535,-774,-317,973,846,840,-275,747,55,345,1051,172,-9,923,-1725,-317,1330,1328,527,-258,-177,325,702,263,-1233,1006,-907,53,-670,-637,-1091,59,542,-212,945,-669,-296,97,1865,189,315,-484,-582,-616,1179,57,111,299,102,65,-69,-802,-217,661,623,717,-151,1261,1053,78,396,-292,701,469,629,-591,-950,-695,-201,943,-260,470,-646,331,-537,805,-605,-26,-610,-530,-653,-741,1133,-520,954,37,-859,-454,-271,185,-973,-184,-785,-763,-524,47,-324,583,-593,983,-11,133,25,204,-364,189,-273,583,64,481,145,265,70,-1486,769,1072,-1309,-810,725,1004,-23,27,405,675,637,924,-884,720,229,104,-83,-1056,916,-438,-449,173,162,484,268,1277,59,-84,-1456,509,654,-711,-974,1213,254,442,512,-915,140,733,-204,680,1334,-211,1239,324,953,-753,-127,-390,-283,235,1171,404,253,-175,710,321,-87,-456,900,-321,434,-118,-599,40,509,73,-361,-1594,210,-1120,1684,473,-355,557,-90,943,-1023,-37,439,959,-966,-148,166,681,-348,-552,349,240,972,1499,-552,-349,-378,386,-140,-134,-232,452,360,538,524,176,-574,117,114,-311,-973,-29,-1879,406,-766,-320,697,-818,-908,692,280,955,195,-516,-226,161,-942,-168,-537,-88,-174,752,917,146,-256,-381,-386,759,-675,744,608,-659,189,-285,-307,-437,-1093,-501,-585,-118,153,988,-70,1016,175,-204,-377,1198,-243,-1290,-52,505,-517,255,338,-625,-1164,83,885,576,-486,-465,633,-982,-710,-266,221,-798,808,-2062,-73,212,1090,877,-397,-788,-390,-249,877,767,-93,-708,341,-162,763,526,349,891,-913,323,-744,-452,402,865,320,-642,-192,-1138,-1293,-1032,-1479,-1446,-721,-754,-456,-794,-76,-1029,-1168,120,-408,-1224,310,-363,-411,-763,13,115,-846,116,-27,-517,-681,-426,-931,-42,-1015,-22,-593,-486,-403,-915,-740,-775,-823,432,457,-1765,-13,-452,624,396,-146,-1897,2,-491,-936,419,-801,-189,-546,1137,332,72,-545,-82,155,-21,540,-1293,1046,1610,46,403,377,378,-125,836,-1754,-1098,93,-350,3,-739,-849,1219,-477,995,-751,-1669,-822,173,456,236,1360,629,-77,-280,-1522,-381,144,-958,-206,-398,1059,-795,72,-186,-146,358,-525,320,1003,577,61,841,594,-129,843,861,-201,-742,952,-40,125,-567,-892,746,563,877,-632,-545,106,-334,-610,-39,82,1118,-236,-388,-885,-982,-858,222,127,350,-1352,120,-213,256,1874,8,619,419,1564,-796,365,79,-24,241,-228,-81,-696,228,-657,170,146,-792,-86,56,1346,-546,-437,-1164,647,929,-692,-7,-251,531,-383,-251,-545};
const static uint32_t LSTM_01_weights_forget_gate_dims[4] = {1,1,48,88};
const static ConstTensor_t LSTM_01_weights_forget_gate = {&LSTM_01_weights_forget_gate_x[0],&LSTM_01_weights_forget_gate_dims[0],0};

const static Weight_t LSTM_01_biases_forget_gate_x[48] = {2109,1884,2041,1964,1948,1604,1657,1912,1951,2015,2129,2162,1996,1567,2397,2038,1926,2098,2001,2412,2097,1663,1847,1992,1736,1719,2143,2048,2685,2262,2135,1589,1950,1749,3150,1756,2465,2316,2433,2079,1776,2092,1612,1943,1801,1745,2245,1996};
const static uint32_t LSTM_01_biases_forget_gate_dims[4] = {1,1,1,48};
const static ConstTensor_t LSTM_01_biases_forget_gate = {&LSTM_01_biases_forget_gate_x[0],&LSTM_01_biases_forget_gate_dims[0],-1};

const static Weight_t __attribute__((section(".weights"))) LSTM_01_weights_output_gate_x[4224] = {1380,742,-661,161,-738,450,-714,-9,-339,920,-898,-493,963,-97,-856,-323,-194,859,-119,1052,-810,-415,118,1359,-48,-411,1278,1257,-357,1555,1568,1286,397,-97,9,839,825,1611,131,-109,-306,-737,-1162,537,-256,362,1153,331,-220,952,63,864,-1171,1194,-59,-667,-199,474,-72,546,316,-651,1209,-87,-579,-1398,886,475,743,-280,827,1249,-146,-998,-60,1445,604,484,338,1843,-756,-512,288,-1031,24,-2333,424,1385,34,127,1225,619,-101,549,376,1735,1503,242,225,898,144,-645,126,580,-103,415,-30,47,1074,1125,1266,314,665,667,-710,209,-432,-704,296,-997,168,654,-193,-385,720,144,-657,-359,-641,37,-385,-449,591,-285,855,-194,571,163,-505,518,-1314,-1653,712,-33,-1319,325,-15,260,103,893,-1422,-1251,-478,-326,1249,668,196,962,209,-156,300,-751,1455,-1807,-11,515,-634,331,-805,-588,-859,-180,1818,1433,289,-245,448,148,17,78,-597,-550,-407,336,-226,-1031,594,-236,450,-139,-541,-482,-507,847,-975,527,1030,392,-349,-512,-531,-489,-286,143,-744,509,-899,377,-963,15,-834,-1761,-1482,-451,-432,-618,1043,-1144,1238,-1119,-620,-1174,-524,-647,200,203,1034,-218,293,-1387,220,765,920,263,1154,-305,-114,988,-410,-368,-153,861,-947,902,771,-306,827,-586,988,406,-2420,-647,389,-609,-1055,27,1029,-909,-582,-791,402,-77,522,589,-266,-510,152,-774,367,-551,-331,578,759,272,-898,45,-160,-1196,372,458,-384,-830,550,-198,424,-728,927,959,1021,328,61,-512,150,1028,-31,645,48,127,490,-283,246,-566,703,-426,1422,-600,-516,8,-182,300,-243,-244,-709,989,137,-1022,452,-46,587,174,-567,499,-1128,922,-316,945,-73,824,769,462,-99,-850,542,661,-570,-3,6,-1789,-914,656,296,-1681,-328,515,-167,-544,888,-75,1091,-671,-62,-786,-1417,362,770,680,399,491,848,858,-90,892,1185,-65,-457,-930,227,-373,-1014,370,-211,-689,283,419,-471,-1065,-1281,524,-343,612,176,-1418,-769,536,-769,-1574,186,-1204,-1685,-477,-1351,-273,83,1745,-504,517,148,58,-1065,1002,227,311,-6,169,151,-901,623,1590,476,-640,-295,-797,163,62,-91,-990,506,1500,117,-671,-1529,-298,103,-119,-708,1484,583,-917,508,33,906,380,884,-38,-150,-783,353,1396,-505,-205,-192,372,-40,1161,491,953,279,349,422,-271,48,543,115,916,-551,1118,-111,120,1083,1111,534,828,1005,758,1559,-420,1285,792,1721,333,1177,-428,1124,825,1025,1743,1511,950,1040,1467,651,-92,118,1585,747,-345,1031,-1101,-209,791,-294,752,819,-397,-892,1105,-522,-793,-24,4,-206,-477,152,-718,-495,-391,995,-420,1549,-601,-873,278,-962,-700,593,266,-1086,651,-508,346,22,36,169,-246,583,-198,900,1063,-708,1008,-70,1109,244,715,314,826,764,1657,1670,451,1908,251,597,1576,988,245,1128,-240,-343,-634,-19,19,1098,-137,-222,819,484,1233,359,813,-137,184,236,-604,1337,508,1439,1092,-805,-199,259,764,1624,-399,-203,610,271,24,-277,744,527,-475,103,714,-422,105,-309,797,-408,-753,1023,-199,2138,-68,876,-522,451,1002,463,380,760,307,-829,-218,-1450,103,742,795,633,474,-580,968,1052,-322,-1125,-294,257,166,672,-1713,-1937,-622,-502,-564,-1781,-505,-941,-812,-806,-30,751,310,-546,-381,-566,695,127,233,437,-534,-413,-31,-991,511,-771,-157,-559,720,-23,-553,-383,127,561,563,-620,324,264,-382,504,642,-661,561,268,-512,-1069,963,-1354,796,599,-75,-165,-625,645,499,176,-983,1127,949,681,424,-1550,656,718,-69,-895,-5,-1169,-112,521,1182,16,529,281,390,2100,-1082,-549,-306,-302,-624,523,-89,738,-222,136,1050,456,74,173,250,-280,615,1034,-917,-378,962,-17,535,597,1220,-660,246,11,-395,527,227,-588,-844,445,-925,601,-317,1057,904,223,501,353,128,206,288,279,974,-480,-511,-836,-665,-966,387,292,-45,1606,8,241,-1295,-864,237,-550,159,-189,-549,705,23,-576,1016,78,132,866,-275,-1108,736,126,-1,235,-990,-377,1369,-90,2,124,1179,-467,-611,239,-626,108,-945,596,45,1403,1025,182,230,-268,1244,-573,313,977,-471,121,-75,-714,-601,-244,1189,-173,-54,-412,-757,-348,-575,809,1239,1032,219,1268,1064,-724,-493,-702,1291,74,1208,-460,-395,-269,1368,113,1495,812,971,-474,-428,481,629,754,-141,275,-253,999,941,386,132,900,1574,8,250,1178,-15,441,453,1345,-499,-1309,-661,478,736,-728,-382,289,-1056,495,-558,-12,-188,974,-1565,950,704,-202,-67,-649,28,-450,-271,-687,702,648,-461,-724,67,112,110,810,-3,198,-449,-1093,-785,-613,-252,-286,-929,-829,50,678,-548,-209,545,-266,318,-311,260,-746,-587,-268,-1023,96,619,612,1040,930,868,961,471,-337,617,-126,-3,996,1129,-1482,-419,-1024,297,475,474,592,-430,-700,-364,-57,117,488,450,634,564,59,-1706,1805,180,-148,669,-227,771,219,-1074,132,-464,1382,39,681,49,-100,-83,-168,1955,437,-1394,389,-1122,-979,308,70,-640,270,-215,768,359,1110,831,-38,417,-61,-363,-1157,-1278,-1788,-706,-921,337,426,-762,-676,-1264,-1448,-430,-421,-38,-149,619,-1494,-1703,-1339,13,180,-629,181,-868,-1029,604,-932,121,1595,1501,1023,-290,651,1929,1425,257,-242,-698,-415,372,251,-305,-309,-1133,-417,-98,71,1235,-996,-478,1833,791,-131,929,411,262,-826,-3,414,-391,378,-708,76,-251,-168,1072,616,422,1841,-700,249,1955,381,-194,479,966,81,598,-797,-873,277,212,427,233,841,-157,695,-454,170,1026,874,71,178,1210,1061,98,403,-454,-691,235,140,30,159,95,310,841,1307,-171,-210,290,945,-444,-504,-52,227,806,1220,1416,809,1134,-326,-760,484,-675,50,-975,614,-222,-1317,-439,987,455,-872,-144,-685,-1171,-45,628,-354,-1818,-921,1425,-572,536,226,803,-92,-149,133,-649,517,-160,-678,-664,486,-497,617,517,466,510,987,174,302,-688,-554,-6,-786,471,-1540,222,1238,416,-677,22,705,889,-76,-289,-31,319,569,-167,167,977,541,981,-588,960,-486,-476,1118,620,897,1003,953,-401,100,30,99,-628,419,757,576,355,-492,238,-771,1134,425,636,-1235,-1165,730,314,-725,-1376,508,-173,-248,815,-48,755,-574,804,1197,-2,849,-456,-425,1047,33,-492,-45,-382,982,-101,2341,236,-294,929,1410,-668,777,746,378,-900,-1051,-50,-785,372,1575,-1719,-867,-648,-868,342,-511,-495,254,393,305,-52,1180,794,105,314,1239,-14,54,1244,688,951,-389,1559,1991,803,647,1273,-107,-63,-347,356,-184,-74,-606,197,733,-594,-424,527,338,1528,244,1670,1290,-198,-121,230,257,162,182,479,251,321,-1350,292,-869,269,-209,1021,979,-829,-50,-103,793,687,-127,2127,-731,-682,1252,923,147,15,263,243,209,362,293,-931,-1316,-627,-269,-223,468,162,-109,-519,-1667,-862,405,43,-5,424,13,-444,-618,-276,750,507,-1058,-551,3,645,51,-492,243,-279,807,894,733,-423,628,-195,-429,-680,-206,281,-550,-334,1308,-441,909,595,200,798,1625,476,52,36,-489,-28,729,321,-11,-343,369,-361,-118,-1539,-892,-53,-830,-614,13,-164,396,497,417,128,-84,-370,291,109,680,-1146,-917,-632,120,-124,379,-1235,1151,626,-17,-133,-271,107,-137,-154,-249,490,-628,-573,231,-113,-893,-118,2228,-503,697,-156,-732,114,9,1403,907,557,-120,-802,-532,884,555,707,38,-667,524,398,-272,-968,436,501,-841,655,-334,-805,624,51,-648,650,-773,250,1117,879,573,1243,-193,1259,865,821,918,1936,51,-370,456,415,-184,-291,-732,204,2571,449,-530,872,-29,727,-565,-47,-629,-94,-558,-480,248,708,749,-590,480,367,-675,545,409,-1047,863,705,174,161,605,98,201,143,676,-1014,688,1005,81,1880,952,283,-984,110,388,-417,11,726,-719,-59,-218,1099,-167,-266,-853,-557,838,954,-328,-352,675,402,-818,-396,-384,658,-271,184,461,1392,1139,911,397,482,1162,751,-190,835,143,-320,644,-932,450,-677,-782,-817,640,610,-768,547,426,1448,595,43,-133,-1095,-25,-398,-550,-430,999,-679,-137,-811,1241,445,440,-43,-56,-663,-779,1734,812,737,567,347,-1324,-16,191,-331,-174,-700,323,1606,-577,556,900,-160,438,-625,-392,-368,-896,380,203,18,170,-607,24,539,-486,1053,-982,1322,64,-590,-565,-314,944,-163,-574,235,-74,25,-119,1165,114,1197,1437,-477,1301,1399,-418,-444,-540,-484,610,45,-180,484,1141,-208,732,468,-1303,-1713,-1105,-330,-731,829,234,1160,-481,1024,1150,645,-588,-62,-492,-196,-892,-1097,200,63,-844,-409,-401,-389,-336,-513,-392,-1340,1517,-52,-436,-390,1872,73,85,-2170,-1679,366,-1063,623,2285,-1769,-214,-583,121,-1043,66,-746,572,23,-300,-1313,-397,291,-24,518,-1261,-1205,-489,-756,-608,-930,324,-802,1036,335,30,-477,-1617,-279,-116,-258,-98,-1713,-219,-622,273,-656,421,-389,472,437,68,-758,-287,509,192,625,-105,266,-1,-229,-995,2129,1189,-1312,304,856,-293,1205,238,1434,922,149,525,-66,-297,959,-337,-84,-363,1589,82,255,7,-164,-709,-409,-127,1584,-1033,781,-641,584,324,931,-332,37,58,303,-374,680,350,483,419,250,-1368,-1082,-446,-79,-983,822,292,-626,393,-740,887,1019,479,-604,220,-736,287,-365,56,-542,-70,824,-42,236,411,-537,1088,-503,-854,-6,-335,912,-416,-1058,611,453,-174,-1168,790,-581,164,970,-1048,-1036,1581,-170,-347,797,-585,1591,-175,425,93,-118,424,-541,634,211,-410,934,697,357,213,-858,76,10,-307,1088,120,-1186,-310,-205,-1304,12,-9,313,-215,-532,-68,-231,633,375,-978,-278,-237,792,-527,-581,86,-342,-671,-1238,-1173,-542,-240,588,-50,194,92,23,85,-817,-800,116,-1006,503,899,-740,-1084,-557,564,-840,-171,-4,-748,-1445,303,-779,-1349,304,304,-544,323,641,-685,-291,-518,662,675,1078,-880,998,-296,-471,-192,-679,110,-576,153,297,1465,-18,-25,-590,-1036,377,-48,1311,-1114,-631,173,-1154,-336,-388,-699,-6,-769,459,-342,454,-381,1084,-287,-342,819,-335,965,-1098,-1382,-299,-556,1128,537,-334,-1351,1,1084,-1153,-1874,-1907,-1735,-1285,-1365,-1920,-1970,-69,-610,-396,779,185,319,532,49,410,-197,-987,-1398,-131,-1081,-424,-436,-20,271,27,688,-533,10,213,-454,1354,169,1332,145,1201,-722,958,-1603,1386,417,473,-342,276,436,-1499,710,296,1233,-1250,1149,870,121,-195,1338,-124,-637,-361,134,847,2064,-150,-1057,296,-588,700,278,170,-1035,121,123,39,-413,541,807,460,1930,-323,-1208,885,654,-126,939,312,176,-124,3,723,39,917,1566,1482,524,716,670,-143,904,1312,993,562,-404,1354,-47,612,250,866,564,723,966,-60,-626,-672,-246,-411,132,725,-399,-36,-902,-952,-724,346,-923,-1059,-633,431,288,-609,-819,71,156,-1565,-682,641,259,-266,-1128,1219,1124,48,682,-1276,-835,-1339,-2008,-414,-114,130,256,1532,637,388,653,-759,774,209,131,-1222,-514,-386,-872,-41,535,-166,-1702,447,-475,885,-1234,-416,1308,579,-2047,-627,-154,-402,-777,170,-875,-192,-606,626,-920,-308,215,-1071,-1060,304,619,-569,-302,-1033,-529,701,235,-626,-48,-1227,-1141,-680,-1201,546,711,185,-195,-969,-1114,641,486,1179,881,-214,1022,-327,649,1013,986,-47,1158,463,-296,72,-701,-260,-1176,256,694,1600,279,248,-927,815,200,425,-637,154,418,266,-736,-764,-422,55,-694,591,756,806,624,-334,367,489,623,1577,1460,133,805,771,1627,-286,-292,1465,289,622,-830,190,181,-20,-846,-172,929,-158,-452,1291,290,-535,-86,55,-242,-18,337,766,705,-936,1024,730,-319,1026,186,64,-848,-771,107,1287,632,6,172,1116,-520,620,752,157,588,1218,-479,-488,-887,377,-233,-169,-120,-472,-596,22,-545,629,-398,-1008,-333,1137,453,1003,307,-85,-1317,808,292,667,-66,-130,-342,447,-167,844,35,-280,47,-99,-543,-87,138,778,-834,889,282,294,-658,-567,-640,1350,-1585,-753,-976,-1088,1285,15,802,750,691,-93,1143,1185,-544,467,697,-747,398,492,815,-515,294,280,811,-191,668,-253,177,948,-291,759,571,441,515,1567,-371,-244,1552,474,525,546,-141,1536,-82,-1075,-255,240,804,34,575,-462,477,457,1088,355,348,1325,-480,-766,224,812,1044,781,1184,-214,106,-850,-892,435,-377,-993,-1302,337,-728,885,826,470,710,1233,-45,1090,-724,-448,-354,225,983,-762,-185,-398,514,293,548,-886,72,-799,-1239,520,3,70,-1253,-521,188,-1187,-67,-596,-1412,143,-1571,-279,-1258,80,836,-716,343,792,-139,321,-258,-613,-988,265,598,169,-853,285,-419,922,-538,1203,721,1813,775,232,86,-1097,-637,1150,777,-99,-218,-115,-733,-257,880,147,464,1934,-339,291,-943,-98,85,-503,1348,-795,108,-62,-198,-2321,158,809,-903,1233,421,836,-655,-716,155,-166,-1137,-1006,-1233,801,-290,-1254,-46,-1201,498,432,151,-1431,-196,-716,-396,-555,-327,-487,895,994,793,-125,-1140,-1171,-69,-1273,379,456,-1174,713,832,1278,423,1237,655,1086,1025,-769,-518,-100,55,1137,477,511,-526,-600,-894,-687,-373,-52,421,-951,-117,-832,167,-376,-228,733,149,363,1532,-1053,-520,790,-1467,502,-1110,538,1384,-628,-500,1858,112,2017,573,-247,1286,1469,-176,-37,349,1007,-517,82,-3,-808,971,-1018,-1375,-20,1401,-1318,-287,-86,-328,-192,-462,-82,-700,1057,-959,-535,-1200,-450,-1875,-1165,-693,62,-981,118,-767,-697,85,379,-773,613,-451,-523,-1402,-102,-532,-1180,-2317,-979,-1678,-1474,-1867,-370,-989,-1725,-1225,-1360,-1394,-1612,-786,-336,-589,-372,587,-799,1623,-1011,-757,396,-1215,-298,-1422,-27,675,607,542,137,-296,1138,-496,486,-123,-247,-37,-371,-379,502,-286,634,-1159,-77,1077,-221,440,487,154,538,60,70,1278,124,-167,-848,629,228,608,178,619,-681,-2239,-1230,-839,-747,-240,459,-1248,476,311,-1402,-1152,-1376,-459,638,-699,-176,-1398,735,-705,-1276,-275,-67,-1181,-733,419,262,125,-20,140,544,-669,910,-118,-619,566,91,1126,-279,1387,765,-607,1188,-53,-381,231,-934,-689,852,1287,512,342,-164,-1019,-121,884,-185,-699,-934,-4,-838,-132,-524,444,424,980,-1721,192,-687,-431,-266,-900,696,-652,-914,-1344,-387,604,1169,887,706,-428,-22,383,-215,784,1213,-39,-595,499,907,1701,243,-1111,-653,-745,-518,466,641,-986,-207,856,-1076,631,592,41,-63,67,-1177,-737,504,-554,-696,350,-746,591,-635,-463,34,369,-13,-970,450,559,521,-839,-1143,-709,307,225,576,-130,847,-310,692,-435,-361,-257,-793,573,1041,-1270,-96,553,-67,279,-918,-2,-436,829,878,-1074,-915,580,718,554,25,258,912,-1119,-214,336,312,1180,692,1433,-205,769,-68,-806,818,1118,-316,-864,-118,1796,-228,2056,-1209,-189,103,-431,-234,-795,-80,-1599,-288,-999,-276,-687,1468,-32,-295,764,1094,1005,-148,614,1010,-691,-371,982,441,585,-1127,-754,-546,-947,-547,-1082,-917,669,28,97,-278,417,-297,436,-247,-493,736,-1578,-15,-335,1524,-531,-495,743,-1214,-4,994,1696,405,-205,-142,-345,911,-842,478,1516,-1408,1526,580,-215,-100,-437,-5,1278,1284,-341,261,230,-382,425,1311,1019,-69,1323,86,259,-691,-670,449,-176,675,946,425,-18,464,697,936,565,1219,-700,-108,672,282,-189,-291,578,15,-38,291,-699,-398,72,935,-761,-270,-593,1299,827,522,-52,1108,-102,428,1088,746,786,433,1215,-570,582,1366,-542,-563,72,75,-163,-586,1126,-1554,-380,-311,866,-144,-94,318,-636,263,730,301,-315,507,1121,-537,208,-57,-952,125,-68,-472,-65,-874,770,281,-1105,-546,-1189,1421,-754,-213,666,-460,113,890,645,-1050,-521,-121,215,-1103,159,-1012,511,834,1649,-21,940,-727,995,-400,1089,-815,-829,151,35,303,-723,522,-965,-1207,-992,749,279,-583,662,597,-208,-220,-358,-265,-798,-426,884,-136,829,932,-1046,37,-453,-684,23,20,215,553,111,639,482,-543,-334,382,1853,519,-1669,871,422,317,-352,-126,1061,-544,490,810,737,-484,-358,196,-266,-8,-396,-48,-425,936,-605,812,524,320,305,-613,-959,-621,-1196,1021,364,-567,867,-128,-131,21,-881,185,297,569,1265,503,1754,1782,1241,979,312,223,-101,-781,330,-19,-732,491,-491,10,-729,202,-658,-17,-472,-627,-655,707,468,-164,1667,566,837,1417,-230,1253,662,1367,409,1198,1613,86,1213,-2369,1146,-381,942,961,-150,84,-27,-955,1121,567,-553,-325,-63,-887,-347,-29,83,823,-526,-268,995,270,-1287,-1158,628,-1251,518,362,-222,324,-849,-677,158,-1737,571,-1051,243,785,1561,1151,48,-719,-520,72,-468,180,1254,457,1440,200,821,911,-444,768,941,487,156,-915,-662,186,-5,584,-589,640,-105,-250,855,1117,-613,-131,867,-607,546,674,-614,472,44,-567,-1257,-881,7,-135,-1175,-961,866,634,53,101,647,168,396,-365,-46,-118,115,-944,743,523,172,-1165,87,1004,477,-753,-356,84,1070,-41,42,426,-50,-1410,260,150,-1336,-715,546,168,232,-1617,-625,-178,-18,358,-247,254,588,-687,-21,-685,-555,-334,-46,-2397,1095,428,587,997,56,-658,990,-1093,915,1182,291,1036,229,-7,-771,-159,207,-251,223,-146,-670,-196,306,132,497,708,45,1348,8,1067,1422,-513,66,290,498,283,1150,-646,-146,87,458,-654,-51,763,-503,-137,-218,-675,1339,372,-120,629,-1256,898,499,907,-1266,-30,316,-724,191,32,804,-363,818,113,-319,997,-55,-190,1080,-134,461,331,696,-1734,-239,88,-762,-844,2170,-624,-36,-471,-804,-985,-305,-528,-233,637,657,28,1149,61,1256,211,-163,-942,-1299,-903,-1181,-1068,-20,-1192,193,86,-1229,-675,639,388,-327,719,-338,-1144,-537,294,278,895,1285,-129,1091,1494,150,396,196,1337,-373,142,420,708,254,-40,-87,530,-93,600,42,259,935,1331,190,-1805,-1154,-695,-933,-590,529,817,129,846,-461,377,-242,-67,-365,-186,-184,1009,609,1828,-1027,-236,696,432,-814,198,513,748,-151,378,-324,-396,242,-883,188,1274,-75,-761,1256,770,-700,445,841,416,-1073,-445,-1462,138,-198,-319,-1175,259,-521,-1390,634,35,-34,-271,-451,-82,-1305,355,608,-884,-1078,429,252,-822,-869,-993,-804,-539,-1214,237,354,-1254,101,-1160,198,-735,307,1042,-114,491,1615,789,122,184,1199,-808,359,-117,-60,742,-613,-112,-631,660,-589,437,-1350,940,1094,96,309,-382,1302,411,259,878,250,45,406,1422,-716,-55,786,647,1113,341,-1460,-532,551,-623,-113,1153,-406,-475,288,1564,1134,501,-372,751,774,907,-564,486,-150,8,-129,1636,1717,83,586,958,405,159,353,1673,1171,779,1187,543,108,-178,1629,1783,1104,514,2007,470,795,1829,116,322,-525,340,1950,330,89,-546,-653,434,171,179,-860,-876,-488,-775,140,-1283,-86,-415,124,-2450,-571,-637,-175,-52,1175,694,-263,676,-286,707,1012,-714,33,-473,279,-98,31,149,566,-628,-202,888,-703,69,-142,516,20,1041,567,418,-997,42,96,-38,515,-587,850,-1047,-817,-148,297,-338,265,-194,914,-214,1077,-347,957,59,525,-305,1284,220,216,923,-43,828,1202,-388,-52,459,1075,1116,1283,1385,-1104,746,789,480,-424,749,14,-1416,-235,140,-1013,628,-155,-202,-628,-1005,-431,408,684,299,-59,172,544,-1348,1231,-850,828,-2010,966,-1056,-352,765,472,-339,-156,142,156,-149,-681,501,364,710,-167,-183,-559,-489,-276,-113,1509,1312,-101,126,55,1425,1010,600,593,88,1047,908,1276,326,-265,682,1043,1730,1074,752,-37,-337,7,898,959,-260,283,809,385,297,561,-342,184,1714,408,280,774,775,1503,1424,-749,850,-385,-922,87,-395,-439,-879,-502,-155,-618,874,-374,748,-952,164,-524,-258,21,862,-676,-502,272,-693,-1805,62,983,-128,237,484,-283,-195,-640,-1151,-59,413,-586,-958,-632,-666,147,664,-564,-910,681,-2187,333,-43,388,1134,502,546,-290,416,1112,887,-233,-615,-119,-223,1171,-291,457,1087,-42,-82,232,930,132,-475,381,-77,408,1202,-329,107,502,1074,1158,219,-68,122,-53,330,146,-91,702,121,-109,-570,873,291,169,-586,-83,482,-5,230,723,1229,-1087,-662,763,-345,289,-213,-1018,160,-999,275,-771,695,870,-295,-208,637,965,1117,-1839,-209,-16,-878,222,976,607,-248,-242,-1448,539,654,324,-1132,-7,-202,-41,-682,-396,-214,1386,-488,77,1249,-78,-712,1279,-77,1566,157,536,457,431,-28,474,1368,293,698,584,-143,-124,-145,1264,1471,1485,-58,-37,-476,200,275,-472,539,1044,146,175,390,-602,-828,-1559,-557,-279,-221,61,-1078,-967,286,-719,-695,-523,580,705,-893,1150,442,552,-441,-1297,-70,-60,412,-725,-1333,267,556,-82,695,-979,-1416,-1772,-347,964,216,511,-1261,859,-79,257,1043,70,-475,-102,360,-548,789,-50,881,594,-12,-524,-775,506,-611,-103,-699,-662,651,1449,519,1036,604,56,1211,959,604,560,-432,177,-498,-734,464,-526,-194,-555,-342,-433,-283,1158,-92,1195,949,374,1385,1325,1559,1371,1151,-47,941,46,-171,1011,939,1700,-1019,216,-533,-76,437,48,-300,-432,-1039,-916,676,-999,766,-146,-485,250,1453,710,-154,-51,67,12,-1181,554,-1592,449,745,716,712,-429,46,184,-55,142,-415,416,-617,760,195,-606,1117,-927,-231,-1263,13,692,-30,140,99,569,25,142,-322,-66,123,876,-217,911,1156,85,1457,-561,1238,1086,1253,718,-58,-333,1001,118,-516,195,1210,121,1329,-30,-357,-347,-278,472,-543,-499,397,-1609,104,776,-1245,-2212,-615,-638,85,1069,700,-1070,-1056,761,-698,-602,-354,98,193,762,341,1414,1144,-227,-1198,1312,-986,-296,322,-498,-494,-35,28,-193,-301,-709,575,-329,-358,1146,271,1001,781,-29,851,-112,1326,1160,275,-337,-524,-373,684,-418,316,-912,-796,1056,-699,574,-103,-989,-635,948,457,396,588,1265,-421,431,-60,466,790,826,956,-433,1045,1200,62,50,-427,-524,499,-965,532,-430,-106,-257,513,1387,-451,-1200,-671,-1736,1269,337,-36,-139,-1017,-561,-1549,898,570,-533,-176,-305,137,302,-271,329,262,-941,-964,1,1080,1118,-796,-1119,-867,272,765,-1393,550,-508,-463,-560,-612,-923,339,-520,566,93,245,-852,-811};
const static uint32_t LSTM_01_weights_output_gate_dims[4] = {1,1,48,88};
const static ConstTensor_t LSTM_01_weights_output_gate = {&LSTM_01_weights_output_gate_x[0],&LSTM_01_weights_output_gate_dims[0],0};

const static Weight_t LSTM_01_biases_output_gate_x[48] = {929,1356,-382,85,-950,1011,895,116,-623,603,-136,-243,1389,976,503,-430,771,659,430,689,1032,-114,-2003,457,-1420,-731,1051,-1781,393,2235,-268,-1404,-151,54,2728,579,-150,562,654,552,2119,1686,161,19,146,833,2180,-442};
const static uint32_t LSTM_01_biases_output_gate_dims[4] = {1,1,1,48};
const static ConstTensor_t LSTM_01_biases_output_gate = {&LSTM_01_biases_output_gate_x[0],&LSTM_01_biases_output_gate_dims[0],1};

const static LstmLayer_t lstm_01 = {&LSTM_01_weights_input_gate,&LSTM_01_biases_input_gate,&LSTM_01_weights_cell,&LSTM_01_biases_cell,&LSTM_01_weights_forget_gate,&LSTM_01_biases_forget_gate,&LSTM_01_weights_output_gate,&LSTM_01_biases_output_gate,LSTM_01_output_dims,LSTM_01_input_dims,TOFIX(0.000000),tinytensor_tanh};


const static uint32_t LSTM_02_input_dims[4] = {1,1,1,48};
const static uint32_t LSTM_02_output_dims[4] = {1,1,1,48};
