#include "tinytensor_lstm_layer.h"
#include "tinytensor_conv_layer.h"
#include "tinytensor_fullyconnected_layer.h"
#include "tinytensor_math.h"
#include "tinytensor_net.h"
const static uint32_t LSTM_01_input_dims[4] = {1,1,1,40};
const static uint32_t LSTM_01_output_dims[4] = {1,1,1,48};
const static Weight_t __attribute__((section(".weights"))) LSTM_01_weights_input_gate_x[4224] = {389,173,-1473,-866,866,800,259,-844,-739,-780,-493,393,85,725,-1191,-937,-532,-504,-646,231,1077,185,-433,-513,-633,-554,753,231,-1152,72,-220,-672,666,972,306,789,214,225,-79,333,-1250,-859,818,318,838,2155,812,-1392,-65,1187,-217,1613,69,370,360,-1156,-786,920,1506,1345,-211,1260,-837,1554,-886,-161,1314,-1062,-416,-508,-1057,-1376,738,-46,-284,-96,-561,-152,-539,-356,-697,705,-660,609,-641,-323,-52,-105,351,-720,131,505,1297,-474,-668,-475,1015,729,822,525,-508,-886,-578,317,-49,1049,724,1109,-733,203,134,659,-506,-814,645,552,-478,464,-700,-1340,-578,-355,-1324,-861,-1468,-1114,-877,-576,-754,1454,160,-86,116,-781,-376,399,477,-1208,397,0,780,181,778,-921,-1580,14,845,-1038,-1203,-334,-339,-61,296,-292,170,572,-124,-118,-1704,1181,-618,-1410,46,835,-657,-412,-1478,-230,-316,970,-570,1139,-85,143,-1095,43,-733,-118,496,894,-517,-600,631,408,212,-382,87,687,127,-850,76,207,677,812,207,276,-389,-411,570,-373,-547,850,-517,-40,833,215,231,-311,436,-764,722,683,986,847,854,722,76,570,40,-389,93,1004,-817,-562,-159,-158,-520,-573,-265,1289,278,-412,240,261,-155,-198,-16,497,-207,931,-101,-700,779,59,445,-1138,-133,2015,-416,821,-251,128,183,804,-491,722,1011,1175,-959,348,-497,-1065,542,756,114,228,242,827,-594,-1052,963,236,995,-750,-248,-659,532,-648,266,-739,-342,230,1044,330,906,139,873,-834,297,451,-606,-667,-231,-539,845,-307,-329,69,198,-1129,-562,-592,647,-547,-417,95,645,997,416,-570,-1237,-143,-316,-177,548,-86,184,-1317,-23,962,1717,730,178,214,-1498,-1243,718,-88,504,-907,30,-10,-1084,-487,-461,-450,-37,1295,1010,-143,727,125,-161,-337,-1005,4,320,949,-525,-1014,512,-5,-1305,576,1114,457,26,-1474,-488,-1122,-1051,-1708,714,-110,-257,448,119,-982,440,-683,46,-504,71,-874,3,-1297,-1748,-802,129,-832,395,-429,-987,83,-724,217,296,-1183,-604,-849,413,91,1502,992,-180,-887,-1282,297,64,-387,410,-870,-2275,-851,-601,1448,-1050,1022,157,-481,502,-392,-1581,623,-433,143,1911,245,370,-345,139,803,-195,-579,36,-874,-608,-84,175,766,236,-2032,1526,-742,-327,-201,-179,-336,824,-14,-742,307,-720,1731,192,1708,283,916,1044,4,1092,1041,974,-136,-613,1198,-345,405,718,1177,1054,1378,-192,1391,1197,-186,868,291,388,-260,-460,-199,750,564,156,101,-274,1005,1041,605,297,-523,-1189,-631,1524,-1040,818,-640,342,-1686,-77,1292,-299,-430,523,-248,-674,-1010,853,183,-462,-291,103,-541,-288,481,-12,-1036,1256,-827,-1083,140,639,-47,784,-182,-166,254,-36,1136,2,-1271,-385,871,1549,-724,639,934,425,11,-1060,420,-672,-564,-699,-425,-101,1114,-490,-792,481,990,-502,-918,-41,779,-738,-29,1487,1628,862,252,1337,1529,1317,-313,-43,1481,755,779,-204,612,352,487,1086,914,-87,1060,781,-860,-103,-176,344,598,-1378,175,144,548,-1098,1376,-1286,-56,-69,-407,-845,634,258,10,392,-840,-575,-2474,747,-473,-790,-943,220,-8,958,2,-449,-80,42,242,-380,336,628,338,374,-853,-973,395,481,-1367,-308,-678,-61,-233,718,34,476,-638,612,-526,570,381,-959,396,-155,-166,88,-694,263,-204,-269,165,-481,-776,565,713,37,-583,-57,-43,-909,-256,-395,38,-440,375,-679,793,-817,-609,-230,-213,1476,271,655,-161,-1256,837,312,-301,-84,562,1487,56,912,-1107,250,-686,-774,540,169,104,-178,887,724,729,-191,-295,585,230,219,-281,-869,-201,-850,799,-220,1081,333,-66,601,6,-1107,323,624,-1238,1195,-1438,-1244,194,-741,509,75,-199,477,969,98,1124,-70,600,-481,12,-660,295,-505,1080,606,709,117,493,-222,918,-908,-672,812,701,-642,-465,215,-988,2,-360,232,-497,403,211,-1254,-498,744,-492,-434,-1557,977,-488,-250,-214,-1277,938,-739,832,220,67,1094,-1250,512,1286,-80,-123,-914,-718,908,340,4,939,-506,-279,-604,905,566,-842,-596,469,37,218,-282,-89,1201,-129,240,-1073,216,-268,-1449,365,751,492,-781,779,-386,415,-27,-576,173,-640,-725,-65,-770,928,-370,-60,-757,892,851,-354,-241,-956,879,-129,661,-322,77,886,592,-760,464,124,518,-680,324,742,-515,761,215,151,1032,1698,635,680,1300,-621,-468,-226,-993,1079,548,-16,806,-278,985,-761,-587,-546,537,-630,-11,152,-410,143,-1543,513,-46,-930,-349,670,461,-61,148,-583,1261,-845,965,-249,-598,993,-1013,1946,346,-696,597,1711,-734,930,-130,-630,1299,-371,386,250,800,337,-1509,-1741,-668,-296,230,-368,-28,-899,-128,-411,723,-503,-240,479,346,-334,-265,-1051,-777,307,-1330,-494,-244,-5,-935,-56,-448,680,-913,-569,-706,-545,109,-1517,-749,996,-2400,453,-1634,57,-550,1204,468,-441,126,685,-2,458,1116,-45,-340,-897,232,919,-739,-469,-1011,-116,-885,701,1007,-59,267,-959,-717,-984,98,-387,1349,798,1914,-676,1190,-825,-82,-1240,600,-415,-1242,-1407,490,753,188,823,515,207,334,-819,-503,634,779,-276,1068,84,1187,-44,-510,-42,-658,-154,611,154,205,763,-639,445,-133,335,1206,-140,-142,238,53,438,420,1305,-554,1216,-29,1570,737,-36,1089,-279,-485,-466,-346,-711,1210,1065,-852,-855,-356,318,111,789,-674,376,-636,455,-474,-593,-290,-1283,-1211,-785,1161,-157,-389,606,-384,1223,-619,23,-142,108,-738,721,-433,-582,-740,507,661,-221,481,112,1340,371,907,506,-40,-1103,-249,-196,-1019,-44,1061,884,1749,-279,269,1587,-720,1621,-383,232,-661,674,575,-793,-4,1051,-1324,-1338,-1308,-1182,81,-107,546,590,-1334,-471,126,-383,724,13,47,-1161,-117,543,39,-766,1626,1043,-474,306,1671,-1671,-617,-831,-219,-1880,-71,-37,1240,-399,807,6,-1078,1335,18,161,-233,-845,904,656,-180,-1414,-340,1543,1532,749,-1467,-58,-1080,-1069,-1284,1101,-482,666,1667,-1107,-488,1470,780,-943,-428,1387,-82,569,297,-560,-867,141,-553,915,801,1014,-750,345,472,27,-1219,-94,339,-1342,-1181,300,458,154,1245,92,975,907,1349,624,-882,-221,378,1202,-672,-63,-210,1346,-260,1511,1098,1495,974,-440,1464,-1467,-542,-625,-444,-771,-61,-807,256,184,-403,869,-791,-445,-169,-404,228,-629,1370,-567,485,-481,209,-974,1609,242,647,-150,-337,-369,451,-158,1078,1215,812,-697,497,-817,-530,1343,1760,-136,-18,279,-1680,-355,-614,-379,-203,-1174,-501,-1358,733,236,875,-293,979,-865,-548,489,-225,-190,1083,1091,-120,965,-366,-79,-1149,-695,-1218,-986,420,-129,614,-963,-718,-711,-1496,223,-453,27,-456,793,-831,-488,-1563,-549,1182,794,-249,-900,1185,-1210,109,586,-592,-118,-863,-1530,1133,-87,613,-604,-1977,3620,-563,151,582,103,43,509,181,-1682,-1666,2314,-46,573,-841,267,236,-1606,-1549,-138,-1015,-966,-22,993,-437,-216,-229,-157,-618,258,-1911,-592,-662,1095,-141,461,-428,-1198,-1084,-1002,872,934,-548,680,96,465,14,190,-417,1045,947,-41,-947,717,-389,565,421,812,-671,-796,279,487,-1024,431,277,800,-74,-1060,771,-1101,797,404,-124,-626,1022,986,-675,-859,-1137,618,1072,-301,-776,-1351,676,-29,-649,-581,732,1212,-355,-943,-1007,470,-1045,450,606,1430,-350,-312,250,-511,-256,-85,978,8,-1018,112,1043,-427,-567,-118,137,537,1364,-931,612,-215,-156,-710,-260,-356,978,33,813,-387,-115,-66,955,1023,1179,-435,-120,-87,1077,-538,233,-427,1601,515,-347,320,343,897,1354,125,8,569,-460,1324,934,-566,907,1029,155,1503,1141,656,-323,1062,522,-716,120,458,411,874,-137,-1,-72,633,-469,156,-243,631,295,-1042,1236,-77,471,414,-1009,640,715,914,-633,-417,-920,-867,508,245,-896,-317,175,-16,615,611,-1632,-426,1596,291,822,-252,-660,495,477,573,-220,-1158,-46,-1037,386,765,-621,748,675,606,339,479,805,-212,446,1,-586,1000,-427,-127,120,203,354,718,-197,813,227,745,-753,-38,-392,-216,-692,552,1017,219,-612,351,-313,-717,144,-1100,-339,-1441,115,87,558,-1123,177,868,-38,-235,287,-626,-135,622,-32,1080,-1123,-101,-171,-325,-456,1285,1529,-761,-1098,-1877,-389,1815,-681,1463,-456,-231,86,665,-589,1644,1347,1003,359,-60,-135,-374,1050,83,484,-259,1356,530,749,1243,-391,594,1107,447,-726,437,1097,-847,-176,134,-568,1365,-629,1300,670,-599,-130,232,533,803,528,-319,-313,-315,-830,-751,279,1105,51,56,-865,-206,686,1188,37,471,-77,661,-1503,256,-462,-439,-108,-1585,-1697,316,-1302,-370,-28,61,-627,-907,292,-887,650,-553,622,894,-45,-155,-1089,204,1213,-96,157,135,-1263,-750,408,-208,599,613,891,1055,-646,420,-28,410,909,-255,517,-49,1329,-326,-1563,546,-321,1160,956,-99,-843,-668,171,439,478,868,755,576,1109,473,-212,1177,-404,69,1155,1066,-766,431,-756,470,-506,238,-104,-597,-880,837,-52,-579,108,739,908,-355,-181,978,425,-431,-43,-1006,-666,-260,-1251,-112,488,-12,-1528,-128,172,904,764,107,692,-397,121,662,750,-545,140,142,314,338,406,812,353,-388,-950,334,41,175,-235,84,-258,-261,148,773,308,969,-573,938,-573,-202,302,220,1974,-1294,1116,625,440,-483,326,-829,1034,359,388,500,1085,1247,743,-375,1220,1313,-40,172,504,406,547,1160,1415,-245,-167,653,1555,1413,-330,392,1259,-234,162,1181,160,-195,978,630,-73,-238,887,263,33,366,318,-439,-436,125,452,-1193,-1925,1284,-650,-1739,-134,-1163,-146,-182,-398,1393,-22,884,500,-31,-302,-234,119,1140,-792,-450,839,66,-699,-645,1089,-623,340,-63,-407,-464,1462,-398,44,1167,711,1013,523,-607,-770,474,-1542,-1530,-1545,76,302,83,201,-3,-956,-112,-50,-456,-543,-908,157,883,-641,-907,-1215,-24,254,-262,-1068,843,558,-120,-1185,72,-520,-380,-1522,96,-144,-743,-1391,148,80,-594,597,162,556,-532,462,-218,-999,1472,-393,1056,-308,-783,1132,1056,13,-1063,1311,1346,-454,-507,600,-77,256,-1149,-851,-357,-855,278,420,173,-1580,-130,192,-2465,-939,-994,185,461,-1252,494,665,88,512,-623,-188,773,-1799,1184,-109,-494,-619,982,777,1017,937,-273,190,-826,-144,-34,280,-543,785,838,1176,-367,-516,-114,-376,349,-1066,-436,-921,-790,736,-609,-852,-119,-1102,-96,167,374,1256,1064,456,-339,900,487,-1249,-989,-300,978,628,101,161,-1257,-588,680,-1048,-33,608,-64,-192,-366,-157,439,-538,929,497,-536,549,-66,-547,1244,285,207,316,786,-457,1308,296,100,231,1505,-781,-80,-778,774,-1008,4,-1455,97,521,739,-1510,117,-941,-242,-235,1154,1009,-82,1237,883,832,-50,-76,-479,1324,1404,-482,-263,1442,373,-545,204,230,1112,1017,-518,695,1404,623,715,896,-542,174,704,199,1441,-59,856,129,69,951,957,-284,457,-691,457,46,-1016,430,-16,-858,213,599,1118,198,-570,-391,71,-227,272,-1178,584,-703,461,-1212,-519,-714,-117,-67,495,95,-6,-1438,1313,-394,911,-1422,426,-925,914,-116,-333,-442,-2472,1013,-14,382,1231,1073,156,805,-246,-481,19,-1032,474,1220,-551,-154,-46,-837,-454,457,192,-1234,-1239,-321,-932,-84,603,-510,-1066,-1205,-249,-1288,-742,657,828,98,-255,-820,-330,227,812,115,570,-850,710,542,203,-159,-909,-855,-1209,-241,1680,263,941,35,-716,-270,228,-1129,-17,145,-505,585,1611,-110,-752,839,-586,-310,616,-19,556,369,-1594,245,819,-327,424,-588,36,341,-846,-215,-443,-799,-574,-569,90,256,440,219,167,302,842,-736,87,-451,887,1083,-303,842,865,947,212,422,-162,-431,163,-646,140,97,-996,-207,872,-438,727,-786,142,-271,-377,-1183,134,189,420,-114,410,-872,-685,754,537,-352,-512,603,-316,-648,391,1967,-1350,-1716,466,165,-1346,282,-480,-425,695,-1333,377,-128,-390,924,-347,-948,312,786,-1095,-458,-387,140,-362,-587,510,301,181,-38,-813,227,225,966,279,140,-187,-468,-14,901,-55,-52,-171,279,222,-12,-591,321,299,-852,668,-1061,-235,-1036,-757,188,-853,-763,67,-840,783,-704,-1166,142,-247,-805,-1527,-705,-336,449,-1384,473,164,-568,-1064,-783,8,499,-5,511,-55,-278,-1190,-285,317,-415,-938,1447,-602,623,251,-475,-750,184,1120,-1324,-104,108,-595,809,1515,-406,-656,-1488,-162,-60,-602,-311,186,-187,686,377,-323,-854,-377,1090,-163,-490,-979,-1101,525,1508,-166,-593,962,-1393,-756,292,1127,461,742,-1242,-577,-1311,-989,1287,-563,254,-129,-709,-457,273,221,934,1173,-405,1096,470,-289,614,365,1326,-63,53,1240,275,-404,-33,752,495,708,-496,332,1300,1144,976,1517,-302,1233,-105,241,921,336,1040,1297,-1074,-135,-1054,136,873,1855,-632,-487,-964,-757,472,331,-1313,134,-175,769,-330,87,-612,1363,1080,1490,1262,-1935,102,439,-47,-340,-298,-1431,-152,-592,-939,462,1647,-436,-416,-573,-402,729,418,-997,-1016,-781,815,764,1148,28,-550,308,-100,-212,-296,926,506,1123,1057,-147,-675,293,-287,565,-565,-190,-803,669,-576,-149,966,420,1176,1017,-200,591,502,954,-473,176,1089,1115,415,414,-297,1238,594,655,497,1153,942,-277,-788,-516,-1533,-143,-400,-1598,-660,233,41,819,-202,165,396,453,92,-35,-1252,493,-744,517,412,129,-719,404,-794,-1447,-1181,-1259,20,-101,454,106,-388,657,219,-319,-396,-430,-555,357,550,1492,-544,-396,-1219,-205,-481,3,290,-564,-634,-1283,875,-538,-1366,204,-616,23,299,-505,189,66,-1607,-604,-1553,146,-1522,-23,-1369,-715,101,-1891,-63,325,-1098,-1491,-1866,-1106,-437,-784,-232,714,293,-1048,-555,-420,228,-79,580,491,248,133,-43,-264,820,-584,225,495,172,1332,810,-548,-129,808,-496,38,-661,926,-1204,1877,1532,15,204,-556,463,-990,616,-197,547,-896,1233,315,822,-91,362,1400,-833,-154,-819,-155,296,716,-20,474,1165,-363,1043,610,-215,-335,-419,889,1299,-667,27,-344,-36,573,1183,-200,735,729,1047,308,1518,660,-82,-559,692,-103,1221,697,1306,149,-96,-464,866,1130,941,864,1221,445,-483,659,1087,869,413,210,534,345,782,364,-728,-70,246,-21,-2558,-917,-44,-752,-282,298,-693,-728,-951,-534,867,757,-143,615,-368,-685,-504,-812,680,-569,940,495,-328,855,678,250,33,-4,-149,-167,-1088,-214,937,1717,245,184,825,-729,-918,-786,372,-1243,329,20,-370,685,166,-955,916,276,814,990,-908,339,511,-284,-340,-1101,184,209,-1673,-1444,-1329,-537,-929,392,-1047,806,-718,-460,227,-622,201,-638,-666,410,-419,52,-1395,-402,357,1044,378,-858,-1270,-846,990,-930,-1759,-267,-565,459,346,-592,-796,330,-1585,582,-132,181,337,149,-143,135,856,1011,-1304,-325,206,-526,443,-445,1969,607,790,-206,-130,1016,-612,-232,531,-421,928,-487,245,-1090,-205,-1140,617,-787,-438,663,-545,-477,749,-738,-746,134,-618,881,-991,-820,819,849,-406,39,-931,606,-141,-896,172,-556,957,-837,695,507,-1015,-833,-461,-620,-415,468,-224,-892,926,1123,-358,826,-126,-1003,600,-639,1000,1390,-1300,-96,143,757,618,429,543,1309,54,-859,107,293,-928,821,497,2,-999,1382,-417,-584,-673,250,763,-1734,1372,-1148,-824,1255,-230,105,92,-788,672,317,1059,-131,-204,-202,953,583,-63,833,-1032,256,107,-634,164,-966,-390,158,-214,-242,-872,-401,-754,-268,-1495,-1175,-379,-435,-24,792,683,-1119,-865,-782,600,-587,-1256,-561,-334,-906,239,-770,-174,-998,-1415,385,118,-1496,-118,491,-384,913,-1895,-819,602,-415,-384,431,-668,-1068,248,-208,-356,-1098,176,825,789,-1077,140,-257,-518,105,1626,304,-2069,575,-391,860,728,-186,876,-1627,-808,-173,-1125,518,-220,-254,-437,-422,256,232,-402,459,168,-1023,508,645,-562,-449,326,929,623,13,1354,-545,-1374,-662,-1365,-1296,-728,-1308,-528,-1635,-68,58,-638,616,811,-1055,-1669,-470,-1285,-567,34,-1409,-819,418,-1262,161,-23,197,-164,374,26,-1624,147,221,-1975,166,992,-80,543,1044,643,753,-497,-95,-586,957,668,625,1209,-242,-449,207,-727,419,1004,-293,-320,-514,-390,-192,1105,-64,226,279,-27,-1292,-417,-1297,-856,-537,1504,1285,262,913,-246,-1405,-1621,226,-269,592,955,521,130,585,-488,753,406,-334,-736,-1122,786,-563,171,283,171,56,-152,-622,-424,-253,853,717,-294,1160,1183,-649,202,191,-146,-654,-1144,203,-565,808,-860,-56,838,-565,267,-54,436,201,269,-2125,-1838,1108,-1317,80,-53,319,-305,-47,116,219,330,-497,-1596,-1546,-590,516,544,-633,-2110,-1409,-9,889,1398,690,-321,434,1484,688,247,247,-1952,-2351,225,933,-1923,644,1025,-355,731,-738,-301,-41,-887,63,1294,503,-514,-183,533,-1217,-1226,-1302,-863,-838,286,-435,-985,669,-1307,-50,-1152,572,-1382,-132,823,753,335,-106,289,-227,-575,-158,603,-545,163,96,373,-59,-867,711,-817,132,468,79,1179,656,899,273,1953,-84,-198,390,-351,483,626,929,2398,815,-1103,440,-264,450,82,-241,-1791,128,-1832,1981,902,-1862,-598,720,-681,-416,-533,546,1043,-16,53,218,303,355,1056,-163,206,244,-417,-114,263,1119,824,277,-447,66,532,416,122,715,163,906,126,1292,-415,178,-529,-117,315,440,-68,-504,725,-664,78,-108,-460,356,92,733,582,1501,-169,-235,210,-113,1746,815,1330,666,17,1264,1220,-310,-725,308,1115,1681,-144,-269,-195,-208,25,525,402,512,-449,-726,323,-684,-260,650,340,-236,-1209,84,518,281,-87,516,-786,222,-18,-572,112,-55,125,349,469,-1484,-1129,-41,-762,752,-985,199,728,230,129,98,108,84,-315,565,-285,448,345,-195,468,-501,342,-1019,566,608,37,116,200,657,1031,870,-593,803,-110,647,194,258,-545,672,651,586,712,-465,221,1625,1436,1177,1561,-13,634,1544,913,-636,-144,202,-92,325,1305,116,338,-1196,650,1187,728,-223,-1150,677,-451,69,471,-86,-220,240,800,1321,-1398,-1226,-1023,-707,202,-361,40,188,-1454,-1325,-415,1773,-6,443,-1039,992,634,1950,120,-773,-437,-1458,330,503,-580,-128,-911,-94,811,1100,386,882,725,1120,711,-827,109,-785,-457,-838,347,-607,-633,-629,1108,-816,464,1155,972,-717,-397,1181,1123,1321,435,697,-266,158,1420,-661,982,-563,259,-370,331,1015,1009,789,306,468,526,-997,-410,771,-600,-90,1595,-1195,75,636,-519,1510,-138,110,505,515,-263,-393,-334,-559,696,-591,610,939,-328,-697,204,132,-865,-252,-654,-550,-786,1388,1136,133,-21,914,939,806,-404,-830,-394,773,-1475,-556,-269,-194,367,-648,982,-630,-1150,-643,509,300,663,228,-933,391,-1415,-1303,19,-413,50,111,-444,-1589,-870,-494,-223,332,-1071,164,-949,4,85,-978,-511,32,442,1008,1116,688,242,-1284,1144,-1873,75,244,1077,1076,-500,-1082,730,572,-881,353,-154,1032,523,1278,647,-160,17,355,19,-41,-46,241,160,699,678,132,-312,-82,-972,-1756,146,-5,-1143,-443,-43,566,-814,-604,1737,1133,-310,-227,40,311,634,-31,1177,1489,1492,263,-547,-374,412,1343,338,-456,-500,1217,259,635,-345,1052,-512,-468,805,-69,1032,-320,280,-204,1548,802,306,1204,-161,1853,959,1380,289,1151,1278,1232,-392,-436,-569,154,-451,922,-333,-471,-1422,1409,633,198,-575,-379,412,100,-1593,228,680,1771,-752,-881,1046,324,-1057,554,-14,-620,1174,-615,-144,110,809,-526,779,335,380,-963,-247,465,670,-208,85,268,162,-173,1151,463,336,-618,510,-250,739,407,960,-796,-538,504,-941,1040,-36,-857,621,-189,-558,-162,-515,576,-926,-39,1068,720,117,176,472,-1045,538,453,-99,661,-1014,-965,-742,-280,1048,444,593,-538,-454,1004,-606,1625,-1403,-587,-728,429,254,197,-840,955,-420,106,1378,13,-41,61,-259,-226,-209,-181,589,154,426,20,-801,420,389,120,-854,-1151,17,445,-763,-1505,-46,324,-667,1021,93,42,-717,-384,95,-331,-964,515,-171,-81,395,-432,722,-42,569,-1045,-770,64,-390,-889,971,791,516,207,-554,72,1219,357,1065,323,1085,-391,742,-357,-214,432,-322,190,-354,-468,13,-940,1142,1183,450,1154,-488,1147,181,-481,-988,960,-1147,311,-723,-1126,-400,-1282,1001,-372,222,-210,-916,114,-102,915,1139,-599,166,283,-655,1057,-1473,-248,-128,853,-467,109,562,-1243,-159,413,-442,458,-155,-278,1020,412,175,76,143,1477,380,215,17,1136,45,-497,-247,258,-108,-45,-141,-905,-393,1172,13,-497,545,895,-53,328,119,1003,798,557,-560,846,367,509,826,-573,-143,452,1130,1146,-716,-370,915,-84,-631,1253,532,-513,622,86,264,1055,-857,-261,466,292,196,1054,339,-284,377,1232,17,1050,-763,939,2,118,-501,737,172,-218,517,294,-173,360,1207,230,-4,-581,-1382,-702,709,-617,-843,2228,-462,412,840,106,573,1364,75,681,-192,134,587,-783,-382,-153,-651,-803,-895,952,628,373,615,688,-776,1148,-345,1404,-460,905,892,750,-310,-372,229,-262,517,691,341,957,161,-1088,-490,-78,504,-30,469,-750,761,646,-930,258,-546,561,-398,72,30,-686,-824,1215,376,1173,-36,-276,-2034,-252,-230,589,62,834,1080,380,1060,1025,-965,-499,-1079,-639,-1022,677,1023,416,-155,-1213,290,190,-281,-116,-50,-766,150,242,-79,488,-990,-197,129,2,618,637,-1473,120,-690,-1852,-970,-1085,208,-544,93,895,-134,-220,889,-407,415,-714,606,-426,-904,226,-236,1016,418,-60,5,784,556,748,512,164,-356,-479,-358,-49,-1074,859,746,-1084,-160,-29,-189,207,931,868,96,650,1115,-1093,739,435,-101,-1371,587,-586,184,1152,-20,99,329,1630,967,-315,970,-173,538,362,250,-367,464,1720,1296,105,-812,503,626,-629,-1822,-720,678,574,-447,-1667,899,-237,-302,-776,-363,-407,-974,-1126,1147,1241,781,-522,1057,562,695,1333,78,-2,-873,132,120,-671,490,-630,-207,776,447,1538,818,395,549,595,1343,1275,-186,365,155,1278,-312,-402,1283,-549,1355,-638,1318,150,1216,720,1499,544,878,-300,879,-245,-589,95,-1632,-226,517,1190,120,112,94,1630,-136,338,1911,3,812,1864,965,-63,-148,846,-1963,1132,607,1093,53,595,-16,-468,-74,441,-1255,684,-49,-925,-428,177,184,126,-544,-493,592,-144};
const static uint32_t LSTM_01_weights_input_gate_dims[4] = {1,1,48,88};
const static ConstTensor_t LSTM_01_weights_input_gate = {&LSTM_01_weights_input_gate_x[0],&LSTM_01_weights_input_gate_dims[0],0};

const static Weight_t LSTM_01_biases_input_gate_x[48] = {-785,-257,205,517,-647,2055,-235,442,-702,298,-109,450,810,1063,-1786,103,733,163,225,918,771,-2521,-454,245,-2545,-120,-830,1440,654,-2375,-152,51,-505,-884,-2774,-1066,1562,234,-966,-285,-588,1797,102,469,21,496,-3062,78};
const static uint32_t LSTM_01_biases_input_gate_dims[4] = {1,1,1,48};
const static ConstTensor_t LSTM_01_biases_input_gate = {&LSTM_01_biases_input_gate_x[0],&LSTM_01_biases_input_gate_dims[0],1};

const static Weight_t __attribute__((section(".weights"))) LSTM_01_weights_cell_x[4224] = {326,982,1655,353,1179,-727,-347,-447,538,-611,823,1657,-629,-195,-1239,1,-612,741,-503,16,124,-601,-880,-1700,-891,-74,-446,-370,-629,-720,-399,-65,516,1206,-320,-2,2012,928,1605,2123,-560,661,710,-1274,535,440,128,1845,667,-163,-765,-360,-1262,-990,-189,626,-421,357,350,-2817,1541,743,579,-892,957,-817,-1434,-1341,308,-393,666,1358,-308,-70,-1023,740,-446,845,486,-554,-917,2066,542,-1085,-118,-1172,-1219,-272,274,1760,172,848,-644,-596,699,340,459,1301,-352,1968,1064,1377,245,999,1342,-47,1164,-771,-1504,-1393,-973,-690,-668,-887,-336,-144,981,-694,-760,-188,905,151,-278,-1000,108,-722,399,-1032,39,-1326,-472,599,1413,-415,890,-34,-651,-425,-1277,-1061,-460,1130,-866,-468,79,-267,309,847,-188,-490,823,1019,721,-815,889,-145,2739,-809,-284,197,-838,592,-1043,769,-840,1424,2229,-86,-99,-676,-1035,-1866,-398,-931,484,290,-119,-748,1101,-233,993,314,-390,646,-466,-512,646,85,-604,705,-173,989,1281,698,-988,528,-788,533,424,-188,167,757,-955,-295,276,-581,-610,-956,-852,-168,-1245,-185,647,-1020,-1035,-1191,-39,436,-740,307,375,713,-70,-919,1349,640,176,-352,1385,-556,1413,435,-77,-820,-240,-101,273,944,-747,348,-334,-856,1394,-1029,716,-597,88,-398,-398,336,-230,-477,765,-448,-696,546,1613,-647,-97,-456,446,-717,160,-292,3,-111,-274,-1276,-1361,487,-1223,524,74,-1160,-1149,398,599,640,118,735,-154,-93,-878,-849,-421,766,-736,-711,1291,991,589,1005,366,-123,-705,714,1222,1478,1446,189,-160,-423,-361,-814,713,608,866,-255,1313,-128,531,-614,-1167,667,411,-191,732,211,651,450,260,1904,969,105,1793,695,536,-933,-1134,-1572,54,118,-361,-337,56,-171,-1053,-313,-111,557,-677,278,-881,-115,1116,355,-819,775,-504,124,-1455,131,2131,-69,899,-161,916,35,-271,99,-924,-449,-1238,-420,-883,-1095,348,-738,-224,-578,-1330,-139,-206,-147,27,-160,-602,154,-533,-916,301,1176,365,-925,-427,901,179,283,-1082,137,158,1036,-2049,-680,-29,305,-674,2652,320,-795,-246,-380,-87,628,-310,-266,-1340,1241,-43,-1506,-469,135,458,-239,109,-1475,-760,1304,-997,385,327,669,534,1110,967,1013,-1474,-418,737,933,1485,-537,1370,-588,-1197,1198,1133,110,1470,676,2362,-241,-723,-1432,-940,-2452,-1563,-1204,-1916,-1628,-1361,931,385,114,-146,887,415,-1163,52,227,711,-670,-721,-1243,-1993,-2279,-1079,-1010,-141,770,414,-92,1164,576,1473,1646,1216,1556,1146,1557,241,-123,-617,604,-608,-1226,-399,-2111,743,790,1639,958,124,-508,305,-1413,141,1675,-336,-802,1637,-2024,1194,225,-95,1636,3448,-40,-1587,-765,-710,-657,675,1042,310,-721,-169,-257,-811,-396,-824,186,-1881,694,-694,-870,-2063,-578,543,-97,-816,685,-199,-1283,-230,-641,-1471,-1005,-282,-858,-1289,-1004,-265,-868,-1173,-1714,166,-1162,-816,-916,-987,-1056,-1657,-1747,-1481,84,-113,630,1423,1149,814,1207,1007,1081,1806,84,643,320,-53,-550,506,-1039,676,754,-1145,-302,28,722,362,840,-1549,625,1953,520,912,-277,-290,1299,228,-227,824,178,-1050,-511,691,-187,-1656,215,-784,18,1319,-36,436,-729,-968,460,-1353,1095,531,1511,-92,-175,-1317,-1038,-477,-9,-1148,212,-656,-922,-503,-72,397,-921,-561,-47,-270,735,-955,547,96,-971,277,-282,532,-1288,149,-473,193,-561,-1071,-1191,-814,-878,-1308,352,252,-707,123,-1051,-740,-610,-795,742,-764,1019,-114,-1074,77,742,-25,1012,830,325,35,-1330,-695,-9,993,417,1187,-338,-84,-520,1138,-79,-17,-3,862,2113,-1296,12,-478,-480,-540,-1381,68,363,-456,-179,-286,131,229,617,-536,-662,479,439,1121,489,-63,-441,-466,906,-1344,872,605,-694,319,561,-1460,-311,346,-159,610,-364,-838,-313,-521,-947,-1302,983,455,1032,589,-98,-497,-1518,199,-1174,-1492,355,-980,-735,-1030,-266,-972,-615,530,-367,-190,-597,-700,-967,876,1620,-337,-176,-1034,-835,-1592,-1030,-631,-1281,-1334,1028,-807,-404,-274,-741,677,576,-762,-219,-2198,137,-757,-134,-1281,683,126,-737,-126,-968,-1248,-1140,1006,-90,-250,811,-1109,1021,774,-1145,522,593,-258,769,687,582,-378,-2144,1905,1469,1161,86,-4,829,1323,589,1170,-1343,-453,-18,-1427,-275,274,-1888,-490,-522,-839,836,326,1346,982,-247,1494,364,1308,326,331,-641,-463,112,-1214,243,-1060,-517,96,11,120,-562,-272,-126,-168,480,995,-1387,-263,1309,1404,749,-345,28,1326,-384,1294,1201,-118,184,99,-26,1131,-975,-2195,249,-2333,-109,-810,1808,1863,1574,-449,41,140,-684,152,767,-1260,99,-935,-453,-603,-496,-523,-999,-611,745,-1150,1030,-1452,330,219,96,400,1582,-684,93,714,-128,1086,1840,1359,897,789,633,117,-220,104,1470,-912,228,1006,-682,-1012,-175,592,489,-33,-491,-576,309,-378,-775,778,174,-758,661,-912,1144,1526,1148,822,-936,-1071,-2866,-455,-1136,-215,-459,-705,-501,1459,-173,-2532,1812,-406,600,277,-1812,100,926,626,757,1488,-1689,307,743,389,799,553,-249,872,-1098,-1324,72,48,56,47,525,28,572,307,-296,-805,-1237,1026,3,1973,-461,-198,1075,-428,856,-1168,-852,518,658,1045,-27,290,1106,-783,-646,-296,905,46,150,819,808,1239,-54,1170,421,-324,-472,800,1197,1232,979,912,-582,-592,956,-25,58,467,-37,-666,-17,-568,1037,973,523,-1312,-765,-234,699,336,-219,-923,-118,133,-782,-170,-776,300,1190,1181,191,1362,-1508,-757,-297,15,1487,528,699,473,285,363,-615,-902,324,-1184,19,-334,294,-118,365,1177,-204,-1074,822,900,-524,261,-1414,-2086,-1005,-294,881,-563,-1390,964,227,-159,-998,-745,-849,-578,-327,-94,-1234,-17,-218,-1480,-847,87,-94,-307,-1720,-1049,-478,-337,-682,391,519,1447,707,-881,-683,-758,1034,1525,-34,634,2265,-424,1280,-406,-822,1002,719,967,-868,1887,351,111,611,-1857,-481,-389,722,-30,1618,-2291,47,1093,1881,-1471,-823,26,499,354,1552,1660,-1101,74,237,-1931,605,1771,47,-305,1483,-633,597,-1335,139,-95,-256,-17,215,18,-2070,-2062,-1427,-1280,-1374,-1680,88,-98,513,236,1891,1416,80,5,547,119,1238,140,412,-1229,-1835,-1175,-419,-1906,-475,-265,-282,-3,-72,347,-316,-547,1283,-482,-205,1696,713,1176,2274,1008,-921,228,-1431,-69,293,-709,872,-341,658,597,445,464,-1285,1088,170,-592,449,119,52,61,-847,490,-59,-713,-434,938,1126,-1877,-799,732,-590,-149,633,736,597,-213,271,-1487,-989,-195,563,671,829,2219,-1633,734,-166,-396,-2309,-933,992,654,2147,800,535,-1129,-1647,-495,-181,1032,-1012,-421,-250,569,-205,-691,-286,1097,-539,-1278,-578,504,-191,957,-386,-527,620,-91,190,-659,675,621,-1214,101,-525,819,-217,-274,-1040,343,-1180,607,-97,101,1521,-1886,-245,1839,-1533,2119,912,-157,383,-11,621,-964,-1692,169,-314,-141,1,-253,451,-1384,-110,354,311,294,153,904,-402,-712,1621,168,-610,-881,-152,-509,-1013,448,-2068,-1125,470,-1365,-550,757,126,-359,-135,303,734,1355,678,-389,-755,834,-317,424,-1218,387,57,-885,-302,-1142,-70,-59,1161,619,-391,636,-731,-1021,146,-581,417,564,-533,-327,-216,-773,-836,426,-43,146,612,-922,-415,386,-623,-646,577,491,258,-459,-1050,-539,118,479,-608,-1011,-188,-254,102,609,1036,494,545,-188,-385,469,-914,1113,-178,1455,1577,6,511,-142,-151,-846,538,802,-626,308,-181,321,1718,925,562,-736,774,-108,846,-383,344,898,473,-1435,-542,112,-68,16,1615,-457,1071,1289,81,55,1075,1467,1709,249,1418,12,-1507,-1332,-1127,-39,902,562,47,576,-1045,-550,693,-1294,-770,-304,-877,-1012,66,-767,-479,996,46,-237,1124,-1490,-2814,-1016,707,-539,564,887,-841,-431,3142,-235,-975,-1607,-457,-82,-314,244,646,-176,-1054,-530,-849,574,79,356,-876,758,556,622,-58,-63,806,-1524,-97,-1038,216,1321,-47,-874,-1182,767,73,28,13,829,-376,312,-868,-1290,977,-1485,-570,986,1171,273,1191,976,-23,1065,633,294,-705,827,-467,-206,-644,-1198,249,-1467,-236,582,-53,-1088,313,377,-166,308,-256,432,756,1197,80,1035,222,827,-614,1075,10,44,-1717,498,3188,-1300,-1130,255,-1561,-256,-120,-109,821,327,-1633,-1001,-294,1316,633,335,73,-114,587,-993,579,-180,447,-84,-97,447,-2093,-1541,222,2265,144,1566,-963,-209,-829,-172,-2058,-39,-1228,210,-1151,1057,-941,420,-455,-705,1158,1209,538,98,20,322,-1239,-1471,-726,70,-1792,-1768,-1897,-725,161,599,-864,-80,43,105,228,215,749,-560,1044,1157,81,-408,1171,328,1021,486,260,-196,322,1064,-440,-19,-861,561,-230,65,191,-182,1279,283,904,169,1667,764,804,-1105,1783,1348,820,1473,226,-448,288,112,-1373,-1180,-904,1064,-1685,857,412,563,-1473,-1145,291,-1468,143,619,754,-1465,1020,752,749,155,-1632,-1000,-327,705,-31,191,820,276,-446,-484,1019,1131,909,-315,-274,1095,511,1,-597,419,-119,44,1336,364,550,810,1120,707,-29,-99,917,-660,843,1376,158,-227,1280,4,-99,1104,414,63,-230,475,275,-117,-505,1440,463,627,-442,324,-487,68,753,-485,-210,-76,-282,-642,-1040,329,1345,-169,-697,-806,-631,873,-431,577,631,-547,390,-26,844,586,-4,-666,521,1383,1233,-580,295,41,-1066,565,501,-262,496,-448,801,674,-1010,-1239,-566,391,-399,2206,382,-887,-1140,-2410,-2655,-2310,-927,-689,-236,-126,-2264,-2466,-379,-734,277,-48,1087,156,166,537,1103,917,-510,1451,631,521,1563,545,1011,1313,1448,1355,1803,-624,-24,321,-1153,705,-1407,-70,442,530,218,-1510,-175,2130,74,914,575,-791,-1118,546,166,-989,-1260,256,-609,-830,617,575,-663,294,-1869,840,1041,352,-15,134,-900,804,-78,65,-733,66,480,16,150,-715,-1086,-206,-383,-266,-828,988,-523,742,-820,722,-438,-706,-846,-10,26,9,-906,-1071,751,134,906,-228,-82,606,1596,-755,-820,-474,1584,-136,835,-851,216,619,-44,-491,92,195,-828,-426,1052,89,812,459,-1184,-295,-1189,-282,868,447,292,255,853,-1174,1213,-1181,586,-29,-602,-1057,-297,-1135,-693,554,-387,836,1325,764,-150,198,-905,-411,1650,250,803,-461,-230,9,1498,-762,1031,666,308,1449,-530,-267,1722,-1690,645,611,-819,652,912,12,169,-261,-302,-916,345,567,-1577,-184,-957,-1140,-1150,475,-598,-392,-1431,-711,1163,-776,993,-510,395,-797,-89,-1033,-196,-162,797,679,597,322,907,173,-245,1444,647,-645,407,-1578,-152,-1794,-1006,200,-1703,115,-1278,-737,-532,35,372,-1267,-970,20,649,-165,-1819,55,-1807,-2119,369,14,-366,-205,-497,-278,2804,-65,1006,-503,-634,276,933,80,-498,666,-609,-341,-1242,73,-277,1604,1122,-328,-712,919,943,-309,-317,1618,2095,1240,2336,1780,1016,-63,139,-1520,1617,419,-216,1883,979,1384,1520,525,-1135,-1085,-969,-994,-1789,-1088,-968,31,1303,-327,-710,73,-634,-378,15,-1320,-268,-889,175,-788,-1153,402,115,461,-998,72,-465,-497,-674,415,-411,1416,63,-925,88,361,442,208,185,84,1839,-356,303,-576,134,911,-463,-1172,-174,609,-488,-692,197,-1989,-391,218,-2,1119,-272,537,-1465,0,413,-1795,-936,207,1111,-493,-409,-454,-1027,-1096,23,-1385,-700,424,58,1007,368,523,-747,-281,-349,-76,-359,973,-476,20,-15,678,-717,47,-92,-131,597,291,379,-746,-621,-677,-392,1038,390,-440,-1008,-1069,403,928,205,-1165,-1188,30,-1381,786,371,-201,271,362,-2024,-1588,-379,-1128,318,-592,-811,-483,-406,-421,-323,2087,-976,561,-1597,-804,614,1173,122,-269,-988,357,-480,185,-1863,1106,-964,889,76,-162,704,484,-1298,-509,-209,363,-592,373,262,1007,45,324,-1273,-1427,-1118,-281,-867,-629,-1206,-936,123,372,494,-380,616,1346,607,-304,-168,-650,-258,-644,-307,-1259,-933,395,1362,589,1263,315,126,1154,399,-544,-699,-592,1230,-605,-1743,-577,52,-646,-633,-690,-1286,1489,-161,98,337,1074,-1375,255,-720,-39,-417,57,-568,997,2258,-802,-940,854,1469,-744,-486,-170,-1373,-156,-197,572,-1118,12,281,-324,-1587,-360,-556,30,-1491,100,-509,-1987,725,173,854,1171,-894,180,614,246,485,777,968,456,1298,889,-341,745,-557,-220,982,434,709,-32,-446,-617,27,-649,-812,704,-520,-805,714,-941,-229,603,-97,633,150,345,461,447,153,375,-805,-560,150,1172,574,-824,1224,-590,-43,51,-670,-567,1264,-969,195,298,140,467,-264,-244,1011,1625,278,641,-2272,-1670,976,-93,350,-359,-1083,1197,-1128,1042,-1306,482,-1312,588,-1235,746,159,355,24,1335,-696,-209,-311,434,-476,-1906,-413,327,838,147,124,-167,-649,82,343,367,757,367,1437,1034,75,1194,-339,275,-296,1772,1095,-381,156,366,563,309,1078,1433,1410,-114,710,1605,391,483,-1134,-1490,-1913,-1537,-1319,-1586,-2922,360,-273,711,1226,320,-1849,-131,712,448,810,-735,26,158,-391,-961,944,-406,80,731,887,36,1609,-1777,-621,-326,1639,245,-1211,990,1526,-884,839,-1155,1390,-603,-46,759,666,362,212,658,-275,1710,-1435,-1554,611,833,294,-1302,-484,-861,-760,-504,-573,441,-1656,-1604,-2309,-2824,-66,-2212,-949,-1543,-787,-1946,-1742,69,-43,-715,834,380,-888,-71,90,606,872,-978,787,860,1058,1374,231,33,643,818,531,1401,194,-335,-811,-309,725,-1322,1531,1538,-567,925,-1798,-165,284,1041,1027,884,1501,386,74,-914,560,302,-380,1023,412,-329,834,776,-1091,-1148,164,1208,124,-1328,534,-213,1123,102,244,-275,-82,-798,-43,1578,-732,382,1361,-70,-36,56,1482,195,-479,177,-1344,-1562,1264,303,-951,-832,92,433,-101,-241,-145,1301,852,-914,704,413,-332,-1177,-125,-724,-1108,-48,-807,-795,-175,-783,-91,656,-62,-854,-884,-29,905,-182,394,1227,2023,-1075,506,945,375,800,547,856,-1787,1072,-560,853,1011,-1037,196,-355,199,-417,-422,-165,-571,-208,913,1193,-388,98,-1072,290,180,-721,-513,1038,-271,-547,1131,805,1312,1775,-638,-68,641,371,450,-431,-483,2756,491,1814,376,-504,1597,1500,1629,501,1238,1301,1388,-84,893,1532,96,374,1183,731,-262,-180,-636,283,-411,985,466,191,828,-236,-228,-796,-632,-947,-705,-679,353,-1477,-1019,-1201,382,-673,79,-1545,566,-705,760,623,-2489,-537,-315,4,1566,102,2166,542,-1283,-467,-1338,195,35,209,1984,-244,-180,-326,2414,577,55,270,496,-528,172,-137,-672,154,-32,1033,-1121,656,313,-982,546,1016,-865,-1591,-347,878,-293,-183,-70,136,-754,-360,443,-724,441,-928,-1084,579,-2014,-2111,-269,-2417,-1190,-121,-853,-1142,-183,-1109,249,-1188,-1318,-1117,118,-346,-131,-269,-58,489,-801,176,1208,758,922,-21,329,445,469,-695,-929,-78,-779,-598,1156,-625,1752,122,-97,-151,-258,885,765,1632,-171,116,825,-1952,-788,-682,954,-1115,-982,631,-1398,-391,246,440,-729,831,1717,-450,864,-1677,-201,-758,-577,-972,995,-111,1197,755,1211,1673,602,-102,-236,409,1394,2132,-75,-672,-956,-820,-217,-1929,-1344,-223,168,636,1342,1907,1393,110,-748,713,-218,-718,694,843,-573,-657,-188,-1573,-828,-802,463,668,-225,-157,-33,254,245,-1168,626,63,68,-733,-49,-571,2069,964,751,755,-529,-790,419,-1210,-399,-317,393,-462,542,1225,-1276,449,1643,13,231,-1005,-320,-39,180,471,813,1631,949,-756,-670,874,282,-265,-1152,-2305,-1084,-483,-288,-325,-1075,386,-1291,-1196,200,-1073,-1127,1166,-176,-1628,-1130,-508,457,-554,-93,-901,-800,-456,-187,137,1749,120,1814,1554,-330,1407,1039,1423,968,442,-985,-1129,-116,-140,960,370,457,-1104,335,166,-50,661,-855,-646,-520,-989,164,-1336,-1191,-1852,-571,-749,887,-624,-1142,18,-1718,228,1557,1354,-654,-421,-1296,-648,-1435,-929,-144,477,329,-206,-397,-730,308,-11,-124,1002,-430,-2105,417,2005,-542,1145,-490,-189,-211,1546,1343,822,-198,732,-1273,-69,-247,636,-93,1333,536,-1789,980,239,336,-238,1130,-42,1330,-453,-646,-1390,1253,-326,312,-847,-600,421,271,700,1313,744,771,828,131,638,-926,-725,-1004,-841,-288,953,96,-821,769,872,-275,599,-698,-414,-303,637,-1869,-1193,1530,-885,1668,483,1292,512,-711,486,-265,61,847,211,-22,512,694,835,988,-270,50,210,-483,960,-1405,1549,-938,-672,-272,712,822,343,-434,363,-1637,314,-663,-2087,304,540,-482,-1231,-100,672,212,-1117,-269,1486,921,941,-575,-573,-1266,-1037,763,349,54,1096,1289,164,746,1558,1372,776,-42,351,1124,390,6,-1274,-131,-776,-530,600,-420,-46,-1338,385,-719,762,1428,1400,1474,952,553,-807,103,-332,550,1235,959,-1001,2556,880,166,421,519,-71,955,1012,1507,-185,-146,-1310,-68,-369,539,-272,1104,549,774,558,-24,525,-242,-1087,1299,0,-733,1643,153,305,-554,1264,-278,761,-210,-99,676,853,-268,1117,-259,538,757,-1050,965,1261,724,1916,1123,2072,-263,65,-503,-495,-692,-860,434,351,-35,158,-541,625,853,-935,-56,-704,552,-388,-19,-834,-768,-542,-333,82,-852,1518,-764,161,-622,-168,-427,-755,-1848,181,383,-975,-938,737,-756,224,-1090,271,823,111,367,-1364,-906,-3412,256,552,-1970,280,549,569,413,-140,1246,-136,632,-170,346,4,-872,-468,-480,-812,-1175,-1138,-1865,-1294,157,-873,675,1288,-670,-174,1227,1677,168,-363,233,1589,-67,1266,-330,778,-726,-112,446,-153,767,262,725,96,63,861,-202,-858,341,109,1031,459,628,523,480,128,-17,-686,-308,113,505,300,-885,-839,-119,-922,-473,-707,-1210,189,1087,-320,-889,-449,322,1358,1400,1995,-16,-817,-318,194,77,238,757,68,942,-1914,-299,28,268,-523,-71,-945,-32,993,723,1815,-1241,-1618,-314,56,152,-711,-1245,904,424,-1417,-837,-295,-488,1130,1840,-759,558,88,-14,480,306,1363,346,-236,-1324,-283,57,-195,-839,1227,669,442,838,525,-695,1216,1705,1725,1884,1457,307,303,-631,-699,-130,-1084,-416,-888,924,84,484,-584,499,-1081,-280,887,1412,-249,-1158,803,373,-1115,-335,-1572,447,-552,1373,1404,-672,194,-1567,661,1393,-48,2242,-226,-197,1447,-337,391,-795,456,325,-5,-1960,1275,349,-564,-639,42,-738,-134,1542,-83,-1247,1454,-369,957,962,140,497,704,-412,69,722,378,-853,2193,1229,129,-406,-1077,-275,-407,156,745,-376,138,975,-472,248,707,938,837,151,-517,-46,268,-911,-387,999,-840,1151,647,694,465,-698,-950,723,-48,191,981,-677,339,-284,531,299,-793,-374,287,816,-1026,1010,1750,-152,-216,-102,-597,-257,522,1919,1288,-31,1048,-332,-230,-838,-77,614,163,-223,232,-243,-604,-17,206,1924,-246,267,54,687,896,1341,-1165,289,-1462,71,1806,1292,-477,1337,-486,712,578,1158,523,434,1416,-609,-402,-195,733,889,541,733,-687,-869,748,-282,279,768,-426,-639,483,79,-536,1362,495,1349,599,-278,-277,737,599,625,-663,-209,-1687,-1319,-225,-864,-306,463,-499,-395,9,792,2120,-1143,798,-388,984,597,861,-1509,852,-240,-397,928,-1011,197,1392,-82,231,-1150,1314,-177,-345,-270,-167,-606,-262,1173,1236,-3026,-1357,619,1055,-457,9,-1176,-92,-319,-1646,-213,-292,-364,-1189,1597,-1490,861,113,-478,229,-515,578,-97,-1072,-434,-356,-327,-429,431,-1071,-196,1540,-1163,439,-1768,-468,784,-1777,-196,388,-490,423,-424,-845,-1168,409,-997,-1681,-980,727,-464,-875,-964,-745,985,917,1460,2016,79,1466,2774,-335,-499,-318,-2571,1674,-778,-2215,233,274,-407,367,172,-1041,-372,99,1898,-118,507,360,-962,-594,-974,454,-639,-1285,-591,16,-927,-1314,-654,449,-818,336,175,-1419,-102,-1071,-74,284,-465,707,-1574,424,-511,1264,361,-894,50,1084,-335,-1151,-945,-871,-838,-234,653,7,-833,-205,22,-936,456,-698,33,928,-828,-619,-471,-647,1164,-639,-94,-720,137,345,-51,-795,230,-819,640,-821,-448,475,-555,270,532,-268,-27,814,568,-27,-710,56,745,1059,-653,-378,-659,-361,1259,-107,385,-1168,-338,87,-420,-173,69,463,193,-113,-376,-705,-628,-1038,194,-578,345,737,1822,-731,268,3,625,-473,-1751,785,-242,-26,-420,832,-1489,-138,37,225,-198,-657,2,1068,285,-745,558,125,-364,211,1121,-971,355,594,507,753,1460,30,1309,655,1323,-205,-222,-130,35,297,917,577,1062,1339,-621,536,609,1046,295,610,271,65,-410,-23,60,-2191,-45,-235,927,91,-874,-1580,-1290,314,-190,759,-669,787,384,-657,272,183,-570,15,620,-119,-753,-268,-413,292,-441,-455,607,-1178,443,553,-520,-708,1102,-108,486,-590,-985,-23,71,-352,-679,-718,730,-374,-1663,-1844,-1118,-116,-1321,606,54,-806,-227,291,-112,603,1150,480,851,64,1099,343,387,165,1226,1524,1476,1018,-1496,-1644,-766,787,-727,184,803,-749,-268,-247,-1175,-1280,433,-830,-190,-539,-745,-1017,-249,750,438,-622,222,34,562,723,381,2,472,-832,651,-877,-1546,-163,149,-577,-24,1141,525,-452,391,527,-147,-351,1058,-1841,1297,599,-874,-722,-805,-841,-567,-1722,1048,773,-634,-1018,422,-537,-425,-1622,-1172,290,284,122,-67,1025,-692,-725,-733,169,-241,-1066,-1717,58,-27,-172,26,189,-66,274,1173,2128,1473,1615,60,-249,-351,-203,358,-1322,-671,-113,1673,-423,-1059,959,-299,-545,661,-1083,-1100,26,32,-1676,-2378,-198,2330,-2101,264,-61,1362,116,888,-453,-284,116,-4,-447,559,228,-863,245,373,676,932,88,613,493,260,1267,104,768,-82,-94,1930,-361,386,1243,-449,453,838,-2417,373,161,-392,-346,-107,-837,-700,29,-897,-1168,710,-455,675,1709,-543,62,-1336,-625,-508,-158,-99,806,139,648,735,801,487,1523,-487,-794,-376,-708,-388,779,342,-783,-274,-194,-561,6,321,-595,14,665,178,-334,540,287,566,-725,-1404,998,-739,-2505,1491,-519,2622,-1069,-2001,-1035,-1124,-55,898,-387,505,-885,-1212,-196,-892,-310,2630,1245,766,726,576,-168,413,1791,-2301,-666,-354,1767,740,-801,-84,734,-1431,915,374,302,471,-299,-350,-1775,2459,222,209,515,842,1765,593,-536,-1236,710,-2021,-1066,-741,-992,29,871,-468,-544,253,-1009,-621,180,681,-370,260,443,1040,-891,40,-440,1379,-189,-884,-618,776,-52,-857,270,-1153,303,505,1001,-1466,-832,-2445,153,-734,-881,1773,-701,564,-711,-401,905,-605,201,935,812,-275,-882,-251,506,956,-174,807,-1988,1056,-589,-765,619,-146,1223,673,-93,-831,311,-108,282,-130,1629,1857,-289,-703,-436,122,238,67,551,1924,643,-612,-409,-1292};
const static uint32_t LSTM_01_weights_cell_dims[4] = {1,1,48,88};
const static ConstTensor_t LSTM_01_weights_cell = {&LSTM_01_weights_cell_x[0],&LSTM_01_weights_cell_dims[0],0};

const static Weight_t LSTM_01_biases_cell_x[48] = {1801,1671,-3234,3474,229,1845,3773,-2411,2110,1570,-3254,-1332,-1537,-200,-2287,-2809,1396,-2936,-495,2648,73,2139,3175,-260,1841,2310,2064,1971,3767,2507,-2773,3520,-926,513,3263,159,3807,-551,-1728,2757,-1965,-2552,-690,677,2808,3070,1251,3514};
const static uint32_t LSTM_01_biases_cell_dims[4] = {1,1,1,48};
const static ConstTensor_t LSTM_01_biases_cell = {&LSTM_01_biases_cell_x[0],&LSTM_01_biases_cell_dims[0],1};

const static Weight_t __attribute__((section(".weights"))) LSTM_01_weights_forget_gate_x[4224] = {-920,106,1171,-909,-61,3,497,-992,779,709,999,-9,-438,92,309,-439,-149,665,833,1632,560,1118,1294,879,-262,1200,751,826,-178,-159,1973,573,-473,-605,-482,228,-612,694,-370,-610,-978,-63,-335,1139,187,1001,699,-104,625,562,119,-9,516,249,-919,-183,-1243,-521,982,1636,438,427,15,-1963,-660,839,154,-1210,251,186,-265,784,-315,918,-840,-941,-647,800,928,1760,-1197,751,918,-277,1132,-113,671,293,882,894,-91,834,-1028,-2,-455,654,93,731,787,652,271,729,597,-404,134,865,-1143,418,-35,887,-752,601,483,-1090,-1058,547,549,169,-789,-88,635,560,910,241,104,1266,-462,-450,967,629,-1266,1039,-537,318,554,-1684,-179,-646,-1232,41,-468,-1147,-1220,-1370,-307,7,-713,2497,774,267,-999,57,121,-493,818,604,173,622,295,2084,-378,-209,1049,-669,-871,693,-252,895,-245,-11,-2158,511,-143,598,-713,714,-679,981,54,-752,-57,-517,-515,1146,-311,-775,-697,-371,-233,-932,39,-161,834,136,-103,1020,-60,416,576,-192,-777,615,418,847,156,830,1044,380,537,756,-824,168,681,169,79,67,-124,323,102,1039,-261,331,53,-287,-829,-355,509,-99,-1278,70,-359,456,817,271,-376,-1202,97,988,-160,1396,-607,-390,227,-1733,-740,551,257,93,-159,95,1491,-792,-508,512,811,563,441,-364,222,1133,410,-1658,26,-60,70,33,417,-389,941,-793,-839,312,111,219,1115,-397,-318,1059,-38,995,1023,-183,561,525,239,-553,358,498,-89,787,572,-159,341,44,-1101,-202,807,-902,-51,-693,-1082,311,-109,-1002,-641,167,535,1176,1918,-737,-333,159,-425,475,-292,635,215,-83,189,-395,-220,838,36,352,-929,188,-471,-229,-365,-125,-953,906,-254,-204,1181,-232,-122,713,232,-710,487,1227,-1245,-823,-353,-777,306,-737,-157,658,94,1353,1778,1053,1029,1666,1338,-398,576,-486,1115,-365,1202,-278,24,880,618,473,-471,-725,-26,284,-122,324,1264,463,740,806,234,-191,1003,1033,-268,-949,514,485,145,-959,13,-131,963,-593,-441,295,221,2,785,-790,165,-1192,-286,-923,1275,3,725,-853,686,420,831,-383,130,266,-1273,-169,523,423,268,-1149,901,62,-1275,382,-975,-303,-738,745,-635,585,-199,-87,12,-416,-1378,93,1070,365,-1125,917,11,672,532,-281,393,67,-143,-631,180,408,-687,1237,-1170,-1582,-133,819,204,-63,-396,401,218,-1031,880,862,-1433,861,410,624,694,679,-228,-248,-756,-47,1021,-690,351,-129,-166,887,-400,-5,329,-147,-576,-360,-694,-1837,99,-270,1307,1295,-1272,-212,-252,-749,-2093,-382,272,305,468,-1575,1171,-1130,-492,-719,780,157,-1409,646,-1133,-199,692,-753,-964,-1371,127,655,53,-566,894,905,-250,-283,423,-589,109,509,633,688,-633,578,-233,-1015,-1151,947,-359,-667,-11,-122,820,-569,-1048,447,172,-11,-1126,-1251,-264,-10,16,-31,731,497,-474,-899,416,908,-495,335,321,44,-68,631,450,-612,704,472,-73,-74,1319,286,1540,129,-276,-600,-882,310,1346,273,-781,525,-631,-980,154,1021,690,-217,-76,113,838,-118,348,-1094,-175,669,-33,-462,84,554,470,-9,-1070,-801,519,284,-592,155,1322,-1200,-227,571,9,648,378,-507,-658,756,-776,948,1117,-183,-584,379,-147,1036,-432,159,-752,110,789,229,664,907,428,147,428,110,-411,999,913,420,318,-883,-686,712,575,-600,601,484,-223,499,-915,639,213,785,141,-166,-572,39,988,526,-1126,-17,-256,181,-646,452,758,102,243,-372,723,-552,-837,2168,472,-871,-639,-197,761,-30,-261,1305,-175,464,-712,-989,-1069,-145,-293,721,418,101,-1093,58,364,-671,163,447,-61,141,137,604,98,-1130,-668,1038,-760,-457,937,29,102,288,347,667,-265,-254,445,457,-300,519,197,835,315,-851,313,-129,-861,-872,-14,890,545,699,588,-101,303,-117,1114,702,192,-446,524,568,-132,-123,-145,757,-89,564,-570,460,132,-945,869,489,-596,520,418,1494,-486,680,-212,-294,-368,-171,-752,568,937,1230,1254,-21,-870,-150,298,158,-955,-1032,544,722,-22,-400,981,-720,-533,-521,-488,382,323,246,784,-977,-200,228,-1262,-290,-209,-910,-1020,553,-523,18,-1049,-612,-45,-629,-184,-1019,-549,532,18,-987,-1010,-350,432,1029,-174,-744,756,-804,-763,-572,-302,909,827,219,-94,944,0,1023,670,913,-120,448,509,798,398,454,-1295,588,-137,-263,232,-213,66,-180,66,1258,-91,193,-605,619,289,-413,-769,537,-136,260,-45,-960,1098,543,-468,1103,180,-1674,-32,-112,-76,341,687,1180,156,573,1520,238,-431,-961,-689,492,248,-624,-367,1693,1395,-124,52,1156,1144,335,142,-89,1565,-653,1521,895,1041,433,-864,275,-629,862,-978,-19,486,128,-326,-244,-704,417,-401,1088,-381,31,-220,1127,543,1210,1161,23,-322,-221,235,911,-835,-717,-70,823,267,-11,-164,142,-871,42,-1099,-1127,-1076,381,-459,189,336,-294,-303,55,-2031,-1566,1333,-221,-584,-208,-1089,-301,343,-141,-566,917,965,428,-317,-710,647,126,-964,1212,-255,228,706,184,765,-687,945,899,-291,908,-293,377,-1248,-818,573,-1047,1291,1161,249,-14,-1014,-69,196,170,1052,669,-299,70,851,-258,-738,358,1308,794,1513,-63,-420,555,430,184,-60,-387,777,1343,930,810,135,-904,249,716,-290,-985,-556,445,-1218,152,59,-468,-151,-685,584,35,-329,-404,-387,-303,-1755,-1030,641,-729,503,-1505,473,-95,-340,458,-342,606,658,-762,19,-1128,221,-238,-881,339,57,-633,-764,1243,1457,345,483,-121,-1070,-463,-1379,740,154,-425,1715,1143,254,-211,1573,-140,-250,-556,348,-491,-444,-153,209,215,1680,139,990,-123,202,-281,-690,-510,629,525,-465,-96,503,108,-244,23,-170,485,-339,191,1151,1,-218,79,-327,1042,-158,-1060,-200,1243,-952,-1028,1186,-531,105,375,-1129,-256,-359,1378,1160,634,920,361,-1742,1347,470,-645,-278,374,578,201,-237,-1385,595,-817,956,-1051,-1396,-462,504,585,-954,-123,312,-530,-1272,-82,-1646,9,-222,432,-615,1018,655,59,488,-794,-739,793,-760,470,-520,-741,-572,-336,218,395,-300,-592,171,1247,-691,-680,-280,567,204,1376,-272,735,-176,-194,828,1201,111,-799,-945,-390,354,-588,-1164,370,-1877,1875,452,-433,788,-1436,967,921,-1442,1344,698,-53,-734,-444,663,1046,718,-1257,845,-1500,291,-479,362,-942,-395,-1119,1318,-977,65,-580,2074,-881,128,755,149,866,-320,204,-1164,1175,-1132,-785,-516,533,-121,-890,-38,-1407,-53,-568,-115,-510,-902,15,778,230,665,654,202,-1026,664,-293,-813,661,-145,939,-191,207,-448,-800,589,-842,-318,-1166,-50,923,775,-435,591,840,-602,1243,-717,29,111,-566,46,1201,-257,1672,-714,-2558,-1343,544,-308,-221,867,533,1911,-1152,1043,1521,1232,669,-487,-430,-712,480,-663,264,858,-1084,523,83,1269,-276,959,-352,-315,512,-885,-1228,-1102,1372,-1212,-173,-315,-696,722,457,-558,-1211,-688,758,-67,-103,-538,-1101,-246,-35,-133,-911,815,-404,-265,718,-383,1176,1119,696,-767,-248,-361,84,-1005,658,-910,-876,682,163,-66,9,580,793,586,530,-1036,-971,648,-1092,-1202,-1308,-204,1039,36,-971,101,-1930,266,239,-907,718,977,992,-25,421,-356,179,1324,1103,-698,475,-742,-1004,-195,-624,68,-216,671,-325,-993,-652,-45,-746,533,-190,579,-416,55,-469,748,-21,2,-304,-1032,-820,-760,-657,-265,-765,298,37,309,-851,702,-486,298,-604,-410,-938,29,736,820,99,76,-370,-211,1044,457,-554,-337,103,290,-337,-1008,-163,-84,549,-902,-209,-1350,-582,-280,386,-336,331,-760,310,-648,-872,863,541,-472,-96,244,-176,707,-363,1724,974,-323,-196,-899,-388,153,-86,779,257,602,-1006,-663,-86,191,-831,-515,-402,-341,-1300,1411,-224,315,-461,-852,269,-276,-320,-236,1177,-295,221,-280,-780,-678,-722,1101,1025,-1093,-1193,-243,-644,-708,85,-171,195,-487,-1036,375,599,-805,87,-376,-724,-417,396,-1260,-909,319,-383,-256,-114,355,623,318,1008,1174,467,-906,117,215,-1037,-679,31,151,-364,-1170,-241,-6,-169,-658,-400,-787,-73,-210,-239,-1157,-1213,83,-20,-295,271,1360,-877,-425,461,728,1462,-1051,279,-157,-202,265,334,-1861,-625,-2057,2356,481,-221,-951,-691,-1446,-969,-1568,-2143,-106,-831,-406,1172,-381,-635,763,176,867,436,-1214,-30,288,-566,871,1084,246,370,-50,-569,-203,-1066,461,-892,585,-555,1149,-390,977,-632,477,-799,-637,1222,45,584,-481,959,-796,-824,162,1023,-437,-189,488,461,-185,17,-176,65,-1058,-615,-72,-983,41,-62,-830,-563,-889,-1147,-530,53,987,485,-544,184,-139,740,-819,388,798,-516,789,73,-318,28,35,-388,353,56,121,536,-816,-762,311,-497,192,14,-1417,224,-864,-439,-1276,-1201,-1602,788,-416,98,869,401,-1039,-362,946,184,-499,609,-244,-605,775,854,-395,-818,648,-582,-566,757,976,-351,383,864,879,518,640,844,-253,-445,738,-886,1119,896,1149,843,-667,162,-139,-556,96,347,110,-12,-1631,1052,-99,-575,1168,1214,135,466,-257,400,-916,904,-161,-1195,306,628,-64,360,282,590,495,-314,388,460,-420,250,-658,-1065,59,1017,-234,263,1093,147,-951,877,1019,-377,-216,763,148,-991,-888,-188,42,537,-411,-570,233,-280,-635,17,-1041,342,-335,-475,-284,-528,643,684,1044,1285,626,395,-854,367,549,808,-648,-102,-583,-135,-613,387,-641,819,348,-1411,537,409,-1320,-319,-1458,744,-1660,67,438,-1310,-95,-406,-768,-1119,-479,-197,-1015,229,-198,1111,436,-420,-767,-1909,-403,224,1096,1125,250,-1357,-627,-864,908,-718,-120,-628,29,1833,326,465,310,478,1123,1075,-308,-232,-1186,154,-732,-580,976,143,667,-127,702,-963,-1014,1477,-946,299,800,106,83,1089,503,-238,1307,1332,990,-590,401,1399,815,-481,423,-357,-398,169,-238,361,1020,1016,74,-445,489,581,531,1105,355,-853,372,547,285,494,435,593,-1216,141,-1374,-1196,-695,356,-636,-416,-951,-777,905,1058,-624,-118,-801,-512,-235,-516,1287,381,433,540,-167,-168,517,-256,-482,746,-500,1052,-274,619,615,-20,606,-870,-11,-384,-933,-1395,-672,-208,849,279,-40,278,79,616,1289,-268,1203,-304,1012,-1323,-692,365,-870,-321,-549,-393,-538,-193,904,820,563,355,621,978,-817,-584,-628,-1217,234,30,262,-229,392,468,639,-615,-128,612,-4,267,-405,-68,669,973,796,-477,-979,1192,61,276,733,1107,43,-543,1286,524,-435,916,301,-608,715,530,-451,-1127,-701,204,-1412,224,-1340,-767,727,1261,1775,-611,569,-915,195,-206,1053,22,623,-431,192,-82,552,1035,-100,-1183,362,631,118,1099,1018,370,508,-447,285,379,182,-512,801,-742,-160,1568,-396,546,-201,334,381,-268,426,-829,-861,331,-458,115,735,-887,-515,-892,-322,1108,-499,-984,-4,359,859,-1328,-1143,-795,101,633,-1546,-335,-422,-208,35,-369,-1326,-355,-760,1060,-694,-71,-1093,25,420,-273,-32,657,771,894,-611,-177,172,-271,-578,-45,414,-523,-339,424,307,372,970,928,-202,905,60,-1752,-296,-505,-67,-484,-177,-1193,481,-936,-852,-81,-308,-202,-136,967,944,380,842,-219,379,-145,248,1316,1179,777,-87,-493,527,829,129,954,357,-126,1113,827,-432,647,673,-372,869,446,-905,-151,53,1029,141,1156,1160,798,-182,1004,1304,1064,856,-9,-282,316,-1128,1900,1358,-1183,411,-2419,-474,939,1103,-1059,-286,-463,-945,-245,-1064,1294,-1337,-620,1035,1071,819,67,-33,-1117,-1023,-3,-94,64,685,-489,-432,295,990,1282,556,761,851,1059,-1089,-336,915,-125,817,1369,-1024,-515,827,1121,-569,102,-540,430,166,-385,-1203,12,-940,-348,-1113,274,793,-642,-942,24,-677,-524,-367,-537,238,646,221,540,-1111,-229,345,810,864,838,-1159,602,206,-533,-39,592,-653,1042,944,129,-1075,165,-807,-287,506,-938,-152,-912,1529,-690,-763,-974,360,-898,160,-221,384,-329,689,-321,414,-831,-80,-1163,809,-763,606,-746,169,295,547,-689,463,357,234,-772,1206,327,-331,1210,-2183,-140,71,101,-1077,-762,-204,505,1136,-299,1127,-114,-91,-212,263,1090,86,-650,1143,-717,1018,1387,1213,1385,1540,421,627,1528,1274,688,-396,348,1106,1624,1099,773,-188,-402,879,347,1036,-433,-143,628,1301,-1305,-53,-501,1095,295,1313,-989,-380,-926,85,267,408,561,-226,352,-390,491,893,507,-56,616,977,-103,-513,417,-565,-340,173,-543,-94,123,369,1404,776,-893,-183,-630,796,1062,769,-314,-1356,1132,229,797,256,715,-15,-396,569,-511,738,-1283,-981,-114,-551,481,591,-16,1175,-390,-345,-707,171,-31,-900,-78,-372,557,168,-686,1168,-672,875,93,-1085,-488,302,351,241,-195,-743,-734,332,388,1028,769,-809,-604,-21,-234,-149,-1072,-143,416,26,259,462,864,691,-314,-1801,799,-867,-594,-87,-174,-1225,31,-717,658,-976,104,-931,-139,-337,334,1498,-750,764,914,1012,716,-294,1306,362,347,362,454,643,104,461,314,-54,279,-289,639,556,381,1105,576,232,-283,-21,-334,1824,1312,1764,815,1087,-530,-108,947,-13,-583,16,17,24,-46,1203,-469,1038,-627,1155,-1020,-725,479,-113,340,256,-388,-286,-831,-101,423,1057,-158,-1506,590,37,587,-790,-1495,-281,-308,-206,757,-692,464,112,-852,-1484,226,-257,694,479,-1004,-1040,-684,-1157,-474,1172,-1502,-692,-155,-158,1193,280,612,-888,32,-73,-741,363,-197,727,-761,705,324,285,146,-121,-239,297,-1,1501,-470,-461,-378,430,1153,899,500,1097,-649,284,-461,238,-236,-245,-384,-805,940,555,936,1188,453,-476,510,-362,574,852,1002,-967,-646,1605,167,1486,440,1444,1683,749,2180,875,-1467,-1582,552,1235,633,-1459,-929,-932,1129,-487,1466,1346,-397,793,-701,-284,-626,-754,1031,-125,991,1641,-632,264,-69,940,98,-731,1475,743,-135,-1718,747,-1,906,-1302,-369,-1199,1728,-123,385,-1180,276,-556,-1183,-1274,-63,92,-124,117,-710,242,-224,360,104,284,1110,-190,-826,1063,630,108,-445,623,893,-952,-605,-432,-2,208,573,242,-571,-681,-866,343,988,-576,-318,477,-554,-803,95,-722,-1058,-40,-912,-49,-1162,-565,772,65,741,487,-589,-615,153,-1007,597,-1255,389,-73,528,-73,479,207,368,1246,-103,-274,-321,1337,1194,1014,-378,491,-641,1293,272,-9,-1008,243,-279,1593,1344,579,-810,850,-22,-685,1851,336,77,-444,-837,575,565,752,-377,-923,112,-7,-72,1153,582,1123,-37,-159,810,-500,1480,410,509,-1205,-1112,-429,-507,-317,304,-1204,-635,-761,814,-420,574,168,-735,-365,1130,534,169,300,628,-629,1152,-1129,-744,679,-205,-1016,188,517,443,66,167,816,-1077,-1864,-305,-999,496,424,483,-1416,-158,-1024,91,300,430,-657,364,941,93,153,-779,-88,-545,134,1090,-1328,-213,894,-634,2,-155,-1236,-574,281,525,-658,88,672,157,-362,1513,-139,622,-15,-392,-254,-160,555,-35,-35,-1003,-769,362,527,143,-785,459,212,823,28,415,-354,-708,1134,699,298,415,1134,961,-650,-347,-778,40,69,806,177,150,516,-480,-671,262,-1280,-243,1395,-530,-56,-544,1318,-514,308,-1217,-566,-1300,525,-1320,-618,89,-421,-312,-1499,725,-86,-361,-336,10,153,278,-1262,-629,-53,-669,1161,171,461,-178,-249,6,-577,-227,785,709,-577,1029,-222,-1539,-1637,127,907,1139,628,1016,123,59,-706,-348,35,258,-227,392,-132,602,-836,328,-971,850,-595,1235,617,788,716,-749,-970,-737,874,-1136,-521,-420,748,-33,865,-804,897,357,788,187,-453,-787,-191,-294,-185,-150,109,1146,-516,-1241,492,1251,925,432,609,-461,411,156,50,856,-81,1323,2238,326,-65,-417,-263,-790,1506,-561,-746,-1149,-704,-73,-23,-805,981,-804,1714,362,-61,823,536,1099,-8,-305,721,-457,1522,178,-568,-885,-78,359,-469,1401,814,-334,1625,30,1146,1090,255,-1052,1187,623,268,-361,97,-201,821,523,1190,-259,1058,800,592,1047,108,1547,1656,1206,323,1219,-395,681,-94,946,-661,-374,-838,-36,-1749,-1213,-587,278,-337,-847,215,-1144,-1481,836,-1132,43,-2270,247,-1274,-1101,-11,698,25,-25,655,920,1363,-452,760,263,-1644,-546,462,1258,-613,504,884,-1720,-494,1108,1427,859,12,-439,-838,1333,932,1239,-39,1922,81,-302,-695,255,-806,590,-689,720,-193,103,-259,81,1100,1135,642,-1028,-412,542,-965,-640,416,-1043,-1097,-861,1078,512,725,-336,262,611,130,734,-40,-14,1262,-74,68,-1048,822,-964,671,-793,940,-613,-1654,-126,780,-610,-69,-481,-213,1623,-3042,-1124,-1260,-462,-1051,-1103,165,803,1845,948,674,87,2242,349,-70,-213,-864,-288,1784,169,-1176,-1003,2041,-1808,-393,-301,-482,471,1501,-374,181,830,52,-1144,295,364,1672,907,-76,-875,-1260,841,-861,1111,1113,1305,666,-526,-180,-719,-653,264,672,1197,-115,643,-451,901,669,358,305,41,1398,136,131,586,496,-256,1119,652,55,622,-365,-322,710,905,-941,-808,1981,-939,-807,-254,-1662,-570,1594,-255,362,-324,-637,-661,-774,-386,-576,-88,55,-1417,931,150,-819,-171,-449,63,334,681,434,195,-255,531,-164,259,50,697,910,-1628,-1288,300,-853,-534,-179,-252,75,-523,-313,101,16,-434,-1480,-1404,-608,435,302,900,-327,-162,145,1201,1268,-547,-870,-792,-962,277,962,834,-743,89,347,-112,-1079,95,51,-53,-638,999,-291,-514,706,914,255,-586,-454,703,-892,-51,65,633,804,-749,-551,27,1970,-785,-555,1342,-592,906,-392,1038,1521,-550,-557,-88,206,-88,418,343,146,-570,-846,-1379,127,40,1118,-308,335,456,-348,-52,374,201,49,15,532,-45,-251,427,169,492,-152,-969,593,-481,401,-690,1093,337,-2,941,-602,-517,273,500,-376,-112,961,-613,345,-141,468,-544,-349,1010,-440,1173,381,898,271,1427,-215,529,544,505,-641,-117,-1013,-963,-536,-363,-803,-792,-185,-593,757,-1347,-762,523,-1285,-1019,-933,-236,145,118,605,-716,-1712,-870,-372,562,-476,338,511,3,1425,-188,702,166,-83,955,-44,309,974,-148,-415,370,-1412,-335,1773,-236,604,124,31,1708,285,-227,-162,-51,-1101,-1960,1323,-312,-956,-232,-1137,173,400,-885,755,-793,942,971,-392,-967,480,-852,291,-705,654,-935,82,-289,-249,1001,1066,313,-25,600,-745,461,-207,362,627,1064,849,62,1092,-594,-1169,-6,-494,335,955,-719,890,1265,221,563,628,384,289,1264,-921,-397,40,-258,-719,-96,-619,-645,460,598,947,495,328,-289,159,-937,-687,528,-514,307,-1130,-686,269,-210,176,339,-688,30,1271,335,-264,-1451,258,43,-33,335,-297,-148,-192,739,1393,-395,-428,255,-259,812,-553,-647,1510,711,-19,100,969,241,68,1172,1196,1298,747,-585,-260,-569,179,-209,-527,-584,-552,710,1062,443,-511,465,30,-245,631,503,512,76,360,660,89,1518,638,1631,990,-524,711,7,426,1181,-16,1022,-1887,-735,716,1126,1401,767,-951,-162,682,1812,416,-517,1828,419,-250,-449,246,-228,-804,-735,-17,-1070,-11,-527,307,396,1742,175,-1401,461,-41,-368,-117,-524,-675,-1692,-302,-1004,-1030,-788,-615,371,260,48,476,260,-884,-477,277,694,-170,406,819,328,-734,1223,-118,-711,746,-394,-697,1236,833,88,-353,726,-788,-593,-454,394,-488,383,-962,731,422,11,267,-785,-1298,565,839,-242,275,-240,722,-121,2,-323,-1635,-193,-246,180,1489,469,-972,554,-1193,334,-556,384,954,1034,-494,745,-1231,-1135,-797,968,470,-1277,43,1440,360,117,-705,-1378,540,790,-165,-480,499,-796,314,208,-792,948,160,46,1024,16,-846,-390,843,492,128,-337,31,-293,870,-44,40,1005,-635,107,1,499,-490,-928,-660,621,786,101,-216,354,-453,386,-1031,-609,763,606,779,-172,335,-320,71,869,-913,101,382,-1551,-127,1529,924,167,264,-504,435,1193,977,-567,363,-928,-402,-1257,-1156,13,727,389,-109,272,-816,-586,625,1043,674,399,-420,-1278,77,381,-370,-52,770,688,-536,-348,-409,-124,-1487,-50,546,-110,1641,1379,393,427,-509,605,659,808,-658,-963,-621,-63,1215,117,899,-283,758,-76,1254,-241,315,-227,-173,-265,-349,1510,-194,1299,371,-551,-242,-23,449,-718,67,-639,-651,-409,389,-107,-57,-474,306,331,304,-514,421,-823,538,-77,484,-136,-479,-367,274,-421,-1479,1054,998,-822,-698,134,691,325,269,932,809,305,533,-716,387,265,339,-249,-1366,1624,292,-228,9,-274,556,632,1155,287,906,-1021,836,615,-831,-1004,696,-297,183,174,-1196,-27,391,-121,543,1274,-146,1274,633,1265,-684,-172,-628,-471,221,1130,381,209,-236,900,349,-309,-636,863,-485,376,-45,-605,205,498,3,-353,-152,714,-1146,982,-443,-151,1150,-229,830,-754,693,353,443,-47,-100,572,-79,127,-12,65,-271,1280,1274,228,-3,-940,108,1012,-281,-309,431,665,541,310,17,-145,-638,214,582,-1564,18,-1038,114,-331,-699,129,-710,-1201,-132,-283,1193,646,-215,-11,-181,-1182,-239,-302,-302,-662,441,674,-102,-450,-772,-454,1028,-338,1091,877,-407,307,89,-58,-285,-960,-404,-607,-123,432,1002,-213,712,-71,-341,-558,1107,-337,546,-673,213,-1035,267,1157,-790,-1491,610,862,1128,-499,-586,589,-267,-1060,-1379,497,-196,1059,-1929,-123,299,1480,144,-235,33,-415,-526,595,893,369,-443,-827,311,-645,787,1067,481,-731,381,-181,-592,-146,155,290,-837,-708,-324,-497,-93,-778,-792,349,84,113,-122,566,-666,-1096,656,83,-537,789,147,86,-418,330,231,-838,354,234,-240,-352,3,-511,-5,-963,32,-422,-393,-356,-545,-505,-466,-762,623,670,-2128,-166,-660,1478,690,-492,-1500,-733,-760,767,-847,-175,-25,-1861,1467,-299,173,938,-101,1608,147,-666,-1444,453,311,-654,748,1283,341,-850,1135,-1450,-137,654,363,-961,-445,-1975,-421,546,384,-683,-2590,-950,1606,0,-1902,656,1262,680,447,-827,443,1092,-457,111,-471,855,-648,135,47,-256,346,-501,137,883,390,-172,808,533,-151,719,710,-163,-651,1041,-335,-84,-605,-1108,755,668,955,-579,-99,394,-200,-566,-62,76,610,651,-763,-1150,-1015,-1423,-6,181,25,-440,-153,-348,-614,1575,473,458,902,1823,-163,520,671,-47,58,278,-125,-123,-248,-828,560,713,-1663,-497,576,1212,-378,-190,-1250,909,819,-1042,195,579,652,-552,232,-327};
const static uint32_t LSTM_01_weights_forget_gate_dims[4] = {1,1,48,88};
const static ConstTensor_t LSTM_01_weights_forget_gate = {&LSTM_01_weights_forget_gate_x[0],&LSTM_01_weights_forget_gate_dims[0],0};

const static Weight_t LSTM_01_biases_forget_gate_x[48] = {2089,2061,2363,2263,1718,1535,1283,2162,1949,2161,1867,1571,2036,1717,2068,2079,1941,1923,2095,2429,1829,1645,1777,1791,2156,1934,2616,1679,1205,1745,1835,1541,2121,1725,2440,1867,1696,1936,1784,1980,2081,2195,2196,2055,1868,1963,1956,1624};
const static uint32_t LSTM_01_biases_forget_gate_dims[4] = {1,1,1,48};
const static ConstTensor_t LSTM_01_biases_forget_gate = {&LSTM_01_biases_forget_gate_x[0],&LSTM_01_biases_forget_gate_dims[0],-1};

const static Weight_t __attribute__((section(".weights"))) LSTM_01_weights_output_gate_x[4224] = {1407,969,-267,425,-620,664,-1136,-611,-479,902,-1326,-728,727,-347,-746,-608,-260,909,91,1314,-392,-30,314,1560,88,-410,1129,1115,-487,1650,1742,1184,328,-135,8,869,678,1514,117,261,-125,-611,-1438,1139,-52,1221,872,-280,-71,384,-791,1501,-660,759,1,-709,-916,-87,160,1195,762,-522,529,-821,-361,-612,1105,-329,-29,-930,650,852,-491,-511,582,1027,676,1223,455,2193,-782,-1248,-576,-799,93,-1462,-108,928,121,293,1291,861,146,602,70,1531,1427,46,199,1017,262,-362,565,907,234,580,-84,50,1128,1236,1492,492,794,794,-625,266,-337,-650,372,-730,483,1100,287,165,1212,671,10,645,-241,677,-839,12,649,163,448,-867,622,-583,46,1063,-188,-1022,86,16,-1384,933,-290,1277,-340,497,-1104,113,0,-361,1652,382,-114,538,559,-69,781,-860,1366,-1257,485,877,2,391,-744,97,-1036,156,1924,1293,589,-106,-755,-839,-677,125,-895,-1268,-1589,-203,-527,-1502,47,-500,-118,-488,-967,-655,-713,436,-1321,-115,221,-648,-1192,-1431,-1502,-1029,-921,-650,-1399,-52,-1594,-16,-1331,-135,-1036,-2094,-1500,-354,-253,-390,1190,8,693,-878,-920,-327,230,-405,823,-282,241,95,486,-318,251,-354,1799,261,878,-434,-49,238,-960,-475,-150,655,-643,32,1042,-674,484,-639,1550,338,-2044,-557,-45,-469,-531,-357,1031,386,104,-351,689,395,-659,16,-1137,-1328,-505,-1179,-432,-1735,-1222,298,416,-459,-1342,4,-73,-862,147,-238,-874,-984,403,-736,-164,-1309,170,83,33,-386,-804,-1551,-878,-3,-1018,-10,-919,-1020,-987,-1843,-1113,-1997,-559,-2329,1138,216,-685,812,-947,350,215,171,25,859,556,-1735,990,745,485,418,75,663,-394,913,-223,244,-189,-310,1007,776,188,-902,34,188,489,-545,1115,-643,-1240,525,683,-1246,311,253,787,218,587,-272,837,-237,-150,-1316,-984,427,1324,1035,333,428,957,1214,0,596,688,-351,-640,-902,316,9,-801,471,-134,-477,495,655,-251,-625,-899,776,170,1113,682,-711,-168,907,-346,-1090,521,-788,-1177,21,-710,339,914,1817,-750,694,22,927,-584,572,83,-274,106,666,-904,-837,-36,1181,295,-807,469,-498,-266,332,-61,-921,1138,746,596,-490,-1045,506,-317,-1078,116,420,948,-572,703,710,515,539,974,-579,-10,-387,665,466,-621,126,102,521,-208,943,672,1223,460,510,869,164,319,563,75,941,-514,1172,-81,143,1183,1295,649,954,971,728,1607,-445,1511,974,1530,229,1197,-279,1081,478,557,1499,1332,1044,1119,1640,303,-159,77,1783,482,-775,835,-1291,-561,1004,-364,1142,891,-386,-914,1242,-26,-786,-594,306,-622,-1100,-190,-387,-271,-448,1236,-475,1121,-987,-676,-208,-953,-797,1370,565,-974,823,-191,762,-6,-536,-42,-137,725,-80,968,1058,-1155,1094,-20,772,-372,-232,-497,258,221,949,886,-809,947,-586,-375,572,189,-231,674,-291,-33,-295,7,-87,1138,4,-319,653,445,1306,591,1198,103,503,583,-267,1776,922,1689,1187,-793,-1448,323,470,1687,549,436,262,-543,-119,-372,990,-117,-169,234,722,-751,-7,463,913,1061,-262,1620,-1554,2326,393,526,-1079,611,654,-87,1181,129,-255,-194,-630,-2091,-17,733,963,875,1340,-369,1101,956,-1196,-1134,632,-37,-538,793,-1513,-2389,-569,-140,-722,-1903,-1037,-1209,-849,-337,401,1265,704,-300,-558,-903,10,-695,-365,80,-1108,-1201,-852,-1377,259,-716,-120,-872,186,-472,-1106,-876,-399,238,206,-1206,-529,555,-58,102,295,-1395,282,852,-501,-762,1003,-1195,269,-44,-142,-270,-1098,1233,453,631,-1014,641,876,412,640,-1382,1013,1526,-443,-837,-298,-796,-706,209,1039,-840,-221,102,-685,1880,-1360,-92,720,-902,47,483,-274,604,-695,290,1073,442,-61,236,599,54,983,1423,-540,193,1333,222,581,446,1228,-678,261,18,-332,622,327,-561,-644,621,-957,544,-417,1142,873,210,361,217,172,357,467,368,1108,-286,-7,-82,-173,-898,420,433,-377,1081,208,-1,-1168,-734,113,301,-275,-190,-212,718,349,-858,579,-249,314,958,-411,-1397,876,-474,38,362,-1037,-426,1572,-355,249,-672,1699,-141,-727,952,-780,163,-982,649,476,1420,1468,58,593,-732,708,-1094,-29,655,-855,-530,-695,-1543,-1355,-120,1030,-298,-288,-618,-890,-724,-1106,272,908,1031,189,1101,1007,-1028,-1034,-1029,830,-391,955,-568,-388,-249,1334,33,1400,746,1006,-622,-525,1262,633,212,138,-91,1348,1499,403,630,-760,1341,1806,-159,1001,770,-142,56,643,2101,-17,-1174,33,274,218,-1302,-64,25,-1920,-253,-853,-493,-321,1124,-1521,-22,1198,-205,849,267,-205,-226,935,-1205,1194,169,-776,331,220,-416,-46,1282,259,387,51,-923,-194,-297,256,283,-394,47,1343,1526,-31,374,1171,298,366,-430,281,-502,-89,330,-926,327,767,762,1084,1101,982,941,576,-13,1066,-77,2,1359,1716,-2159,105,-1147,674,370,281,-325,-861,-1061,-859,-601,-102,-261,-80,841,-39,-29,-2131,1086,682,-796,-9,-636,36,1200,-466,1334,-118,296,-913,204,129,-40,834,511,897,-222,-1018,-448,-999,-1887,-281,-1103,171,203,320,-80,54,1930,1136,184,775,209,-214,-800,-903,-1553,-1107,-1401,-75,193,-1131,-693,-1076,-1379,-500,-507,-62,-299,654,-1389,-1733,-1334,34,129,-615,222,-774,-994,295,-1104,-276,1227,1173,801,-539,218,1228,384,306,-758,-198,-1272,544,680,-1442,-1082,-629,-224,702,-33,4,-459,-227,2046,-488,-379,665,330,408,-284,-535,207,-647,1023,-416,-335,247,-53,382,-274,1190,1665,-77,875,1285,327,-423,-151,883,-222,1879,503,-355,431,1031,1043,214,754,-264,486,-270,397,701,634,-208,-73,1206,885,-111,451,-354,-528,504,527,351,412,-14,518,922,1317,-212,-87,335,622,-541,-270,-44,356,970,1046,1365,946,1112,-437,-717,1402,-329,-518,-647,1281,-157,-806,-768,471,213,327,172,-489,-708,-861,482,-886,-195,-289,2158,-1395,898,1521,2033,-124,-171,162,-402,728,322,-838,-57,877,-979,453,1006,1305,737,1117,-53,-1129,-753,-1102,418,-44,593,-2151,556,732,405,-734,-44,782,795,-31,-197,-214,83,401,-407,-124,825,79,610,-848,616,-957,-693,1362,867,1010,1151,1139,-302,75,9,234,-369,742,1171,854,644,-43,704,-433,1561,877,787,-589,-1704,89,537,-1157,-408,646,-811,-383,402,485,1764,-600,1036,658,-301,147,-477,173,1753,724,-1252,122,-1657,1208,463,2382,-1039,-526,474,1783,-609,1031,523,952,-1294,-619,157,388,418,1787,-794,-888,-330,-681,-468,-514,136,-380,171,505,-108,1058,319,-24,752,1638,-31,475,1583,837,1108,-204,1802,1929,629,755,1621,348,397,103,805,227,320,-236,510,763,-542,-431,679,386,1311,-41,1479,1072,-515,-330,39,-228,1080,-271,1321,-2,451,-880,-213,-1181,256,-571,899,1363,-601,463,-175,738,812,825,2607,-355,-414,437,492,-803,352,211,268,389,211,-489,-430,-1655,-367,-730,-132,193,57,-49,-94,-1627,-1629,271,358,356,832,587,-540,-747,-643,691,420,-1746,-1428,-528,598,-464,-1430,-437,-540,473,813,638,-848,408,-576,-800,-1404,-1193,-1122,-1700,-1561,-223,-1778,-259,-501,-972,-634,448,-243,-485,-422,-1337,-879,-47,-638,-1040,-1787,408,441,34,-1595,-1150,347,-50,-270,118,808,-123,-3,304,651,802,-633,721,632,863,-1082,-1291,-1159,-611,293,541,-789,1352,134,-179,-486,-41,531,371,-83,-327,120,-571,-471,170,-554,-526,494,1787,-765,619,656,-1232,-981,283,1481,1059,844,97,-416,-53,1362,1115,1192,356,-242,944,837,437,-358,1122,1130,-228,1053,-108,-636,952,402,-299,1023,-474,526,1450,1116,657,1396,-30,1416,1017,931,828,1847,90,-152,429,711,-334,-19,-491,52,2203,521,-894,912,-22,314,-349,-546,-284,153,-53,-75,222,592,-130,-556,70,238,-947,310,-69,-1215,489,26,344,-308,655,438,-399,561,493,-1253,588,1007,-440,1613,824,158,-736,616,-470,-592,-371,498,-632,78,262,1667,131,-111,-638,-210,853,1327,285,225,1161,935,-193,-58,-283,485,-522,10,421,1170,760,794,425,777,1352,974,122,957,243,-139,928,-688,570,-616,-546,-671,700,690,-886,510,-21,620,-383,-119,-557,-1163,956,-709,882,-523,-283,-376,-400,-235,702,368,-585,872,1477,739,-1547,1178,351,2674,408,872,-1617,-329,-907,-164,-1482,221,1082,1059,-283,355,-83,-519,609,-579,515,-1092,-250,409,460,18,472,-506,-227,671,-275,1288,-1006,1003,-73,-580,-496,-347,1029,114,-92,544,-44,-318,-634,806,-65,984,1146,-968,900,1316,-571,-786,-878,-816,545,-31,-319,500,1113,-290,469,208,-1601,-810,-1347,93,-1070,450,-1413,902,-381,991,665,635,1021,-249,-1345,-596,78,-1003,-211,14,-359,-767,-371,-168,30,-1078,-296,262,9,-1309,76,-381,1076,480,343,-1168,-517,58,-356,764,604,-1326,-490,-374,1076,767,-605,727,643,-61,-507,-1390,-635,133,412,253,-1001,-810,-203,-702,-713,-744,673,-1004,1004,432,368,-608,-1944,-378,-279,-426,-590,-2224,-428,-371,301,-894,352,-545,-57,-530,-988,-1836,-1527,-530,-982,-1508,562,486,-320,524,-312,1962,1485,-1329,484,1710,-290,363,-136,1189,1351,-186,607,573,551,1569,153,-66,-950,1331,-521,206,12,-41,-381,-497,185,1158,-1035,-110,-2173,-484,221,116,-740,20,569,1050,-1051,484,494,920,-535,362,-342,127,773,892,-260,1729,1393,390,1244,26,1605,1559,979,2,848,-156,825,211,769,369,1052,1925,907,1218,1286,118,1782,257,-268,460,216,1549,146,-545,1040,1032,359,-653,1340,-76,150,-119,-1141,-1053,1372,-593,-992,393,-544,1760,496,998,-753,-1742,169,-571,338,230,227,1199,-275,44,519,-212,329,185,181,1621,-171,-1453,325,-597,-320,-356,828,243,-570,-592,180,146,1076,147,-1194,114,317,383,-320,-736,778,331,-524,-1108,-1118,-645,182,1125,813,1093,600,-5,363,-362,-225,700,-526,531,851,-651,-551,7,1077,187,1107,1135,88,-756,1060,-53,-752,740,680,-258,639,1023,-454,190,-96,842,494,806,-1075,942,124,-790,423,-637,-503,-350,-587,626,435,-224,583,-1356,-528,-987,-240,1464,-635,-1031,-237,-1472,-862,-584,324,-328,-1143,-634,-258,-490,-387,400,187,-409,-236,-302,-290,-759,-516,-581,-1162,1145,-225,-417,-1232,307,361,-1379,-1042,-728,-968,-323,-503,-1101,-1300,370,-89,-17,1304,910,895,807,616,838,-89,-926,-1257,-163,-906,194,89,299,641,183,1160,-377,-7,502,-342,1420,589,1470,-81,1181,-564,1431,-2616,1037,629,-74,618,-41,594,-879,816,845,578,-1870,1026,818,888,-569,1691,-726,-958,-342,-274,-147,50,202,-928,475,6,-51,247,-114,-720,758,-436,257,-408,-978,-400,-71,586,474,-894,302,-305,-222,519,1018,-942,-681,285,1168,628,1312,2063,1535,398,695,815,118,987,1599,1518,995,-334,1361,150,626,223,868,300,357,618,-555,-834,-679,-108,-295,33,577,-243,244,-533,-706,-420,886,-338,-666,-297,1356,111,943,-726,300,255,-1316,44,378,326,-544,-1371,1301,1408,165,250,-1138,-866,-1464,-918,-488,793,301,-426,796,-239,975,599,-377,707,-237,-350,-321,-492,210,-1145,445,84,1142,-300,344,-1337,-242,-564,-88,1033,1830,-690,-1063,426,-13,-694,279,-516,443,232,837,-123,455,1077,-756,-1053,147,798,-315,-96,-1048,-155,1239,792,-210,606,-361,-454,-88,-683,1047,1235,872,528,-428,-680,738,494,1039,653,-136,1030,-495,661,1302,126,560,339,-741,-962,156,-771,-1210,-1346,-119,890,832,821,-348,-1252,1752,722,792,-559,833,455,1810,1173,-712,125,-762,-351,596,1092,539,1168,-1502,427,-405,1928,949,31,41,905,-527,313,-30,260,1262,-1009,868,-612,703,661,105,-775,-121,1063,-272,-992,989,98,-688,-312,-58,-300,82,466,908,893,-831,1098,664,-563,661,-245,-307,-1152,-1114,-302,1105,484,-123,102,1137,-634,589,916,92,301,813,-832,-669,-771,367,-204,328,737,-641,-597,-120,-1267,710,-697,-1421,-117,1066,409,429,310,75,-525,261,404,318,-18,-145,-4,312,-96,609,-105,-256,30,73,128,-15,106,666,-1062,792,300,366,-965,-340,-708,1340,-1878,-857,-512,-1642,397,-1110,-437,96,-162,-1064,-335,-955,-2018,145,369,-1165,8,409,555,-964,-186,-410,-4,-409,137,-1210,-1070,-304,-1168,78,-119,-307,-228,1075,-1062,-1032,286,-472,-93,-193,-857,565,-153,-431,-343,241,452,-500,-296,-956,994,969,129,238,108,394,-33,-552,368,63,142,727,319,59,1046,-300,229,849,-940,247,-2367,1093,-428,453,599,603,-263,1154,467,334,-1356,-1374,-374,1896,8,587,122,825,-1203,65,1266,-241,1005,5,-498,1249,1139,1399,2,817,1247,60,770,182,-372,1479,-193,884,-284,1051,1396,-426,665,1307,450,1067,531,185,-303,1102,1786,1242,-141,847,182,1703,84,1751,1397,2234,246,1104,-737,-1242,1048,432,758,-510,-727,-249,-707,475,-447,-667,-32,752,24,-640,-1454,439,120,-131,2140,-242,365,165,397,-724,-70,310,-221,504,514,645,307,-560,243,466,-895,-395,-894,-597,-1444,-1095,47,-338,1622,541,462,-1036,16,-740,-728,-994,-1553,-987,-217,-429,267,506,-707,-921,135,-534,548,449,-896,731,503,1095,-47,141,-304,463,52,-1766,-1036,-580,-411,784,433,731,-549,-518,-588,-624,-437,484,549,1112,-276,-348,-1203,1299,1306,-136,-35,-850,-836,-417,532,1055,-820,-47,-1044,503,-221,-67,414,925,107,532,143,534,2860,-17,-1576,-1086,-765,1990,-24,665,838,-236,1195,250,-587,-436,185,-1012,-498,991,-600,385,-7,142,-658,1369,-1108,-71,-426,682,-679,-688,-304,230,-995,219,-10,-361,758,1120,-399,994,-29,42,-502,1244,709,359,-813,282,-652,-738,-820,964,-3,-859,-170,-461,8,-196,624,1153,543,761,297,496,622,-257,88,206,-923,-1096,-1442,-705,497,1934,221,-491,-803,222,-1175,-421,-840,632,381,-881,470,-265,-477,360,-225,514,660,-526,359,932,393,592,1139,47,1539,555,-493,-63,589,-397,-301,944,992,-100,-632,-228,106,248,938,1425,-531,1155,1090,-439,-159,-699,306,1268,0,341,-839,1227,-125,-581,655,850,-360,-255,819,680,315,165,433,903,-325,1264,323,-187,996,545,1573,187,1638,895,-467,1586,29,-248,468,-1449,-137,1692,1764,355,466,313,-645,-433,-149,-177,-91,-762,-804,-1093,-219,95,302,-136,1086,-812,816,675,548,-530,-696,1174,688,-773,-505,-375,785,1006,509,1396,-884,-26,623,-1168,-76,1371,304,-174,824,432,1104,426,-637,-308,-274,133,1052,1175,-510,-95,1252,-770,979,985,414,303,306,-889,-555,647,-505,-600,270,-1022,379,-718,-355,171,702,428,-250,1027,1043,1078,-450,-553,-33,941,880,1127,8,767,-685,647,-766,-274,-400,-1511,-800,-76,89,226,84,-651,357,-1259,326,-932,329,1247,-2385,-1071,1627,1089,63,659,142,851,-819,-441,51,-548,1030,1010,1364,614,1939,-463,877,773,41,-429,-1060,-96,1573,-399,2708,-1298,-141,284,36,42,-70,897,-761,256,-753,124,-400,1120,-358,-196,628,1020,911,-206,816,1208,-444,18,1418,974,1209,-647,-306,21,-437,-280,-819,-688,907,53,245,-154,305,-195,695,-387,300,-355,-1558,-248,-1877,1410,-218,-752,1336,-1324,200,867,756,-760,-310,-199,-640,864,-589,570,550,-981,559,678,-376,-245,376,-719,731,459,-219,-316,377,-147,611,236,833,-21,1327,-426,1263,77,-1958,671,-161,313,-372,206,556,1360,1534,1231,585,1309,-530,98,684,468,61,-263,670,295,273,510,-625,-436,114,1248,-387,36,-418,1378,985,643,-55,819,-271,362,951,657,722,378,1167,-539,604,1313,-650,-698,-617,-410,-269,-311,772,-1256,-548,-744,424,321,-235,700,-690,-90,128,481,129,999,754,-151,583,-389,-752,-724,-226,-692,484,-777,-126,-386,-606,-566,-1632,1519,-368,-157,920,-298,473,1490,449,-1315,-280,-146,502,-1256,361,-695,1481,437,774,-322,673,-384,1490,113,1700,-707,-1050,385,231,-184,-825,303,-814,-1103,-920,612,-216,-1075,303,860,52,-50,-293,22,-357,-271,1053,103,1314,1304,-483,367,-387,-799,161,554,-409,1914,412,589,174,833,739,194,1316,491,-436,988,1748,609,-1107,-131,996,-464,45,905,373,-346,153,1311,-2380,-358,-637,129,11,679,-1115,34,585,355,-989,893,-677,-1152,-365,681,-1295,-193,979,-150,73,316,-963,1347,652,952,1335,75,1761,1917,1224,978,703,538,-111,-619,513,-21,-656,409,-240,328,-303,587,-374,90,-401,-384,-301,1238,559,-68,1715,601,920,1200,-564,1127,602,1323,317,1003,1462,-70,217,-2361,1146,188,1029,938,155,-183,119,-1230,162,132,-1337,43,-579,-486,-470,-561,-315,1096,-290,320,685,150,-585,-928,858,-1157,536,-476,-663,-12,-1396,-145,1165,-1260,660,-309,-263,200,1250,33,-1371,-396,146,-190,-52,642,1070,125,1326,390,1107,1268,-212,1117,1180,640,-113,-873,-637,108,93,580,-381,720,201,70,1091,1321,-350,391,1512,-181,1036,1353,60,1022,628,-63,-689,-136,830,604,-546,-399,1436,1537,348,197,823,256,913,293,737,-92,108,-1158,446,585,-215,-983,278,931,-274,-1199,404,10,1456,186,189,362,-814,-1821,399,-569,-689,-492,-592,505,-169,-1541,-48,147,-786,583,-444,199,48,-310,374,-454,-906,-67,-755,-2860,481,249,244,673,68,-483,1148,-998,842,1021,333,1157,369,235,-607,-73,310,-121,294,-337,-834,-314,99,-41,396,530,98,1671,255,1191,1543,-360,350,700,822,565,1562,-177,18,537,1460,-316,-497,819,-948,615,755,-775,1701,7,-404,648,-881,1467,-7,1080,-412,364,617,-706,327,-86,674,-1165,991,-131,-445,131,-188,-398,931,69,167,-431,714,-1384,-3,-298,-519,-1093,1089,300,-244,-100,-594,-341,-1538,-720,-754,430,757,369,1708,542,1604,758,782,-331,-510,-188,-898,-1131,69,-900,719,700,-622,248,1485,1028,368,1579,622,-343,192,831,543,1241,1789,11,1291,1770,564,844,518,1774,216,929,1282,-21,612,6,-211,-319,-123,786,422,-876,1585,590,476,-1882,-940,-290,-1322,9,1160,359,304,1693,-39,1123,-832,-468,-303,-237,-65,1047,-39,1783,-2192,-181,270,1120,-270,291,642,477,89,934,-505,-763,-268,-1530,-185,700,-605,-2123,148,708,-384,773,1271,667,-137,657,-483,708,214,-427,-868,365,-521,-1122,806,202,140,179,103,787,-564,1020,1093,-408,-1089,486,548,-553,-530,-899,-462,-190,-1283,327,626,-961,-729,-780,-466,581,234,-82,-680,228,1866,1313,-1023,181,1090,-672,819,-401,775,1163,-709,-10,219,1419,-572,605,-1087,405,681,111,1051,217,1947,-83,314,735,297,-980,916,-260,-1762,18,725,-72,1032,189,-1109,-496,-18,-1143,-311,1008,-671,-835,22,1694,1293,302,-727,175,214,891,-830,225,-151,-117,-429,1252,1301,-397,-14,411,-94,-386,-128,985,554,146,378,-323,-474,-541,1369,1481,685,-17,1377,-85,154,1400,585,763,-416,251,1840,-388,-13,-57,115,382,-196,-546,-567,-1443,-578,-349,66,-391,-191,-578,55,-1715,-1110,277,774,403,1189,795,-752,707,257,592,1083,-579,33,-976,1373,366,-693,-348,907,-1411,-872,282,-459,542,-706,-512,65,950,630,820,-493,505,583,312,923,-34,1521,-598,-396,250,865,210,810,441,1532,165,1549,256,1659,811,1194,200,1736,578,383,1002,70,795,1264,-290,79,714,1455,1596,1675,1727,-641,945,465,328,-93,499,-121,-1545,-282,-51,-440,781,34,-82,-970,-1222,-968,376,741,404,-298,617,811,-1327,491,-151,228,-1476,745,-1029,-597,496,85,-621,-592,394,-10,626,14,598,314,436,-685,-91,-839,502,581,-202,1181,976,-524,-856,-1419,531,239,-455,-520,-1123,96,62,835,295,-338,558,1271,1814,849,-246,-1415,-1905,-1436,-950,-1411,-2495,-1538,-751,-808,-1207,-1002,-1915,-1403,214,-1522,-1467,-615,-834,24,-5,-894,751,-565,-1055,-553,-1160,392,-782,-245,184,-963,-117,-960,869,-486,-470,-99,941,169,1424,-868,-966,-341,931,-921,1129,1344,-295,-766,-686,544,154,520,-1247,-585,-1373,-305,-1286,-1686,-1465,1292,1359,-1801,-971,679,-1419,-589,-584,803,646,150,-108,-942,-378,82,-132,-1545,-1875,-1126,-1282,484,-684,-11,746,-608,-705,-363,163,-822,-1206,-244,-1051,-774,434,-983,-451,108,951,920,-245,-324,-107,-126,432,465,-161,332,-158,639,150,255,330,-870,1044,907,-759,17,-244,430,2267,-860,721,120,-860,184,-323,-994,284,-495,403,-163,-117,526,586,451,93,-70,552,-2319,84,-995,-831,86,1342,918,504,635,-1405,13,1013,497,519,514,62,949,-106,-1138,-1302,409,-1518,-1314,-347,-1533,-2043,286,-744,1046,14,426,131,232,-420,416,1368,-100,-204,-540,-1288,-1177,-1441,0,612,794,-566,-693,-1278,-561,-199,-1140,-99,609,-153,97,56,-898,-1076,-717,76,-268,-587,-913,-56,-187,461,-828,-852,13,399,1371,754,848,853,825,197,-1354,-394,-1279,1100,-582,-213,-304,421,-518,1308,-1182,-1492,-2013,199,1695,324,-532,0,-25,-237,870,454,504,1327,251,680,-1064,839,-52,1323,29,-567,-709,-895,474,-499,-440,-1068,-865,718,1403,460,1028,839,434,1495,1080,670,687,-637,-94,-840,-1155,64,-717,-332,-758,-613,-652,-543,957,-119,997,682,128,1043,879,1210,1213,1005,-220,1663,176,-272,1872,1282,1367,-1293,135,-656,5,-12,701,-66,526,-764,-294,769,-1539,827,-140,-533,-500,1760,661,30,846,-448,-489,-1289,944,-2076,836,828,112,188,-281,28,-444,-150,-30,-730,-140,-841,733,327,-1153,180,-25,732,-489,452,1292,691,613,576,1080,501,765,131,518,512,1318,190,1124,1260,117,1500,-568,1308,1375,1618,1112,369,109,1489,490,-235,296,1381,202,1437,165,-271,-130,-254,501,-743,-503,1391,-1624,491,971,-1457,-1122,-964,-846,191,1088,667,-599,-1629,199,-518,-1048,-23,-481,760,-145,362,1742,874,-1084,-1600,1194,103,-696,825,-1218,-84,40,1017,-618,705,-801,458,147,32,745,166,712,1211,477,800,-378,1706,1693,948,413,-62,295,1526,314,897,-589,-510,1349,-370,874,222,-357,36,1651,1166,1083,1130,1761,104,1050,517,1049,1554,1531,1438,-100,1448,1626,445,550,253,127,1130,-64,1360,324,692,219,731,1215,226,-1351,-702,-960,523,-560,272,-906,-386,-1189,-705,399,375,140,-373,408,1035,790,-317,707,89,-1098,-330,165,1569,897,-1130,-778,-714,-283,352,-1079,733,-983,-3,-712,-268,-883,-617,-824,989,704,116,120,-617};
const static uint32_t LSTM_01_weights_output_gate_dims[4] = {1,1,48,88};
const static ConstTensor_t LSTM_01_weights_output_gate = {&LSTM_01_weights_output_gate_x[0],&LSTM_01_weights_output_gate_dims[0],0};

const static Weight_t LSTM_01_biases_output_gate_x[48] = {561,2408,2117,2592,196,751,-314,-902,-1091,-697,-433,-1609,809,1648,516,-409,1601,771,-1589,477,1306,-473,-1914,-200,-2021,449,595,1000,162,297,-1371,1063,1082,588,498,547,204,-746,-1532,-2355,233,1666,-1528,-1757,-1388,601,-524,653};
const static uint32_t LSTM_01_biases_output_gate_dims[4] = {1,1,1,48};
const static ConstTensor_t LSTM_01_biases_output_gate = {&LSTM_01_biases_output_gate_x[0],&LSTM_01_biases_output_gate_dims[0],1};

const static LstmLayer_t lstm_01 = {&LSTM_01_weights_input_gate,&LSTM_01_biases_input_gate,&LSTM_01_weights_cell,&LSTM_01_biases_cell,&LSTM_01_weights_forget_gate,&LSTM_01_biases_forget_gate,&LSTM_01_weights_output_gate,&LSTM_01_biases_output_gate,LSTM_01_output_dims,LSTM_01_input_dims,TOFIX(0.000000),tinytensor_tanh};


const static uint32_t LSTM_02_input_dims[4] = {1,1,1,48};
const static uint32_t LSTM_02_output_dims[4] = {1,1,1,48};
