#include "tinytensor_lstm_layer.h"
#include "tinytensor_conv_layer.h"
#include "tinytensor_fullyconnected_layer.h"
#include "tinytensor_math.h"
#include "tinytensor_net.h"
const static uint32_t LSTM_01_input_dims[4] = {1,1,1,40};
const static uint32_t LSTM_01_output_dims[4] = {1,1,1,48};
const static Weight_t __attribute__((section(".weights"))) LSTM_01_weights_input_gate_x[4224] = {281,-1724,573,-567,155,-1338,70,260,-1182,-997,-65,-1761,-1527,-1728,-1566,-411,-474,-88,-308,-1756,-373,964,730,1106,243,145,-1113,-148,404,-144,-1027,-254,-1127,-1407,-412,-334,-876,-178,-2140,-2450,1144,960,-34,1404,85,1335,708,-118,-395,435,1003,463,342,-1217,-1596,750,-1098,219,390,-942,845,-583,1657,1118,1344,-226,-220,1371,719,300,43,665,1514,296,-1312,993,-129,1496,260,-687,-400,-459,-1518,-241,-435,1055,186,460,-1896,-786,-295,-938,171,947,-391,-258,925,715,-63,307,-639,363,501,1034,498,-987,-348,-34,880,-860,-349,-209,1260,-687,913,744,1130,640,-518,583,1286,122,533,990,620,608,1744,1612,122,-600,24,-510,639,333,-1001,-1154,1734,1773,-1089,-1815,2215,-404,-472,312,869,807,-779,-369,190,422,307,1323,760,313,1807,1119,-484,94,-6,1592,941,660,-181,754,-769,1968,-226,411,-253,-15,647,433,1047,961,-399,-104,-806,100,1248,-160,-100,1003,928,-195,681,-681,495,635,402,-210,299,1710,1349,1611,61,601,297,-625,966,-567,2,-185,1141,-316,-209,-1151,176,-335,613,373,154,-382,-205,-317,-458,92,693,294,366,1430,-573,810,528,-116,-969,-1281,-1846,740,-87,876,60,-844,-397,-997,-268,880,-208,1347,-682,-628,809,-1273,-867,-610,118,856,1241,609,-554,144,556,-1018,287,779,384,531,1209,-622,1137,461,1043,-834,310,933,1671,-32,440,-683,-303,-890,-812,-1275,150,166,-551,-1153,498,-600,372,199,414,-1121,-1165,45,318,-1298,-65,-403,88,-567,-1594,208,-1584,353,167,-441,-72,543,-1552,-416,472,-971,-535,-863,-135,194,243,645,1234,-59,-1884,-1122,-1289,-772,640,712,609,248,-817,-750,-241,-596,-228,-486,-1417,-798,887,-1168,-1141,33,180,943,1278,577,427,199,354,-2260,-1377,-196,-299,837,-541,-995,1130,2060,354,200,149,-236,-342,-869,552,1145,-478,-242,-123,1343,-87,358,-518,1474,754,283,1034,832,1406,1843,519,310,1308,392,2094,1771,-84,1801,1758,307,1650,1469,1285,242,1271,1156,170,1874,-120,-268,1321,1092,65,1418,48,-957,197,1952,-767,-261,-29,1844,325,1630,161,-66,961,850,-45,265,-65,454,-1119,839,659,125,-996,816,431,-1096,28,939,1122,282,512,705,-504,84,2083,-278,371,-1382,593,525,-65,-789,-254,1335,-1211,48,1345,-48,-171,1183,586,669,56,-1224,217,-1169,-1521,-1197,-785,-567,-193,-1299,202,-250,53,-1298,-583,-937,-705,-1168,-150,126,-580,-1511,-500,-841,-883,-25,-1128,-198,42,-792,895,-426,-81,248,201,285,646,854,184,1101,243,511,-971,-360,-1219,324,76,-692,-410,-1724,-244,79,-742,-1036,-363,266,98,72,-1273,-518,757,-180,846,995,338,570,-141,1076,191,-459,494,-356,921,-21,-1473,1040,1250,1166,-327,-656,1449,809,8,-417,576,1250,518,-1462,435,-1862,-108,-1089,-2236,-1701,-888,373,79,103,-891,-1174,-1261,-1667,-1443,-217,1180,148,173,-1046,-601,611,1492,512,360,-436,545,689,479,-56,-148,251,-206,-784,217,-764,1238,647,834,-489,1474,1123,-293,-183,3285,-164,2487,-113,688,-1331,-1307,-832,1324,294,-703,-514,-608,-1436,494,-611,366,890,1085,1574,-315,505,-878,-860,-195,601,87,1043,-1103,-979,-76,-920,-732,479,617,942,-680,512,-1753,2459,2098,1787,489,250,-405,-896,587,-1302,-741,281,120,-1435,-69,-1330,-97,-1191,-394,-465,-1110,-1516,167,-881,-1414,-642,-56,-1,-1121,-658,451,-103,-862,390,983,800,-615,22,143,493,-414,281,882,110,441,-167,-945,191,-264,-339,792,2199,627,332,528,-1496,-705,1016,16,383,-75,708,-1089,-563,2047,1207,-1134,-585,-1673,474,748,411,340,-1764,-522,564,-1469,-124,791,-50,344,855,97,341,434,389,-644,812,576,1161,-159,375,426,-686,-1421,560,860,-1103,-1633,-1331,-1239,-1034,-435,-395,-1656,-1678,-898,405,360,-1473,-482,791,-811,-368,530,-547,-876,519,0,-896,-1277,-922,-91,-836,683,-555,-810,-748,673,-624,54,408,-1246,1279,446,679,-821,135,-338,1430,-536,-1061,-170,-2013,-883,785,-57,-346,1224,-2098,-1226,376,-87,931,-841,760,188,1801,-1386,-921,-75,528,-306,-342,-890,1091,1669,1259,-199,731,1219,-1454,-477,-865,-246,-1040,-427,1148,607,-374,75,511,242,259,96,1404,1724,474,48,-1049,553,455,-82,-568,1327,1175,75,-813,864,452,1110,-213,1420,1232,588,-354,1172,1264,448,433,493,-36,-25,596,-54,1638,377,771,28,-189,-7,1,844,1078,956,495,-260,466,-149,561,863,1789,-1341,-1117,-985,-461,109,-471,-835,287,-604,500,374,361,-154,1765,257,723,75,1431,487,-264,-225,-1660,1767,-804,-425,2080,394,671,-49,903,-409,-449,-207,-1204,-1279,-570,-506,-741,-1260,-109,8,722,-926,-948,22,-630,39,-1244,-450,-1024,-1148,587,-470,-874,10,-805,83,72,-94,425,175,51,-260,1364,915,446,-404,335,-505,-308,-810,-861,-747,1229,343,71,-416,-356,-972,370,-1354,-995,-1508,-515,-210,-1721,-1849,1043,772,523,-60,147,820,-837,372,-140,-626,765,537,1569,24,-1268,-1308,1428,-737,-995,62,108,1376,-306,22,-1527,-63,-1266,-1259,-173,1033,123,212,-94,-292,-1281,-55,363,-1029,11,356,-1409,-1183,399,-614,-1556,-720,-411,472,698,-1314,-355,156,-915,-294,170,-1077,-636,-73,-455,709,-601,402,-229,-253,494,616,273,816,-22,-599,883,-171,332,-861,485,862,1311,-186,-325,431,770,-469,647,10,-588,580,537,522,-1090,-514,-859,-924,-273,-1359,258,-1004,580,-71,69,-602,1122,-654,406,2467,-983,-129,151,-786,-1616,1604,200,-711,-2374,1637,-508,1271,483,1595,653,923,128,-53,-1462,-1467,-1594,-136,1595,1754,74,543,1028,-250,528,902,-1209,-1164,-1552,-484,-791,-175,900,628,134,366,191,712,1293,2002,1158,1425,-136,1293,559,190,-645,-277,664,-630,-252,119,-296,457,-161,-696,366,1333,-252,5,54,-641,-244,385,-742,946,-741,842,166,-1284,-349,241,420,1259,515,1579,584,507,1456,-167,-355,244,-321,-2169,-500,-20,-111,284,897,50,-182,357,1645,-1530,593,-2498,-710,-345,211,466,-540,781,1682,1123,702,-135,51,1155,246,910,710,184,791,1744,105,1100,-255,680,471,269,-439,485,583,773,210,776,-468,-275,1106,733,-169,-307,906,-233,-645,-346,272,-1199,661,-482,-1,-1534,-1052,1155,-1079,-182,-913,-1629,-807,-1015,800,598,-502,-1379,155,78,-114,669,1296,111,-162,-753,-479,-143,68,-722,511,-565,1055,510,-304,506,-564,-82,1143,-462,839,-1189,-1949,734,105,-2325,-216,-1778,-394,-853,407,-1025,-933,-971,-460,-688,-212,657,-591,326,-1085,-1232,410,80,-879,-1399,-937,-772,78,-1633,-18,-235,-505,-1111,-431,632,1220,302,602,-189,-430,-1344,-504,385,-232,-778,818,-537,867,-512,222,-174,-258,1143,-657,56,47,1324,-507,1019,189,-45,605,599,945,-484,739,-434,-620,505,409,321,274,688,-105,-1567,817,889,299,592,-687,463,-479,563,-8,617,181,-537,1515,881,-386,-369,-1032,397,-694,-1849,172,-588,1087,-29,-1199,2827,-321,-84,-1447,218,-288,-486,-34,-234,911,-475,-454,1040,-316,-501,59,702,477,497,-362,352,1110,989,724,1269,-718,454,-922,-524,477,-181,1,27,-1101,586,762,138,586,-895,-419,-914,-706,1375,-406,-660,-1552,-60,71,692,-130,-1654,272,2904,-1792,798,-1341,1103,451,558,813,-78,-726,-1067,-944,588,-1772,165,929,292,494,217,-1404,-1708,-46,217,-714,-661,768,439,819,-1285,-217,-693,388,1003,-36,-89,1607,681,108,128,-1312,-740,-785,730,69,-55,-753,503,-1431,-1156,144,116,1092,995,-612,82,96,310,-1542,-604,395,748,138,-96,-688,1093,567,466,452,1167,1048,1012,1333,-769,960,-1051,1078,163,564,-326,-283,-1104,-441,97,-901,-409,136,73,-919,940,-45,-1063,1144,627,-943,-46,359,1674,486,-78,1061,123,825,568,-159,689,-1120,838,752,-77,-2407,262,723,320,482,-888,1224,447,-463,-483,-201,-161,993,-217,921,-120,-96,1986,1562,1032,122,-756,-296,-366,-1371,-255,-917,1241,-242,626,-269,1001,1727,-100,1485,1400,-287,-237,-415,365,846,375,674,1511,1186,203,1064,792,1455,1172,1469,1747,237,463,1043,1324,494,-1951,-1257,-199,-330,-332,640,349,1441,235,-1532,170,-91,-467,1600,-291,917,-113,-1281,-286,737,10,1056,-712,1439,-567,-1985,-3158,965,-85,1325,872,1860,-2237,-566,733,-1550,-232,-1082,321,937,-130,576,-912,759,-572,21,-170,-881,-1169,-1017,-1249,-747,50,76,-1922,-456,176,901,265,968,215,-816,-1530,255,-645,930,671,1215,-289,-1127,-1750,-346,284,353,26,440,15,-550,438,-1081,74,608,1837,1674,2438,684,1571,1582,412,508,240,-1447,28,-75,1152,531,96,-336,909,-1009,537,-73,-214,2157,-674,-23,-204,658,256,80,1041,-302,-230,1371,1079,436,1411,87,-1437,-1348,1097,-644,1123,1026,1368,32,-1059,-714,192,1229,671,648,873,1527,-520,854,1383,1084,-402,1032,-4,426,871,-407,1005,1411,698,880,-89,1574,1833,-135,-216,-137,573,-224,962,-275,1913,266,637,1431,335,1295,659,610,1746,-75,1666,882,1927,1379,1506,1060,539,2166,-1030,-281,1291,890,-27,-119,967,239,1002,-922,619,-514,-993,500,658,-49,-157,-86,-736,-408,505,1842,-629,416,-309,-813,-156,635,688,-468,-1169,-16,424,-961,-444,-1474,-991,-2516,-101,-574,380,-424,-39,-758,197,420,-52,281,308,1417,-460,-376,401,-606,1289,-557,-140,1604,1553,491,1043,-120,1619,1007,204,1338,1,1441,-147,1736,1691,120,134,289,36,129,1273,712,297,233,-247,596,359,1254,891,-758,175,-696,-91,-1617,-762,580,-759,-660,1278,-1377,-1470,-174,-900,2013,25,227,-983,36,-348,445,-240,834,-200,-201,-678,-1035,-316,429,614,1373,461,-2169,-334,-350,-1049,-334,1807,-634,543,-1335,-249,-945,-176,38,-229,1467,1453,1878,-1369,-659,-17,702,1252,790,725,268,530,177,898,-42,-316,190,3,318,1247,1204,-519,-197,58,1337,201,-438,233,364,58,1451,368,991,34,-272,1579,1327,625,1698,-48,1667,866,1928,1954,614,-225,-1177,125,1136,-359,376,1142,826,941,-405,-1060,-155,637,24,1337,-623,-17,566,-1130,342,-904,-1278,-420,1456,-170,-362,-387,368,-394,997,12,-146,123,-465,1322,-1036,-170,-575,-302,-494,-631,1016,-703,-459,611,-827,520,-821,534,1451,733,-760,-148,-733,-447,-275,-1017,372,-1030,499,1288,-154,1064,1223,-149,-473,127,-1228,-856,-20,-1211,-1028,850,-813,790,738,866,566,721,-103,-524,498,-628,786,145,1113,580,1704,-601,574,-962,-1245,400,-700,-751,-450,469,-1112,711,60,791,402,-798,-812,731,805,211,-1219,841,-869,-561,-779,1227,1117,1276,-263,-801,-1128,-1500,-1623,-103,1253,-480,1289,88,235,-795,-2183,25,-4,112,-1285,1113,1653,490,1155,-430,-419,-801,1165,301,833,853,340,-231,-480,-1128,-244,68,900,421,-1015,425,573,-1413,-495,-307,-526,-873,-1196,9,-664,974,-135,529,1327,243,1455,853,794,966,-708,-459,-102,-1343,-959,1101,324,-351,1152,-642,-2119,1205,-1024,1379,-149,-403,1585,868,965,1288,-648,-1301,-922,105,-256,-1051,509,-144,387,-351,971,669,73,570,-805,818,968,-666,584,186,-1069,-592,189,2845,571,1048,1013,-1971,-1459,-1367,191,509,-643,489,1410,871,1612,646,-328,1562,-397,687,-347,1839,141,428,903,966,619,-39,837,453,23,184,661,173,831,533,1450,944,-23,1449,206,1002,734,621,1575,761,1378,-26,-40,1381,1619,804,555,-431,298,105,580,653,-4,-151,-917,-269,-824,1899,74,-495,119,-248,-1322,-947,849,763,743,-1227,391,1027,-1456,1355,736,-247,32,-580,312,-1367,-52,-382,-156,875,278,1211,611,-58,-465,657,1249,468,-586,-219,-1663,1354,68,623,-1390,-600,-992,-703,-86,365,170,-88,1151,-634,243,-210,-944,-133,-249,284,-55,809,-817,-801,-727,-957,1042,-36,646,-280,-860,84,-1011,876,917,644,71,534,290,-1194,-731,692,-1446,-30,-164,1389,1202,-176,314,-850,-304,1629,-435,-1491,311,-519,-534,13,713,-137,-360,381,232,-1397,106,-463,-667,123,-560,229,-504,587,-772,356,1010,-1050,919,643,-1189,-215,0,655,-388,854,-970,500,1352,-531,-1005,687,1777,771,2598,2090,982,551,680,1241,1533,685,-960,688,-101,203,-398,101,-859,453,632,284,-136,-1196,-549,810,287,-208,41,-1456,-434,383,-482,96,692,-774,-1164,-730,-566,-164,-492,629,791,786,181,-246,811,-305,-594,-1042,1864,663,879,1706,-665,768,756,486,-830,-10,-230,497,759,594,-101,1067,-1299,-1049,950,13,646,-303,42,-267,1064,-1157,1436,520,-753,-767,611,-1238,-606,-64,319,889,-408,-1489,1443,-671,-109,-897,-99,-1108,-936,-1081,75,-1017,-1506,-1599,1075,-639,585,1066,700,-847,-899,658,435,305,-701,-59,-1213,-728,948,-600,1293,-757,-504,-783,-63,-69,442,-522,-452,-2108,-1302,-300,-863,-90,-990,-820,-517,1348,-178,-875,-635,-386,-148,39,-432,452,207,-919,191,1443,-1242,570,468,510,-420,2396,389,1322,1242,-99,-408,699,65,-804,-1182,970,835,-1082,118,-176,-623,727,-1329,264,-405,54,-37,-756,-802,-274,1083,-1189,-2089,-645,1393,1540,2252,1671,812,2261,507,935,1212,486,552,912,768,-401,784,1002,792,1339,-708,647,-76,774,675,-640,-130,667,1140,937,538,-653,275,-30,1644,1161,54,173,841,1241,828,-50,-292,1234,-29,-750,444,-797,64,1035,-727,-1046,-762,-1747,-132,1074,279,-1721,712,741,203,856,1182,-339,-1399,353,650,-1480,-479,-2780,-70,193,-320,398,233,-317,934,-1232,815,-314,190,-49,-235,-24,1718,-652,519,-407,537,1581,300,-751,-751,1032,22,560,-287,1145,-260,-216,869,-180,801,-393,50,-295,1322,457,-195,812,-496,1511,476,814,-489,271,374,349,-195,633,-399,653,-28,1271,-219,1542,666,-780,-507,-959,65,-1135,-1009,810,-806,761,-1153,1277,-836,-741,-492,-1577,144,273,1443,-837,-826,341,766,-1200,-570,-538,-1118,-120,-431,-693,1180,834,-61,-1182,251,558,-1175,526,-684,-6,-1508,140,393,1008,-824,-452,-144,31,-1582,733,-653,899,-727,-1595,-108,-1160,-1578,-811,-901,59,-1435,-459,738,554,-12,47,300,-1446,-241,-213,-851,-146,-1822,-1720,-1381,-1135,458,83,-24,-1432,44,-1650,-190,375,-328,-635,-1714,-1628,-1912,598,-951,-469,585,257,-880,-919,-1145,284,558,127,-434,104,-501,-565,-347,-125,-320,988,-125,-483,-135,138,137,-727,228,562,-1841,858,991,-2024,-651,-410,961,96,-355,-383,318,-1094,-462,-1370,-13,526,-1029,-68,-1419,-412,-295,-636,-876,-1379,606,1057,1038,173,-963,-288,721,125,1670,757,1189,-442,670,-380,-273,421,-584,-541,-1302,-1340,-757,-1580,666,679,-39,562,-1013,777,-865,1026,-407,-1053,-775,974,854,-611,886,726,1949,736,89,63,-553,-110,-52,-1843,496,-609,1084,306,1355,371,-313,2353,384,446,-237,1003,720,267,1060,183,-191,-152,207,-214,598,129,-1620,352,-481,900,-932,42,1997,1743,337,-1059,-2158,-329,-823,247,-233,-732,471,1442,989,754,1484,1476,493,1156,628,1725,1823,1684,118,1736,1285,1326,1592,-249,627,1390,2403,2325,670,764,1803,523,-314,1402,811,-151,645,150,55,213,-210,478,315,907,-443,-77,-5,221,-673,1036,690,-15,-378,939,-88,46,-380,982,286,-498,184,-362,-717,-1291,448,902,1951,221,-938,-1616,727,1390,898,-797,884,-618,-823,-1135,1753,-1299,64,-396,-282,28,922,-786,287,1317,-188,522,-495,60,-122,-483,-306,-241,-1978,347,-625,1645,77,1637,1705,2049,987,794,1001,768,1104,1293,822,1621,827,-657,-268,-171,501,189,942,-17,1050,472,-1119,111,-767,105,119,-876,-700,1389,404,979,-178,1091,858,966,-1143,54,761,1195,-93,-128,-1303,-1130,-894,722,409,-892,16,-468,494,-632,1689,-478,-174,1253,1926,-1000,144,1219,614,-925,-885,-677,767,-1689,682,466,-1271,-655,523,1752,2028,2562,281,-585,137,416,214,768,2334,-179,-621,-277,829,-122,84,-693,695,-583,-915,301,123,1858,1357,1214,278,855,735,1045,713,213,-552,-1274,-1165,-817,-1810,169,235,-1460,-346,275,127,162,-1433,-249,437,700,544,391,652,1646,685,2055,-324,-151,-2267,-69,-935,-1240,-610,-360,-1283,600,1216,-334,-1006,-83,479,-536,-1238,316,4,-473,336,91,-1462,823,-516,207,-1447,913,248,-1416,609,1078,-848,1386,37,-1009,48,-230,-382,-821,-1015,364,-235,1665,1013,-34,-469,1008,-325,422,339,-119,1063,-75,211,869,188,1080,616,40,68,-25,818,710,-609,-136,103,1596,440,435,1672,-495,1174,-615,1504,21,917,826,259,2465,1837,1933,325,1137,803,1345,-398,142,-649,488,-324,-42,-622,621,643,-810,65,440,34,-1365,300,-889,200,1640,-1258,-339,-700,-815,-741,-55,364,-14,728,201,-2103,1368,692,576,-209,-888,-1508,-452,88,658,274,-1051,7,1046,185,-989,807,1501,284,198,-1479,296,1166,1193,947,-1096,-564,-617,-781,-1146,-67,645,-44,-408,-462,-106,-203,1123,279,-1202,-470,-940,-1272,-342,-466,-858,-179,-573,-468,-840,-863,-1423,55,410,-668,164,-398,-1584,-271,-1714,-904,820,512,42,604,679,581,-1021,-2591,1185,-1448,-614,476,-483,-224,338,421,1124,123,1518,-690,-694,-10,169,146,-758,-198,539,-2849,-534,389,507,-1157,-192,669,335,-273,-366,1083,-928,-982,1017,-1026,-826,53,-1135,-184,1663,496,812,829,491,184,-184,806,517,1316,856,1357,-776,312,21,422,-332,-506,1166,1826,459,1485,697,-331,181,265,-464,202,-650,-474,-59,198,1096,324,1481,20,120,1898,1395,1783,1379,598,-1578,-1565,470,-118,-325,-1643,-626,-796,1108,-707,-364,-198,-185,622,183,-159,-792,-823,-1986,-1389,677,635,-659,1215,32,-1159,-710,1468,227,442,-902,-305,-560,-21,285,-503,-794,479,-1093,709,574,14,-260,-261,249,-1957,1556,-554,31,728,287,-1428,-357,-443,193,361,-601,-709,-1109,-1227,-81,-1361,-1654,-230,-1451,-636,298,-295,26,-151,463,-1420,-379,-150,407,481,400,76,-1601,-2048,-1091,-1223,-415,-874,-842,-272,-210,-1468,795,1458,440,-1177,1297,265,704,-143,-566,1424,-716,-825,1464,-1422,-193,538,-927,-1,-1327,-23,-1326,-1692,-386,295,-95,866,-373,-112,38,-1445,240,-794,1725,-63,285,1101,-344,712,416,-1253,8,-313,134,1044,-1031,339,-1277,235,-1230,-674,1201,414,1030,-616,-696,64,737,-50,592,655,1601,-672,617,800,-296,-319,57,-493,678,-543,-768,-434,4,-1186,-825,-807,329,-733,-855,-944,-67,-688,261,212,-839,-764,-66,-825,805,154,-507,-1412,31,-1351,8,-462,-1277,-858,-1508,-2598,-1794,721,807,-502,231,201,-331,-1967,-274,-919,663,-257,1688,244,1307,-1763,-2875,-1072,-1265,2046,867,509,635,1385,1331,1630,-2202,-669,-503,-2102,798,-288,-546,1336,-2637,-577,689,-1152,-455,1758,1892,801,1697,346,973,517,1096,-615,831,142,-318,217,930,32,679,-103,-393,593,29,1064,1651,179,469,-24,1311,1185,466,-764,842,-993,-477,-350,632,989,1248,-790,669,-539,-1425,-1951,-586,210,785,-2123,1073,-1734,-2987,864,-336,248,694,-2903,-1557,-399,-380,-679,348,-144,-1451,1135,361,1015,2490,-270,-2357,-2144,-1277,1270,1689,-1803,-108,1220,2792,3664,726,-502,461,259,1879,-2734,-673,2614,-1347,-558,1746,1057,1403,108,-421,1822,-12,717,1119,1562,999,1496,281,1223,1184,152,1419,862,343,-1409,-1707,-1345,-69,-121,-411,-621,-782,653,492,-309,-110,-664,543,757,1487,1833,1648,-150,1879,1555,149,212,-1072,-395,2530,542,-380,-374,1078,-934,468,98,-442,416,-430,14,585,1493,-1327,-750,-477,343,15,-980,1348,1959,1247,-901,499,-2285,-292,-1242,251,-773,1563,921,776,1078,-1019,-330,-1618,480,1186,-2383,593,2505,-1827,-1601,-1554,-1333,31,1245,-45,-1028,-210,646,-1220,-911,569,522,-43,-484,408,589,703,-874,-612,832,212,434,-601,-13,-430,-350,93,-55,-847,435,484,-516,219,-520,352,-109,1305,1324,-330,-208,1360,2208,-1237,-791,-185,512,-8,-954,-876,1674,-692,-16,106,232,-901,1138,486,-670,-860,919,685,-1168,-133,-662,-390,-1453,-702,1654,2275,-32,-526,1412,550,-725,633,490,-1317,224,291,1633,-798,967,42,1671,2167,-675,684,-270,-621,1164,924,418,241,-1355,-482,-350,-111,381,-428,-1190,234,1138,276,-560,156,424,-616,87,-141,366,-19,593,-703,686,-869,-299,783,670,822,-96,1518,732,1611,1393,1532,562,1295,1626,-1298,-649,243,936,-690,396,-159,310,-469,-409,991,1050,-895,26,104,395,-1276,676,-1172,-951,-996,-103,-1517,1302,-213,-611,491,-258,-248,632,759,342,-2254,-897,-299,-242,-1097,-307,1056,-261,-80,14,613,678,-397,-841,-113,1146,-84,-18,-1003,-384,-1348,481,-34,406,-430,99,-442,968,-908,-892,1012,931,-590,-508,19,-1561,-641,-779,-37,-771,24,-121,-1416,-461,604,-842,94,-580,-233,-502,-521,-758,-647,-234,-563,-544,1388,246,483,-754,1635,1520,1716,-751,-959,223,-1025,193,59,-630,-972,-97,-1507,310,803,-90,1996,740,-1769,-963,548,492,-121,756,-689,445,-235,122,-1188,-2184,550,-208,-744,1110,88,68,947,431,-237,-205,-240,523,510,-332,-1095,-571,-1073,1089,1477,296,135,-203,1912,678,1110,-256,203,985,1109,60,1115,629,696,-389,-149,97,-1084,567,119,72,810,1417,505,482,946,852,1072,-276,-172,485,1439,1126,576,1261,-105,-856,236,-987,-703,-76,-1840,-1215,-844,-754,-787,-1654,253,623,-256,-1601,-1078,319,-540,384,-661,-780,-147,-1157,512,-467,453,-139,371,-430,-1524,241,19,-1000,-380,23,754,32,278,563,713,736,-2370,-415,664,-690,-579,-1040,830,-167,270,-12,1161,73,240,1022,1374,1214,732,-961,-488,892,-623,-46,109,230,-431,392,-24,486,-827,-188,-499,-529,369,-1233,-461,1413,1107,-208,189,425,-873,624,381,-49,973,-1247,-671,-648,-546,-573,82,-1364,-1010,-402,36,578,655,-84,-395,1910,2220,-521,132,-753,96,742,126,-274,1108,925,-372,457,-10,-324,-1106,1195,873,894,-258,541,-1306,-301,758,-376,-151,-1951,-877,-2249,-1296,-361,-222,-387,673,-119,884,-968,-1106,-363,-634,117,964,495,532,635,-616,29,-153,-223,578,-628,-345,82,-136,314,461,1472,-618,1126,-217,961,153,-519,666,-671,279,442,994,452,1643,2046,842,501,866,2682,1635,466,-6,-680,367,1697,129,-694,-506,1178,1863,-225,856,-1230,-1396,266,423,1155,-706,-2117,2097,-4,1203,-312,17,-313,808,710,-117,-1246,-786,-275,908,-1197,939,841,471,1644,-96,197,818,874,755,241,928,1318,-2408,-758};
const static uint32_t LSTM_01_weights_input_gate_dims[4] = {1,1,48,88};
const static ConstTensor_t LSTM_01_weights_input_gate = {&LSTM_01_weights_input_gate_x[0],&LSTM_01_weights_input_gate_dims[0],0};

const static Weight_t LSTM_01_biases_input_gate_x[48] = {-1601,-464,2592,-405,1997,265,-1273,439,-1301,35,641,-456,314,1151,229,-2129,198,3270,-2388,2590,-217,1142,-1845,854,1757,-1373,-242,-807,-341,-2257,-629,333,291,-324,-356,1150,705,3288,-2460,-1869,-1851,-2016,1002,2469,-716,78,2315,-345};
const static uint32_t LSTM_01_biases_input_gate_dims[4] = {1,1,1,48};
const static ConstTensor_t LSTM_01_biases_input_gate = {&LSTM_01_biases_input_gate_x[0],&LSTM_01_biases_input_gate_dims[0],2};

const static Weight_t __attribute__((section(".weights"))) LSTM_01_weights_cell_x[4224] = {14,-774,1,-398,895,-899,-523,85,794,277,132,-9,1523,281,-483,-213,516,473,1179,-559,-117,1147,-195,-417,-912,234,644,-899,653,-527,610,-645,-871,-283,344,-88,1487,1504,573,281,509,1105,-16,-445,-1016,-911,-39,-1080,-1241,-216,376,190,566,-2138,491,487,-22,283,468,-635,-1610,-1245,156,-1741,1321,1960,2048,-939,-1509,-1030,-444,2084,985,161,-390,513,416,-10,-1458,193,-964,229,-59,-735,102,1180,-239,1057,-282,107,2074,1145,1453,-20,1844,1233,-155,-8,-1401,-396,-455,379,-84,-1009,115,-1201,-1348,279,113,1141,874,-305,-199,-148,-645,-907,64,-524,-149,328,1187,768,1021,919,-567,-872,379,-1082,87,445,957,-524,500,486,661,-976,309,1520,-228,-398,905,-2225,-647,1054,363,917,750,46,295,-1375,314,-939,330,-405,341,902,-665,-636,173,-285,-28,1600,341,973,364,124,-960,-531,-1002,-414,-33,2231,-381,828,-1409,1614,-1006,1408,37,182,-140,-1676,-1324,628,-36,-120,-848,1790,626,-153,-211,-257,1134,1107,663,53,660,-706,-258,461,-1058,245,1118,322,-792,320,-414,864,1406,801,1065,-976,-985,-918,-1240,-1491,-376,1328,225,999,-856,845,-1095,678,-1310,-296,-462,-180,-566,467,285,182,-1446,-992,734,1043,-665,645,-344,1303,-553,-1247,-211,398,-359,1038,197,187,-1123,1874,-767,-354,742,206,-169,2018,-487,-752,-1021,1004,1233,-1030,-270,368,2167,2467,445,112,-14,-565,602,650,-90,-1100,362,-167,314,1090,230,1193,-483,480,936,170,-861,737,269,44,614,-522,156,68,668,-266,658,-732,313,457,-484,154,-128,545,-1823,-913,-517,-995,658,-2175,156,-143,168,-304,-1107,-2057,-385,-168,302,518,-971,-990,-79,412,-504,805,211,1294,-535,19,-7,-1021,-851,-258,-427,573,277,1088,-917,-921,-1938,-722,-89,-279,1484,805,1265,-1269,1078,30,782,415,1073,-299,-1570,-689,350,-655,-1182,-133,884,-837,-958,-907,-207,393,281,-1109,-640,-1217,-936,-407,-153,714,-365,1097,1029,77,-598,1209,71,731,-35,-696,-1430,-911,16,410,64,-390,-1124,1216,1204,-483,-333,1484,981,953,397,1755,-17,538,-245,694,150,776,231,-50,-691,79,216,-511,1046,657,2080,619,1882,209,831,557,-480,1100,546,293,-189,-445,1849,1038,-516,-133,-1983,-820,1852,-36,663,-84,-722,811,-440,760,335,350,852,1370,-51,-617,65,-727,-750,-1101,-240,-1001,-927,1063,160,309,588,771,397,-715,-600,871,-687,534,910,-476,-692,1039,-21,-137,870,213,61,125,523,544,23,-832,-37,0,358,494,-713,1881,1145,-76,-1740,-14,108,-707,309,2615,1176,464,792,321,41,1476,-388,-28,-884,570,-399,282,102,282,748,-272,301,-1270,-311,174,132,-56,931,2446,145,110,2,-139,-333,-249,1679,-128,-1922,872,-669,321,283,1390,-469,382,-976,-818,-1155,-607,-68,265,322,-1015,-1051,1258,-178,320,-381,217,-1116,-985,-42,1062,614,-959,1028,-71,-275,969,-47,659,396,184,865,1153,1522,1036,1036,-345,476,-53,-1198,719,-1222,345,732,81,401,1200,-98,-237,1205,-331,210,720,539,763,872,-1053,1124,-377,-632,1589,408,615,-1483,529,705,403,629,706,1544,-743,-1349,12,-1520,-681,364,361,1285,-1317,-92,-530,828,1113,1388,-1046,-591,184,-985,-102,127,-15,228,-404,-107,-1570,-2269,253,-309,603,-176,-131,-344,845,-1090,-926,-1097,932,-391,942,-684,-174,-152,-701,-1248,-555,-461,-1391,-939,824,-523,514,87,-686,-277,436,1050,606,-495,1436,-1663,-887,-114,19,260,571,775,392,391,612,-478,570,518,-617,2291,1100,592,-1176,-1045,1143,406,1300,428,450,-425,-659,-1062,-1056,818,1505,719,-258,-1065,540,498,-1608,-725,-1633,-265,1013,-1114,-276,-670,295,-744,-108,-1137,-442,1734,-504,-678,-1700,-1020,-1274,791,-774,141,-903,-763,1170,-1210,1159,-195,645,-446,443,-764,21,-183,659,631,969,179,893,526,-199,837,-78,-676,19,780,-423,-1184,-1451,-1465,-1362,-1124,-219,-936,-455,-883,488,1196,-1559,-208,378,-167,158,-1239,768,1771,793,67,495,-361,-1242,-249,-321,-708,-905,47,180,542,-293,-127,1300,1094,-24,211,-140,-608,-610,687,-120,1405,-1637,1974,-1181,1400,6,457,-643,61,-407,-131,-1596,-938,279,-842,1526,723,-116,1853,723,209,-157,-923,-1787,-1167,-1250,-1814,-2297,-1413,-853,-591,836,10,937,1476,837,923,965,-188,511,-293,713,-48,-376,-283,-508,688,-614,698,-121,-984,-452,-251,436,12,1004,379,-1342,1214,-417,-375,-965,1183,-216,585,680,-920,152,473,-727,1304,72,-23,1034,-540,-1200,1600,-460,-1161,-437,102,-627,106,-1322,-547,223,-606,-2034,402,-451,13,-28,-779,753,65,433,270,-825,1426,994,876,257,309,-1214,-883,-1238,-756,-826,1220,-27,761,803,1106,-117,90,31,72,1153,418,581,-765,-878,-306,-534,1200,448,-483,-821,-767,792,943,337,-673,-181,22,847,-380,-517,-232,499,158,135,-174,-522,-1219,-569,651,957,1846,-1301,-535,-531,-893,201,40,607,1337,1687,-167,-775,417,36,1516,-506,222,-205,-1088,-922,-2144,1349,-1262,-804,426,1653,-295,928,960,-672,-575,510,-989,-1030,-9,279,-947,220,-900,1604,1369,1648,1547,762,108,104,-211,445,701,83,-792,1221,663,1307,121,130,-487,-442,511,1496,667,1644,254,-151,526,-68,99,45,-721,871,-158,-637,903,620,407,-8,15,-1200,-1374,-1838,-27,2023,-37,694,-690,-179,1121,-658,-747,-926,489,121,1658,-5,-74,-495,-840,-493,-642,1416,-89,-138,559,56,-590,-562,-310,1178,-821,104,847,-540,344,-1120,-130,1068,970,-147,722,-147,-687,424,-1242,627,952,74,-207,407,-567,-905,604,-169,643,1369,1240,1230,677,-131,-1001,-1035,-1653,-1658,-654,-1690,-2001,-413,-2093,-528,525,481,1310,741,952,951,1268,587,269,-810,-745,82,1293,252,334,-1048,604,-513,-154,483,-100,37,-1579,-522,279,-615,-541,176,-300,774,-542,256,-292,-891,-427,-341,207,854,-112,450,-1450,-230,647,787,1287,924,249,1611,810,120,-490,-834,-473,466,184,-259,-40,589,962,281,-684,1289,-37,-312,-964,1046,24,-9,353,-227,-700,227,957,70,633,-823,186,-767,977,1324,276,912,1123,1358,742,423,289,-125,-650,142,590,-699,94,-97,-343,-785,-963,-760,-888,-755,-716,-67,-311,827,12,-1159,-519,248,49,345,720,-74,441,-172,-1179,401,943,-2908,-1399,-625,-481,84,221,-1576,-1859,165,-117,788,-337,1123,-1620,164,-833,279,-1337,-211,-367,735,813,1157,437,-103,685,-1540,657,466,1242,-699,-264,898,42,-354,1408,-644,-540,-2783,-236,-665,-1087,1105,-705,94,-988,-98,-1058,-1167,-44,-147,-860,659,693,-637,41,-27,33,353,-1289,462,102,77,456,-476,-613,-10,-318,-720,398,-24,403,912,-304,-342,682,-755,-348,-965,-1293,-1210,-1215,-525,-573,-532,-263,63,308,145,-1373,-57,1108,1255,-635,423,-1495,-341,1021,849,-426,-85,-1224,830,-1486,1430,-147,899,580,-491,878,877,434,-1522,-618,321,274,-1770,722,1330,1859,2985,180,841,403,-1257,-784,-1026,266,-141,-821,-406,1048,-117,-264,-217,1165,876,-475,421,-368,-346,-1159,-237,-747,-708,101,-239,20,915,215,446,1095,-95,-953,-1031,-71,936,-1285,-733,-872,-587,700,712,-1053,-245,328,-662,-440,-82,-1039,187,-626,-1426,1534,1681,-834,652,-232,95,935,67,-1143,-1986,-1058,157,392,730,1227,472,-1014,154,-350,-166,-114,-1058,369,694,741,320,-781,2120,703,-62,273,-962,-867,-1141,-1263,-992,312,487,-520,-872,-771,-331,-1238,-876,-1254,1068,1544,577,942,1722,1136,-270,-42,-691,668,38,649,70,-98,524,-377,-453,-986,-565,-499,17,257,1056,-650,-198,-461,1008,-545,223,598,-1322,-576,-1310,150,303,-837,865,553,382,245,-1963,991,-1014,-1487,-1098,-382,-1010,1,-1386,-164,1144,625,642,447,693,576,-724,1769,976,699,731,2181,-361,-214,-568,-1249,-143,1115,-1249,1228,953,1144,567,-58,990,-638,150,-1477,-1011,-25,-320,496,309,-109,199,383,-1226,-1214,-18,-1043,-999,-154,-1573,-1501,-261,-1460,214,-1564,-1616,-1138,-133,-376,152,-739,-917,196,-985,-228,400,138,559,-93,537,245,-49,-1128,-920,237,376,-899,-74,770,-1070,451,-47,-10,298,-104,-1659,579,91,2152,93,2127,-943,-690,905,-736,-166,887,-1788,-1493,-2529,554,228,-209,-564,1012,419,410,415,1096,-122,-545,-168,-265,-681,-322,-268,200,-35,-448,-199,217,73,1626,568,-207,-660,-765,-658,721,285,-945,324,-235,426,1333,931,657,-734,705,-558,-1274,221,803,-180,-694,-185,-1279,-584,-821,309,290,225,861,971,1145,583,-59,1304,558,413,-583,326,491,-378,-714,246,-868,-1022,-804,-1755,888,-1102,184,334,472,1124,629,-193,217,-1002,-458,2502,379,891,-155,-264,-221,-314,-554,731,-240,-905,-1055,469,6,639,-493,362,-340,-542,1515,-748,794,1580,-1912,-633,160,299,438,55,-410,-338,-44,-178,-1243,-976,1534,-1258,172,401,23,1358,-817,786,896,-851,727,268,700,2110,1800,384,-253,841,818,1419,1278,1736,131,1670,379,31,1357,-389,599,954,219,1377,-241,577,1377,-309,599,-498,504,-311,-1371,-889,-662,-863,1557,-205,738,389,1988,393,671,88,1435,600,287,-250,450,46,-181,1139,1125,1269,223,217,1118,921,-596,-793,3,459,-1201,310,-663,-581,226,1618,-806,-1249,72,-761,-717,-530,-5,-272,-2219,-1029,-240,-810,400,610,-1931,-662,-718,1126,-166,-309,-962,-278,890,592,832,1756,463,896,1497,876,1236,-438,-584,-909,-907,-616,545,-778,-1197,647,966,-21,333,-1293,-1238,-1046,210,-676,32,-67,-916,-1343,-190,-1427,-91,-118,1434,-90,67,809,201,-414,-846,-457,-155,759,-149,1299,1452,-550,-1005,-545,1092,153,393,-52,-1001,-34,-234,-290,-1599,531,-578,196,-1739,942,1143,621,-565,-366,-483,1746,1163,-125,1050,-990,855,256,876,-581,-781,1848,1061,17,-525,-423,-1284,-255,480,598,808,-185,-137,843,95,130,-234,924,109,18,904,490,892,-461,1109,148,1508,1955,1952,1938,1353,1368,-300,598,1132,-722,1598,421,-149,12,724,208,1108,883,-446,-489,261,1485,105,296,-368,-122,664,1761,-224,607,325,557,-1178,1201,102,300,379,832,-81,393,283,-1001,-37,36,-395,29,14,1169,-419,-218,766,-151,-851,-1253,522,-235,522,1236,1079,1301,754,72,-328,291,-602,-53,461,-447,16,1068,571,-659,127,-696,396,1730,214,924,-144,1473,1153,1257,-432,-1056,-835,-578,-50,-960,1035,-496,802,-152,-640,-920,-650,-1162,-112,-768,317,-1103,-1543,253,-1574,-1187,1317,569,200,-786,-856,-2330,-4,56,216,1947,-724,-468,-326,288,163,312,903,-1590,-1139,-182,562,794,-269,1313,-631,-460,-1820,118,335,825,-175,-391,-312,-543,-1214,189,-1102,-80,-767,193,-961,-525,-240,792,948,-727,82,-1032,-1816,-523,-984,971,352,412,1558,-400,-1366,-579,-893,312,-899,-534,-444,-21,-251,-615,-1095,-441,-319,533,521,-331,-630,-220,-486,-194,-394,-784,228,964,-857,-800,-644,-647,297,901,754,-258,-1139,371,-264,1277,-1248,1262,136,-11,-5,-114,-1153,1519,-110,-1054,-186,427,-1590,-114,42,-356,302,954,-165,1515,-1164,-1037,-2169,711,874,1434,729,738,-1258,-747,-578,-881,-166,332,-1002,-538,1063,227,-276,-1804,-1747,-1184,344,-1167,-634,-1466,-1021,-202,-254,-332,827,730,558,503,-199,-1067,78,-769,-962,-614,-1384,-1134,-1334,317,-607,40,-565,950,-1064,-698,539,838,-576,-1085,588,-163,-1117,-275,523,481,-1053,-620,-599,726,-224,2270,-1552,-1070,1099,481,193,-1580,-44,1623,126,-830,299,-630,822,-720,534,533,455,-218,215,-450,562,-499,1004,151,207,267,333,-400,-425,1006,1296,206,14,413,421,445,1729,-975,-161,-132,213,-209,-58,-1189,-205,-500,-119,435,-331,975,1244,972,959,327,-766,-269,129,-1036,-460,566,-1244,607,49,54,-121,-1047,-1009,397,-722,-439,482,-1262,-236,-1000,147,180,-1152,-725,-268,519,103,-1379,-1010,-896,577,931,552,-754,-549,-4,241,-289,-640,-166,-855,1460,-1660,-479,466,298,-430,-26,102,-414,-572,-430,-140,26,1132,-1212,213,279,-23,-1084,-1162,-1518,-512,-511,69,-483,-1132,607,-487,1200,-1374,-1108,313,845,-171,-1092,-145,-185,-616,159,-1771,-2346,-231,102,989,1062,386,-833,15,-716,-1116,1072,-341,108,-7,-749,-594,630,188,-115,-1331,-713,-1425,-866,221,-126,127,279,-1093,-878,-308,563,-132,-1317,-515,-792,-985,-677,-40,-202,512,488,-1450,725,723,-45,488,-1488,1905,-312,-1160,-1157,1038,1217,-560,-99,260,82,164,196,-1403,-434,848,1005,313,322,161,-415,82,-840,-840,-67,938,-543,412,-102,-656,530,-1363,-344,-695,-807,322,3,-721,212,383,237,-2381,-618,1016,-794,148,-1097,868,1489,-778,-55,188,-68,477,-541,-810,-965,588,-862,-986,-53,744,-444,-94,388,-564,32,-165,-12,693,-835,1089,1084,-526,161,840,-1394,500,23,-433,-800,-443,-501,177,550,239,1435,638,-597,-1666,1341,-292,98,543,-1018,-616,882,266,66,-1617,-1515,-656,-111,984,1267,-106,1145,-603,-765,2062,996,5,-489,-461,-117,16,1321,831,-401,-715,-524,901,936,98,189,1958,-787,-230,719,1193,-485,331,-494,-1746,48,-1260,-233,380,-1250,-955,-874,-623,580,-748,-76,-867,9,406,-129,-890,-154,-1521,-357,-1822,-1289,-690,-1458,64,709,-101,-97,1252,-259,398,1174,1768,776,942,625,-405,-718,-104,397,-369,-310,-2284,-1382,-1440,360,888,1215,-240,-517,-1493,-907,1271,-1887,-521,854,-1040,1208,-120,-1060,-257,-1387,-1663,-1094,-944,145,265,-237,-22,-39,964,573,-1376,-341,-233,215,-393,544,-85,2851,738,-874,1382,-656,-111,1298,-775,582,366,131,80,438,-616,696,260,1019,-255,-239,-310,-206,188,672,157,519,967,-1015,186,551,1143,356,703,664,559,254,654,572,469,-340,-455,877,-641,44,-388,-56,-287,536,569,971,-112,-1512,488,-77,-262,-1326,-431,603,-365,-88,-830,641,331,24,-1723,-117,250,-603,-656,1336,-175,-580,658,753,-1897,920,331,-19,-883,301,671,-1314,6,-512,629,365,-168,-265,-589,241,99,-619,-742,-836,1769,2346,1690,295,-632,1003,-131,-82,-987,719,938,1505,1276,-589,-526,-50,1179,-1062,-35,562,-1019,-643,-412,-1190,-754,1159,-266,796,461,267,-374,700,1093,1012,-216,1569,-150,1118,-293,-36,-1317,1204,-300,-553,1225,-1346,-799,605,-192,-2499,-1987,-27,16,-689,157,-854,139,-246,-790,233,-224,73,-24,-370,-1324,-162,206,-75,-154,-1456,-764,95,224,-153,-356,-71,-867,-1440,2563,322,78,-131,895,-169,-278,-829,767,35,1444,1734,2417,56,25,-1046,-1140,901,653,64,511,2,-415,-503,186,741,-957,-567,-165,1713,307,-190,1300,-581,-706,717,-737,-455,384,415,-1000,-1067,-654,-58,486,1077,-513,-170,-754,471,638,-247,180,817,-856,1517,291,-851,-472,2009,-831,43,960,-1446,180,-836,-1642,428,-1066,-380,-23,28,45,87,290,-710,410,981,687,-1019,-902,863,-103,-1173,471,885,458,588,332,1973,842,759,-865,494,-356,-2675,-59,-704,-1072,-648,482,547,527,471,188,-705,946,-1365,-1558,-930,-637,-1123,-441,287,-536,-193,85,-347,248,711,-87,287,425,-267,-437,479,-239,587,-629,-1378,82,-1322,-791,-966,343,-541,711,-371,709,635,-111,-86,-478,321,-63,215,1165,1135,-845,-323,1995,-799,286,23,473,-460,1516,525,1105,-874,922,-155,-288,-266,1048,1706,-384,-897,-877,1314,774,561,-1243,-280,1297,1151,-1999,-940,1667,1348,-1120,1366,1281,270,71,1734,-1515,273,1281,99,554,855,-5,98,1328,1006,-952,722,625,1453,-663,301,-269,528,-609,-702,-138,1144,897,5,960,198,1464,1278,936,-1110,279,-105,-351,-262,-105,-1531,-186,-1510,-1531,-1249,-1836,-189,660,952,-501,-1176,-257,668,57,1086,-1391,1115,572,1993,986,-189,-243,-190,1344,846,204,394,882,419,-313,-514,-726,216,-1175,1368,2005,1198,-963,-28,-545,-982,-567,1490,-35,-106,-1567,-429,-704,-238,-652,-1983,1484,416,-18,660,1299,-339,-191,-1336,-233,-22,956,-733,-281,-542,-513,-684,-913,-285,-47,196,486,91,-25,570,670,12,628,-901,-1101,467,39,1131,917,-1274,-277,472,215,889,1645,1490,1712,954,-477,1544,243,-734,1015,1396,542,-479,-20,1140,-474,-802,-776,-354,-359,-141,1356,1799,1819,-1033,705,-45,-873,683,618,-282,156,-483,-963,-891,-1398,-255,1060,253,-130,990,543,2012,-71,-1329,-496,339,-1056,-151,1036,1915,-754,-699,1773,21,1130,720,1003,-832,753,830,-649,402,-467,-1164,-153,-75,-114,626,-279,-34,-451,587,-105,-319,-191,473,-691,-910,-1408,-65,-698,96,-1357,207,-710,-406,-1239,-1223,-237,68,-1456,-370,1472,1537,-93,62,-524,1279,-733,-16,-321,2776,1231,436,1093,-448,-601,172,1396,1458,538,-1590,-1719,-585,1298,-1291,664,-192,796,524,-339,491,976,-943,1225,572,-251,-34,-347,246,-1868,540,14,-1420,161,-553,-700,-821,-1772,1148,-724,345,-683,-1642,-94,-814,746,946,290,-1179,1263,-431,424,467,-610,-171,79,-1395,-749,-238,-1110,-1209,-1298,-1011,-521,-1586,-563,317,-1361,-1565,-1473,346,-920,155,1054,184,-237,-121,908,782,-241,-48,-656,829,351,-6,-134,585,-307,-394,-565,-558,1275,2,1277,-1278,-185,425,257,-358,212,-1018,532,1547,-1530,1175,359,-1155,549,-492,332,-88,-1715,-1887,-313,-1930,1521,118,501,167,543,1548,1377,-1088,-1272,534,591,-777,-2751,-2241,-86,1544,2099,1341,2031,557,395,-413,-909,-516,659,-722,-1053,780,472,-142,278,-12,-130,-430,1086,1613,1455,1265,437,82,-311,-751,-1161,293,3,-1383,-1016,-139,-772,-413,-80,23,439,-352,-502,1134,1369,186,-135,339,892,14,-62,607,-47,-875,1042,-302,-577,725,643,-293,-568,839,-1040,371,726,-158,750,-378,-687,1144,-25,-122,86,-2014,-2529,1004,-377,-205,-3,-744,1117,-492,36,619,-1446,-819,-15,436,-286,-785,-293,-838,-1063,620,-684,-414,-494,-1104,-393,-39,-224,307,-134,-874,367,-1606,-1775,-964,309,257,-747,-76,1516,1089,1627,9,1092,647,1401,431,-111,572,-225,-338,-373,455,-858,1262,352,576,-606,92,-129,1489,1100,158,-345,170,75,-101,244,-945,541,-83,445,562,641,2418,-4,-1342,-298,-615,749,203,-989,-59,634,51,-325,-455,88,-349,453,754,-317,1013,444,-186,1824,889,273,1336,1232,161,3,-961,614,953,2233,-155,-1197,-1377,-256,-82,-1450,-889,650,730,-846,-294,-419,-979,-1094,-96,77,234,1085,1116,298,591,-751,573,460,-53,987,699,327,213,181,559,-1127,473,339,787,-424,-414,702,955,799,181,238,1052,-41,-456,-1464,988,875,-871,1852,-579,-795,1516,508,-445,-240,463,-745,106,738,-1344,-893,-139,-426,809,297,1702,-524,-55,-1986,1391,-78,1235,-1759,-204,-470,-412,120,850,-819,1215,-310,-728,877,-743,719,1157,325,-760,-1321,-530,-1400,-1137,-1799,-683,-991,-476,28,40,297,-479,-440,-930,378,-725,-354,190,215,-300,-676,-336,-180,571,-790,-120,-800,-102,1122,1073,1178,386,324,-331,748,1621,1846,366,894,716,-905,186,-753,-986,-926,954,-618,95,189,-44,-591,-244,417,-967,-184,1184,-224,682,-349,-882,-497,-829,-1528,415,1416,1016,1018,371,-905,822,1208,-92,-579,-2393,96,1158,-181,83,-2357,835,269,-916,462,1465,733,179,1087,-416,822,45,-937,244,-663,33,-1599,-515,-801,-509,-1246,-1548,-1691,-917,-628,-526,1229,1192,-359,359,-892,-662,-997,-1414,300,-732,998,415,1288,839,1492,929,1425,356,1275,1620,-717,-123,240,-913,-24,99,-178,1121,-431,-362,391,-336,434,398,-1035,412,-189,14,345,100,-317,-1411,-88,1499,589,883,-1091,-1054,-259,-1601,-506,339,-1454,-896,200,-74,-219,-22,374,-481,-38,-802,-1157,609,39,-526,-1258,-533,-1023,83,-1105,-1583,-592,-539,-1081,-1475,777,319,1144,143,-698,-398,-1069,676,-1246,-1361,628,-539,-524,-896,-194,-388,167,679,-486,-415,-956,-913,-870,685,-522,284,-930,237,-971,997,564,1435,556,1067,874,-734,912,1118,5,398,-426,390,523,1510,-653,-491,-1673,1762,683,-704,885,1328,257,538,909,372,-1061,8,-297,-446,1161,1148,-1067,-93,45,-49,1377,47,163,1123,1140,-102,-286,-241,-1003,985,-351,-1045,160,206,-1313,153,840,-15,740,1218,-300,1013,967,609,1269,213,1147,1402,60,1363,98,1571,558,1382,239,-70,429,-758,1109,49,582,513,225,431,181,989,-727,275,956,-1052,-1053,-92,659,700,-575,782,383,-342,-1129,2369,525,68,-109,1389,324,-1630,631,-573,-1146,1291,403,528,1216,1071,1440,-666,-184,391,1102,-1260,-208,-119,-2073,492,-874,-820,481,1467,327,-72,12,-326,193,-951,-1276,-1164,950,-799,1280,201,-628,1266,233,-477,1585,223,169,378,-178,10,-434,637,1922,127,1504,1714,477,498,1210,2180,1841,170,-324,-124,961,-6,-530,852,153,-772,988,-704,582,545,-1096,-1058,539,35,-523,636,427,670,-132,224,297,-1404,-220,480,-707,-516,-1360,139,382,-2177,-132,735,-1189,624,1102,99,672,-541,536,-2355,209,-687,178,-1388,1302,-1487,-560,86,91,992,841,554,-1429,405,623,883,-539,925,-21,820,-34,-1213,-390,1731,-2508,33,-295,-639,-334,-50,980,-1233,-1038,-817,161,-413,-254,489,478,812,-727,463,-205,-934,-1350,-572,171,859,649,342,-1125,-1283,206,-1013,-754,-489,-686,499,-743,3,300,-377,232,-1066,-1179,-1136,-409,786,-342,-134,606,-282,-861,-183,1406,1080,-2,1484,350,446,242,-128,-640,1697,126,-140,1707,-1912,84,-15,478,96,760,-463,-721,1037,-1823,-1408,712,244,2,-70,-499,-84,-469,96,-296,-58,-395,-879,543,-14,500,276,533,19,-113,1246,1239,849,2120,2305,709,2537,1829,-164,248,1120,805,1496,-373,-69,415,2009,934,-142,182,1470,1311,466,-282,-495,1540,1528,107,-292,303,-384,-1228,846,109,907,-3,-17,-246,-718,1178,-226,-746,62,-146,-345,-2844,-59,-489,-64,-347,1238,842,-34,332,-963,-802,594,490,-191,-1048,-213,440,-445,-1017,251,1580,699,-146,193,39,-32,192,-806,-601,-1064,887,-323,-957,-855,367,2072,-349,-636,459,54,-210,-13,1257,1533,408,-695,46,-732,771,-617,625,-59,-668,22,478,-916,464,-111,-56,362,346,1000,992,420,1188,-217,-123,1373,304,215,740,1141,-392,347,-683,-1355,-1739,-498,-1762,-2545,-189,-137,1208,472,-1980,-489,-386,-1923,291,-531,-53,-78,819,937,-190,-588,-258,64,1282,-192,-581,6,706,-272,-675,-909,235,-146,-137,341,86,-769,-966,1265,-176,-636,-1365,263,556,488,-407,-1020,-634,676,568,-1557,-522,-692};
const static uint32_t LSTM_01_weights_cell_dims[4] = {1,1,48,88};
const static ConstTensor_t LSTM_01_weights_cell = {&LSTM_01_weights_cell_x[0],&LSTM_01_weights_cell_dims[0],0};

const static Weight_t LSTM_01_biases_cell_x[48] = {-1231,-66,1361,1165,-466,482,84,1230,-30,134,55,155,-334,813,-153,173,-575,-731,-247,648,267,1025,352,843,-1005,-639,-1027,155,1054,2350,374,543,-701,1073,-157,-959,-744,-837,256,623,1122,301,267,108,-570,-39,452,538};
const static uint32_t LSTM_01_biases_cell_dims[4] = {1,1,1,48};
const static ConstTensor_t LSTM_01_biases_cell = {&LSTM_01_biases_cell_x[0],&LSTM_01_biases_cell_dims[0],1};

const static Weight_t __attribute__((section(".weights"))) LSTM_01_weights_forget_gate_x[4224] = {-200,916,-190,-389,1347,906,864,382,1146,609,-1351,-891,-801,-136,-101,94,-413,-1210,-1411,-1336,384,1394,34,40,692,-558,-769,235,-458,-922,-17,-865,-184,-365,567,-431,-955,316,-784,-398,983,431,602,1507,917,28,851,-708,264,646,642,1338,270,-1006,939,947,-288,-177,-425,124,-604,168,1692,924,-212,-229,-265,575,-751,245,1299,547,1422,812,259,2221,-1415,1527,-1702,940,-109,-1506,-209,450,705,671,672,1687,1065,959,1224,-55,-1134,387,-919,849,49,137,-1781,-1375,-254,-593,-179,520,-898,-688,-896,539,-635,554,-209,-1036,-696,856,444,50,231,358,-587,1427,1554,1261,53,-318,890,1273,304,490,-1000,164,-562,723,448,-120,500,-512,-700,-756,-1161,1349,1962,-581,432,-1460,-534,-17,-54,-374,131,1853,-1446,118,935,1144,439,190,554,-1034,44,155,413,-1595,1713,227,523,-665,1272,-1003,596,829,-1359,-353,-815,-200,814,295,318,4,-311,-978,-1390,-452,409,70,-993,-62,-246,1443,24,145,-355,-778,1285,513,288,56,733,513,-957,-854,-1516,-379,-112,558,-370,-398,470,-183,-707,-800,335,-935,-974,51,-1436,-415,378,630,703,-513,239,760,710,-143,-1508,-1620,-1474,1532,1395,-749,-211,-91,-2221,12,189,568,1751,881,-1242,1227,-1046,568,-172,-1082,713,907,637,-196,-618,-807,1645,-448,-1478,-661,1603,168,347,605,316,-79,71,-616,-950,-979,1261,1109,-198,159,-328,434,-1401,-183,-1199,617,-909,967,357,637,502,-1001,-1130,-873,858,-1050,-454,-511,522,-426,467,-1291,204,-576,-326,-773,-1091,-1373,-1136,-689,-872,381,-565,-498,-1041,-1631,-146,914,-399,-1056,-363,390,-458,-716,389,650,548,-272,749,434,-1295,-18,562,-131,167,-1114,-741,-246,964,-24,-447,465,707,-539,414,98,-568,888,1467,-1957,333,648,54,-331,672,-1673,868,-162,-55,-1321,-108,-1351,364,-516,2387,343,977,1440,764,-612,988,561,-138,-879,-708,-1112,198,70,479,-770,547,584,474,931,-351,444,564,261,-735,474,-1513,-419,-547,554,-1075,-847,-464,-1281,-588,658,-735,-447,-582,-875,-716,-1260,-199,36,-1651,-697,-835,-181,-522,-63,-541,217,998,667,3,-1263,-645,-646,-1041,894,-335,69,2225,228,758,-726,-207,379,-355,421,985,1301,267,-1216,-35,-457,-583,-540,358,-252,832,463,1225,778,985,-40,-523,-1047,-250,-200,121,1113,1644,1919,1630,-608,-589,320,-1192,-253,799,-691,-266,-286,1498,264,522,-962,-515,-93,-421,622,-173,-447,908,-437,-136,-1130,685,-896,93,292,-254,-462,1227,1122,-903,783,-509,-507,78,-424,540,-1564,171,-1080,184,343,-1096,-51,1381,333,413,-288,453,-1886,579,-1067,632,1054,-693,793,201,296,-495,294,-629,-410,628,380,-409,494,-1271,-606,306,630,-793,200,343,-177,239,-413,771,-751,-241,-414,2761,2745,1087,-517,-98,-846,-752,205,463,884,-204,664,-853,1252,649,-199,-489,-840,665,-619,57,540,526,-713,579,-45,-716,241,-632,-775,-397,-268,670,659,555,-595,327,549,-1178,-266,988,763,-83,1121,-750,925,-424,-493,620,158,590,-139,495,-181,-902,-575,1171,-131,-403,636,-1094,-49,522,514,511,1442,-994,-880,1834,725,174,-102,1926,222,-628,-1068,-676,-440,-1261,79,-932,-823,343,477,-611,-84,195,2097,1400,1680,443,551,345,-1204,-1302,-1200,-1223,-35,606,809,-1015,-128,267,-278,-1186,308,-14,-452,-942,636,-557,-844,203,286,-205,-864,-851,280,-1275,-340,816,545,-11,-1130,-585,-550,145,-565,-970,-78,-96,-43,-393,642,711,180,210,170,165,670,-1036,217,130,1594,476,-636,268,1248,-36,618,549,-386,-1498,355,-335,227,955,-409,56,-401,773,1399,-699,431,-856,359,338,-1418,-899,766,557,502,-1105,-335,-972,-131,193,843,330,264,1355,353,959,-56,41,-800,-660,226,-967,105,-390,534,24,1592,441,1183,783,513,-468,2,-896,-900,-824,-831,-716,-425,-176,-673,-752,181,1053,1762,1398,1865,1024,453,194,53,23,-9,-1065,-392,588,-115,651,223,-2163,-479,602,-486,-247,221,-295,-419,-729,-226,-1870,716,214,-409,100,-361,-626,204,-420,1267,-7,492,-1310,-509,1073,305,242,558,-2255,1205,119,325,700,214,-741,91,455,-590,1132,687,-823,-1041,657,-424,945,-111,1151,-251,399,-916,-522,961,1137,567,263,590,-1106,-78,-333,236,595,1097,735,-197,887,-623,-897,113,-607,97,-229,-52,-827,1183,-6,-807,410,-222,-438,-59,1151,-319,171,922,-683,-147,416,352,-144,-64,-568,-402,507,-209,-1294,1252,1231,-1280,974,-291,36,-1183,143,-10,1417,552,-801,-48,-806,330,216,-27,118,-746,1357,1863,528,911,-331,-1267,1120,860,17,726,-1103,105,-1425,-2120,607,1032,428,856,657,232,299,1097,493,485,488,-1219,-331,-934,-215,-509,-817,-1111,-1194,25,19,-435,-860,226,-401,-743,478,391,446,-308,245,-497,913,-136,250,-557,203,802,54,-579,-209,-205,-315,-1124,504,-1002,-170,656,405,-271,1191,729,985,-32,-24,-205,32,8,-1595,314,-656,860,-459,736,-255,-567,-13,-133,-258,-783,-922,-2167,66,-1855,-1687,411,-2054,-1193,-1058,1204,-1145,-477,-187,505,869,-933,1237,1587,756,-436,-1792,-1635,-860,254,-671,-210,411,416,-855,1062,-739,-1608,-232,-1246,-1636,661,865,-148,-692,638,-991,-1015,-649,406,-373,154,-1122,395,1005,226,-1107,-1134,61,-351,-632,154,-180,294,-873,-1229,773,-477,245,-1721,1690,222,-759,811,121,-920,745,-840,721,-60,-494,-487,-218,-82,97,766,-922,676,318,410,1313,362,-910,-203,475,-793,-158,933,-115,-2270,1170,-339,-409,697,790,257,-227,537,62,178,-1107,-459,480,-72,71,-287,772,-326,310,-318,-375,-532,-1586,-440,-561,382,-636,-1361,-1421,-314,212,46,22,795,-51,549,-705,-163,1179,556,536,-412,107,-217,-490,-187,49,-234,625,-1381,359,1009,-329,-593,1188,484,-112,-1165,249,1328,578,571,624,182,1082,-229,722,1821,832,-660,-299,289,656,-464,291,-202,2064,-95,-42,-178,351,555,611,907,-87,422,-147,1109,-522,-1228,925,225,507,-322,-428,830,-844,406,-187,-522,-1264,-496,-47,499,1138,-248,1076,-51,668,164,1345,-179,367,-284,-294,-454,-807,923,-739,714,-345,-1088,-350,34,441,-693,73,-598,-721,-469,257,-354,701,-432,-1173,620,-311,-1,1176,144,-569,273,-485,-874,-1306,211,535,90,-838,240,599,-44,-212,176,-1152,-1887,476,-274,-488,-19,-688,2167,76,-453,362,244,566,-1108,219,1756,-1192,-746,40,-279,74,485,-1201,85,-1751,112,-116,-884,-381,1289,-1134,-315,-1758,-879,-95,154,651,1311,-219,1125,351,1231,-509,121,-118,9,538,1533,921,615,237,1170,750,59,-477,921,-363,641,170,-405,505,856,278,-116,-297,715,1114,-44,438,-639,-358,1271,1282,578,-41,96,-341,-809,753,1903,1062,530,567,-526,491,640,760,-487,367,-1419,-1658,93,493,-124,1392,726,-661,167,139,-854,-86,578,113,-350,-464,1741,-192,-1256,594,617,-1144,444,-1834,-1051,-1038,193,-3,263,823,-477,-544,-1286,-1035,-1375,-288,-271,-868,-935,-1044,-803,732,-963,971,865,-676,316,-392,-235,-438,-1066,-550,-773,-225,28,558,-640,343,-498,-607,-979,308,-1394,-1553,240,511,-730,-311,140,-419,-801,231,-1234,-600,-386,1199,94,415,-536,-221,639,1620,48,-311,-1289,-1289,1234,-857,1130,-821,-1206,752,-1560,170,-621,923,369,2097,1014,164,-784,-1588,-653,1398,-206,307,-246,1857,262,-892,-690,-730,1270,1202,64,-352,1196,-526,-369,-243,209,-1216,-1857,-106,-207,-1203,138,-527,-592,-1105,459,840,-190,818,334,-92,-246,43,-718,224,-616,322,-355,-387,-257,-662,-383,-215,-410,889,976,771,701,-2,242,298,-1197,752,439,741,37,314,862,-368,845,847,33,-147,1549,1023,-319,179,-292,-731,367,1033,-64,274,-174,912,-659,-999,-733,-324,-465,-420,-1709,-926,672,989,-772,545,644,65,-157,-1164,-1168,431,-220,-1052,-1685,509,1215,-431,360,969,-227,470,2413,-174,1067,595,561,1071,873,1112,1430,840,70,899,558,-150,880,932,34,-119,1415,-269,-282,-811,-956,803,692,779,-783,-153,519,-136,-400,1111,737,1053,851,550,-173,820,917,1055,-773,184,363,-928,651,-891,-845,-1294,-701,649,-795,119,728,-309,59,1356,-238,384,-20,1348,-677,213,-1542,314,93,184,-613,1156,-534,-696,1006,-1282,247,1599,-29,-1424,-872,-1981,403,-550,-416,-71,1198,1735,-176,1206,-1068,85,2,-888,-994,-350,-757,-1761,-1361,-119,186,1284,-268,234,289,-588,-1504,-62,-278,162,-773,-1289,177,-1175,-1838,-1683,-1364,-1075,-1518,-145,-1029,-1328,-471,342,334,818,149,-164,1069,-140,1866,136,380,-431,-1566,560,-1392,-1237,277,-30,1189,756,274,866,-419,-371,1160,1526,1116,-461,711,380,-1487,524,-44,2178,2949,1231,-1062,1022,-1,-1112,-1286,667,411,-264,158,-238,851,-1087,-494,-196,684,1877,-718,731,2129,-522,-354,247,536,-325,-21,71,-412,-1115,-339,582,-1347,-269,104,813,-722,673,336,-1249,-1529,159,106,12,-549,-173,186,173,660,-9,68,1137,-757,-689,1186,1448,1465,413,-948,-1101,-171,-732,-1250,-84,547,862,-921,1021,1363,148,188,-210,-458,1056,-567,1845,-2423,271,55,53,-185,149,328,486,-619,782,198,-128,994,-36,1275,-783,-1047,505,231,283,1397,854,-491,437,-824,615,567,-375,57,736,-636,-1099,477,432,577,317,153,-103,-10,-658,105,-61,819,26,-297,641,-324,510,681,-391,-872,592,429,791,15,878,1077,483,765,790,-917,72,648,378,201,253,-323,-353,-911,-1127,47,-227,-127,180,-545,944,-1445,529,-184,-1510,899,157,59,-557,1008,-497,1626,28,-1605,413,-739,510,124,1225,211,406,214,487,1544,73,73,71,-499,-547,-375,388,-766,-694,-321,-545,1273,224,512,100,-1103,228,910,-388,-851,-394,737,-563,-44,393,1517,-940,-598,133,-1163,217,642,-534,362,154,-122,-1027,161,465,-212,707,406,-312,668,209,-787,161,824,-714,712,-44,-546,681,248,-370,678,69,-1277,-655,196,561,-419,216,-359,-701,-788,740,688,-500,203,-360,-847,955,1297,1001,-259,425,-218,0,103,-1366,229,-700,-594,557,974,-55,-549,-932,-230,-1431,-1303,-391,-78,-453,-11,-834,239,828,-280,-838,-1530,-1051,1477,-557,207,-591,-1314,254,-411,-864,52,11,1246,296,-729,-459,-168,-364,-1404,-1760,-677,-229,-657,521,678,8,544,883,-100,-1196,-51,461,-544,-1188,193,398,12,-1014,-97,-152,910,-733,-653,-1014,519,852,1435,1039,896,790,152,-133,404,407,-392,873,381,-1544,-504,711,-470,1351,-488,-1337,-1513,-258,99,-494,662,-1526,210,305,718,-428,-1542,-56,491,723,-601,-35,-965,538,-1164,-258,-1440,-818,411,-1506,615,-1541,-239,619,-53,303,314,-914,756,959,-403,634,-858,-599,348,951,693,759,-489,-393,-640,-1597,694,362,-2138,169,-719,-559,-701,-576,-1037,-1340,-1522,-1006,252,-1388,-965,-1151,-469,412,-964,-1057,346,934,783,-522,-1070,892,-1173,-1393,-1248,-575,-337,1136,1294,1204,207,238,-423,1113,-614,-840,121,312,500,1534,-170,-1331,-74,690,1628,-509,1083,364,508,-150,-598,463,470,305,1597,-105,661,437,532,-1218,-604,383,-325,3476,-1237,1629,381,-1663,-1475,-1621,-341,-365,-1319,1246,1571,-342,-909,793,361,66,-933,-827,273,569,451,197,902,589,-213,-686,748,1049,-231,495,357,197,-13,855,763,-659,651,552,393,571,381,505,719,-551,1297,-652,549,-694,-1022,-618,12,-595,-773,-495,-513,-265,1087,815,-591,808,-1757,-756,191,238,77,-442,-204,254,1119,150,1733,-1087,-72,104,-859,-583,-396,-411,2040,1005,-100,-491,792,1281,-312,-363,-685,-860,-964,-697,-843,-1243,262,535,-225,262,-112,-206,-760,293,586,16,687,858,599,738,1065,630,82,1009,1189,721,615,-717,-591,883,754,-570,756,734,-233,475,-777,893,542,917,281,44,876,1013,743,556,601,655,-1023,-227,-387,197,1687,413,-221,-243,-803,216,-1101,-404,1342,354,-1243,891,-937,-2026,-411,671,1238,-1184,867,375,-591,134,-1182,481,-209,2,211,-584,-880,-827,1142,-517,1294,542,740,-477,1243,-399,-293,-863,133,-141,89,1227,394,229,666,899,397,1038,1686,916,-525,460,762,1244,724,-384,526,130,-542,-891,198,1311,753,1027,1125,120,2,-382,1019,623,-64,-895,85,2,-628,-643,-948,-360,-650,-465,-859,-239,-382,327,-1118,-240,-818,1613,-851,707,-1468,-780,1482,-1628,-637,-458,395,1276,-296,-395,-189,1273,-714,-71,-441,-923,-494,1031,-43,-679,-1073,-807,-835,701,1249,126,684,603,-717,-396,127,-1108,1338,451,644,-2093,628,-725,-370,373,-316,237,-472,-2045,-970,-644,-577,-1536,-1098,50,-416,-1527,-1817,-1320,235,1028,-11,-777,687,-693,-1198,-929,-821,36,-25,-464,-945,272,-378,919,615,578,-907,-192,752,-939,-889,-376,-270,157,-324,-907,-994,-666,1186,-895,35,1236,635,959,746,584,802,288,-130,587,-518,1442,174,497,-421,-163,1577,1101,-668,384,776,603,-469,707,-418,-555,-768,-1070,-1203,1563,591,858,550,-628,161,487,727,-28,298,-206,637,-1315,-988,-931,675,-124,81,-1896,66,-84,988,462,-783,210,-734,808,-1218,-75,191,308,-230,-74,-162,509,-1170,337,-1012,-488,-528,390,-502,-77,148,-400,-583,-1036,308,-674,-171,115,884,-166,420,1177,712,1008,486,523,-359,1494,-772,-1061,75,465,-644,-113,-1547,-341,697,158,-61,63,1668,336,-1078,1865,-438,-368,-726,285,-106,532,502,129,-1383,-1075,-1168,1943,-1701,701,712,847,110,153,-480,-1163,275,1970,-1086,929,2495,-1216,628,-934,1380,1035,-106,-464,-1259,-440,-142,88,1023,518,-313,-92,607,-429,-913,254,1081,467,877,-845,-941,166,9,43,-283,-696,343,1114,821,668,1137,-781,168,1172,-161,517,-671,286,529,-1471,-1010,1586,486,-889,85,618,1564,486,-210,937,-222,-724,1303,1767,-660,-448,21,-1193,309,-139,847,-1830,449,-1536,-953,556,-73,-49,1804,341,-293,-1717,119,986,-1144,1008,-961,1856,866,-618,-226,494,-800,-26,-1059,816,-1476,1433,2080,130,-687,-1352,-39,-880,-958,-697,186,127,1326,-197,918,-145,486,170,-554,-407,504,72,-1327,-1184,-664,-570,-829,-1206,-731,-199,-1507,-1019,-683,-1143,-1018,250,-1118,479,-373,-1350,111,1526,-1085,172,-570,832,-38,-230,-409,1029,-1118,198,-707,-366,-84,-1248,-2270,539,622,-193,716,-1652,540,907,-765,478,998,1059,-19,374,-386,339,-1033,-133,103,-399,1260,-557,-1138,-936,-642,-1658,-714,303,-231,163,-1864,-1245,788,-1426,-1183,609,-1156,676,7,-463,-608,90,739,583,163,-341,149,1142,-876,-854,-189,713,-143,540,-1264,-322,-691,-490,501,941,-107,-1261,-1395,-479,64,789,736,-771,265,-917,-841,-1080,-865,-815,1184,373,318,-1122,-1425,-10,701,-516,-342,1489,123,-382,-1469,198,761,739,-1010,744,625,1229,847,781,614,-471,389,-518,-1140,316,936,-26,573,-318,339,795,-685,318,-308,438,652,-450,-1196,-123,1058,-554,-1088,685,817,-56,379,465,600,648,258,-896,733,-295,-397,1479,377,908,153,603,-121,-849,670,-687,282,-857,220,1154,844,-325,514,598,-618,1375,-728,78,97,-992,58,217,-192,-384,-20,-50,-27,-408,-145,-727,574,961,1207,-116,-624,-401,91,-737,837,-1344,-917,-590,-311,555,726,120,1132,544,-448,72,1062,-962,276,-809,-252,856,223,1685,395,14,-826,1178,-885,740,3,887,511,434,-1346,-30,247,739,-314,318,-646,-1832,-361,-758,-840,-353,-1235,743,577,47,-1133,-685,-643,211,-1413,600,-893,-837,386,-425,-499,-349,424,474,295,347,-995,-890,681,-1069,-1116,-805,-401,326,1546,1265,1178,150,-124,-112,1524,-268,-566,-1124,-561,706,-501,-253,912,751,-616,-312,999,-692,989,994,-543,486,340,-529,-342,997,-95,-296,-1502,985,779,-793,429,-354,385,-684,380,303,-429,476,-522,-357,-213,809,350,-448,1327,1233,-1411,-48,1344,-881,-750,-1079,-503,182,-288,-974,-783,-1221,-747,569,244,-286,-442,206,-218,-583,-888,20,13,585,-961,-498,-1709,-1111,-757,-87,-733,-272,-1376,183,-464,-960,97,-55,-8,1464,-14,282,701,1290,563,504,930,-508,35,806,627,-183,-262,-1318,374,-314,232,-385,-1880,272,-1075,-294,224,590,-724,436,225,1505,-843,747,1080,-150,402,765,-396,-1366,-413,670,611,-331,515,-565,622,-446,-1070,-1189,640,626,1192,1088,545,861,-1061,-591,-1693,-561,-314,-233,384,1086,-728,-565,220,-195,128,-206,-49,132,-272,6,207,-537,-1429,-259,132,-858,-494,268,51,-496,-1065,-244,-132,198,742,1019,958,-620,-471,282,-777,881,880,798,1609,-327,178,-864,-473,315,-1446,-1382,-672,-1247,76,-728,-893,-1112,-167,1550,-1081,-286,-537,-750,30,-419,578,161,21,-148,338,1078,-258,774,-547,352,-742,-40,70,-533,185,-104,121,55,457,448,-1212,-146,-321,-104,-543,-150,1149,91,389,-762,1126,-894,288,-1297,386,-795,-661,1040,-163,706,-362,1520,-619,-937,-235,617,-805,-717,-304,-79,-626,-456,-475,-363,-1490,-1137,65,424,375,-224,-1314,-187,-678,-1423,-1517,676,175,-1149,-390,-634,333,-1092,-244,229,-667,-794,-200,-1530,-874,-246,1153,788,-910,1664,-635,-169,365,1559,-1141,131,151,2223,-1648,-1000,385,435,-610,441,-208,-1974,-792,-1353,-150,-1576,-403,-645,-810,-774,-1760,727,-483,1266,1785,2100,201,-979,186,-1255,-1283,-152,-228,-1667,-838,-435,-451,-606,-435,118,-1030,-1296,195,-1712,195,257,2,-521,-2145,-1254,-1363,-1874,-1001,-510,-747,-841,-219,-1665,-1094,-396,-769,-259,-197,-425,-1356,-814,-17,401,-1146,520,-146,-923,-51,1894,1,-86,511,1283,-974,99,-18,1774,882,-460,-289,-554,369,124,899,972,-657,866,-555,-388,-1857,-740,-765,1401,755,-627,-1038,-607,-319,-376,-1030,441,19,838,-1013,825,66,-1005,-83,-284,1098,1585,1636,1613,1286,1306,-15,640,164,542,-1302,-473,-1311,-968,-990,174,-399,938,584,-613,1428,1159,-740,-394,-1885,505,-1114,569,235,-1530,-1166,-1020,-479,-547,-1609,-844,186,-1529,-915,343,1451,-330,1335,464,-298,-23,733,992,1527,-1145,-809,1152,-1119,-231,-186,-170,663,314,-407,-999,-366,506,1645,667,859,762,633,-166,-566,241,742,746,537,103,975,-1763,1884,1543,990,585,1336,6,214,518,-182,-173,892,177,697,55,598,1377,423,-987,88,-705,-796,-216,-153,669,644,551,-344,-1064,322,467,332,679,75,-1339,-346,134,134,307,456,492,-1377,-379,419,-796,-875,-302,-71,3,1214,-1089,-45,573,1294,486,-1813,677,531,301,162,-1307,395,458,-709,-1319,187,-1335,804,1037,-1073,395,675,1102,1278,751,-644,2019,63,-863,-410,-247,-154,-1021,-30,-383,207,123,-588,25,-310,-533,642,-2382,-532,-568,510,941,-558,760,-204,-161,-1140,-887,101,-15,578,292,148,1101,-179,63,-158,-457,912,365,479,114,147,-130,-313,-1486,-692,381,209,585,-662,-327,461,903,667,-1019,-820,-329,-51,497,132,-126,43,802,837,-175,-114,-1195,-379,1058,670,226,-448,131,-825,1702,-957,-1064,638,1158,841,999,-58,7,22,816,507,457,203,580,-95,-861,-1117,-431,-236,-710,-1548,-898,436,291,-1170,-445,484,1626,-2107,-1252,-1210,933,-1228,59,9,146,1169,2183,-483,670,-706,-190,689,-354,-123,-915,-475,822,93,963,1353,-322,97,-265,-105,792,-1572,-1888,-938,-473,153,-1330,-1287,-927,229,496,-1795,-803,32,-1128,-1070,-434,985,-608,-1133,-316,34,-1573,946,-263,-274,892,638,-1201,-197,766,-2403,334,-345,-1164,940,259,-146,224,224,-557,-1116,854,-1236,-359,180,1532,1293,1030,-962,-945,221,1415,-483,-50,-206,-530,291,739,-207,-91,-1713,-2241,396,716,-1350,670,969,-850,287,1681,1219,772,-111,-1067,556,1101,309,929,184,-530,1130,1179,42,986,1083,318,1210,405,-881,-251,75,716,-157,1030,998,609,-241,849,1156,1222,-645,-153,-511,-447,705,183,396,537,-796,229,-845,-478,-626,12,-827,-666,907,-797,-567,-2207,-1497,-487,1771,-563,-899,421,491,-1664,-1204,100,429,-519,715,-965,1301,31,-178,-1191,-836,-219,1079,-332,-1149,1209,-158,-85,-241,-318,718,705,699,-327,-999,561,366,-854,-1488,-1282,-2159,-360,-289,390,-527,976,1612,-425,-1067,-526,-716,-640,-844,-637,518,963,267,342,-1439,-302,488,933,950,451,-1324,873,583,-175,-65,573,616,342,-103,642,-135,37,694,266,463,307,-590,-1186,602,-684,-363,476,-839,508,-683,-437,-178,2777,-50,12,16,1674,-651,-654,66,-823,1668,-495,328,-1155,291,313,1002,427,-362,790,507,-451,-1213,-378,188,601,1097,584,127,-540,1905,59,-618,1473,50,725,-525,-76,439,716,-714,-1394,694,-1025,638,501,595,1042,1342,331,233,1313,1134,599,-776,-131,401,780,332,45,-869,-1083,234,-327,390,-1162,-988,-322,-366,473,-794,353,-144,1391,-308,-451,-325,-1324,1215,-768,1299,151,1113,1314,162,-912,-821,-113,601,689,-149,-1012,-996,-375,329,-115,49,1389,860,35,397,108,-315,73,1476,747,-539,855,322,-232,-28,-393,-49,568,2332,409,1229,322,-362,781,-1285,-92,1400,-51,-1390,539,1544,-302,750,-98,-81,-487,1171,888,-250,54,-661,249,354,-460,1710,-424,1285,1093,311,-81,44,853,1141,700,-385,-896,402,786,1493,834,19,695,56,834,670,955,1164,947,162,1254,-136,351,1573,497,-844,-723,-1165,-1254,-741,93,-23,-427,-102,-836,-435,1451,-655,546,897,-147,1021,292,89,277,-817,150,-652,-427,692,-408,769,-607,-559,424,-295,-1070,-1020,-94,420,-1181,280,-571,2571,256,-408,800,-676,-691,1030,-10,943,708,920,-1021,-439,1093,197,-787,-872,-807,-280,-187,1000,-612,765,-806,1135,-1206,-776,651,223,666,681,-467,-439,-291,773,880,316,794,1109,197,906,287,1135,-880,191,-349,-403,360,-377,535,-1610,-710,208,-108,-354,-155,189,-1133,1040,-189,-583,92,-1852,14,1156,-215,518,-331,-261,-347,-73,575,-1168,-1291,689,-340,-723,143,1110,908,-583,945,-532,469,-250,719,250,1326,91,743,1073,211,380,841,1405,-309,-32,-1194,-206,-1054,-789,-1400,-1346,155,-1011,-409,-190,-494,-1311,-29,-644,127,276,446,-1400,-1591,518,-750,432,-904,111,903,-213,928,510,-465,-40,1210,-296,1446,117,51,1908,1174,-165,-2301,-788,126,-1451,-927,-144,133,-765,-330,744,-203,838,177,-1287,-1503,916,510,176,-849,-708,-265,388,-998,-144,-247,-672,346,-800,-614,-55,373,-1622,-857,-333,1195,737,181,92,372,2171,203,-1231,-163,-976,246,-888};
const static uint32_t LSTM_01_weights_forget_gate_dims[4] = {1,1,48,88};
const static ConstTensor_t LSTM_01_weights_forget_gate = {&LSTM_01_weights_forget_gate_x[0],&LSTM_01_weights_forget_gate_dims[0],0};

const static Weight_t LSTM_01_biases_forget_gate_x[48] = {2128,2119,2173,1981,2017,2118,2047,2209,2164,1890,2131,1808,1864,2088,2238,1589,2173,2099,1524,2037,2059,2240,1891,2360,2352,1940,2312,1925,1884,2425,1926,2303,2134,1946,1738,2115,2076,1736,2148,2080,1919,1889,1987,2159,1914,2105,2281,2000};
const static uint32_t LSTM_01_biases_forget_gate_dims[4] = {1,1,1,48};
const static ConstTensor_t LSTM_01_biases_forget_gate = {&LSTM_01_biases_forget_gate_x[0],&LSTM_01_biases_forget_gate_dims[0],-1};

const static Weight_t __attribute__((section(".weights"))) LSTM_01_weights_output_gate_x[4224] = {-462,-1536,-235,297,656,-926,647,25,-344,-1354,310,850,-1041,-639,-406,-1222,-1765,-1619,-220,-209,-175,604,227,-501,-919,691,826,330,-493,791,-659,-74,1254,-551,-933,-388,388,-934,-407,-1020,-933,1295,-1400,40,1728,-461,1162,-246,672,1534,607,-196,569,-715,-533,27,698,1394,1012,311,-274,-1826,77,144,409,-751,596,1554,-1,-819,114,-1417,-91,-253,1318,919,1218,1480,532,-168,4,-737,-720,300,450,195,-1147,325,-1542,-424,-955,1008,-1318,-1103,-333,306,-654,-264,-851,49,-896,70,-786,549,-141,-55,-1060,267,-724,-487,-249,-1323,-605,35,-1769,-1366,-471,-110,-8,165,479,828,-770,721,-505,-1006,-177,576,85,-549,-453,520,603,826,-1044,-1260,-1531,761,-108,-513,201,-474,165,544,-628,-2061,-341,409,412,729,-486,31,632,-1240,12,832,952,-1532,792,943,376,-283,-683,1024,231,109,2818,1298,1807,925,-195,992,841,-471,866,-1360,47,548,69,423,-151,369,-319,-1187,-753,-229,880,1008,605,-175,-329,-197,765,522,-889,-660,-455,-721,-833,-831,-1835,-1365,253,-904,-1199,-688,-599,301,518,365,-1401,-1116,72,-174,-1256,-2104,227,-593,-141,-702,241,699,-513,-724,-1055,125,-569,-1787,733,-1665,-809,-618,1111,-1497,-1122,-61,-1395,294,-394,-429,-3,-335,-187,1038,248,922,349,453,-188,-1046,568,269,-208,81,-1212,-302,468,1084,344,-768,468,-172,57,-168,1063,-67,-1150,-1370,-1096,45,-1531,-670,37,-1098,-1101,-285,289,-295,-1089,-469,-944,-307,702,-877,-540,-178,286,279,-644,-842,-663,-805,-521,-717,-866,48,-390,-951,-921,80,-437,-322,-1296,-1097,-348,1530,-747,172,-823,-282,-1545,-623,165,-149,522,612,-302,-990,-562,-1368,1661,-1166,-681,-1240,-524,-953,-496,-1415,112,366,-382,204,870,1092,934,-637,-37,716,-480,262,-27,-1451,1479,-1513,-1324,-97,-292,-625,-164,-1068,463,478,-1205,567,-729,448,-953,-877,-1027,-578,-919,-376,510,-711,-225,-242,-1266,-1373,-1415,381,1038,1403,-379,-769,-1304,-674,-397,-1169,-428,116,-646,-179,-95,-1181,-1512,-262,-1031,210,-446,-1143,-421,-1354,364,220,123,355,176,-983,811,-437,-527,2435,707,-534,146,421,-1158,546,-295,-827,1157,-389,628,-592,300,-556,696,-203,139,-30,-387,1461,-285,-99,-259,1011,722,452,1328,-212,356,797,175,589,1325,1445,342,588,78,815,-2136,-1824,233,1829,675,1707,2000,936,1139,700,731,1210,568,811,308,11,1100,41,237,-700,-887,-1055,-821,903,-303,851,349,-306,641,352,487,239,174,-839,500,183,868,-208,1161,513,-634,-1218,26,1086,-1809,-1140,-111,-962,-1524,879,-837,-669,-1179,712,59,507,742,-1337,-341,-211,1507,1041,-517,698,-847,-575,-1122,506,1804,-207,-1080,1997,405,256,320,813,-1020,97,-1119,357,-630,-1258,-973,-444,311,-21,-3,-626,1910,1855,142,-497,-1188,-777,-626,-464,-1399,-80,258,-333,1122,-416,1430,1130,1055,448,-158,-501,796,-431,-1072,-514,568,-365,1045,-84,-673,-584,-517,542,-372,725,1429,152,167,14,-985,-1330,1411,702,-325,155,328,-84,-289,-758,2709,-812,-289,286,557,-1033,-331,-974,-479,-767,-1042,1546,-358,-991,659,-161,-1081,627,300,1588,444,-534,12,-248,834,-573,718,171,-22,-1164,1583,221,895,-328,279,-93,-727,1487,-838,1439,1587,204,-825,365,-1383,-144,-682,-1427,-986,638,158,269,240,855,-908,-129,-491,418,800,720,550,-1123,415,590,-460,-571,-721,-572,416,-901,566,-294,468,1265,-693,-456,-590,673,-754,-360,1298,197,-822,627,374,800,927,148,-1375,1104,778,747,144,-1285,-378,-364,427,569,828,-269,-305,144,2193,-217,-354,151,-469,-118,138,-296,335,446,74,1176,362,2094,470,-33,547,-776,778,1264,-659,802,-703,-192,-1029,535,-123,234,-1192,-1313,8,-453,-1249,-739,-867,151,-354,1037,-826,-1166,-215,1055,-438,-256,1628,1140,-405,1249,1144,703,-192,-630,-758,-16,239,1375,-160,-436,899,1367,1665,617,1112,1057,2271,1309,495,455,-535,163,-1079,25,6,327,-64,-1594,1039,132,96,1690,-436,-908,12,-176,-234,481,494,-175,-616,434,599,387,1048,1368,-401,532,200,-195,1932,-1397,1858,-874,-137,556,-329,380,-208,733,240,191,-811,384,-324,-1861,239,-801,-112,1135,1001,464,1424,1651,887,1668,1071,233,2193,1687,1725,897,1277,1680,192,883,427,310,1414,117,1087,1401,470,65,1106,633,-110,-51,842,-465,691,44,176,96,1257,2250,-387,658,-325,55,-1028,-514,-251,211,-375,-817,387,-204,1615,5,-1182,1206,-641,-653,80,-1366,-652,180,478,233,766,-1187,447,890,-447,594,503,1709,-530,-686,479,759,178,766,-468,-131,-714,-1051,18,-690,97,737,-699,142,-197,-932,565,380,1398,289,-614,-186,290,1411,-917,298,536,-318,-345,-624,-566,27,304,349,-526,690,-926,619,-842,341,-485,-1197,-627,662,526,565,-374,-57,850,-83,-515,-694,1085,1095,-424,-1599,-1004,-379,-1259,-269,-592,977,65,-492,136,-232,-1000,1843,192,-578,-1121,-585,-934,-1635,-386,1897,-737,1496,438,-12,-1365,899,1360,-298,-682,-608,-1154,-368,565,-67,352,-917,-1325,299,-696,875,-523,832,414,-369,641,-1262,1398,1005,-1298,-858,-1141,-2547,-858,-478,-1173,-2109,-625,-1069,-456,-1082,-150,-286,-263,-1214,-1232,-1584,-714,-2,-846,-183,-1024,-616,-108,-884,-295,-1176,272,-456,271,-512,470,-1427,-40,-1102,-372,220,744,-51,-868,1187,-513,509,1135,-43,1839,1543,208,-317,2235,-1635,397,577,-812,496,24,429,417,174,50,85,-3,-113,-900,338,1580,493,809,-426,444,-1426,-1556,1117,-52,-2093,418,-204,991,180,-26,862,-641,-655,311,-199,-1175,304,946,443,475,119,1637,560,-602,1014,15,-1353,473,525,-251,-305,-447,1194,74,1024,1184,389,902,1985,598,39,1896,628,-32,553,-335,1163,-12,700,1389,404,900,1324,697,-364,-1429,-506,996,-1211,61,1652,-880,743,1338,-393,948,-1436,411,396,-802,-615,290,1677,107,-181,807,-644,785,-270,604,742,1038,-804,-292,312,-974,-1622,-1099,1852,259,-572,-344,1930,702,-909,-2457,-814,59,374,-221,695,-552,-183,455,-537,-623,720,750,1553,-293,1339,1074,776,1565,1123,106,935,668,352,1082,-763,771,457,1234,-477,669,-720,829,362,249,806,575,80,-96,271,-708,-1215,-1398,-1821,-48,-1125,-969,-1855,162,-1504,260,1212,276,-647,436,317,1405,672,1491,112,1310,-614,-59,1195,838,530,692,-159,943,662,501,98,825,457,354,-1206,-1975,139,-1032,915,872,2294,-34,-446,-56,649,-1312,651,-3022,-733,-732,-1210,-493,-34,861,533,-251,786,666,-556,876,-419,28,1004,235,-647,482,-485,-707,-1668,-1270,-1251,-253,-1033,-857,331,107,983,-86,441,-643,-340,-387,-1057,1188,340,1002,669,944,1143,-373,-18,619,930,762,519,-422,1463,600,804,808,-300,-52,196,416,658,1788,-973,-948,235,-1093,466,93,430,1042,101,336,654,197,-398,600,360,-829,-656,226,-671,1126,193,341,347,-309,-1166,1103,-995,178,202,1485,-262,-1581,-893,331,890,-508,1386,-1547,-279,-710,-667,-553,-357,707,336,-621,-591,-457,579,428,666,861,300,77,529,-443,1132,76,514,-22,999,-6,-692,-169,423,808,887,-373,449,-568,-57,-164,88,-441,-1007,-1049,-159,10,396,-797,-2341,-404,-372,-34,-1017,577,1705,1701,1069,1429,122,-122,180,-96,657,315,-425,-752,-1032,1195,-3454,22,1173,1279,-527,147,-1109,-2344,-170,-554,-1443,-613,592,941,-14,-673,-397,-853,105,1316,-712,480,2135,-476,-619,1286,-1268,-1141,465,21,995,582,890,-1062,-518,-656,-883,690,571,-296,-704,513,-724,595,-897,645,405,-175,261,-86,-312,60,407,486,1035,-334,-84,-449,1445,1190,89,-73,635,748,-1072,253,-679,-22,1858,-641,-872,-64,72,603,-94,458,590,-1597,1635,128,151,528,-629,-1192,1015,-477,806,123,297,-185,-1143,-371,-511,687,345,1285,262,-2064,1227,1802,-849,-1333,-1928,-600,-68,-179,-360,-207,252,-409,-710,870,-1587,54,-261,-25,276,-1750,-1094,-1782,-1828,-1751,-1833,129,1302,940,-108,1375,1169,-465,-184,-434,931,-674,106,-1694,-1852,-1792,75,-1307,242,-267,-17,-1379,-1321,-703,834,-461,-200,672,-662,-1343,-754,-11,-107,822,538,-149,-204,-254,-304,-1298,-185,179,-841,-630,259,-932,125,122,-235,661,362,-1207,-87,-300,-1537,672,1348,-679,694,-848,171,477,196,-415,-909,-1009,610,-1048,1318,932,457,-433,727,-1039,-418,-250,438,-150,-115,-320,-718,-761,-1194,-1217,-391,-416,-1243,-241,906,311,474,-244,-129,-1180,-617,-360,-969,275,652,306,326,36,-74,64,-345,-1418,-384,-898,-459,511,390,-53,1364,1649,792,1405,1916,1747,1185,850,917,-439,-2415,756,-314,-113,-244,-582,646,-248,-999,1425,40,-559,725,1625,-631,-135,657,483,1162,757,-487,672,1214,1163,211,1248,-483,-782,-674,-63,264,602,475,595,-406,-950,278,-1684,911,-133,179,-472,702,-492,939,-610,478,-724,245,-265,-1817,-1424,-1641,-1630,-882,-949,461,-86,789,-1017,-1336,-1085,-152,186,-331,55,-1498,-1624,-95,-1931,-1024,542,274,-388,-1250,20,838,654,-111,178,-1011,132,-554,-1061,-180,-95,-396,776,12,-319,-571,421,91,60,479,-171,130,419,-834,-389,18,-63,51,-133,-251,321,725,-1246,1053,-308,168,193,1216,-6,-753,1031,-31,-483,-99,483,-1579,-190,-871,588,-2217,72,933,133,539,-594,-1387,-909,349,1888,1024,436,1171,814,-322,446,-674,-1059,-221,-328,-381,277,169,340,963,1366,-323,-510,-209,168,-1190,-978,-435,-370,-89,388,831,571,864,-582,-989,1134,-358,15,157,238,-1199,596,-1503,800,666,-1840,190,-1318,552,-74,190,-1035,896,-1238,897,-1181,-911,141,1283,-12,588,146,-63,-409,237,-283,440,382,929,617,-134,-990,-1018,101,389,-299,-836,272,-94,152,-1285,245,-563,-664,76,65,-834,794,439,256,1013,-960,62,536,-565,-637,333,199,773,-1275,291,-949,-672,851,-35,414,450,378,-1294,-859,-1120,-1303,-2066,-913,-523,-670,-905,-1866,-882,-1702,61,-606,-425,137,298,-855,596,227,252,-654,-576,360,-379,-968,-947,-229,1067,-627,-695,508,-263,636,298,-1729,262,582,772,1057,-1007,428,-556,1464,-201,-483,-1531,386,64,-282,-645,-1171,1023,-252,-1079,-595,-1325,344,-31,-577,146,3,-739,-20,-359,220,-828,-446,442,-1729,512,1393,-733,55,467,-820,-113,-1544,172,24,-707,-367,807,391,-334,-392,225,-144,96,-832,-554,-157,-1323,-1444,-407,-638,428,-765,982,736,-951,-767,-360,83,362,1848,927,1592,304,1995,1937,-244,-887,-555,-128,480,-970,394,-1468,-1071,-964,713,533,-430,-1212,-776,-556,198,603,-1951,-1132,-453,222,-1276,-637,421,323,1407,-295,752,-966,39,-2200,-169,-1003,183,345,-498,-1136,-1321,-523,265,-67,-232,-901,-1253,1504,-174,86,-135,-789,422,117,1187,1274,883,-991,-364,-1438,-1337,-1097,-756,-808,-1483,-1319,207,-1655,-186,-380,-687,-214,593,-156,-692,-1047,-1289,-299,386,-244,-566,-760,351,419,-1114,513,139,-485,-1310,-1551,-2004,-702,-829,101,-806,-983,-319,-613,126,-1264,-1710,318,765,-499,452,-1164,98,1420,480,824,-1019,246,1086,263,-31,-387,-102,-297,-66,237,779,711,333,-169,-397,-624,483,-1667,2150,183,1009,-515,-588,-240,-768,-1932,512,-747,1536,1286,-112,-1709,-892,-834,-1242,-1698,-506,-466,-1395,468,-724,-1219,383,-173,-784,476,-932,-373,149,-491,-719,15,-1411,-1,-730,-794,-694,499,-1285,-1776,-1621,-223,-1594,-355,-266,55,222,-365,-1646,1126,1912,931,261,1008,90,1778,-768,529,-17,831,899,244,-191,-318,248,22,322,-1124,245,-532,50,575,396,132,1151,673,1386,661,-59,1063,-724,-410,-9,343,326,-1051,606,2520,1750,-98,588,278,-503,-196,-568,1,-783,-161,1348,599,-1151,-717,787,587,-1076,-1048,-1081,209,-912,-499,-130,501,162,-303,-606,-315,346,-85,-1046,-148,-659,-895,73,-1428,-217,-1435,-1399,-1203,-1059,-1719,-331,-1531,-634,-1596,-1997,-774,315,1004,-1355,-562,-936,402,41,-876,-633,637,248,62,-222,280,-400,131,-465,719,-358,-778,751,-122,1093,-1270,165,247,127,696,4,1521,-1043,-609,451,1493,-43,-1000,-1174,1044,823,1012,901,804,-760,-772,16,-415,-491,1029,-483,1325,-48,-760,-1500,-1303,189,-640,-1278,-696,-992,-508,-1026,-154,-896,131,532,-1453,588,844,-1005,-1160,-1176,-1412,-187,-702,-1346,-602,257,-866,61,-247,367,-916,-885,-855,-84,227,-278,-750,240,1083,-676,213,-904,208,617,-485,-1892,-679,-244,-1739,-546,814,-1491,908,1051,-833,-247,456,12,-223,-122,-669,45,-737,-381,-666,585,-977,-264,-725,-418,304,-413,-475,336,1725,201,-333,-612,381,1309,-664,-585,58,541,-758,-1615,-476,898,-51,-612,-1077,413,-912,654,-364,-456,268,-572,870,881,531,955,-1127,183,-411,271,-726,518,-508,50,131,390,-237,-265,215,333,649,-388,657,-1429,-252,-1937,-43,-1389,-795,599,-92,-527,-1928,359,-375,731,-132,2101,175,1521,1958,-476,-679,-1895,654,1476,862,507,652,460,-540,126,997,262,1043,-773,313,-151,-249,-1255,-593,237,1012,-334,311,251,-315,1572,-451,1413,-480,382,386,-1103,-174,499,-162,-125,-2057,69,712,708,261,1195,139,1020,193,1188,169,533,1388,694,1141,907,510,1986,227,57,700,342,1854,519,-275,1197,1191,841,3,1754,194,355,400,961,587,139,831,1589,2205,1125,-543,680,208,-1116,-60,-333,-13,-1794,147,727,-992,670,-404,-120,-1081,236,325,-2022,-1385,224,983,-1661,463,-788,-1644,-1583,783,-105,1194,-42,938,-1892,-246,1827,273,181,1000,38,2696,-1014,-1630,190,-703,366,-73,242,742,129,1063,873,-84,-110,-1019,-814,340,-837,440,838,119,-535,254,1389,205,944,476,-342,-1389,74,-1276,-1750,-365,-663,-1671,-383,111,-1677,-1291,-1309,-289,-1261,-1527,-843,-1901,-1060,-1636,-856,-1203,343,900,1509,296,-1107,1210,1109,-1241,-355,222,942,-238,-1093,-369,536,176,-8,-726,-609,312,176,-662,1495,-392,1516,88,-1100,399,424,473,241,-352,-159,60,-887,-472,-307,-999,-416,297,-812,-449,-162,-63,270,-2109,-816,454,305,1579,139,-568,214,-76,56,-8,228,1057,317,-365,-524,693,-51,883,1122,1224,1047,77,876,-651,-233,235,-587,937,-477,744,-297,944,-1095,458,-66,-741,-999,554,31,-1135,-156,-200,102,220,835,-23,137,-539,-1212,-848,590,-1825,-19,302,-386,435,152,-328,370,-95,961,-994,-361,448,237,-481,-388,-825,-1519,-382,-393,-1273,406,-1411,136,1097,333,191,-2348,-891,-301,213,-905,-293,179,-235,47,-191,-525,342,-1011,-1628,-284,606,970,588,-1044,335,-856,-148,62,1665,945,821,695,-467,-716,-532,-85,-563,-576,-189,-1228,-609,-1298,-1056,-945,232,-1111,-1393,-763,590,-39,-281,-203,-77,-674,-282,115,846,911,1255,97,412,-521,-419,374,794,-247,-168,518,-561,-23,508,460,762,379,-1561,441,-193,29,1022,-883,-386,-1213,494,-358,-1271,-879,792,-641,-1058,577,1388,-228,-532,-921,-956,1059,103,-389,-1822,-107,-153,325,-1502,-30,-212,-1019,234,784,-513,-1131,-380,541,-570,-840,-1939,-1190,333,-251,-1200,-395,-1485,-1562,-1095,-1321,873,1254,831,62,-1092,-1591,-15,-162,306,-48,-736,674,-618,93,-1418,-95,74,167,-1629,-1085,-869,-690,-236,-1162,409,775,701,-1006,-751,-1017,1729,334,-36,286,-467,-734,197,749,-287,-843,-459,-2515,246,-14,587,847,1291,-328,-115,809,-165,-1110,-385,729,-629,1587,151,-23,77,-436,-544,-329,-844,1566,-556,-534,-83,-775,87,-3087,-645,309,-348,21,494,446,532,873,1171,944,-1121,1276,895,-212,751,-72,-276,-1231,-1405,-755,566,52,-316,-55,736,-989,450,548,-324,161,646,-331,-520,967,326,95,1447,1253,1739,1013,-641,-245,-448,-2051,475,-920,141,-2834,-109,-684,-1510,-878,-720,-2716,-612,-697,-1805,-1331,-1476,256,1007,-425,-98,-594,184,-696,-1239,1494,-410,377,-244,-253,-1774,2347,-866,838,-74,-675,703,-1560,-455,-750,881,725,414,656,-2250,1066,254,-1357,-826,-838,-1713,-573,-275,56,-980,85,-564,182,-1347,-442,-1200,-776,138,-968,-133,-994,-1521,-1372,24,-1628,-1461,101,-951,-145,301,-744,640,174,876,1862,1491,1539,1497,709,2113,308,771,56,-1937,986,435,36,218,-348,462,171,1298,-1535,-815,-662,814,-1415,1037,-1023,-255,591,911,233,-2321,317,-453,-201,-366,1259,211,-176,-166,1085,200,284,769,-142,11,-1299,-536,-616,-932,1021,415,-356,1242,630,-783,-1245,-590,-31,-158,824,-21,-733,1001,-719,-315,-1388,164,-106,-1780,-853,-362,-1337,-756,-958,-826,-1149,382,1062,523,-991,-77,-896,490,-1407,184,52,1112,873,-451,-694,-419,433,-1589,-1014,-1570,1374,-436,-1605,230,82,154,-532,-1801,-141,-250,907,-693,356,-1200,50,453,722,286,1997,-457,-1819,194,1097,142,-813,507,1524,-292,92,-292,1115,-567,372,664,-560,-437,372,468,-1167,-311,-1924,13,364,-899,-234,665,-599,231,1575,1537,1550,87,-1044,-916,-176,-1557,0,400,-1470,145,242,762,102,579,256,602,440,-1699,-1408,-1051,-1119,-79,-375,-118,-1339,-1112,-1118,-1318,-1299,-543,-182,-90,-589,226,-167,-1375,-1421,-2037,1648,91,-345,782,-132,-1904,-2642,-1144,527,2,-485,-913,-261,-1010,-182,1436,1662,-477,1739,-1650,-990,-167,1126,-2052,1537,-46,149,-722,-211,-546,-637,-987,280,136,-243,-991,355,702,-1064,-380,-683,-340,-530,-397,-1303,-1003,206,-446,466,1365,-351,343,-54,-328,367,631,-882,725,-469,-509,-1069,562,654,226,-1026,616,-124,-232,-446,951,15,-1126,-778,-855,-699,-697,325,795,440,928,174,-148,1160,-401,658,1703,-269,887,-178,-277,165,223,927,-1012,-604,-851,-455,862,-601,-75,1595,-852,-110,-75,-119,-574,-892,770,501,-325,-151,431,-961,1135,-124,1538,1090,319,1470,-1103,-1349,-499,501,-996,-666,-285,-666,94,224,633,-161,-585,1220,-1098,1119,-1299,-405,-626,388,998,-347,150,-801,1243,-712,-1529,-527,-297,-1303,-1145,-298,-704,-729,-569,-238,113,-908,925,-381,-1271,-404,-714,552,-620,920,3,-1548,223,-648,-1142,-1413,-1179,-758,-1350,-984,-2435,1315,852,27,-1188,1978,227,1161,936,-514,2083,-197,1046,1322,-2003,1198,-730,-61,383,1658,380,-963,-1492,496,404,464,-715,-409,375,141,-770,276,753,1059,-447,-890,-183,-95,-75,446,321,-884,-9,841,787,-844,230,399,379,-2284,-929,945,-1077,462,57,-740,-523,-420,-1451,-726,1391,244,-529,686,-386,829,-235,154,427,466,1,-1123,7,117,237,-1161,-1288,-602,496,315,635,-310,-16,2,-329,-256,594,350,-132,-836,209,606,-195,-398,-161,1502,-161,-539,-1277,602,438,-911,86,987,1625,899,-1129,-119,600,68,1166,7,-431,-1149,585,-1047,393,345,1025,636,-518,-389,750,299,-309,526,479,413,-184,-871,-126,378,1839,54,112,16,-1198,-243,-320,-900,1188,293,593,997,902,1433,686,1280,1610,137,322,1702,1418,1815,-154,216,245,90,253,40,338,1787,736,1134,504,843,257,1065,61,1150,-120,-220,1563,496,30,246,-83,421,-1301,27,817,-960,-1021,1649,-406,170,-888,-1576,2003,-195,407,-310,-2737,-514,-1379,724,1183,1601,1153,-1534,-87,1092,70,21,170,34,-431,1521,1023,263,651,-309,-1257,-955,1953,485,453,-33,-1146,-76,-772,2521,718,-817,-246,1549,602,733,625,1405,1275,927,1347,210,646,926,1507,83,110,-58,1852,1615,1291,263,940,-323,425,1035,654,958,550,1133,-674,676,1403,-662,-766,-176,675,1051,985,930,518,987,1923,-99,122,-1244,-563,53,-274,-558,214,-1465,-820,1037,-74,676,-558,-330,-653,516,-1254,-675,-109,368,187,225,83,-618,1166,359,-115,-759,-1085,-1459,207,-1220,-381,955,-843,-18,565,-947,-1361,-1028,-1919,-435,492,291,2388,-412,-674,592,-426,-393,-107,-668,-809,-1427,-186,-1749,-1959,-1752,267,-229,-1376,-131,-79,-1061,-1102,-1021,-282,-698,-467,719,-468,518,645,-1112,-30,-633,-808,123,370,385,-258,-245,-704,-765,-496,264,-1159,-182,205,42,272,-608,572,-338,-2033,-415,916,371,560,1046,-88,-2087,1034,-1003,-1333,273,171,412,-1877,-145,-762,678,511,-661,645,-759,104,-287,1472,14,1365,-164,-252,434,486,-1125,1517,-572,595,-872,1000,34,-987,170,1382,-502,-386,-251,-1241,-930,-1268,-1766,-435,-1746,-1446,-1774,-234,-1313,-1207,-1145,-1374,-1477,-227,-186,-860,1059,-139,-293,-88,-1701,30,-664,170,-667,284,774,-454,-571,899,-667,-633,1280,1373,-550,234,193,1362,-196,540,339,-292,394,-1820,617,807,-127,-1046,-525,268,-75,-562,1100,-578,-851,-1234,95,983,159,1213,-123,-703,-249,-625,-1067,1399,414,791,411,-149,-454,-773,-1058,408,-151,627,-598,-142,-528,371,-513,-279,577,-627,778,106,-388,-1557,-1409,-175,-153,523,-991,112,-256,120,1429,1185,-406,308,1218,-690,539,395,-1018,186,-80,-736,-1508,-1143,-123,-179,-1306,-1226,520,404,-1108,-116,-436,784,840,-416,-760,-510,-390,1053,559,-662,-687,722,892,-1386,477,-946,-624,27,-317,-534,530,-600,-992,-1308,755,611,272,577,-722,167,269,1132,-14,-342,22,-171,-141,250,-308,283,1169,3,58,1366,-388,301,1521,777,58,-300,-866,576,540,-592,1080,1459,420,345,-567,-575,-1212,-618,-546,-918,-354,-396,-1337,-488,4,-408,-35,54,-527,590,-998,9,416,-1412,-697,-479,-444,-527,483,-1456,-805,-346,-1140,-1099,-1144,-1545,81,-1426,-1530,-2744,1516,-1074,25,6,-1534,15,56,-1632,250,-855,-1244,-389,622,462,-398,382,562,-474,430,-885,-2265,-579,-177,-421,1128,-374,-383,-748,658,569,882,-501,-270,521,840,-855,-881,-1868,640,-526,-295,-980,-1446,-256,705,393,923,-326,-376,-671,-1120,-972,-1450,-1086,-419,-1514,-1,-460,-1851,-1422,-260,-532,-1244,-114,-1068,-1725,-1203,-607,-875,-90,384,-1010,-180,-3,-1525,-1046,-758,559,-869,-480,67,292,-804,-1656,-1372,-851,-471,-1269,-425,-795,-1204,-758,394,-1356,580,-515,1916,-565,137,-1134,-953,450,819,395,1049,-60,-284,-1039,-379,-484,1070,-1917,232,1440,974,-415,220,-1330,1245,-701,155,-472,418,-817,-971,412,523,-1211,99,-73,570,384,-294,-1340,409,886,-1017,-399,-490,875,363,250,-804,826,-252,-1299,487,-280,-66,-663,-372,166,-726,1019,1235,-120,-533,1216,505,-668,-634,-852,-597,-87,-624,927,1012,-624,809,758,-224,1630,1620,-317,-422,607,880,788,-576,620,-165,-211,277,-708,-3048,-572,-579,-42,386,-1359,-2461,52,-1947,-438,-671,808,-110,1568,-1254,-359,570,287,-694,1065,2968,-416,-1222,1420,-1592,-2112,1188,472,-1447,-435,-1,1097,148,483,314,1952,379,587,450,-634};
const static uint32_t LSTM_01_weights_output_gate_dims[4] = {1,1,48,88};
const static ConstTensor_t LSTM_01_weights_output_gate = {&LSTM_01_weights_output_gate_x[0],&LSTM_01_weights_output_gate_dims[0],0};

const static Weight_t LSTM_01_biases_output_gate_x[48] = {-1653,-770,683,-165,-896,1616,356,966,1615,1434,1512,-709,826,-154,-449,-2560,1545,496,-1239,491,671,-887,-202,863,-1032,-1662,879,-692,2984,232,1273,1258,-312,1302,-984,-1199,-665,2529,-1270,335,1378,1019,-168,1189,-889,1138,-447,915};
const static uint32_t LSTM_01_biases_output_gate_dims[4] = {1,1,1,48};
const static ConstTensor_t LSTM_01_biases_output_gate = {&LSTM_01_biases_output_gate_x[0],&LSTM_01_biases_output_gate_dims[0],2};

const static LstmLayer_t lstm_01 = {&LSTM_01_weights_input_gate,&LSTM_01_biases_input_gate,&LSTM_01_weights_cell,&LSTM_01_biases_cell,&LSTM_01_weights_forget_gate,&LSTM_01_biases_forget_gate,&LSTM_01_weights_output_gate,&LSTM_01_biases_output_gate,LSTM_01_output_dims,LSTM_01_input_dims,TOFIX(0.000000),tinytensor_tanh};


const static uint32_t LSTM_02_input_dims[4] = {1,1,1,48};
const static uint32_t LSTM_02_output_dims[4] = {1,1,1,48};
