#include "tinytensor_lstm_layer.h"
#include "tinytensor_conv_layer.h"
#include "tinytensor_fullyconnected_layer.h"
#include "tinytensor_math.h"
#include "tinytensor_net.h"
const static uint32_t LSTM_01_input_dims[4] = {1,1,1,40};
const static uint32_t LSTM_01_output_dims[4] = {1,1,1,48};
const static Weight_t __attribute__((section(".weights"))) LSTM_01_weights_input_gate_x[4224] = {-181,-716,-88,867,389,-579,316,489,764,513,-343,-164,-846,-889,170,-691,-926,382,-1130,-537,535,-6,-156,-764,58,-1340,-15,70,429,375,361,198,-1045,-1228,-692,-728,275,219,-47,192,-405,-912,-346,379,-1200,1240,-707,-916,-109,393,-148,-54,-9,-409,-560,1579,-815,948,105,-332,552,-189,-300,-185,-480,-1101,-10,120,224,-507,-148,-327,-659,-866,-701,587,127,-370,-639,-864,640,1288,-649,1278,1043,-446,-752,5,1130,-669,-204,-890,362,-984,-406,-1117,-429,68,911,-75,531,81,971,-835,171,326,-648,-702,-131,-350,950,-369,-210,293,384,-939,-492,-582,546,-391,-374,-547,271,-531,279,186,-1085,-965,48,14,-442,-186,-318,-310,516,-222,-832,1668,1302,-427,-767,435,692,-693,-39,267,110,-421,541,338,606,-263,1619,426,-325,1264,228,-507,273,1123,1266,608,647,-295,1066,-1795,447,-470,-28,458,-231,-433,501,1338,201,-187,-495,-901,897,-129,-183,381,243,-797,523,-602,148,-509,217,-916,602,-310,-829,-296,404,-591,521,-67,-438,789,-53,731,1073,-388,-51,-407,906,667,201,-760,1060,-792,-573,-478,763,875,663,279,533,253,198,1225,-54,-774,-980,-81,-890,-46,827,452,606,-526,-363,-754,-9,447,-676,-771,-74,768,-357,-1606,236,-367,318,-645,524,-658,720,-236,-980,-1235,681,-596,612,-534,-779,-789,1025,-196,89,676,-179,-714,198,-812,686,1272,1395,167,-177,1594,-13,600,642,979,790,1175,-443,952,817,-241,791,253,358,-477,-614,-158,992,941,427,209,44,1493,1261,504,937,289,1174,1001,1251,1550,1509,-188,1054,606,173,246,-66,-474,589,1042,-178,576,-854,-1141,-267,-4,1340,128,-417,915,-266,-466,-173,-757,702,329,-766,481,77,-946,-922,-958,296,164,-148,36,265,-479,-1433,550,920,43,104,1307,-350,1567,-122,451,-86,-271,293,1120,-521,-810,253,963,-673,-1102,-187,517,-927,-349,979,1048,294,-294,845,1047,1177,-301,-67,1439,644,590,-376,274,-133,73,590,346,-600,608,741,-331,107,-802,-194,-652,346,481,-664,849,800,320,1667,728,272,-1084,421,294,368,256,-260,9,-464,-217,-227,376,-1024,-1397,-447,-805,-257,-65,-241,405,-334,993,516,-382,961,1066,-353,-112,-355,-120,-1535,2037,751,-1439,268,779,730,1057,-139,209,1399,-187,394,377,-785,527,-36,-4,66,-991,-29,-415,-339,197,-531,-797,456,640,83,-588,-22,-72,-960,-313,-459,-101,-685,195,-762,774,-932,-716,-343,-274,50,-1082,256,-611,218,-430,-500,-1151,-491,965,-829,679,480,202,-373,-473,306,175,-135,372,563,736,2341,-387,-81,841,323,271,254,798,-178,363,245,-4,-896,-401,-437,-629,-173,110,172,-103,-453,-107,236,-327,-891,1261,-845,-577,646,1349,1397,-790,-269,475,208,776,-369,68,-647,458,-489,1090,583,837,389,775,53,1082,-807,-618,897,865,-544,-260,343,-880,129,-36,594,-99,747,604,-859,-116,1136,-199,810,182,410,110,-155,-605,-653,-56,593,-10,-346,-1637,591,-355,-412,-337,338,-84,1317,-527,530,1039,-210,-242,489,-130,76,819,-169,-1188,408,396,-229,-716,25,-629,-370,-196,-822,-13,-413,821,-561,-972,-160,1172,500,-536,1472,350,-532,-45,-18,-534,-536,1232,-242,1004,-1059,-903,-1831,58,-306,-1628,-870,-1515,282,-677,-8,-898,-314,433,-21,-1382,-38,-200,118,-1131,-394,138,-792,652,-233,-426,349,873,-294,-267,-59,-183,-59,-1190,-1021,-328,631,196,-2,-1262,614,-450,12,1166,1165,382,371,-1554,-632,-609,920,-112,588,219,-388,-1178,-458,1058,439,561,914,-960,-819,1126,-1115,1083,-485,202,-152,90,1318,574,-2092,713,552,-1806,949,-1168,-802,1521,113,-1015,-499,-1055,-1531,-39,772,509,450,-508,47,-327,567,-485,-32,744,1193,1077,895,-494,-238,864,-617,124,296,664,-166,401,-161,684,-701,-264,-414,-239,835,-689,-423,1200,1060,111,601,897,-165,1322,1064,672,418,391,548,131,1272,-144,623,-1236,461,241,317,-395,-1587,-1114,-259,532,201,-132,-428,1618,-476,277,682,-460,71,-512,1090,-447,345,-297,-392,-475,-255,-872,-412,592,112,127,469,1116,-417,534,-397,560,-61,484,439,490,745,-317,807,-290,-648,40,-397,-132,486,-43,-199,337,-770,224,-473,-29,839,-504,-577,-319,-434,101,222,1031,-923,809,-493,1199,369,-353,694,-663,506,780,1125,205,806,816,-360,-519,1536,-736,-341,306,1119,-800,-316,-457,-149,-1590,-191,906,115,668,-485,1055,821,1238,427,-306,1048,985,-1367,723,-300,256,-303,316,-31,-40,-192,-120,-384,265,-125,-151,520,-279,590,149,-790,668,516,188,0,863,1349,1434,-737,1057,-860,1092,-379,430,-763,403,841,-483,330,1414,-966,-677,-820,-606,630,547,964,649,-1220,-497,495,133,803,223,435,-883,-170,347,31,-810,-174,-1231,-1406,131,651,-25,556,-1248,-668,-381,1285,-733,-228,70,750,-537,364,-85,-881,683,702,487,99,-859,-1264,-2048,240,-2571,372,975,1205,671,540,169,-802,-757,-121,1777,-724,889,1652,-1341,-10,661,126,-1250,290,-1049,-164,1227,-941,315,-33,849,-177,833,-675,872,1115,652,-678,302,1079,-381,-434,707,930,308,886,-458,463,357,829,314,-824,81,434,1057,-641,-31,-160,1298,-474,1150,544,812,342,-878,534,1137,-123,348,629,107,20,995,635,499,1302,-102,663,-341,-253,-436,-1267,-1191,-377,1324,-651,103,421,155,-69,-616,-399,753,-524,1092,-630,277,1212,390,1195,-82,-119,-1374,479,796,-895,1027,-494,1047,-1114,1312,-1099,-611,1818,-109,476,366,-391,-164,-19,1067,349,-859,-406,413,-457,157,1056,312,-1141,186,-1448,-714,-872,-883,-1473,-1193,380,-2,696,-950,-181,-66,-730,1021,-619,-227,-345,1008,-716,-132,-1152,-109,-400,520,114,-47,-630,-788,-721,-149,-1338,497,-200,1276,-509,-496,26,-1092,77,534,-793,-732,774,-861,-56,382,855,-14,-272,1162,-204,1322,858,-606,255,-275,17,169,-945,-247,-766,820,588,473,-235,-253,-1719,842,1284,-2013,206,-879,120,-825,651,-860,-878,61,184,811,-512,603,10,385,198,401,-388,918,759,-130,-969,828,-277,654,458,626,-934,-1077,-1,340,-943,453,213,614,-86,-1039,730,-949,1036,658,-31,112,697,-1252,92,860,-228,457,-64,976,46,-1057,-993,-1692,926,-548,-508,818,-602,333,691,-485,621,1251,111,-870,844,-1590,496,1843,-306,54,119,-153,1175,-852,300,1395,933,-802,-212,-127,-472,-732,-292,-1296,-447,-1993,-533,1652,-860,31,-301,-1061,481,-1191,578,469,625,-1141,-957,-769,284,-1186,-297,-1122,981,-28,-781,-139,-256,279,781,-510,-447,154,-955,831,433,-1006,287,216,-838,612,427,80,-985,319,291,-650,1273,-440,-370,852,464,-335,-601,-1099,298,-413,-48,229,-447,-604,-405,1821,-589,-1498,1425,266,-160,-830,287,-890,-1164,-913,-244,1306,-751,-519,-550,346,-295,-195,-1399,-739,570,618,536,-85,-1185,641,542,426,-240,-915,699,864,-1531,141,-1035,-502,574,-1362,361,494,1026,-1150,-550,-419,-952,955,-810,-956,-412,-348,-500,-210,-1175,41,-670,-158,-1460,-821,-1167,-1085,-1557,-60,247,-523,-1149,192,-414,-496,211,-1204,-183,104,-473,1477,-195,-660,-194,-180,-649,-1001,752,440,-74,660,513,-721,-395,-949,1396,-1926,2459,-372,-625,516,-125,-1198,-605,573,476,-596,684,774,-828,378,253,524,961,652,982,55,1085,605,568,887,-444,-755,-331,263,433,272,5,-381,288,-880,-275,640,1069,-930,-326,330,-636,1479,-556,1275,780,-440,50,520,943,1044,871,176,124,113,-475,-639,347,1362,450,459,-382,242,1015,1494,266,549,-12,924,689,254,-99,239,1132,408,-80,1241,440,-724,-544,-2202,-610,255,-715,-140,826,750,-581,1074,-771,-247,1599,2,-54,0,333,114,758,-202,451,110,1431,-292,-466,-147,-350,1277,1064,-255,-1912,-330,368,-2,1149,-38,457,-157,-100,166,1073,-12,843,-360,1180,-1168,548,766,701,486,695,-40,-764,752,-854,-522,663,531,-1154,-26,-1043,239,-803,-154,-533,-1012,-1246,330,-485,-863,-196,363,559,-617,-323,896,348,-541,494,981,949,-292,221,303,1005,196,750,387,-296,1578,981,-440,-1060,550,937,604,-468,263,-386,-526,-441,-200,-929,-1149,484,796,436,-114,-72,29,-344,203,397,1585,-614,709,59,129,-1169,1513,587,-1016,993,180,-476,633,-108,-234,-156,856,-136,411,-896,126,-413,-125,794,634,-308,-1031,955,1055,-256,-114,-176,-481,-431,138,481,-1088,-888,-62,831,765,-695,76,775,-672,35,1024,77,-235,1148,779,-178,-479,140,868,61,1187,-298,-624,-501,1225,-1160,394,682,-718,-378,-397,158,-660,-117,-364,400,856,-147,-360,-914,807,-1654,571,543,302,-371,-169,-348,-169,-208,1131,217,-590,-1682,-228,1342,352,213,200,129,104,1283,-1534,1030,-952,528,42,-602,847,-418,-107,-379,-343,-522,109,46,692,940,343,334,88,908,1497,-75,-564,-721,102,276,-143,-739,1146,912,545,-326,917,302,837,-499,1279,1132,174,-450,1352,1297,503,975,1058,343,-27,294,-246,1547,312,-341,1626,-639,-3,125,-807,272,798,538,-1,-962,1017,432,239,230,-254,1069,-448,17,-114,-595,255,-392,335,-197,-1635,1079,-255,-65,-812,1315,1560,-865,-487,-566,1433,1402,2509,1366,-313,799,888,-673,128,420,201,-427,175,135,-918,-118,-348,58,-687,533,367,574,-829,-662,-150,-201,590,-872,-292,-808,-592,698,-730,-1240,-444,-1356,-271,0,186,958,887,712,-151,1112,561,417,-419,376,-232,-247,-791,-882,-876,-848,-1072,-810,730,824,-1001,178,255,-1311,-207,443,-823,85,86,-749,-820,24,-84,456,1230,-910,-1350,182,-276,-1328,24,-403,-203,554,113,-655,539,506,590,-1447,1416,-633,42,-393,-696,-8,-356,-1104,195,918,764,-109,-1735,111,-708,-356,-598,1047,1186,-248,-28,1471,351,-461,532,449,1260,1316,-230,846,1483,629,875,1271,-246,304,923,504,1818,284,973,286,237,1025,641,71,416,-514,-705,954,-258,191,-1075,1008,-172,-1130,-1147,701,-252,398,596,86,989,132,-392,170,-254,-256,840,-805,-392,-246,-594,535,136,-930,180,1862,112,-449,-1098,-668,1,879,938,253,167,-500,222,-794,-431,-32,-559,-379,-433,760,-583,-687,277,-858,295,240,46,-343,-5,645,652,-1185,-1037,103,-797,211,828,-575,-1246,-1454,-731,-1595,-1093,373,385,-413,-895,-1635,-860,-494,120,-471,-188,-1501,213,-158,-522,-1224,-646,546,-962,-833,-160,-768,-100,504,-316,-690,-1448,-9,618,130,160,367,-507,-726,-1757,266,1375,-281,-1,-1047,359,774,-740,897,-478,-137,-1292,-15,972,-325,399,1487,-1001,-664,241,247,-305,253,190,612,706,-356,137,-314,-1399,1147,-250,31,1879,-338,420,947,168,479,-89,-218,432,-392,276,278,-737,-158,838,-441,700,-717,154,-91,-114,-895,226,200,319,-178,508,-732,-613,843,516,-342,-478,671,-295,-687,-308,307,-904,913,-55,495,-826,-318,139,1333,439,-630,-1239,-418,370,-3,1340,8,677,589,-150,622,672,608,325,-93,88,-72,-966,798,-1044,718,-347,-736,-17,-529,153,815,-1136,418,-486,-415,657,216,309,-889,-574,-411,178,1201,-107,-645,895,72,771,1049,-64,-125,711,-20,1084,-210,-634,910,711,151,-501,25,238,765,-966,1065,623,-132,-824,-343,634,1166,452,723,98,153,-773,-108,510,-270,-726,1190,-168,1212,-208,466,-21,-27,1532,-753,465,-824,-174,844,1100,1743,157,350,-769,582,1299,192,-269,60,-198,477,12,730,-359,654,553,86,-1254,248,-607,-1496,-153,-6,-11,311,-383,-200,900,605,-1431,512,726,-1050,296,-271,-155,294,389,-739,308,30,-81,441,562,-899,892,326,-21,678,12,613,-824,-546,1129,453,-324,137,1002,507,740,-493,154,726,534,356,893,-960,290,-1039,-539,142,-666,-172,76,-936,724,932,196,608,-764,-215,-895,-40,-388,-1415,-406,297,-175,-1181,628,639,-654,534,266,438,-594,1034,-578,-1106,623,114,-655,-1030,-933,90,-827,-632,-916,1150,127,-241,787,-534,675,1270,297,2290,114,497,-29,-175,-193,-227,1137,334,-476,-1400,414,1390,286,807,-176,-702,384,-106,591,-578,-184,-620,748,-396,-186,859,331,1057,902,-316,563,541,971,-477,145,1036,967,214,298,-532,876,501,753,594,1256,1232,986,1266,-616,1300,-620,1294,176,614,-1191,243,72,-1132,155,864,-38,1452,-69,24,-487,224,-1323,-184,-1556,597,570,1203,287,-47,-374,-747,327,321,-430,952,-119,-851,-883,434,274,972,1079,-824,502,-221,1103,78,-445,-454,-289,261,524,155,551,402,598,-1011,964,625,799,522,-244,-42,73,-1472,-775,-1089,510,-1127,50,-919,-75,891,-889,948,952,-654,-828,-981,-108,427,75,548,1130,562,-548,126,12,652,378,428,549,-827,-337,7,475,39,-664,-42,201,-10,260,705,21,-96,-1282,43,284,42,819,-151,-1202,78,1374,-1893,1033,-558,77,72,603,969,674,1069,97,-720,1382,217,420,-181,-432,67,-638,529,1475,-998,-624,-801,795,325,391,-154,714,-781,-385,798,-932,-383,-819,-516,255,1014,-263,686,663,1109,49,1050,445,-475,-1025,419,-492,691,205,863,-393,-707,-1026,343,662,340,172,745,162,-814,387,-1059,-367,-72,920,310,903,-434,643,1471,1317,-865,600,-86,249,261,-323,150,-335,910,-774,659,-663,-310,-791,-160,12,-1252,-110,328,-1775,-302,-307,-367,1094,-400,697,-271,503,-918,-15,1187,-1365,914,404,1122,518,-186,-377,1106,-235,168,-177,156,543,761,-353,-17,987,285,-836,902,18,520,623,-922,192,557,-191,-78,-774,650,714,-1136,-1063,-1019,-227,-809,587,-895,797,-650,-395,373,-404,439,-449,-432,854,-935,980,115,1005,481,635,-38,-505,242,1152,376,-244,-359,-44,-1095,-735,-742,-274,-801,510,346,-1301,-811,-1683,220,868,-668,-515,656,-519,1007,317,819,15,-763,351,119,-1229,-193,557,367,-315,-403,419,-742,-754,-371,-866,-428,1842,-808,-142,-707,-1061,-479,98,-388,-592,676,-757,-697,62,-592,977,-750,-629,999,1062,-98,113,-796,820,12,-823,278,-642,1033,-729,892,750,-821,-454,-117,-265,-138,858,391,-92,7,-416,591,442,1382,1153,-536,475,-1094,359,1527,653,351,106,660,932,1325,570,28,-519,125,5,263,67,-499,434,-1008,179,509,-226,-1096,394,59,-126,545,-339,930,-1250,-1770,121,-418,104,197,-184,371,-386,-342,-1131,315,476,374,-323,641,-762,-127,-293,39,-786,267,1552,1257,879,-260,-316,-952,-261,-989,-874,-521,-878,-424,512,813,-1036,-954,-784,326,-905,-1305,-675,-805,-1496,-158,-1196,-345,-1091,-1705,130,-100,-555,568,-868,929,-174,317,410,31,-88,-2006,-458,586,164,-211,60,572,1103,-952,943,-1244,578,-1474,-588,1036,-1546,-1370,495,782,-382,-7,-76,-1649,-613,268,-460,-762,-823,280,-521,298,566,1604,379,-650,338,-1311,-124,526,256,1000,513,895,-987,342,317,266,-246,1260,477,-221,843,-306,-104,270,-378,578,-680,626,598,-67,859,1248,-202,-743,183,-825,-307,491,-640,-255,1308,-562,924,843,926,605,921,420,-103,793,-642,650,121,1044,466,-219,-65,-384,-596,-134,-424,-158,-290,1177,-281,-108,-271,-604,103,817,-60,119,77,-1574,261,-638,-78,-635,1117,192,-1615,-828,1647,-841,335,432,-1421,-153,-65,506,741,-707,-551,-32,-919,600,-308,-1163,424,-740,277,110,-414,-198,-801,-669,-895,903,-117,265,486,198,-90,-54,-681,-575,-269,853,331,-940,535,821,-1102,-123,30,-335,-516,-1026,205,-590,826,-749,53,998,-224,904,139,308,705,-601,-564,-202,-1093,-410,-170,-268,358,148,569,-976,327,-384,660,480,1113,188,214,-116,-382,216,-1053,340,722,1576,319,-1019,-316,556,1177,615,-515,616,404,-246,-1773,1178,-443,-95,-134,-453,-91,1203,-480,280,453,-433,857,-496,198,-869,-74,-509,-393,899,544,1196,700,-233,1541,-188,489,-959,1334,-58,525,1281,1376,851,-186,235,-296,-964,-470,251,-548,-86,-553,244,25,-1109,482,-779,-173,-418,-258,898,-188,320,-745,-380,1107,193,-524,484,20,-1024,-574,669,13,229,454,-840,-635,418,11,-511,500,-19,-1463,827,2455,-382,-278,-1652,-1238,-1378,1330,-64,-171,2120,571,499,1416,540,-86,-204,-385,-91,-527,-48,1363,-700,-240,-1543,333,-849,-1230,-427,754,-353,303,-406,773,-932,-221,-878,-471,-109,26,-548,-1013,275,-1130,-219,-538,-1048,14,-371,161,-11,903,-816,-737,-407,-876,987,57,693,4,-745,257,-832,1265,1396,1157,738,1369,1238,52,-133,-1001,703,535,1073,181,625,976,-1176,385,-259,-246,-24,-1013,87,-442,-409,512,637,-371,-1065,833,-415,-337,121,-460,-148,390,-386,1283,574,-893,393,-1552,-205,-183,-45,71,30,-972,1009,1011,-46,-161,975,-1514,-47,877,536,-253,597,-564,1315,1429,972,859,1050,1178,1192,642,-682,740,-123,462,-303,-87,-995,269,343,180,254,-803,-138,1074,638,362,603,-832,85,615,-70,651,1355,144,-176,361,945,1486,80,950,886,977,-165,1021,58,292,-470,430,-501,290,154,1096,-882,236,107,222,-191,462,-1145,-499,-604,-689,1038,-1142,127,-167,-1685,299,-193,-840,-383,1200,85,1485,-778,520,776,-206,-29,1392,-1286,329,962,-785,1141,-225,-30,639,413,-548,559,-408,-44,-236,815,-341,-399,-453,948,-1001,376,1079,1008,-696,-439,914,995,1107,52,506,-511,-171,926,-885,1061,-562,16,-666,-6,-234,367,137,678,-1306,-497,446,1304,85,118,-249,-369,-36,811,434,-379,921,-377,-475,-12,572,-128,-341,-687,175,436,-476,608,270,1355,217,206,-638,173,337,827,489,-690,-151,-344,204,789,981,111,-385,309,-920,-153,-1038,672,2108,-1325,-803,428,-581,767,-527,-522,-431,770,479,664,-22,-969,646,-860,-322,1118,297,484,678,123,-1015,-412,0,7,582,-1020,201,-811,108,157,-729,-255,127,393,560,504,-637,-56,-703,577,193,-1084,-1269,-720,29,-281,-919,1034,-535,-1205,1279,868,-1583,-375,-726,186,377,-862,58,42,293,378,-26,378,-421,633,293,99,-409,706,932,157,-694,502,-281,1996,-126,290,-567,-137,-82,-316,370,514,-544,644,664,691,-314,1046,-401,-665,-848,-240,1042,229,-751,-663,1118,-116,341,-497,759,-994,-1081,5,-941,208,-1072,-654,-935,853,-24,-530,543,-860,1020,-111,224,-653,161,159,-115,-755,-41,-980,326,-380,827,-483,1367,79,-534,-21,900,-462,-851,-198,-206,-326,-1136,223,-1008,-711,-316,531,-462,565,-659,-1472,-1558,294,-840,-400,-1957,547,-122,427,-587,-333,-588,-290,-594,-366,388,-858,-82,-68,-346,895,650,-97,-851,229,1125,430,-951,-326,84,-938,67,-1303,455,-468,-1050,493,-252,-875,-629,-857,175,-1088,-230,812,512,-20,41,250,-1383,189,85,-237,730,-994,-1008,-847,-508,1032,773,992,-380,1002,-560,755,1392,796,694,-344,171,114,347,852,937,-307,1182,534,201,-107,-195,339,-1086,-1551,53,966,536,784,-1054,943,195,570,-1342,-297,-458,-1069,440,463,-58,-575,200,-600,1026,1132,-633,-730,441,-1145,-41,-534,-101,479,-168,-561,-392,-403,-1068,-270,-1007,-584,250,-144,-764,1092,993,773,410,-365,222,1210,325,1034,191,827,-584,750,-444,-380,366,-203,452,-113,-180,284,-826,1163,1209,593,1369,-265,1323,-463,1181,-360,-910,-701,970,857,-249,-841,-199,-104,594,1206,539,136,-752,290,193,-1596,386,171,552,442,-320,1390,754,1373,-487,-739,-980,437,161,145,608,1819,-280,-115,-633,-96,-679,-2024,-443,443,87,155,-739,-91,-383,555,-501,-795,47,-193,264,-142,266,-793,961,-256,-1201,-106,571,-562,-236,-556,315,35,-175,-1142,238,-188,38,246,-1127,-637,144,1040,1252,-615,-386,888,-261,-924,991,264,-762,202,-503,-614,-299,-361,395,27,586,-404,-159,856,-663,1271,-1193,868,17,-36,71,346,-296,-58,1436,1487,-383,803,-589,297,1113,-644,-1325,222,599,-343,-638,930,-532,-465,269,-1230,-575,-915,1632,-343,-791,160,-1090,-411,-840,1031,469,-223,-55,93,528,-49,1660,-581,-955,228,212,-1093,619,-827,992,-1089,261,379,231,-818,-511,362,-8,754,801,327,913,229,-1134,-642,-271,385,-161,440,-902,451,308,-1131,5,-906,210,678,-375,-532,838,-680,123,-1056,-62,-1533,229,-254,-1178,-409,340,1445,173,-1138,6,-223,168,433,114,956,-553,-349,422,-191,-250,1933,113,367,106,-677,-61,1059,706,-705,438,-493,-483,-719,-8,-883,146,-194,59,595,1255,145,-283,1569,-86,-609,-44,569,1028,-861,-1158,94,-987,165,-631,155,-1182,-1570,-113,-480,867,777,368,122,694,481,641,137,-222,-669,-753,-479,151,-841,974,1028,-537,611,981,627,792,-797,96,579,450,-273,-432,23,1069,-899,395,38,-666,218,708,-863,98,-523,550,-729,-493,128,-1570,35,771,869,439,-347,160,-41,-303,-658,-42,-175,-65,409,-489,462,2036,-376,-154,546,1028,378,622,422,-687,-469,-154,314,-353,-1038,816,1345,462,182,576,6,92,-1064,210,71,-727,544,-485,98,815,510,1506,625,30,542,533,1083,914,-609,-90,-340,828,-720,-626,989,-846,938,-849,795,-392,765,225,-488,1121,582,1270,-45,784,728,1557,-122,598,480,1542,-46,-409,-411,-1065,853,304,-1105,53,-1546,176,-427,-954,-229,475,875,717,802,-124,-1243,-563,-1784,-545,-545,-930,576,535,790,-1291,-892,1404,1363,115,387,-257,-408,599,1757,224,823,-213,613,2,-126,64,-138,537,1291,879,1462,-707,-62,165,152,-325,207,943,127,-341,-482,-387,-382,774,220,-1045,-97,-427,-436,719,1046,399,784,137,-102,-480,-223,-788,535,676,-483,424,-267,-1471,-10,-1626,-117,-1826,391,-802,651,-813,586,-960,-715,-179,-515,936,750,-457,742,949,-937,-409,124,-1094,599,-384,-222,1149,808,302,-1153,471,277,-254,-427,997,1539,403,402,-121,985,1351,629,81,-262,590,-781,-542,-589,236,-627,-925,481,397,-3,-525,-741,-828,98,-109,1224,774,666,-1282,-18,-50,423,-634,-742,720,562,-524,606,-548,-1072,-409,-291,-1079,-529,-1267,-1099,-648,-392,253,-678,633,-734,-594,997,405,966,721,639,-299,245,26,513,598,-718,-197,-295,-44,585,327,-526,-301,353,-191,-1055,774,-466,155,1342,186,-23,-152,-753,-135,653,-660,561,197,1216,-143,16,-144,389,120,-115,0,-172,-801,-993,-1514,-2216,-735,72,-462,306,1159};
const static uint32_t LSTM_01_weights_input_gate_dims[4] = {1,1,48,88};
const static ConstTensor_t LSTM_01_weights_input_gate = {&LSTM_01_weights_input_gate_x[0],&LSTM_01_weights_input_gate_dims[0],0};

const static Weight_t LSTM_01_biases_input_gate_x[48] = {-528,807,138,-366,-1230,234,847,-1817,796,188,-665,-641,-1189,623,-290,-215,1164,964,392,972,-143,962,-2815,-126,117,206,553,-310,-335,-320,104,-804,878,-205,834,-530,794,-122,1020,174,543,-299,-874,266,116,1169,-423,411};
const static uint32_t LSTM_01_biases_input_gate_dims[4] = {1,1,1,48};
const static ConstTensor_t LSTM_01_biases_input_gate = {&LSTM_01_biases_input_gate_x[0],&LSTM_01_biases_input_gate_dims[0],1};

const static Weight_t __attribute__((section(".weights"))) LSTM_01_weights_cell_x[4224] = {722,-503,-896,505,-164,-961,654,-430,660,975,472,-914,566,-1062,491,491,-340,267,1119,-474,-47,503,-563,-559,-556,-328,349,-776,54,979,-389,-412,-549,922,-329,485,1024,163,-412,-468,36,276,993,1577,-230,-1013,-580,-591,-645,-926,427,-1486,1258,1426,-1275,-221,698,438,-785,178,1201,-2496,969,-630,-704,173,1477,1152,-243,-1417,-800,958,2196,546,-525,-7,771,1147,-414,490,1132,-1511,1284,-427,-446,1025,77,113,1236,661,-190,-298,1345,1498,2288,869,1204,217,-1393,-2079,-1289,-895,184,-1233,-1197,731,460,-311,445,407,81,-483,837,1313,1623,1302,197,-344,-146,-798,-955,440,324,-1349,-754,487,-70,-316,267,29,1234,1890,514,1078,194,-637,-314,760,-705,280,-452,-242,-719,198,882,-638,457,1674,-658,374,276,69,283,-292,184,-230,209,-569,-820,609,-920,81,-143,625,-192,309,-268,-339,1033,-702,-168,724,1871,-1159,798,-1290,606,-33,381,-826,134,-392,-195,893,-571,-360,-469,-1045,315,-89,-157,66,-445,-673,560,-598,-1136,-104,1306,587,-682,-441,949,259,548,-977,261,295,789,-445,-1219,-376,-680,-324,-442,277,-337,163,164,-589,-113,762,596,-577,237,-502,-1214,-299,-121,-1108,753,-894,-286,-858,36,183,515,-135,665,-211,108,-253,-1051,131,405,588,329,-187,-209,-1318,692,-1210,10,994,1041,-737,1216,390,-1372,145,50,1418,116,525,1348,-125,-48,-2034,-21,-1001,-1949,-1447,-632,-365,-338,194,1004,1196,-198,212,-121,-608,-597,135,146,68,-210,-427,-1292,-453,-1702,-95,258,-145,400,-153,160,1068,1395,2052,576,1255,305,2530,201,309,426,-1454,487,789,-467,-496,134,-606,-952,963,-250,-1017,623,2287,-312,-563,-1731,1302,-173,378,406,104,665,110,-1358,-665,-679,823,265,-587,-248,163,890,202,393,-1480,-1238,-1256,1121,-877,809,-224,-629,271,-890,-590,591,-696,-357,-63,-159,-318,-180,-232,-1043,-296,-789,-76,163,-56,121,800,661,-105,-732,-1390,-5,-838,-678,361,788,638,302,248,294,854,-567,-330,-1096,-258,935,1007,1050,-87,-559,-700,-332,1102,-1559,373,-307,-794,-1329,-676,911,983,-667,-1385,-438,457,-125,-285,-554,1577,433,474,62,-562,-909,-786,-882,-796,478,-70,1477,14,711,-1052,811,-307,-549,957,232,81,-1215,209,-325,-909,115,1843,422,-142,-1107,184,1245,530,357,-197,1043,72,1329,927,-202,1031,697,772,-540,686,-367,387,-596,-719,-698,-296,-412,-1277,585,261,-489,59,-1815,-1380,-941,-354,733,-1071,572,123,665,297,814,242,840,179,-1170,-205,6,-1189,-46,1033,665,626,-311,102,-1174,43,227,-146,-759,471,-583,429,-474,-1048,296,1920,183,1194,-431,1310,-1126,-388,81,-67,-40,265,54,-650,102,-733,-218,-1554,-59,167,562,-438,-618,862,-1608,593,933,-1785,-759,-303,-195,690,-684,-1031,-357,-459,-845,-1384,841,355,535,40,-616,-322,-799,592,-991,-1048,714,-704,-815,-779,12,-675,-204,502,-288,-201,-1124,-1164,-887,887,-80,697,-660,227,-989,1087,-30,-568,886,1430,1167,-63,157,-430,199,25,-389,43,280,-160,1078,-1248,-1375,321,-749,896,970,140,796,-455,-235,1134,906,52,1099,487,-694,-518,-339,-113,-656,208,-420,-198,-897,-49,-192,1318,537,762,-172,-1736,-663,685,-802,1084,-1240,1330,1595,366,439,987,-873,459,595,-476,1081,788,2052,1886,557,1462,-128,839,-41,288,-727,-1126,-475,-1303,407,-707,-38,138,-367,-295,-474,266,-1421,-242,818,-980,-1475,-434,152,-75,454,-911,-493,-498,439,140,-791,505,808,323,85,162,283,-373,160,1212,589,-2372,-516,-948,725,-1226,863,335,-306,713,-283,720,-460,-668,566,-1807,-29,-1048,-83,1067,261,-1015,-86,-236,-348,697,4,39,707,-6,917,947,-473,-1130,389,-389,-301,-466,-910,-807,-1079,-413,727,-1053,-396,286,-1067,-957,-158,1184,1033,-352,-676,-482,320,-691,-1141,298,-266,-995,589,-946,707,1100,-396,-417,1033,13,-510,1300,-868,-26,-415,-26,482,-75,-826,288,1046,543,-617,-176,786,-60,117,1011,1476,1298,-937,413,-782,113,55,899,-392,107,1027,-665,-782,-815,1451,-1120,-39,128,1066,-300,876,1212,-958,374,1178,800,-428,130,-52,-1248,600,-160,95,951,386,863,654,668,1519,-921,-945,-533,197,-69,-370,271,13,22,-1097,132,-558,-1231,-920,641,983,1107,539,379,-668,-774,549,-713,-318,183,-159,517,-597,269,929,329,255,-1716,-1690,242,774,1564,-422,-1253,2483,-621,263,-663,-1129,145,110,-2004,-391,186,-766,-112,870,1210,-462,785,-342,688,1558,-1487,-6,-111,-488,10,94,-1171,128,-764,-1057,-474,676,-2200,1343,-1164,1196,438,23,-642,572,-503,2,112,-1051,1368,640,-649,-1691,-803,-1604,-1121,716,1266,243,1763,1684,1008,1134,1157,953,1400,337,551,-69,738,36,-274,-268,480,179,-855,-982,-1106,723,960,-546,-474,-195,-891,-1528,278,-313,-182,504,-204,1105,80,-222,-700,-994,-238,6,524,-978,126,-1047,269,-496,-499,-733,494,-150,114,-778,-1188,1565,-6,-1308,1351,232,-1780,-381,-409,-150,-438,11,642,785,-559,-275,554,-67,14,294,-882,1744,-484,-5,106,-667,482,550,-808,234,159,1316,1441,1034,-277,-741,-1389,202,-1100,922,-1156,-1279,-663,-191,-1642,-622,-577,-314,-125,126,704,557,-104,632,-1000,-1271,373,-72,85,837,1369,18,1005,431,151,-20,2209,934,-937,1564,-474,873,-392,747,1313,-338,192,-874,396,868,814,279,166,-392,-140,347,-860,1913,977,204,376,254,-1018,-356,35,73,-1281,-803,141,-1128,-55,-1305,-524,1425,391,265,591,-331,-1539,1596,-997,293,686,378,280,232,-1073,-1434,-249,-106,618,-746,-686,79,1413,900,-80,701,1510,322,-561,-424,421,-37,637,-773,-109,1015,102,343,-260,795,1308,-320,885,-97,1140,-225,-395,77,252,-602,1193,1701,1282,1623,-319,686,1294,-532,-989,355,828,-1303,-926,1202,-447,5,98,617,-274,629,-364,-2268,294,-1481,135,593,-275,-1486,-1,-747,38,-934,-1608,-2612,773,1433,-437,-1855,-382,1000,386,-437,-499,-90,142,-198,242,124,1375,-766,862,291,-209,-495,917,-562,569,-1794,248,19,-895,970,6,240,280,940,509,-492,541,-456,-359,750,-174,480,195,-943,-655,-637,-1078,-1266,71,-312,358,496,1191,825,1486,1825,90,-566,484,411,-1404,-723,-18,-103,1085,684,-633,848,1052,-63,-770,484,799,667,-594,803,84,-308,671,909,-1239,-640,-1476,-1838,-1855,1467,912,-997,-527,-72,894,224,971,394,155,-1000,-291,-1361,147,-179,-1076,16,1079,23,-180,-854,-700,-710,-815,621,-393,461,387,-1867,-1278,746,382,873,-541,891,474,-348,-335,-448,568,891,529,-61,581,-737,-157,988,-759,89,637,-321,-886,353,-525,414,854,221,805,-941,-991,-566,-1146,-107,-2116,-423,-2817,-939,-831,-595,-243,-287,94,971,33,339,217,64,-628,208,-1836,-74,812,338,469,-26,-1036,-202,314,120,450,1975,-75,203,533,-347,-552,-1130,-338,981,-293,-351,1192,-178,418,887,222,-25,627,583,-848,-6,910,1474,266,946,1339,819,1475,573,-158,-1502,-65,-387,-330,170,-895,70,-1147,-74,236,-600,-1330,511,190,-521,-29,-857,-119,-357,600,-108,722,-408,251,434,-177,1052,470,1211,-679,-1079,467,633,-1998,-1547,532,-1099,-447,-1377,-784,-285,849,-1155,669,1557,23,600,386,1593,-1374,-301,1368,581,605,1845,-66,20,-605,-247,402,486,1918,-506,486,-437,-163,366,788,-561,-1334,756,769,124,105,375,-1029,-1001,26,-120,521,720,1079,210,-843,-496,685,-1354,-1271,-374,236,1027,1284,-858,-289,-785,-331,119,445,1621,157,1151,886,-500,-747,858,-592,250,177,-528,-1180,-604,405,845,636,539,-904,613,443,-734,-893,-1194,1550,-61,227,-8,-1460,245,154,1076,-861,-1254,774,1323,1318,401,-1614,837,776,-408,-247,615,515,-835,32,-833,-437,484,-495,1398,413,871,1324,-1538,1153,-927,167,-99,415,-584,-184,339,980,-5,561,-502,-1304,1488,1396,478,-1078,-651,877,179,-609,-670,819,-141,-16,1173,294,569,1115,1303,1058,69,-354,1029,-1081,141,699,-36,133,1257,-436,-712,764,280,-280,-655,-664,-186,-666,-1508,-812,-676,-654,299,1661,-139,921,442,427,548,-889,-845,974,-282,-1116,319,238,1398,388,1589,734,-7,452,593,-802,676,1166,630,-961,552,-685,311,-1560,-198,-301,-1608,312,-2193,-1059,-1225,788,43,515,1860,1360,437,-518,883,-85,82,1013,-1070,-852,508,-67,-162,-501,1557,995,671,575,-1378,-1959,562,-421,173,-567,623,-1036,-1387,-773,214,587,-394,1505,-128,-217,1337,214,475,55,45,430,635,803,448,500,-369,395,-210,-1368,-156,1252,721,433,310,-566,809,-925,-1483,150,-279,2,1413,418,1776,282,-528,-539,134,136,-745,580,-1367,-477,-202,408,1751,-1100,669,993,619,244,-171,1189,1623,-1342,686,221,1615,677,-1878,-722,62,166,780,980,-800,263,69,694,-75,-757,-1363,-972,-1879,-1896,-296,-722,1121,-208,-194,523,1063,-677,-794,-865,501,-582,582,-701,-530,-415,-1204,-1621,-1203,-520,-1106,-397,887,-85,1226,1316,572,1114,1848,1424,902,228,391,-2181,-2875,476,-590,241,-2509,2271,653,-1244,422,1598,1675,-462,-703,638,421,-694,978,-160,903,-279,-151,64,-767,-63,-1977,-175,212,994,673,-706,1543,1776,193,-152,-52,-533,-2713,-1129,-841,-234,-1080,-464,340,454,-368,820,-17,2360,-350,-23,-1071,-850,-1591,1209,-610,71,-153,534,1035,-501,1255,49,991,-250,1065,462,1113,388,834,81,441,133,501,-220,-967,688,66,-326,-91,466,-819,-1256,-984,-1385,-1718,-1897,572,-689,-1281,352,-1566,954,-103,1121,701,1659,528,-1218,1352,679,745,309,-249,-813,-444,-1004,-9,-1144,755,-493,1858,290,1281,573,165,-326,832,-423,-363,-329,-620,-276,-65,485,-553,-255,96,492,484,1200,-259,48,-88,-567,-584,-896,49,-1268,1107,585,488,1552,443,-152,-354,-1548,-1281,-1148,-1629,-1627,-1719,-597,-329,-218,510,-347,809,1437,290,147,555,-868,322,-140,815,-75,-514,-463,-490,632,-630,933,472,302,28,-32,-216,-1398,-154,56,305,-432,-36,-436,-378,1164,1458,-447,480,387,607,-606,967,-497,120,345,491,1140,102,1465,-2018,1110,-325,-848,-92,1833,796,-654,298,535,361,34,-1289,-68,-1738,-453,1812,865,629,612,12,731,-169,858,339,1079,120,389,-850,-698,-971,771,117,499,474,878,-687,310,135,249,1196,891,1064,-362,-587,-471,-560,1020,125,-836,-1118,-708,747,1016,316,-505,-73,340,1557,127,-91,-150,965,81,-40,801,908,54,-227,1053,933,458,-2035,-651,697,1447,-429,-168,481,-291,-1392,-230,-1196,-675,-362,-300,225,-1164,-864,-931,-151,676,569,-311,-170,918,-788,1631,-1314,-737,201,-1641,1624,658,-904,1148,-823,-1338,72,-273,-209,-136,-862,-226,713,937,1071,-433,-7,126,-852,-1181,-236,-212,30,-945,-183,-854,-621,375,1287,769,1795,250,-131,557,153,-260,-697,-895,1069,39,-534,235,95,66,91,114,-842,-1039,101,-231,-1135,440,489,-1623,1544,-504,-577,-278,-1295,-99,-190,-838,-799,-804,-189,-573,896,5,433,275,-609,65,325,-109,642,-439,-1146,1072,777,49,-810,-511,-199,-197,-15,1264,-232,-1168,-972,1392,46,-305,-1392,-1009,-841,295,920,1093,-779,651,-748,-401,1252,259,64,-372,-1363,-822,-460,-1226,-1354,178,-1108,-1313,364,-1088,214,1033,335,898,422,1069,1470,1384,445,298,-596,-493,147,621,-567,-446,-988,741,-1222,-1974,971,454,-105,-1545,852,-724,-551,-1285,-375,155,873,7,122,82,668,-1000,-197,744,164,-54,-730,-201,1177,684,369,-1010,7,-921,-728,616,155,-113,-225,-34,-2715,-637,164,-581,-153,-779,-346,192,-611,1271,579,696,-2,-817,155,-654,-636,-1305,-689,943,-8,855,-465,306,-1199,924,1035,323,1336,1301,1801,788,608,-295,-842,-1405,169,856,-412,-106,-326,-59,-613,-697,-237,-818,-884,-642,-33,-419,293,209,-441,568,-249,-746,1560,-1489,-76,91,1199,641,-2287,541,-79,1019,117,-1170,1064,-424,-465,176,762,-951,-979,-977,32,211,-163,155,146,-436,1367,175,-724,-776,2009,-20,1087,-87,-350,883,-120,692,-202,151,-584,-387,438,866,-1188,-657,-1864,-1889,-1481,-389,1645,1,1865,792,1511,395,-1227,382,-371,-1274,730,650,-629,-108,486,201,553,-936,579,311,-11,511,172,-331,500,11,258,806,419,714,921,-534,-320,1277,-825,-539,-359,282,2163,1840,84,-13,1425,-690,-521,649,-69,434,259,-306,-1956,281,312,165,-599,1482,-23,813,882,-712,104,-485,-1306,-567,1397,1199,564,736,-277,-1882,159,-635,-293,-287,894,1500,1403,-362,987,-497,138,1003,-79,65,1466,-5,-689,-824,-613,970,88,-207,-218,1154,1429,-792,1245,-19,-433,-602,380,80,-482,144,-343,-81,801,412,797,1294,-9,-581,-244,622,1150,-1146,-712,-412,-56,1346,1007,-444,493,1473,-524,-880,-382,1036,839,573,547,-221,579,-466,1694,-1068,719,360,-649,-1225,191,778,-585,-1327,-775,-659,36,-624,661,-345,788,-1150,-509,-1541,303,441,-241,-447,399,680,215,236,135,-719,-494,557,331,750,737,1362,-91,-854,958,185,661,-738,645,1067,-453,-16,1767,977,-584,-91,-752,704,1002,1789,838,-257,339,-1109,-1290,-1936,-1494,-1231,-931,-605,913,-397,56,-529,1477,-185,398,947,-876,-345,-1238,721,873,-1047,-184,-1013,-297,940,-672,634,173,-761,250,251,368,-51,249,-48,-321,-320,-1385,-476,-572,-457,216,-475,906,300,-1977,-170,-118,-176,-441,95,-842,-284,-827,442,1380,384,1055,-576,616,1288,1490,-1004,198,-384,116,-166,-779,-287,-1300,488,-1708,-664,698,-949,-82,1478,576,-7,740,-422,1098,-483,-601,-111,475,81,277,-45,24,323,-611,-197,679,497,681,-166,360,239,13,-828,-643,392,619,-680,159,824,-794,763,-358,-50,932,-648,-2212,-70,-230,104,-1101,-228,-1231,1731,327,-1519,-454,-311,-967,-182,-368,-687,-206,522,-293,387,-176,-474,-686,-997,-315,-1405,621,422,-81,-945,338,-217,-788,-1090,229,-1387,-1332,1537,-1309,-16,-801,-657,964,-752,-1236,-60,417,-39,578,992,260,-155,-870,736,-219,-522,666,884,-178,-533,-10,-892,-101,-43,874,256,-362,13,-210,97,-220,-967,372,-167,-88,-942,-65,11,-281,-201,1115,52,-528,-160,-1965,61,-886,-317,-638,3,703,-511,-186,1612,-274,229,-189,622,-370,-215,-25,-1083,-432,1203,-332,-646,-57,1151,23,-527,-838,-851,-1007,1382,697,295,317,338,-1550,434,668,-24,691,-2032,-834,-64,192,433,133,-1108,1793,601,-807,-1036,-86,367,1655,-87,1394,290,-905,932,520,917,788,1051,-456,-881,802,673,1443,455,427,-1171,482,-285,-461,536,-888,-270,-94,-869,670,-1081,-571,184,-1367,-326,-859,308,-567,-2202,-246,222,-1349,-173,1225,-598,-583,-908,-1071,1,2573,-402,322,-540,-466,-1666,-886,-239,-1637,-282,747,-339,1700,-4,-48,1327,-810,463,136,-1626,632,-115,622,550,41,854,-1007,1766,666,-288,2011,-768,427,-168,-238,-975,-62,-277,339,-1921,-829,-455,782,-128,-245,-963,-323,834,1224,1718,1366,374,796,1078,664,546,-226,-739,-1315,-1420,-850,234,-731,-1548,293,1060,127,604,-623,-406,-753,359,-515,359,407,-279,-500,377,-388,441,573,-494,-1684,-708,1141,-822,-397,37,164,752,-697,559,-1147,-494,-816,970,-1749,-2155,-586,-135,-141,232,-1029,-195,186,835,1352,-307,-1284,-146,-250,106,314,-191,-627,1451,562,-2068,701,478,-48,-698,582,-553,-625,339,872,770,76,783,132,-822,-394,719,943,568,-686,-519,598,226,197,-252,709,-284,-225,898,35,563,-954,202,-1005,456,663,852,919,572,559,-1239,-110,757,-909,927,91,-349,-99,428,1243,493,616,494,-307,-58,329,844,952,41,1034,468,672,435,1123,801,4,499,689,957,-22,-964,-236,841,-1126,580,581,-197,692,472,872,841,-271,71,346,-170,333,199,1049,-1733,428,-33,-347,-456,-475,1057,326,-1163,-525,1071,1080,1498,7,480,919,457,-244,299,-643,885,1496,648,1861,716,1935,937,828,-1393,-1731,-1513,-961,-487,-1935,-12,-961,1070,-144,-621,-590,-780,-1494,-344,-804,401,-915,-1280,77,-2503,365,2008,-1594,-487,154,-299,-74,952,-486,673,-640,900,-974,-448,28,-1733,950,639,-539,-641,395,-264,-405,65,1269,6,927,-205,-545,2047,1270,-880,-798,793,118,196,1224,132,-933,-80,-659,671,-76,-107,357,1821,582,-1145,289,-1159,526,-41,616,259,164,725,-835,-758,678,-355,881,-98,-299,-4,719,1034,513,-830,-381,-409,101,768,-127,-238,-30,-736,40,-22,-812,-301,447,-962,-491,-1,70,660,1528,2180,-393,847,84,49,-98,1090,348,-110,65,229,-41,-114,593,-698,-733,234,-187,-461,762,476,-1202,-564,901,-1735,-1604,-28,-399,759,-548,-52,606,-490,-1014,1356,283,-124,619,-1194,-254,595,-355,936,-214,-607,71,-176,-578,-1451,702,1688,-503,-1030,-116,-567,-477,173,860,1278,978,405,89,1103,460,362,449,-329,-512,-1123,376,-633,144,103,1720,-330,153,1253,1371,-333,-540,851,-22,-1032,-266,91,-489,-1787,-1228,-2368,70,-263,-1276,-1033,-536,-1193,-1744,-260,-466,852,787,-2536,547,-1081,219,491,-421,825,-745,552,614,-275,720,-70,838,4,-1082,32,193,301,-162,1,501,1701,454,701,-266,438,-707,-778,-908,223,-217,-1062,-406,2174,914,-853,-1838,124,1593,71,1149,1204,1389,1004,618,-15,-103,817,-317,-26,792,-982,1172,541,995,896,-328,-224,968,-246,-152,997,-395,379,-147,460,560,-501,-122,-299,301,-299,-1821,-2018,-2090,-646,-339,1212,1804,663,434,-474,2050,-857,72,-918,1713,-506,-8,1465,-507,-549,397,293,-246,12,-827,-798,1252,-561,391,-1454,1600,-38,-159,-1014,-1506,-150,-330,-439,30,1798,-1580,530,-779,517,754,-1106,-493,-269,-274,-134,1288,104,437,-1120,-927,969,532,744,966,233,-466,543,-330,-1051,476,-827,-67,-640,-1164,-822,545,300,373,-983,-408,-1017,-701,358,-406,-197,631,-423,-454,-282,591,41,-1077,73,-328,-741,-738,116,-422,-734,-176,1524,-103,701,-391,-1317,814,796,-911,627,383,-197,302,-1267,1132,-1180,-351,462,-1802,785,218,303,589,-208,555,195,24,88,-688,-255,197,92,-950,-661,-1423,-405,506,-663,-394,-1192,-785,75,-690,-1934,-903,-650,-322,-1674,-558,763,-1111,-167,-1009,654,1372,-482,943,449,-191,651,-104,-63,-406,1048,-413,-1121,-856,-164,-1171,-509,-136,-773,-118,-605,-7,922,-699,366,126,-1267,-468,712,-1459,402,217,-509,1516,-15,-1055,692,518,1283,-858,423,191,-231,470,27,-832,1878,218,857,380,-483,3,1341,183,422,1967,-1225,-496,-535,-255,586,448,-1355,991,-391,756,-639,1332,-641,1704,291,-991,704,-893,-1373,1494,-1013,-153,543,1287,-172,2666,150,-1318,-334,405,-97,704,-164,559,1698,-120,-443,-220,-721,592,-759,-124,-611,186,338,55,-779,-271,-1367,306,-1204,-1288,-431,-918,261,12,-1066,-293,1025,-713,296,1026,1402,808,1974,160,822,891,-369,-198,128,-71,842,-125,-47,-370,481,-483,-367,-1499,-906,1057,617,-121,-163,-771,1153,-221,702,504,-589,-215,1495,-1205,-270,71,-1320,-1455,304,-685,1239,-685,898,1863,-222,365,-106,357,2179,144,-555,367,-59,-660,-741,-351,-1178,715,304,438,780,995,-668,468,346,751,-381,-769,-852,-462,54,722,373,1004,1230,-486,467,1203,1924,664,368,314,298,-254,310,132,-204,-851,-980,44,-1629,-705,-1799,-9,318,526,-445,-953,1703,-282,571,21,-1237,-900,1359,1619,-1006,-356,-1313,-274,-887,480,524,-526,1318,-689,97,-423,-103,-27,553,-1452,1046,-841,-447,-418,-1177,-757,1034,-574,729,1505,877,529,561,-1101,-815,-75,-467,-183,-1196,-1135,1170,2365,1696,877,79,314,-539,-478,-1150,721,1348,717,1073,-692,-981,-178,828,-623,716,1329,-443,60,-131,-1345,-1201,499,-524,-13,-412,-183,-102,744,528,-231,-1386,600,-1376,-235,-1697,-779,-132,-438,-707,122,-1179,132,729,62,385,123,-1330,-670,469,828,-665,1543,450,-449,337,860,-378,58,547,-162,-1095,-1861,404,-210,900,1884,-50,49,-110,568,677,414,386,51,-279,-1945,238,120,322,195,-595,-28,-1498,-859,587,92,858,-484,498,-588,-1092,273,886,645,569,-83,-205,-546,-68,235,-1121,-1215,-849,1148,-327,-773,906,-471,-554,488,-807,-319,780,349,-972,-856,-407,217,973,1473,-490,122,-487,-207,-925,-1070,980,-404,-597,-479,-561,849,209,-206,-361,-559,1434,944,-331,-149,553,311,1323,-38,-230,-2589,-630,674,376,-1017,294,-1343,90,443,-227,-762,612,-1310,-588,-444,-673,-650,884,-84,-304,1296,247,-509,-345,-278,-1428,-1503,-1770,-961,699,549,743,1138,-226,-1094,1145,-593,-1260,159,-149,146,837,1365,391,-229,-368,-930,-69,552,184,815,934,476,486,1523,562,1335,-406,-1141,679,-706,-549,-1314,358,-615,831,337,-146,-868,945,-248,-1516,-914,2,-1502,-626,-532,343,775,851,15,554,-642,-943,699,15,-299,-890,556,275,-472,-196,1073,-17,-139,340,-1399,-108,-1799,-1066,1395,-283,-135,-745,7,354,-356,-90,-1007,660,1104,400,-86,-910,328,54,441,1609,-268,-123,421,-1495,-439,858,1128,-490,887,1723,2248,594,1427,805,1443,175,-647,-92,1280,870,29,1135,440,1522,1321,1393,-273,515,-486,-642,-536,-399,-1715,-365,-1736,-2798,36,298,-91,-1497,38,-501,196,-8,686,-1414,222,152,-595,-142,-96,839,-206,-214,-1545,-1316,208,-1016,1469,-230,1242,-386,-288,-272,135,-796,-932,2422,1533,615,-863,-1182,33,1227,435,122,-299,737,476,-73,21,-1270,509,-1191,-410,-449,577,1050,-108,-159,-444,361,-145,1003,-799,-475,0,-472,-369,-756,-512,279,303,581,1,-191,490,991,1177,2072,210,-379,1242,513,1572,1225,-741,179,538,-459,-332,217,191,-84,652,-94,394,383,14,-573,1276,-154,887,810,-116,-576,34,505,-983,-181,897,140,-1207,904,1720,-1033,1229,-33,1704,415,139,-838,-571,-1141,-738,400,534,-1245,-750,97,-650,-8,1386,-313,-257,399,-637,-1055,588,515,-1249,-1127,-1090,789,245,1329,1015,900,-860,738,684,-342,1123,-304,-982,-455,-38,-103,819,-2,-49,-641,664,-352,-463,6,1201,100,194,-647,457,-504,198,-726,986,185,306,-478,-526,558,1061,154,1015,-990,143,-705,-1129,-510,702,-644,-303,-2025,1297,-1640,505,-203,908,270,-197,-125,430,-1142,46,1012,-356,-1205,-886,1588,64,-837,809,-115,422,-116,-347,295,-1445,734,-733,834,-912,-465,-908,-2032,1307,-440,1125,-401,230,1221};
const static uint32_t LSTM_01_weights_cell_dims[4] = {1,1,48,88};
const static ConstTensor_t LSTM_01_weights_cell = {&LSTM_01_weights_cell_x[0],&LSTM_01_weights_cell_dims[0],0};

const static Weight_t LSTM_01_biases_cell_x[48] = {-241,-408,-1157,-48,-378,-2753,-2710,-1658,2441,870,1041,-1167,-3449,1857,1923,732,2582,-1110,488,2200,1625,-509,-965,2859,1648,-2548,-3294,-3873,-541,1541,3194,-271,-594,2071,1536,-3219,503,-559,-2591,-1229,-1565,-992,2422,-66,-3810,-201,611,-1195};
const static uint32_t LSTM_01_biases_cell_dims[4] = {1,1,1,48};
const static ConstTensor_t LSTM_01_biases_cell = {&LSTM_01_biases_cell_x[0],&LSTM_01_biases_cell_dims[0],1};

const static Weight_t __attribute__((section(".weights"))) LSTM_01_weights_forget_gate_x[4224] = {181,-313,-564,-157,404,1165,827,334,21,458,900,-779,-197,-176,-620,993,535,907,426,721,691,544,-768,-66,753,72,299,-621,-246,633,1147,1273,-420,-464,302,714,912,587,877,880,-868,1336,-859,79,-305,-350,-285,1241,-295,1138,-619,-1222,873,-18,40,411,-43,-1251,-1605,-902,-341,231,1069,434,568,-867,-594,-719,-1027,-807,760,466,407,1098,11,645,-190,-1478,657,-1666,1901,398,0,802,330,-30,-4,-41,-917,-727,670,-800,421,-613,-464,225,-256,265,-528,-811,509,-64,665,1139,-594,-345,-993,-547,1127,-91,-376,169,421,828,-1143,-1101,-820,244,634,-1245,-175,433,-849,-1131,-991,512,-862,-1594,553,-247,-1028,-523,92,-728,157,595,-285,482,-5,130,-256,-2317,-182,-124,759,-354,343,-429,1340,-827,-15,340,69,-635,-1254,-363,928,952,43,-214,709,78,430,297,149,-1051,532,295,203,-670,261,553,677,1879,833,-1084,-288,-73,882,801,823,-365,-915,741,1131,372,1204,498,46,1221,1262,-95,969,1368,75,1343,593,-854,-86,115,1101,162,1235,1161,609,-253,1037,1128,1150,-572,-124,-444,-470,908,385,766,-658,460,282,718,-424,762,260,217,708,200,263,-61,-1073,83,-142,-931,-160,348,-87,1014,-2,577,-886,-1187,731,-634,-462,-508,-217,631,1196,156,-236,-1202,466,-1201,-910,255,-660,-277,602,569,934,651,609,502,-173,-792,397,116,-376,-1377,-665,-1190,118,-798,323,898,-585,-998,407,-357,-132,10,22,684,1089,346,685,-791,131,648,1125,1025,1059,-748,865,331,-454,-109,754,457,-332,-748,-64,-505,-453,648,-430,91,98,-684,415,-526,-496,326,-434,-883,44,-1197,-182,420,-195,-129,245,-323,468,-1494,91,-1265,-252,-898,423,-122,762,203,-350,204,-123,435,-446,-1238,940,-276,-1093,903,-471,756,-449,-1037,1330,-495,-433,847,1112,-1059,-550,-654,-472,334,753,-361,-1270,227,-1276,545,1071,611,1104,1356,103,440,1551,1137,478,-648,-72,730,928,325,102,-878,-1208,279,-136,599,-723,-438,349,218,1026,-343,454,-115,1299,-443,856,-199,-863,203,-567,-595,-200,-308,504,-316,-241,-6,-713,1403,254,121,33,-824,-261,-285,688,224,-725,1228,-154,543,-1047,175,-490,-589,617,269,-108,121,539,-14,-154,-477,-636,1187,-56,1454,1366,1302,684,1304,-399,-631,83,-833,-74,721,206,1356,-75,-292,-642,337,-94,-804,-255,-755,248,224,-560,1001,-868,918,197,-850,-578,77,377,539,324,-388,-605,719,1099,1622,905,213,835,34,801,289,619,864,389,-92,869,869,101,2,676,-397,-470,-906,-423,13,-268,669,746,231,616,303,-547,1414,412,773,972,-1003,49,-366,1999,-762,-1089,216,412,-824,245,1960,-813,313,-1761,-345,1183,-485,-407,152,593,353,660,574,-213,242,-649,-40,-409,1324,528,986,373,777,-994,-439,849,-254,-796,-347,-307,-319,-470,910,-650,997,-856,1025,-962,-400,956,321,738,540,-460,-391,-757,126,433,144,593,1000,276,994,276,905,-392,-93,637,201,-796,-887,261,-350,-409,502,235,-1600,-117,741,-159,-317,359,-178,84,-128,-167,-512,1021,919,-425,-452,-194,125,-67,-412,576,-456,118,-1265,-563,1133,-141,383,185,-354,427,-515,318,1302,39,-522,-287,-533,1472,1214,526,1358,50,644,-534,218,-107,221,-12,-768,1114,741,826,1476,709,-565,209,-616,381,502,874,-1042,-927,1048,-499,1003,-101,599,744,-578,732,903,-16,443,1587,-165,1466,18,-901,-489,513,1058,-1614,1284,-315,632,-236,32,-53,445,783,-634,553,-212,499,-811,1394,603,-906,462,662,70,400,-139,-1253,1585,661,633,93,-675,-286,-18,-900,1277,215,-2522,349,-544,-1152,54,-201,303,-421,-509,-524,-987,-123,67,940,-411,-1188,806,383,67,-584,422,771,-1250,-793,-563,-59,225,430,137,-744,-798,-1127,-74,452,-1000,-648,262,-570,-806,-70,-712,-941,53,-849,-139,-324,1008,321,-535,806,3,922,955,578,182,606,544,1003,1054,22,-662,-1277,-288,-359,57,-278,310,1596,-752,1472,977,266,-318,16,-220,-1703,860,635,226,-487,216,463,93,481,-523,720,192,188,34,393,-87,340,1123,-39,-183,-272,-13,-396,571,-731,628,105,434,-257,-306,779,-752,1223,334,166,-1377,-1045,-269,-498,-486,355,-1151,-484,-561,872,-640,387,10,-779,-478,880,250,-244,-70,417,-726,913,746,740,-352,-864,162,695,-83,-1174,1019,207,-278,269,-609,477,-309,-149,-8,360,951,-1073,20,-950,640,-1690,-217,1387,-802,-818,-93,-1679,679,96,693,6,594,-1005,539,1151,-284,721,179,-552,424,-902,1179,-324,-115,720,801,-844,-577,1,-33,1372,533,231,893,-285,-710,-1046,-868,173,748,488,-37,1050,375,834,171,41,-644,-802,1054,554,72,-66,585,465,-909,-599,-1140,26,224,569,-360,-362,389,-506,-1272,-1270,330,-713,-1187,-35,-1159,-94,1326,-376,-853,466,-25,373,-1179,335,166,189,-206,46,-456,-1149,-773,-320,-366,-326,-1713,-709,597,389,-141,302,1224,-1163,595,-415,824,-60,130,1431,488,2337,473,748,137,745,427,-231,-931,96,603,663,-512,-832,789,-294,740,488,-382,444,21,1175,-489,307,-899,1130,-159,1151,235,-39,56,-974,-723,-198,1695,-338,-96,-132,1050,244,1060,-844,692,-50,436,3,-494,-950,-1127,-500,-285,924,-322,-109,-415,-1966,865,918,-362,269,-252,804,564,714,460,166,629,162,-515,1194,-442,349,-204,-1759,-657,1188,96,-556,1338,404,-67,-308,101,-1301,1475,-819,691,1487,-1423,-508,299,20,-158,45,-1115,-1071,1292,757,-17,-1254,-307,780,-1119,-329,974,-943,173,958,416,-412,1020,248,-309,-1214,-908,-745,120,-168,388,-1028,420,365,41,250,-359,1009,1326,925,-318,1024,-532,332,-37,1116,-642,-337,258,-771,-388,851,-510,-312,-593,5,199,-311,-709,-63,717,484,548,-841,744,-394,163,-238,-849,854,401,-73,1182,876,-1225,-131,889,88,390,512,-361,11,496,-980,1147,762,-42,567,394,679,-52,564,-555,-1395,-836,-175,1176,477,65,518,-301,809,1246,413,-245,-8,-279,167,1141,1075,818,-780,-229,546,-1161,-566,358,-713,-472,-489,985,-121,345,-737,-288,-17,-590,262,-529,-625,535,-745,-244,-969,674,-1041,-222,-134,-958,-1094,717,734,-1159,-998,610,-352,-98,-90,465,-1260,1690,67,1079,-519,-759,-210,-563,-199,323,593,-1161,301,-1404,-108,346,-1058,735,873,53,-262,-792,1021,-297,559,-818,-735,171,589,149,-421,-758,492,-1953,-1494,1457,1095,-118,267,-581,167,540,-175,-444,444,77,-1015,-760,-1533,-792,445,163,780,-592,62,-1128,688,499,-284,-491,-905,608,-512,-233,254,246,-855,630,-57,-628,34,-553,-545,-32,-63,821,842,1067,111,654,1135,-415,-461,-904,-2142,1274,-529,-1169,664,1402,358,167,-637,361,-173,616,491,-628,617,-556,177,1214,192,1178,764,627,-592,-402,-666,-585,-266,565,222,-513,-555,1044,-462,1588,-590,-322,-1014,-816,238,94,431,-675,-385,-140,-835,153,301,-471,297,637,1454,1682,-190,-530,-434,-715,612,1163,937,-680,-147,195,-120,-1274,186,138,-138,-780,943,-130,-587,519,758,215,-603,-306,984,-760,-66,1004,911,688,-379,57,105,773,-899,-735,-814,-9,-552,-498,-322,957,470,-363,245,-1325,-38,521,-376,666,152,152,296,1891,49,-254,-414,-48,-1112,-419,322,270,-883,-1011,908,218,502,1897,30,423,763,-237,-145,-418,-189,-923,380,1221,504,-717,1069,-96,-724,9,222,-373,-531,759,-423,315,-356,64,-907,-869,784,-789,900,309,757,-44,872,-669,65,-99,-86,-922,-241,-1234,-1090,-517,-576,-1144,-1110,-250,-576,-576,112,489,845,553,1051,37,873,-933,-298,-715,492,-238,-441,1246,-19,-1003,1314,-300,-648,-173,1268,260,-1374,-932,723,364,-541,-728,1369,-1066,-62,628,-2381,-139,178,528,441,848,1225,465,362,-1003,230,94,-661,419,-625,-224,1628,-226,241,-75,-98,-841,-1085,58,136,-1018,-1380,-70,-1314,-192,-624,600,-1157,-176,-284,-420,932,1126,300,-170,317,-990,349,-467,-6,262,862,771,-14,864,-565,-1013,313,-495,162,20,225,-1202,263,-457,-1051,-201,536,-11,-1300,-262,577,261,543,-1171,-603,-753,347,7,-731,797,-569,-1228,308,-1965,-178,1215,-224,328,-1416,-1647,-683,34,-47,-552,1636,-897,-705,-118,1344,-395,39,297,142,-950,-1325,608,495,-1403,600,951,273,-338,-36,1426,337,-1017,-965,544,-594,-1012,-447,341,212,189,765,519,717,648,-728,-399,-765,241,-174,-592,-561,-653,316,569,284,-215,602,-133,-311,791,452,386,-35,203,-644,671,-579,68,-619,59,582,289,1078,488,-537,564,225,-545,-452,490,-1101,-182,-286,-632,189,741,-594,-827,-460,463,693,-313,272,483,1435,1026,-436,212,1805,505,593,661,278,858,126,940,-541,138,-304,245,-444,-381,-332,-427,-868,-954,220,70,186,183,-329,-242,-612,-1155,-893,-806,21,-423,351,1055,994,-87,1737,391,-434,830,-207,-969,986,1220,439,-404,894,-552,-719,-487,401,-578,108,-1357,233,791,137,-745,-756,277,-107,13,409,182,1477,-1278,-490,326,-515,1176,-116,874,1062,747,-587,767,1599,-389,-99,17,-1158,-1232,-318,-1475,-248,477,-188,-1502,-520,-19,-996,1064,665,225,-168,33,1630,-433,-454,172,-1576,127,161,-177,-742,245,-464,1429,-40,-351,-431,-999,17,831,611,427,230,213,-492,638,-441,-935,471,-1131,-199,-101,336,-833,-1371,-1161,250,464,244,257,576,-539,649,-544,-137,958,794,813,113,1144,840,-139,279,964,288,1133,-628,-201,538,-462,-277,-290,948,656,1985,-4,-638,200,759,-323,501,-123,1044,-270,73,-705,182,733,1149,-597,360,-454,-579,-443,11,-888,492,355,-723,1238,-857,-588,1511,-333,-1030,942,-638,114,1015,192,635,-157,224,823,135,-118,125,-1155,-1579,-1513,-441,815,-82,717,-898,415,-350,1002,-311,163,-435,-445,-568,-736,1149,-662,864,191,-242,124,192,772,-450,342,-508,-776,-764,-123,-544,410,-947,-1530,549,-361,565,-384,840,-950,-962,-753,-932,661,850,-130,-1306,-55,311,-467,813,484,-1014,615,810,121,-154,341,-736,-720,120,380,-777,124,143,586,-339,778,249,-1092,-50,179,2,-522,786,-819,-533,143,-973,370,1546,416,-627,1138,401,-841,254,754,64,626,1187,-344,1363,499,1029,-1323,-514,-620,-626,62,1024,458,-62,-482,575,27,-210,-311,1011,-304,603,-13,-386,539,920,362,148,44,1232,1475,-35,414,-463,-66,115,917,-508,-1987,-721,-1402,-350,799,63,1182,510,-183,-316,170,1188,-628,407,-226,758,195,851,1364,-523,-1511,1371,260,-326,291,245,37,1802,-740,-1231,13,-108,515,1190,-588,-105,-429,-681,442,-712,-706,-617,899,1242,-802,-737,-189,-846,-672,-971,-1,341,-446,-759,-670,-608,445,-606,976,824,-512,318,-154,-264,-605,-1330,-967,-1125,-380,107,913,-255,613,-327,-432,-473,994,-740,-690,1192,1306,-306,134,755,326,583,794,-34,504,1090,427,361,-321,-765,919,-1175,-323,-352,-379,-112,-339,-961,217,-572,50,-183,1261,-1140,-411,-306,-583,-388,1234,-15,327,-394,-1042,-882,562,-1378,-461,-358,424,854,879,-207,410,92,-143,854,-708,-24,-1123,280,-379,17,-1073,-1022,588,237,-937,544,-161,-332,-520,513,629,-504,581,513,-118,-404,-158,-696,189,-550,140,-698,-620,-261,-719,-603,-450,-530,793,1064,930,1153,292,642,792,-731,1539,-192,49,250,5,16,-65,794,814,-728,-852,618,-219,1785,147,1294,-733,-121,411,235,-440,-682,224,-869,695,68,1096,991,764,609,116,-707,-743,1122,-660,658,-557,-1021,1057,122,914,1585,911,261,555,-101,-797,-115,170,-422,-619,485,-1157,-17,-453,-567,-263,-1289,-530,144,95,-80,731,274,-381,450,528,-537,-1023,478,-472,-146,-831,-1120,539,704,1141,-465,-295,221,-313,-661,847,527,776,464,158,-462,230,-50,-1014,-422,-742,-1410,-811,-8,2054,-336,-634,179,-837,-250,-96,-639,1011,88,-369,205,1569,-1079,949,-45,592,249,129,-400,-1142,-600,449,-396,-176,1068,-467,1327,318,392,50,-120,2081,-1386,-312,163,-1175,203,1313,-148,268,384,29,998,58,-300,393,174,-288,-175,305,239,985,40,747,881,77,-1155,707,538,494,-477,-844,1011,-192,-787,-1001,-1065,-468,-515,850,-352,-701,199,757,477,755,-532,-917,650,-674,389,158,1740,1068,61,41,-584,293,-352,-250,1446,-550,-500,229,-309,1104,-770,-553,603,-723,1593,1099,7,-1009,-197,-66,-251,-47,313,-252,-731,-820,448,-369,51,598,574,-181,216,525,31,484,-12,-513,-684,25,-511,115,-541,642,827,-70,-411,383,216,-945,-716,90,-1346,14,-387,554,-1029,527,679,-911,-731,724,504,380,-439,58,323,216,768,-303,-382,906,-845,-1106,583,842,972,357,-529,-840,-20,-158,349,1252,-379,2031,493,-218,-479,-226,227,794,123,-47,498,-288,191,-1054,-717,425,827,887,-373,-218,798,-70,-551,-533,779,113,430,-310,-277,411,-266,-727,-117,-979,-718,397,126,961,-1262,-212,-507,902,-175,329,304,1608,-509,-778,-955,-652,-321,-1100,-116,-215,521,-135,18,619,-671,36,-143,-962,-1509,21,-115,559,5,668,904,107,99,143,-1627,-634,252,-44,-366,-289,-791,-583,-995,-1087,67,-119,92,642,-1539,-1237,-699,-362,-1222,831,1131,1699,-663,-128,485,-1191,-779,1230,668,-2312,-420,-619,-596,-857,1710,-1309,-561,89,-490,-661,-1000,78,910,339,107,482,939,-538,1238,-429,580,-1275,818,986,-857,-1165,688,-717,-91,4,-1005,-334,70,277,1270,-198,77,1155,22,948,797,-353,476,215,37,-464,589,907,390,1056,797,37,553,356,-752,171,1082,-539,485,32,-290,951,664,-109,877,523,-720,-495,49,626,45,551,-562,-69,-157,117,131,-999,-103,529,-498,1518,221,201,-632,-842,-1512,-510,-995,-1169,772,1404,360,579,419,417,-594,300,1079,-284,1043,202,-738,296,-273,-134,1235,763,-1032,467,-665,-1823,-12,436,-485,534,1381,-945,-625,-874,-63,-1077,878,-63,-148,674,785,366,-583,-532,97,632,135,504,1197,59,498,876,66,-700,551,916,-160,-607,775,882,500,-741,220,169,1271,-250,-121,-651,722,683,1033,810,847,809,-796,-144,-2026,125,-361,155,749,612,1067,930,448,-172,-399,313,-381,1722,588,-349,-1022,-194,632,-703,447,-685,761,-1565,935,1218,-1291,304,1036,-54,196,-36,-1292,130,-579,549,-454,211,-202,115,731,775,-292,349,-1065,-177,-1165,318,-1532,-1110,187,1000,244,-130,-556,349,253,-720,916,755,-902,978,502,452,175,381,3,-129,-839,130,873,-867,247,-260,-203,770,-436,-538,777,1133,1072,-47,-272,1347,-858,-199,327,661,-1158,-422,-947,-644,-1926,778,1287,358,-1371,2156,-661,-53,608,-1394,-382,-962,-152,-1016,45,428,1144,324,695,74,368,-237,-662,-71,711,-1032,835,252,1052,-242,1030,-147,-935,64,152,372,-187,202,732,120,223,-768,638,-110,528,-267,-1033,701,343,-38,-1059,-768,355,438,439,319,1053,816,-92,-629,644,576,-658,434,542,299,32,728,566,-431,756,275,-218,231,15,299,408,-1038,794,-825,389,-926,-340,612,-539,-343,322,589,410,-126,567,1651,382,-550,229,318,-99,-190,-89,1359,973,1278,829,-122,938,-779,-16,342,80,-1293,1027,-777,121,191,1316,590,612,771,-250,-588,-256,1309,-583,116,-248,-604,-618,488,-274,-1377,-431,564,-105,631,932,357,563,690,229,166,544,254,-283,1149,1201,708,558,-617,-475,812,700,-443,734,712,-108,567,-823,880,384,1001,388,116,813,1043,904,634,820,959,-720,-66,-278,-713,-284,195,-1160,169,-955,957,-1159,813,142,-169,210,240,144,-759,1509,-552,0,63,1651,410,224,-702,388,-203,-1058,475,-1219,472,-123,1055,1061,123,-1006,-417,-581,1241,621,437,637,-32,-753,-390,-42,-321,755,371,248,848,28,-696,107,724,-442,321,167,957,861,-741,434,259,-947,-1056,-4,1070,666,584,490,-203,332,258,1390,700,233,-511,631,811,64,-242,-588,-167,-488,-298,-1060,-384,6,827,-797,1247,25,921,-60,616,394,-500,433,-204,-84,-1586,-1173,-210,-456,-16,1401,1155,601,1530,-580,-596,300,601,342,124,582,1108,-34,225,-1357,-281,-676,877,-1241,394,-102,-612,-534,-200,-780,360,-1120,140,-278,889,394,80,-1515,-1252,-897,-1003,-504,-1005,-597,355,-195,-1066,-1214,-659,93,716,-320,-824,892,-501,-888,-782,-459,699,390,-229,-738,444,-324,699,246,485,-520,-9,1124,-582,-442,471,1041,1302,818,813,-1203,-439,-107,1284,149,-421,144,-839,-949,-128,-280,470,626,-698,708,562,395,62,-780,157,269,-682,-27,-600,-989,-18,-557,294,-793,-1247,967,-913,412,-224,1198,689,-813,315,-1059,-261,-1267,262,-485,-637,1311,251,119,401,-855,-1136,664,-1272,165,180,1077,939,-200,483,-1025,738,-749,-283,164,0,-604,-243,-390,662,-726,548,-738,-293,-375,707,-257,295,491,-183,-497,-925,699,-319,-1,25,404,-331,432,1456,-2028,72,541,-12,532,83,-650,-150,291,-622,-111,-188,-1302,-1236,45,253,194,514,-915,1352,-653,656,317,386,-1114,1044,807,-44,1084,-221,1379,-652,21,703,-1890,-52,-1877,-77,-184,1251,1926,7,302,751,-641,-421,-631,796,-177,-1961,198,1011,194,-135,-557,313,261,189,847,435,-666,-502,315,-746,-948,30,943,52,493,-990,-1139,-4,-421,-778,-1007,-937,504,948,588,263,751,-1185,-298,742,-500,5,-986,-191,-923,-902,-631,-45,705,155,-284,-777,673,103,-405,-542,-752,1311,1423,170,-622,-1298,2069,321,541,135,-1026,104,165,-118,1067,290,778,378,133,-267,254,132,966,93,422,-536,421,586,848,447,450,-906,1731,898,-161,225,338,392,1414,-201,-315,-556,674,-353,-504,-314,422,296,1481,14,1117,195,826,239,-454,-40,1083,540,-702,-448,83,-67,-344,-562,-443,97,-932,-255,35,-746,-776,539,-796,672,-65,-943,-96,-747,695,-849,340,-997,-367,166,-896,1315,-408,771,-1031,-548,622,13,-178,481,883,-59,-379,-1298,-709,-860,593,1226,420,524,-593,-305,-977,387,-1072,334,574,153,509,-514,-212,955,75,-367,1215,485,-711,399,-914,677,451,-979,-836,961,-504,580,-378,-370,-281,-25,650,564,-506,-966,-150,1026,-1111,-1108,-465,155,-471,445,-1009,178,-585,-436,463,931,241,-636,-599,61,276,1025,1023,-302,443,-898,-592,-679,-665,54,-358,675,1174,866,-458,-115,-262,-1673,-586,714,-5,995,-314,-117,0,711,392,179,893,-988,-35,-867,672,-459,495,-1322,97,586,716,439,-99,289,-122,1373,637,1303,119,1049,-337,-299,-802,1481,-552,-52,-334,-523,-1707,-511,551,169,-302,280,196,-896,179,-1061,-1415,474,-221,744,11,309,-390,-777,589,-1026,-213,-1158,-148,1031,818,-236,882,989,-210,1433,-511,553,778,-163,573,465,14,-162,675,735,1002,-1935,700,681,367,1064,606,-127,1104,460,-116,-339,1339,49,50,-263,-286,-645,421,1135,-525,-297,-246,-485,83,1620,335,107,-347,-475,-226,-830,-232,127,-437,283,-743,1178,-102,-17,-447,-1004,531,607,72,2377,860,251,40,-1066,584,-1016,-700,619,-453,1146,1052,562,-807,-140,34,286,-953,539,-1046,-1167,347,-101,-241,146,653,915,614,290,-1168,-899,894,-678,-826,-854,-368,320,1473,989,590,-345,-588,-319,-834,-713,-265,-354,-272,-948,1042,397,363,1046,-1191,1292,-869,349,245,1363,18,-436,279,-1627,-1151,481,-700,-7,-60,-152,-845,-80,291,1097,347,-531,396,-416,106,-384,-453,-859,905,-1206,-601,1094,-1988,721,-1035,-1661,-132,-281,-1214,-1140,354,768,373,246,647,5,-416,612,-126,-1050,-433,-105,165,-407,-891,131,180,766,-476,300,-609,6,207,758,-130,538,-499,718,-212,-523,659,187,-18,971,-941,-439,437,1015,-778,267,-1156,-281,-831,1182,-500,847,330,1543,691,1565,-471,-97,-209,751,-461,-1829,336,1617,739,1079,539,843,26,602,-259,-1057,286,1294,-30,-893,-1634,297,775,1367,-238,-2061,1182,-180,-1035,1393,-254,186,1085,-1383,1307,-224,262,318,-659,169,-666,-813,-393,554,-1149,-852,389,-113,9,98,470,713,313,748,1090,376,-820,79,171,-1013,-654,184,167,-315,-991,-27,188,365,746,574,572,-946,-889,-39,-904,996,930,-202,-747,-909,211,1109,-400,-65,623,-957,291,-643,-274,-1541,1202,-141,-365,-469,975,1386,728,348,66,877,834,159,-89,-489,-1011,-957,500,-479,-713,-843,-113,-418,-1001,-554,192,66,-446,-918,-70,51,-754,-1349,-900,522,-712,-1680,-216,-1265,465,-957,609,-1319,14,-1268,176,-839,-571,940,-197,385,-581,1104,-790,-855,57,981,-370,26,739,478,-208,23,-99,222,-723,-404,594,754,765,246,-949,245,-218,-709,267,-898,-106,810,1311,302,310,-189,769,-31,59,-330,-1192,361,-172,-846,690,1469,-552,-194,-168,128,1301,388,344,-710,819,1009,-185,-1016,580,634,257,-675,382,573,-137,-107,718,113,310,-62,-155,538,985,160,1764,187,246,-147,-1563,-1676,-381,-1946,-1432,463,1183,77,531,790,900,419,668,1043,-277,-595,517,-1047,766,247,460,262,-1166,-221,-606,-928,-299,-27,-104,-365,94,-1427,-623,267,-448,-226,428,471,-616,-360,-1247,1883,591,41,-132,146,452,507,765,-1036,-1377,-1532,58,-551,600,-269,-131,-498,-205,128,-1433,189,2,716,920,-554,-69,1196,1047,367,284,525,33,763,96,-913,-1230,489,-61,687,-290,341,919,-651,-107,-508,-255,-581,414,623,1136,1043,1343,848,-368,700,503,681,-768,-145,-478,-102,-702,254,-662,980,646,-755,1096,975,-66,879,-619,1185,-958,871,1029,-830,-446,-622,-282,-480,-1600,-1198,-228,-1592,-265,-536,386,40,1415,-129,53,428,-825,1380,-299,712,1122,910,-1222,418,1154,547,-34,456,345,222,160,1205,1239,219,-850,192,-288,427,1036,610,498,-789,-1189,-1241,197,-1346,-273,-873,-730,-736,-147,-585,781,-62,-712,131,1506,1308,1204,34,289,1156,538,-517,430,-339,-413,-49,-390,352,798,715,-234,-846,668,784,619,879,274,-862,226,516,337,367,566,827,-1016,132,914,-381,-563,-28,37,-274,973,-1158,-567,-1655,-385,-688,905,-833,-327,67,346,-7,272,-400,569,368,-890,-933,-256,-938,-612,465,322,-48,-96,218,360,-1433,-809,267,-568,704,951,-123,58,1018,219,-309,-751,-976,50,394,-521,1376,8,805,-1326,-627,229,333};
const static uint32_t LSTM_01_weights_forget_gate_dims[4] = {1,1,48,88};
const static ConstTensor_t LSTM_01_weights_forget_gate = {&LSTM_01_weights_forget_gate_x[0],&LSTM_01_weights_forget_gate_dims[0],0};

const static Weight_t LSTM_01_biases_forget_gate_x[48] = {2252,2355,2197,1319,2064,2349,2246,1649,2058,2069,1911,1870,2080,2339,2507,2234,2151,2047,2007,1310,2197,1947,2277,2000,1929,2165,1739,1739,1940,2460,2536,2042,1732,2282,1934,1859,2125,1974,2376,2276,2268,1905,2409,2290,2074,1867,2033,2242};
const static uint32_t LSTM_01_biases_forget_gate_dims[4] = {1,1,1,48};
const static ConstTensor_t LSTM_01_biases_forget_gate = {&LSTM_01_biases_forget_gate_x[0],&LSTM_01_biases_forget_gate_dims[0],-1};

const static Weight_t __attribute__((section(".weights"))) LSTM_01_weights_output_gate_x[4224] = {-1088,-1791,-228,1109,1055,699,-240,-431,749,-520,952,933,-742,568,752,1382,143,488,-54,391,363,-1389,-842,-650,-605,645,-73,257,-760,-988,-1044,-977,-710,141,159,285,-117,842,273,-863,748,-1601,-36,-1351,-854,308,-66,214,476,766,847,-555,-975,146,-1583,-1423,-91,-548,-1186,883,-267,-1315,-392,-465,-833,121,-1656,-95,1220,424,914,364,279,9,305,1614,234,-291,290,481,234,-470,-920,-771,-648,-956,-729,-620,-922,-454,38,645,-648,-18,-841,-755,523,1016,-238,825,-128,340,-193,1265,850,408,-843,397,-256,-320,-806,761,372,-631,-589,-803,-522,-776,-229,330,87,329,-398,-765,388,-1340,-430,560,88,-331,-1196,-728,-392,9,-472,408,-1142,899,1042,-92,1178,-801,887,500,694,-1759,43,405,1352,956,49,-529,1035,281,-1587,356,-860,496,-1027,225,-928,36,798,-290,922,-583,405,1637,221,275,-1308,-854,255,655,20,-234,512,-818,-1006,-1522,-889,340,-1745,-1002,-2086,308,-160,-808,451,680,-654,-382,328,132,-458,-465,-313,-47,-1399,71,-1262,-1665,-621,-727,292,-868,536,-10,-1397,621,-487,-869,-999,-717,-546,-1990,-702,-474,-2550,266,-715,612,601,359,-480,-217,555,46,-1076,464,-196,410,1377,559,-1231,295,656,-247,477,-13,76,-103,-545,530,677,165,722,-259,-138,1420,-447,-1078,50,-953,-1011,342,11,889,737,482,-125,-40,-46,694,431,328,-808,143,957,-660,1150,1031,505,257,430,-714,-94,1067,10,-41,1176,5,1245,10,433,952,1196,927,165,1340,1302,1397,154,79,484,1266,1321,1825,567,793,774,564,428,1519,99,84,-564,193,-1034,-128,-964,563,773,205,489,286,-1524,910,657,-346,1147,-669,1376,-12,535,-853,-162,-350,506,-357,416,-425,-869,-467,-396,-736,310,719,-1038,1364,-665,71,1061,-1488,1064,399,-392,-76,-136,19,535,-1987,130,685,-327,169,-720,996,-1024,-1185,145,870,1312,92,1103,1569,-268,41,1711,1235,1409,-691,-327,-37,-671,-800,-1102,-838,566,-74,114,-513,-208,-553,474,-520,702,-522,-859,841,-163,-929,235,-259,-499,1077,526,-1264,-533,169,210,-895,1402,-1504,-708,59,-366,-17,837,663,-793,1336,-539,53,581,-813,-75,-1694,81,-95,-539,1220,-593,-1153,1496,1482,832,712,1122,526,-713,253,88,-852,411,-457,-887,-212,-1,-624,-904,-506,634,902,666,75,658,-561,-424,-352,-1450,-860,-641,405,-1368,-1110,-1628,203,22,-178,-872,315,-778,-163,400,136,523,305,921,-1057,476,1258,-781,-898,-685,-422,-224,-449,-589,-1628,-121,418,405,250,-713,1153,1116,-259,-223,1148,-1610,-1090,1031,321,-1803,724,-1780,-1265,-656,-1320,645,-118,1568,404,523,-1348,194,-291,1154,135,-1180,-442,1364,69,-1425,1661,656,-538,1036,36,1196,1180,18,-1546,-310,-246,432,-1056,1179,-614,565,-1285,-1576,-659,-1020,-758,-1603,-332,-1195,-1220,-1068,700,-36,-883,239,387,-725,-550,-843,-619,-1244,-1019,324,-329,608,591,-1415,-330,-841,-912,-166,-8,-122,-520,-457,-1061,-1426,-1190,-68,831,-1228,98,839,265,242,761,-959,-790,1671,293,-440,-311,66,-75,-746,892,285,732,186,-139,-650,1122,110,-328,577,214,114,-1241,761,-573,-290,-623,1337,-555,1060,1087,-396,21,250,-728,905,839,1526,554,-270,920,1134,828,-62,-176,-40,-451,5,-37,-219,909,213,472,-170,869,-262,365,-294,-670,-891,298,20,-842,1004,15,704,1246,-488,1117,299,770,-313,312,617,-718,-1100,357,-1033,-853,475,751,-11,7,-30,-309,-281,-755,-1396,318,-178,560,306,-336,66,-241,757,-33,210,-1002,-342,136,1148,1136,-1306,634,-581,-114,-581,916,1290,688,685,303,-50,1257,-934,1487,681,-770,-942,1050,-628,427,334,766,-411,-724,2017,-41,-389,723,633,-182,-876,-1352,-1288,-187,-110,369,-605,447,-266,-395,459,700,-969,-467,381,-1097,60,303,-1064,244,-109,-725,-1186,-678,228,217,-828,-687,1143,1246,-225,911,468,1203,1153,228,-240,388,-173,2168,-953,733,48,300,-297,-1022,-626,-296,563,-913,-50,546,652,900,473,993,449,-239,-1089,642,-760,-344,184,1020,-720,-363,138,-742,881,102,355,323,-707,-1106,131,794,50,-815,323,267,-742,-819,-139,-405,784,-1372,452,806,184,1426,677,-1,-904,-295,-306,-956,-88,-459,-1018,-573,-96,-271,86,484,-96,1467,-19,770,1232,-533,27,35,279,191,1033,-749,-245,-10,-676,-687,-431,-474,1145,-148,507,-1007,-1089,879,174,99,-2082,314,508,776,23,-545,-650,-133,-1086,-234,222,-632,-681,-441,-228,-22,-1140,-200,-867,-412,-12,-696,-1210,658,1078,-393,180,-1027,-187,-777,-913,550,-1113,787,258,349,-1046,543,-594,522,1051,-83,1073,300,647,140,-215,215,-188,87,1036,-253,1169,844,-849,-63,867,416,-240,785,-85,-728,-214,270,89,778,1171,-253,861,1257,-124,-10,-461,867,-514,-97,307,658,-89,-746,-820,-287,-708,-186,-100,-1944,-103,249,661,1289,199,499,-90,901,-364,781,-990,-301,56,-1571,1027,-1055,-1260,694,-61,1619,303,949,-1007,329,-66,145,-768,627,996,-1274,429,-357,1998,-435,116,248,-1162,424,-130,-478,-1052,-475,499,-588,1008,1024,77,728,-305,1135,935,505,-567,766,87,-815,905,133,-354,-272,-275,422,-583,1319,1479,142,-75,1409,1165,-156,-132,-192,146,559,-256,1336,1518,-30,1324,1225,-1,1417,1292,-640,-296,564,1054,-160,1268,204,758,-83,-316,644,-42,548,-58,1596,-840,-807,589,282,546,-1348,783,1236,-589,-318,220,-996,-800,423,-1482,-33,1213,299,-123,1162,-1197,-217,-410,-121,520,-567,-551,350,-259,203,-130,-597,-678,688,95,-76,-617,415,730,1201,-241,548,-169,-99,-525,971,1119,-731,-208,193,-294,-523,-172,1115,665,418,828,234,-366,-677,1502,1565,569,-108,1335,-297,169,1394,-309,-288,760,1389,41,1022,433,-345,76,426,-1255,-1266,1015,-536,349,525,56,901,-693,493,-720,-305,198,87,595,-987,-792,554,-580,56,-432,393,960,1289,-1539,1281,-266,-41,-461,-99,-420,-309,-872,74,166,-516,890,-792,34,136,597,137,863,-89,-542,135,954,-274,1263,-557,-74,415,679,-67,175,-414,893,-231,1116,-289,1035,-12,196,-837,699,-284,-204,447,-608,32,509,-1183,-822,-68,555,304,492,691,881,-509,968,-195,-562,346,1242,-98,-661,106,50,347,-362,983,369,1434,-330,2063,1390,-1047,39,454,-289,-457,1050,-1196,-43,2336,1154,396,685,515,-154,-562,-599,398,522,-1223,-669,-184,-11,965,-736,-1381,269,-1155,-260,449,-176,-489,-1299,-68,1273,779,110,-434,56,-590,-30,-230,-7,-214,-965,-220,393,740,295,97,-692,-1223,-1023,24,114,-1077,-232,162,-220,-315,-267,-1378,-1222,500,-783,-704,-286,-264,559,862,765,-540,-294,467,447,-257,-1264,-58,-1421,500,-1060,-944,85,82,-218,1772,-1740,-1021,131,344,-1220,386,850,-920,-1144,656,-1703,142,-216,697,682,-793,56,-333,-220,-398,1269,-1434,43,1145,-2646,929,-237,-304,959,-1030,231,-859,-1829,1523,-86,-1256,34,643,378,269,-250,-263,44,229,1490,-172,567,1067,3,44,181,840,-56,-780,-40,-515,103,1035,-562,-273,216,953,910,46,-249,-97,-240,418,298,-102,693,181,-115,244,1422,629,778,-253,484,-19,-1131,-318,763,480,-423,-80,1307,164,-403,-599,-1103,-1230,-1970,782,738,-1105,141,-281,-331,1143,-489,-855,1052,956,-244,-604,461,-142,674,858,91,831,1290,592,222,-712,382,-630,316,-57,226,21,212,-988,192,-80,-371,-717,697,-795,672,-117,-56,-80,117,-221,270,1048,204,574,823,107,-156,-435,947,891,945,-533,-542,-1069,-310,-186,-1055,305,779,-353,-257,-119,-1066,-1250,51,-827,499,-72,-489,528,-909,192,-365,-1463,-91,-132,-445,511,-31,1089,214,569,21,185,931,480,-756,971,-384,-2344,364,361,736,829,627,7,-1739,692,-729,1003,707,-913,349,-611,2342,1419,721,584,-1469,-692,887,-708,133,842,-510,488,-791,152,398,-409,-653,536,933,-420,170,264,-63,935,668,222,553,-329,635,76,-314,724,-359,-59,-459,-515,-644,-278,1280,159,1305,717,130,1122,1088,1273,903,568,-661,585,-45,517,-534,796,-31,-1583,-524,320,735,-727,-894,36,345,-1205,348,451,-263,725,-722,-531,-336,-757,262,31,-154,-415,-642,-874,-130,87,-308,-226,-56,-713,-336,-739,89,1232,1673,957,-810,855,151,2017,-1015,74,1122,1146,205,2175,-179,-346,-310,-90,369,-544,-584,-777,21,272,1016,-197,549,791,-110,1215,-682,1173,1061,1367,708,51,-115,1070,-121,-543,495,1704,361,1409,225,10,8,-347,486,-638,464,1274,258,70,246,-366,-384,-81,-254,203,-1071,256,-725,1052,768,-73,542,-1915,-298,663,376,-34,-270,-57,-461,116,777,1349,794,-206,1086,785,-46,410,681,399,-260,-487,-1165,199,623,7,-537,356,-574,-204,-749,-301,-371,-74,411,116,-639,-804,121,1052,-448,-454,1404,-76,1001,368,-426,37,1471,661,804,600,1028,-556,471,89,801,1473,1506,1509,-6,1558,1702,727,660,228,34,1215,-262,1080,138,632,1545,-182,146,-59,1505,351,1256,1803,-357,8,-611,212,8,-844,256,509,271,1805,572,810,-602,357,90,754,-467,156,-1492,1521,-325,-939,-634,-1330,16,-319,-1684,73,784,-281,-777,-306,-876,903,-101,1902,10,35,-555,995,-78,391,828,-121,432,-2046,-660,-749,951,-812,-145,1329,416,-473,-162,64,930,-347,996,-976,-563,-103,971,-425,-803,807,806,-726,1119,1188,896,-48,-565,-495,464,381,1063,-463,-542,709,737,925,-406,-56,-257,1160,0,-36,-1260,964,343,-109,-1039,831,-799,-354,-84,666,943,435,41,499,-442,83,-144,-869,-1381,-660,-106,-471,-650,-677,552,558,102,413,292,163,-1103,188,66,725,-306,-1623,351,-432,-60,-155,684,-806,-368,-1796,56,-53,346,373,-431,-375,133,-457,-547,291,976,241,596,319,325,1339,1576,1758,620,842,618,-576,480,-144,-350,946,-55,1074,1397,510,103,1072,480,-433,-25,1049,-559,134,-991,-698,-446,270,244,-1595,365,-1979,-400,0,165,1259,481,-534,269,-188,1197,320,-623,411,100,226,139,-826,-541,470,101,70,502,131,136,628,-1063,-179,182,93,-830,759,-1425,-814,769,912,-1222,-946,1234,1175,-377,-385,-212,772,1126,-401,1014,261,-606,940,284,1082,221,59,409,37,1029,-1091,462,702,32,-356,-382,-216,-339,-93,325,-379,1111,-256,1068,-399,728,-120,-798,-369,732,753,1089,-196,80,1421,105,-439,-432,1384,-244,5,-352,535,-340,1244,-201,86,1254,-463,-368,577,-766,264,597,484,-125,193,-1123,103,-3,367,205,420,-49,-529,1083,-913,-79,1210,1974,-212,-576,533,1090,1069,505,-103,1543,1222,1632,153,96,-296,-772,-230,236,-103,777,747,117,-954,361,227,-879,320,346,-158,-742,490,-314,371,-644,865,837,900,122,-367,-1171,-441,514,-371,365,-306,-292,68,-626,-124,-817,488,-571,427,16,1354,-645,586,-420,642,-544,-622,-902,2020,599,204,17,123,435,1092,-731,1579,177,703,500,746,-1405,-330,210,775,-160,826,-860,-434,54,-555,-343,-217,581,135,92,100,1045,-104,405,-618,-772,-447,-688,-8,815,503,-162,-113,484,-136,-64,-339,1416,97,803,897,-116,-428,-508,506,-35,-959,425,86,-417,418,415,-450,-825,-1028,785,-95,1068,999,-397,-139,808,-566,-815,1027,-343,-710,357,-315,1105,59,958,1227,109,1035,1517,1150,143,-115,-572,566,-734,262,-1818,-506,-765,-390,-532,1410,-430,531,-1242,-1363,6,898,1068,235,-774,411,165,218,-21,-359,958,25,-193,-485,-179,819,466,640,525,419,-260,1516,-850,795,969,301,-712,-417,-85,-670,-848,717,33,360,-498,55,484,16,838,-814,626,-510,-139,1070,1392,682,953,1125,708,1416,-793,849,399,1260,-44,759,-821,607,321,662,1035,547,28,99,420,-363,-726,-778,-1119,648,-450,-630,1309,-1810,-1150,-1729,-1070,-1539,-366,315,993,-854,1001,-1483,815,-87,-588,608,-142,-367,1088,118,57,-148,1139,1194,-921,321,-515,644,586,-107,1709,446,1380,-314,1394,304,-44,-1104,-735,795,2,224,-660,-323,640,868,-825,-216,64,-159,1061,1310,222,1625,-91,358,1350,800,227,899,-389,-356,-679,-267,-491,883,-157,-328,626,175,942,239,864,-151,-2,-128,-677,1511,613,1486,1122,1265,1245,-176,57,568,928,861,1046,384,500,15,-1037,-943,158,886,461,143,-130,-64,944,377,499,-1470,726,-259,637,167,-688,-338,-1568,27,811,-858,-452,-316,387,900,-234,-336,842,-244,162,-367,-201,595,-210,298,622,1356,560,962,-344,-333,-158,421,-282,-1023,546,1,-163,-277,128,917,108,-813,-529,-884,590,283,597,1071,524,531,795,-290,1216,55,479,16,1101,173,-262,163,544,827,1138,-33,939,98,623,432,465,-24,-724,-601,687,126,-1001,-1568,529,241,-672,-108,-116,-640,-1516,171,157,276,413,64,-1144,1362,423,516,1150,338,-411,-72,-609,689,-488,-147,-1592,243,-312,-1205,-259,137,182,-1049,-333,645,153,277,552,441,350,-27,62,276,507,737,621,1242,-1002,-335,1052,-173,614,739,1369,-540,766,183,-390,862,377,-563,-652,583,-950,653,-280,1071,826,100,367,178,-111,-73,391,529,980,-384,-189,-982,1080,1186,209,90,649,1142,-618,-729,-943,-872,-431,356,-334,305,-265,1438,751,-543,98,277,-359,-893,710,392,-910,549,646,-708,-1126,1601,-57,-218,281,-1302,730,657,-517,208,342,827,1010,-121,82,-1425,-672,847,-1346,-851,1411,-576,116,880,-123,-440,388,-478,-285,300,1325,-303,110,-228,-841,-841,-1364,-444,196,357,-267,883,859,-1325,-1298,-1462,631,-639,601,-1222,-1307,-1294,382,-813,636,29,386,-972,-898,-376,873,-140,85,657,-483,-1115,166,1032,-538,-429,-253,-298,-221,197,879,758,-345,64,-24,265,-1078,-1268,348,-677,-385,1293,-1091,-534,1668,-1753,-1184,-1007,-419,118,1483,-1100,258,-296,506,1708,689,308,-1107,-693,-533,-11,1126,-868,-1012,-651,-802,-276,190,-324,-684,-822,-343,-420,-1581,-1419,-235,477,-1084,-867,-36,-711,-60,-918,-459,-1470,-1207,-730,-1516,-255,188,-89,376,80,-260,-368,-925,-1623,-496,-1140,-1074,14,177,-554,512,632,-521,-110,808,831,-894,842,-1112,45,-474,801,106,1819,-498,-100,353,431,481,-613,-604,538,-159,-484,-723,581,1094,-257,198,-70,-282,1194,362,317,1265,544,964,-1303,1076,152,-542,-1051,-1605,756,-328,447,59,-201,-460,-616,-711,-275,-882,-369,-966,-1206,47,-5,1573,1421,11,157,-661,-650,433,485,1036,806,1518,-313,-78,301,1405,1258,462,898,-433,-493,1008,-868,-184,1272,1153,734,-390,498,1229,1148,611,1679,720,1220,746,757,949,670,-604,-339,-39,-1678,200,1627,1100,607,-543,133,-1439,544,-192,642,1003,79,-1290,-494,18,-1374,-74,-409,-509,-1812,1080,-811,-1594,66,811,838,-814,911,-320,830,-992,1069,-1058,206,868,234,-15,-115,200,-647,-1159,-1114,773,962,426,703,2030,1664,518,849,-142,-121,745,744,651,702,650,784,1497,1847,78,37,694,853,-519,-408,10,279,880,1098,1303,782,933,-507,-763,1286,69,504,733,926,-630,1422,-211,-456,-541,4,-582,-1249,51,836,345,1247,728,24,129,377,464,-584,568,1039,678,-1578,612,75,917,-1057,-35,1381,1049,-1718,-125,170,822,-61,-398,-347,1516,383,1652,6,1,1264,-22,299,-138,805,-391,-374,586,-2065,-521,-376,13,-123,-1193,-600,-153,-666,-76,-1545,541,-819,-996,477,-131,81,3,-14,-1348,-770,-958,-810,-1675,-346,-211,-387,-474,-1010,-658,-1799,158,-454,-297,226,511,-720,531,-374,-8,-1043,860,-482,395,-346,1258,1566,496,-19,-1753,-1153,237,-199,582,-683,92,874,246,-54,247,914,-367,-147,124,579,-329,-348,132,-608,635,32,-626,-51,-68,914,90,-901,-1269,-80,-1039,242,397,-499,-32,1536,-364,-668,-925,-80,662,2094,726,993,2155,1290,1319,-223,1645,1552,212,297,1209,126,203,-201,601,124,238,-667,1,553,-615,-415,551,-72,877,-539,801,619,-888,-594,-187,-299,-324,646,-690,373,-595,1130,-270,1609,689,-248,-1310,-46,-1336,525,502,532,1426,-1062,-216,460,-387,1470,194,-709,386,-810,-593,577,-1175,213,-800,916,-1360,-1737,281,-465,-401,329,-243,379,1001,385,1493,-819,-97,89,-551,-10,496,-243,-614,1884,-406,-244,711,-398,-1166,-462,-802,270,393,411,-957,101,-662,-972,-1124,-650,-315,-1039,-974,721,-1225,301,91,-359,-67,890,-40,-472,-455,-755,-103,840,233,-337,-545,576,839,-333,1495,826,265,95,-335,265,-230,837,692,-673,-721,-954,1215,1165,479,-249,-486,135,-674,-1187,-645,186,-1372,602,-1157,-724,-154,-195,-146,821,379,47,-1179,-24,-546,-1554,1188,431,-1085,282,-718,-1028,60,-193,915,260,-374,107,430,-1872,-651,-609,790,634,769,-37,-674,806,1191,973,139,1143,556,-752,870,-551,-1047,448,-137,-558,669,-620,380,1008,677,486,1258,-172,982,428,373,609,1666,-432,-624,-405,1124,-105,707,658,1575,2116,317,194,579,599,461,768,-1167,-562,-36,311,-275,1029,-482,827,207,2097,330,1059,594,1140,-122,-466,-38,-952,1065,169,1702,561,-125,593,877,-2218,-812,-817,266,-550,422,-1044,-138,12,252,976,-640,869,958,585,668,-779,-482,-940,-473,1413,1728,472,884,2126,1683,135,339,-61,268,-694,-6,392,1220,960,749,252,552,1088,749,-57,982,146,-341,858,-530,889,-329,-604,-476,-304,-915,654,-459,-32,-498,-936,53,-294,-106,-273,-348,-596,-685,24,-586,1041,-512,-691,-546,422,552,968,1696,32,574,-1534,525,-118,384,1040,-515,849,-1068,-859,482,977,644,-906,-257,17,150,-3,248,1349,367,-356,-586,1417,1240,-1235,753,-606,263,-25,891,-747,913,-818,-848,-1002,-1119,152,-824,-889,59,-248,-71,-421,471,-480,498,646,-1586,323,358,-1504,-1457,-1111,-1337,-28,-544,-811,-231,416,-964,3,-223,230,-1173,-1103,-1285,-1106,-399,-760,46,1575,-1236,268,1206,-1338,-229,-348,-908,-653,-417,93,117,233,-588,-440,-90,573,531,1099,-308,-747,-51,-399,19,973,-421,-139,1212,880,441,433,-75,301,470,564,-323,392,-354,452,635,-1113,1135,43,-471,962,-69,-355,1294,-596,-569,463,206,-345,-710,497,-816,940,441,376,110,-1277,146,446,512,776,-1035,91,-282,356,-600,611,-367,215,17,-133,-640,-249,762,484,707,-438,866,-426,1224,-776,1302,247,682,558,1078,1341,1319,-226,-236,-268,-652,196,-1092,48,-1424,-25,-22,-677,289,123,-378,410,-315,1819,196,279,-928,-649,1051,744,-154,-907,-87,-28,-612,-477,-134,339,116,-447,241,530,755,542,221,33,-826,446,-1252,-894,-978,47,-887,400,224,32,-1053,149,-1174,-452,-951,-372,-578,-328,624,-322,169,403,-722,856,-538,-936,23,4,1366,3,-822,680,943,580,-500,1282,-2,569,216,514,-338,-639,-96,712,430,561,-1278,2090,324,207,682,-1708,1197,602,-533,-582,-809,685,1482,116,670,-266,30,767,-311,-1024,-90,299,421,45,627,-229,-472,119,680,-1290,-1483,355,-652,1249,-294,-396,-1286,513,-1165,851,-1745,-319,-499,-126,-125,-316,1072,491,1025,603,344,895,58,-76,726,-511,583,773,-650,-861,-420,735,-108,541,633,-119,-781,1154,-265,-846,888,195,-1155,138,679,-716,-186,-518,333,-430,-764,253,-512,184,-437,692,938,-474,-1379,-1754,514,-376,-189,-425,440,152,-14,607,987,1103,-106,-1268,971,-160,94,-457,-334,282,-1604,-333,-2265,-441,1606,375,638,469,-488,539,591,581,222,453,516,986,402,-626,344,515,-875,592,331,1134,-776,-953,-920,-702,642,-332,-287,1048,836,723,359,-128,-85,-922,-1006,-1026,183,-435,427,345,568,654,172,1096,-148,380,519,-656,1022,83,1120,-139,1151,-762,764,106,-689,-792,856,408,-654,489,-1560,1027,-468,380,-44,730,-301,-292,1228,1811,325,-1094,-749,-414,-530,1172,-291,1476,1169,443,-541,267,-147,262,220,-802,-45,177,133,1522,-451,-26,-558,223,-1170,875,-495,-297,688,305,-548,1506,-610,911,-786,-321,-418,128,-498,-110,-946,226,883,560,-85,-1089,586,-787,-63,-248,757,299,555,744,-576,-1021,-933,-582,-661,-214,505,-660,-230,-1072,-1124,-1010,126,-1034,-1272,-705,694,-226,-562,-324,-269,-987,-461,178,-752,-646,-559,-891,-186,-954,198,-559,233,-1276,1134,286,-329,789,595,309,23,765,-30,-460,719,1219,-84,879,395,-633,-573,-1318,690,-404,459,-267,-794,-498,868,-1518,-752,-144,934,90,-923,-477,-589,-42,-367,-130,1046,-334,392,-1003,-238,253,-741,-1041,72,287,-938,-369,-1031,-346,1180,634,-149,426,-540,-404,-182,-775,759,1002,357,96,-570,-1040,419,479,1314,928,-59,1079,-393,177,-951,708,868,633,-1141,-281,-604,31,-491,146,189,1230,163,960,-878,314,316,-1287,-715,-411,1130,-645,289,384,679,-471,-1422,35,-722,-26,60,189,-346,86,-230,188,838,-80,691,845,173,-11,-431,-1071,-731,891,221,-213,-373,-764,1592,724,409,-651,-124,-980,493,-206,-1062,-628,76,103,709,1004,1530,1445,-236,1461,1097,-69,822,-84,-283,-1033,-1051,-455,869,380,-152,62,998,-488,607,1079,500,679,1110,-109,-331,1010,1,-105,1560,1362,283,-223,-681,1485,28,-911,133,427,-154,1795,-65,-586,-958,914,-154,691,-183,816,444,2159,-611,-612,-1922,-218,-586,206,570,576,-910,-725,469,-447,-414,1274,1883,590,-616,-83,375,-199,187,712,-393,243,-664,-505,920,55,-343,905,1063,-248,1137,1253,205,979,985,1158,-518,73,-129,415,-570,394,-597,-349,352,-789,332,34,4,225,1559,-287,-133,1253,-197,23,189,-759,739,-98,63,375,-600,-394,-22,-1142,-6,-694,-93,-929,-345,453,409,-1616,-1056,516,761,233,705,513,512,501,-360,-1153,342,-498,-81,766,-1530,-882,1202,-123,702,-73,33,-1170,150,846,684,14,-240,-651,838,700,-50,-1271,-585,336,1596,-334,-1637,647,-845,98,1241,-397,-34,472,-804,-106,-605,-1182,743,-931,243,-1080,71,628,-1164,-13,651,-331,408,-39,-479,-1278,58,633,246,-1136,-168,-1066,360,-952,618,181,976,592,-604,-351,327,742,-1279,-534,1372,-669,-503,-100,-548,165,-844,91,341,478,656,442,471,-88,1019,368,-299,458,60,-456,229,-134,1108,1000,1145,193,-1778,629,183,-82,862,1255,-291,1973,-573,-1910,1360,254,635,70,-244,-680,619,665,-891,630,-361,-859};
const static uint32_t LSTM_01_weights_output_gate_dims[4] = {1,1,48,88};
const static ConstTensor_t LSTM_01_weights_output_gate = {&LSTM_01_weights_output_gate_x[0],&LSTM_01_weights_output_gate_dims[0],0};

const static Weight_t LSTM_01_biases_output_gate_x[48] = {-1438,2000,2537,-622,-1478,493,295,551,-224,993,233,-256,52,412,1100,735,-1174,387,780,900,-320,258,1246,-419,255,479,1293,-815,834,1098,117,1445,-438,1326,929,-397,530,606,1155,-207,1401,-362,671,582,-278,1571,-794,749};
const static uint32_t LSTM_01_biases_output_gate_dims[4] = {1,1,1,48};
const static ConstTensor_t LSTM_01_biases_output_gate = {&LSTM_01_biases_output_gate_x[0],&LSTM_01_biases_output_gate_dims[0],1};

const static LstmLayer_t lstm_01 = {&LSTM_01_weights_input_gate,&LSTM_01_biases_input_gate,&LSTM_01_weights_cell,&LSTM_01_biases_cell,&LSTM_01_weights_forget_gate,&LSTM_01_biases_forget_gate,&LSTM_01_weights_output_gate,&LSTM_01_biases_output_gate,LSTM_01_output_dims,LSTM_01_input_dims,TOFIX(0.000000),tinytensor_tanh};


const static uint32_t LSTM_02_input_dims[4] = {1,1,1,48};
const static uint32_t LSTM_02_output_dims[4] = {1,1,1,48};
