#include "tinytensor_lstm_layer.h"
#include "tinytensor_conv_layer.h"
#include "tinytensor_fullyconnected_layer.h"
#include "tinytensor_math.h"
#include "tinytensor_net.h"
const static uint32_t LSTM_01_input_dims[4] = {1,1,1,40};
const static uint32_t LSTM_01_output_dims[4] = {1,1,1,48};
const static Weight_t __attribute__((section(".weights"))) LSTM_01_weights_input_gate_x[4224] = {858,512,-783,-252,1183,1176,1163,227,-75,28,556,1169,918,1318,-788,-464,-151,-184,-366,511,1444,618,115,202,223,153,1445,1109,-169,736,251,20,1128,1313,827,1270,988,943,436,556,-1046,-1179,803,-510,996,759,-271,-856,37,788,-692,1359,-1309,331,-296,-1020,-1118,-140,939,-211,-438,1282,-186,930,-48,-369,928,170,-359,-238,-947,-1402,-151,-12,-101,343,-544,401,-563,-689,-608,308,-191,662,-770,-645,566,364,335,-1037,-976,-787,524,-799,-802,-56,1367,-772,-1487,-1134,-724,-1053,-603,277,-188,1817,1423,1247,-1381,-384,147,0,-2090,-2537,-219,674,-720,522,-73,-798,-44,-201,-1044,-834,-1958,-1515,-737,-661,204,100,-6,41,-1199,-1137,-1035,850,777,-1126,1973,11,-531,-632,-72,60,-577,1425,1041,-1920,-1100,536,-1564,-223,-613,-219,136,-1021,-769,891,-502,702,-94,-2396,-1292,-568,-788,-354,997,-895,-620,1005,183,872,-1374,382,406,92,-530,103,687,1179,-268,-357,954,827,806,33,291,977,532,-503,446,645,1108,1249,494,633,-173,-247,785,-180,-370,1051,-381,97,845,344,344,-298,523,-723,749,691,862,700,715,664,-109,762,96,-615,275,168,-633,-610,85,40,-448,-592,443,1025,327,-370,357,410,-234,-332,-343,838,-174,991,-18,-660,1102,1103,301,-1323,16,1109,-265,1114,-147,321,120,535,-294,766,761,844,-866,-28,-516,-616,874,601,273,415,681,1169,-292,-959,1266,553,1087,-713,-61,-780,381,-764,460,-847,-411,84,976,108,611,-120,682,-1044,128,282,-624,-903,-608,-789,816,-454,-330,147,354,-1067,-364,-340,854,-349,-177,-232,612,-171,621,741,-1388,132,409,-143,1298,-103,-136,-786,-685,775,779,130,-51,117,-1783,-1356,487,633,465,-1788,-311,-293,-1625,-267,-1172,-717,-404,1351,772,558,91,410,-713,-321,-1376,325,891,1103,-732,-1081,1031,-594,-1334,430,719,419,248,-713,268,-1374,-535,-862,1248,534,418,1160,746,-366,737,-660,-85,-891,-216,-1258,372,-439,-817,-47,750,-506,151,-618,-754,562,-290,425,993,-678,-350,-589,674,258,439,634,-375,-145,242,-341,-1088,-895,-1422,23,-1145,-773,1439,959,-1454,204,-514,-1054,514,-1147,-613,-46,-31,668,653,-106,2284,489,-372,-1,373,-1536,31,-477,110,878,649,-708,-2051,-1477,-81,-2743,-483,-278,857,-535,212,-563,-656,190,-725,1748,-79,1174,-252,1160,1031,-120,1159,783,903,-276,-729,966,-510,125,238,1046,1353,1722,68,1623,1479,217,998,438,541,-220,-549,-237,731,756,281,350,39,1193,1125,770,752,411,-1019,-442,864,-1390,136,-638,233,-1920,267,710,652,-77,1220,198,-145,-1011,-225,-840,-429,580,573,-899,-60,1134,-844,-522,2566,288,246,1136,-111,-138,-143,-1170,-432,-487,890,1746,1184,-1334,-474,1098,305,-1637,782,1921,340,157,-931,897,123,-406,-545,-146,146,1231,-615,-788,429,915,-464,-763,-231,527,-942,-405,1010,1142,396,-200,769,942,866,-634,-633,935,282,369,-694,9,-108,-5,542,447,-447,598,1189,50,-557,-50,254,859,-802,381,697,669,-1533,1402,-2023,-1276,128,-776,-1385,325,533,749,147,-628,-1453,-1624,-43,-294,-503,-1481,524,668,865,677,-146,117,596,-435,465,-221,-458,194,-447,-1587,-1050,617,-185,-1105,-245,-939,192,87,798,-99,531,-582,416,-613,1028,778,-527,808,103,-25,168,-504,286,20,27,558,-273,-827,870,918,275,-282,-11,-139,-1048,-405,-493,-86,-776,79,-1110,300,-1351,-1111,-765,-667,1269,720,1032,49,-541,-287,326,-766,579,1104,1169,-232,315,-2497,747,-967,-674,580,213,620,362,1001,548,837,290,-411,1517,1798,240,-584,-42,-521,273,1316,682,-251,667,151,-109,452,-769,5,909,-2014,1676,-504,-1482,-303,-1140,369,55,-207,555,1060,-208,1047,73,703,-383,357,-431,429,-385,1338,780,1167,696,1058,256,1313,-623,-723,912,1100,-294,-16,732,-562,71,-11,693,-63,706,510,-752,83,1276,-138,164,-602,1303,-131,-701,-558,-1071,1390,-333,641,3,152,556,-1483,592,1387,514,-198,-463,-1015,1962,-217,-569,476,-405,-141,-216,899,1131,-1821,-932,-108,-84,-870,-162,-630,1167,-41,331,-732,88,456,-1214,704,933,657,-722,569,25,778,774,226,834,56,-156,451,-116,1493,-239,199,-347,1408,1378,-125,139,-281,1452,228,983,219,632,1375,1204,-157,1140,750,752,-682,135,701,-474,533,-303,-356,707,1272,171,109,-814,-562,-299,-821,-490,-793,-525,374,775,598,886,-724,75,-1819,1221,-396,1000,-281,-1211,3,-1939,471,467,-502,-158,108,228,1806,358,-250,1924,-1051,918,677,-88,130,-1205,1116,-131,-50,-251,359,-179,427,15,-95,199,50,1118,867,338,402,-1035,-501,280,134,780,123,-370,9,238,-451,881,-75,492,1263,1411,736,-180,-1354,-603,-87,-1715,-972,-249,297,-469,509,-251,258,-937,-593,-1241,-1266,-65,-1214,-1100,455,-968,745,-927,808,-767,-1933,383,35,-208,282,100,1495,3072,-1492,-827,94,334,1188,-1285,-150,-1579,326,-704,477,-870,-1669,-15,109,181,225,139,549,2337,-386,623,-276,418,448,878,384,-375,1311,-646,-1521,-471,2051,-438,1731,163,-36,70,-1119,-701,101,401,-541,513,-610,828,-372,-1041,-415,-1000,-679,121,-278,-48,604,-925,322,-391,-51,843,-486,-462,-56,-211,47,124,977,-970,750,-510,1152,231,-637,363,-1280,-740,-84,-294,-1086,845,575,-1132,-233,767,117,315,622,-199,8,-11,501,314,-339,-943,-814,-1373,77,1058,-182,-255,1156,-651,1764,-312,-281,-280,-40,-925,-208,-2102,-1462,18,559,437,-329,1008,317,1241,119,907,693,-585,-1150,-584,-485,-1314,-1124,-369,79,1232,-602,26,1560,-890,973,-754,261,-965,119,214,-1208,-133,923,-638,-571,-559,-100,1031,1044,1839,1771,-94,879,1424,725,1095,341,650,-740,153,903,450,-510,-224,-1644,-173,368,-136,-1585,-611,-858,266,-930,106,125,1845,-69,1529,704,265,1440,-560,-547,-395,-388,-210,-798,550,-362,-324,662,1198,-1613,94,486,-862,183,-1112,625,-154,97,1100,-300,-609,399,1634,-1622,-610,-371,423,1252,1377,-311,-420,1000,169,1245,785,936,-362,1148,784,297,-800,362,612,-870,-292,1207,1082,634,1242,-121,661,689,1234,503,-923,-405,116,1089,-829,-230,-435,1334,-329,1577,1075,1429,1083,124,1168,-894,-303,-816,375,-1088,-8,-372,209,374,-1547,601,-1019,593,-124,209,800,-234,2377,-751,1005,-77,-106,-1330,489,399,582,512,237,51,194,199,139,1262,99,364,436,-932,402,959,-243,656,539,-19,-1696,389,-399,-405,-679,-971,-100,-1596,463,-192,290,-1357,238,-1239,-1357,245,-632,-485,816,600,-569,809,-691,-162,-538,-189,-705,-393,935,572,1152,-348,465,234,-630,833,-446,82,-195,1112,-497,181,-840,380,35,-338,-94,-165,684,-280,824,379,-1045,-545,-874,-601,831,682,527,-395,-157,1156,-535,133,-314,-124,87,-542,901,-1345,-799,664,-347,-1285,-498,-1761,1464,-324,939,498,-1121,-773,382,496,-464,-775,-318,390,-949,-1245,-427,681,-536,1368,183,507,-435,-1017,-1090,-968,965,986,-695,382,-103,360,-74,203,-616,932,1010,261,-596,992,-151,721,689,1262,-377,-584,387,994,-471,1112,850,1334,520,-427,1479,-605,1274,876,-284,-775,762,1186,-31,502,-1535,64,1310,-80,-1339,-897,-260,-290,-1430,-980,-256,173,-91,-1194,38,392,-111,249,850,1220,81,-192,161,584,-395,151,659,465,-8,100,637,-247,-851,-379,305,380,1100,-425,893,-61,82,-378,-375,-612,1289,574,1036,-180,-510,-555,850,1176,955,-631,-787,-383,1070,-825,-422,-1311,647,-303,-576,260,51,469,1460,273,161,253,-1237,465,163,-1444,-145,-141,-987,271,-124,-698,-1481,-157,93,-539,-223,809,445,309,-109,-1,1407,484,-516,146,663,850,1513,-1029,1108,484,-110,1283,-1261,1442,277,624,-407,-139,-1014,601,11,378,-969,-103,203,-366,990,-298,-1065,-361,1782,521,841,-1058,136,-294,464,512,301,-814,369,-702,531,734,-660,559,641,219,360,639,562,-1255,-334,-490,-844,825,-773,-294,-247,-336,-97,370,-516,895,263,722,-678,-79,-162,196,-851,178,593,-323,-992,-111,-1211,-1350,-343,-1456,-114,-1897,-42,1,783,-921,574,795,240,-59,659,-729,1033,1747,1065,636,-757,564,-526,482,-1274,964,130,-175,-665,-2217,-803,833,-1525,1447,938,-558,486,2186,-164,994,1282,1574,-201,108,-971,-494,870,951,1344,-716,452,-193,1031,1215,-510,705,1042,116,-1065,472,1184,-1203,-833,-73,-997,817,-1129,626,207,-1039,-603,-188,132,448,64,-545,-487,-606,-1135,-1130,13,889,-42,32,-843,-267,676,1106,51,293,-302,714,-688,367,-732,-1348,-163,-838,-684,716,-1915,-333,-821,79,-874,44,647,-647,1139,-345,613,647,794,139,-702,-835,952,127,-1327,-802,-747,96,-488,492,-457,288,-1033,789,-617,548,1065,62,2288,-396,148,21,1374,-726,-1244,-252,759,2056,1767,-25,-916,-1010,-443,758,1121,444,106,3,815,240,-401,1038,-581,-43,1096,1511,-452,741,-426,754,-126,574,-75,-772,-1291,649,-90,-652,-363,577,856,-224,-426,805,703,9,-780,-2261,-724,-1069,-1178,614,-21,228,-683,-192,416,882,1557,53,967,-497,-217,749,517,560,-488,-224,-400,-85,907,43,402,182,-2645,-748,-402,-85,-112,1106,44,-518,244,725,-267,1289,-565,450,-70,-477,392,-757,1477,-1605,475,315,162,-242,1234,-148,711,245,639,267,-18,1132,822,-999,791,204,-1448,-1141,-758,-1734,-1796,-573,-586,-2416,-2040,-1267,-291,340,-1001,263,610,-1979,-593,1129,-240,-929,332,275,-1203,-1204,777,1,-119,-278,-508,-990,411,629,-1163,-1139,-2347,496,1160,-1381,767,-930,1293,705,-427,1058,-105,469,740,-365,275,-250,-753,1910,258,-1153,-158,535,-250,25,-493,-1339,1556,-37,291,871,544,-640,-512,1857,39,-558,250,-221,-669,811,-940,-1378,-1551,219,398,-290,-566,-623,-1043,-804,-472,-638,-588,-804,94,468,-907,-1007,-1119,-95,350,-128,-1198,326,114,-329,-1081,395,-248,19,-1464,445,609,48,-300,1239,991,351,1035,-1541,581,-598,604,922,-772,452,-1391,855,1593,271,1101,1846,-614,-1018,707,530,1179,-1729,604,-284,953,-966,-348,-391,103,14,-1119,497,-1164,-1561,-1087,-1704,102,337,473,1268,-405,-215,1405,-258,101,210,631,-1319,-627,1421,321,341,182,1561,1363,1371,1282,459,699,-485,41,-209,-120,-875,652,574,899,-524,-351,440,110,685,-646,-74,-502,-478,1072,-325,-622,365,-694,159,350,530,1247,1032,643,-167,993,562,-994,-614,-197,706,475,-1562,-17,-1278,-507,760,-913,-103,375,-1736,-648,-390,-933,631,-89,863,95,1009,1767,462,-258,1362,572,1955,463,297,123,836,1294,239,780,388,-630,31,-1758,174,-911,-852,-913,-190,-364,-230,-1106,-292,-1300,-607,-872,826,948,8,1515,1188,1373,181,-18,-230,1328,1034,-696,-721,1015,-126,-728,132,52,1100,1039,-318,650,978,356,877,1011,-573,-69,404,43,1241,-233,734,117,-13,675,379,717,-512,-1039,273,-825,-1564,40,585,-778,282,809,616,464,-251,-62,-50,206,1047,-751,-259,-1508,1005,-1424,-136,-165,-801,-70,928,-711,-570,-1678,953,-1028,493,-1119,141,-1129,399,131,-394,557,-1880,918,424,-631,947,644,295,588,-180,-110,198,-898,411,1006,-667,-213,-90,-1090,-454,849,818,-763,-674,366,-462,332,1068,-47,-678,-916,-99,-996,-530,917,982,185,-225,-1002,-551,-15,817,255,577,-904,667,257,-56,-410,-354,-1293,-999,-335,766,-102,1308,11,-235,-1260,218,-951,-695,1146,7,1136,1800,-835,-1450,938,-156,-127,-269,-434,-135,2,-1000,913,1073,-555,523,-909,682,-114,496,202,-372,108,-448,4,-934,961,752,-204,-456,74,531,-771,-113,-645,535,802,-265,947,985,1236,517,922,353,188,724,-135,742,748,-464,260,1368,56,1038,-436,557,338,296,-435,878,806,845,107,627,-628,-569,880,804,-22,-189,1037,61,182,-246,2046,-1803,-2276,139,376,-563,93,-578,856,677,-893,1173,-509,198,974,368,-378,8,952,-1213,-381,-991,-455,-264,-1212,919,-17,30,-243,-864,-210,-212,-426,895,-39,-40,298,-127,978,36,240,-641,1206,200,491,-298,784,716,147,1457,-180,161,-557,-740,89,-1029,-1317,-406,-558,555,-832,-1069,90,-41,-249,-987,-480,56,1050,-836,724,318,-400,-967,-216,869,1279,558,989,448,322,-481,360,712,-65,-781,1070,-1418,-474,726,196,1790,410,643,-929,-614,-734,-50,-962,1756,-1508,-1375,-1980,-884,404,-676,1637,-99,311,-277,320,442,-462,-978,2182,804,-524,-2164,-1774,469,2468,753,-1589,753,-1393,-2127,421,600,-353,968,-89,-170,-354,-204,572,-806,300,32,-607,279,319,-161,232,650,-558,1123,504,-210,437,82,1222,-454,-26,978,262,-413,78,1160,901,1077,142,770,1789,1687,1290,1641,-89,1528,130,526,1071,563,997,1299,3,-41,-935,-287,213,195,-841,-126,325,-727,881,-369,-1766,370,870,1129,-15,1145,366,677,546,930,645,-1638,423,461,-633,-1777,-278,-767,-189,-39,-1384,-92,157,-753,-1137,-500,-88,223,73,-615,-392,-1183,95,-327,637,-622,-1096,-647,-1013,-156,-587,528,505,1083,1227,201,-363,397,-413,144,-1175,-747,-1242,-53,-1359,-1080,105,-772,55,242,-711,115,-92,120,-914,38,1263,766,-157,-351,-1501,296,-43,86,-372,572,767,1149,-1548,394,-1690,-1650,-420,-927,-17,-253,-678,-241,-24,-705,-595,715,337,105,-1511,635,-902,1864,188,656,-8,-415,-1396,-2002,-2020,-555,-152,-409,765,-1061,-2017,262,88,364,-1479,-609,-363,1446,626,1774,-933,937,-522,436,258,521,266,344,867,224,1565,-52,-726,1070,303,94,235,-550,-332,-62,-1463,-638,-1022,905,-731,237,-181,771,1090,-1185,627,979,-439,-728,-850,-233,422,324,283,832,242,-729,-131,-241,922,-618,144,-673,93,-1113,520,72,180,-1512,1302,-696,596,-172,1380,245,-528,533,-969,632,-1629,383,-721,744,710,1053,-274,1363,-923,-99,-168,-298,-819,-523,267,-760,-804,-390,-592,1598,-661,-2020,-580,-312,954,566,-358,163,1740,-17,994,511,-270,-246,-314,1195,1516,-459,46,-312,62,989,1512,185,1220,1061,1151,174,1361,797,-34,-416,862,63,1495,1197,1689,371,-70,-339,1115,1348,1204,1145,1381,772,-25,958,697,173,348,402,795,608,735,150,-703,-134,-619,395,-2562,-564,-278,-808,-172,201,631,-822,268,-1132,962,-632,-548,608,-69,-516,-376,-1298,-199,-1053,65,682,-233,1223,502,153,614,-522,56,-400,-997,-708,952,2108,-244,249,385,-1117,-870,-150,1109,-250,528,-212,25,1758,1014,-320,1264,579,1303,1228,63,1424,1603,511,230,-252,1245,1476,-352,-335,-445,93,-540,712,-729,1161,-303,-6,825,-460,63,-694,-594,1139,460,26,-1472,-722,254,-354,592,-50,-1433,-1508,-817,-1024,-1012,676,758,1085,583,-496,263,250,-344,21,-856,-153,-646,-334,-760,340,1732,1818,-1069,-73,-875,-319,566,-498,615,255,763,-342,667,-183,-270,597,-186,-699,-141,-1193,965,-351,215,-1092,517,-1096,-495,406,-588,-470,862,-642,-515,15,-664,833,-778,-476,989,810,-417,83,-737,1098,294,-669,-57,-1326,527,-1127,650,640,-836,-199,338,67,-192,715,429,45,1029,1181,-507,728,-204,-40,541,-715,399,1008,-838,-139,-1271,613,259,459,1085,267,337,-1491,1384,-184,75,-222,813,-21,-760,21,-9,-847,-553,16,405,-1554,636,-264,-1702,663,-259,163,-613,390,712,725,1064,-59,1091,248,470,-379,-504,335,-1268,636,179,-575,1272,-29,74,220,-540,-642,-723,-396,-582,155,-1228,-1493,-801,-1078,-551,362,604,-1218,-1109,-867,-80,-1089,-1085,-265,90,-323,865,79,613,-236,-490,1753,2248,-1000,-399,679,147,1257,-224,-1205,-279,-1989,-309,189,-635,783,-678,-473,-168,-142,-66,-752,306,-953,892,580,-213,-301,902,-113,-1177,1058,-1358,-272,-275,-8,1750,-112,-941,-109,1060,-111,364,-849,-699,571,-408,-207,716,730,422,-447,1143,500,370,-274,541,1139,797,-713,-490,-1209,-1643,-1046,-634,-375,34,-842,-364,-2833,-1882,-692,-1291,-176,221,-1335,-2239,-821,-1663,-1064,157,-1260,-684,425,-946,555,541,473,492,1734,1018,-451,-440,1402,-441,1030,362,-1012,-798,8,523,1857,-1649,904,-1962,-120,607,-287,332,30,366,-135,1332,-890,1841,-994,-1033,-1219,662,488,483,332,-811,252,-517,-1132,188,-1064,-500,266,980,1445,-1569,1046,1211,-2445,-485,1250,272,730,1597,1679,972,1017,-371,438,83,-349,-464,-982,1016,-83,349,886,767,656,684,-4,72,315,1470,1039,-164,1237,1540,-455,448,729,153,68,-446,806,-28,1313,-197,559,1543,406,457,-147,422,-398,-220,-1869,-2213,404,-727,5,-189,668,-480,205,646,14,209,-247,-740,-1275,-685,980,-469,-332,-580,-1041,527,1923,350,-849,-551,384,1802,-187,-615,105,-799,-1738,-302,1293,-1333,-789,743,-248,28,-1630,-235,-1174,-1693,-548,404,-289,-1349,-603,777,-935,-850,-885,-374,-480,729,-540,-862,1128,-1107,35,-955,1462,-407,339,882,1113,300,-513,193,-15,-492,35,801,-441,488,240,818,238,-862,647,-723,198,723,-534,237,320,1068,-997,434,62,122,673,-807,675,-100,966,831,378,-1097,-304,-130,-9,-14,-336,-923,-95,-622,1462,958,-253,-348,523,-492,-337,-887,529,1069,-82,-186,-998,-169,-331,652,105,-699,134,666,-1781,-138,1403,99,-876,-764,-100,12,822,857,868,-606,-194,-1132,519,-1414,-1070,-825,-332,-58,84,-527,-473,415,-1148,-329,-935,-1377,-289,-764,-727,-541,1299,-229,-522,-118,-477,993,-145,346,-366,-1080,336,-454,-803,-1027,142,-84,1524,-491,-203,-665,824,479,-211,205,-422,-92,-501,-94,-2092,-620,49,-211,1851,-2196,1645,1600,-549,119,291,-86,451,619,246,2671,-406,242,1345,402,-249,-3792,1307,-1870,427,-370,456,-249,221,321,1287,398,105,-347,396,-977,-195,547,-175,511,-298,657,-862,1141,842,0,112,16,774,1212,398,-1025,556,-588,91,-305,-115,-815,418,324,429,681,-800,13,1172,748,317,610,-1056,30,1150,362,-315,-1038,657,695,736,739,175,-160,-640,970,820,-1660,-331,340,639,715,-1057,857,63,535,-646,460,1132,-926,-1004,-1583,-789,-702,-1005,-714,275,-758,-2092,-1263,880,-141,99,-1204,904,812,-370,-282,-1046,381,-1436,-78,-201,-980,-315,-1158,-277,475,844,-628,-857,-883,464,-312,-363,770,-650,-527,-705,397,-942,-1023,-918,597,-1090,-78,971,634,-1181,-625,804,1000,1298,8,-47,-791,-106,1074,-1382,531,-1163,-724,-1042,350,1343,365,896,1008,972,285,-990,-481,-66,-579,369,-354,-1196,-122,-1,352,-889,-826,251,559,754,-75,-973,-254,504,892,-1680,878,-506,-1318,-668,870,-250,-437,-807,-208,465,-525,637,325,652,-628,1072,66,1952,1371,-188,30,951,-698,3,-581,-1125,-624,-1083,220,-1262,-1191,-861,610,179,598,109,-853,634,-1074,-929,542,-428,-211,-62,-573,-1475,-752,-183,-29,770,-609,401,-436,440,699,-101,596,874,942,1089,1508,1377,-301,-690,444,-770,-213,-87,1284,787,-436,-817,-1264,-308,-1592,-511,-2238,299,266,243,530,-274,337,1254,-311,-488,268,-2081,-141,2263,141,-523,628,431,394,-616,-1497,143,-2132,-1583,-466,1979,-1160,499,1029,1152,585,427,-1071,-1089,-475,-765,-102,385,1050,-147,-306,-881,-1,1462,392,-667,-377,1533,122,260,-1183,160,-971,-514,509,-698,782,-710,-1152,-1576,128,-289,-416,752,-809,957,-290,-129,-1348,-153,490,227,-1104,537,458,499,-800,1130,457,171,782,1519,1577,-91,-779,-928,166,956,-1349,442,-5,2234,-1212,-810,2084,-58,-1111,-592,294,239,-8,-1417,106,-739,1112,-1017,2316,-133,1212,-1000,-775,-522,-626,978,1660,-1952,1443,544,428,634,510,-316,728,-228,696,305,886,-866,-732,358,-1184,610,-390,-1150,480,-274,-767,-306,-506,590,-912,-49,1153,817,192,271,587,-896,722,792,296,1039,-632,-569,-216,287,1687,1007,1096,-5,-477,1794,-787,1721,-884,-64,-581,327,68,147,-1025,893,-1040,196,1557,-102,-203,-302,-229,-143,188,79,1081,-183,234,601,-786,229,1107,563,-795,-1007,-167,30,-981,-1164,64,168,-473,685,53,-590,-733,-16,179,-335,-9,944,-125,-446,-16,-577,1017,263,1026,-963,-462,328,-207,-704,1027,585,164,-334,-1017,-114,1113,299,864,259,695,-509,610,-510,-277,575,-135,488,-241,-672,-133,-1054,956,896,174,1020,-393,1260,1171,-669,-887,426,-1012,-429,-550,-630,570,-1624,1139,-788,764,-864,-40,482,818,1991,1163,-925,-123,1191,-1082,770,-924,-80,-1722,1833,-582,-811,-274,-1265,-951,-1048,-2854,-661,-228,-511,2332,1061,1642,-1271,487,1259,-51,-262,-72,96,-11,-231,53,273,61,-1,-430,-968,-611,567,-713,-1099,197,528,-219,63,-533,437,301,129,-1042,452,92,295,527,-942,-517,498,1265,1123,-878,-696,477,-462,-1094,864,189,-597,481,-65,1191,729,-998,144,655,11,115,1003,773,-307,-401,1137,-851,958,-423,767,955,-112,-420,-59,915,667,314,384,687,218,1120,-14,167,-30,-2491,-2311,90,-1147,-1281,2596,-622,480,1033,-370,1686,1339,-577,1236,-275,-336,844,-508,-693,-214,-1002,-1063,-897,768,537,571,367,285,-1323,459,-831,740,-932,170,150,-75,-1254,-639,104,-312,856,833,450,1007,92,-1236,-348,-83,399,-228,182,-771,647,539,-1027,154,-292,825,-304,-456,204,-133,-1988,704,924,1362,-831,1,-1816,158,-333,1242,-398,1272,1684,818,1665,-202,209,-100,-216,-1620,-1003,653,123,63,-340,-1796,912,138,-472,-599,289,-737,813,444,226,229,-1572,597,133,33,-151,-515,-1428,954,65,-703,253,-1442,-566,-1397,-265,1107,-221,-967,293,-982,442,213,609,-689,-1575,-269,-523,942,1181,1150,553,970,669,863,725,800,132,46,168,277,-812,820,914,-605,591,1026,372,468,-230,-425,806,257,299,1365,534,-184,7,303,1547,-34,550,1662,3,-291,1596,597,115,579,-458,-260,859,524,850,-263,-29,627,183,-1872,588,-446,1422,820,-2336,191,735,695,-1061,-122,1191,-482,-501,-426,438,-862,-970,-556,453,463,352,-884,517,165,297,1070,51,20,-776,395,94,-722,394,-890,-355,609,228,914,63,-289,12,-49,652,245,-994,-288,-393,601,-1065,-908,863,-989,744,-1088,912,-357,713,311,896,1469,1071,558,392,-638,400,590,-711,-214,329,934,1524,657,165,1995,-231,1380,695,-461,459,1271,-13,-390,-47,883,-1843,1436,71,170,568,306,699,-254,458,-391,-417,684,638,-1271,-360,402,11,-158,-649,-631,-219,-255};
const static uint32_t LSTM_01_weights_input_gate_dims[4] = {1,1,48,88};
const static ConstTensor_t LSTM_01_weights_input_gate = {&LSTM_01_weights_input_gate_x[0],&LSTM_01_weights_input_gate_dims[0],0};

const static Weight_t LSTM_01_biases_input_gate_x[48] = {875,1607,581,402,-522,1130,437,1081,196,275,-2151,-148,-70,-514,-378,1373,-652,-537,-466,606,61,112,818,-74,-394,-798,1049,183,-759,-2209,179,-1283,37,-51,-247,120,-280,132,-261,-2137,695,8,705,267,1205,1868,498,-1235};
const static uint32_t LSTM_01_biases_input_gate_dims[4] = {1,1,1,48};
const static ConstTensor_t LSTM_01_biases_input_gate = {&LSTM_01_biases_input_gate_x[0],&LSTM_01_biases_input_gate_dims[0],0};

const static Weight_t __attribute__((section(".weights"))) LSTM_01_weights_cell_x[4224] = {-477,598,1101,-534,-724,-871,-673,-250,-93,-1100,-101,423,-599,54,-745,-199,-136,144,-449,59,311,-281,-299,-746,-678,-341,-277,-202,-491,-416,-32,373,34,713,-613,-494,461,-16,706,861,-6,558,531,200,-206,756,360,934,738,72,-147,-246,-1249,-636,-379,-7,-185,450,26,-618,752,170,-176,-1031,222,947,-455,-1079,256,607,582,308,420,-140,725,-778,-187,92,-119,-483,-176,1214,-263,-433,123,-307,-64,-67,-1411,1810,448,70,-571,-1300,-771,-402,-604,633,107,1526,235,771,-239,-32,243,-203,559,596,-70,207,113,-218,616,591,160,-418,409,-76,196,276,192,-320,-495,-1236,-872,-1197,-557,-1591,-37,-367,-505,281,752,33,1037,95,-284,-206,-617,-967,-803,522,147,-518,-123,-322,-197,288,-882,-619,-310,-523,775,-321,626,23,261,181,-985,642,-487,-878,-387,-406,326,-50,996,-274,-543,-150,877,-933,476,-503,879,7,-751,-417,699,-361,432,279,-448,187,57,-59,456,217,-195,600,28,514,1033,605,-349,388,-247,511,357,163,379,481,-387,-28,462,-173,-308,-418,-496,-45,-689,-236,29,-442,-169,22,59,53,-143,-693,197,19,289,2,1155,446,977,61,944,-690,450,181,-76,-521,-26,183,312,565,-473,-224,-254,-447,490,295,-178,-439,160,-424,-34,83,-154,-726,986,-207,-137,81,755,18,122,-1380,177,-551,-529,-953,-1204,-242,-281,-1403,-1121,-58,-447,-9,-309,-1054,-1429,-82,-192,7,-101,244,67,-16,-404,-424,-276,559,-103,-431,537,294,497,1015,459,240,-300,366,712,741,662,-232,-376,-222,-387,-1062,-39,598,244,369,-669,-494,859,455,-252,216,-468,79,-222,33,386,861,347,442,156,381,1195,286,274,-730,-551,433,261,170,733,248,675,461,-155,-560,207,-459,358,319,-657,-533,256,-70,672,111,-644,422,-314,430,-209,-94,-161,-800,140,-401,99,338,39,425,194,11,-39,-182,676,75,35,14,-270,446,121,181,122,-183,-582,-112,-452,-593,-28,542,480,-125,-82,305,359,274,-441,160,-57,-75,-636,-642,-61,372,-154,1330,-385,-611,-101,-375,444,69,-693,-265,198,57,17,-558,617,-1270,-309,-923,-219,-178,-616,-195,438,-196,-128,796,-728,222,-142,-665,304,415,-172,373,1524,57,592,-543,-720,264,540,195,1046,-315,1406,346,-540,-822,-245,-1152,-1705,-540,-1046,-702,-522,513,730,295,-532,349,-389,-691,-53,485,663,-428,-148,-725,-968,-676,-871,-974,-1106,85,227,118,97,106,861,1127,1269,899,556,495,44,-1363,-777,-961,-498,-651,-326,-1954,570,147,985,916,987,193,-63,-1120,-298,614,111,-667,879,-916,2010,-91,96,92,233,427,-62,-180,-157,294,299,401,-65,-195,570,-347,-264,-266,-490,-22,-1072,-71,135,-174,-1363,-189,-845,-303,-223,454,335,114,862,356,-210,143,90,-85,154,146,400,254,561,-411,197,-43,-188,-294,-103,24,-327,-474,-493,286,-72,216,584,181,-166,-549,-448,-444,-125,-668,-399,-802,-325,-1470,595,81,-30,-131,-98,367,-153,612,-17,135,-1067,45,1761,-529,1327,-85,141,1105,15,-670,150,-343,130,1134,678,-1041,-205,-1310,-619,22,901,380,9,-365,111,-551,-73,349,1250,332,-753,-777,-2,-683,-617,-258,-1023,-18,-84,-317,-235,87,559,-207,-429,-296,-285,342,-528,401,-27,-588,450,297,493,-540,289,159,264,-242,-655,-788,-358,-364,-624,227,59,-357,98,-549,-368,-414,-299,451,-509,330,-6,-624,205,-214,-373,454,216,112,66,-43,-126,-81,-243,-421,645,-80,-21,407,686,-141,433,33,248,1211,-980,-7,-1006,-304,-197,-803,-258,855,-362,-307,-531,-656,453,-259,-698,-608,258,-334,667,146,-144,-799,-727,232,-538,89,314,-373,284,329,-811,-606,296,614,1560,595,322,273,-41,-128,-498,874,708,803,648,-144,-78,-548,343,-311,-604,406,-396,-505,-660,73,-159,215,362,-31,-229,-681,-408,-147,26,93,-486,412,105,-82,-38,-1027,-546,-477,-86,391,-424,-1397,376,-353,-21,-69,230,-432,-297,1259,-237,-308,-362,261,-32,-352,-743,-173,-343,-1073,435,309,-333,-82,-441,156,10,-36,297,464,292,305,402,900,255,-1134,246,-102,617,553,764,1112,779,445,973,-32,395,334,420,770,944,203,805,694,66,681,133,608,584,101,779,107,667,56,480,-359,-616,-310,-687,287,-379,-220,-301,-355,-90,277,-277,71,-458,-81,141,-1140,278,-326,404,252,-352,744,1059,-156,510,274,-85,474,-975,-436,-303,159,-607,687,-458,217,-390,984,435,-96,102,-413,327,-326,39,-43,-730,-511,-307,-46,-467,-240,-827,-577,-15,382,-547,316,100,-229,-968,-615,-467,498,-312,513,878,-461,-522,-39,-810,177,-275,-759,-168,-505,-206,96,-941,-600,114,-76,-694,-806,161,266,-505,-559,57,657,-60,-480,372,481,-600,246,-56,610,77,1710,767,-222,-1233,-1351,-154,519,440,157,346,-602,823,-1072,-1339,932,-611,474,-552,-1232,-376,-309,-558,959,-87,-78,531,557,114,1343,807,48,439,-318,517,-425,-451,883,-732,28,-365,775,735,-883,206,819,-107,-372,1604,21,-341,720,-217,524,-733,-628,106,562,602,18,593,884,-155,-72,109,718,141,348,685,330,515,-39,724,319,-458,-551,26,295,305,235,143,-559,-753,-90,-737,-578,-183,-66,-269,716,-30,527,285,-251,-646,-731,168,739,245,162,913,-173,236,-217,-127,-207,366,603,166,384,637,-686,-443,340,-498,1406,104,-1091,-90,-954,174,-30,-443,75,-528,629,-207,287,121,119,429,-429,-226,694,-173,-573,-534,174,-831,-300,415,861,44,78,1329,-90,-710,-806,-520,-443,-872,-655,-533,-1455,-712,-436,103,517,957,1059,882,-270,-46,127,681,642,550,122,681,65,-779,-886,-1042,-266,-206,-678,-421,-149,96,432,-506,-1211,710,518,263,531,698,424,410,248,-1037,-45,191,-98,370,857,-1294,-357,-29,642,-1442,-54,-308,1022,25,450,-32,-326,53,350,288,-34,11,806,-67,-402,115,-243,-506,180,-317,589,-584,299,441,-1725,-1577,-1309,-1030,-731,-659,24,-408,-23,-263,-1243,397,-331,-1025,-556,-602,354,-353,-50,-289,-362,-275,454,-352,-8,-296,181,52,465,391,104,245,916,535,1042,1730,614,959,2271,174,-1273,328,-717,-350,312,-88,387,586,294,286,-291,686,105,-904,186,-205,512,193,824,-626,-1041,-421,-225,-771,911,-94,566,-405,30,851,118,-176,1026,954,145,-487,460,-314,-693,-229,293,637,-471,1476,-1377,-84,-673,-1097,-1450,-806,68,-126,353,217,602,-287,-445,-126,-412,442,-224,-232,297,731,-253,-534,-406,517,313,-112,-445,38,-188,464,-334,-155,521,-251,-184,1,850,1053,-213,605,117,650,231,-252,-729,-405,-144,-344,353,254,204,-1334,-261,1206,-847,1133,1184,385,507,92,751,1000,-1003,48,491,-241,192,436,646,54,-306,-148,50,86,-375,-97,125,348,483,171,-1044,1091,407,-463,-598,180,-178,-642,-989,-454,92,-382,-652,-966,-347,-164,-23,620,426,-97,-302,397,-208,312,-345,475,309,88,320,-358,44,-293,141,216,-69,-21,-897,-738,-5,-258,97,148,-669,-787,-696,-767,-774,-54,-169,99,104,-237,-273,673,-477,-192,-1013,584,993,-509,-238,-339,-817,139,-309,184,-20,881,484,244,443,-254,192,-771,-427,-353,-114,156,-250,707,92,-449,-63,256,-575,-1225,403,461,-506,-461,-347,-47,837,680,-189,-572,304,-513,404,-1484,-384,-78,-238,-1239,-729,-773,50,-169,492,-551,669,526,-310,-690,205,236,296,-309,940,564,-88,-937,-916,370,1016,362,-254,135,-356,-148,824,-339,202,234,51,-58,229,-239,608,294,-533,825,-283,-827,-557,-197,1424,-326,-872,540,-446,-214,1986,679,407,-290,-603,200,712,413,55,-1036,-141,235,638,-225,485,411,-650,471,-207,676,302,-1288,1320,-409,88,-62,-15,1048,-492,1369,146,58,919,-92,409,781,1235,1525,486,-838,324,-802,-288,579,496,123,560,365,423,476,410,145,-537,-726,-1036,-428,-246,-355,489,-150,394,-35,-457,-283,775,287,-219,-330,-375,-28,74,469,-46,801,757,223,249,104,24,-807,-1080,244,1312,-920,-195,-682,127,733,109,-275,277,345,-1346,-124,1120,135,154,418,-753,-170,-345,-215,278,-261,805,-59,202,284,-803,24,-88,639,241,829,-348,-239,47,-296,-806,-210,-262,-411,-54,1045,198,451,-18,-240,232,628,541,-22,46,157,-368,-416,-255,353,-387,-305,-559,-38,376,475,-431,-120,-180,-64,419,387,574,-301,402,250,-126,-438,251,-168,410,170,-23,-520,-242,-163,-734,174,-632,-145,368,184,-352,131,967,-42,1123,-556,112,-41,204,298,951,473,285,951,-20,426,313,-235,-529,361,-533,794,-1351,414,366,659,242,141,-46,347,-753,-359,-563,-1168,-175,96,-172,333,-294,-848,-272,1513,759,711,16,-658,-813,-364,-148,-153,650,-199,-801,-32,-959,-1268,-1363,-382,-1030,-507,815,1183,1606,937,1491,1415,910,700,695,-546,193,853,260,-346,96,-211,-770,62,-122,-547,-869,393,223,-167,-501,1529,327,493,71,20,-739,92,-339,-399,-1057,-348,-506,-813,-435,-83,444,-41,180,-1199,-364,1168,-122,-23,449,-271,566,-628,381,609,-700,-654,250,145,714,-389,281,338,-41,121,-236,-508,660,-575,335,43,-199,55,274,-251,-863,461,546,243,-13,-408,37,108,329,562,896,532,-264,-396,425,-34,93,-388,-65,-579,-589,-569,-115,-159,-890,147,-213,-477,147,-657,-57,256,-19,27,455,-177,91,659,-522,0,222,176,-333,-187,1516,-583,575,882,504,-14,12,-187,297,629,-14,-648,-1035,566,-611,-845,-593,603,162,17,-1551,-363,158,35,-630,27,250,960,160,-1178,-580,-744,941,-354,-695,412,4,-1565,110,-1505,-984,-169,-320,240,-277,5,-1131,-789,-165,231,4,40,-646,-831,110,-282,369,-436,-514,62,401,-716,-957,-768,351,-463,85,-473,28,-132,-225,-288,177,-46,-506,-348,433,47,536,245,-584,-785,-437,-399,556,246,-18,78,-32,-975,334,299,1137,414,-425,193,-20,283,-290,-308,-422,274,284,494,109,-469,-306,12,-551,171,307,-556,51,-724,284,85,-261,162,-147,283,-272,-534,619,-547,-467,824,-96,139,87,377,1625,793,753,911,1478,1156,297,474,-807,-129,-569,710,133,243,-321,332,1531,80,838,880,1352,677,1293,326,604,739,676,604,382,156,139,-570,-719,417,43,-554,-48,23,-315,-1117,-155,119,-1694,1096,-966,-1204,-581,-354,-670,94,855,673,-138,-312,-578,370,200,-448,879,258,487,231,-638,-622,1032,121,-181,725,-980,-101,937,218,-797,-159,-746,-1124,-885,-390,-491,-275,228,-387,-1422,198,364,281,-1163,-514,1122,1763,1799,555,77,66,820,-147,476,195,-1003,123,-71,-695,-240,-152,-862,-451,-373,57,62,9,4,309,793,116,-153,655,88,302,71,2,570,-154,669,-16,-388,511,655,-151,-275,-66,154,-926,-412,463,-515,136,-773,-564,692,-808,26,232,131,12,726,-70,497,-1170,-236,551,376,-614,111,514,13,198,808,-23,-176,547,-42,-180,-468,-472,-503,-818,1646,-1344,40,-1135,111,77,637,432,-48,-211,512,-263,-279,518,244,312,119,440,-149,-532,-629,-242,-307,223,-420,42,364,466,-312,-82,-216,-284,393,142,-100,-828,-652,-124,-48,867,560,51,-207,-26,496,583,-66,-211,-510,-198,-743,343,768,-567,30,566,-1178,408,-336,-320,403,59,-348,251,183,-167,-640,-235,-505,293,-9,-105,-539,-277,-521,-615,631,-632,129,-945,-1054,-405,606,178,76,914,830,217,-177,199,502,-32,-477,449,8,263,214,582,55,-50,-506,-566,-78,76,-593,-189,-126,-541,-545,-1441,-990,-371,-735,-989,-131,-26,264,-389,-83,-389,-326,104,646,198,472,-35,139,312,-34,-88,-120,12,970,509,233,3,441,636,-465,-507,-377,880,23,229,-278,445,-1030,240,-271,578,47,-613,678,505,1737,947,-856,-61,-95,308,100,-587,13,-213,-411,111,-5,707,104,307,-1689,287,-994,-357,-837,465,-1207,-151,123,357,-85,73,-124,-1092,-271,-1198,-1565,-473,-190,184,302,285,-294,428,-43,411,759,646,840,433,121,-274,149,-825,-1074,230,-147,-359,567,-356,5,545,799,1151,749,414,311,426,283,-43,-650,-836,-1269,444,15,-207,904,602,-482,-193,-1093,-380,961,-926,189,557,-381,-316,-800,31,-20,-13,-555,-643,-443,-40,22,-318,1185,-374,365,160,-40,699,448,576,-523,-12,-444,61,-334,-61,-76,191,-1172,2,471,382,1172,-958,275,-559,-284,-282,128,-225,291,788,176,442,-68,-785,-140,-11,-139,-96,-1143,-495,-907,144,514,-96,-98,372,537,701,1219,887,776,502,581,902,162,-44,-546,-794,-974,-900,-103,58,-522,186,63,1,-81,-6,-1803,-612,278,227,203,1070,-718,1018,-647,-439,527,-1094,-370,-103,-702,-658,540,-1421,54,485,474,-187,-397,-1691,354,13,455,-641,694,-140,-798,186,306,175,460,429,210,542,-11,114,-191,1356,-288,-1037,401,-203,-333,236,-123,830,-217,-920,-871,-79,469,-748,-377,-1146,-368,-805,-685,238,739,760,1330,622,-400,99,111,-27,-69,-654,347,-60,-29,88,-423,-311,-115,481,46,-161,-489,-428,234,-18,266,649,18,301,-474,124,-432,-624,16,489,462,7,1005,644,-319,-212,1551,-322,-211,159,-338,36,431,57,437,-696,-54,312,-819,4,-150,-287,-122,817,225,-384,-125,-345,-349,916,-662,1028,418,-205,-175,1758,1214,68,-488,650,-225,-457,476,304,113,-35,-40,547,86,322,260,621,787,-54,559,-34,-34,-78,436,-28,-230,114,-126,81,474,-144,-328,122,-254,-167,15,264,335,-674,-594,1015,771,31,480,525,83,75,-609,248,-33,-1280,-483,-1590,291,447,-605,235,-663,629,-371,827,-851,85,-85,-34,101,492,-1748,218,412,-637,714,185,-460,-836,512,242,70,265,-523,-16,-168,-405,632,461,-262,978,-193,-90,-202,-1716,-795,506,363,404,780,470,599,76,-462,54,-1442,-987,-240,-803,-819,-655,-812,232,66,914,999,384,555,386,208,-354,-104,129,63,441,785,277,677,43,735,-13,767,-671,797,77,360,833,-614,-157,287,-156,-415,-93,325,708,-670,-496,-238,-415,47,92,1194,770,71,128,644,-312,199,-336,-804,811,627,-849,-143,-527,-185,179,-961,190,833,-376,642,674,-291,-192,-929,124,407,-165,83,377,-836,-628,375,-140,8,-191,16,288,-1113,-817,-470,-1307,-506,201,323,-225,-240,-590,547,41,-168,-45,287,-231,-272,-95,-137,-216,-670,3,347,386,208,-126,299,881,899,-192,-766,-347,-1301,-516,-169,-286,-321,-714,-267,-341,962,549,456,239,-342,640,-377,-626,-319,-521,-385,-379,-1505,581,-484,810,-82,-252,144,374,207,-240,-207,-1055,234,-173,-622,-47,65,-193,959,86,1086,-50,-417,230,-336,-594,645,488,768,-239,-924,-1304,-572,-1358,-920,-109,851,926,1560,995,340,-585,-522,697,241,-270,652,617,-478,-324,-250,-452,259,0,556,334,152,181,536,192,-93,-642,116,-109,-48,-494,-951,-54,991,245,109,957,286,-1499,359,-58,-559,-44,501,140,-656,-123,-504,-430,97,-209,-174,-268,-88,-913,2,443,-198,401,372,-340,793,757,288,-767,-526,-678,-99,-215,-270,-312,-673,-248,-1377,338,111,-372,-261,562,352,-503,-308,-34,371,-146,328,-120,-540,-265,52,-262,121,-617,339,636,-271,429,507,578,430,418,-363,-458,411,366,914,567,462,-273,372,7,143,642,-533,-96,6,-454,339,-483,-203,-535,-113,-208,184,568,-1186,-106,-652,397,421,733,-524,-267,-1477,-124,-610,-242,-972,-403,257,67,-30,-782,571,-62,-699,130,-127,-1194,829,351,-860,356,259,874,167,-865,600,-116,-192,-105,257,-229,-290,-657,437,224,327,93,8,-144,-668,-168,965,952,593,-2,693,471,591,354,164,132,389,1133,1207,726,555,-98,242,673,764,921,-28,-105,-302,-236,103,462,-297,-526,184,445,-257,-126,-757,-884,-1345,-687,-106,-679,567,377,-792,-457,260,278,48,-254,-572,-49,-1136,75,-323,527,312,468,1415,-128,520,-255,-8,232,-448,302,1094,362,-97,415,494,846,-48,-1007,-1370,404,-281,-682,1113,93,-389,-398,-962,187,1510,-127,-11,701,-663,-463,-1109,-1640,-655,-1264,-609,-14,-78,404,607,292,461,816,842,371,275,645,1055,472,-15,-557,-187,-607,-439,-131,-265,-42,-211,276,-349,530,816,669,1121,728,191,-153,800,542,125,350,-464,-470,659,114,101,246,360,-79,860,267,1261,-844,-513,-513,-165,-358,-720,389,1346,0,237,-565,-220,-383,303,-533,-83,703,-92,969,145,-188,-1232,155,-527,-91,145,-706,-3,579,419,-343,-734,-65,543,-1068,-66,13,-510,44,-43,1082,-231,534,88,-123,-1525,-786,28,-261,-601,-209,-1061,-825,-16,138,733,2,830,586,529,-174,-685,-480,-51,217,-457,243,-321,168,-528,-471,115,503,145,-146,90,360,101,7,-112,-618,-206,493,811,47,636,717,-41,-1238,-249,347,-405,-413,-1448,-93,-335,-532,311,-204,107,222,-36,-208,-484,-222,517,-150,-378,-569,-116,-790,297,-576,1418,344,213,726,289,511,-236,-893,-235,893,-1108,-105,-1421,-833,-913,151,-245,-111,387,145,-424,-80,159,997,14,-371,402,-110,24,-388,-130,296,1007,337,-151,-160,386,406,693,626,273,261,459,320,554,-330,-620,53,252,-388,-602,-322,302,830,357,370,-390,-156,231,885,-488,-582,224,-511,-505,-536,-390,-523,-267,102,-436,-264,17,-402,324,977,-803,-1304,286,-698,36,30,63,-389,1304,209,-194,-276,298,-830,1655,-351,160,952,148,8,-297,628,694,-276,-536,559,893,-143,-314,615,594,-283,936,542,538,1285,1001,1001,868,458,66,28,-281,-343,-76,-426,-291,-795,113,-116,-197,-1018,-81,-1095,-204,281,530,-656,-909,679,323,89,-312,-451,670,-483,347,923,1078,111,-750,606,125,-419,1296,727,146,1221,-539,-288,264,348,-647,669,-263,253,-56,-413,-550,-425,947,817,26,-240,-1072,94,-146,-372,355,-65,-539,326,196,-498,200,-45,-128,1265,505,610,-744,-1407,-447,30,858,1048,354,410,476,-941,-278,-409,-118,413,180,-155,-332,33,-556,-305,630,-532,588,449,243,590,-426,-945,-217,-248,-142,175,-826,-4,-569,-169,129,-843,-1361,-10,752,-811,-277,1173,231,-308,1169,-152,-310,641,-185,373,-370,848,269,491,-236,49,-157,904,-135,-1018,696,214,186,346,-77,-279,-444,-149,571,230,-123,-645,127,-336,393,1114,182,790,1649,307,134,-47,1480,355,537,-486,-596,58,-45,939,1064,806,915,-358,-435,539,11,710,426,-119,-97,824,-331,-195,552,-7,598,51,82,-34,-117,-275,-320,-874,-710,-823,-635,-109,-452,-433,-30,-614,-290,-206,668,1432,-558,692,147,-172,1008,146,370,-3,-175,-171,505,-269,-66,1478,-179,210,-930,1076,-1401,110,598,99,55,156,-482,-21,-1693,47,716,-310,-333,53,-582,-376,1178,156,-693,-27,-672,-272,-184,-395,425,309,-146,1054,-6,266,-1399,-1146,-328,-454,214,127,45,-793,-148,611,-481,711,11,1161,1294,-346,811,938,-26,-595,-1012,-265,106,102,-874,-992,64,1126,157,-5,-304,-630,405,27,390,263,-530,259,964,-288,-71,-555,745,-801,-721,446,1000,327,295,-492,-86,-254,-1272,-563,-199,-298,208,729,-20,-163,-765,1506,-529,-1020,-515,1023,-204,-420,229,-173,-1121,1200,309,-8,-204,-740,562,758,-832,252,-284,-1392,-617,1135,1558,-506,1123,445,-250,-659,-629,-772,-607,-212,213,-128,-582,-212,-3,-484,271,-408,-187,376,-399,-455,-357,-430,417,-526,-388,-753,-356,-196,-332,-658,-117,-635,146,-552,-365,68,-460,-92,56,-319,-118,509,-67,-234,-394,-421,661,164,-328,-150,-525,59,384,157,104,-406,-255,257,-26,-4,-471,4,450,-680,-2,-306,-181,-191,-141,-449,-88,10,962,-181,-1,30,609,-154,-607,442,98,713,-494,275,-268,-314,-37,77,-268,441,309,166,-200,-257,164,40,-528,-725,-88,-1036,-29,-194,-539,-209,-26,-1225,-242,-180,-77,-572,-566,-943,-1007,-731,-372,-398,325,239,-394,353,192,767,263,612,799,963,460,266,-88,24,509,14,725,161,824,-640,39,-13,-516,-226,-735,-310,228,-465,518,-870,-327,309,-178,53,-922,125,-91,-112,-753,-678,256,-47,478,-40,-123,-415,109,2,619,-541,-543,-60,4,0,-237,135,638,-816,-807,-794,-468,453,547,1187,521,-407,-334,406,484,819,642,239,-285,-260,715,-415,-69,-188,693,684,802,727,-683,-274,56,1008,142,236,190,-466,-82,1,-388,-946,80,-300,46,-184,43,153,902,146,-49,318,-4,95,332,288,-219,139,1120,-185,1152,200,-277,-607,242,-484,583,624,-133,887,546,32,-168,-489,-87,-485,486,314,-623,60,-919,-77,-77,358,1092,42,-603,-890,545,-77,55,-792,-505,-164,-268,-214,-623,190,-80,-69,-68,-454,-213,-436,-445,288,692,855,1941,815,33,-154,748,803,942,1010,687,-335,-300,255,73,-581,-100,49,937,-7,-313,649,327,-234,-156,-1167,-752,-52,-232,-1587,-3191,222,748,-1281,-432,76,-49,-231,226,-417,-524,-715,-193,-298,413,549,-745,671,-320,526,70,-96,10,754,19,547,791,367,317,-104,788,-423,249,470,-1036,-858,691,-714,-364,360,-254,-228,-158,-48,400,579,390,121,710,-247,-197,64,-815,407,-402,-773,-385,-334,-32,75,-257,-439,-287,-364,-947,268,-305,-138,115,300,406,239,256,35,-194,-94,-227,-210,221,-53,187,686,249,122,573,-104,508,-99,-441,568,-30,-390,346,57,1985,-15,-49,-397,-413,-8,-220,-905,572,-344,147,225,-1379,-649,859,466,86,-431,-176,-148,539,33,-1916,323,139,805,644,-528,207,745,-584,493,445,436,20,87,993,247,753,-1045,-341,28,227,108,-242,-1183,-1144,-267,-1136,-799,-801,-1030,-647,115,-533,-597,323,-913,-350,259,-82,-422,606,1034,1140,145,320,124,915,430,73,81,1056,936,161,537,-14,458,466,675,-228,52,-1156,254,-458,-176,-38,21,-65,401,1127,209,-200,204,293,354,-97,-301,252,-221,-220,-660,364,-965,301,-432,-165,-318,-193,-481,-638,173,-571,-220,132,-67,-432,171,1175,145,-636,-521,84,753,-291,581,574,-494,-318,442,-260};
const static uint32_t LSTM_01_weights_cell_dims[4] = {1,1,48,88};
const static ConstTensor_t LSTM_01_weights_cell = {&LSTM_01_weights_cell_x[0],&LSTM_01_weights_cell_dims[0],-1};

const static Weight_t LSTM_01_biases_cell_x[48] = {1339,1589,379,2160,864,926,-535,-642,-477,-1864,825,-1011,-9,-1716,88,300,979,-695,-349,-1101,622,-751,-2480,-1602,751,1351,309,941,1541,-1335,-1625,834,495,184,-686,-492,1275,-1738,-778,1865,-847,-1634,201,1043,911,624,6,728};
const static uint32_t LSTM_01_biases_cell_dims[4] = {1,1,1,48};
const static ConstTensor_t LSTM_01_biases_cell = {&LSTM_01_biases_cell_x[0],&LSTM_01_biases_cell_dims[0],-1};

const static Weight_t __attribute__((section(".weights"))) LSTM_01_weights_forget_gate_x[4224] = {-185,37,619,-230,-25,-337,211,-517,109,-108,203,-344,-381,-161,-118,-277,-275,142,-31,422,-87,383,566,262,-318,256,148,399,-125,-243,641,-109,-375,-573,-378,-85,-270,350,-220,-284,-420,-115,-394,162,260,312,67,392,-248,-279,144,-221,44,301,-487,-8,-364,206,317,530,-175,88,-129,-735,108,506,234,-557,14,986,-351,-42,-183,371,-147,-467,-562,218,536,54,-185,635,319,247,112,-62,167,205,-301,180,-67,-407,-1188,-252,-497,513,316,236,-168,-246,34,521,246,-428,-99,246,-287,471,36,478,-410,359,125,-860,-423,435,284,290,334,632,517,327,538,204,-183,317,-594,-604,-97,-935,512,-212,-282,-596,164,18,159,483,67,-338,265,-532,524,-719,510,3,-343,1527,151,103,-599,-265,69,-385,415,787,21,-449,-176,-144,505,589,-117,-560,81,-506,-461,-198,-887,-201,-198,-688,83,353,-1770,-435,-131,742,126,-354,-23,-370,-283,446,-151,-282,-368,-264,-119,-333,74,-20,580,155,-6,633,-33,188,246,-253,-485,238,47,201,-284,232,400,66,170,151,-539,-21,108,-165,-156,-115,-298,328,246,258,-67,-64,209,-80,-423,23,336,-100,-307,-133,-18,390,671,369,-213,-373,198,303,-61,539,-250,-368,73,-524,-186,194,281,-244,-152,155,575,-471,-489,-257,537,435,2,-164,400,324,530,-121,8,105,843,257,211,-380,123,-374,-242,359,176,141,629,-298,-280,345,-154,387,370,-358,34,81,278,26,384,489,68,386,437,45,92,-86,-444,191,574,-398,130,7,-67,396,107,-161,-54,-160,420,28,904,-141,-393,32,93,-88,-686,631,174,-356,207,-155,-171,-8,119,170,-467,342,-213,-489,-107,44,-841,108,299,-145,406,21,-295,58,-396,-452,148,193,-944,-341,-75,-574,425,-448,-264,327,47,384,110,244,-435,76,-77,-872,-143,-690,254,-242,674,263,323,601,411,329,-317,-455,-100,253,-57,196,482,-17,303,517,136,-191,220,350,-206,-396,443,515,456,-247,319,175,361,-623,-136,-673,281,138,381,344,366,-542,94,-591,-142,-164,-320,209,321,363,1096,264,278,-370,-341,-506,-246,403,240,-550,712,-454,-399,20,-1058,-669,-372,171,240,610,666,213,-168,-510,-522,382,871,-59,-497,1029,-469,25,437,-133,-4,-333,-283,-62,572,99,-428,586,-499,-307,318,933,506,508,266,372,325,-913,145,258,-655,758,70,48,-106,-214,-616,-330,-542,-350,311,-363,17,-257,-195,278,-176,-219,-877,409,-174,-5,454,-618,751,-117,539,579,-680,23,261,519,-920,-87,-9,877,78,-414,-152,-395,-35,-94,85,-331,-285,-113,-836,400,69,236,-341,427,-164,590,352,-227,301,889,-271,-626,666,-24,-401,497,-431,184,-793,-169,-508,-674,-217,467,-248,-420,154,375,676,-383,-681,194,66,138,-678,-693,117,142,17,-145,103,39,-280,-404,272,426,-210,189,318,287,187,402,518,19,657,649,405,245,896,87,672,300,364,-396,-131,435,747,211,-351,116,-197,-635,81,178,-476,-130,-165,217,176,-510,-25,-140,-729,-103,378,-479,-358,911,364,-20,-24,222,701,-57,148,-236,245,-375,-715,643,-443,279,115,-720,-177,412,-309,378,285,-345,-370,92,-360,399,-173,146,-278,224,428,30,213,386,30,8,229,143,-176,364,443,189,189,-278,-341,258,126,-453,201,199,-184,274,-477,356,129,343,17,-17,-671,60,584,431,-161,66,-28,-186,184,353,483,251,234,58,572,-477,194,517,80,-421,-279,-124,458,-211,176,524,273,732,-184,-663,-260,-524,225,785,959,29,-676,251,140,-117,-119,79,113,-186,141,549,179,-654,-258,456,-471,-422,308,-261,-417,-249,-76,177,-271,-186,45,140,-293,242,-24,291,194,-388,192,29,-414,-659,-101,481,244,407,320,-97,59,-98,497,200,-227,-532,-163,24,-314,-439,206,102,142,547,-448,-312,229,-287,551,110,-520,502,-535,54,-136,497,-67,-266,361,-199,473,-77,22,316,837,367,-45,-155,303,-469,-393,-814,546,-51,503,-1154,48,-665,-530,-378,-48,557,311,-287,258,-325,-372,67,-220,199,226,-24,-71,655,65,440,-155,-24,-110,-330,195,-288,-41,583,331,-329,-444,-37,117,649,152,-191,722,-123,-438,-366,-136,326,149,-180,-315,329,-145,444,236,313,-53,333,-222,218,511,-155,-350,-422,-112,-350,-58,511,-315,319,252,196,223,139,-139,423,-23,-570,36,423,327,24,65,-534,597,997,56,394,122,-847,-291,-133,39,53,211,336,519,401,538,0,-138,-1209,316,285,-719,-259,-454,21,252,-641,-774,201,389,-326,-275,-654,346,-608,407,402,669,143,-280,172,-201,233,-758,-173,5,-126,-833,-581,-374,325,-314,365,-178,114,239,443,-286,125,93,-256,-268,-348,227,-584,172,-296,-200,747,-123,138,34,524,701,526,535,-591,-963,-115,208,148,-21,-1115,-101,-260,-608,-380,226,-442,-279,364,-333,-1067,-22,-106,-175,983,106,557,513,-786,-871,-229,-794,400,-267,-330,957,63,-13,-702,837,492,-239,581,84,190,-824,-374,176,-523,586,599,196,47,-489,-47,119,-3,295,337,-149,1,465,-192,-432,190,677,211,449,-315,-478,129,60,80,-221,-280,399,638,547,429,-119,-159,530,227,29,-46,-316,226,84,377,117,-54,794,-423,308,-184,-331,163,-207,216,-633,-474,227,-274,60,-576,217,-315,305,5,523,-239,743,-811,486,-1037,5,132,-954,238,26,72,-456,38,842,652,-103,-447,-272,148,-618,214,25,-226,431,260,-31,-351,57,-657,-810,-899,-295,-717,-621,-582,182,-27,613,-98,447,-27,259,40,-239,130,927,727,5,-481,-380,-512,-585,-571,-252,1,-564,-503,-39,248,184,104,-57,363,657,-159,184,69,-389,-288,752,604,-661,686,-411,477,-66,406,241,363,271,-821,-384,1102,666,-70,794,-289,98,201,5,-966,558,-609,348,-267,-123,-49,-338,107,108,-501,138,-37,-206,-43,-620,-405,-546,-64,-536,177,78,-640,179,-45,-304,358,-516,151,-151,-290,-362,-180,391,386,-42,-419,-205,361,-695,-507,-211,195,-347,204,-435,-118,-308,-111,530,743,183,-333,-200,307,151,294,-246,-23,-457,-90,377,845,594,-993,757,-560,-749,-61,1270,633,-541,277,-720,622,-1117,-519,-180,-612,12,-583,-303,481,-591,609,126,139,319,-1058,330,-351,-2,401,1307,644,128,23,-41,110,-954,-283,-129,-179,-710,-511,47,-484,398,301,299,-405,-288,274,656,215,59,328,469,-457,97,-453,-434,309,-195,321,-174,176,-234,-339,517,-212,-3,-355,259,595,487,-364,200,410,-251,869,-208,88,130,-655,208,154,478,-223,-203,-777,-336,-295,-1078,-359,-29,-56,264,-235,359,826,934,-586,324,-402,68,-61,257,285,688,-484,168,-1103,292,-526,480,-783,32,-279,-75,-470,-28,131,33,-609,25,-322,-242,-527,-230,-432,-277,451,138,4,-238,-384,-120,-78,18,-427,332,-381,-285,223,-222,605,384,234,-365,-26,-3,171,-383,339,-289,-99,509,122,-35,170,490,696,621,591,-198,-188,576,-399,-355,-426,-141,632,-156,-381,439,-470,-97,-172,-412,394,154,559,-425,131,-498,-257,34,-89,-360,216,-2,-547,408,-458,291,-267,706,-24,-466,162,-97,-120,222,269,733,-255,-181,-477,165,-89,130,-548,-773,127,-516,-440,184,-170,446,315,164,-186,880,31,505,319,375,-43,252,616,827,152,37,-190,-118,594,234,-235,29,267,345,129,-218,42,311,720,-211,148,-385,-146,189,592,413,502,-123,252,-351,-609,143,204,-24,-179,-41,-772,356,108,587,48,-241,-276,-584,-334,218,-35,273,232,-92,-443,-338,-676,330,-56,-449,-175,-157,-1060,705,-105,277,-239,-515,1075,34,-238,-534,234,664,674,-149,-150,12,-418,844,731,-303,-99,731,293,-24,270,-111,264,-235,-148,616,380,45,309,-100,-232,-172,443,-494,-317,196,-74,-87,158,230,493,398,554,587,259,-471,-2,95,-679,-291,384,394,268,-140,67,65,-40,-443,-46,268,-668,-155,605,-480,-344,212,129,359,447,340,471,99,558,125,763,16,-288,-328,-845,9,-27,-749,-94,-480,160,125,-273,-366,-473,-159,-930,-464,-688,-123,-292,17,83,-254,-640,581,-195,179,266,-860,-652,221,-436,141,342,-109,-110,-317,-502,-190,-789,-79,-296,392,-317,444,-500,507,-510,61,-401,-203,591,-257,147,-268,608,-304,-401,62,385,-401,-62,212,52,-121,126,-28,-107,-606,-243,352,18,-104,-117,-38,0,58,-433,-719,300,225,60,-365,129,-282,297,-267,506,315,142,589,80,-140,-669,-327,0,244,-662,666,-145,-712,-274,615,-992,-323,-465,-233,-304,-1003,-571,-246,-592,-874,172,-208,383,149,-200,307,123,501,96,-279,318,-82,-288,589,347,-401,-401,298,-356,-798,-127,62,-1029,-360,97,293,188,12,133,-173,-325,181,-773,137,170,373,29,-870,-451,-391,-331,234,355,311,310,-125,408,268,-331,-54,1895,772,650,-466,-335,209,333,-419,729,261,875,981,411,200,643,231,-356,-610,239,120,237,-591,-1441,5,76,230,359,577,-564,-319,1047,659,323,879,161,695,-805,-229,-157,-391,-969,555,379,-107,-406,-326,231,-453,376,-218,-503,276,-41,236,279,496,751,690,756,257,465,468,795,-413,-179,-45,219,-276,315,-262,625,540,-171,578,440,-137,312,-450,676,-440,479,388,-469,110,84,-639,-581,-187,-86,220,401,-325,-95,-706,-33,-221,-764,-889,-125,-398,766,-250,-1211,-170,185,443,-272,-295,-473,-185,460,179,47,-801,828,-300,78,-541,490,-266,216,437,-311,229,35,-25,597,-322,17,305,344,-653,-182,193,-241,-172,553,470,35,102,-106,-21,-268,78,531,409,-292,168,-465,-525,-305,-227,241,368,383,-80,-432,368,504,365,663,374,-335,184,286,196,311,415,352,-806,-130,-86,-901,-519,7,-184,-702,109,-247,-100,308,-504,-353,-914,-383,555,-109,538,-474,288,-316,-41,905,-14,-400,-391,-401,-28,689,-373,245,-78,-276,-101,-201,444,55,-546,-509,64,-138,1303,-766,249,682,-250,162,904,67,70,135,1214,340,536,726,492,828,336,568,487,232,860,600,551,517,393,418,-84,321,35,-393,860,608,664,406,303,213,432,-227,164,255,-56,22,-566,-357,194,302,175,-393,509,712,577,221,50,-612,471,-284,218,568,-75,468,875,-222,661,236,-631,-281,-494,-207,-509,597,-43,-377,767,289,675,807,810,-11,-116,-406,251,-179,64,-528,386,-24,19,-47,-58,-447,-5,27,24,-421,-284,-331,-268,-904,-361,-13,-112,-212,592,-626,-121,812,-212,413,-127,139,177,-271,80,-539,-358,407,-71,92,401,-251,-271,-713,-274,688,19,-182,414,403,773,-391,-303,0,554,831,-495,-179,-18,64,-274,-213,-506,139,-250,629,-79,-80,-962,-163,693,438,51,-97,-244,170,-170,83,-765,-18,-820,250,53,-586,318,-494,-214,8,484,643,412,522,793,-112,-328,-60,-571,-5,51,-296,100,96,-954,-110,33,-116,-504,520,433,280,223,-428,-90,-148,-116,655,627,541,-235,-388,406,527,-9,411,257,181,678,449,-260,345,571,-5,560,242,-409,-67,-9,400,-129,487,545,203,-109,381,311,279,268,87,135,-139,-224,-175,1073,-90,-9,-814,-872,126,-68,-1024,-46,157,-240,169,-34,-74,-274,-469,179,280,-278,-24,-367,-227,-199,-581,-397,175,-297,-513,-496,-499,-130,48,-14,278,292,502,-177,-412,135,-167,630,28,-187,-269,496,390,-498,36,-518,-328,-413,-490,-934,76,-381,-253,-513,167,617,-250,-347,144,-168,56,-63,-209,229,492,444,759,-92,199,421,688,737,589,-388,518,305,-110,203,372,-151,347,102,139,-324,95,-431,97,-195,-523,-90,-654,671,-244,-330,-369,133,-349,-47,465,-124,-90,314,-136,-159,-107,272,-357,600,31,316,-257,365,-71,625,-11,-835,-79,408,-352,272,29,-309,677,-1202,664,783,604,-328,-230,-23,138,150,-578,748,131,-141,-356,-281,308,-95,-683,305,-415,206,385,339,233,372,-29,346,804,391,-86,-594,-158,274,614,363,80,-100,-349,418,40,391,-416,-290,-18,510,-472,-494,-706,956,-71,193,-678,-14,-319,193,-402,910,-168,-18,-379,-695,919,235,132,91,749,428,442,101,14,-774,359,255,-18,370,557,90,346,252,-745,-275,-515,-40,445,174,-760,-1105,952,-313,427,336,-123,-171,-627,90,-322,292,-470,-415,-169,-656,-318,32,-143,601,-106,-44,-251,300,-84,-464,-386,-552,99,-39,-482,69,-955,79,16,-404,-300,113,216,475,391,39,-173,299,391,682,675,-307,-813,-307,-471,-548,-895,573,352,117,-183,444,209,625,-86,-200,452,-601,176,-367,-237,-1075,-563,-163,777,-622,-528,-282,380,-401,28,-647,-179,399,212,109,663,-805,740,26,352,381,802,1,341,-165,-3,-642,197,43,-224,152,326,151,-242,-61,-149,221,-53,685,508,855,517,420,-410,-199,120,-474,-763,-452,-655,-555,-422,424,-163,597,-472,682,-128,174,1019,633,688,114,-59,63,-269,438,625,-258,-240,-423,-548,175,293,-876,-274,383,139,142,-61,121,-314,205,-517,-261,-88,-68,-111,123,25,32,-177,305,-400,382,-450,-335,-905,385,34,496,249,-874,30,217,-377,-1159,-300,270,-879,640,-153,619,-78,-542,-314,-163,-259,338,-524,134,281,492,310,283,135,554,-356,-56,-314,117,-156,-109,40,-18,569,311,297,544,252,-389,198,-214,-46,202,418,-752,-705,412,-317,389,-109,303,242,-223,468,-116,-745,-295,-322,910,751,-576,30,165,561,-629,367,944,668,330,-326,263,-647,165,136,766,743,767,-746,114,-308,-150,38,319,-744,-225,-671,-1181,997,-358,-48,83,-166,-184,596,130,41,-616,-5,421,-380,-669,-980,-194,-296,-19,-269,115,-133,203,64,111,508,-34,-239,689,621,334,-81,490,578,-462,-495,-433,-135,-37,233,91,-452,-344,-273,298,609,-281,-196,236,-344,-301,222,-278,-331,196,-109,-62,-377,-530,687,-175,-420,-80,22,-411,-26,-335,593,-414,-704,-813,341,-91,-59,132,-552,486,-331,-90,-188,281,-124,294,-4,97,-195,-184,-52,-495,-2,-81,191,826,261,757,-791,-12,516,-4,1194,415,631,-294,64,-44,0,250,-272,-806,-54,-330,-622,310,390,726,154,-135,577,-271,742,710,537,-530,-606,-434,-234,-199,290,-235,65,-26,750,-11,434,107,-337,-169,480,45,-244,-350,-167,-568,609,-392,-251,531,-183,-286,-935,454,507,74,462,-81,-217,-162,19,-949,238,221,529,-901,-170,-326,-361,276,12,-378,-390,589,89,-478,-706,-527,-446,309,1338,-377,73,-191,-429,-181,328,-495,-160,297,183,-442,341,-56,205,14,1056,-5,334,-21,-199,2,209,441,-173,-219,-590,-392,245,268,257,-118,368,67,278,-242,-104,-462,-468,582,227,124,115,598,644,-124,2,-179,283,249,387,-51,-185,202,-107,-69,355,-168,-82,521,-342,262,327,426,-273,355,-674,223,-657,416,-469,-180,296,265,97,-539,484,-316,-257,129,238,-91,266,-788,-115,-181,-225,175,-675,-150,-264,-430,38,-449,145,740,147,-212,98,-263,-444,-703,-456,-156,-226,-224,300,-16,-359,-847,-278,384,440,323,297,5,426,-388,198,-417,564,-36,638,174,286,429,-143,-210,-67,680,-319,-67,-26,633,139,461,-324,739,418,400,27,-130,-277,183,33,-92,-418,453,814,-554,-644,683,638,455,-12,-689,-89,-8,-34,-23,402,75,655,1167,245,323,414,119,58,376,-693,549,-1173,-99,-801,128,-308,370,-1,243,50,-288,-215,242,257,210,-336,534,375,114,-129,684,433,558,508,315,1309,1110,276,873,50,342,297,427,-260,658,138,-317,-682,-426,-591,-32,-49,370,76,795,173,167,444,191,776,1008,743,132,383,62,650,339,926,-177,14,-415,305,-1221,-718,334,-908,-298,-222,-58,-45,-1367,166,-509,-863,472,-13,13,-17,-107,253,-54,-135,535,-459,-79,-306,-395,428,-573,13,-7,801,-510,654,-637,-561,-104,-150,736,205,-399,-662,-622,649,156,356,334,371,-1327,-565,-301,449,-637,53,-312,321,-275,76,-454,49,448,263,76,-543,-257,85,-324,8,410,-260,-379,-351,578,125,352,-327,21,161,-141,122,-253,-231,410,-424,-143,-627,213,-804,708,278,729,145,-1099,-514,813,219,-130,111,-78,505,-566,-1043,874,-62,131,585,489,-194,76,747,121,-552,696,789,-83,138,110,72,294,95,-437,-447,-679,-534,-30,-986,161,141,550,-268,407,-186,227,-347,-816,-189,321,94,-235,-702,-882,20,-676,-126,-154,267,-123,-510,46,-506,-280,172,232,458,-53,319,-387,558,372,217,79,-149,666,153,340,647,614,-31,697,290,-17,268,-276,-401,-80,7,-551,-329,132,-775,336,587,-450,-333,462,-674,-271,251,-341,962,-179,-436,-127,-765,-216,-189,128,-87,-173,-302,217,78,250,-153,242,230,73,783,71,89,230,843,-423,-537,-588,13,-108,-279,-659,354,424,-425,60,853,-261,-607,-346,-135,-3,473,686,848,-106,-220,-30,264,518,-274,-54,-94,-100,192,364,374,-417,62,159,48,-678,-117,181,-33,-410,594,-60,-457,276,554,382,-125,-175,391,-438,174,-408,-36,205,-459,-164,-251,997,-370,-662,1055,-747,602,-616,1347,1053,-139,31,88,258,-1204,42,-129,193,-118,141,-403,152,-541,466,-632,-345,605,-598,-103,225,635,15,368,513,155,-850,263,184,247,529,-916,270,-77,-121,-446,85,-205,376,963,131,-296,-10,308,-23,-244,409,-175,160,-197,40,-464,-237,208,-609,381,73,367,-6,408,-322,4,-12,-67,-698,-375,-502,-597,-462,-395,-759,-880,-492,-533,-87,-336,78,172,183,-2205,-323,376,-116,-101,42,-622,759,454,766,740,247,778,486,-48,505,-397,-118,-82,459,570,-573,1262,1031,28,117,-190,-141,445,138,-574,390,178,129,445,2,-554,207,-426,-431,-452,383,-472,55,310,-909,-175,586,167,475,-961,-27,592,-477,-267,741,-167,35,-383,364,-676,-61,-91,-93,497,670,469,-91,75,-373,199,21,136,270,527,555,302,883,-58,-361,202,-362,182,579,-669,658,151,64,83,911,544,396,1073,-359,-140,-113,-645,-1023,-55,-666,-1001,314,182,143,-29,268,255,-394,-530,-96,-275,243,116,-112,-300,205,-784,120,-232,-41,-43,640,544,26,-724,-55,-324,-9,-246,152,199,-575,-232,417,122,-234,-343,-643,112,-872,-945,-14,-742,-957,-566,27,27,-130,169,174,320,168,-564,-236,-544,-100,-286,-286,-336,-470,265,500,172,-57,195,-233,-348,268,129,248,-112,624,836,-485,1194,815,466,94,216,128,-784,-84,-125,-282,642,-843,-233,-12,-92,-271,-27,-178,-424,203,627,-34,626,706,-573,640,248,-107,467,-554,-764,-638,-43,-994,-563,-204,-185,620,476,-776,819,-97,558,1066,280,-205,-1095,215,-243,-494,-514,-334,-39,-70,-7,273,-97,-776,-710,-459,-184,-514,-414,-133,-267,-599,424,-447,-643,251,-242,-441,555,618,80,-300,699,33,27,411,963,415,937,215,864,741,-812,-114,121,-413,399,233,-82,792,-302,645,243,-274,628,-198,14,645,-816,542,-221,-184,-169,-663,498,-541,738,538,-14,-1528,413,-765,-317,-601,148,-313,-408,-290,367,436,-197,376,-397,393,960,51,-930,359,523,291,327,-231,650,196,45,580,76,-339,-25,369,-110,-161,-352,-3,-80,412,-86,199,663,-216,48,106,500,-24,-223,-193,416,616,240,164,458,64,401,-170,60,785,605,667,169,358,486,7,514,-102,187,563,-671,-279,878,396,-11,-184,253,460,628,185,-402,144,-395,-10,-693,-316,-93,174,344,-206,85,-184,136,370,671,-27,-41,-332,-627,-77,352,-17,-187,218,440,-367,-132,-476,-280,-254,101,520,-73,545,481,124,139,-144,144,-9,152,-318,-406,-386,-212,269,-319,127,-380,211,-251,336,-107,-186,-379,-279,-311,-328,614,-234,690,242,-226,-32,-88,189,-387,-74,-364,-259,-214,119,-194,393,-321,520,811,112,-186,472,-221,310,120,370,-211,440,-558,370,-604,-728,140,300,-494,-289,9,815,-131,-119,554,536,-522,214,-341,734,-173,-299,-207,-269,330,-342,-228,433,-785,381,222,677,-190,71,-1089,145,326,120,-37,875,299,472,552,-558,-245,-66,-547,-134,306,-367,454,192,467,-489,-168,-347,-257,264,767,175,-191,-339,421,357,-7,-141,563,-288,64,-142,-229,264,598,322,113,-183,-427,-996,496,34,-291,220,-257,297,-544,542,-108,362,-764,387,77,60,-304,45,142,188,659,820,456,142,-468,-279,602,-174,-502,-43,531,209,7,-273,-283,95,-27,128,-173,-551,-859,-113,-203,-390,-53,181,-605,-460,-523,98,-574,-631,-365,-315,-954,-436,-354,-309,-533,31,202,9,-490,-618,-560,-14,-551,198,237,-250,194,-120,-67,-137,-523,-226,-300,18,116,340,-209,300,-16,-389,-426,530,-138,-361,-748,376,13,-390,700,-35,-268,-170,353,962,-433,-417,590,-305,-115,-510,66,-96,152,-879,-500,130,369,185,-460,-381,65,-528,535,-125,-318,-402,-204,257,55,397,726,791,-636,60,200,-138,-343,-330,-614,-356,-180,-1126,-690,234,74,145,599,11,254,-178,345,-260,-194,584,118,-205,223,-282,-238,150,600,470,432,619,239,-1,-178,-306,-495,161,-7,415,-80,15,144,-183,155,245,-78,349,332,-721,-455,120,236,-47,185,-9,212,-71,-464,-608,-139,-114,-198,173,287,-231,-364,-128,665,-408,342,-559,-551,171,-443,307,441,194,-111,-5,-293,-401,111,-150,41,-382,-321,521,65,45,-360,-844,-19,-97,-248,340,324,1122,598,493,-591,-64,328,-198,218,-61,666,-203,240,82,-97,292,-195,320,569,287,-57,398,334,38,446,324,-349,-500,373,-318,-285,-642,-628,386,519,599,-33,110,259,16,101,-14,186,431,64,-638,-358,275,-301,503,295,-11,-246,309,188,-58,1093,481,696,442,814,15,-186,217,-509,-171,-268,-438,-166,-124,-1056,84,98,-470,-269,-41,787,-505,-530,-579,-19,233,-126,166,67,40,120,-515,-106};
const static uint32_t LSTM_01_weights_forget_gate_dims[4] = {1,1,48,88};
const static ConstTensor_t LSTM_01_weights_forget_gate = {&LSTM_01_weights_forget_gate_x[0],&LSTM_01_weights_forget_gate_dims[0],-1};

const static Weight_t LSTM_01_biases_forget_gate_x[48] = {1783,2680,2218,1893,2149,963,2000,2182,1843,1891,2201,2619,2606,1307,2757,2228,1319,1859,2696,1950,2557,1697,476,1844,2278,2156,1885,1656,820,2380,1604,1592,1438,1227,541,1124,1354,1616,1887,1473,1901,2059,1885,1989,2539,2193,2362,1612};
const static uint32_t LSTM_01_biases_forget_gate_dims[4] = {1,1,1,48};
const static ConstTensor_t LSTM_01_biases_forget_gate = {&LSTM_01_biases_forget_gate_x[0],&LSTM_01_biases_forget_gate_dims[0],-1};

const static Weight_t __attribute__((section(".weights"))) LSTM_01_weights_output_gate_x[4224] = {1037,530,-377,25,-1559,327,-401,-318,-913,71,-1733,-1297,638,-497,-932,-758,-630,358,-614,587,-1082,-123,659,1853,-163,-740,1280,1788,50,1672,1682,1096,396,-307,-69,578,886,1899,294,295,202,-1035,-2104,748,780,561,-786,261,-438,695,-1154,922,-1203,1995,791,-974,-1074,474,-352,-542,895,-1715,1005,-758,-173,301,937,-14,187,851,1706,1691,-1406,-164,110,1000,290,959,1166,1107,-1303,-1235,-1220,42,821,-1757,119,810,432,472,1374,322,-441,182,201,1609,1363,-338,-1021,71,-228,-1273,-51,-95,-689,160,-622,-454,970,1199,1583,739,714,545,-218,651,-275,-510,791,-321,512,1029,287,-351,277,-150,-1076,-609,-322,-1535,157,-825,70,-111,707,481,414,218,438,628,-457,-958,12,1170,-1069,221,1422,960,1109,1591,-1898,151,-813,431,1121,-1097,472,521,1680,-1523,705,-483,820,-937,1135,618,-1816,-915,-2244,-174,-4,219,1202,234,-776,-790,115,-155,-409,247,-611,-836,-529,116,-272,-910,723,-422,560,-41,-291,5,-10,1199,-1065,618,465,273,-384,-929,-903,-500,-218,319,-713,704,-905,-66,-758,170,-596,-1326,-1025,-191,-126,-68,965,915,638,-871,-12,-1870,-676,-524,130,18,333,814,606,-760,-1346,-460,1336,155,-307,936,-546,1223,193,-910,142,293,-731,1530,490,-856,1293,-877,1160,822,-2111,777,234,-373,302,-143,652,141,-635,472,444,381,1897,1046,255,-545,282,-1285,-725,-1122,-597,382,465,-456,-1552,-933,75,-1105,91,-2,-370,-1196,341,-469,801,-70,1071,1141,1337,279,304,-554,-710,79,-465,539,-135,28,262,-749,-69,-1074,297,-293,313,272,70,-271,-397,1303,-580,273,-1420,1332,698,-1725,934,-149,1913,-290,1142,315,-1777,1761,357,-199,-288,-826,882,-623,-192,-354,65,564,-579,830,368,-933,-1207,311,1320,-1713,-486,1540,847,-1424,335,-493,1123,-786,-286,-1081,-784,706,961,-501,-443,-500,41,-178,-812,1012,1524,68,-449,-796,600,234,-992,172,-285,-1229,-477,256,-759,-1118,-1248,1145,894,1636,98,-1396,-722,-63,-1277,-1951,-5,-1353,-1739,-537,-2128,-1451,-889,2038,-259,636,1741,605,-862,-1060,486,636,892,527,-539,634,-425,177,1421,-1318,75,324,1017,-853,-336,-1478,900,1937,1631,252,-698,-1690,-727,-2465,937,2352,543,-5,2136,426,-932,875,-1181,322,255,-540,2911,2773,-745,-793,146,790,-10,892,535,834,334,602,421,-126,70,960,450,1430,-371,1212,-28,64,806,634,531,1016,1217,1124,1720,-438,1318,565,1371,245,1066,-507,1055,628,607,1499,1290,599,772,1102,155,323,206,2017,287,-617,-288,-1481,-500,1136,-392,899,1074,805,-1155,1316,-595,-788,-837,-591,-204,-864,66,470,-837,-643,1460,-738,1531,93,406,-26,-361,389,1092,1324,-819,940,-672,216,-188,-107,-20,770,-693,-529,72,1050,-2522,-219,-1791,-104,305,-514,-380,263,712,2155,1457,-583,1309,-515,-285,1159,-659,-957,181,-1211,-1414,-1736,-1125,-1307,51,-658,-853,282,-479,419,-4,218,-406,-679,-388,-1193,780,-131,790,-418,-247,202,-482,1399,2332,-904,725,340,-36,847,327,126,1022,-1718,-351,-526,-1030,1854,495,655,763,395,1159,-379,2067,5,1607,384,752,-801,1690,932,933,-843,-316,-2276,306,-743,680,256,-230,1002,-1203,514,1276,-1066,372,709,-228,-172,657,-1186,-922,165,-185,-828,-1761,-857,-1082,-599,-729,-436,531,-94,-1875,-1002,-832,508,-84,-217,494,-787,-1450,-423,-1945,-199,-1357,-443,-1006,91,-285,-704,-468,-98,716,616,-927,-147,298,135,715,629,995,-427,-170,-1790,-285,1602,-1028,386,368,-750,-375,-1862,236,-137,641,-984,1093,333,719,1632,25,977,1006,-123,-526,-314,-239,1433,1168,-162,-1338,-1342,-601,169,1944,-232,-687,90,-1246,357,1099,208,-664,-923,-457,568,360,-222,-319,268,-731,-3,698,-1252,-197,1401,180,625,347,1240,-957,293,-32,-422,677,497,-559,-1345,-49,-1073,393,-513,1289,901,-279,205,208,229,227,431,426,1296,-167,-10,162,877,204,454,-28,-1141,1214,574,344,-641,-868,212,-338,-1700,-135,-378,1857,1397,-926,-316,275,-235,589,-900,-671,1189,-149,655,1078,-2104,-687,1173,155,-1061,206,-190,73,-1436,242,250,-283,511,501,-173,1939,1828,-4,619,-80,1683,-223,177,581,-70,664,45,-1059,-1668,-972,650,426,673,89,-795,-849,-1264,-63,-272,-165,-719,978,718,-1577,-1790,-1730,647,-842,351,-1529,-1548,-907,815,-662,918,128,234,-1243,-615,635,1081,1241,-226,1334,-897,716,-44,284,1587,165,2338,-480,-348,542,-1093,742,202,209,-1694,-1636,-604,1574,1349,-82,-321,-247,-1171,-414,-614,-43,-354,457,-904,-356,-59,286,-349,455,852,22,-203,-1627,1067,1354,540,-974,252,-495,-110,584,241,368,277,-430,-135,-104,-214,-434,-524,-232,1046,1850,441,999,1614,655,949,38,487,-303,-477,-405,-1239,391,1109,830,1296,1237,1151,1143,311,-816,-66,-850,-575,536,367,-1933,-1105,-612,350,303,897,123,-212,-1484,13,1500,-98,1805,-1041,-268,374,-1143,-1513,1363,19,110,35,-868,902,-192,-697,850,1009,738,-1035,1639,627,661,504,-82,1299,1120,-1918,-2140,-53,-1575,-626,-533,-1674,273,51,-249,-226,662,885,-114,792,1078,-130,-1188,-503,-1242,-1036,-831,410,674,-1029,-580,-1302,-2099,-1308,-969,-189,-261,572,-1290,-1975,-2006,-634,-361,-1003,-158,-943,-1386,501,-878,-110,1132,1262,755,-678,-106,332,1727,749,-175,566,-2,259,-221,-394,96,-175,38,789,288,-583,-1129,-592,1114,438,118,-214,741,621,-995,957,477,-632,471,-514,631,510,1240,-497,1020,-1365,1915,-574,705,1146,-33,-658,-193,831,-758,818,352,-131,-576,352,2,-200,123,-506,620,41,521,1389,1371,517,-96,1047,513,-371,144,-1047,-1155,-240,41,-292,160,152,464,1205,1459,-253,202,1157,1603,-39,44,92,354,826,1518,1658,1035,1221,-364,-725,-132,-1200,483,-1304,-344,-14,-355,-495,1354,930,439,156,99,460,-459,1401,300,-327,63,906,-568,873,306,389,-530,852,171,-235,457,-2219,442,341,316,-559,683,-110,1212,404,1430,-36,-536,-1818,-198,-813,-448,-1251,-1506,158,684,-483,-834,344,804,405,87,-744,-237,304,534,-327,-173,672,-53,617,-435,1621,-145,-301,1462,691,655,1225,878,-718,226,95,-23,-616,756,1526,1296,1120,696,1634,596,2662,2103,2242,252,-1642,-1,3,-247,-212,160,-122,-334,620,229,1139,-1290,1155,1692,-287,177,-330,800,-432,1024,-648,120,-931,388,914,1781,-2247,-200,1169,1404,-735,-54,475,874,166,-507,223,1073,-1069,1022,-809,-858,-83,-792,-265,-135,-1084,-489,-563,-201,-174,1102,748,1057,-400,338,-872,-1753,754,9,11,-435,1114,1117,-558,-357,695,-458,-365,-1164,-105,-484,-347,-463,237,21,-1494,-1083,-29,-346,436,-839,311,112,-985,-1079,-1228,-696,-1376,-266,1095,-256,-1431,-1423,1293,298,-68,-683,589,1146,-2563,-903,353,170,-55,-209,2346,-2831,470,-78,1055,1137,-823,-206,1446,-1189,-675,-312,-727,-350,552,143,-491,1948,251,-551,-1948,-1425,-873,1763,424,-987,-728,792,393,264,36,697,44,-1762,-1045,-608,281,-414,-697,98,-406,985,748,372,-325,-17,-666,-678,-814,-524,-657,-1025,-1155,-44,-1191,-32,-529,-1516,-381,349,-336,-423,-228,-748,-261,613,-537,-992,-1404,-114,-1644,-206,-1568,437,531,-1941,-2125,593,1121,-346,680,293,-367,-702,-2014,-293,-1026,379,-1288,-217,-384,1212,79,1112,-1275,1387,1079,119,338,-570,1035,159,503,-289,135,-930,-842,-760,0,-1221,543,948,-93,1570,702,-1071,-120,-83,955,600,850,832,-255,257,1742,1320,1508,691,-660,24,535,246,-1023,186,272,-1194,285,-500,-1344,185,207,-13,1171,-198,756,1074,638,292,733,-875,492,147,32,-353,669,-777,-941,252,-693,-94,86,-652,-1755,2156,800,449,636,-530,212,44,128,617,84,-1232,-442,491,-515,1199,-137,-101,323,-625,879,-82,782,-1164,-938,-225,-1632,86,1174,240,-477,1573,-881,1568,-26,307,783,894,-705,-430,-1192,-91,-994,589,1082,-455,1,-47,1404,-201,-246,-480,-459,855,1017,-153,-240,749,747,-332,2,-403,256,-634,120,710,1666,1097,848,492,856,1523,759,-383,631,133,-115,1026,-539,411,-688,-602,-585,-185,148,-438,152,4,1580,238,161,-861,-1066,1163,-493,926,510,467,-515,-591,-358,1179,578,146,-481,-172,390,-754,1304,862,1809,448,146,-154,86,-33,669,721,-323,678,1574,-878,434,31,-339,812,-1326,320,-1381,-1163,-345,290,-367,38,-372,-29,380,-566,1392,-726,702,-672,-506,-704,-703,742,-501,-349,506,-164,-449,-871,437,-582,896,1332,-830,1059,1274,-576,-664,-578,-406,936,239,-92,480,1346,-375,296,300,-705,-644,-1830,-1210,-945,803,-161,1448,-101,706,121,218,27,2339,-1355,-608,221,-647,-649,-323,-630,259,-162,-389,-576,-1171,-2060,-453,736,95,-1363,-777,655,639,-1829,-173,-663,851,714,-683,1816,-2100,-868,76,209,-650,482,-1211,2153,963,972,-422,86,557,98,1513,418,-346,337,-274,-428,-817,845,-517,1105,299,407,851,-484,1065,1127,1094,1142,-843,328,-341,141,-598,596,-221,-207,-324,-334,-771,-810,187,590,1193,-5,-1102,-260,-836,-1411,1876,136,-1566,1872,1186,1034,1162,911,322,697,404,-148,10,-364,1657,-1272,-422,-1728,1846,862,-714,-860,460,-1818,-1494,-68,630,-161,9,-1584,1179,34,160,-809,249,331,-306,-682,960,339,-640,259,846,-1094,-1216,-486,171,-1089,1010,1008,-349,666,-659,1001,1624,958,-242,708,-398,787,-291,102,-511,-96,745,48,471,337,-619,1569,136,-550,480,397,1676,432,-240,1366,1427,653,-202,1413,0,-67,110,-1795,-1553,1714,-67,-366,769,-998,724,17,-697,241,-489,-174,-666,488,923,-830,-123,-103,883,91,-376,502,182,-162,1660,83,-1646,-1797,-1003,-1367,-663,-1050,1054,-256,-709,184,805,520,-266,-1123,1088,-816,1163,121,-1482,-20,-1137,-1600,-2252,-1707,-1786,-651,843,-465,-740,-967,-967,-709,-1353,-456,226,-1421,-570,107,-983,-660,18,678,-289,429,307,-481,-1045,735,326,-99,1077,752,-134,1011,1562,273,388,249,1571,1382,-519,-1507,727,995,-152,351,-769,-1071,-152,-1944,171,1,652,1650,-1648,-1135,-1584,398,-1477,-1263,773,1332,-1943,-221,-1786,-178,29,-858,96,-766,-616,-1867,89,-562,950,-225,-123,1587,-1339,1576,-1134,-1249,1200,-705,-2229,461,1042,1960,-544,-1282,-875,-1326,-563,-2439,-2397,-1714,-590,-1086,73,1122,496,627,816,-674,-110,-988,-1508,-1602,-1403,-1331,-862,-1305,-1470,-1542,-1079,409,-182,-314,-357,-844,1688,117,1636,738,1365,-356,2283,131,1512,-4,576,-1149,512,891,-1421,-109,920,-461,-1678,1061,1088,-122,-906,666,-286,41,-558,5,384,2719,218,-135,705,-337,502,1021,555,-1158,606,382,-438,-1712,-223,-43,149,1409,186,299,-301,-1585,792,185,-1194,-260,164,-324,551,-491,604,1595,1808,1275,1002,1439,581,1080,1987,1668,895,-250,1006,-108,410,226,1043,469,727,956,33,-662,-988,-46,177,353,702,-345,91,-518,-803,-666,671,-324,-673,-486,706,533,-1265,-788,-244,-251,-2563,-537,1160,153,-640,-405,696,1526,954,248,-1242,-611,-924,-944,-1710,-382,593,-202,860,468,109,506,217,-1252,-952,-944,-1122,-715,507,-740,295,56,369,-939,420,587,139,-567,396,-138,1110,-864,-1233,-344,-435,-1454,-120,-1530,-1192,-1332,-220,-630,601,993,-158,-589,510,107,-998,-868,-1917,-863,638,-259,-917,-774,-1923,-769,-81,-953,647,873,179,-47,-821,-1304,-262,-422,108,-4,-922,260,-1752,-198,674,1625,647,1734,-268,-213,973,804,131,-1436,-94,-9,340,593,360,801,464,900,-67,1103,457,-533,453,-1507,-295,-907,-29,-350,-1249,315,-1044,1245,-1261,13,356,1657,140,622,-1235,1251,1283,1096,-1259,728,1634,-597,476,-268,-44,378,-221,-1369,-658,528,-862,-1075,1178,493,-189,221,26,130,628,1294,1629,1036,-1008,1007,654,-1000,343,-213,-405,-871,-879,-172,826,72,-381,-62,914,-422,985,1358,455,780,1256,-1139,-816,-1182,-337,-827,-707,896,285,-134,-507,-685,-191,-942,-921,243,627,949,740,47,350,-1386,673,312,-416,-742,457,-733,935,-195,403,-366,-65,-352,-14,-691,340,-1243,186,-263,701,597,-805,-1012,-717,-478,1698,-730,-47,-928,-1296,1235,-119,-133,282,1421,4,535,567,-1640,591,1065,-1057,810,819,394,-672,217,-588,-199,-1094,645,-279,-701,24,-963,316,-59,-276,-249,841,-328,-231,1200,-106,393,322,-939,476,124,-1332,-808,290,855,369,-190,-864,902,476,1584,-762,456,59,-630,-1939,-310,533,-84,633,541,231,513,-445,224,-495,-1311,-623,-1470,524,-1015,1139,1038,-161,-860,1739,-281,103,-2095,-200,-393,334,-1019,-409,136,863,-172,-36,562,-926,8,-488,-667,1608,684,886,-571,243,1147,84,480,139,-677,977,-556,241,-579,253,906,-925,150,976,182,781,222,-149,-398,1169,1748,1238,107,1286,376,1747,-21,1567,1383,2460,1045,-652,-1055,-2029,795,1250,1453,-546,-427,-473,-518,-46,-390,398,1591,890,-84,564,-94,-528,484,-474,2030,-835,1000,635,95,-795,-596,164,-723,1030,-214,-377,-62,-1215,-341,-40,266,-416,-91,-849,-1197,-1417,11,-1476,183,-483,-131,-1626,-160,-381,-263,-370,-306,-73,1300,1458,1286,1426,765,363,939,-237,1557,1273,-696,665,453,611,-296,262,-44,1180,1207,-748,-193,199,41,1265,633,945,-603,-557,-497,-781,-722,37,-461,163,-103,-42,-479,-703,555,722,1229,535,1039,-692,-389,-548,-1798,232,1,899,1797,-413,-440,1049,720,692,1171,322,1861,1734,-1777,-1687,-872,-658,1529,-70,393,179,1181,-1216,-1627,-327,-817,-928,151,-1341,774,1175,-690,-671,-1245,605,-585,577,-9,1452,36,369,314,1078,-68,257,85,-229,880,1378,-87,896,-222,-708,-1180,698,217,11,-1178,-230,-807,-697,-638,1300,532,-1101,-420,-271,-133,-702,-318,153,-47,214,332,840,232,-827,557,186,-1622,-633,-556,-325,-68,1090,-662,-48,-692,102,-2663,-1566,-1837,-490,-1409,248,254,955,625,-846,-760,-262,-409,1475,-755,1409,586,768,-755,1922,792,77,-540,1171,527,-548,-464,2900,1267,119,-562,-363,372,684,1048,1540,-141,1495,1300,63,164,-550,341,1075,-167,773,-569,1543,188,-291,667,645,-707,-347,714,669,362,188,479,1121,-108,1248,-87,-457,788,369,1447,8,1330,865,-321,1592,-757,-529,10,-1267,-774,208,1070,281,521,410,-1317,-384,802,-1393,-579,-842,-20,-159,525,-1044,71,-455,1134,-1454,509,-367,14,408,-1234,409,-937,-1341,-1825,-448,-114,1464,438,333,31,-337,1062,-1171,25,869,827,422,215,258,-31,-819,-1380,-676,-281,55,801,538,-477,544,1679,-669,882,972,410,265,773,-346,-39,1111,-212,-268,831,-265,1281,187,316,909,1261,641,-397,1046,1065,1073,-516,-893,-569,548,519,1439,773,703,-606,259,-730,-1411,-397,-588,-913,-76,-1145,107,873,23,410,-607,331,-1004,618,-181,-790,-1866,1504,180,69,-596,64,973,-252,151,-265,379,86,1653,926,298,398,-845,678,1046,1218,-76,-475,-80,1629,244,1629,-1274,421,1098,467,11,-80,602,-265,701,35,890,-239,1071,-176,-334,636,1020,1021,-113,322,942,-612,-30,1525,1205,1085,-722,-551,-793,-936,-606,-1109,-1060,598,-75,290,-140,-200,-525,711,-15,749,887,-840,-782,-1506,339,-1186,-307,788,-1054,100,223,1158,-1315,284,36,65,1759,-756,-508,129,-1503,1222,463,-29,-672,-478,-309,1501,1579,-116,-1186,127,-1527,-540,422,-466,-352,613,-908,1287,-240,-1816,178,-890,1272,847,202,46,504,424,88,533,1429,-174,-62,923,993,222,-488,497,-10,-313,-353,-1305,-1100,-292,245,-1335,-881,-1482,532,360,-313,-989,540,-995,-463,487,-79,94,36,1108,-681,182,788,-1260,-762,607,19,-977,-1201,1790,-1012,195,-1679,466,95,-1487,222,-2064,13,1027,-191,9,1929,-128,-825,177,-945,-436,-182,1083,76,529,-2461,1824,232,-272,340,-299,684,-1058,-1302,1097,-160,840,650,425,-2522,-19,464,491,-97,252,-690,1436,1137,1129,-163,1397,114,1353,-669,1092,-258,31,954,609,581,-541,444,-728,-785,-1018,459,-145,-417,373,805,106,-302,-627,-141,-333,-48,1162,172,854,901,-726,-24,-645,-450,367,448,-613,187,-278,1042,2047,1151,-1086,-976,1345,682,-2196,2966,344,-624,-303,-657,193,-406,884,1061,3717,-617,448,-77,274,-146,849,1193,335,703,-60,-613,1479,1415,3386,-352,-678,-1550,-1001,1194,-2055,-644,996,48,409,607,-1494,437,-370,459,1616,586,1407,1251,689,526,-247,-284,-780,-1117,238,-191,-1036,254,-188,526,-133,782,-235,86,-415,-645,-644,741,415,-293,1538,681,991,1443,-21,1728,1039,1843,773,1329,1653,368,650,-1315,1151,-214,730,1132,-1549,-79,388,-168,157,-25,-167,340,435,-969,652,-245,-253,-937,-1877,4,912,70,-376,-1767,790,-402,258,-929,-1250,-72,-268,-125,-823,-894,1219,-1920,-522,411,882,-601,-1070,-1004,570,-699,-57,168,279,-389,1104,158,556,550,-413,716,863,399,-209,-802,-396,23,367,731,-492,802,-164,-189,720,1144,-407,539,1203,-459,825,1463,321,1398,1252,216,-345,67,935,555,-802,-605,1449,1556,267,690,-261,-95,714,116,177,297,-359,-1069,192,753,-452,-107,15,689,313,-2099,-358,263,1157,288,195,195,92,-1583,348,36,-491,-808,222,1100,-117,-960,-1129,600,543,301,-877,602,265,-748,206,-174,-409,-1368,707,-1285,616,840,2020,1941,876,309,1973,-705,860,941,121,389,-154,-356,-553,-118,181,-496,82,-293,-804,-88,121,-232,202,169,-214,878,-512,786,1303,-875,208,1000,923,254,1087,-419,-22,793,890,-1290,-906,286,-1433,390,471,-82,1676,985,-215,-162,-1229,409,208,1370,-2119,874,827,-2601,70,608,1580,-403,1768,-18,-1041,286,-803,211,9,-223,-231,263,247,-1184,-1289,-284,79,-1931,1037,547,-405,233,-221,-709,-664,-225,-760,203,459,276,1665,529,1582,647,951,311,41,118,-22,16,780,-195,1390,1181,-419,-302,854,475,-168,1193,348,-563,0,666,449,1367,1758,216,1590,1870,420,587,-8,1031,31,878,-124,992,412,-59,-577,-713,-860,1095,456,755,1100,407,763,-1638,223,-156,-78,351,6,-1130,188,1129,-241,792,900,-232,-367,247,-34,-160,583,537,-1163,-566,-866,60,-301,294,560,376,195,-427,-978,-1719,431,93,-592,604,-558,-1862,134,1030,152,1145,1417,554,-680,315,-852,1069,814,158,-1011,714,114,-892,1087,457,581,717,412,1161,-449,1110,1555,220,-115,1358,1250,104,546,559,1167,1196,416,2000,2142,826,-236,133,-803,-261,1016,1017,-418,515,1240,875,428,219,-35,-783,486,-958,-479,-695,-689,-1620,-284,449,259,1020,-999,212,1454,-1430,1412,-1063,1868,-310,395,-17,1,-105,442,414,-753,-1178,-31,-411,502,513,-816,-1137,1526,-596,-1425,122,-976,-559,-453,709,616,-76,-1243,18,-124,446,-897,137,35,208,-169,1286,1324,-823,-565,-526,-621,-889,-770,577,206,-115,360,38,64,-396,1824,1863,1071,407,2159,465,722,1788,1300,2172,-711,1350,1870,187,-447,239,-244,-47,113,-864,-1451,-1780,-1738,-957,-1486,-1000,-1866,-2960,230,-2248,-689,928,434,-447,1470,-683,-1225,2795,298,1431,838,-2128,-945,-36,-788,286,-564,-705,906,1787,-1639,1559,-970,1245,1167,1024,-127,158,730,654,-1277,84,268,58,1036,-203,1420,-273,-473,64,587,142,632,-355,585,-378,1355,168,982,137,1000,84,1171,-89,-188,661,-374,936,1187,-580,-124,-46,386,865,1387,1544,-1545,975,1998,748,-159,424,-945,-1766,1256,909,189,728,134,-1046,-73,-1239,-1099,252,990,-618,-78,500,-201,-1098,1000,-421,617,-1632,-31,-2940,-889,206,1181,721,486,688,126,-23,-916,122,-87,82,789,-1097,-1343,-278,-678,-809,1081,681,-841,-324,-755,761,-259,-205,-342,-921,263,7,1238,-152,-568,579,28,523,611,38,-1086,-1606,-381,485,-438,-1721,-1361,-825,-583,-565,-290,-1556,-833,936,-750,-644,93,-326,377,1470,-36,1320,-1655,409,616,-135,123,-1118,-1481,-239,-2050,-102,163,2979,-1259,-1181,-930,-129,-1105,320,-395,309,1115,-655,-887,194,2000,-681,628,1095,437,698,-515,-2101,-932,1057,-882,-428,194,-1218,1579,1560,-3198,99,-336,-2479,1158,774,488,545,-166,139,-398,-192,535,-409,-1176,-1126,-459,-389,693,-910,-280,-28,-1085,-615,-334,429,-304,-414,-253,-388,125,1091,-323,338,728,1387,1100,-6,-165,83,55,455,259,-103,962,636,506,-592,-526,120,439,319,-155,426,43,-1149,645,788,-999,239,841,-1071,2332,-793,-1268,327,-1581,653,-642,-880,1347,239,-2186,754,417,-397,-2636,368,-1098,-1067,-908,1386,907,-202,2044,-987,1832,-1403,435,-246,-226,-969,1389,-951,-1479,-1543,428,-1284,-424,893,-389,-636,297,-2286,109,-1229,-222,-446,-795,-1206,-710,228,-799,-96,-153,-729,-723,-786,383,284,163,-827,-466,-468,7,390,-370,859,1139,593,885,658,-325,239,-88,-1289,-873,-42,343,-290,-1126,-574,-1255,-1104,-361,482,1086,-22,1982,-530,-29,-1039,-1183,-1235,216,1085,501,-766,1589,1152,-74,185,-1124,-398,-1979,144,395,-873,-474,-454,382,748,1048,1249,2469,-579,-1863,2097,-570,-106,1244,1013,183,-354,-966,-1384,114,-869,-249,-1154,-1041,563,899,-379,65,-5,-375,408,-5,85,-276,-734,259,-444,-348,790,-312,-186,-630,-363,-476,-639,583,-205,869,559,145,1037,878,1119,1195,1092,-155,696,-255,499,556,560,1201,-1427,-717,-205,-86,351,37,12,-584,-345,-335,1787,-756,281,872,-955,28,878,915,-92,-154,28,-502,-1569,1488,-1926,753,83,1801,-847,236,-400,-298,-54,-596,-15,-301,-1123,-587,-883,-1849,476,-962,340,-859,-30,1365,1571,655,-324,-108,-640,-872,-804,370,-448,467,-978,-391,123,-434,518,-1152,1497,598,248,-455,-1655,-1420,672,55,-643,-323,755,-367,795,-843,-948,-802,-530,-585,-1954,-582,-416,-761,-108,300,-632,-1111,-813,-40,1938,-578,1136,-672,-705,341,-891,-289,390,203,-297,1550,1291,1827,1578,1253,-1648,28,-573,-42,-703,-221,-166,-17,238,-1298,-138,773,-837,-907,523,-60,1874,-303,975,486,190,-863,1354,1391,37,-740,-1336,-931,894,-793,-291,-1592,-1628,842,-518,517,-277,-918,-496,1103,427,218,-63,1011,72,709,-74,459,450,578,750,-719,479,368,-186,187,-139,-220,962,-419,880,40,950,-816,1597,1426,1745,-718,-133,-408,873,-259,198,-1135,-326,242,-187,-5,649,-703,495,-1081,555,161,-854,554,-654,-1067,-623,712,1667,563,-1268,-625,-608,712,1114,-364,1574,-955,-71,-506,-795,-1483,1319,-1033,919,319,-52,-782,-47};
const static uint32_t LSTM_01_weights_output_gate_dims[4] = {1,1,48,88};
const static ConstTensor_t LSTM_01_weights_output_gate = {&LSTM_01_weights_output_gate_x[0],&LSTM_01_weights_output_gate_dims[0],0};

const static Weight_t LSTM_01_biases_output_gate_x[48] = {-941,82,-405,-834,-1148,271,-506,81,-125,-665,270,427,31,321,-461,-1569,-229,170,-440,659,482,187,-525,22,549,-1147,-229,-117,-213,223,43,-256,96,-1377,293,89,-252,-73,460,-12,204,781,-2554,-340,-452,1206,-268,-794};
const static uint32_t LSTM_01_biases_output_gate_dims[4] = {1,1,1,48};
const static ConstTensor_t LSTM_01_biases_output_gate = {&LSTM_01_biases_output_gate_x[0],&LSTM_01_biases_output_gate_dims[0],-1};

const static LstmLayer_t lstm_01 = {&LSTM_01_weights_input_gate,&LSTM_01_biases_input_gate,&LSTM_01_weights_cell,&LSTM_01_biases_cell,&LSTM_01_weights_forget_gate,&LSTM_01_biases_forget_gate,&LSTM_01_weights_output_gate,&LSTM_01_biases_output_gate,LSTM_01_output_dims,LSTM_01_input_dims,TOFIX(0.000000),tinytensor_tanh};


const static uint32_t LSTM_02_input_dims[4] = {1,1,1,48};
const static uint32_t LSTM_02_output_dims[4] = {1,1,1,48};
const static Weight_t __attribute__((section(".weights"))) LSTM_02_weights_input_gate_x[4608] = {-618,-105,-537,1174,673,897,129,711,193,-190,-595,670,-169,-96,-240,402,-1101,-1069,-581,1145,371,388,715,-526,-409,-4,943,-890,1275,-815,-532,785,1397,372,680,1545,-372,331,-44,251,-1096,-767,-884,-449,-971,-214,-730,998,-859,-282,-694,-353,535,-402,882,785,361,-783,-943,1243,446,1082,-265,534,260,-517,-68,-1,-117,-407,-592,1106,448,1223,-767,-341,11,1582,-1223,-701,1189,-381,-238,903,-353,-471,380,505,-2257,255,557,846,319,2000,264,-1586,1022,-31,-225,-442,-569,-951,338,47,-374,18,-1148,52,439,62,838,1095,1265,-117,-92,1461,735,524,-679,-71,584,1611,-406,-1437,710,-708,858,710,635,-759,650,187,953,221,-71,-289,-932,-1001,893,1018,-1080,184,499,1744,1031,-575,-1999,54,238,869,-1083,942,895,200,72,-909,-978,-156,769,307,784,-1909,-592,395,1583,458,1364,932,690,-1667,-373,-671,-749,-242,-1415,-794,-413,1371,-170,853,724,893,1346,94,-92,970,-996,660,1476,649,910,-840,-1328,437,-289,-424,-861,-196,254,272,790,1315,662,119,1281,-549,632,313,1322,901,807,1348,-415,828,694,-488,6,1056,-268,1255,508,-142,-116,-135,-410,1074,-440,-999,-298,-19,-1554,91,-428,-486,410,-87,7,767,-225,-257,255,684,-317,-788,-702,-1038,417,347,-1251,290,-684,622,560,-487,-576,59,1287,319,-312,316,-709,225,-492,-761,2524,-569,-216,752,-97,-322,1390,-858,220,121,1795,-178,18,967,150,269,-89,-1134,637,-601,-757,-684,508,774,492,-258,-877,-594,314,-181,214,676,750,-606,864,757,915,-86,856,-225,-576,-23,-78,182,661,529,1188,-104,-522,-391,-711,-347,668,-152,-641,-245,-822,72,-737,-815,-262,836,-842,-592,378,-311,-891,-486,149,-854,154,-761,-527,168,-20,-252,-954,967,-300,-1155,391,401,-204,-1037,585,673,-676,170,144,1215,-303,-686,1169,118,-693,490,47,-10,-832,-864,-67,-315,86,884,-527,-398,-129,-770,-57,874,81,-820,-896,-537,-730,-465,-709,670,744,463,-75,621,808,390,780,96,-238,206,-1139,388,794,-507,1073,-774,579,-887,-881,-408,-723,-294,-32,-509,-836,-703,-2,13,-831,1094,506,900,60,-781,11,-17,930,51,786,384,-931,-543,-815,-755,-316,773,-507,-567,-227,-203,-449,-566,429,-326,-259,119,545,1523,-476,1464,93,-449,366,690,611,834,-780,-802,664,-1346,-167,1378,-145,1730,538,141,1513,888,-148,-506,-940,1696,1102,965,304,110,84,-182,-316,1060,-647,1027,294,-620,-556,-780,-829,-23,-1085,869,-1419,-89,186,-1537,-196,781,-1333,444,-1095,817,1393,657,-951,-977,296,975,-470,-771,-1215,79,703,1367,545,-360,939,981,496,-1359,-138,-947,-1073,77,-3,678,76,-1144,1156,108,-656,-1002,-470,664,-405,697,-595,-421,189,469,689,-271,-1949,-1015,-386,-596,78,-293,-757,-38,552,-807,667,232,47,-120,-29,-1203,-2222,31,-344,-1820,1091,-386,337,376,-586,-448,710,1283,-1113,-628,-410,-273,194,437,378,67,-749,-665,-1111,-576,576,-210,-1139,-454,989,477,633,-17,760,159,-1127,623,-265,-541,-534,-298,739,-28,943,-345,1188,-210,-491,-215,427,-713,550,552,402,550,680,1277,-733,-837,-982,-543,343,-193,-874,340,-540,-593,-967,-150,-277,-969,490,-279,471,-831,901,314,344,117,-52,151,-296,434,-551,321,-701,-741,51,-168,885,-463,460,-1053,-869,-745,175,601,-750,859,180,-665,107,-8,154,613,-732,-120,597,-1104,23,-309,-294,444,-816,-1580,-611,-862,-566,-278,-574,-161,-1873,633,388,881,592,-846,-389,52,-270,246,-151,38,-148,212,-203,717,637,1398,-847,529,-712,-903,-44,-1182,220,1184,1053,-29,342,-97,836,586,-331,-130,-177,319,-950,-122,-212,843,513,-726,326,954,850,-874,-942,-31,-252,35,1139,-434,138,-132,859,884,-775,848,59,-409,5,-782,-1303,552,735,-1387,479,529,-202,-1667,-72,1288,1109,4,423,593,952,73,-1417,14,1433,1023,-36,-125,648,-242,-708,545,-690,-492,-1489,261,70,-578,-4,18,796,-1272,-78,59,240,303,129,819,615,-1031,517,269,392,-1213,-501,5,824,318,-20,-228,888,-1115,-691,-752,515,-76,1380,-591,792,-477,441,1484,-807,-13,1036,-431,-943,790,-270,-284,1020,-535,1614,-56,621,321,787,559,-480,-1177,292,-575,-464,598,-517,-1282,-463,232,-8,-1014,905,32,678,404,-56,-407,-106,550,343,-382,1071,-1740,162,1084,492,429,-128,856,-1926,1739,-1095,606,-48,-891,-568,198,929,156,1001,-164,36,75,306,198,-379,727,-227,64,-992,-279,-221,827,-278,-365,-200,-169,43,-180,1332,-631,-165,119,580,-1543,4,119,699,-339,-408,1296,-873,1452,21,1107,-40,-1074,-1065,2173,277,-1087,-563,-187,1144,-245,-1190,129,-263,634,-1229,1637,290,409,249,-542,-136,-71,-851,88,-654,-715,-651,537,1549,-1714,487,374,71,-621,339,-997,-787,744,763,373,736,-159,-65,-63,252,388,626,-1135,834,45,-300,1234,1118,-318,-1168,-868,836,300,690,-275,-654,-239,-717,-169,-1440,-1054,-127,-705,255,162,972,-35,647,-221,382,606,-102,-778,971,-869,-724,256,379,-1129,-546,32,522,-1009,551,480,-965,-573,232,-914,402,1060,-848,516,-115,803,-449,628,548,-250,223,-367,-174,-112,-363,47,214,126,581,-51,685,-277,320,125,-441,-209,52,175,-942,294,-762,-495,7,-895,-978,-60,848,1450,266,-430,-146,-215,-1520,1401,1654,-343,-519,-561,295,-383,1102,-1491,-12,984,-186,96,-493,2081,118,-66,88,-1294,-326,-1024,833,232,580,49,-1474,-474,-243,762,-654,1038,-1601,-108,-516,112,-1134,-2533,76,966,1199,1507,-180,-501,422,29,776,1347,1714,164,503,932,-1210,306,-419,488,-397,10,-257,1490,240,-1250,239,-1151,-217,871,-675,110,153,-791,22,-236,459,-1017,1876,-193,511,-233,-649,64,606,682,348,273,1323,1245,148,288,1349,-1287,65,1768,-754,-1208,1217,560,616,-624,-790,103,1004,-218,-827,-545,553,135,-281,2151,-107,297,247,-576,-676,417,269,726,827,615,1253,1401,-263,982,999,-706,571,987,914,794,-827,-305,354,1093,312,-602,-1500,260,725,-1102,534,-176,487,-335,1359,646,327,-12,-119,1065,-646,1773,-1034,-713,-234,812,-801,154,-42,72,346,-339,-432,977,1535,-223,705,1436,2238,655,-26,-94,412,1137,-1456,877,1709,-284,1868,590,675,-1,865,460,200,-359,-461,-674,369,-1613,-245,818,294,783,746,-184,615,-1660,-353,-83,-126,465,1414,-143,852,540,-2694,396,-301,-34,-50,1618,1558,450,578,1088,62,-469,881,857,54,163,2767,1843,387,63,1786,-646,-83,1188,-585,503,-803,-835,-123,-36,217,-21,-145,1208,1041,60,-391,511,650,-1827,435,-315,2,-152,554,1188,-541,-1800,-355,768,-737,97,-943,675,221,1059,-589,-661,-161,226,1374,859,-806,406,218,-1777,28,639,975,454,-69,-389,342,515,1372,1387,156,520,1720,1685,-938,-117,-163,-938,381,-245,839,-321,-28,69,-386,-291,433,269,-1042,-759,-54,-652,-602,33,-139,-898,-586,77,261,47,-475,-833,295,-785,-443,-1114,167,1475,66,426,376,-861,-957,296,741,570,-133,-429,-587,682,40,-689,74,605,-76,-512,387,-579,-869,634,4,726,857,421,-328,169,-499,-589,-746,129,-422,615,0,-161,-179,662,-591,-97,-61,1087,925,-920,-109,1049,246,-39,651,-672,-2106,-216,48,-762,941,196,-297,10,50,-935,-248,-274,-1018,-684,967,389,237,-1056,867,19,469,-467,863,1133,443,-195,1558,-651,-847,-807,-32,243,298,519,805,-121,-95,912,-872,817,23,-629,-159,877,-857,987,-127,628,-544,-776,-363,1016,-668,-598,472,201,333,-235,468,209,340,-281,-1123,-250,741,1017,-249,530,419,641,513,751,932,70,328,-710,-1260,-614,531,-700,-835,-660,550,318,-600,599,-15,5,434,-246,88,721,316,1108,-298,862,941,394,768,-268,489,21,190,122,-178,-190,-85,-1508,540,-315,-420,1074,-1860,-456,531,109,836,597,-634,68,348,558,313,-470,600,425,-565,-1383,499,-808,-545,-376,1238,347,93,904,-612,-53,-106,740,119,193,733,561,780,1034,289,-605,1130,-497,-330,1072,907,-637,179,288,1007,-172,-263,1056,-540,-14,251,-1003,-396,442,-350,332,-312,-502,614,-201,-685,171,595,290,854,-107,-1850,1475,-448,298,431,-349,44,2,424,470,644,-383,679,-1485,458,-1122,-645,834,-812,402,757,204,-643,-709,-160,584,-71,257,-345,-278,-62,-447,1401,-671,-109,-93,89,-406,-1525,197,286,967,-1649,-171,-889,1232,495,928,508,6,84,2192,-167,872,-12,-740,465,-215,489,-603,489,-760,-608,306,-170,420,-1142,-213,69,1293,317,-900,129,-92,1900,511,267,35,452,1150,-80,2,1,372,1225,669,-888,-114,51,-227,-1221,667,-111,-493,-660,-469,-910,385,-560,145,376,769,819,-30,165,748,-344,662,-614,372,1686,-566,111,-353,-1,97,984,-224,1227,-1243,347,1774,-1844,-481,1482,1333,730,-701,612,-1802,796,-405,-301,498,1186,1073,-313,1084,-551,1792,-52,-152,-1110,790,-1769,252,243,568,1496,-430,-484,-993,-672,131,-193,740,842,505,323,744,-99,400,733,1318,-502,912,834,690,447,308,1091,-541,-274,951,-269,267,418,225,-694,-613,165,-127,-611,355,-1084,64,-771,-344,-1293,-107,-1144,-1438,-1397,-674,666,-789,-619,176,1276,-121,-843,509,-25,554,-761,177,-212,24,-883,108,77,-531,77,-91,-114,1561,295,196,236,-920,35,726,660,-428,-289,-464,-67,1027,-1036,-1552,-193,-140,154,587,848,549,749,1013,304,-143,-833,-46,181,-428,-1522,490,-560,67,1029,1033,1095,831,1155,376,-1032,198,159,-68,240,493,-304,65,-497,484,-982,331,353,-1813,824,-85,475,-616,868,1670,142,-1091,-22,1120,733,-779,580,365,12,796,-263,-71,-266,-310,-633,-1323,324,-354,-776,-243,-1347,-124,758,-574,251,1065,-1583,573,-367,-1144,-1092,-1036,-368,-374,-267,945,898,-150,-570,522,131,-880,-44,-153,-431,529,607,-1292,562,76,-247,145,387,202,196,199,-331,-689,1410,-1595,-339,425,501,-908,-1875,-162,320,-273,-895,-188,126,-472,953,441,-551,-502,126,179,-266,511,-40,-1188,181,118,253,-91,-138,-935,1340,-387,141,-464,227,609,-753,786,-1865,1016,53,-107,18,1030,77,1311,74,1139,-1099,-306,-780,155,-996,381,-294,-771,1364,-146,100,-39,-348,-924,-823,-491,719,837,-1142,-583,-215,-1157,-1674,-414,-329,1273,633,258,791,-38,-1579,-381,1124,328,309,-889,-876,325,1219,-332,836,228,842,691,-1360,1542,106,237,-822,1162,-506,-574,-593,794,-353,18,-435,1195,1284,-1698,928,-730,-177,861,544,290,-550,243,660,393,573,763,674,750,-715,1444,355,673,470,-970,-1373,-522,87,623,806,282,-845,-233,405,776,442,660,165,607,875,-705,1055,-900,1120,112,778,19,1280,390,-822,-462,-783,-422,-574,-1349,598,-1214,-482,-385,-311,772,-748,-383,-921,-2025,295,718,-1865,-293,857,927,768,202,1071,496,402,874,-496,414,-91,1997,607,553,-1636,1301,1585,249,-592,-218,-1263,840,93,342,364,248,109,-338,461,-1277,-1618,1557,456,939,842,-366,1001,1450,-886,-132,162,-810,195,-321,261,760,208,656,413,629,518,328,1110,-666,723,617,1306,563,-575,-832,517,46,197,725,397,289,379,-770,392,781,615,-166,-1064,-321,-371,-78,-770,840,-982,-808,-11,-52,-347,460,-754,-1051,1246,815,-531,-937,543,-792,1083,-1144,-490,1,-2125,-133,237,-1733,-704,-1874,-207,922,-209,155,-261,-1098,-456,-157,-1003,1430,468,-20,-983,381,-993,840,79,-161,-396,58,-1339,-635,-81,-47,569,-38,-290,182,-260,318,-163,-765,-1129,199,-1135,518,-173,-1020,-17,380,1082,-829,783,0,-205,724,436,15,690,-535,864,383,702,126,-534,-88,74,555,468,-869,-54,555,228,-1154,922,-888,109,251,1071,-31,1849,473,-983,789,260,-52,1129,-742,691,-386,-636,-318,171,-1397,70,153,581,338,579,-846,157,17,303,890,-274,-252,1314,-254,-1052,2072,419,1330,-511,217,67,917,1192,-91,295,1470,-263,87,1233,386,-1131,285,-477,-69,1161,-511,503,-346,-438,1374,706,759,1049,-524,-1114,-1102,-96,49,685,-145,312,1085,-903,-532,98,444,489,586,-126,-102,48,151,-81,-222,-617,728,902,140,827,-584,538,-256,-481,-366,793,-9,-8,-562,-281,142,-175,-162,692,327,360,-1500,43,-583,-215,162,561,-377,627,-223,973,-110,135,227,-851,-705,1259,-1063,-353,77,-9,80,-970,286,-485,-92,-720,-643,-342,-645,-1142,332,1228,1060,-157,784,-1861,-595,-409,-158,-221,621,-1310,-1000,107,489,-1108,113,614,876,477,714,-502,-602,850,-202,-252,-1175,301,-945,-499,1260,2,-113,513,-1435,1581,1119,281,134,101,-51,-47,-1159,-509,958,465,1203,-1439,-722,923,-773,-1298,353,931,64,704,-888,365,380,-1207,224,18,-161,-963,-464,-782,-350,687,-733,542,-1017,-1016,192,742,-1362,-627,404,131,-231,781,-489,364,503,723,-605,-791,310,1072,-1607,1598,-892,-418,-555,57,-1245,1267,683,442,479,724,1361,-626,74,-448,-275,1367,1861,232,-838,1153,-637,1061,-451,-533,-235,1153,582,1962,711,366,2022,645,835,451,415,421,1946,1090,567,944,-298,650,262,242,-240,417,-645,-462,-939,1305,305,252,-196,-667,475,317,1250,-15,-1660,-171,-200,-376,-37,989,1136,1224,-61,-897,-722,-1531,-648,-1334,922,1040,83,249,-1278,-1011,-692,965,-737,337,-1144,335,-267,-1012,1049,506,-355,326,435,1725,468,131,998,251,-1509,-804,-108,-435,-1096,-727,488,-1192,623,781,21,-928,1596,-1866,-225,894,1041,1038,-1369,211,455,1061,-1040,-584,246,-159,530,428,529,-428,-435,-162,-850,433,-137,972,384,-17,729,-276,523,-127,-687,42,142,-485,-442,-535,674,-801,-911,399,110,859,1734,-105,-955,520,453,-380,-786,446,1004,538,-723,-86,486,745,-559,-410,1172,654,-298,683,-962,-95,-533,-262,-1076,-993,476,-65,148,-346,287,-370,-777,-1640,52,-461,324,-425,-285,-1292,-1203,-751,483,-256,-1314,-323,503,10,-659,675,-186,1905,674,576,29,-114,-921,198,360,-187,-240,-33,269,1023,-372,508,-138,-635,90,527,-662,-943,-980,-888,-989,-693,-717,183,-1391,-1172,445,1001,74,1088,-968,736,547,755,-751,-142,-1529,-934,1503,-1550,896,-234,-896,-106,-1284,-116,-156,180,-148,505,-3,-424,-171,-752,209,-701,560,524,608,108,-417,-106,738,453,439,79,350,304,1026,746,375,-145,828,-637,700,482,-553,364,369,-109,-87,1339,-1087,-131,932,761,653,1172,-1407,-517,-1243,763,767,277,271,-2279,-320,811,137,1612,-159,856,-259,725,414,485,-401,-900,110,140,742,-210,-280,737,-383,1018,-887,-803,1284,-1414,-61,397,117,-416,-1398,522,-1503,-503,370,-1062,526,-1289,1637,-753,-1167,398,740,-149,1326,294,1251,99,1140,-408,743,-221,102,-118,-1332,-311,-235,-1013,-1014,-389,-453,-722,-488,1410,1718,462,-208,145,-305,-612,-870,136,1401,337,-64,172,262,207,1271,60,338,-776,-46,561,359,1979,30,-281,-622,-444,-827,1316,1493,644,1247,-1152,604,1076,1084,-853,1447,207,-45,-1303,1198,-440,57,2159,-164,1034,-1169,-665,1318,2540,339,155,657,-1025,-359,-549,669,-153,-295,609,-814,-805,554,85,-55,-606,-258,-684,899,921,102,226,80,3,101,420,663,940,-174,573,-247,188,567,-1107,-288,-48,601,-229,1110,-369,778,109,558,-396,-565,-215,-554,765,845,-7,289,278,182,352,366,91,-1013,-58,-672,-148,408,488,401,-643,-674,-285,312,-628,-1130,71,709,801,1489,-58,930,-397,-947,605,-613,-330,-954,-427,462,-85,-1025,3,-326,833,-799,674,-1628,149,-601,1024,195,-257,313,-412,-1027,1062,436,541,1302,-146,632,-301,-961,-931,75,-1381,-148,1373,-34,538,462,7,-356,-172,297,498,767,48,231,-665,121,61,-512,-184,27,-811,441,-296,162,-1052,822,-585,541,-958,-282,-85,205,588,322,551,-14,-154,787,604,-1027,137,1076,707,146,499,-300,-760,-494,-708,1811,-180,174,1085,328,369,-155,-1283,-1016,1156,1,253,-1646,1588,-62,-147,1155,-1752,184,511,-911,-29,228,-434,-704,-633,1060,405,1279,-35,-281,-315,-459,559,1948,-382,724,1391,1135,-933,1112,714,2446,1131,344,-157,-255,-170,422,-1373,761,-101,-275,272,-604,1018,-1951,599,-55,-815,-648,616,960,1411,-2261,-408,1163,-237,-57,100,812,2055,94,320,-665,176,-1782,570,909,-451,959,-985,-847,-714,603,-223,-812,-1472,-937,1444,852,390,-465,-292,-1000,12,894,1767,109,880,1040,-340,-103,-1132,-176,-894,604,-446,1746,-616,171,607,-895,-450,236,-1496,4,-63,471,-1482,39,1475,1335,-91,-1258,399,138,302,470,1143,1059,-327,-910,-1358,553,113,455,500,432,7,-619,-24,-677,-493,860,-230,-643,123,608,-418,498,55,-87,-863,791,-921,923,919,-1230,1209,-725,391,-485,536,-254,1104,-504,292,1085,-625,-819,-1201,-323,-88,-491,982,871,162,584,863,540,80,-364,147,-21,527,-1851,-285,296,796,-942,139,1081,1777,-332,884,236,-79,1005,-595,-1441,726,-48,-1243,606,-964,458,193,-680,-662,1140,430,258,480,1421,27,419,815,-812,429,1513,-316,-1676,408,394,-414,127,1083,-974,1068,2,-260,-58,902,638,-797,750,130,667,-150,-362,1395,1340,619,966,-395,762,203,-250,120,-1032,-1035,-935,-516,-24,-788,808,677,347,540,915,-593,567,364,308,-219,623,-13,468,-399,-160,222,-1260,133,-1130,481,556,-715,-246,251,7,588,1301,523,-433,-1439,-479,-1177,59,-908,-669,1339,-148,1145,-593,-243,473,-27,-247,224,-242,-287,199,-1825,-128,-125,394,316,-749,-429,-1004,-936,-1596,-585,-1016,673,1151,299,586,-114,930,-885,930,1256,-1758,731,654,-109,-1012,-288,-725,829,432,320,286,1097,468,-828,782,676,-999,912,-545,24,155,-1038,-800,-549,-595,1162,-622,866,-285,-33,122,-368,824,650,-209,385,897,-359,861,305,-44,-69,911,-460,361,774,879,141,981,966,1595,-270,99,33,495,-1971,-714,-644,560,-404,274,-514,628,160,346,-188,-27,162,659,515,536,-703,298,-124,512,269,294,131,-1056,37,-705,184,1070,-680,-425,1161,-702,-1056,389,511,-849,-990,-223,-68,-6,-373,-680,-1094,-155,-766,-905,1330,-1344,569,722,-931,-1217,-56,111,970,-460,-119,65,702,28,424,-147,-1067,176,-629,-250,1098,119,348,459,-861,393,-443,-2033,1233,282,1396,-12,332,1643,1085,-676,-2182,1343,1497,866,-312,824,-176,-369,2143,-1456,1135,-134,114,-36,-73,1405,488,-1492,408,346,-361,-990,-293,751,1241,-102,-831,715,471,-277,-518,937,127,-183,-464,2128,603,-1178,551,581,1202,446,-451,484,1079,598,83,-2,-1621,-150,1084,155,56,282,616,-127,-109,-980,-512,-467,-251,109,-108,-411,468,63,170,-846,769,1826,313,-1016,883,-650,556,1216,466,-588,-46,108,344,68,81,-613,209,-731,1680,112,-1014,189,1295,169,-237,963,1569,474,-213,647,-414,981,-467,-103,-83,787,118,1152,121,635,877,322,596,947,-50,-439,-1870,-568,908,148,-2274,1466,769,663,153,538,656,-1024,-493,-403,-259,-516,499,3,-2055,1190,457,-1128,216,-323,-712,228,1436,1947,462,-457,656,294,-858,490,-216,840,224,-420,474,-96,-700,-440,555,-42,-734,-902,-29,795,-835,-922,-718,489,-729,-982,-117,-301,-666,-1166,1265,-55,68,-546,813,371,-712,495,1188,-569,844,66,-906,-934,-448,464,329,-113,46,38,415,216,547,548,344,-1098,506,887,-505,1406,-1073,-578,-445,-1214,762,-285,-495,260,-69,-931,54,282,348,244,-495,-459,-465,50,-969,-332,-937,1133,-574,-378,30,-493,-1103,-64,1076,-584,1145,-945,-687,-870,-278,605,376,385,682,506,-1205,-890,964,-468,-1263,457,716,-976,-1133,135,-617,-571,-122,574,559,-850,-582,-929,321,-321,-396,-515,796,1070,-1046,691,359,448,-790,-1141,312,616,775,-530,564,1276,-1045,860,-353,21,182,290,-660,-695,-261,-657,1332,1141,195,1048,-192,16,836,-211,444,34,1307,-9,-1259,-274,730,-1075,807,1048,-91,669,413,-351,832,1268,-1153,1164,-312,656,-737,685,471,820,93,-70,832,-123,-258,-1059,-158,-1047,450,-113,509,247,-63,-54,-684,410,-154,-295,-755,252,-535,509,766,-435,633,59,-728,-398,-1014,494,948,315,357,340,205,189,921,533,-26,185,1245,71,1493,-351,1724,-1885,-703,-69,-423,-332,687,-562,1566,-674,1237,-11,-482,-659,810,953,723,716,-657,701,-643,-827,-527,-1615,276,-1383,-982,-638,-964,-780,336,681,-383,-508,287,-469,-656,5,598,348,-651,-1304,429,-1110,1513,697,239,385,881,-406,-754,-752,523,-380,-609,-102,-496,-321,-391,-855,961,473,-1307,1191,-192,-379,731,-407,1131,1138,194,-166,-159,-51,-27,-312,1546,497,-292,1050,1029,1448,1208,-174,890,-449,153,280,-587,1307,584,101,848,-64,714,-1718,642,-381,207,1005,-256,-871,187,-1151,-491,-516,-893,-323,-1236,769,-940,1046,437,256,-232,-381,1360,21,-880,849,-557,-929,-556,435,-454,242,137,97,333,-410,1507,509,-355,-326,1762,122,1571,669,853,-556,354,-632,643,242,537,-756,59,663,-1204,-235,90,686,978,-286,-437,82,-802,957,-870,148,-439,522,-551,-489,-157,-1671,325,1091,166,255,-980,-968,382,-258,494,1009,666,-196,301,-712,-87,-579,-213,979,370,-886,353,-94,-729,-1509,-502,848,-695,983,-164,403,460,-407,-777,442,827,1028,622,34,-33,736,-349,-581,748,-757,-100,546,-395,778,803,-43,-228,1404,409,-467,279,-1842,521,-109,344,-533,-922,-835,-1100,1354,-248,-441,823,655,324,-603,196,-1067,1386,1120,1105,56,746,44,-118,806,357,246,254,-970,114,193,-134,-768,424,754,514,-401,361,421,-720,771,-257,-1089,687,-138,-470,502,386,-985,-43,599,207,880,-942,-105,798,428,-379,222,-317,-285,347,-238,-294,784,165,856,-485,-438,243,-447,959,-647,537,731,-454,-979,96,-898,-460,456,714,-442,841,-658,-456,36,152,-892,910,-19,889,439,1014,-908,626,99,-608,640,-626,-1078,-290,531,102,-40,-458,-214,687,-647,103,434,-102,225,774,273,-218,1033,-310,-373,220,1055,28,-591,302,-192,1554,-167,-357,1115,-95,-889,1375,705,438,-240,1057,652,-291,116,-1336,702,373,-377,1041,-790,1142,-723,517,-338,349,-190,-598,-656,-669,-727,-884,-796,-414,-183,840,747,-182,-771,-545,1057,83,-83,405,443,-694,-226,-802,-147,550,538,821,-839,-857,1332,-263,-645,-862,496,-288,322,-1211,-111,-251,357,627,304,120,-1725,301,598,122,382,597,778,-182,-1607,-53,1235,-680,-692,436,-102,312,262,-538,-460,1038,-374,-2244,-423,104,440,-1314,629,44,-706,-756,-588,-585,-31,316,966,531,-39,220,852,521,151,-976,1939,-30,561,285,334,529,-735,110,892,327,-1784,-542,1547,-987,-960,910,-19,948,2232,1012,1732,298,673,402,-254,333,1077,-1086,-49,-843,364,-799,-500,883,-1076,848,516,-245,327,-664,215,-250,20,586,-1221,853,-674,1992,-591,-706,-1861,-484,-278,-519,-1188,807,936,333,-788,-146,422,-412,963,81,-693,-2742,-1199,775,-1506,-551,-778,-250,