#include "tinytensor_lstm_layer.h"
#include "tinytensor_conv_layer.h"
#include "tinytensor_fullyconnected_layer.h"
#include "tinytensor_math.h"
#include "tinytensor_net.h"
const static uint32_t LSTM_01_input_dims[4] = {1,1,1,40};
const static uint32_t LSTM_01_output_dims[4] = {1,1,1,48};
const static Weight_t __attribute__((section(".weights"))) LSTM_01_weights_input_gate_x[4224] = {-25,-1947,449,-543,365,-1161,169,371,-1039,-897,-56,-1725,-1400,-1674,-1550,-403,-459,-99,-396,-1851,-407,935,720,1071,214,143,-1046,-109,412,-113,-998,-221,-1059,-1310,-330,-296,-831,-76,-2112,-2515,1195,822,13,1442,-148,1061,474,-68,-509,456,1100,384,377,-1472,-1841,1019,-829,-203,246,-780,622,-569,1929,985,1192,-339,-484,1753,1093,410,58,569,1467,433,-1634,997,-437,1447,22,-637,-438,-461,-1720,-67,-334,595,627,417,-2600,-1618,-1026,-1445,-209,724,-469,-229,841,564,-114,248,-829,102,259,736,308,-1281,-687,-261,615,-1050,-556,-347,1083,-927,613,509,843,461,-699,282,990,-106,303,812,449,422,1654,1591,177,-824,-130,-790,500,74,-1125,-1308,1779,1738,-1023,-2128,2164,-688,-772,324,1188,919,-928,-644,292,235,486,1237,668,526,1994,1256,-418,-15,-431,1531,1041,512,-212,1236,-810,2083,-467,165,-432,-187,676,231,1113,1149,-505,-120,-842,-70,1066,-314,-290,816,779,-329,565,-783,470,577,272,-373,192,1673,1289,1543,-6,538,227,-649,921,-682,-168,-350,970,-482,-342,-1329,-54,-505,444,239,12,-516,-296,-398,-580,-82,638,279,558,1231,-388,759,568,5,-879,-1248,-1764,738,-50,926,150,-837,-318,-994,-205,1009,-297,1150,-558,-537,851,-1212,-765,-499,127,1023,1303,400,-366,94,521,-1044,284,712,179,460,1076,-711,1343,475,955,-901,333,897,1681,94,433,-552,-218,-666,-589,-1018,326,240,-551,-1169,487,-606,341,271,501,-1101,-1170,10,202,-1423,-141,-410,23,-549,-1536,253,-1652,290,124,-433,-11,602,-1502,-384,547,-915,-444,-852,-127,443,460,811,1256,-131,-2032,-1088,-1517,-804,431,749,669,164,-874,-871,-192,-862,-625,-375,-1570,-776,1028,-1183,-1097,-147,12,1218,1635,751,535,562,473,-2220,-1135,-19,-610,952,-534,-931,1206,1996,161,467,141,-636,-149,-1022,324,1020,-839,-638,-152,1298,-192,323,-518,1501,560,114,948,706,1289,1684,390,117,1207,190,1820,1581,-354,1603,1675,292,1728,1463,1263,246,1307,1171,101,1818,-294,-325,1291,977,24,1643,220,-1140,-84,1762,-964,-492,-157,1663,230,1446,-70,-370,828,874,-20,52,-194,322,-1388,633,450,62,-972,623,405,-899,267,1109,1249,82,271,918,-457,-208,2135,-282,413,-1497,533,98,169,-937,-384,1278,-1031,-114,1588,-239,-78,1119,758,873,317,-1053,185,-1240,-1590,-1206,-606,-499,-195,-1353,289,-57,214,-1165,-477,-943,-640,-1058,13,281,-452,-1404,-439,-717,-702,80,-1031,-65,181,-635,1018,-271,95,391,261,371,872,598,280,1467,94,540,-984,-283,-1291,286,47,-514,-385,-1637,-184,136,-769,-1221,-91,483,-67,65,-1329,-567,489,-261,661,1001,350,659,196,1194,226,-523,315,-287,726,-63,-1589,971,1237,1190,-433,-578,1367,428,473,-469,486,1195,516,-1532,272,-1932,-125,-1135,-2344,-1855,-1074,268,24,13,-1029,-1337,-1457,-1828,-1588,-453,933,-56,-1,-1257,-848,374,1307,369,134,-637,381,574,405,-79,-225,94,-278,-852,155,-851,1279,769,674,-535,1507,970,-322,-50,3091,-9,2451,-65,827,-1531,-1649,-754,1537,349,-1168,-588,-628,-1661,707,-692,376,1127,1183,1972,-83,309,-888,-829,-73,532,22,1174,-1009,-1084,-327,-987,-780,425,684,1015,-713,586,-1897,2489,2165,1689,347,177,-478,-819,714,-1237,-754,224,65,-1458,-85,-1374,-197,-1204,-386,-462,-1094,-1514,171,-906,-1448,-611,-86,-44,-1143,-696,345,-198,-888,330,1001,857,-602,-51,128,444,-498,166,728,55,770,218,-1232,404,-294,-309,806,2350,836,404,433,-1475,-855,1258,251,246,164,990,-971,-321,2132,1281,-1258,-784,-1941,395,728,647,317,-1628,-738,827,-1361,-261,605,-13,328,811,146,227,192,603,-748,558,775,1464,-246,169,213,-906,-1580,426,700,-1229,-1811,-1483,-1388,-1064,-474,-491,-1712,-1719,-936,372,343,-1571,-624,707,-891,-406,472,-640,-912,493,-69,-1010,-1435,-1027,-144,-877,596,-644,-851,-755,625,-684,-140,151,-1262,1235,365,700,-896,132,-528,1219,-555,-1259,-359,-2072,-894,751,31,-524,1259,-2092,-1150,251,-263,996,-809,863,299,1858,-1368,-1091,-221,687,-168,-383,-982,931,1957,1296,-73,813,1324,-1631,-502,-643,-248,-1076,-422,1146,503,-349,11,456,186,226,0,1406,1728,492,125,-1065,555,496,34,-415,1445,1341,187,-687,1077,612,1300,-38,1599,1401,768,-226,1288,1412,624,552,573,12,82,743,-12,1702,378,841,171,-372,-93,51,650,1080,696,463,-258,399,-73,518,777,1831,-1469,-1194,-947,-737,11,-551,-860,437,-542,444,220,287,-218,1657,279,763,259,1540,558,-217,-245,-1615,1344,-1004,-587,2048,372,587,-323,894,-391,-836,86,-1223,-1225,-458,-293,-834,-1368,-166,75,810,-932,-974,41,-586,153,-1248,-412,-1032,-1155,596,-415,-881,98,-670,131,44,-164,321,25,28,-234,1350,910,378,-466,276,-591,-399,-886,-953,-846,1193,409,53,-328,-347,-851,359,-1229,-1437,-1452,-631,-116,-1463,-1879,984,767,391,-186,315,1031,-830,443,-194,-694,606,670,1361,252,-1523,-1558,1425,-909,-1034,294,181,1441,-153,53,-1415,-186,-1408,-1269,-192,1052,51,291,237,-559,-1157,-27,364,-1108,46,374,-1352,-1193,421,-703,-1606,-766,-553,310,554,-1500,-483,-56,-1104,-482,101,-1108,-733,-37,-382,707,-611,325,-309,-289,462,611,313,899,128,-515,852,-214,389,-805,501,802,1558,-80,-186,473,1119,-442,730,-40,-565,547,619,610,-1099,-626,-812,-975,-304,-1429,400,-710,674,-132,92,-762,969,-718,685,2809,-912,-1,185,-868,-1401,1718,305,-629,-2417,1805,-605,1507,670,1541,980,1007,-181,-26,-1252,-1518,-1511,13,1753,1935,184,643,1178,-135,639,942,-1233,-1030,-1462,-397,-721,-36,938,591,97,410,287,770,1355,2037,1168,1480,-76,1298,529,162,-689,-339,608,-673,-283,53,-329,421,-123,-645,321,1308,-477,-90,20,-811,-402,68,-622,1022,-893,797,-164,-1618,-238,485,336,981,431,1661,578,673,1236,-341,-404,293,93,-2251,-537,-277,98,405,827,-27,163,258,1599,-1602,594,-2541,-881,-477,167,732,-651,803,1876,1051,505,-482,-177,1063,183,727,577,193,725,1538,-115,997,-429,495,237,109,-598,255,350,620,83,592,-634,-450,961,612,-343,-503,703,-435,-846,-524,65,-1446,429,-706,-175,-1716,-1273,671,-849,-2,-898,-1172,-759,-710,1009,794,-545,-1430,375,102,17,715,1284,-72,157,-883,-386,-151,-31,-660,563,-489,925,582,-254,548,-633,-415,1274,-544,708,-1166,-1993,1058,196,-2159,11,-1824,-154,-569,346,-1139,-511,-1502,-698,-701,-200,694,-656,225,-1122,-1240,412,29,-927,-1353,-865,-755,115,-1563,11,-236,-465,-1104,-459,643,1288,308,519,-219,-422,-1338,-515,364,-216,-749,783,-543,877,-580,161,-210,-279,1096,-728,-233,-75,1288,-629,1149,-145,160,836,849,726,-574,1154,-426,-671,362,393,292,279,625,-119,-1555,650,779,247,682,-252,645,-554,573,-310,532,-148,-634,1401,828,-85,-295,-1131,361,-1179,-2006,121,-466,887,31,-1011,2524,-374,-200,-1535,100,-386,-477,-80,-275,948,-394,-404,1103,-336,-476,109,735,556,570,-184,456,1198,1078,768,1367,-611,578,-738,-357,595,-40,153,155,-1048,662,829,229,714,-851,-424,-907,-620,1501,-383,-732,-1930,-145,569,713,-323,-1802,452,3029,-2004,728,-1408,754,330,548,757,-75,-813,-1187,-1059,432,-1839,246,1102,394,555,210,-1566,-1854,108,459,-672,-388,748,526,717,-1396,-239,-582,413,840,-94,-15,1713,689,218,228,-1221,-784,-870,658,49,-83,-659,522,-1582,-1290,-17,15,1003,835,-758,-26,41,264,-1673,-694,360,669,97,-126,-709,1073,501,387,376,1066,920,928,1222,-932,787,-1204,888,-79,279,-489,-169,-975,-116,90,-771,-353,-85,10,-779,1004,-97,-1069,1086,579,-1046,-66,512,2071,314,83,1123,219,842,547,-411,720,-1057,679,805,-72,-2303,461,891,86,673,-869,1324,758,-638,-469,-429,-169,841,-281,867,31,179,2330,1883,1334,262,-674,-179,-244,-1259,-82,-714,1455,-134,715,-124,1227,1884,30,1644,1504,-156,-130,-239,621,1043,518,789,1643,1298,234,1064,752,1423,1143,1383,1658,216,500,1067,1295,491,-1880,-1323,-155,-356,-366,1024,272,1382,-116,-1550,599,-80,-640,1504,-469,872,-29,-1346,-387,753,91,1172,-461,1276,-501,-1920,-3326,839,-14,1262,772,1947,-2045,-498,500,-1307,-302,-1271,245,1201,-43,335,-949,852,-427,214,-171,-625,-1310,-1326,-1597,-868,101,-56,-2265,-747,137,897,336,1023,193,-846,-1645,268,-669,981,695,1283,-199,-1039,-1706,-309,363,456,75,490,42,-514,487,-1051,64,649,1929,1798,2526,730,1654,1774,564,156,184,-1781,-123,34,1135,335,65,-376,1030,-1228,406,-131,-338,2314,-741,-135,75,528,215,-35,961,-228,30,1650,1385,211,1205,-57,-1583,-1579,1215,-464,1153,892,1429,-40,-1194,-787,-11,1207,575,439,969,1603,-621,1033,1189,946,-450,1157,-60,359,760,-456,993,1376,657,843,-157,1475,1790,-59,-180,-187,475,-264,940,-294,1980,359,574,1381,159,1109,495,429,1527,-289,1423,679,1859,1280,1416,1072,535,2093,-1263,-163,1426,841,68,-150,1205,416,1214,-742,614,-526,-762,834,760,175,-77,-22,-680,-224,614,1492,-782,572,-93,-981,-84,506,502,-225,-1116,-222,264,-795,-263,-1680,-686,-2385,184,-874,155,-286,22,-710,53,405,-271,333,242,1093,-632,-616,150,-838,1178,-786,-370,1449,1435,352,978,-172,1569,947,134,1206,-249,1160,-455,1426,1415,-167,-191,-98,-323,-117,1020,418,-46,-140,-645,219,15,906,533,-1034,-129,-1035,324,-1612,-1011,169,-695,-785,1079,-1566,-1462,-246,-880,1880,21,205,-1129,158,-212,522,-289,616,-432,-705,-215,-1163,148,840,1123,1394,524,-2412,-262,-288,-742,-156,1668,-267,564,-1756,-408,-1255,-406,-308,51,1391,1625,2000,-1463,-757,35,828,1339,920,834,338,556,215,1032,93,-248,196,51,395,1339,1325,-415,-137,194,1465,345,-269,371,485,266,1637,611,1311,271,-29,1886,1652,967,2026,232,1858,1004,2143,2116,724,-290,-960,370,977,-292,452,1308,902,872,-243,-874,-51,680,16,1190,-282,132,703,-1162,528,-777,-1164,-174,1493,-126,-412,-441,462,-412,1114,-130,-225,221,-242,1422,-1029,-135,-619,-195,-595,-823,822,-769,-295,569,-718,375,-540,636,1403,784,-741,-151,-618,-357,-290,-1076,390,-959,459,1347,-84,1112,1250,-133,-429,162,-1225,-897,-47,-1143,-1020,861,-835,775,731,896,650,790,-75,-490,562,-580,843,181,1142,609,1755,-384,446,-1306,-1401,301,-870,-698,-765,692,-997,829,45,1067,-53,-1112,-912,686,1043,56,-1410,683,-979,-539,-755,1393,1429,1466,-209,-749,-1566,-1539,-1627,-132,1052,-562,1646,425,347,-821,-1981,74,160,9,-1402,1027,2155,163,1329,-8,-97,-514,1441,541,1183,1245,720,33,-258,-949,-55,319,1144,585,-838,615,809,-1236,-417,-210,-419,-742,-1104,67,-599,1079,-6,629,1412,345,1532,989,921,1056,-685,-421,-38,-1247,-949,1098,451,-286,1517,-922,-1922,968,-964,1411,-97,-338,1725,984,887,1326,-552,-1259,-823,38,-320,-1201,509,-31,391,-388,872,685,-51,475,-741,1272,1336,-586,918,-110,-991,-598,80,2557,912,1065,865,-2438,-1548,-1406,93,388,-425,492,1473,864,1360,658,-343,1555,-441,638,-385,1779,69,378,855,895,552,-106,783,416,-11,157,648,150,770,481,1370,917,-52,1439,209,1024,736,545,1337,524,1375,-41,-240,1242,1625,821,526,-411,45,70,441,629,-39,-180,-1010,-207,-1122,1905,-54,-532,172,-249,-1397,-1217,768,558,94,-1167,411,991,-1389,1613,1017,-126,63,-622,368,-1201,-180,-433,29,807,85,1164,509,88,-538,608,1037,482,-657,-241,-1577,1642,388,657,-1416,-649,-1101,-774,-92,525,290,31,1323,-461,364,-122,-774,65,80,546,154,1037,-640,-658,-613,-781,1202,138,775,-84,-659,227,-816,1003,1028,840,288,778,528,-928,-448,834,-1698,-283,90,1471,1312,44,291,-570,-464,1684,-673,-1662,274,-581,-635,-265,881,-498,-570,248,560,-1779,286,-644,-612,29,-517,195,-548,817,-435,23,791,-943,910,754,-1227,-233,-215,744,-71,961,-1210,382,1284,-613,-1218,354,1535,509,2399,1956,807,292,471,1043,1383,400,-1257,428,-316,21,-492,75,-932,410,666,342,-199,-1266,-611,742,234,-256,-19,-1535,-525,347,-485,67,664,-814,-1228,-795,-636,-221,-541,591,852,1124,85,-146,1246,-144,-441,-1309,1902,831,911,1721,-1063,679,900,573,-790,-6,25,472,708,642,-102,998,-1344,-1131,1130,99,719,-532,-76,-292,1146,-1109,1483,248,-726,-665,596,-1253,-554,-19,501,857,-385,-1466,1401,-864,-160,-803,-60,-1023,-967,-1020,204,-930,-1572,-1664,1067,-476,637,1078,778,-685,-726,863,558,461,-518,126,-1068,-644,1087,-373,1545,-502,-291,-552,158,261,804,-274,-235,-1883,-1074,-25,-503,-157,-1072,-839,-681,1481,22,-628,-420,-317,-65,212,-95,445,315,-883,311,1344,-944,606,716,539,-431,1992,456,1163,1197,-128,-333,576,-9,-914,-1350,877,900,-1019,146,132,-746,1017,-1377,174,-261,-80,-171,-884,-447,-501,932,-1206,-2247,-796,1182,1391,2126,1613,708,2226,517,995,1178,430,486,844,697,-456,861,1134,920,1474,-571,804,143,980,862,-511,-33,773,1281,1087,679,-535,397,121,1832,1294,189,327,1057,1268,658,240,-206,1524,-46,-492,668,-745,154,1078,-435,-909,-841,-1469,37,704,358,-1517,984,768,303,661,1216,-533,-1605,283,671,-1620,-498,-2911,-205,274,-454,321,262,-312,1058,-832,992,-238,336,-71,-97,-113,2101,-768,477,-504,579,1694,378,-746,-820,992,-2,548,-289,1042,-271,-300,747,-201,820,-299,96,-204,1393,440,-230,803,-487,1495,444,794,-465,312,353,365,-109,674,-332,712,10,1353,-201,1487,649,-1301,-712,-967,-219,-1227,-1182,1242,-288,905,-1030,1327,-868,-812,-381,-1447,625,201,1549,-508,-675,353,584,-1294,-294,-391,-925,-7,-644,-1098,1231,686,-215,-1368,422,563,-1556,735,-985,-96,-1534,-242,495,1015,-912,-583,16,-79,-1854,839,-558,979,-607,-1450,-5,-1100,-1500,-719,-812,162,-1365,-374,780,533,41,118,352,-1428,-292,-291,-880,-157,-1850,-1767,-1435,-1155,491,70,-67,-1502,17,-1680,-191,353,-399,-668,-1715,-1580,-1929,761,-783,-385,660,226,-879,-1079,-1216,195,342,264,-416,-88,-564,-693,-260,23,-513,832,-160,-447,91,115,49,-741,-9,405,-1817,1116,1308,-2037,-713,-473,1017,195,-221,-674,202,-1132,-567,-1381,-30,409,-1025,191,-1766,-211,-339,-907,-1082,-1612,421,1053,1112,160,-1015,-370,634,142,1654,646,1134,-586,593,-446,-361,320,-644,-625,-1437,-1420,-832,-1686,583,618,-129,462,-1085,733,-863,1035,-375,-1051,-772,960,818,-672,883,626,1764,634,-179,250,-494,23,-13,-1816,603,-586,446,466,1506,399,-375,2198,585,742,-489,1025,624,-3,1317,398,-29,69,81,-396,392,-174,-1947,419,-443,822,-1063,408,2183,1887,63,-1249,-1883,-178,-1131,98,57,-983,451,1238,867,828,1647,1548,578,1265,690,1793,1958,1823,169,1681,1322,1314,1654,-130,842,1495,2615,2539,891,1082,2116,676,-141,1606,981,-22,759,292,419,607,88,692,512,1189,-171,148,167,168,-567,1131,724,143,-255,998,-50,209,-215,1045,361,-319,-98,-616,-609,-1193,393,1001,2043,354,-819,-1761,846,1526,794,-841,1137,-451,-745,-1300,1676,-1482,209,-252,-162,-144,1133,-705,221,1223,-76,631,-387,-42,-118,-279,-272,-416,-2264,155,-748,1632,16,1603,1722,2012,940,803,1039,885,1009,1141,722,1520,910,-568,-203,-250,467,173,928,5,1011,422,-1078,140,-747,54,-20,-1010,-810,1329,397,951,-238,1001,775,1050,-1188,214,577,1190,53,-134,-1398,-991,-961,837,430,-999,-291,-521,435,-758,1653,-243,-338,1271,1782,-944,-97,1278,590,-698,-555,-771,720,-2020,767,804,-1078,-741,767,1622,2157,2408,341,-544,-16,506,191,849,2400,-136,-426,-172,794,-138,14,-686,803,-514,-878,310,98,1865,1452,1251,232,810,699,1081,799,326,-520,-1299,-1160,-780,-1745,233,266,-1412,-297,331,170,203,-1401,-200,530,857,768,617,829,1818,910,2232,-495,-413,-2564,-342,-1052,-1210,-848,-184,-1356,695,1189,-355,-1159,122,428,-804,-1109,335,-95,-557,300,-131,-1338,955,-379,364,-1637,785,99,-1672,539,1157,-964,1673,103,-911,305,-546,-192,-849,-819,182,-203,1648,1187,-142,-706,1236,-273,303,316,-84,1116,-3,285,968,190,1076,674,76,47,-69,883,764,-620,-198,78,1565,559,585,1744,-514,1212,-515,1588,27,935,841,350,2604,1939,2007,262,1070,830,1228,-530,63,-840,475,-242,140,-541,638,529,-599,-137,293,298,-1361,393,-964,232,1639,-902,122,-752,-831,-891,-263,417,303,807,368,-1967,1219,550,695,-156,-991,-1553,-559,14,798,528,-933,-363,1086,364,-749,800,1532,535,12,-1555,394,1268,1332,1063,-996,-457,-514,-580,-988,43,817,79,-293,-358,-37,-99,1290,404,-1053,-412,-928,-1226,-267,-445,-859,-190,-563,-429,-794,-834,-1421,150,511,-549,253,-305,-1415,-148,-1580,-829,1111,498,39,907,468,580,-1091,-2770,1005,-1605,-424,513,-731,-261,91,536,1270,59,1348,-717,-641,132,148,3,-924,-135,318,-2847,-462,456,520,-1169,-59,805,415,-332,-464,819,-1219,-960,938,-1117,-1019,46,-937,-278,1698,490,1131,1155,759,355,-5,975,815,1539,1036,1564,-523,549,244,663,-67,-245,1456,2200,790,1829,1032,-19,489,487,-249,471,-326,-169,213,465,1412,694,1857,415,428,2226,1712,2084,1697,882,-1457,-1619,430,-104,-451,-1635,-730,-917,890,-696,-492,-245,-235,482,44,-223,-694,-986,-2173,-1437,482,771,-812,1101,62,-1104,-759,1355,322,327,-913,-131,-563,34,581,-566,-926,290,-1225,1080,713,72,-524,-305,447,-1933,1650,-596,133,929,348,-1415,-245,-327,441,543,-416,-522,-842,-1209,-34,-1300,-1764,-241,-1426,-534,458,-150,169,3,740,-1257,-384,-144,485,498,380,75,-1552,-2008,-1052,-1194,-440,-977,-906,-238,-255,-1547,828,1356,333,-1389,1072,-50,916,-235,-567,1715,-792,-889,1466,-1793,-124,820,-883,119,-1486,30,-1348,-1688,-285,371,-72,775,-357,-163,-144,-1463,-6,-743,1623,-16,420,1208,-403,786,459,-1322,-142,-542,-29,1249,-1176,68,-964,237,-1197,-606,1218,484,1106,-606,-770,-46,627,-170,491,631,1540,-762,649,902,-254,-325,22,-548,625,-550,-743,-463,-50,-1231,-918,-892,262,-817,-936,-900,-50,-692,254,212,-740,-672,-47,-794,528,138,-504,-1454,403,-1365,126,-237,-1221,-1013,-1364,-2609,-1807,916,919,-592,238,380,-322,-2010,-429,-923,546,-25,1763,341,1298,-2034,-3165,-1091,-1007,1919,935,508,654,1333,1449,1962,-2156,-512,-696,-2119,1162,-379,-934,1651,-2822,-570,668,-1188,-583,1618,1815,735,1597,252,988,566,1102,-597,854,120,-295,218,864,32,670,-99,-365,610,40,1021,1639,203,435,-60,1293,1259,511,-754,831,-1017,-502,-341,547,863,1139,-885,960,-640,-1417,-1915,-551,92,767,-2173,1092,-1829,-3128,873,-286,386,768,-3066,-1777,-369,-61,-841,121,-324,-1545,1146,519,1376,2723,-360,-2594,-2451,-1108,1255,1905,-1950,-361,1476,3040,3866,885,-534,610,211,2038,-2877,-566,2743,-1440,-543,1806,1002,1391,140,-352,1756,-67,714,1049,1453,898,1353,211,1053,1013,23,1335,759,221,-1633,-1914,-1542,-213,-329,-625,-819,-917,568,397,-507,-325,-860,355,658,1405,1762,1602,-186,1873,1554,81,94,-1113,-784,2522,565,-394,-273,1043,-1131,438,194,-395,46,-571,2,555,1732,-1576,-659,-376,38,48,-1133,1434,2255,1596,-639,600,-2545,-567,-1087,505,-899,1791,1486,954,1142,-1382,-392,-1594,497,1360,-2327,714,2763,-1999,-1563,-1830,-1412,239,1477,311,-736,-3,873,-966,-685,784,718,131,-343,542,749,856,-756,-498,918,315,544,-523,46,-326,-235,214,38,-770,516,578,-441,309,-398,407,-54,1416,1418,-228,-88,1493,2051,-1373,-862,-333,467,-161,-1136,-1088,1643,-770,-272,19,128,-1074,993,698,-847,-936,776,726,-1208,-43,-793,-461,-1395,-612,1762,2206,-156,-582,1551,637,-590,483,601,-1410,342,207,1735,-868,675,-105,1644,2360,-738,940,-124,-336,1548,1334,719,482,-1266,-446,-158,176,592,-335,-1221,332,1299,440,-491,189,477,-543,138,-59,469,107,750,-569,754,-803,-193,997,788,833,-140,1449,570,1464,1345,1458,505,1248,1573,-1318,-756,366,711,-742,504,-236,246,-343,-336,1166,832,-1002,267,-112,484,-1225,819,-1050,-908,-687,-110,-1420,1197,-398,-803,627,-267,-517,753,909,375,-2189,-693,-436,-236,-1466,-296,1013,-211,-259,-280,481,521,-410,-979,-119,1364,-132,-115,-1128,-495,-1390,538,-51,369,-510,72,-520,800,-1095,-1026,972,915,-687,-657,-148,-1784,-839,-974,-108,-872,-181,-352,-1635,-626,354,-1068,-161,-758,-405,-611,-643,-881,-760,-347,-737,-731,1277,214,259,-549,1882,1749,1721,-952,-1248,224,-1035,113,13,-629,-1250,-340,-1462,274,709,-141,2025,726,-1924,-798,510,534,-72,931,-572,363,-280,212,-1196,-2357,587,-104,-592,1337,215,97,932,498,-144,-259,-109,430,519,-236,-1422,-806,-1228,1408,1596,521,311,-71,2111,846,1216,-284,158,919,1157,128,1150,613,655,-488,-294,-68,-1219,564,106,51,693,1310,358,308,838,767,1128,-136,-111,339,1165,1024,475,1078,-172,-683,334,-1211,-612,-142,-1798,-1186,-799,-553,-854,-1587,383,863,-236,-1556,-681,259,-336,474,-489,-831,-84,-1107,708,-557,640,-226,250,-324,-1656,145,41,-776,-286,-146,776,247,373,275,524,648,-2371,-208,660,-658,-571,-900,978,-220,142,-154,1130,72,214,934,1249,1112,612,-1093,-556,825,-703,-126,103,134,-521,319,44,581,-798,-162,-525,-677,403,-1176,-403,1495,1241,-5,409,582,-766,715,529,125,1167,-1027,-882,-666,-247,-759,261,-1309,-1092,-221,-162,440,691,-128,-381,1956,2303,-357,133,-563,-41,690,124,-311,1016,921,-352,549,-81,-721,-1050,1201,589,659,-160,588,-1206,-369,637,-582,-148,-1894,-857,-1902,-1259,-350,-168,-4,692,-248,907,-918,-1050,-347,-624,247,1061,516,502,588,-679,-16,-40,-212,546,-612,-338,73,-188,208,423,1486,-649,1070,-310,840,93,-602,544,-740,207,347,937,435,1632,2044,841,585,912,2818,1905,598,4,-788,460,1802,-48,-1068,-758,982,1807,-512,687,-1457,-1654,-105,473,1183,-982,-2364,2275,-130,1052,-551,132,-232,942,798,1,-1434,-969,58,1095,-1446,1241,987,673,1926,-113,326,1212,873,809,232,1159,1544,-2657,-645};
const static uint32_t LSTM_01_weights_input_gate_dims[4] = {1,1,48,88};
const static ConstTensor_t LSTM_01_weights_input_gate = {&LSTM_01_weights_input_gate_x[0],&LSTM_01_weights_input_gate_dims[0],0};

const static Weight_t LSTM_01_biases_input_gate_x[48] = {-1537,-1538,2510,69,986,720,-1995,818,-1646,-16,588,1,-108,649,-166,-2651,-188,2624,-2797,3290,-1863,1555,-2134,1220,1946,-1313,-317,-240,58,-2585,-261,-59,864,-747,-398,793,1044,3275,-2138,-1776,-2298,-2966,698,2543,-944,560,2117,-675};
const static uint32_t LSTM_01_biases_input_gate_dims[4] = {1,1,1,48};
const static ConstTensor_t LSTM_01_biases_input_gate = {&LSTM_01_biases_input_gate_x[0],&LSTM_01_biases_input_gate_dims[0],2};

const static Weight_t __attribute__((section(".weights"))) LSTM_01_weights_cell_x[4224] = {97,-696,-72,-474,783,-966,-513,225,850,307,279,204,1791,506,-463,-93,580,492,1153,-674,-208,1159,-202,-495,-1019,149,607,-907,608,-552,515,-730,-818,-246,396,0,1615,1620,585,239,284,1132,-5,-235,-1069,-821,43,-988,-1228,-473,549,21,395,-2137,289,531,-167,492,326,-721,-1551,-1452,-67,-1617,1303,1990,2149,-997,-1529,-1016,-168,2188,704,194,-410,348,729,-220,-1403,332,-856,365,-73,-828,114,1497,-785,1073,-94,315,2207,1259,1531,69,2011,1367,-138,-127,-1503,-301,-411,404,-65,-1038,149,-1237,-1352,359,221,1215,943,-249,-180,-109,-530,-793,134,-515,-135,398,1258,817,1041,923,-505,-782,424,-1026,135,355,769,-766,373,374,630,-1004,253,1504,-327,-481,1000,-2355,-623,1020,323,799,478,3,-75,-1553,245,-1071,182,-227,390,878,-524,-738,172,-202,-138,1398,363,1038,209,-21,-1027,-651,-1076,-323,-163,2240,-289,713,-1272,1490,-1069,1398,42,163,-171,-1697,-1370,581,-98,-174,-854,1783,500,-258,-300,-304,1122,1032,576,-2,564,-826,-349,375,-1165,169,1060,263,-869,266,-463,860,1391,784,1004,-1052,-1032,-944,-1278,-1556,-710,1432,176,1094,-811,919,-1032,965,-1321,-162,-449,-245,-469,657,377,311,-1409,-1035,655,908,-622,640,-249,1280,-603,-1297,-389,476,-321,1130,262,14,-1176,1961,-919,-463,694,63,-183,1920,-528,-816,-1018,1062,1099,-1075,-78,407,2008,2340,348,168,-83,-396,734,704,-17,-1016,360,-70,526,1243,410,1408,-341,602,1003,131,-970,642,190,86,632,-505,118,51,674,-289,615,-751,369,583,-375,184,-74,652,-1723,-958,-615,-947,663,-1761,211,-268,167,-233,-888,-2239,-834,-183,395,576,-898,-891,-82,304,-538,775,246,1442,-816,122,89,-1159,-993,-95,-170,620,739,1093,-1116,-956,-1895,-780,-107,-129,1603,971,1407,-1286,1232,201,665,211,1171,-512,-1870,-812,117,-980,-1340,-293,575,-1100,-1200,-1082,-383,188,116,-1299,-793,-1430,-1113,-501,-254,612,-533,902,857,-55,-731,1130,93,711,-153,-803,-1539,-1082,-128,317,-80,-528,-1278,1076,1073,-512,-334,1219,815,787,210,1570,64,668,-134,478,63,741,125,-103,-775,-198,242,-606,960,646,1815,495,2179,138,884,754,-295,1341,831,211,-384,-549,1641,878,-569,-125,-2045,-1113,1857,-174,818,-57,-748,728,-462,665,567,231,857,1471,-76,-674,66,-659,-652,-1039,-209,-931,-883,1104,125,311,521,778,414,-771,-686,912,-650,408,834,-574,-769,1019,-62,-232,712,117,-49,61,456,507,-39,-916,-128,-85,275,396,-707,2047,1171,-194,-1784,-56,5,-652,11,2953,1350,275,779,164,-103,1580,-224,-160,-1052,390,-215,186,281,-77,870,-86,302,-1290,-373,92,136,-199,1072,2576,10,503,-191,-78,-706,-72,1400,-353,-1968,1119,-531,451,247,1597,-654,218,-1180,-991,-1238,-746,-259,97,233,-1049,-1136,1277,-162,312,-374,185,-1153,-1005,14,1211,742,-888,1029,-36,-254,1037,-15,680,415,223,942,1177,1535,1045,1020,-413,401,-145,-1289,695,-1086,265,733,34,362,1158,-141,-194,971,-126,320,754,556,492,782,-892,1278,-560,-487,1624,373,465,-1173,303,739,349,678,836,1620,-759,-1326,-131,-1558,-689,45,456,1238,-1434,-6,-526,702,951,1243,-779,-583,136,-724,-26,228,159,346,-274,-91,-1741,-2463,116,-360,622,-127,-95,-416,837,-1087,-966,-1056,1028,-240,1169,-486,-71,-143,-653,-1181,-462,-456,-1404,-911,820,-538,498,56,-704,-286,438,1050,564,-464,1475,-1810,-1069,238,6,47,514,869,321,297,844,-486,801,376,-561,2245,1154,530,-1493,-1061,1459,531,1632,475,428,-639,-1047,-1249,-932,1069,1883,527,-223,-991,574,190,-1460,-968,-1641,-456,974,-983,-528,-874,501,-569,-465,-705,-102,1645,-537,-738,-1789,-1117,-1331,770,-762,98,-942,-954,974,-1422,992,-351,442,-593,368,-788,-14,-227,633,574,929,146,886,540,-200,806,-94,-672,-31,799,-369,-1184,-1452,-1492,-1414,-1159,-252,-986,-513,-789,449,1230,-1477,-156,475,-250,343,-1430,785,1944,564,-28,668,-420,-1226,-295,-174,-629,-745,-75,295,554,-435,-39,1321,1259,3,-9,-192,-622,-608,818,-50,1344,-1734,2119,-1210,1523,45,382,-454,39,-624,-51,-1563,-995,359,-765,1630,813,16,1943,779,268,-150,-934,-1787,-1150,-1204,-1815,-2298,-1372,-791,-510,932,171,1127,1593,975,1061,1046,-111,498,-321,705,-85,-440,-254,-477,710,-608,699,-103,-985,-430,-152,456,-135,1087,197,-1467,947,-582,-544,-1031,1119,-451,461,693,-865,31,710,-1057,1077,-67,-22,1080,-377,-1303,1437,-500,-1262,-478,5,-721,135,-1172,-502,190,-593,-2207,212,-412,-136,-29,-939,686,-69,630,440,-1076,1722,924,836,238,324,-1395,-1040,-1326,-756,-861,1165,-43,737,826,1189,-98,124,59,152,1184,453,580,-730,-889,-328,-524,1272,547,-451,-777,-700,875,985,391,-592,-131,105,932,-301,-487,-209,554,217,5,-77,-387,-1142,-574,774,1000,1779,-1425,-495,-579,-1177,166,4,699,1143,1823,-204,-683,523,218,1468,-450,88,-348,-1170,-939,-2175,1479,-1170,-956,247,1595,-239,843,1054,-692,-639,461,-886,-1101,-73,160,-1173,286,-950,1586,1309,1697,1552,726,-112,-44,-405,240,434,-231,-1135,1102,587,1318,82,84,-492,-377,606,1607,823,1689,469,-36,548,-94,134,113,-716,840,-114,-550,1062,806,556,40,77,-1143,-1337,-1833,-138,2003,123,709,-624,115,1314,-479,-704,-982,269,264,1788,127,164,-448,-1147,-492,-557,1557,-80,-167,329,248,-497,-673,-412,994,-775,211,939,-595,191,-1120,-42,857,1133,-73,868,-94,-538,640,-1273,692,733,54,-221,289,-465,-748,763,8,761,1516,1321,1282,740,-111,-1042,-1039,-1673,-1630,-674,-1776,-2016,-402,-2095,-472,631,609,1398,868,1091,1037,1354,582,262,-806,-703,61,1316,269,365,-1034,604,-476,-126,532,15,51,-1574,-581,46,-593,-805,88,-487,903,-592,150,-351,-983,-451,-400,354,649,-167,403,-1352,-186,776,671,977,814,163,1613,861,69,-485,-603,-361,524,137,-142,-197,593,912,538,-634,1187,-315,-98,-734,811,64,89,273,-240,-625,344,1028,82,673,-737,226,-736,1020,1317,190,870,1109,1347,704,371,234,-117,-691,78,506,-790,-27,-225,-457,-873,-1070,-887,-983,-793,-765,-105,-346,794,-2,-1211,-518,176,-178,508,805,185,647,66,-1149,616,931,-2999,-1357,-394,-467,150,118,-1594,-1896,268,-40,942,-320,1356,-1727,359,-816,259,-1455,-231,-252,894,1084,922,360,-42,653,-1436,687,573,1324,-827,-214,1000,264,-496,1330,-600,-545,-2752,-154,-466,-957,1330,-449,290,-881,117,-824,-961,97,-27,-799,805,879,-485,198,120,137,514,-1129,610,231,155,526,-422,-544,58,-296,-667,526,82,435,972,-247,-299,702,-727,-310,-936,-1274,-1071,-1045,-515,-772,-685,-438,281,41,344,-1557,28,1433,1208,-1012,627,-1387,-535,663,903,-604,-99,-1198,646,-1433,1277,-290,905,987,-337,867,809,381,-1431,-772,611,103,-1833,911,1157,1768,3131,-41,936,710,-1459,-905,-911,72,-109,-972,-497,955,-308,-417,-256,1252,949,-333,395,-408,-287,-1214,-244,-741,-637,191,-143,139,1020,262,536,1201,6,-894,-1026,-28,969,-1372,-826,-934,-663,653,733,-1069,-272,361,-634,-386,-167,-871,355,-1012,-1572,1401,1682,-929,658,-247,-170,779,72,-1204,-1937,-1141,-325,243,737,1264,527,-981,88,-869,-373,-550,-1055,405,935,741,374,-863,2196,638,-294,164,-1178,-1188,-1086,-1276,-1096,94,756,-271,-1286,-521,-305,-1172,-799,-1164,1166,1642,579,957,1794,1193,-292,-34,-627,730,89,630,57,-84,481,-418,-534,-1050,-586,-577,-6,221,975,-664,-192,-444,935,-605,192,578,-1321,-600,-1314,212,343,-849,883,735,262,118,-1997,913,-922,-1630,-1275,-323,-1281,94,-1524,-360,1090,547,563,486,734,557,-857,1785,904,676,580,2084,-255,-154,-433,-1203,-234,1104,-1155,1304,907,1159,663,-191,820,-735,84,-1385,-1086,-53,-453,562,286,-126,161,518,-1266,-1473,-395,-1276,-1245,-341,-1774,-1644,-316,-1514,190,-1593,-1616,-1115,-166,-390,148,-775,-962,178,-985,-283,358,141,560,-50,587,242,-39,-1134,-938,239,412,-893,-69,749,-1100,434,-54,88,156,-209,-1636,497,106,1983,-74,1942,-1042,-568,765,-965,-251,937,-1887,-1524,-2671,435,112,-49,-606,980,173,331,530,1266,-324,-661,-279,-335,-764,-170,-355,9,100,-593,-268,118,5,1782,371,-305,-736,-542,-574,689,437,-1181,253,-271,333,1352,1012,763,-676,757,-540,-1366,104,837,-187,-767,-293,-1409,-770,-1082,62,106,118,720,892,1064,475,-134,1192,460,303,-704,169,353,-563,-917,19,-1117,-1210,-1023,-2035,959,-986,56,446,347,1065,335,-133,125,-1057,-493,2233,323,702,-173,-331,8,-356,-622,549,-259,-1083,-834,225,-57,744,-382,494,-405,-721,1561,-673,851,1516,-2154,-637,102,327,284,-29,-399,-471,-102,-383,-1088,-1008,1670,-1190,31,277,91,1554,-777,914,950,-833,738,225,563,2118,1798,500,-312,796,791,1392,1291,1790,150,1615,360,36,1311,-467,512,885,155,1325,-271,602,1407,-303,597,-540,477,-314,-1372,-895,-798,-733,1684,-309,881,627,2171,553,598,191,1486,672,442,-197,447,162,-126,1194,1193,1293,342,168,1155,1010,-413,-923,-154,397,-1183,393,-757,-638,240,1726,-711,-1289,105,-665,-608,-452,-51,-248,-2158,-873,-371,-696,339,624,-1798,-493,-531,1350,-52,-224,-839,-104,1014,748,983,1913,553,955,1565,996,1326,-413,-543,-847,-810,-538,573,-772,-1181,655,968,36,317,-1304,-1182,-932,290,-622,79,-19,-900,-1331,-247,-1490,-118,-5,1523,-100,110,921,382,-525,-793,-365,-82,740,-246,1418,1168,-595,-1028,-493,1059,209,504,100,-1075,-217,-199,-423,-1696,477,-622,371,-1887,796,1140,601,-559,-258,-545,1683,1026,-356,1009,-972,760,198,1083,-468,-732,1937,984,-106,-621,-407,-1290,-352,449,588,745,-202,-45,916,42,14,-266,922,25,-126,869,547,959,-332,1170,170,1517,2088,2169,2042,1361,1382,-300,593,1113,-781,1556,381,-164,-4,747,180,963,1009,-168,-413,453,1535,146,420,-340,-22,735,1805,-119,565,244,676,-1047,922,214,420,542,885,3,413,103,-1116,-295,224,-158,221,54,888,-487,-116,705,-121,-1145,-1397,519,-233,379,1131,1322,1413,661,-12,-156,330,-601,-45,483,-364,51,1077,667,-505,188,-750,395,1781,254,922,-204,1451,1202,1310,-380,-1083,-874,-571,-45,-970,996,-567,780,-134,-667,-1026,-790,-1233,-115,-775,307,-1106,-1436,357,-1482,-1160,1550,540,56,-835,-1079,-2490,-102,-17,153,1849,-805,-519,-366,456,428,359,903,-1719,-1303,-244,576,739,-324,1173,-811,-520,-1936,256,319,812,-301,-185,-326,-509,-1178,-63,-1142,-208,-902,293,-950,-493,-484,891,1093,-863,170,-1233,-1931,-598,-959,1102,501,464,1582,-396,-1344,-617,-906,370,-929,-505,-451,-51,-233,-609,-1079,-380,-217,567,501,-342,-704,-304,-548,-250,-477,-855,178,915,-902,-822,-712,-748,245,891,715,-249,-1330,168,-94,1397,-1542,1250,130,394,27,87,-1157,1844,-47,-739,-34,594,-1596,-319,70,-65,485,1265,-62,1653,-1405,-1451,-2363,708,1051,1852,944,739,-1235,-611,-956,-970,-357,222,-860,-525,1067,144,-513,-1629,-1633,-1536,774,-1068,-503,-1316,-1156,-395,-235,-319,869,785,581,557,-129,-1028,175,-652,-857,-763,-1413,-1332,-1338,212,-824,17,-737,775,-1291,-940,559,830,-556,-1039,630,-319,-1380,-523,314,192,-1318,-845,-843,485,-196,2154,-1664,-1231,1051,347,158,-1598,-95,1531,288,-975,201,-722,716,-733,650,486,308,-300,133,-586,677,-596,983,224,349,260,42,-479,-647,1105,1401,95,-60,512,312,308,1672,-1083,-107,-256,137,-297,14,-1229,-160,-336,99,676,-369,964,1202,892,863,206,-930,-435,-91,-1331,-727,321,-1413,411,-161,-184,-314,-1271,-1262,229,-865,-572,349,-1397,-332,-1154,-23,23,-1259,-826,-321,490,79,-1399,-991,-914,497,839,506,-820,-607,-319,95,-336,-272,-98,-1022,1525,-1652,-681,609,286,-402,47,30,-167,-786,-420,-310,-231,893,-1115,377,216,202,-1210,-1144,-1475,-956,-399,-59,-664,-697,514,-169,1140,-1283,-1102,263,1201,-182,-1105,-307,-178,-1023,171,-1656,-2224,-323,61,1016,1106,418,-871,11,-688,-1101,1093,-391,35,-36,-782,-684,544,135,-274,-1485,-757,-1486,-902,243,-89,143,252,-1046,-804,-182,641,-55,-1273,-561,-764,-934,-671,-71,-211,699,473,-1577,423,634,-46,397,-1660,1690,-411,-1134,-1246,961,919,-650,-192,74,172,30,59,-1566,-513,782,854,320,494,291,-332,174,-1021,-934,85,1187,-732,409,132,-744,353,-1475,-111,-472,-836,223,-90,-588,407,261,466,-2458,-598,946,-1040,241,-972,979,1605,-685,-2,179,-4,590,-463,-707,-853,688,-745,-853,100,884,-316,43,496,-470,97,-7,111,834,-646,1339,1303,-366,361,876,-1305,603,124,-334,-624,-357,-622,92,416,129,1399,515,-706,-1827,1199,-364,-125,421,-996,-466,795,179,-149,-1821,-1636,-695,-280,957,1162,-186,1231,-513,-588,2288,894,-20,-333,-328,-208,-69,1413,699,-560,-785,-534,1051,799,-22,131,2096,-1014,-3,615,1397,-586,218,-517,-1676,176,-1237,-215,414,-1252,-961,-923,-629,660,-710,-10,-771,102,483,-76,-886,-133,-1456,-320,-1824,-1277,-679,-1425,136,820,-8,-31,1300,-135,516,1294,1871,818,1020,782,-139,-866,-204,590,-660,-201,-2217,-1721,-1430,321,929,1429,-277,-372,-1581,-921,1264,-2156,-392,825,-984,1398,-182,-1179,-282,-1448,-1839,-981,-939,222,310,59,-22,18,1045,543,-1589,-352,-294,208,-478,561,-300,2971,989,-1255,1671,-710,-279,1197,-735,594,378,145,104,395,-697,663,146,1074,-308,-365,-406,-249,204,667,194,573,930,-1143,104,519,1056,233,625,742,595,171,608,560,392,-317,-407,949,-502,109,-376,-16,-610,576,844,960,-36,-1412,545,362,-470,-1407,-491,601,-431,-203,-878,1002,311,-215,-1481,120,318,-466,-517,1645,-269,-470,439,893,-1873,1127,331,85,-738,552,478,-1223,-118,-774,257,639,-296,-328,-428,229,-52,-681,-570,-938,1748,2197,1574,156,-874,821,-248,-187,-1229,581,950,1511,1241,-648,-650,-122,1148,-1168,-107,459,-1295,-886,-585,-1329,-822,1113,-403,747,412,126,-559,557,995,945,-315,1452,-115,1102,-308,-161,-1331,1201,-312,-590,1338,-1517,-641,624,-60,-2731,-2110,-71,142,-698,245,-843,154,-348,-848,192,-329,-32,56,-210,-1318,-52,200,179,-188,-1519,-633,134,240,-170,-353,-71,-749,-1406,2681,403,41,-131,1210,-147,-425,-854,791,-102,1974,2029,2483,18,13,-1007,-1122,891,645,129,581,146,-415,-515,252,889,-919,-553,-193,1745,381,-186,1343,-612,-764,682,-824,-548,250,345,-1028,-1031,-672,-108,402,1028,-594,-233,-846,336,758,-421,9,924,-873,1416,70,-1010,-579,1879,-734,-260,756,-1365,-111,-1071,-1605,352,-1307,-689,-98,-46,241,29,258,-418,445,940,823,-1112,-576,836,-35,-1366,331,1232,348,475,70,1815,784,644,-736,250,-227,-2823,40,-781,-1018,-530,661,775,815,753,476,-435,1165,-1191,-1360,-797,-429,-902,-264,420,-427,-92,116,-338,341,848,58,355,473,-195,-325,555,-185,667,-516,-1281,199,-1195,-672,-816,495,-355,859,-216,899,747,-265,-244,-580,116,-235,43,1052,1270,-892,-406,2120,-1027,280,63,801,-465,1250,360,921,-1022,1218,-424,-233,-157,1184,1726,-316,-1050,-790,1502,893,633,-1188,-83,1068,1014,-2119,-727,1617,1205,-1226,1299,1468,327,46,1696,-1658,286,1283,113,572,857,79,154,1339,951,-1091,630,544,1433,-747,224,-274,467,-671,-729,-180,1045,790,-55,872,111,1388,1178,845,-1218,189,-162,-395,-310,-191,-1651,-279,-1597,-1604,-1421,-1940,-117,434,972,-430,-1394,-350,932,29,1229,-1498,897,644,2028,1016,-280,-85,-142,1142,767,113,277,1044,364,-223,-479,-736,376,-1137,1171,1905,1195,-1072,-110,-614,-1069,-627,1637,-152,-324,-1800,-338,-649,-345,-650,-2144,1631,298,23,654,1280,-379,-95,-1286,-276,-143,854,-781,-339,-680,-658,-804,-1085,-409,-162,157,478,145,57,533,702,28,657,-857,-1081,412,-8,1118,921,-1285,-311,476,250,967,1673,1479,1746,1067,-561,1549,230,-935,1049,1522,748,-453,-48,1279,-463,-652,-642,-267,-467,-133,1294,1871,1881,-851,634,-70,-809,659,613,-289,149,-455,-930,-723,-1593,-406,1092,195,-33,1129,387,2132,-265,-1331,-603,530,-1004,42,1003,2061,-722,-732,2439,630,1433,789,1091,-717,914,942,-668,396,-442,-1164,-100,-50,-81,694,-200,35,-342,594,-73,-217,-71,491,-703,-872,-1334,-16,-694,66,-1400,234,-699,-344,-1227,-1216,-142,161,-1434,-370,1592,1319,-263,246,-611,1109,-919,-57,-516,2693,1306,147,976,-439,-543,19,1371,1514,268,-1852,-1995,-673,1344,-1468,565,-69,856,478,-326,463,1415,-699,1251,627,-438,64,-443,0,-1945,811,-63,-1533,205,-690,-731,-922,-1843,1130,-674,267,-828,-1826,-72,-695,902,999,399,-976,1557,-247,624,680,-473,-156,51,-1394,-727,-336,-1165,-1320,-1391,-1118,-618,-1696,-607,339,-1370,-1612,-1499,239,-1015,70,1008,217,-269,-199,778,740,-197,-279,-846,823,200,-232,-155,469,-388,-638,-593,-832,1079,36,1291,-1452,-259,455,153,-503,262,-1344,452,1405,-1585,1311,604,-1166,302,-614,353,-52,-1673,-2096,-453,-1858,1605,27,512,31,656,1352,1291,-1135,-1055,655,642,-769,-3063,-2304,-8,1649,2211,1448,2129,690,542,-323,-964,-498,741,-746,-1045,699,403,-222,178,-116,-149,-381,1046,1586,1439,1224,459,65,-336,-844,-1237,175,-85,-1535,-1137,-232,-891,-456,-188,-89,576,-356,-550,954,1299,190,-315,223,910,-15,12,391,-193,-949,1056,-377,-509,952,630,-383,-522,605,-969,236,758,-155,987,-400,-854,988,-267,-37,358,-2018,-2551,1106,-320,-227,-96,-679,1285,-657,1,513,-1291,-641,-189,493,-254,-629,-261,-930,-1135,611,-824,-540,-698,-1284,-716,-242,-401,139,-182,-949,301,-1750,-1878,-1137,138,176,-771,-112,1492,1076,1634,39,1069,561,1271,223,-210,612,-272,-385,-407,495,-852,1366,352,518,-693,96,26,1725,1092,76,-243,76,-86,-256,214,-753,556,-423,438,594,503,2321,75,-1462,-560,-530,930,238,-802,-40,643,-145,-196,-214,243,-532,577,686,-195,1036,796,-440,2010,1203,313,1290,1312,84,16,-1046,921,1148,2280,-195,-1364,-1486,-417,-281,-1619,-944,637,716,-907,-332,-469,-979,-1048,-44,200,319,1163,1223,363,618,-671,645,419,-165,901,612,211,155,192,575,-1167,469,413,786,-501,-472,539,895,848,454,292,1103,145,-260,-1294,1129,1001,-600,1821,-626,-617,1760,497,-560,-196,608,-758,212,1029,-1083,-942,-228,-594,597,299,1920,-363,-96,-2040,1374,-66,1179,-1776,-424,-496,-413,60,888,-778,1255,-582,-793,867,-756,766,1071,223,-892,-1389,-436,-1338,-1168,-1861,-709,-975,-487,18,25,263,-408,-385,-844,448,-698,-398,126,263,-268,-664,-323,-166,573,-832,-110,-784,-64,1174,1163,1257,466,412,-273,784,1670,1763,446,747,754,-885,289,-513,-1031,-1011,1190,-570,-67,332,-59,-787,-166,451,-962,-370,1076,-242,668,-268,-852,-397,-767,-1666,523,1452,998,1072,469,-1022,796,1312,-191,-488,-2371,136,1218,-302,256,-2437,969,217,-825,410,1440,771,208,1168,-323,884,123,-974,137,-760,-34,-1638,-532,-831,-476,-1251,-1603,-1735,-923,-610,-455,1319,1274,-288,434,-817,-603,-971,-1439,248,-754,1019,406,1285,858,1527,966,1438,358,1320,1781,-726,-366,298,-801,-311,170,-247,896,-490,-322,362,-276,381,388,-1120,302,-119,-205,568,162,-279,-1358,-23,1486,433,807,-1109,-951,-309,-1524,-391,608,-1520,-950,99,58,-292,148,476,-287,-39,-736,-1235,766,221,-795,-1128,-578,-1082,2,-1336,-1845,-723,-699,-1278,-1666,608,218,1000,-1,-901,-687,-1349,370,-1474,-1552,461,-731,-789,-1163,-440,-554,28,578,-578,-486,-1030,-959,-952,523,-740,50,-1143,83,-1104,818,427,1287,902,922,626,-943,857,998,-150,142,-388,291,363,1205,-796,-526,-1530,1509,558,-622,900,1043,366,410,957,157,-941,98,6,-295,1066,867,-1376,212,208,-136,1329,-17,314,1230,1245,-338,-54,-345,-1051,855,-268,-1131,196,253,-1174,433,1210,272,1126,1519,-33,1382,1287,908,1312,265,1259,1548,182,1474,186,1668,605,1480,347,-93,453,-729,1120,67,586,497,203,439,192,1007,-721,289,942,-1066,-1062,-84,676,746,-449,1061,244,-318,-1308,2229,288,-135,-472,1387,212,-1821,502,-640,-1427,1116,746,235,846,810,1341,-795,-124,194,1119,-1185,-319,-64,-1993,352,-705,-559,576,1288,337,90,-122,-379,88,-646,-1461,-1157,794,-855,1629,99,-437,1221,459,-375,1612,3,-16,251,-381,-194,-431,768,2150,222,1712,1937,530,604,1368,2338,1902,226,-292,-117,1019,95,-387,971,277,-691,1096,-581,658,609,-1077,-1089,566,129,-496,575,360,608,-42,86,213,-1419,-328,467,-610,-712,-1255,-171,542,-2208,-393,843,-1172,419,929,293,731,-678,421,-2434,217,-788,125,-926,1388,-1578,-827,-99,151,984,829,329,-1541,566,506,924,-737,740,-63,733,-6,-1615,-422,2087,-2514,-10,-682,-1136,-701,12,1051,-1126,-1059,-926,108,-381,-332,342,391,821,-740,484,-128,-821,-1317,-510,356,960,843,577,-1018,-1191,337,-755,-594,-383,-541,825,-363,412,680,-99,433,-780,-905,-834,-431,969,-367,-590,680,-483,-823,-229,1547,1259,-273,1446,478,591,230,10,-343,1874,185,-113,1673,-1743,-74,31,737,175,1017,-647,-954,1098,-2046,-1648,650,152,251,-278,-678,163,-344,-49,-566,-33,-274,-889,449,102,498,49,265,-252,-393,1246,1326,906,2420,2490,728,2621,1543,-316,42,826,591,1196,-920,-540,95,1917,771,-581,-286,1142,1027,325,-553,-871,1324,1377,42,-460,104,-577,-1422,684,-46,783,-127,-200,-189,-678,1007,-257,-1051,-58,-398,-415,-2973,168,-617,-119,-19,1431,907,410,457,-1225,-568,368,446,-506,-789,-135,375,-344,-991,431,1642,723,-180,295,102,60,-74,-984,-311,-1100,844,-659,-1126,-937,313,2072,-278,-775,433,53,-245,-70,1360,1516,361,-700,116,-760,696,-702,456,-249,-761,-112,381,-958,470,-97,-44,385,389,985,1023,483,1241,-174,-51,1411,356,282,815,1203,-354,336,-679,-1383,-1781,-553,-1839,-2715,-155,150,1128,636,-1892,-430,-607,-1776,270,-421,25,-80,999,865,16,-399,-239,223,1196,-252,-777,-175,807,-341,-760,-968,127,-173,-233,140,128,-749,-1118,1396,-85,-777,-1281,243,611,568,-488,-953,-701,661,362,-1431,-651,-771};
const static uint32_t LSTM_01_weights_cell_dims[4] = {1,1,48,88};
const static ConstTensor_t LSTM_01_weights_cell = {&LSTM_01_weights_cell_x[0],&LSTM_01_weights_cell_dims[0],0};

const static Weight_t LSTM_01_biases_cell_x[48] = {-1343,-95,1369,1484,-826,282,-18,1429,-36,178,264,562,-355,969,101,319,-748,-1040,-580,934,473,1317,369,1045,-1213,-900,-1374,-57,1257,2625,348,322,-806,935,-125,-1128,-1199,-1228,65,727,1181,372,-251,-75,-851,352,466,551};
const static uint32_t LSTM_01_biases_cell_dims[4] = {1,1,1,48};
const static ConstTensor_t LSTM_01_biases_cell = {&LSTM_01_biases_cell_x[0],&LSTM_01_biases_cell_dims[0],1};

const static Weight_t __attribute__((section(".weights"))) LSTM_01_weights_forget_gate_x[4224] = {-416,802,-403,-321,1619,948,821,437,1293,782,-1205,-886,-731,-57,-85,136,-407,-1178,-1507,-1440,333,1263,-96,-80,594,-595,-683,266,-454,-910,-46,-929,-254,-421,518,-429,-904,318,-798,-517,989,356,654,1715,717,-273,505,-664,97,512,687,1201,102,-1249,643,1168,-86,-695,-668,101,-723,192,2210,896,-307,-229,-472,933,98,342,1387,439,1502,872,199,2429,-1940,1398,-1908,892,-170,-1867,-235,592,802,144,1083,1729,1565,1370,1491,57,-1010,590,-698,1031,137,119,-1792,-1180,-175,-535,-94,493,-831,-655,-870,613,-599,553,-192,-1017,-683,863,512,177,307,396,-509,1509,1689,1377,123,-285,946,1339,381,634,-935,145,-706,814,330,-226,328,-608,-707,-936,-1319,1327,1907,-713,392,-1636,-516,-163,-245,-473,-173,1809,-1533,34,774,1285,448,148,760,-1105,94,375,433,-1880,1719,581,258,-837,1172,-1130,591,929,-1413,-481,-693,-540,925,2,229,-131,-440,-1123,-1572,-641,204,-135,-1202,-288,-458,1243,-243,-123,-567,-947,1106,319,79,-140,535,344,-1146,-1068,-1753,-593,-309,345,-549,-570,294,-323,-855,-945,180,-1081,-1084,-32,-1532,-526,220,600,776,-448,533,769,655,110,-1531,-1463,-1353,1467,1488,-746,-120,107,-2184,-42,271,615,1806,790,-1080,1288,-1033,581,-216,-1094,703,973,649,-336,-449,-640,1509,-407,-1417,-788,1547,185,224,467,561,-79,-106,-637,-963,-892,1150,1208,-258,233,-298,641,-1182,38,-1050,648,-987,854,322,622,462,-952,-1092,-935,776,-1124,-607,-656,417,-425,441,-1234,244,-538,-356,-838,-1127,-1342,-1074,-597,-781,490,-368,-289,-782,-1472,-56,1048,-455,-1023,-230,237,-624,-740,373,534,191,-321,923,355,-1342,-288,562,-316,-363,-1055,-950,-222,635,31,-404,247,572,-215,954,236,-503,1061,1541,-2223,757,784,-220,-159,863,-1630,1015,-2,-60,-1146,-230,-1670,476,-960,2419,480,1141,1715,1083,-371,1271,916,187,-521,-420,-927,421,257,618,-593,738,668,562,1051,-237,550,630,396,-524,629,-1385,-242,-277,819,-833,-644,-332,-1137,-492,834,-567,-346,-457,-814,-443,-1207,-435,-149,-1878,-759,-1075,-489,-761,48,-747,-66,976,357,-53,-1385,-470,-858,-1393,665,-305,-51,2133,5,809,-615,15,552,-445,212,1008,1617,558,-1275,134,-335,-695,-576,222,-643,851,191,997,818,1226,-379,-310,-781,-395,-363,57,1075,1542,1936,1660,-690,-739,222,-1211,-262,780,-769,-338,-374,1478,229,475,-1039,-610,-140,-451,617,-229,-526,876,-475,-170,-1227,569,-1018,20,268,-276,-496,1177,1080,-989,687,-329,-514,281,-260,508,-1470,170,-1422,188,521,-969,-237,1437,58,305,-394,553,-1947,772,-1188,673,984,-510,912,131,503,-346,269,-1023,-763,652,209,-332,579,-1549,-502,428,857,-746,317,318,-479,145,-560,610,-603,-332,-148,2855,2805,1140,-462,-93,-837,-748,224,473,845,-261,600,-891,1218,607,-248,-557,-914,533,-848,-144,382,389,-916,383,-253,-911,69,-800,-940,-579,-415,539,544,415,-742,224,451,-1275,-428,1072,899,-133,1216,-677,907,-503,-675,572,-128,466,-363,243,62,-788,-886,1085,-103,-543,348,-979,-138,523,465,478,1630,-878,-803,1930,476,25,191,2389,206,-728,-1097,-655,-217,-1477,67,-589,-917,596,287,-457,-95,-169,2276,1369,1593,242,468,288,-1216,-1286,-1198,-1239,-43,568,775,-1073,-170,182,-251,-1128,325,31,-377,-869,652,-553,-760,242,373,-91,-830,-896,235,-1223,-320,899,660,76,-1116,-562,-525,153,-589,-1255,-44,213,167,-433,898,853,340,262,237,58,903,-1110,324,133,1740,309,-839,405,1520,91,697,315,-210,-1543,159,-533,291,1062,-260,-61,-302,693,1439,-565,202,-891,532,619,-1624,-622,981,478,763,-1254,-567,-801,-69,-72,650,164,122,1266,260,799,-142,-46,-889,-781,74,-1136,-64,-508,487,-30,1543,422,1151,709,435,-551,-110,-975,-985,-897,-963,-850,-559,-340,-813,-880,134,1048,1770,1411,1872,1019,443,10,-123,-6,18,-1092,-471,586,51,595,83,-2195,-537,590,-562,-8,68,-314,-508,-784,-235,-1792,653,57,-170,69,-248,-625,137,-390,1082,-100,747,-952,-719,1143,185,473,789,-2024,1286,148,296,893,278,-987,156,423,-641,1113,653,-961,-1212,670,-406,1028,-23,1280,-125,436,-941,-479,1005,1221,592,256,598,-1094,-23,-245,315,680,1173,773,-192,963,-522,-773,252,-451,145,-252,-95,-794,1244,-4,-782,417,-194,-355,-161,1093,-404,20,812,-832,-143,445,373,-146,-125,-658,-431,544,-193,-1365,1240,978,-1396,1027,-343,-65,-1318,-17,-1,1537,569,-900,-130,-1085,464,323,-52,111,-599,1215,1734,351,1304,-257,-1451,977,753,144,642,-1004,216,-1749,-2358,510,1118,445,872,530,172,299,1049,468,518,479,-1230,-373,-998,-240,-610,-914,-1171,-1199,108,72,-434,-891,180,-332,-677,535,415,503,-255,332,-421,984,-100,306,-516,252,855,160,-614,-110,-115,-281,-987,571,-983,-131,612,467,-208,1357,691,971,118,-113,-148,288,125,-1646,245,-674,1101,-525,716,-341,-746,-126,-107,-353,-949,-1000,-2036,-30,-2136,-1393,371,-1741,-1252,-1096,1378,-1309,-564,-366,577,682,-912,1244,1686,739,-488,-1833,-1627,-914,229,-818,-354,309,313,-1037,888,-919,-1733,-421,-1410,-1783,613,894,-230,-699,690,-1016,-981,-664,436,-379,102,-1129,533,1204,459,-892,-1058,159,-195,-531,187,-251,421,-831,-1081,852,-344,319,-1655,1731,122,-1111,871,233,-846,914,-835,513,-142,-479,-421,-94,140,-307,824,-1006,574,246,694,1665,412,-708,-194,411,-893,5,908,-9,-2166,1319,-638,-159,1014,864,474,-274,162,91,-22,-1108,-391,557,54,289,-155,885,-163,495,-167,-274,-457,-1437,-283,-479,440,-532,-1292,-1369,-276,285,168,135,943,76,647,-529,-3,1308,653,633,-354,80,-254,-489,-193,7,-263,649,-1326,451,982,-432,-653,1111,424,-266,-1327,149,1395,578,448,662,134,1006,-233,868,1838,841,-769,-323,134,665,-641,189,-174,2223,142,-308,-340,204,655,833,911,-233,638,-208,1152,-518,-1210,943,58,429,-425,-289,742,-736,568,-767,-886,-1420,-584,-16,520,1073,-286,1170,98,754,278,1426,-177,311,-279,-234,-468,-833,919,-747,758,-403,-1160,-430,-2,458,-676,71,-623,-790,-531,190,-454,633,-491,-1208,596,-290,-32,1025,286,-355,244,-286,-722,-987,342,490,-140,-632,277,480,-149,-454,395,-1230,-1750,653,-117,-406,145,-873,2201,80,-482,450,178,525,-1130,-50,1489,-1224,-566,119,-325,392,635,-1162,-21,-1778,-15,26,-943,-349,1554,-1346,-201,-1889,-1050,-283,61,485,1227,-313,1044,231,1123,-617,64,-214,-120,369,1345,729,371,28,974,571,-51,-657,714,-563,429,-44,-588,321,617,17,-382,-548,461,890,-275,246,-842,-563,1052,1545,907,-113,33,-218,-966,596,1449,922,708,356,-328,667,338,770,-406,432,-1333,-1587,-131,433,-395,1565,652,-463,141,321,-709,-14,400,-122,-90,-142,1583,-37,-930,505,919,-1036,377,-1940,-1157,-969,136,76,427,482,-417,-676,-1341,-1088,-1476,-301,-299,-869,-870,-905,-671,850,-950,1039,977,-541,457,-243,3,-301,-954,-431,-710,-114,207,787,-349,586,-317,-402,-754,491,-1288,-1445,318,643,-553,-234,172,-345,-613,334,-1106,-580,-755,1150,608,569,-702,-355,751,1698,-137,-391,-1304,-1591,1061,-1034,1077,-838,-1257,660,-1709,-78,-651,774,469,2158,1190,-23,-872,-1813,-517,1667,-136,557,-341,1920,192,-955,-587,-641,1225,1048,-31,-282,1267,-578,-305,-35,448,-1057,-1718,62,-39,-1045,387,-311,-420,-910,609,1017,9,965,481,82,-103,191,-599,367,-469,434,-281,-308,-148,-533,-284,-106,-289,1004,1062,860,790,96,328,398,-1068,862,546,828,261,143,1042,-518,827,677,-344,-175,1502,1148,-346,21,-316,-969,333,1243,-53,47,-359,860,-593,-1086,-904,-347,-474,-491,-1789,-810,769,1025,-728,433,720,209,-131,-1250,-1359,214,-144,-1218,-1867,382,1174,-392,255,977,-46,452,2683,79,1250,737,682,1259,1048,1125,1463,718,7,817,446,-300,709,849,-57,-97,1499,-261,-314,-845,-966,862,740,832,-754,-72,671,69,-195,1315,922,1266,1064,745,-15,951,1033,977,-640,372,526,-1319,556,-814,-583,-1575,-765,408,-795,74,965,-41,-153,1160,-488,123,-46,1147,-403,74,-1334,58,-82,-180,-631,1486,-468,-573,1559,-1489,275,1787,-316,-1393,-1455,-2096,621,-163,-247,-264,1118,1550,-418,1391,-1317,46,-359,-1284,-1185,-339,-910,-2128,-1683,-236,105,1232,-334,77,135,-790,-1632,-208,-343,69,-826,-1319,134,-1297,-1995,-1783,-1394,-1152,-1638,-305,-1161,-1433,-619,199,256,779,161,-176,1004,-190,1921,331,56,-561,-1946,488,-1432,-1243,31,47,994,659,21,700,-257,-248,1088,1238,1172,-280,476,387,-1675,397,23,2494,3451,1677,-1298,870,-287,-1260,-1460,915,436,-267,-36,-24,859,-1237,-607,-257,766,2017,-1093,825,2321,-674,-310,110,414,-382,110,63,-384,-1120,-300,636,-1344,-299,90,754,-726,703,382,-1207,-1535,129,121,56,-521,-97,255,187,649,-65,11,1053,-851,-748,1172,1487,1562,477,-976,-1117,-151,-732,-1265,-145,788,866,-775,1107,1690,228,235,-184,-268,1025,-364,2028,-2306,425,112,72,-116,237,424,679,-721,748,199,205,898,-125,1364,-934,-1033,454,205,310,1552,1104,-604,460,-698,742,473,-467,189,758,-395,-1082,492,399,658,286,-33,-340,-207,-764,18,-144,683,-104,-429,590,-437,412,671,-389,-844,593,462,752,-16,845,1076,517,819,805,-944,78,712,480,293,282,-344,-426,-1009,-1119,25,-294,-188,110,-662,972,-1667,584,-143,-1590,938,36,-115,-563,969,-360,1666,35,-1677,281,-710,650,-14,1787,315,462,33,675,1526,219,137,99,-570,-520,-390,682,-803,-805,-11,-761,1285,86,249,534,-990,337,706,-460,-700,-264,537,-363,161,333,1442,-1015,-577,129,-1245,205,667,-562,328,149,-10,-1038,60,496,-177,715,346,-333,665,259,-579,263,897,-668,870,156,-351,800,328,-309,737,123,-1244,-619,239,638,-353,311,-281,-804,-760,898,715,-346,211,-227,-776,1009,1197,978,-213,444,-190,39,161,-1397,10,-659,-493,601,1012,-136,-518,-1007,-354,-1560,-1176,-182,63,-423,-175,-886,229,938,-280,-1020,-1632,-938,1390,-546,235,-397,-1272,139,-496,-689,-29,-165,1085,329,-778,-492,-158,-298,-1397,-1824,-607,-140,-704,564,753,76,641,977,-10,-1119,-13,471,-500,-1083,203,420,72,-962,-54,-102,1018,-625,-629,-986,591,936,1515,1081,926,843,242,56,129,210,-566,851,272,-1317,-741,1075,-620,1217,-623,-1216,-1639,-292,-190,-696,807,-1601,93,117,690,-576,-1400,94,832,987,-551,-102,-1344,589,-1045,-268,-1714,-825,314,-1064,946,-1536,-73,705,93,260,40,-948,982,771,-487,439,-921,-458,501,1157,1045,1069,-209,-122,-412,-1427,781,474,-2016,252,-529,-347,-508,-397,-989,-1369,-1525,-955,284,-1399,-986,-1114,-342,502,-862,-946,427,1056,956,-340,-968,960,-1090,-1289,-1219,-779,-287,1366,1308,919,197,109,-241,1295,-596,-808,-178,396,608,1570,104,-1227,49,586,1682,-661,1264,400,726,-228,-728,509,414,-27,1775,268,830,296,915,-1333,-783,242,-319,3345,-1047,1555,271,-1898,-1735,-1785,-488,-469,-1230,1118,1520,-390,-927,812,347,60,-895,-788,341,884,522,190,871,547,-227,-668,733,1109,-81,620,485,333,170,1135,1046,-385,863,644,577,877,685,707,794,-476,1356,-608,550,-691,-1053,-615,-14,-495,-654,-766,-623,-154,1162,793,-583,869,-1591,-786,-21,131,-15,-257,-399,315,1248,-115,1913,-1023,-240,47,-1081,-726,-234,-232,2193,1153,-158,-560,660,1217,-352,-609,-782,-961,-1030,-821,-942,-1295,388,434,-376,411,5,-445,-976,104,387,-128,526,739,579,771,1061,619,80,985,1126,673,591,-702,-572,908,832,-473,824,810,-173,562,-689,978,610,1001,401,129,1010,1094,795,593,625,679,-980,-164,-314,364,1672,225,-87,-221,-967,298,-940,-94,1444,345,-1362,1085,-906,-1887,-361,754,1294,-1394,764,46,-391,179,-1105,409,-268,-148,267,-516,-913,-679,1178,-692,1207,565,559,-389,1011,-207,-482,-942,176,6,3,934,318,381,579,257,-104,827,1758,1002,-570,343,721,1214,726,-547,311,-65,-751,-1055,113,1254,666,981,1168,177,-127,-457,1029,619,-70,-892,83,-83,-694,-623,-820,-232,-520,-328,-730,-90,-243,487,-979,-295,-649,1713,-801,779,-1240,-677,1649,-1788,-538,-624,377,1473,-444,-443,0,1351,-1133,-365,-399,-1069,-349,1096,168,-809,-1248,-1023,-624,1151,1371,47,702,487,-829,-12,-45,-1372,1352,536,416,-2173,855,-729,-133,172,-598,483,-819,-1977,-796,-361,-459,-1478,-1111,138,-353,-1492,-1901,-1396,286,1227,136,-697,707,-644,-1083,-850,-813,53,19,-444,-926,257,-349,1007,736,750,-772,-103,815,-788,-628,-169,-37,401,-100,-685,-689,-695,1283,-970,-55,1301,749,1036,744,594,915,243,-124,681,-402,1551,178,340,-141,-293,1553,1076,-745,113,660,738,-395,806,-565,-718,-869,-936,-1194,1623,608,978,629,-376,56,560,940,-68,562,-215,416,-1250,-699,-1210,399,-92,-16,-2092,-151,-272,760,244,-991,177,-700,761,-1254,-139,82,213,-368,-199,-183,439,-1168,374,-968,-508,-550,390,-429,10,200,-405,-575,-1002,293,-741,-205,87,890,-210,357,1105,663,992,526,693,-341,1845,-713,-1155,69,528,-665,-213,-1319,-127,626,303,-189,-244,1750,527,-984,1759,-699,-467,-699,336,-114,791,391,43,-1451,-1220,-1184,2098,-1736,557,729,1021,279,359,-310,-1099,367,2110,-1158,860,2804,-1437,709,-1062,1448,1424,204,-231,-1014,-198,79,300,1267,662,-108,23,718,-256,-685,559,1348,810,1255,-549,-677,449,304,326,-20,-483,568,1346,1031,911,1374,-615,368,1400,78,787,-499,428,680,-1443,-799,1885,266,-1122,170,629,1923,364,144,1026,44,-503,1129,1701,-150,-211,-239,-1183,611,-274,1057,-1660,603,-1792,-1135,284,-24,-273,2103,-19,16,-1405,411,984,-963,783,-799,1121,1260,-981,-370,233,-495,28,-1292,1084,-1351,1345,2098,247,-379,-1105,99,-699,-801,-538,393,403,1499,-54,1052,-118,515,246,-467,-372,470,17,-1307,-1171,-663,-538,-817,-1202,-664,-201,-1582,-1126,-777,-1204,-1043,223,-1190,440,-410,-1316,107,1965,-875,69,-824,571,-377,-310,-568,929,-889,301,-666,-272,-524,-1365,-1725,703,571,-316,582,-1653,605,1241,-872,725,977,1150,85,510,-233,257,-1158,-91,261,-372,1619,-757,-1075,-1165,-495,-1946,-893,142,-240,224,-1946,-1286,811,-1841,-1499,416,-1325,602,-4,-457,-644,26,693,578,153,-413,75,1047,-954,-943,-283,653,-147,426,-1456,-424,-713,-520,493,985,-104,-1288,-1388,-447,115,821,835,-684,328,-881,-808,-1029,-775,-885,1119,423,46,-1095,-1491,238,854,-476,-79,1479,-178,-94,-1475,142,1009,742,-973,885,727,1240,850,543,817,-249,320,-518,-1086,159,952,-370,294,-471,374,907,-1009,544,-116,438,506,-697,-927,-158,1053,-685,-1005,641,672,-262,202,359,555,611,176,-983,656,-337,-431,1455,364,826,110,614,-81,-807,733,-531,426,-766,282,1198,899,-268,547,596,-581,1469,-638,146,164,-949,100,269,-126,-291,13,22,60,-458,49,-667,850,1029,1220,-74,-552,-408,-74,-922,1014,-1381,-717,-555,-488,428,521,3,1237,585,-277,-152,1351,-1204,119,-1003,-66,1174,366,1831,406,17,-975,1390,-928,562,306,1066,493,618,-1296,67,483,571,-581,675,-762,-2133,-688,-952,-1022,-534,-1439,627,506,-136,-1195,-819,-815,87,-1589,410,-1031,-961,235,-542,-630,-450,398,329,105,206,-1064,-937,616,-1177,-1228,-867,-511,284,1537,1273,1186,141,-182,-185,1476,-208,-808,-954,-836,612,-468,-70,824,811,-620,-400,805,-832,887,1044,-584,359,215,-494,-300,1102,-63,-324,-1569,1125,815,-617,477,-348,301,-931,306,405,-474,411,-581,-492,-93,681,-7,-387,1230,1243,-1441,-110,1224,-773,-627,-958,-522,107,-349,-869,-620,-1127,-671,631,286,-217,-348,282,-204,-578,-842,118,140,712,-833,-397,-1590,-975,-634,38,-575,-107,-1271,298,-338,-845,195,38,110,1655,237,509,867,1440,758,563,688,-657,-339,649,353,59,-450,-1173,289,-378,255,-340,-1762,459,-1159,-548,243,648,-728,347,131,1456,-770,1066,1392,61,177,706,-609,-1569,-486,709,553,-350,458,-489,1029,-655,-857,-1303,863,615,1286,1146,828,801,-1268,-1509,-2315,-759,-323,-103,525,1171,-573,-402,273,-95,313,-156,-39,214,-142,125,301,-441,-1241,-122,205,-763,-411,353,108,-445,-1011,-177,68,388,826,1127,1001,-522,-377,287,-782,846,873,781,1896,-116,115,-829,-222,217,-1649,-1248,-564,-1168,240,-842,-934,-1562,-241,1746,-1223,429,-344,-407,318,-593,548,448,-170,-308,463,1033,-81,765,-717,230,-397,29,16,-586,665,144,247,37,248,387,-816,-31,-366,141,-41,-73,1213,159,395,-727,1173,-832,415,-1203,471,-632,-559,1102,-115,686,-331,1611,-575,-887,-282,521,-856,-738,-352,-126,-675,-465,-435,-357,-1524,-1174,98,439,423,-201,-1299,-108,-635,-1354,-1523,1061,191,-1110,-218,-849,373,-1138,-455,95,-985,-738,-235,-1791,-779,-358,1151,843,-997,1601,-701,-84,548,1598,-1185,-16,225,2038,-1534,-960,399,467,-540,592,-161,-2094,-875,-1396,-458,-1860,-366,-630,-863,-867,-1862,873,-631,1387,1734,2428,480,-759,285,-1117,-1176,-58,-135,-1570,-750,-336,-336,-506,-300,299,-854,-1134,479,-1464,442,523,210,-313,-1982,-1082,-1214,-1733,-835,-364,-585,-640,29,-1454,-905,-292,-623,-85,-54,-290,-1212,-680,-192,333,-950,401,-493,-1003,-150,1659,-23,-295,442,1280,-1084,47,-154,1718,741,-632,-391,-915,399,217,750,787,-546,865,-381,-202,-2007,-512,-603,1534,560,-815,-932,-716,-521,-498,-772,471,26,699,-1094,931,-25,-945,-236,-226,1188,1517,1650,1736,1434,1397,34,730,227,533,-1405,-523,-1431,-1072,-1090,70,-457,892,584,-582,1486,1301,-624,-337,-1839,529,-1096,571,216,-1501,-1102,-996,-463,-488,-1555,-772,312,-1456,-879,432,1363,-339,1291,379,-506,-158,663,965,1635,-1518,-810,1368,-1352,-59,-135,-227,707,213,-318,-1054,-527,686,1642,683,856,750,879,-90,-566,141,966,1002,432,37,1016,-1846,2150,1581,974,736,1348,-35,238,453,-388,123,948,96,597,35,631,1432,406,-989,120,-732,-880,-295,-153,692,614,505,-355,-1125,265,402,300,621,47,-1384,-408,93,111,306,477,556,-1297,-314,498,-723,-746,-174,33,135,1346,-997,30,339,1412,489,-2073,807,448,405,376,-1335,700,548,-550,-1145,168,-1162,938,1062,-964,486,856,888,1281,456,-564,2110,260,-964,-508,-214,-271,-1018,-249,-504,247,245,-799,126,-252,-558,575,-2537,-449,-449,588,828,-475,818,-370,-311,-1181,-913,-30,-235,433,189,61,1006,-232,55,-174,-448,927,340,362,15,39,-258,-369,-1531,-795,276,157,565,-695,-394,411,891,704,-1026,-841,-437,-143,480,138,-198,-80,731,744,200,20,-1201,-448,1109,621,178,-628,66,-792,1687,-1066,-1010,626,856,810,1020,-70,43,9,798,490,442,43,754,56,-840,-994,-364,-409,-902,-1609,-915,340,373,-1166,-389,400,1468,-2293,-1282,-1283,815,-1240,63,104,74,1306,2309,-492,686,-619,-84,681,-441,-142,-938,-498,822,104,975,1319,-388,63,-258,-112,750,-1738,-2035,-1022,-525,66,-1451,-1420,-989,209,449,-1923,-943,-112,-1290,-1155,-468,927,-650,-1187,-375,-48,-1400,782,-456,-619,921,708,-1235,-273,762,-2676,300,-232,-1168,948,203,-109,283,350,-435,-1087,843,-1443,-520,19,1800,1735,1275,-805,-1100,-81,1300,-350,201,-168,-352,295,865,-236,-239,-1804,-2357,390,1009,-1368,826,1032,-973,227,1544,1235,1072,53,-986,704,1346,501,1051,342,-282,1295,1311,199,1117,1279,479,1276,503,-773,-94,182,795,-64,1133,1055,667,-215,845,1152,1296,-552,-24,-367,-329,817,304,516,672,-631,246,-1098,-535,-588,-285,-1025,-827,760,-881,-662,-2189,-1701,-585,1916,-648,-1034,703,423,-2025,-1292,6,509,-415,653,-1067,1294,27,-416,-1087,-752,9,920,-370,-1147,1178,-260,-237,-357,-408,654,463,597,-328,-1082,808,249,-537,-1713,-1280,-2065,-321,-245,465,-453,1004,1628,-438,-1059,-612,-799,-756,-926,-665,484,893,181,240,-1570,-437,342,853,899,381,-1383,891,605,-220,-137,497,578,306,-126,605,-184,7,666,225,422,277,-594,-1122,903,-797,-225,370,-1032,532,-612,-302,-391,2733,-81,-214,-231,1843,-505,-727,-43,-591,1811,-471,215,-1331,194,325,922,329,-353,848,500,-500,-1217,-426,156,565,1042,509,305,-541,1717,-36,-788,1780,115,442,-354,-271,267,604,-803,-1435,808,-1031,694,473,654,1092,1255,216,224,1337,1198,644,-773,-149,386,823,347,98,-824,-1120,219,-387,332,-1268,-1114,-451,-461,388,-801,382,-124,1378,-282,-431,-337,-1346,1316,-817,1340,187,1150,1481,205,-940,-814,-220,676,751,-177,-1142,-968,-456,368,-90,135,1544,647,-44,428,218,-223,231,1365,682,-608,541,258,-405,-120,-432,-25,729,2648,442,1131,165,-271,965,-1134,-141,1600,-128,-1359,535,1702,136,1034,51,58,-209,1540,996,-208,14,-642,333,414,-370,1764,-438,1352,1237,511,6,25,831,1163,752,-339,-955,317,751,1533,868,49,745,90,865,712,1024,1225,992,192,1171,-82,514,1393,541,-833,-916,-989,-1252,-529,69,-101,-244,-188,-886,-425,1541,-1072,687,1070,-115,833,413,227,357,-1020,-32,-619,117,883,-604,840,-518,-326,411,-180,-1192,-852,-100,642,-1028,329,-574,2827,243,-464,998,-731,-683,848,-258,1024,920,1065,-594,-129,1223,324,-801,-808,-814,-360,-163,936,-737,584,-910,1150,-1190,-738,537,108,519,606,-568,-582,-342,751,886,291,751,1058,172,896,286,1163,-851,201,-599,-329,163,-319,683,-1647,-511,274,-228,-430,-184,287,-1041,1214,-71,-444,18,-1701,-121,1052,-260,592,-364,-192,-390,-82,411,-1289,-1212,655,-376,-763,64,1092,1055,-590,1026,-712,665,-156,763,352,1470,112,665,1205,78,278,927,1583,-210,-124,-1237,-175,-1040,-847,-1502,-1350,126,-1075,-426,-223,-554,-1308,-50,-735,11,211,384,-1419,-1627,507,-751,408,-917,51,824,-275,855,392,-560,-133,1111,-383,1379,57,-24,1842,1256,-225,-2286,-633,122,-1420,-977,-248,68,-908,-534,657,-356,900,125,-1432,-1613,816,815,84,-926,-755,-409,646,-920,-81,-261,-877,283,-848,-348,289,464,-1712,-823,-460,1330,1034,241,93,544,2227,235,-1294,-92,-1143,195,-946};
const static uint32_t LSTM_01_weights_forget_gate_dims[4] = {1,1,48,88};
const static ConstTensor_t LSTM_01_weights_forget_gate = {&LSTM_01_weights_forget_gate_x[0],&LSTM_01_weights_forget_gate_dims[0],0};

const static Weight_t LSTM_01_biases_forget_gate_x[48] = {2106,2106,2139,2092,1941,2067,1976,2267,2131,1860,2167,1857,1825,2093,2145,1551,2223,2167,1419,2084,2043,2298,1893,2426,2492,1968,2411,1883,1877,2559,1961,2329,2218,1909,1774,2193,2099,1687,2182,2102,1872,1814,2003,2123,1929,2176,2291,1976};
const static uint32_t LSTM_01_biases_forget_gate_dims[4] = {1,1,1,48};
const static ConstTensor_t LSTM_01_biases_forget_gate = {&LSTM_01_biases_forget_gate_x[0],&LSTM_01_biases_forget_gate_dims[0],-1};

const static Weight_t __attribute__((section(".weights"))) LSTM_01_weights_output_gate_x[4224] = {-618,-1690,-406,363,922,-749,743,183,-181,-1214,385,879,-934,-617,-415,-1248,-1852,-1705,-382,-330,-222,572,258,-515,-928,713,947,421,-433,866,-610,-6,1355,-449,-889,-349,472,-840,-401,-1080,-895,1222,-1404,262,1591,-589,861,-280,463,1507,440,-343,540,-895,-762,35,932,1050,1001,293,-456,-1963,227,39,307,-690,525,1932,576,-877,296,-1375,8,-223,1280,1093,988,1413,401,-276,317,-784,-926,445,658,-148,-763,427,-1875,-793,-1242,802,-1427,-1152,-404,274,-821,-504,-978,-114,-1119,-161,-922,443,-265,-281,-1277,116,-898,-439,-207,-1380,-744,-111,-1819,-1334,-485,-187,-66,47,425,862,-772,714,-471,-941,-204,602,174,-807,-568,424,510,732,-1078,-1261,-1506,617,-134,-576,122,-512,337,585,-641,-2123,-414,362,352,545,-607,-20,477,-1024,185,906,1047,-1656,713,1092,430,-425,-679,1017,427,-87,2691,1294,2022,894,-243,857,942,-493,929,-1550,95,318,-141,244,-401,180,-502,-1404,-953,-415,803,965,484,-321,-423,-235,693,420,-991,-776,-568,-818,-932,-960,-1994,-1518,79,-1040,-1280,-827,-777,229,459,325,-1474,-1218,26,-191,-1318,-2238,68,-489,-42,-679,455,776,-358,-466,-965,281,-321,-1604,874,-1603,-651,-355,1088,-1285,-944,82,-1425,318,-282,-227,173,-305,-232,877,278,1032,562,72,-308,-1000,665,184,-105,-207,-1133,-406,201,1162,592,-758,145,63,-106,-283,1015,-82,-1259,-1450,-1180,89,-1478,-640,-27,-1246,-1315,-480,94,-445,-1247,-566,-1038,-429,588,-982,-718,-379,113,158,-804,-956,-729,-860,-623,-801,-950,7,-417,-975,-981,-12,-511,-384,-1347,-1261,-185,1839,-909,305,-672,-464,-1907,-626,99,-4,336,494,-47,-1109,-584,-1571,1858,-1261,-947,-1390,-746,-1039,-400,-1388,258,246,-435,555,1052,1143,942,-355,81,714,-353,290,-411,-1366,1622,-1477,-1454,-90,-300,-545,-280,-1399,711,388,-1371,400,-897,318,-878,-840,-1045,-533,-891,-373,517,-829,-294,-255,-1268,-1270,-1333,412,1055,1386,-458,-933,-1427,-774,-482,-1251,-488,77,-651,-125,-88,-1141,-1531,-287,-1108,172,-475,-1201,-455,-1419,510,131,-144,391,36,-1085,560,-597,-809,2242,648,-851,-6,551,-1303,355,-51,-1127,785,-596,621,-685,318,-705,675,-73,156,286,-145,1336,-251,169,-283,921,625,309,1263,-297,282,400,93,541,1196,1323,537,267,360,704,-2064,-1955,87,1799,656,1746,2023,884,1068,611,796,1273,615,778,335,18,1083,37,219,-750,-967,-1065,-774,951,-304,818,374,-217,720,377,486,246,204,-767,557,226,934,-119,1168,521,-421,-1206,-163,1402,-1827,-1144,-96,-1208,-1606,844,-788,-686,-1118,610,50,327,708,-1373,-231,-321,1332,793,-522,677,-1013,-296,-1054,639,1838,-584,-960,2091,433,95,250,897,-916,-54,-1109,260,-590,-1232,-948,-510,270,33,-144,-648,1774,1647,-75,-691,-1361,-852,-690,-551,-1473,-192,81,-577,996,-450,1276,965,880,242,-341,-815,452,-699,-1371,-795,307,-658,760,-315,-962,-878,-784,302,-578,558,1242,-100,-64,-247,-1218,-1572,1663,809,-557,218,63,-216,-236,-830,2582,-941,-423,84,429,-1009,-524,-955,-393,-645,-1182,1302,-299,-1197,836,-352,-1051,907,457,1649,689,-714,140,-109,1069,-732,503,280,98,-1208,1568,437,906,-423,331,-190,-695,1491,-1055,1425,1243,-156,-1186,275,-1541,-211,-745,-1546,-1159,504,27,122,46,676,-1119,-237,-576,349,738,719,572,-1191,432,628,-523,-574,-756,-662,199,-1094,446,-358,499,1340,-638,-529,-631,653,-812,-475,1267,290,-793,736,412,917,984,207,-1334,1346,781,775,227,-1335,-493,-266,545,521,977,-241,-166,218,2210,-164,-168,110,-539,4,215,-274,129,419,-25,1234,442,1967,592,242,635,-1094,707,1373,-557,958,-820,-405,-942,624,-175,6,-1432,-1536,-161,-536,-1366,-834,-976,-8,-449,1072,-849,-1216,-313,954,-549,-384,1489,953,-636,1069,1021,570,-310,-744,-868,-154,58,1173,-366,-586,770,1306,1602,555,1062,967,2102,1199,436,310,-491,75,-836,130,-20,134,-155,-1624,1305,13,-76,1697,-571,-948,235,-171,84,437,798,-119,-466,231,854,479,1186,1178,-472,347,48,-243,2157,-1305,1672,-755,-162,484,-386,482,-266,543,316,209,-703,741,-499,-1695,127,-869,-108,1130,1326,762,1620,1759,1107,1886,1226,330,2458,1994,2019,1154,1528,2043,520,1092,666,556,1555,268,1233,1453,690,351,1460,992,286,107,874,-411,798,249,280,176,1356,2446,-260,515,-418,-82,-1135,-597,-437,152,-377,-910,383,-219,1570,-211,-1283,1131,-601,-848,-67,-1445,-933,56,521,168,617,-1136,492,895,-141,520,273,1808,-490,-759,542,877,-220,521,-592,-458,-593,-1128,-126,-761,84,440,-371,99,-280,-932,433,233,1221,146,-772,-239,272,1318,-1008,305,478,-443,-416,-662,-563,32,355,366,-489,765,-906,620,-852,282,-523,-1192,-651,582,452,463,-383,-17,788,-166,-559,-762,993,1003,-574,-1608,-792,0,-1345,-228,-504,840,54,-497,172,-336,-961,1860,145,-588,-1245,-547,-600,-1513,-380,2011,-781,1687,260,-332,-1391,701,1239,-130,-851,-627,-1202,-327,498,-329,459,-932,-1291,162,-609,942,-768,721,347,-418,489,-1193,1574,1182,-1158,-737,-1115,-2586,-869,-372,-1170,-2140,-733,-1156,-530,-1161,-353,-423,-436,-1400,-1408,-1650,-798,-116,-913,-248,-1127,-639,-145,-917,-265,-1157,267,-456,246,-548,407,-1494,-95,-1111,-391,205,665,15,-861,1590,-523,451,1153,166,1835,1695,-41,-242,2400,-1643,277,717,-859,342,-115,524,482,422,14,160,-130,-358,-1069,719,1927,662,1008,-285,350,-1478,-1592,1244,23,-2219,575,-406,1115,269,-117,1014,-660,-1137,529,-194,-1153,461,1108,515,520,104,1713,639,-613,1082,-1,-1480,564,591,-251,-310,-391,1152,-18,936,1202,435,860,1960,577,10,1926,651,-63,465,-420,1070,-75,669,1365,389,875,1320,660,-308,-1421,-605,949,-1121,-11,1541,-1009,615,1159,-406,901,-1595,307,354,-890,-652,294,1600,-210,-294,884,-640,875,-435,425,711,1071,-510,-331,253,-1146,-1452,-1054,1702,107,-315,-390,1753,661,-909,-2392,-844,14,264,-29,590,-533,-135,119,-794,-958,518,688,1453,-428,1289,1143,686,1432,960,23,853,519,209,966,-894,589,278,1079,-634,496,-869,651,193,96,627,377,-131,-300,107,-846,-1375,-1553,-1969,-189,-1270,-1106,-2052,-64,-1311,182,1147,687,-734,613,272,1446,746,1518,110,1294,-604,-118,1139,833,798,753,-206,996,628,606,188,994,439,439,-1163,-2108,-74,-1351,887,970,2210,-24,-503,323,1104,-1249,610,-3237,-625,-419,-1378,-628,399,458,446,-511,520,377,-678,829,-308,133,1093,305,-621,538,-376,-640,-1653,-1321,-1299,-320,-1107,-904,284,23,991,-92,424,-645,-387,-418,-1079,1073,217,878,525,869,1108,-470,-107,592,887,657,428,-421,1537,514,974,673,-576,-124,179,430,941,1678,-984,-668,37,-1263,814,173,500,966,115,282,576,373,-675,668,418,-707,-678,187,-736,1144,24,189,487,-559,-1097,1040,-804,32,196,1462,-322,-1652,-881,354,992,-502,1665,-1696,-402,-869,-837,-617,-465,616,325,-580,-605,-452,470,398,668,851,336,99,663,-378,1161,108,504,21,1058,68,-566,-55,486,896,986,-298,447,-547,-63,-138,155,-455,-1074,-1109,-130,98,405,-881,-2806,-446,32,85,-1247,517,1831,1749,840,1335,148,-394,-1,-234,681,308,-534,-879,-1268,1043,-3496,124,1415,1454,-356,73,-1296,-2444,-15,-251,-1448,-442,525,1058,-104,-712,-455,-727,90,1265,-882,490,2293,-534,-535,1226,-1289,-1203,358,-107,970,614,1033,-1035,-658,-720,-1023,591,488,-474,-850,457,-762,628,-979,516,341,-226,208,-149,-392,13,321,383,949,-419,-231,-501,1415,1123,5,-107,580,697,-1133,375,-681,-266,2079,-864,-893,157,-403,692,61,457,605,-1540,1644,197,21,445,-446,-1043,831,-397,795,80,64,-89,-1177,-358,-336,498,261,1020,563,-1983,1317,1942,-1033,-1206,-1811,-581,-217,-255,-424,-519,238,-448,-749,792,-1463,-91,-495,-240,117,-1871,-1133,-1860,-1912,-1864,-1950,95,1276,863,-149,1277,1122,-467,-254,-461,877,-804,-25,-1830,-1995,-1978,-97,-1472,108,-386,-151,-1553,-1426,-754,820,-560,-324,621,-739,-1434,-836,82,-253,622,677,-144,-239,-139,-413,-1275,-264,275,-1243,-631,356,-935,130,224,-212,544,243,-1257,41,-318,-1487,736,1520,-677,644,-982,136,498,192,-505,-958,-1033,528,-1046,1237,794,195,-730,648,-962,-654,-317,428,-73,-242,-472,-995,-1013,-1229,-1097,-466,-690,-1440,-234,935,411,555,-245,-148,-1262,-568,-330,-865,342,752,441,465,110,-28,161,-216,-1357,-334,-854,-394,589,436,-33,1443,1789,972,1545,2020,1887,1421,1046,631,-486,-2776,556,-212,-136,-434,-648,552,-156,-1210,1253,23,-662,873,1529,-754,-48,522,498,1069,618,-436,833,1472,1442,-19,1119,-606,-1043,-825,63,411,754,307,637,-500,-1118,210,-1727,934,-276,13,-375,838,-619,1064,-639,462,-839,224,-323,-1877,-1543,-1697,-1653,-925,-1010,433,-216,734,-1097,-1407,-1147,-261,74,-365,-16,-1650,-1761,-227,-2104,-1207,342,83,-608,-1474,-201,655,433,-278,-15,-1247,-79,-766,-1244,-387,-175,-297,791,49,-234,-527,448,158,-31,626,-151,111,453,-657,-589,34,163,29,-104,-183,471,718,-974,1111,-46,127,209,1417,-7,-684,924,-15,-499,-79,207,-1643,-130,-779,778,-2564,-300,964,245,703,-620,-1581,-856,567,1820,926,371,1116,827,-340,425,-739,-1094,-256,-357,-472,161,96,337,928,1313,-373,-661,-327,100,-1239,-1002,-447,-425,-193,318,791,525,801,-640,-1084,982,-499,-105,24,83,-1285,518,-1611,1270,486,-2152,206,-1366,491,-231,-29,-1033,1022,-1173,849,-1031,-1088,28,1525,91,579,288,-192,-527,59,-127,377,552,1068,798,-212,-1001,-1133,285,246,-116,-701,-23,166,123,-1383,289,-643,-657,-131,93,-884,799,355,299,1140,-1207,-92,354,-725,-801,242,97,733,-1389,100,-1108,-794,665,-214,266,357,357,-1378,-949,-1179,-1431,-2219,-1090,-648,-849,-1097,-2068,-1083,-1893,-157,-835,-615,-69,141,-1022,417,65,42,-828,-795,498,-372,-912,-902,-219,1166,-475,-776,527,-311,910,312,-1731,288,612,730,1133,-1045,763,-500,1504,-192,-347,-1493,465,-24,-221,-569,-1316,1124,-654,-1179,-452,-1401,250,-15,-671,445,-208,-1160,-294,-448,293,-740,-510,362,-1478,530,1529,-760,160,539,-796,4,-1439,250,47,-595,-167,911,545,-199,-265,313,-88,223,-729,-514,-138,-1259,-1337,-379,-623,436,-786,989,769,-886,-723,-362,76,357,1866,981,1629,332,2004,1988,-9,-884,-689,-164,247,-979,425,-1870,-892,-910,932,593,-298,-1383,-1028,-677,141,797,-2037,-1250,-451,172,-1272,-708,612,589,1537,-353,586,-1222,319,-2070,-123,-1012,163,555,-299,-1082,-1206,-297,284,-118,-354,-791,-1206,1793,-465,294,-90,-758,506,193,1315,1544,1123,-788,-256,-1376,-1322,-1164,-720,-758,-1514,-1286,241,-1639,-157,-498,-829,-336,514,-258,-848,-1230,-1441,-434,184,-462,-778,-957,217,305,-1254,330,-12,-633,-1454,-1765,-1945,-564,-869,275,-1084,-820,-539,-673,-78,-1095,-1550,41,805,-654,299,-1065,320,1377,312,681,-1018,177,1393,181,-154,-419,-92,-36,-234,227,928,1101,473,122,-554,-620,351,-1568,1953,473,927,-767,-912,-257,-663,-2185,514,-442,1738,1274,-248,-1927,-1099,-952,-1299,-1827,-590,-464,-1288,495,-739,-1203,342,-150,-729,557,-884,-284,191,-513,-700,37,-1366,54,-722,-773,-654,557,-1247,-1697,-1613,-222,-1626,-349,-289,1,173,-503,-1543,934,1836,1151,221,880,122,1738,-741,561,-72,860,926,491,18,-387,147,-7,541,-1253,17,-558,137,540,232,316,1053,701,1334,596,227,972,-717,-387,-265,292,251,-1246,539,2368,1584,-163,567,-41,-520,-306,-485,-63,-919,-312,1258,514,-1210,-700,794,589,-1097,-1080,-1080,231,-938,-524,-174,517,190,-336,-583,-283,342,-131,-1076,-163,-692,-922,31,-1471,-226,-1487,-1446,-1175,-1083,-1748,-388,-1596,-664,-1646,-2094,-913,536,1147,-1349,-351,-820,448,77,-882,-637,784,400,60,-15,131,-478,324,-315,723,-350,-691,631,-39,1255,-1276,169,158,-30,750,2,1609,-1056,-688,339,1535,-18,-1202,-1338,1084,664,656,748,766,-807,-733,-170,-576,-335,1043,-538,1309,-112,-758,-1523,-1304,149,-620,-1340,-817,-1059,-544,-1137,-188,-963,137,601,-1477,585,863,-1026,-1234,-1237,-1432,-249,-795,-1468,-721,168,-958,-54,-290,323,-921,-945,-907,-64,181,-335,-832,157,1077,-677,409,-877,334,727,-567,-2046,-657,-188,-1762,-595,855,-1592,810,1197,-1024,-253,493,32,-92,-82,-637,50,-885,-586,-458,698,-847,-197,-612,-496,274,-349,-684,219,1752,355,-624,-752,446,1308,-437,-543,-270,780,-854,-1721,-456,1037,-35,-558,-1142,474,-829,709,-455,-517,298,-366,954,895,591,1060,-982,325,-338,361,-640,611,-424,72,209,570,-33,-32,441,569,872,-77,989,-1221,-85,-1738,140,-1194,-497,510,-103,-627,-2160,419,-194,916,45,2112,318,1643,2258,-481,-592,-1904,784,1362,1160,289,643,373,-444,-178,855,381,1099,-724,238,-241,-365,-1254,-694,116,1055,-166,321,596,-803,1635,-322,1348,-226,316,262,-1068,210,302,-484,40,-2109,81,714,705,308,1266,158,1085,228,1289,320,637,1461,742,1205,978,647,2138,361,206,829,426,1968,638,-143,1329,1318,983,159,1917,362,529,551,1142,766,301,1021,1742,2423,1124,-515,949,305,-696,114,-356,72,-1724,171,934,-855,664,-386,-56,-996,139,368,-2042,-1094,330,1151,-1918,355,-962,-2029,-1812,744,-33,1459,-104,866,-1868,-156,1807,390,-9,869,305,2878,-980,-1566,114,-567,465,123,113,823,112,978,830,-107,-155,-1085,-844,394,-864,385,846,141,-613,161,1294,178,953,410,-383,-1458,-68,-1446,-1917,-560,-870,-1846,-561,-41,-1796,-1460,-1480,-366,-1333,-1572,-961,-2028,-1101,-1696,-942,-1361,613,924,1478,292,-1112,1134,1134,-1043,-366,232,985,-162,-1079,-177,757,300,50,-711,-850,358,168,-588,1562,-464,1549,38,-1165,399,552,559,211,-462,-186,123,-960,-744,-413,-1296,-787,-39,-1106,-404,-170,-120,111,-2224,-622,345,174,1670,283,-189,543,124,325,306,542,1349,584,-175,-381,834,36,1026,1328,1371,1151,116,871,-579,-181,308,-495,998,-441,827,-284,895,-1139,440,-116,-766,-1029,496,3,-1133,-122,-251,263,335,756,-145,-122,-920,-1324,-880,663,-1643,-24,186,-339,117,-28,166,642,-265,841,-1052,-542,587,495,-473,-286,-979,-1599,-201,-111,-968,348,-1590,19,1180,296,363,-2671,-808,-477,95,-1219,-493,-62,-254,1,-541,-352,288,-1191,-1702,-349,507,991,679,-985,361,-888,-145,159,1730,908,790,609,-465,-697,-473,-32,-501,-604,-268,-1212,-597,-1323,-1066,-954,202,-1156,-1403,-751,604,13,-170,-136,-15,-613,-260,119,940,974,1267,8,60,-542,-285,540,717,-375,62,453,-793,184,570,418,762,389,-1491,538,-292,60,847,-1072,-197,-1016,607,-245,-1209,-1006,632,-830,-1136,723,1460,-125,-659,-654,-847,1132,116,-522,-1680,-78,-122,401,-1332,-201,-203,-995,197,790,-435,-1110,-373,613,-534,-876,-1976,-1227,275,-319,-1180,-341,-1434,-1487,-1000,-1218,965,1313,898,105,-1041,-1574,3,-200,257,-25,-706,655,-616,92,-1423,-125,33,186,-1636,-1051,-881,-699,-460,-1361,631,730,474,-1022,-808,-964,1759,247,-74,286,-460,-724,271,878,-402,-893,-499,-2555,336,154,764,877,1326,-383,-117,775,-123,-998,-423,561,-638,1512,97,-136,273,-487,-724,-510,-951,1610,-514,-686,-317,-523,-62,-3228,-806,228,-511,-101,434,492,580,858,1142,1057,-1070,1347,880,-265,758,-37,-211,-1140,-1417,-756,670,87,-318,-51,749,-1045,405,512,-359,134,585,-277,-463,1008,358,165,1490,1220,1734,1076,-850,-281,-234,-2177,589,-769,55,-2840,-68,-370,-1562,-1010,-744,-2662,-612,-685,-1690,-1406,-1522,223,1190,-448,-273,-753,204,-804,-1164,1371,-379,417,-310,-384,-1814,2566,-1197,812,-124,-905,762,-1650,-436,-948,851,716,428,597,-2197,1197,122,-1532,-1023,-962,-1723,-571,-298,-36,-1117,-24,-626,40,-1554,-643,-1385,-907,41,-1028,-224,-1149,-1649,-1455,-66,-1706,-1518,38,-1035,-232,225,-815,588,159,913,1969,1645,1710,1596,807,2279,364,619,-269,-2259,955,460,65,-31,-281,555,317,1295,-1515,-965,-647,793,-1520,1299,-1064,-403,742,928,148,-2082,563,-494,7,-526,1306,101,-545,-260,1183,152,556,958,-107,162,-1388,-300,-579,-752,1032,628,-500,1560,401,-934,-1540,-829,-275,-199,914,78,-692,1052,-720,-435,-1411,208,-146,-1744,-872,-359,-1307,-787,-1034,-917,-1236,365,1021,461,-1128,-228,-1063,323,-1583,23,-112,993,852,-506,-779,-557,301,-1736,-1204,-1769,1241,-338,-1826,256,291,104,-544,-1837,-256,-268,866,-804,184,-983,4,497,1007,181,2341,-504,-1679,286,1224,138,-648,481,1456,-244,44,-287,1327,-680,470,750,-725,-702,455,627,-849,-568,-2222,-52,528,-805,-99,598,-420,196,1665,1587,1615,70,-1089,-920,-151,-1521,-46,324,-1491,82,181,688,-80,464,237,531,401,-1848,-1646,-1249,-1293,-239,-548,-306,-1523,-1273,-1272,-1511,-1513,-677,-293,-188,-725,79,-233,-1512,-1530,-2243,2018,152,-424,844,-308,-1901,-2536,-1419,390,-138,-422,-1107,-332,-946,-270,1409,1661,-405,1709,-1862,-983,-129,1103,-2128,1576,6,84,-564,-303,-595,-717,-809,465,115,-121,-1034,388,658,-1293,-333,-747,-270,-578,-561,-1219,-949,85,-610,798,1748,-68,610,212,-69,611,862,-656,905,-310,-303,-849,816,951,491,-719,1048,286,173,-58,1268,355,-789,-484,-555,-429,-456,576,1071,751,1270,514,154,1408,-144,935,1989,24,1164,-75,-403,206,433,753,-1117,-666,-873,-756,900,-589,-40,1500,-846,-98,-149,-110,-828,-1018,813,364,-97,-116,246,-1275,1113,-429,1476,1103,296,1700,-998,-1347,-431,376,-1078,-908,-447,-805,442,172,493,-429,-426,1414,-1323,1288,-1394,-403,-474,527,1028,-185,394,-541,1480,-518,-1357,-518,-450,-1368,-1200,-381,-796,-775,-583,-152,250,-793,1081,-192,-1135,-314,-651,631,-566,984,54,-1467,257,-641,-1063,-1405,-1171,-738,-1274,-942,-2393,1564,805,-15,-1157,1852,315,918,708,-750,2159,-232,921,1509,-2482,1140,-735,-23,360,1574,359,-1029,-1633,260,245,413,-752,-348,640,130,-895,31,1107,1385,-423,-917,155,-55,95,400,311,-652,-110,594,846,-662,-131,495,730,-2517,-1132,852,-1120,564,97,-807,-599,-526,-1532,-715,1393,188,-571,668,-253,889,-226,81,377,348,-115,-1173,-68,43,198,-1185,-1339,-629,479,297,689,-235,98,99,-243,-154,672,377,-69,-1238,70,680,-200,-14,-123,1635,178,-673,-1458,695,540,-972,237,1049,1633,891,-1083,-65,676,135,1205,-258,-163,-1185,766,-1152,217,341,845,569,-761,-376,800,350,-586,777,635,588,-290,-957,-15,652,1790,16,360,-152,-1316,-425,-544,-1139,879,22,417,800,716,1408,674,1252,1578,156,284,1568,1306,1733,-226,220,266,110,228,29,327,1809,739,1109,462,852,290,1079,63,1148,-135,-222,1569,413,-48,208,-120,857,-1373,-70,644,-948,-952,1941,-533,368,-565,-1398,2070,-11,263,-479,-2604,-512,-1273,744,1306,1510,1118,-1586,-182,1260,194,64,234,-92,-654,1055,890,353,593,-135,-1296,-852,1962,474,261,-63,-997,-123,-738,2495,877,-863,-303,1559,376,541,563,1296,1043,745,1198,-80,342,714,1249,-145,-172,-365,1573,1379,1023,-18,615,-627,186,746,358,708,301,910,-864,497,1126,-950,-1081,-464,483,909,851,790,353,825,1763,-219,121,-1268,-987,110,-168,-375,356,-1393,-805,1019,10,904,-1016,-320,-559,508,-1042,-714,90,213,-169,281,-63,-399,1490,706,126,-745,-1333,-1685,169,-1070,-532,1145,-329,207,600,-938,-1451,-1175,-1868,-220,638,266,2532,-579,-723,247,-678,-543,-169,-663,-685,-1351,-145,-1782,-2045,-1775,309,-283,-1441,-241,-118,-1115,-1267,-1145,-424,-848,-622,647,-540,408,534,-1206,-187,-807,-982,-29,287,346,-287,-341,-846,-863,-593,155,-1276,-89,288,-160,448,-713,441,-542,-2091,-645,1084,381,112,1087,-73,-2312,1128,-520,-1404,154,-47,417,-1837,200,-818,629,489,-844,776,-747,133,-141,1577,-48,1480,-255,-429,405,571,-1104,1396,-897,501,-897,1063,40,-1152,423,1298,-352,-318,-180,-1201,-882,-1126,-1681,-410,-1761,-1543,-1848,-259,-1361,-1205,-1144,-1400,-1493,-303,-204,-891,1036,-168,-306,-119,-1733,-17,-711,144,-699,262,767,-417,-525,998,-627,-595,1387,1446,-525,343,277,1355,-335,625,285,-102,312,-1930,738,835,98,-1144,-520,260,-106,-643,1164,-591,-936,-1228,107,1094,242,1066,-254,-740,-255,-640,-1008,1400,327,952,380,-134,-402,-661,-1365,343,-221,611,-664,-34,-631,350,-559,-316,584,-568,429,-323,-747,-1970,-1732,-281,-244,461,-1195,0,-325,-14,1253,1069,-549,177,1113,-832,386,283,-1108,81,-138,-837,-1674,-1280,-317,-357,-1554,-1479,280,185,-1307,-217,-520,702,727,-506,-865,-564,-401,1076,528,-742,-600,801,1110,-1378,371,-638,-684,2,-144,-654,449,-432,-1036,-1240,839,826,412,308,-662,205,473,1161,191,-318,-142,-237,-441,218,-436,389,1068,167,267,1592,-311,341,1424,703,151,-188,-876,614,518,-455,1023,1356,315,263,-643,-607,-1226,-586,-603,-1024,-484,-505,-1469,-556,-72,-406,-3,13,-551,524,-1114,-126,254,-1553,-882,-681,-649,-700,377,-1569,-915,-401,-1189,-1155,-1261,-1693,-15,-1505,-1593,-2896,1513,-1096,-228,130,-1519,-162,-163,-1356,314,-880,-1293,-554,665,551,-283,497,748,-550,207,-1058,-2362,-513,-72,-309,1275,-356,-465,-843,779,658,1008,-619,-408,550,854,-1036,-955,-2013,653,-820,-584,-908,-1399,-366,535,171,1056,-569,-587,-680,-953,-661,-1063,-736,-105,-1169,296,-283,-1676,-1391,-115,-270,-1030,65,-804,-1529,-1055,-479,-770,44,461,-910,-153,10,-1511,-1011,-634,731,-726,-384,234,397,-739,-1623,-1312,-763,-330,-1148,-405,-807,-1374,-549,276,-1532,483,-613,2068,-669,76,-1356,-963,482,767,311,1291,-147,-597,-1122,-539,-184,1015,-1728,106,1317,585,-398,232,-1266,1399,-575,-223,-446,689,-921,-1083,580,537,-1155,-102,-4,476,276,-302,-1464,417,613,-874,-223,-215,996,439,348,-798,767,-334,-1315,451,-304,3,-586,-303,280,-632,1124,1314,-30,-352,1464,678,-541,-552,-804,-499,53,-481,1069,1160,-524,896,871,-53,1823,1783,-145,-315,706,980,852,-391,799,-245,-146,210,-931,-3044,-786,-634,218,353,-1381,-2441,-220,-2194,-545,-608,920,-206,1460,-1545,-312,517,268,-740,1110,3174,-417,-1113,1841,-1596,-2113,1523,394,-1545,-635,-189,1414,557,677,170,1953,589,438,389,-738};
const static uint32_t LSTM_01_weights_output_gate_dims[4] = {1,1,48,88};
const static ConstTensor_t LSTM_01_weights_output_gate = {&LSTM_01_weights_output_gate_x[0],&LSTM_01_weights_output_gate_dims[0],0};

const static Weight_t LSTM_01_biases_output_gate_x[48] = {-858,-598,432,-66,-638,584,-317,555,489,646,767,-115,136,-361,-300,-1620,612,148,-731,199,144,-605,-138,207,-588,-746,544,-434,1986,38,980,498,30,733,-603,-655,-534,1488,-658,113,526,-38,-195,577,-468,626,205,759};
const static uint32_t LSTM_01_biases_output_gate_dims[4] = {1,1,1,48};
const static ConstTensor_t LSTM_01_biases_output_gate = {&LSTM_01_biases_output_gate_x[0],&LSTM_01_biases_output_gate_dims[0],1};

const static LstmLayer_t lstm_01 = {&LSTM_01_weights_input_gate,&LSTM_01_biases_input_gate,&LSTM_01_weights_cell,&LSTM_01_biases_cell,&LSTM_01_weights_forget_gate,&LSTM_01_biases_forget_gate,&LSTM_01_weights_output_gate,&LSTM_01_biases_output_gate,LSTM_01_output_dims,LSTM_01_input_dims,TOFIX(0.000000),tinytensor_tanh};


const static uint32_t LSTM_02_input_dims[4] = {1,1,1,48};
const static uint32_t LSTM_02_output_dims[4] = {1,1,1,48};
